,Company,RCRP,"RCRP, no extended terms",HRP,IVP,LW,OAS,dateThru
0,WTS,-6.880886420361067e-08,0.0005258873889538615,0.00027913043701772034,0.0005608036505084795,0.0005164881497271092,0.002817386017026679,2021-08-01
1,OC,-8.375324761494446e-09,0.00016539656789511437,0.00013135658163304656,0.0002858367157109172,0.0012353144098217251,0.0006952363164746252,2021-08-01
2,SWK,-3.507825680778449e-08,0.0002659712447467643,0.00015659792137792062,0.00045964887929337347,-0.0016663346099188056,-0.0008016338238328242,2021-08-01
3,JBL,3.4323472100851296e-07,2.6396959671373658e-05,7.63412817323718e-05,0.00031225575627824706,-0.0017664772222793165,-0.0014324495335589812,2021-08-01
4,VSH,2.672804242267183e-07,2.496098560475773e-05,0.00015587894765775037,0.00029526928610329857,-0.0003919879590675406,-0.0011501899834321892,2021-08-01
5,APH,-3.933831822856718e-06,5.5132817381898914e-05,0.0002774983908071781,0.0006420083300747841,0.0017842796940379445,0.0037062927085869083,2021-08-01
6,GLW,-1.3716945506788957e-07,3.412107452711927e-05,0.00015042220226858585,0.00039733166411164096,0.0010879388121417966,0.0015153381350190831,2021-08-01
7,ALV,-2.672300605486844e-07,8.038254029350543e-05,8.791324146888355e-05,0.00029856492521193086,-3.491415923806277e-05,-0.00017228295134766075,2021-08-01
8,BHE,-2.394083784066755e-07,7.939855639047258e-05,9.662527343436965e-05,0.0002949101131178363,0.0018790209276069694,0.0037097110841352522,2021-08-01
9,BDJ,-2.130307870544582e-05,0.000289172037539979,0.0007410460668340699,0.0011608691526772453,-0.0015129461931960113,-0.0017458459565479335,2021-08-01
10,UBS,1.106244726210647e-07,0.00011160289428704575,0.000315274238610939,0.0004480251909191577,-0.0003699415418740761,-0.0015125897891463322,2021-08-01
11,CRH,4.5447073723181184e-07,0.00015490104902664216,0.00011465432151593431,0.0003982315346524628,-0.001819819168227918,-0.0034008059541962028,2021-08-01
12,BYD,9.48031662963042e-07,3.3234261250361595e-05,9.568072173152549e-05,0.0001410546292913363,-0.0009438590675160515,-0.0008143675293081025,2021-08-01
13,APTV,1.1348277665627692e-06,3.3588563186967186e-05,9.434636085750238e-05,0.00023344494616842442,-0.004033456531859121,-0.005182815168859195,2021-08-01
14,RMT,-8.357227126462784e-06,9.470136945543512e-05,0.001447258602209961,0.0006581870135837826,-0.0012175469334414974,-0.002210132649561028,2021-08-01
15,DCO,2.499431800246376e-07,6.686862782083598e-05,5.7652427357495e-05,0.00017596104279140877,-0.003656175935475381,-0.004338857626672099,2021-08-01
16,ATI,5.686347147206557e-09,8.931053474020401e-06,5.644305032036232e-05,0.00010825185522651986,-0.001679226673727719,-0.0015597585510427087,2021-08-01
17,HPE,-1.3307815849954466e-07,2.659996562535052e-05,0.00015801384739628208,0.00032241388278348484,0.0031765982587593994,0.002561266589510454,2021-08-01
18,GATX,-1.2549042404474867e-07,2.401129771668812e-05,0.00014574844391131275,0.00032665458394273006,0.0008712974340198637,0.00042129059698017883,2021-08-01
19,TRN,-5.550778031254508e-09,1.4562313164168192e-05,5.558535016426207e-05,0.00019810867384227384,0.0028598714506840005,0.0051242181048413715,2021-08-01
20,GVA,-1.7966435875412238e-09,2.130066995875056e-05,6.125998762711142e-05,0.0001618067727708968,0.0014895115249563332,0.001426483766638986,2021-08-01
21,MTZ,-4.469053965753516e-09,2.8270158736547492e-05,6.970132831162841e-05,0.00021474926186547218,-0.0012873513145770625,0.00021442625652050464,2021-08-01
22,BEN,-1.8305900047650622e-08,2.942264918163719e-05,0.00011769302055248455,0.00022845911666150045,-0.000936455596089834,-0.0015831784962126992,2021-08-01
23,IVZ,-8.686159367828308e-09,2.38655849464699e-05,6.313331454031852e-05,0.00018530997741982147,-0.0022665981343396083,-0.0029159693332468407,2021-08-01
24,FIX,-4.767960106585339e-08,3.5599563548904566e-05,9.271713118074324e-05,0.0002589764108751601,0.00027202985296308115,0.0010504533604455198,2021-08-01
25,KOP,-9.93716773900808e-09,2.080648603924631e-05,5.351679775217795e-05,0.0001513610994125219,-0.004477642421067731,-0.007046757931685087,2021-08-01
26,MTW,7.674110074091575e-10,1.256879602914947e-05,5.255096147209122e-05,9.274377151197014e-05,0.0005417284315434474,-0.0003279481667553244,2021-08-01
27,WNC,3.26198835297005e-08,2.6714867702874056e-05,7.349422869516151e-05,0.00019712608753151377,0.0015666802465791974,0.0013696303136275397,2021-08-01
28,ADNT,7.92378590571282e-09,1.2263518426816797e-05,3.0205781479148476e-05,8.943405695632941e-05,0.00016452481507684135,0.00065944189315765,2021-08-01
29,BWA,-7.131909775215803e-08,3.6353039221763724e-05,8.537651371177978e-05,0.00026511150121366904,0.0012156651572276193,0.0013104317851233903,2021-08-01
30,JBT,-6.110491314402687e-09,2.22706174648356e-05,5.925015795365608e-05,0.00016692168083274678,-0.001078804135173566,-0.0014633039700432365,2021-08-01
31,KFY,-1.4557082073607708e-08,2.9752117352309865e-05,0.00011339741079174059,0.0002229966656569913,-0.003416948536089711,-0.0032625018499405204,2021-08-01
32,KBR,-1.3364871789453425e-07,7.049897681016792e-05,0.00011953236700668022,0.00032060949900082603,-0.0021915472078873604,-0.0023917115292934653,2021-08-01
33,CF,-8.486053970154493e-09,5.0778671467435e-05,8.50140138095634e-05,0.00023092710214701767,-0.0015395723311092118,-0.0017286882778452862,2021-08-01
34,WWW,5.078793002106959e-08,4.008324594105437e-05,6.445193789463436e-05,0.00018228731792934122,0.0038662515661477184,0.004686741017920662,2021-08-01
35,GEF,9.766151450892997e-08,8.24619305671658e-05,0.00016071449336977356,0.0002792028636128286,0.00292480648715505,0.004575432495319854,2021-08-01
36,IP,-4.3215536546056685e-07,7.564932097574592e-05,0.00014743703198267542,0.00043293579067304224,-0.0014220085100098692,-0.0020151729334124424,2021-08-01
37,SON,-1.7810797095429157e-06,0.00011085912806462313,0.00021605931949178592,0.0006344390622801411,-7.174683994046776e-05,0.0013595889766934589,2021-08-01
38,NGVT,-3.871946025695415e-08,1.6226723553400487e-05,9.643155595810792e-05,0.00021896126772284828,0.002387972471617479,0.0040842045654686954,2021-08-01
39,OEC,-1.392491009054422e-08,1.1969631354083255e-05,4.47736681485667e-05,0.00016151662699128116,-6.103770173436035e-05,0.0009690765739812525,2021-08-01
40,R,-4.908648569128627e-08,2.81075037533574e-05,9.555621281387539e-05,0.00022583719923819438,-0.002608282528721,-0.005025910108523653,2021-08-01
41,OLN,3.32886986259586e-08,2.7046297804368288e-05,4.807066668240755e-05,0.00012989976121648573,0.0006344803751092552,0.0014644525222851585,2021-08-01
42,MTRN,-9.282957423815081e-08,3.5103968246994794e-05,9.055310349243765e-05,0.0002811858690726156,0.0005138930757180935,0.0006409755779649002,2021-08-01
43,ATKR,-1.1540681467156749e-08,1.1077524869891388e-05,7.830908198179781e-05,0.0001432251018846456,-0.0026532661694836064,-0.002591208313698677,2021-08-01
44,CMC,-2.511165718280835e-08,1.4770488007695725e-05,5.293911661659214e-05,0.00019097268339591622,-0.0027594851671139085,-0.004448802962260915,2021-08-01
45,EVR,-6.577792684020788e-08,0.00013971429472205144,7.51311636597487e-05,0.00025182546716046993,-0.00034822008981636674,0.0010159335139078894,2021-08-01
46,MHK,-3.830759372440956e-08,0.0001097097669671033,5.121758091751435e-05,0.00019774435660660102,-0.0012447203496629045,-0.0033832409587765794,2021-08-01
47,AZZ,1.1854736227718219e-06,0.00011822839504669022,0.00014244366718103586,0.0002584329755413537,0.0002785207070257774,1.3559791434183982e-05,2021-08-01
48,CIR,8.590750546088496e-08,4.903350744574573e-05,3.837239193565497e-05,0.00010718131820557044,-0.0038195787937034716,-0.004345868017854844,2021-08-01
49,BY,5.027446303058119e-07,5.4731824296771385e-05,7.240933910376631e-05,0.0002214031233193428,0.0025866243136550364,0.0017508942354380718,2021-08-01
50,BTO,4.769391663317701e-07,3.2885872673950844e-05,0.00011873226320838648,0.00022776056888974721,-0.004467276345515588,-0.004194061170133692,2021-08-01
51,BHLB,8.615973937782785e-08,1.262486680871738e-05,6.989896830992992e-05,0.00014948891432718772,0.0011107205537863782,0.00077388768756188,2021-08-01
52,CUBI,5.7306480724942007e-08,1.12318888412314e-05,3.1805950901457935e-05,0.0001329948976222046,-0.004798610317901501,-0.007312063409106293,2021-08-01
53,ENVA,1.743976336816363e-08,5.564439473943819e-05,4.9713589317997806e-05,0.0001313156094963512,0.0008494351954010287,0.000541639749099377,2021-08-01
54,CB,-6.752073854187329e-07,5.969867760163506e-05,0.00014173666521919388,0.0004008725928256546,0.0015110334096790983,0.0034013986202380444,2021-08-01
55,GD,-4.608281325634956e-06,0.00010447669529909351,0.0003315849389140318,0.0007015539609416141,0.0030344628098285587,0.006420453289840518,2021-08-01
56,MDU,-6.87427205090465e-07,6.748163932370746e-05,0.00017468605355315265,0.000461183312948565,0.004230494564298246,0.005546260274145941,2021-08-01
57,UHS,-2.3049330361613225e-07,4.807477044561733e-05,0.00012444854643103295,0.0003285528052600583,-0.002780913626992855,-0.002920020303897202,2021-08-01
58,AIN,4.847617340696027e-07,0.00010809074393070288,8.732197615921932e-05,0.00025303685023112145,0.0028574885127083983,0.0037634236742391577,2021-08-01
59,CBZ,-2.8853647866128113e-06,0.00014474214560842726,0.00016867517337942255,0.0005666109120695391,0.0014641188579308498,0.0017863825755120013,2021-08-01
60,EBF,-1.8578426510057095e-06,0.00012470327764123245,0.00020965009709947156,0.0004881663014275906,0.0008691188857482269,-0.0007180998273221527,2021-08-01
61,HNI,3.4830524516402685e-07,5.716232215721488e-05,5.800763497758579e-05,0.00024159455055940214,-0.00042694095949882024,-0.002287136319931903,2021-08-01
62,SCS,9.399087517683767e-08,4.4775432899430737e-05,4.543756918149862e-05,0.00018924179737990718,0.0025912961909876787,0.0025481523658859163,2021-08-01
63,AGO,-4.224099263074347e-08,4.97466951472899e-05,0.00010255929042170964,0.0002066430695640116,0.0013061028836473256,0.0017301532884016256,2021-08-01
64,RGA,-5.3995864500133256e-08,5.382882816359816e-05,7.113130148221919e-05,0.00022359986426888543,-0.003057328574024553,-0.0051706238217789765,2021-08-01
65,KW,-5.146909840887461e-07,9.313983572505238e-05,0.00011183339428700714,0.00040443940099937914,0.000884885504871586,0.000113204957398083,2021-08-01
66,AAT,-3.096106609145736e-08,1.0268247167303091e-05,6.671306574246663e-05,0.00025145802685736906,0.0001724731421533831,-0.0009697616016959716,2021-08-01
67,UBA,-1.9358579838542706e-08,9.265715319665517e-06,0.00011967779588297229,0.0002269071296924318,9.687608351643003e-05,0.0004419807292656314,2021-08-01
68,WSR,-1.2036164992754165e-08,1.4920707826981723e-05,5.453998016934853e-05,0.00020557465985998543,-0.0016260569589617133,-0.00337218663056898,2021-08-01
69,ALEX,-3.2534398013556034e-08,3.1128914467453304e-05,0.00011087236522892179,0.00024071726090594108,-0.004537411004567851,-0.00784024795664725,2021-08-01
70,FL,-8.933133444931877e-08,5.236456063389258e-05,8.521469302927401e-05,0.00017291922258493936,0.0005066564301078681,0.001421563264859231,2021-08-01
71,GCO,9.890688107438162e-09,2.1652553067937323e-05,1.9934555789157433e-05,7.150146202245603e-05,-0.004585485277635,-0.00446666217815004,2021-08-01
72,PVH,8.767204331453359e-08,4.057285774100371e-05,3.474240039896108e-05,0.00012696987846846697,-0.0017575672759897265,-0.0025336019205017984,2021-08-01
73,TJX,-7.853867151335128e-07,0.00013022267887867527,0.00023166831272711564,0.0004075226304395527,0.0014047807158264587,0.002052501566560225,2021-08-01
74,HEI,-2.384932457091085e-07,6.002771603158577e-05,0.00018841059136209899,0.00036798637007499365,0.003914308665185358,0.004694607649354522,2021-08-01
75,TDG,-8.455938437251102e-08,4.846859404746425e-05,0.00010479319885515837,0.0002971257806440589,0.007557585453520678,0.0119949055497426,2021-08-01
76,HHC,-1.6786073970627802e-07,8.716004434642178e-05,0.00012804790785287792,0.0003007833011735261,-0.001234268876685233,-0.00014637355681650568,2021-08-01
77,AER,4.676803251360065e-08,1.9013452210718902e-05,5.846182888295738e-05,0.0001226004668187711,0.0014752944138549011,0.0038206526529754765,2021-08-01
78,ALK,2.1239261796258295e-10,5.172328794952977e-06,8.544820897613043e-05,0.00017495918077026427,0.0012657885294819317,0.0013320455240790525,2021-08-01
79,APLE,5.408762712420547e-10,6.505959857962886e-06,6.509693700926902e-05,0.00022007058174339437,0.0015983620855633436,0.0022272301688228964,2021-08-01
80,SIX,-2.931770421383375e-11,5.756211122588687e-06,3.3695490025084334e-05,0.00011202272381234199,-0.0012171253788634654,-0.002446668322155649,2021-08-01
81,HGV,4.599576554940975e-09,6.127395185977733e-06,8.771518065153814e-05,0.00021285665637714205,-0.0001595880573338689,0.0011520910149430271,2021-08-01
82,VAC,2.183345504034549e-09,5.243594178231479e-06,4.577005419714058e-05,0.00018215471506248244,-0.0008135910540137049,0.0012236511869875722,2021-08-01
83,CHH,-6.429749801873023e-07,2.2147282429684132e-05,0.00011114969557421626,0.0004317878003270305,0.00040184387139897623,-0.0009240822485375612,2021-08-01
84,PFGC,5.5905488021897866e-08,1.1349673656600498e-05,3.752799133856508e-05,0.00013182280516144536,-0.0002530530277970232,-0.0015822664549611741,2021-08-01
85,SYY,-2.8767273783622725e-07,2.6799766582263076e-05,0.00013261008905794629,0.0003112706598829241,-0.0012274446867944898,-0.0019278199534090753,2021-08-01
86,ARMK,-8.916262050765321e-08,3.403566249581821e-05,6.517219086802682e-05,0.00022892728100562716,0.0034971140046158654,0.004603088112642631,2021-08-01
87,NCR,8.552148196988952e-08,8.741257117099128e-05,5.498699649571106e-05,0.00016592672939309082,-0.0010924295559874503,-0.00116760968122383,2021-08-01
88,XRX,2.1435256478165356e-07,0.00012178206110704074,7.660717077220117e-05,0.0002311669686355897,0.0010484418788394513,0.002826510441704037,2021-08-01
89,BCS,-2.0250454478041287e-08,5.9202167783139026e-05,9.186643269194027e-05,0.0001986706505066094,0.0007262479320316548,0.0004121370562279115,2021-08-01
90,WPP,-1.7439392461566305e-07,9.684115668462192e-05,9.678590192958576e-05,0.0003249795795454942,0.0011103039913064143,0.0015857791871002936,2021-08-01
91,IPG,-7.528057880207456e-08,0.0001235254750447331,9.828436390057784e-05,0.00024449883353435997,-0.0014019463581262537,-0.0020177013838449756,2021-08-01
92,HUN,-4.778517990562609e-12,1.1908432099676281e-05,0.00011462914765589905,0.0002709141027605758,-0.0020080540143289903,-0.005405306386432223,2021-08-01
93,CBT,-5.401868875906987e-12,3.911474697285079e-06,0.00011683083934170236,0.000279275721731056,-0.0002986128098559803,0.0005597729385585676,2021-08-01
94,TSE,4.3392195963978706e-13,2.1219802027391097e-06,4.120298786270725e-05,0.00015150744884795194,0.0003947665139729029,0.001661245687399566,2021-08-01
95,MTX,-5.198755436346321e-12,6.948618631528563e-06,6.408922579394633e-05,0.0002839037182737912,-0.0014328804944816153,-0.0016519393187597441,2021-08-01
96,KMT,-1.2019409529560424e-12,9.10950087374568e-06,9.00581091486992e-05,0.00019803104177261706,-0.002045002238275519,-0.002731716234374531,2021-08-01
97,TKR,-5.252404890519852e-12,1.319205255399981e-05,7.026852429260157e-05,0.00028678145450503756,0.0008472265359534762,0.0005106755617502725,2021-08-01
98,HRI,2.12351561233696e-14,9.876242365166165e-06,6.0517659722904625e-05,0.00011876979296537655,-0.0023109704400656626,-0.0008129355076120303,2021-08-01
99,URI,2.032865747876641e-12,1.6983575687993336e-05,9.009757376607618e-05,0.0002042412178329358,-0.0016071134238954928,-0.00376709589133727,2021-08-01
100,CNHI,-5.2790490523744644e-12,6.527533585200677e-05,9.48328154870798e-05,0.000251802552399355,-0.0013756126368703065,-0.0011513238267346832,2021-08-01
101,VMI,-1.9480178462117984e-11,0.00015436756630720787,0.00015815361990382916,0.00034353617251693696,-0.000798664126665675,-0.001821541642068796,2021-08-01
102,ARW,-9.35950236870083e-11,2.243457236510098e-05,0.00011230560392594024,0.0004593592155174604,0.0032120564511805227,0.005746655170204907,2021-08-01
103,ST,-2.2562432490011945e-11,1.6359142168628646e-05,0.00010037215848909477,0.00033496170958041964,0.0012987581712565436,0.0017156957828976152,2021-08-01
104,WCC,1.8682096991655695e-11,1.2229416354685442e-05,3.6947743434869205e-05,0.00014358799593563036,-0.002092102408347656,-0.0017568861834866216,2021-08-01
105,MEI,-1.8438354842975742e-11,4.000520727272547e-05,9.715893792065426e-05,0.00028821982971726374,-0.0010796549586619783,-0.0030115671944767825,2021-08-01
106,DAN,3.7162038801342123e-13,1.826212812706338e-05,3.658791765736134e-05,0.00013040097479516166,0.0016821476806889275,0.0018718575689699523,2021-08-01
107,PAG,3.127439846519621e-12,2.848619039068513e-05,8.672380070662609e-05,0.00020340603073751594,-0.002740695868851473,-0.003041199078024284,2021-08-01
108,EXP,-7.466514089867994e-12,6.925997935718768e-05,6.45103128584745e-05,0.0002729056018251499,-0.0018711335588112708,-0.0015289491952683405,2021-08-01
109,UNVR,-5.310552444206777e-12,6.191599673346835e-05,0.00011463884145845232,0.00024396805352783636,0.0003109121904728336,-0.0002088454352785686,2021-08-01
110,ASGN,-1.9068023680122884e-12,0.0001284715305728088,0.0001177658904880779,0.0002665730677583615,0.00032662098250004325,0.0002233487389319161,2021-08-01
111,CLH,-3.0304883790136324e-12,0.0001513658872861958,0.00016981068357294833,0.00031407790308048014,-0.00020155672992002132,-0.0006166620105631381,2021-08-01
112,PGTI,9.74999290162474e-12,3.132453243646228e-05,5.3739796203955877e-05,0.00021176754452666765,-0.0008087065259095321,-0.0022268786222232853,2021-08-01
113,NX,2.0540408778604603e-11,3.804250163139952e-05,0.00012146890567745317,0.00025718395556179833,0.001982118389397349,0.0051706074290236576,2021-08-01
114,GMS,3.4435659572181305e-13,3.9087665252041646e-05,3.8803708677424775e-05,0.00015291025805083894,0.0013356414277201196,0.0032373718782314504,2021-08-01
115,ACM,-3.5537610711471504e-11,5.452557873636881e-05,0.0001539255346987174,0.0003922662704039153,-0.00322228711633119,-0.0038166486475735228,2021-08-01
116,PWR,-2.166875021393211e-11,4.8289520764008886e-05,8.93929692509806e-05,0.00034740301063609913,0.0010187463418898943,0.001339311013315566,2021-08-01
117,GRC,1.766071863236826e-11,1.86657177418979e-05,9.408973810661134e-05,0.00031276508023861534,-0.003962640442582862,-0.0052876987977875725,2021-08-01
118,AIT,-3.2580083767860013e-12,5.353099355975162e-06,0.00018431398129110664,0.00027589040151508224,0.0011745044154193335,0.0037531541447955986,2021-08-01
119,MWA,-2.4334083498693397e-11,7.90332921114449e-06,0.00015764695100619833,0.00040732527539110537,-0.001362868829055671,-0.002016233139530537,2021-08-01
120,PLOW,-4.622586991102614e-12,9.475960248579917e-06,0.00011798688859572057,0.0002793679927362259,0.0018592082103123493,-0.00039067425166241804,2021-08-01
121,ENS,-2.7173968873252976e-12,2.7857976644434125e-06,6.43435380559334e-05,0.00027220007466460745,-0.0006764596267359801,-0.0003621677769433094,2021-08-01
122,SPXC,-3.457699462052013e-12,2.9331216852517896e-06,6.220796969926266e-05,0.00028659509336096447,-0.0032988226935810796,-0.003990560283323788,2021-08-01
123,ESE,-1.3142632596051512e-11,6.805328087931976e-06,0.0001513825122072826,0.0003724946933715843,-0.00036972286936159124,-8.332892260630701e-05,2021-08-01
124,HI,-2.1612637931588353e-12,4.8521290352521796e-06,0.00010593729601062282,0.00026696286887243806,-0.001309796266473712,0.0003221197219083514,2021-08-01
125,EME,-7.276195061996638e-12,3.530463846158221e-06,7.659302495968436e-05,0.00033929329478568393,0.0026049418197689575,0.003726538936702556,2021-08-01
126,SXI,-4.420827999024665e-12,3.119329334613405e-06,0.00010988315922712239,0.00029978143767548027,0.0003029192761914327,9.998097614924045e-05,2021-08-01
127,BRC,-2.7830712706906693e-11,2.434656849631289e-05,0.00012144441696995353,0.0004079541196635489,-0.0009343030456743884,-0.0016003772883511698,2021-08-01
128,ALG,-2.2176839993812524e-11,1.3140130667266896e-05,8.366456580698758e-05,0.0003799367397394067,-0.0013308537094693013,-0.003292732054000009,2021-08-01
129,FSS,-2.176751010007309e-11,1.3073128526149952e-05,8.204807860272136e-05,0.00037799942452571955,0.002562007263074198,0.0036422403605561055,2021-08-01
130,CAT,4.243193465058934e-09,0.00021318045932967048,0.0001572744435491287,0.00043134962459875936,0.0017754890627443033,0.0023474151925744467,2021-08-01
131,CMI,8.555368280996928e-09,0.0002616489624567668,0.0002128880796713376,0.0005294208582121818,0.002367949533603563,0.001930430804823104,2021-08-01
132,TNC,1.5945711995781405e-10,0.00020311534985598438,0.00012466416470391855,0.00041439798070562706,-0.007685276286662511,-0.010709850347794432,2021-08-01
133,FUL,-2.7234655106566546e-08,0.00011288249152817787,0.0001211293827262181,0.00039477556481970217,0.002122053681284689,0.0021656456232612567,2021-08-01
134,JCI,6.400768766654186e-08,9.42159223691218e-05,0.0002625982243835322,0.0005820634188209248,0.0016333106686911081,0.003396279568337249,2021-08-01
135,DCI,1.3269480381679517e-08,2.733210006823398e-05,0.00023594460841356885,0.0005300643748325392,0.0011804029363932861,0.0025897409694698964,2021-08-01
136,HUBB,9.974606427190057e-09,2.5329216360701932e-05,0.00013079338268961029,0.0004912215015207608,-0.001535652990327556,-0.0029852611670457044,2021-08-01
137,ITW,2.551788451822508e-07,4.3481677238531015e-05,0.0002599128511588496,0.0008470879675169435,0.0024315391729038058,0.0040512104016037585,2021-08-01
138,XYL,3.4104439584383995e-08,2.9045777747771812e-05,0.00015066543801148973,0.0005658551003526128,0.0018627284500449053,0.0032670480247562355,2021-08-01
139,ADM,8.051266464090065e-08,0.0005889657390895392,0.0002624650259880344,0.0006494276335195663,0.0004836428838343446,0.0011342437432875832,2021-08-01
140,GPC,2.841510735988807e-08,0.0002458752496917107,0.00017094139638095118,0.00046192924093612904,-0.000810829033421797,-0.0018303252702103943,2021-08-01
141,LEG,2.747172905045396e-09,0.00014943159968617336,7.14668487925808e-05,0.00028073921836969956,0.0011824725723725048,0.0010154933236608415,2021-08-01
142,WAB,-1.0629306943554815e-08,0.00027303935828280467,9.594201179800044e-05,0.0003221460360781336,0.0015682059217358548,0.002625617747804853,2021-08-01
143,AIR,6.183057365216572e-09,4.866612944383968e-05,3.8016435121100903e-05,0.00014677646559695272,-0.0022680775235532314,-0.0030552915494776213,2021-08-01
144,CW,-6.509201603663367e-09,3.35604966741913e-05,0.00019906013545271128,0.00032097498467123004,-0.00023649889053909307,-0.0014197002136058573,2021-08-01
145,TXT,-2.652487197354949e-09,2.770707905445139e-05,9.980035074949886e-05,0.0002649924809255342,-0.001638686936391234,-0.002896105742642649,2021-08-01
146,OSK,-4.8602184341216506e-09,5.422042444451653e-05,7.166306234922182e-05,0.00029247287404552574,-0.000544897802973468,0.0003787202653922201,2021-08-01
147,KAMN,-1.3940872782941387e-09,4.0936054064229895e-05,4.8760530513632685e-05,0.00022143086278667086,-0.003761472737871953,-0.0057808150039897225,2021-08-01
148,B,-1.953851720473837e-09,2.4513011047127986e-05,4.860212240175554e-05,0.0002357542196169667,-0.0039577050463749965,-0.005103048810960522,2021-08-01
149,NPO,-4.4415896674291216e-09,2.914690419780547e-05,5.778977550862555e-05,0.00028032075048606514,0.001816672889473713,0.0025395387120329157,2021-08-01
150,CSL,4.655601848814485e-08,0.00043381127199957834,0.0001422113610387913,0.0005044986337440975,0.0019654055822751738,0.0033710022081727894,2021-08-01
151,DOV,4.328795556712073e-08,8.082161447656488e-05,0.00016098469363041466,0.0005467251828160892,-0.003927718432131247,-0.006821478733539807,2021-08-01
152,HON,4.168984261437853e-08,8.008134059518923e-05,0.0002548319476778259,0.0005417175326256017,0.0003621970679614339,0.0002451881258853751,2021-08-01
153,AME,1.1025046765970151e-07,0.0001694966612574278,0.00018412410886520876,0.0006531852355769901,-0.002483193002526736,-0.0030272391350999826,2021-08-01
154,IR,-3.319701727638006e-09,9.18876258097692e-05,0.00020377360479548545,0.00034519179336160597,0.004332386141219263,0.005287095109282533,2021-08-01
155,CE,-5.118563399768558e-09,5.6604384201012254e-05,9.792958774867714e-05,0.0003846913133055984,-0.0016670130213182065,-0.003545637455160263,2021-08-01
156,EMR,-1.2561849514180263e-08,3.799589911929716e-05,0.0001791592591360243,0.0004629083791387647,0.0010633376633605795,0.002246369529599241,2021-08-01
157,PH,-4.3609961723078995e-09,3.105733824898453e-05,9.238982437359357e-05,0.00037837509948278157,4.722381902498752e-05,0.0021121516508547647,2021-08-01
158,KEX,-5.090441186102701e-08,0.000174793819908534,7.027273891011272e-05,0.00021487012685763356,0.0018013136949832633,0.0025663319061285305,2021-08-01
159,ASB,-1.4313063204672454e-09,3.9269906548761345e-05,8.94330402014956e-05,0.00021582944798371467,0.004128084555888239,0.004185038519580274,2021-08-01
160,BANC,-8.004380447824311e-10,3.499083501578688e-05,4.599160264164131e-05,0.00019231144837508456,-7.61587632830577e-05,0.00044146522332667805,2021-08-01
161,MS,7.935774079713169e-09,3.553684563062876e-05,9.285766466976398e-05,0.00034443084931384306,0.000586437872015358,0.0007526964397030285,2021-08-01
162,RJF,1.1066508444955999e-08,3.8271464301839645e-05,9.572729292364648e-05,0.00037093536919342564,0.002999750346944585,0.004037947456213247,2021-08-01
163,BK,1.438881315288319e-08,6.964675970412624e-05,0.00012774235158407462,0.0003802737914838813,0.0017211326365613798,0.0026020815326903536,2021-08-01
164,ALLY,-1.7703394084128904e-09,7.574065864686532e-05,5.980991308697248e-05,0.0002317584830278071,0.0018926011742414195,0.0030426606758050686,2021-08-01
165,AFL,2.3377926434895215e-08,8.186992995907952e-05,0.00011158990698486131,0.000457007494525979,0.0006029743886185652,0.0018081918948294237,2021-08-01
166,AXP,1.7144838495040984e-09,5.5047107169921344e-05,9.207707263043172e-05,0.00030727937035249497,0.0023362620975107573,0.003305026221672424,2021-08-01
167,ORI,1.1496949590287795e-08,7.359441820681813e-05,9.871202339253834e-05,0.00041546630944464316,-0.00010173590166553966,0.0005550563701703441,2021-08-01
168,THG,3.692104724153765e-08,9.152747828268165e-05,0.00012276559550902308,0.0005167047249156393,-0.00017411254161349643,-0.002057897924240237,2021-08-01
169,PRI,-2.300897574097001e-10,0.00011870797222904085,0.00015922272934645298,0.00037372234593900617,1.4197244523438454e-05,0.00045522417698549695,2021-08-01
170,C,-1.5315099475908238e-08,0.00014220072594414208,8.139870466372339e-05,0.000301926880027406,-0.0009243348072419115,-0.0024836534150485157,2021-08-01
171,BMO,1.17848027295147e-07,0.00017414807826068371,0.00018646311749867682,0.0006476467040735203,0.004193974013084371,0.006679804324808587,2021-08-01
172,MFC,2.1933602674257045e-08,0.00012341679368368122,0.0001905089556488826,0.0004589799695458548,-0.0029990625487855927,-0.0036024732203786547,2021-08-01
173,PUK,-8.138756863022558e-06,0.000157025711129365,0.00019562832613352035,0.00026033492811711824,-0.003306093826963189,-0.004571288437972614,2021-08-01
174,LYV,-2.528271787037489e-07,2.0783447929266938e-05,0.00010963565024141829,0.00018279545047011043,0.005656868664907991,0.008467485185687448,2021-08-01
175,MGM,-1.2177543850729226e-07,1.6695597185956886e-05,6.619741026557705e-05,0.00014684181464312703,-0.0005686111435134687,2.1034955008792e-05,2021-08-01
176,FUN,-3.199685431208947e-07,2.1690677805461447e-05,8.023328512577868e-05,0.00018981032349854455,-0.0013759024992494179,-0.00010279055152349661,2021-08-01
177,CCL,-3.9279882973683126e-09,4.878377736227688e-06,3.0420445624376687e-05,7.345595654338444e-05,0.004673982855828104,0.006272120274768172,2021-08-01
178,DRH,-1.4556254399116235e-08,6.745047487136934e-06,2.5519820441308283e-05,0.00010156325358300838,-0.0016054550281305265,-0.004639356468123608,2021-08-01
179,DRI,-2.525880338833686e-06,4.243256617093662e-05,6.272574225272423e-05,0.00020853557835396073,0.0017504309529683979,0.001227083852779272,2021-08-01
180,HLT,-9.61617644313243e-06,3.694458333500835e-05,9.42905177219749e-05,0.00031424147512671774,0.005530927527211372,0.006505359636291515,2021-08-01
181,IHG,-9.359333595580086e-06,3.667626740848014e-05,8.030374001564598e-05,0.0003119592463142381,-0.0005188431084157803,-0.0004450793669250842,2021-08-01
182,TGI,2.712737302122514e-07,2.124871136608684e-05,1.631692983513762e-05,6.133895152223706e-05,-0.002967141029350556,-0.00428865812719105,2021-08-01
183,BA,-8.013496616419455e-07,3.453182897508679e-05,8.161107154969683e-05,0.00017113553286911918,-0.00032355826129806803,0.0013955298260303502,2021-08-01
184,HXL,-5.936872659954707e-07,3.173800810646346e-05,4.652633460367383e-05,0.0001572896973810058,0.00047577300099431756,-0.0001908908169416811,2021-08-01
185,SRG,-2.037698929889054e-08,1.293545149610251e-05,3.9653998632189537e-05,6.187887848042086e-05,0.0040114140660902275,0.006126656177395095,2021-08-01
186,VVI,-7.54258580891072e-08,1.945769168239566e-05,2.476020620403728e-05,9.307909658099149e-05,-0.0011073663979916128,-0.002940285859869841,2021-08-01
187,DIN,-1.248576952783836e-07,3.657126034476426e-05,3.182208856502728e-05,0.00010605329458231112,0.0018598354584206897,0.003612466393811497,2021-08-01
188,ESNT,8.489715592757211e-06,0.00014330518793812552,7.211973181190546e-05,0.00022076324104906617,0.00010984128758700801,0.0026605897802749337,2021-08-01
189,OMF,5.161114421221629e-06,0.00011797381343148348,9.742262755161585e-05,0.00018173997596861055,-0.0021927645038466556,-0.0019835975970471276,2021-08-01
190,NLY,-6.976797133381224e-05,5.535342952767722e-05,0.0001621626218040404,0.00048303529807480007,0.004460883750793893,0.004895786946787483,2021-08-01
191,ARI,-1.669897396206826e-07,1.1729280358677616e-05,8.618729280456359e-05,0.00017704219883675156,-0.0028573657352428715,-0.0030355229194162546,2021-08-01
192,CIM,-2.6856024927455604e-06,1.908261196130838e-05,8.752812010242557e-05,0.0002880336625834922,0.0015058836778715514,-0.00022707804819024007,2021-08-01
193,ACRE,4.447314239171339e-06,2.0342038997604567e-05,5.8738650706384845e-05,0.00016976804221367601,0.0006840969358949889,0.0015551755649163737,2021-08-01
194,KREF,-5.3844753196280093e-05,4.869754930327697e-05,0.00013643960481020658,0.0004064139099720942,0.0004061069180061968,-0.0004901140402440141,2021-08-01
195,RC,1.400422121705942e-06,1.927246673828131e-05,4.2151688471711224e-05,0.00016229207938592508,-0.0009415730420231323,-0.0011311883861128752,2021-08-01
196,TRTX,8.01528063187369e-07,1.653065139690444e-05,3.615493944699439e-05,0.00013920344630708736,-0.0020309942302733463,0.00011753519391069945,2021-08-01
197,AJX,5.495042766624657e-06,4.6875422142992696e-05,6.980327968292281e-05,0.00022970554244606644,-0.0018327833223896457,-0.0031997104915121046,2021-08-01
198,MAIN,-6.757962693956709e-05,0.0002869921036838182,0.00020243225613514977,0.0004686309385585696,-0.0010801295739932464,-0.0020745337777228565,2021-08-01
199,ALX,-2.268388456436275e-05,8.094669775045494e-05,0.00019779523712665776,0.00041445777111537887,0.004470617546474625,0.0042489917255191505,2021-08-01
200,CUZ,-1.0361228609749508e-05,3.879303851262724e-05,0.00016676691583943694,0.0003542466271678047,-0.0026211329945515023,-0.004431677944576115,2021-08-01
201,DEI,-7.3071909487425284e-06,3.5994178242617024e-05,9.088709812036174e-05,0.0003286882577133894,0.0018316814981728735,0.0022569125843794,2021-08-01
202,AHH,-5.929525913571003e-06,4.836054875748865e-05,6.988721140034011e-05,0.00024877298618224906,-0.0015332963725180717,-0.001475853857408432,2021-08-01
203,CIO,-7.178027553847476e-06,5.1217432350097436e-05,7.401577554430871e-05,0.00026346916893386235,-0.0034256860609298296,-0.00403270655071643,2021-08-01
204,ESRT,3.934049643660772e-06,3.344070712811396e-05,0.00011747710294975265,0.00016993774621587845,-0.0022408624786625668,-0.004795935034294605,2021-08-01
205,EPR,3.531860752380916e-07,1.9272439025978384e-05,4.139861647406654e-05,9.793796643146588e-05,-0.005609107618694094,-0.006349945851922718,2021-08-01
206,OUT,6.35815671055894e-06,5.0204184302063034e-05,8.189239480511596e-05,0.00015202354806323064,-0.005125276627338444,-0.006365103438371468,2021-08-01
207,UMH,-7.799010872779423e-06,4.156366522074461e-05,0.00011346551475584633,0.0003495488589592673,-0.0008732910420883123,-0.0016336225002177925,2021-08-01
208,LTC,-2.7418288491809676e-05,1.2544771551210668e-05,0.00011903717777480225,0.0004680937176900028,-0.0025438124501364675,-0.003558658155692916,2021-08-01
209,UHT,3.2964744694250934e-06,5.729967894789073e-06,0.00010521531433680673,0.00021380715967341213,-0.004267391288527625,-0.005755198023264264,2021-08-01
210,GTY,-1.615370675413725e-05,1.1739254472134876e-05,0.00018400824668077508,0.00044693463112512255,-0.002385220926331811,-0.002536772714289403,2021-08-01
211,GNL,-8.650629609302159e-06,1.0038440962834663e-05,0.00010353450411008263,0.00038218158737808854,-0.002996828309172581,-0.0026786967899444696,2021-08-01
212,NNN,-2.6650357156477155e-06,9.54488450957035e-06,8.748545631056929e-05,0.0003628965690487927,0.0018950455932211674,0.004355954603085386,2021-08-01
213,VTR,-7.776584795840247e-07,7.158857883454386e-06,6.561587497141074e-05,0.00027217982172635433,0.001748961278494448,0.0029706091256841284,2021-08-01
214,OLP,-1.3517203412644897e-06,5.942624878355186e-05,7.35316621495373e-05,0.00028915091693973384,-0.0012585587604158398,-0.0008597594565561005,2021-08-01
215,VICI,-1.5678152620631497e-05,0.00013346641698623008,0.00011517839274687817,0.00038163089566761336,0.0014706762377834658,0.003181216257392232,2021-08-01
216,UGI,-4.3406402290478135e-05,0.0002839506230650793,0.00023463407946641048,0.0004749664439243733,-0.0016672435558091772,-0.0018962110705820743,2021-08-01
217,NSP,3.4896243414767386e-05,0.0001979160438365219,0.00042548973679485606,0.0002729849030229487,-0.0022298152626043406,-0.0034416199223723616,2021-08-01
218,RE,-1.935338218292904e-05,6.44148372384998e-05,0.00019126077563375127,0.0004059668870974505,-0.0026924676091687207,-0.0031305207602515504,2021-08-01
219,MKL,-2.9419384513087536e-05,7.329364363787316e-05,0.0003018321918638193,0.00046192451347083806,-0.004139107155113221,-0.0073336126087077316,2021-08-01
220,ALE,-3.3039733137830555e-05,0.0001183929846967617,0.00038105666560574744,0.0004421419782406811,-0.0013283950980770732,-0.001031751513752509,2021-08-01
221,CBRE,-6.806389891342003e-06,7.609445595096674e-05,0.0001861980169819596,0.0002893853777271857,0.0014711690195431274,0.0010205314236091266,2021-08-01
222,FNF,-1.3179597417633039e-05,6.13348799529315e-05,0.00015707484095843044,0.00037593752968963104,-0.003351713216836773,-0.003889196897130998,2021-08-01
223,WY,-7.789995580284145e-06,5.0203318838079636e-05,0.00020202327238989123,0.0003077092786468645,-0.0062015040407952015,-0.008766207898247313,2021-08-01
224,AWI,-1.0523037939359969e-05,5.1004213749505354e-05,0.00011314660594015592,0.000310322166116355,0.001419524238872292,0.0016091306553573073,2021-08-01
225,ECL,-5.9003599080903704e-05,9.441838809861205e-05,0.00019163407791880264,0.0005744646679561866,5.490881999261281e-05,0.0011435886975849885,2021-08-01
226,CNS,-1.6528274926638182e-05,9.347066858036604e-05,0.00047747058586147437,0.0003617991347396791,-0.004676098899565101,-0.006430285640299545,2021-08-01
227,WEX,5.445398761428476e-06,4.884758047261494e-05,5.8233297695907154e-05,0.00019233778422543952,-0.004477535450739215,-0.005435909461097442,2021-08-01
228,FLT,-2.049630749279547e-05,5.8524610136469184e-05,0.00011953571083465272,0.0003948124984748354,0.002813550633019871,0.002434607628992158,2021-08-01
229,GPN,-3.175502478084991e-05,6.623183038267826e-05,0.000123296772882077,0.00044680612772936816,-0.0011223265776653536,-0.00227574916504039,2021-08-01
230,EPD,-0.0006474275177949872,0.0009826578339027317,0.0002658056487202215,0.0004738104090673478,0.0009811426806110315,-0.00014805937007138218,2021-08-01
231,FPL,-0.0003872996879229192,0.0004729452911893619,0.00013184101592176881,0.0003981330447718441,-0.0031371279214757516,-0.002756573733696536,2021-08-01
232,WES,3.329679911494513e-05,7.319672081288244e-05,3.855321253272767e-05,0.00010295945528741617,0.002171262799936634,0.002729797367003811,2021-08-01
233,KMI,-0.0004821521712438077,0.00015421067451114608,0.0002058212105645613,0.0003722682521683743,0.00048513539599975234,0.00030487538128808403,2021-08-01
234,CEM,4.476843987397108e-05,3.541282523313923e-05,5.0554684111303865e-05,0.0001526648605670282,-0.0018655318790738037,0.0017605287918282628,2021-08-01
235,PAA,3.1361349795304816e-05,3.283842786147672e-05,9.491979195384539e-05,0.00014156662106759412,-0.0007764950527122303,-0.0003238665720000779,2021-08-01
236,BLK,0.0028813356319122505,0.0006645610043019302,0.00025825287170772585,0.00047841123184546176,-0.0013007706417083405,-0.002710293080323215,2021-08-01
237,G,0.003731406195953583,0.0007458704529384462,0.000357277397008577,0.0005369451410442595,-0.0011440042960660082,-0.0005416948919705692,2021-08-01
238,DDF,0.00702295455240742,0.00029828356356401993,0.00022121611669352766,0.0005782459544131688,-0.007402045921413741,-0.007572410340332321,2021-08-01
239,HIE,0.004399547373558704,0.0002571470799289721,0.00018919736086980306,0.0004984996721958966,-0.004597091150762139,-0.004372962533731518,2021-08-01
240,BOE,-0.008866574925546274,0.00025091748187857315,0.0005240943331079356,0.001635935085144574,-0.0017940040207281081,-0.002659105691961569,2021-08-01
241,BGY,-0.00870110825684601,0.00024993332173598836,0.0009127713257607303,0.0016295185449553397,-0.0010496688114051411,-0.0007341093796923005,2021-08-01
242,GGZ,0.0003417802867466738,0.0002534522469800197,0.0003533819746217443,0.0009224529040566855,-0.004222976801106554,-0.006482737585765572,2021-08-01
243,AGD,-0.0015366649954389596,9.829089744575647e-05,0.0004012656353627153,0.0012819662994500247,-0.00032549631666081946,-0.0005115720006833595,2021-08-01
244,ETG,-0.00021809476852193416,4.0946356752919426e-05,0.0005259214921580626,0.0009556060342586015,-0.0017754931979347163,-0.0006976149229562917,2021-08-01
245,SCD,-5.8940573531659646e-05,3.210661295063953e-05,0.000234538136206413,0.0007493041019589358,-0.0051250748176622455,-0.0065422199123258504,2021-08-01
246,ADX,-0.004000429931905047,0.00011296933952904446,0.0004598187854371006,0.0014353020751899594,0.0005838083142441962,-0.00018380887738475874,2021-08-01
247,GRX,-0.0051437395526473546,0.00011963514463776749,0.0009606950119303092,0.0015199926996129006,-0.0021942338627852108,-0.00363711412867427,2021-08-01
248,FDEU,-0.0008354865463927388,0.00016500440978523478,0.0006441534405078238,0.0010805465352178869,-0.0012914321402182846,0.00038746514558992334,2021-08-01
249,MGU,-0.0002900244901121091,0.00011997573866950543,0.0005632090745676688,0.0007856721459643158,-0.0018582070834817174,-0.00016871063117832396,2021-08-01
250,JCE,-0.006872792525959852,0.0006545124408244932,0.0005947891659704603,0.0012612542948734974,-0.004847159817497964,-0.006245581981151722,2021-08-01
251,SOR,-0.00896328820155356,0.0007146031077484376,0.0008690899303968011,0.001377049819927482,0.007250477585742413,0.010154788134168442,2021-08-01
252,JWN,1.0355374297638771e-08,1.715202672973661e-05,4.563831549226018e-05,8.633730978161405e-05,-0.0014655675288241326,-0.002428484337995072,2021-08-01
253,BKE,6.972236502195187e-08,1.500722125680881e-05,4.105547391791238e-05,0.00013087605788967565,0.0007421831972335782,0.0006562872991222387,2021-08-01
254,GPS,2.939869269559054e-08,7.456908684959192e-06,3.425005407398319e-05,0.00011501066402571995,0.0015956065962293587,0.0032442858963390737,2021-08-01
255,ANF,2.437651663661708e-08,4.247976521314685e-06,3.662093294796092e-05,0.00011673969103496765,0.001245380441349175,0.0012771729769260685,2021-08-01
256,AEO,8.017898702284172e-08,5.367831623791588e-06,9.28996816554999e-05,0.00014751470544738867,0.0009976915136777457,0.0004954113683792634,2021-08-01
257,TPR,2.1868219257849974e-07,3.3053703829685116e-05,4.973928308637748e-05,0.00017027758841089107,-0.0007449816033245281,-0.0008496303909038148,2021-08-01
258,UA,4.1797351056048245e-07,4.03430697205115e-05,5.6867667753244466e-05,0.00020782907284755511,-0.003989534707752489,-0.004096480182673151,2021-08-01
259,BOOT,3.995259027869392e-08,1.3199564375026436e-05,3.342427404846222e-05,0.00011223771923359811,0.0015477636971859845,0.001773182138019007,2021-08-01
260,CAL,4.346846539100213e-09,4.373717069608395e-06,1.7774948756259143e-05,6.375536214045144e-05,0.004714930419847744,0.004868203238939411,2021-08-01
261,GES,7.684501243476162e-09,5.126690724516574e-06,3.739036075487049e-05,7.473140546626915e-05,-0.0019385322429460586,-0.0024042546098270775,2021-08-01
262,OXM,8.331977840812182e-08,2.731432059858029e-05,3.9740982284335315e-05,0.0001360493799780942,0.0010174658895851136,0.0020278922469942496,2021-08-01
263,TLYS,1.2417242537020018e-07,5.003006865028611e-05,5.680541972757484e-05,0.00014755226209162806,-0.0007906759644928359,-0.0017485160112404924,2021-08-01
264,SKX,6.04813034768062e-07,6.650034312548446e-05,9.942606931490319e-05,0.00016878832922528195,0.0004745816926764574,0.0002068720192047992,2021-08-01
265,VFC,1.930841753092464e-06,0.00010124367980626805,0.00015137156671686777,0.0002569723817345327,0.0028755634675271704,0.004542725807886236,2021-08-01
266,CRI,2.551703320020825e-06,0.00017262835599167426,0.00016214843938006261,0.00027317610818686146,-0.0004068996160134013,-0.0014305551865670583,2021-08-01
267,RBC,-8.117021544172796e-08,4.343883944834247e-05,0.0001242580698595659,0.00016089525215482297,-0.00011316443313666171,0.0006263387421271435,2021-08-01
268,INGR,-3.1394869924685304e-05,9.852114638244334e-05,0.000998752421437719,0.0005324376413829784,0.004668812875121937,0.006722345618783044,2021-08-01
269,RHI,-1.2050823597303986e-05,6.0275076651206664e-05,9.805813910679226e-05,0.00032574448049729234,0.001924017576644925,0.0010969558330793515,2021-08-01
270,SXC,2.50077850590205e-06,2.69564034011147e-05,5.7577414242491154e-05,6.963481937034988e-05,0.001487607238977766,0.0010646028595690394,2021-08-01
271,AXL,4.559211625188214e-08,4.076436112552608e-06,4.899888102411788e-05,7.81557716799623e-05,-0.0021052282655617594,-0.003399708098114445,2021-08-01
272,GM,-2.310570194915546e-06,1.134583400190493e-05,0.00011690417644673139,0.00021752883825189374,0.0005451688012670234,0.0013992758484371,2021-08-01
273,AEL,-9.518307736683695e-07,8.10051544967229e-06,0.00010560415830648812,0.000154573083641425,0.001003538421956645,0.0018781679837667766,2021-08-01
274,DXC,-9.640934488790503e-07,8.148400221365093e-06,7.649453824642261e-05,0.00015548681522628636,-0.0003049136586147139,-0.00018275116288239533,2021-08-01
275,AEG,-1.7748082801712193e-06,6.716630680844403e-06,7.437931744471003e-05,0.0002305778165971625,4.276301572139416e-05,0.00021482845594653194,2021-08-01
276,DB,-1.932600301735532e-06,6.912790751829606e-06,8.86128241727859e-05,0.00023731187166443118,0.0021676484895882323,0.0017853292182996527,2021-08-01
277,BBVA,-1.6573228888093855e-06,1.0677491083964558e-05,7.115083308647563e-05,0.00022056943120436637,0.0007884862046696573,-0.00046728620000018674,2021-08-01
278,GE,-2.359803600957639e-06,1.812718156165352e-05,7.270142972138267e-05,0.00022254385659742373,0.0010701482477947788,-0.00046861735261031486,2021-08-01
279,THC,5.032045496883813e-07,1.0464624155434578e-05,8.554552004795405e-05,0.00012578293918704504,0.002373067370739911,0.004095121925968093,2021-08-01
280,CSTM,3.629188625926038e-07,6.108989222006209e-06,3.998220887979626e-05,0.0001120193799625488,-0.001836369162427274,-0.001401696709163683,2021-08-01
281,SEAS,3.6088983654116976e-07,6.092760706701162e-06,3.702701081449676e-05,0.00011172180074672112,0.0014221671976654853,-2.4631653962741034e-05,2021-08-01
282,CMRE,2.741423854013195e-07,1.2343398270543822e-05,0.000224016898250955,0.00014790866700845867,-0.0002774494793099058,-1.3241300034733165e-05,2021-08-01
283,GBX,2.675762304552124e-07,1.2215063633999031e-05,4.750769827996446e-05,0.00014637085670644057,-0.0012441305285147892,-0.0031776170751677255,2021-08-01
284,VPG,-5.986643807876709e-06,3.969260419221163e-05,0.00032180728478263103,0.00030316615938844776,0.0008654116498736386,0.002229787075553548,2021-08-01
285,AYI,-1.1686522530664352e-06,1.760043173421409e-05,0.0001711403143750442,0.0002010294086469839,-0.006044922712295062,-0.009232789503606422,2021-08-01
286,YELP,-5.551871739490937e-07,1.2241856022487166e-05,0.0002982262552594522,0.0001398245857888896,0.0022127756434104397,0.0028514053584769157,2021-08-01
287,DLX,5.261801750994229e-07,1.8200508493864998e-05,6.274875487103882e-05,0.00016312003693983492,0.003885035697570202,0.004567608161050471,2021-08-01
288,TGNA,-3.733187942917914e-06,2.2231057167074684e-05,0.00020330799343447746,0.0003098856216195746,0.001641517073582948,0.001632500371186971,2021-08-01
289,MAN,-3.4375213597176285e-06,1.4625561265411942e-05,0.00010114739711103104,0.0003360068488522222,-0.0017628682195293568,-0.005367559385505851,2021-08-01
290,OMC,-4.9166219631283295e-06,1.6568870599627076e-05,0.00019321624641991766,0.0003806523317766237,0.0033735119016976823,0.00414891208167371,2021-08-01
291,ARGO,-2.1776184183973417e-06,1.9386166154062165e-05,0.00014591474694718187,0.00030404518543428714,0.0020479322885699055,0.0032823255338571334,2021-08-01
292,AXS,-4.1443105440744165e-06,2.408554903099907e-05,0.00014105219996654033,0.0003777485018553938,4.748551023878809e-06,0.0014137835963118149,2021-08-01
293,UVE,-2.0970147825968165e-06,3.0028003732386492e-05,0.0001458709386125247,0.00028498999344553735,-0.00224590504822315,-0.0034545530457407957,2021-08-01
294,JEF,1.0433107855837917e-06,2.7697459844477525e-05,0.00013660872484966586,0.00024761886899114533,0.0014970397263525314,0.004685413787629611,2021-08-01
295,OPY,5.016034752438625e-07,1.994188800168818e-05,9.125343747884817e-05,0.00017828305484521471,-0.001958003722997228,-0.003239224828588318,2021-08-01
296,HMN,-6.961935373795895e-06,4.687081766653244e-05,0.00017199909138330727,0.000425524045426257,-6.183690231170048e-05,0.0011288876889936218,2021-08-01
297,PRA,-9.460062617443158e-07,2.3342243236274564e-05,0.0001534104846818059,0.00021191620427640968,0.0002857702210433465,-0.00031559943595577524,2021-08-01
298,VGR,-1.7244163429817886e-06,8.44225100752571e-05,0.00016149921639936065,0.000260773889384397,-0.0008872302815185726,-0.001290296674971018,2021-08-01
299,AVD,-3.814485574257441e-06,1.010635006451908e-05,0.00018972401574289944,0.0003262706966823567,-0.00370524692580488,-0.002566190202138812,2021-08-01
300,PKE,-2.97991651223576e-06,8.989403115557695e-06,0.0001356989124437987,0.0002902114807568884,-0.0023399945717503495,-0.002801044138511907,2021-08-01
301,MG,1.365170714509879e-06,1.5483265068830393e-06,5.965427598172222e-05,8.217605995654038e-05,0.0016695643396967405,0.0029576850060271365,2021-08-01
302,AGM,-3.5450287768756742e-06,3.533190772108661e-06,9.444964872930998e-05,0.0002969006358107584,0.0018595640808098503,0.003030572306630613,2021-08-01
303,MLR,-8.199199434599647e-06,4.930946890039475e-06,0.00014299279253731045,0.0004143566994340538,0.0012203314228357485,-0.0011156592450552627,2021-08-01
304,HTH,-1.123484594794361e-06,3.849867480408866e-06,6.988230866952385e-05,0.00021977974953747126,0.0033985083171700283,0.0065671148442842,2021-08-01
305,SRI,-7.654539233999004e-07,3.2679377214306176e-06,7.063108435266316e-05,0.00018655876795109792,0.003233926362497338,0.003526753495342713,2021-08-01
306,LXFR,8.205783526501851e-07,1.1350537215043355e-05,9.259432691141683e-05,0.0002028831343442957,0.0007702029958955794,0.0003079548295176895,2021-08-01
307,RYI,1.0148432735576921e-07,4.6389447396952535e-06,3.9491566703801485e-05,8.29179827358296e-05,0.0007873489608407026,0.002700785801118835,2021-08-01
308,NYCB,-7.628713020756967e-07,1.3276891288309073e-05,0.0001196506629937769,0.0002489410696095763,0.00228069790706108,-0.00012193904475693003,2021-08-01
309,THR,-2.3609825930710314e-07,7.818653683847376e-06,7.212220372150926e-05,0.00014659937847632322,0.0019200656524602652,0.0008386042273018617,2021-08-01
310,ITGR,-9.000024395647984e-07,5.162189789739366e-06,0.0002207884837695162,0.0002645914473779863,-0.003649998367866689,-0.004894078164473105,2021-08-01
311,ACCO,-3.6870173328800205e-07,2.377856759569651e-06,6.787778394948873e-05,0.00019197652680928406,0.0006719519963072989,0.0024254566444686255,2021-08-01
312,BCO,-4.6756726293498357e-07,2.629355239550887e-06,7.130996416826495e-05,0.00021228128423014323,0.0015888104726261873,0.00275593855127796,2021-08-01
313,WD,-2.734496874399599e-07,5.569497221579885e-06,0.00033554229191783624,0.00017820892864712378,0.00045791953154237505,0.00023354418131123775,2021-08-01
314,GTN,-6.051888345021539e-07,1.0862099774917104e-05,7.714376983475245e-05,0.00021733220925188848,-0.0037811080465282127,-0.005233135981142427,2021-08-01
315,BLX,-5.0874774265451776e-06,5.350232308479042e-05,0.00028526978556681526,0.00039151603641687864,0.0031141654874464342,0.0037522724599140544,2021-08-01
316,MMI,2.4725218638368797e-05,6.17997824174428e-05,0.0001868119110616713,0.0003787784890889498,0.0025274100288902404,0.001574937457222443,2021-08-01
317,KWR,1.9511924550999673e-05,5.4789357171726094e-05,0.00019090155725051675,0.0003358107280617827,0.001670137742401782,0.0011174094772840011,2021-08-01
318,AMG,4.112036853703343e-06,4.633115008137013e-05,0.0003445109169333593,0.00019061213571816346,0.0014117956997658453,0.0029885228585263017,2021-08-01
319,LIN,-4.551101190372868e-05,8.681937470657322e-05,0.0003093480001242732,0.0006529140791580945,0.0015176213057489796,0.002077525866145012,2021-08-01
320,NSC,-2.0607802534710532e-05,6.248668033732272e-05,0.0003813562036766416,0.0004699231420403256,0.001214602125792154,0.0025837051467357034,2021-08-01
321,MSA,-2.7517840167677055e-05,6.656133876776711e-05,0.0002411152504046446,0.0005237427401904758,-0.0001118194672079353,-9.339429787286457e-05,2021-08-01
322,PNR,-1.0015194629865e-05,2.0537831026655747e-05,0.00021201347594071419,0.0004474785140273368,-0.0021222016285383886,-0.0043322857858911715,2021-08-01
323,ROK,-1.5003612991100927e-05,2.40942113464383e-05,0.0002825082197192539,0.0005249649720056355,0.0020659292299909757,0.0006114036660355563,2021-08-01
324,GGG,-3.9437006599578437e-05,1.8066756231250123e-05,0.00028340633683848217,0.0006829806473302438,-0.0021696633427939183,-0.0038201162066022454,2021-08-01
325,IEX,-3.901624399290109e-05,1.800735406642463e-05,0.00028247451766087316,0.0006807350572272926,0.000991639243062043,0.0008525312931524621,2021-08-01
326,ALLE,-1.2851905315559541e-05,2.1250664731770145e-05,0.00033335109910856295,0.000474516593946662,0.0025958647730741505,0.003334182526468464,2021-08-01
327,ALL,-4.2468239957807605e-05,4.657005697948629e-05,0.00024102614054015764,0.0006265653084141504,-0.0008404316827378598,-0.0008563868776582817,2021-08-01
328,AIZ,-3.0353102128766204e-05,4.104730216392285e-05,0.00019477667873646178,0.0005522607702892879,0.0025214630690551863,0.003168776603073992,2021-08-01
329,KMPR,-9.352425123903409e-06,3.214946325084425e-05,0.00023439428274250244,0.000438293632107654,-0.001836715166435137,-0.0021810960617141962,2021-08-01
330,RLI,-9.134002549462148e-06,3.187913155016088e-05,0.0001959246921080071,0.0004346082000355263,0.002548212786326636,0.003036469956024957,2021-08-01
331,SXT,-2.2090021772592708e-05,6.128202094252704e-05,0.0002004060555998467,0.00047964497062255736,-0.0006550936077809246,-0.0010126260321425802,2021-08-01
332,ABM,-5.342564283717105e-06,2.356129055991119e-05,0.00011354069975245866,0.0002881133376477597,-0.0027804781380414284,-0.004273740023026365,2021-08-01
333,SCL,-2.298524071488996e-05,4.121844503420256e-05,0.0002316272853864982,0.0005040294266249049,0.002772505031606016,0.004933612573255636,2021-08-01
334,OI,1.6298278126827648e-06,1.1772513481849205e-05,5.062884043486094e-05,0.00013150857733410057,0.0002505823479489415,0.00010269780434487451,2021-08-01
335,PKG,-3.0549362103478267e-05,4.999211637073775e-05,0.0003086411166257931,0.0005584527137703328,-0.0009580253051200251,-0.0019317791876609614,2021-08-01
336,MLM,-9.327904056401188e-06,4.4041749422272084e-05,0.00012681803494190953,0.0003407344408427719,0.0025012003752661704,0.004196023791296038,2021-08-01
337,VVV,-1.1217969891844795e-05,5.181974681748889e-05,0.0005593952633873613,0.0004002158646331733,0.0012787983667723818,0.0018427076040655398,2021-08-01
338,AVY,-1.767365891814646e-05,4.0268772960963114e-05,0.0002567121407078489,0.0004871799108855031,-0.000901410248747229,-0.0016993428322212495,2021-08-01
339,AXTA,-1.1992310830075056e-05,3.40946954640247e-05,0.0001375996120538757,0.0004124846494313107,0.002033104363927198,0.0037624565051320013,2021-08-01
340,BWXT,-2.530299856060818e-05,7.077749335471696e-05,0.0006468274216402754,0.0005366795062908626,0.0048028096832875644,0.0059317811206176215,2021-08-01
341,HII,-1.7315094588905857e-05,6.126648563846746e-05,0.0003155769266326179,0.0004645610589773398,-0.0008769046481764493,-0.0022009851495427887,2021-08-01
342,MSM,-1.7425174393944872e-05,4.0609467319324605e-05,0.0005934307757067211,0.0004842725908138659,0.002492969733275818,0.0019575221781271304,2021-08-01
343,SNA,-1.2210719604240728e-05,3.5146150678852254e-05,0.00043397612470262055,0.0004191219085083378,0.0018024850006308907,0.00258012403737926,2021-08-01
344,ALSN,-7.056089515995743e-06,4.5649911983354824e-05,0.0001630522178788411,0.00034235058559515277,0.002840191957881656,0.003963888698132096,2021-08-01
345,KAI,5.789186782360529e-05,7.872763485433504e-05,0.00014910021627908906,0.0003333829132752646,0.0026789952459789147,0.0023194360290754172,2021-08-01
346,MYE,3.3950931006128106e-05,6.13226771056711e-05,0.00024047500130334462,0.00025967924453914015,-0.0010601068681181888,0.00023384670349649127,2021-08-01
347,HPQ,-1.4467974263418295e-06,2.2873179759506772e-05,0.00012857765147095485,0.0003181405766839743,0.0030937000626853907,0.003920902223486378,2021-08-01
348,SNX,-1.2664617710532792e-06,2.15902460519274e-05,0.0002311449345259338,0.0003002963908791139,-0.0019963090184303266,-0.004360048070415688,2021-08-01
349,BCC,-4.885422365773291e-08,3.542023433597875e-06,6.312948307383735e-05,0.00015184662991604104,-0.003057554633715315,-0.002358738317381952,2021-08-01
350,LPX,-5.1567047262509506e-08,3.5944145067242324e-06,9.857094962826143e-05,0.00015409263648292636,-0.002419053042494909,-0.0011931688325393544,2021-08-01
351,JELD,-2.115242418939895e-08,1.9406080006702135e-06,8.139976206188644e-05,0.00013969871971708246,-0.0017122010873886339,-0.0034900852358863955,2021-08-01
352,DOOR,-1.9727715249360395e-07,2.822774386789741e-06,8.00790623711796e-05,0.00020320330934867314,0.0014099563836057216,0.002562231215847275,2021-08-01
353,FOR,-5.556570675491369e-07,6.942942011797266e-06,9.356802962007555e-05,0.0002823233237446379,0.00025888984639932573,-0.00042403970265597515,2021-08-01
354,LZB,-3.697970414395332e-07,1.5406053455544303e-05,9.169230806989924e-05,0.00022687491514364748,-0.0043257248078374545,-0.005905215435064127,2021-08-01
355,BC,-5.132174750740074e-07,1.5912578211702584e-05,6.624963056734481e-05,0.00022433560842959508,4.588499072782755e-05,-0.0009814158194519226,2021-08-01
356,SSD,-2.138359032977765e-06,2.669265402245537e-05,0.00021050101271342028,0.0003763131719487397,0.004543381013884088,0.00720540035891934,2021-08-01
357,GFF,-2.4353563321377826e-07,1.7809032483770907e-05,6.274658165201476e-05,0.0001718154726467374,0.00021872291299734458,0.0009413098889468075,2021-08-01
358,HY,-9.459432754833194e-08,9.71796456333266e-06,7.117754000450446e-05,0.0001480895508437034,0.00041402050354782217,0.0013259619348765497,2021-08-01
359,LCII,-4.312423744632064e-07,8.637158793730051e-06,0.00011472152140458296,0.00020899938527860025,0.0032062389604190895,0.0030571620574661664,2021-08-01
360,LNN,-1.3786408337277483e-06,1.3388364596962394e-05,0.00023742433118959904,0.0003239676423087389,0.0001141005318870504,-0.0003168539495581343,2021-08-01
361,BG,-2.1105834732330347e-06,5.78038084721874e-05,0.00015617989469160408,0.00034921282870475196,0.0006856252023551637,0.0006907920735018132,2021-08-01
362,BSIG,-1.152724086570626e-06,3.876185267393307e-05,0.00016282872351344496,0.00022340305306482085,1.0637944347036258e-05,-0.0014557657492508629,2021-08-01
363,SPB           ,-3.774156660145717e-06,3.646517055470618e-05,0.00019242282853686957,0.0003352279961886349,-0.0006942416615213077,-0.0017441163536355718,2021-08-01
364,AB,-3.292416934518809e-06,2.3260530607268332e-05,0.00028276889346472584,0.00032866195204930794,-0.003178744153056145,-0.002948201246594846,2021-08-01
365,RMAX,-1.6860248410121958e-06,1.721357740858288e-05,0.0001107005857683042,0.00024322093284875044,0.0006157060025899894,-0.0002574872645749177,2021-08-01
366,KN,-1.5216599761328016e-05,5.2753421685639255e-05,0.00020652296365240437,0.0004967538858858017,0.0009019352166202998,0.0007366894317919765,2021-08-01
367,MGA,-2.881238370505639e-06,2.5886758476606076e-05,8.232949568530601e-05,0.00024376329450004022,-0.0015460621121047124,-0.001673995982004628,2021-08-01
368,DY,1.287752522892419e-08,6.430736550996904e-06,4.714887875413529e-05,0.00010129989964034344,-0.0029853856296864142,-0.003622704448327961,2021-08-01
369,APAM,-1.1847394154278548e-06,5.303860235878929e-06,0.0001146810445300584,0.00021826747332176973,-0.000410949060207489,-0.00016377668313544594,2021-08-01
370,JHG,-1.68348518736778e-06,6.087746606645651e-06,7.474359526977364e-05,0.00025052641113487576,-0.00016361151635731279,-0.00018664049186866102,2021-08-01
371,XPO,-1.3702202938920803e-06,8.738951072240318e-06,0.00012056369321689532,0.00022417106506988685,-0.0030751629531598277,-0.0035252060057426498,2021-08-01
372,BDC,-1.1505468024785124e-06,1.2283933409011078e-05,9.248907246935262e-05,0.00019242452722806526,-0.0011932127443497653,-0.001307818712544471,2021-08-01
373,FMC,-1.2630552415272877e-05,3.077042403487707e-05,0.00026648021823728483,0.0004820104522200425,0.000947671331006667,0.0022347338359870153,2021-08-01
374,MT,4.554451155176408e-08,1.438903846819993e-05,7.234220806026706e-05,0.00014710368222903568,0.0034421210483860268,0.006618255008024458,2021-08-01
375,CX,2.6443237973060276e-08,7.608274377745049e-06,7.949409287239404e-05,0.00012480553438750527,-0.001636812007269713,-0.0018884628869514635,2021-08-01
376,SUM,2.998845899557589e-08,7.995926855171398e-06,4.8818167881101835e-05,0.00013116455513251889,0.0005060371317507131,0.0008342898557086774,2021-08-01
377,LAZ,-2.848623112538287e-06,2.960980415513935e-05,9.411701078649807e-05,0.0002959978491221898,-0.003970057141976901,-0.004612209416848807,2021-08-01
378,CC,1.1592318676657159e-07,2.9353877871844513e-06,7.12175831033412e-05,0.0001421044308172241,-0.000783455543549482,-0.0005452133470341805,2021-08-01
379,TROX,2.3157910287189458e-08,1.994093088147e-06,3.254216674659083e-05,9.653561431469022e-05,4.3515112428987824e-05,-0.00031841593350887134,2021-08-01
380,KRO,-2.5610164937055638e-06,9.949827487726143e-06,0.00013930112938101435,0.00028107389299166955,0.0011735232245351321,0.0022428315355757953,2021-08-01
381,ASIX,-1.9590463380672103e-07,8.1532954859141e-06,3.62246666123156e-05,0.0001332016707644393,0.002191147601764188,0.002202113070029171,2021-08-01
382,CTS,-2.6540027904660524e-06,2.7431611098073073e-05,0.0004722074602906479,0.0002425893025342783,-0.001972634105380546,-0.004809025649199146,2021-08-01
383,NNI,-1.3742185158537384e-05,5.9302413642253285e-05,0.0005175965400259697,0.0005244362466586605,-0.0018358736579222798,-0.003110537669913557,2021-08-01
384,GLT,-1.6026308656540805e-06,1.7596643250484232e-05,0.00014558524192555684,0.0002633351502084725,0.0036114196131323923,0.0040279587128087425,2021-08-01
385,TRTN,-1.1427571279828967e-06,1.5290692999462073e-05,0.0004074830432856061,0.00022882642334038223,-0.004792132406745034,-0.006749578836528613,2021-08-01
386,MATX,-7.778227234627794e-07,1.993278316073146e-05,8.608752829992093e-05,0.00018862610866160647,0.0042501187391332925,0.004453998934210493,2021-08-01
387,ABG,-2.610817339345949e-07,6.7734276471182325e-06,4.996225346633195e-05,0.00016847021908906286,-0.0025159652971027506,-0.0012206980985784634,2021-08-01
388,AN,-6.119518983576113e-07,8.263828563613557e-06,6.0955769930344626e-05,0.00020553980660275445,0.00017517689986141664,-0.001231324003855248,2021-08-01
389,GPI,-1.2241998194773619e-08,4.879233712071759e-06,3.5990273188747577e-05,0.00011966816205025582,0.0020190813991555747,0.002860416028816897,2021-08-01
390,SAH,-2.0309740153804773e-08,5.581918176019473e-06,4.117342433815801e-05,0.0001369022121622328,-0.004040453638534685,-0.005547942511743332,2021-08-01
391,LAD,-3.8526957880369065e-07,2.1867611147756967e-05,6.22535422137922e-05,0.00017046541019104074,0.0010202997601566682,0.0016518084506445161,2021-08-01
392,AGCO,-9.057279218919805e-07,3.244254887909357e-05,0.00012973874943552903,0.00023516625629076634,0.0011051857335389174,0.0015520622177905249,2021-08-01
393,ASH,-6.06845669472429e-06,5.903992910656207e-05,0.00019478469708682138,0.00042796264718305215,0.0038003785897769804,0.006646045166478696,2021-08-01
394,SEM,-3.250337117091325e-07,4.1914006942393836e-05,8.798281730981546e-05,0.00018903207879099933,0.0005354957585033276,0.0007576648393671174,2021-08-01
395,MOS,1.450497233192488e-06,0.00018746797594346715,9.628984891870299e-05,0.0001556784836076781,0.002778999354549262,0.004371880209818682,2021-08-01
396,NTR,-2.6744968542917675e-05,0.00044110306112414685,0.0001472963111804317,0.00036630392644352406,1.8172230064112914e-05,-9.84957255587929e-05,2021-08-01
397,AA,1.4766645829273722e-06,6.211028869605476e-05,3.005832642097801e-05,8.164868243175167e-05,0.0018028920456060451,0.001161578313672258,2021-08-01
398,BHP,-2.3667332674063124e-05,0.00014689099680103093,9.496181953080416e-05,0.0003183958982843084,0.0010043558170501406,0.0027669139301478942,2021-08-01
399,FCX,2.8692737233309577e-06,5.599547436474891e-05,3.619985054883727e-05,0.00012137387415492753,-0.0013105126356346263,-0.0008890643433590047,2021-08-01
400,BCX,-7.359856283149507e-05,0.0006860749480861821,0.0003170771200361394,0.0005613520621961719,0.000892185331666098,1.0281803345629358e-05,2021-08-01
401,AROC,-1.2775419821392868e-06,2.2233854474614486e-05,0.00014400258651963094,0.0001471436483385561,-0.0004047463478021535,-0.0013065517305075219,2021-08-01
402,WTTR,1.3962398974107775e-07,7.791047150621998e-06,2.6609040401102364e-05,5.1561149841523856e-05,0.0009455373872648025,0.002361126696988868,2021-08-01
403,DRQ,-3.5167461400613197e-07,8.908790531986452e-06,6.090781647300894e-05,0.00011802293522598226,-0.001737347209438779,-0.003633960678410807,2021-08-01
404,NOV,-1.2509299019963382e-07,7.097852134510243e-06,4.384301995910206e-05,9.403177004860082e-05,0.0008629789338860341,0.0008464006451393289,2021-08-01
405,PUMP,-1.3625243237374146e-09,4.104747087795115e-06,4.172501914086731e-05,5.478270065082569e-05,6.770570000180594e-05,-0.001262997343192427,2021-08-01
406,HP,-2.0278991337107384e-07,4.271727115098252e-06,4.480922475688565e-05,0.00010040044459306615,0.002220047179175086,0.003546874114898982,2021-08-01
407,HLX,2.4165845178650384e-09,1.3649774690117576e-06,2.5540435843955395e-05,5.722641102912102e-05,-0.0013609103475433805,-0.0005101230339410954,2021-08-01
408,OII,7.331322331509252e-10,1.0821616991815135e-06,3.5397846727012066e-05,4.536941568872143e-05,0.0019436048315971855,0.004996480583631107,2021-08-01
409,MRC,-3.4827658482783835e-08,1.8664188338572686e-05,4.8097029298523254e-05,7.208361275393598e-05,-0.0011800625450119628,-0.0017253236970417908,2021-08-01
410,DNOW,-2.994349469980959e-07,2.9074330530745846e-05,8.535965376255075e-05,0.00011228898600036812,0.0006639854533591269,0.0004260344907827356,2021-08-01
411,APA,9.308150519630386e-06,1.3490926253908864e-05,5.4856639569884444e-05,7.932870010656362e-05,0.001895033364995031,0.0017475818655798658,2021-08-01
412,MGY,1.706770006891034e-05,8.795874848326179e-06,4.035350565381177e-05,9.135968448051323e-05,0.004709162435031369,0.004830505895657957,2021-08-01
413,MTDR,4.791108438767201e-07,5.613538416847446e-06,2.5753658180487856e-05,5.8305865809359013e-05,0.0013411401925327842,0.0016378815530377169,2021-08-01
414,BGR,-3.703304693264576e-05,3.218291025295239e-05,0.00018344187658567125,0.0003317908129279691,-0.0013916285390185806,-0.002299232326208058,2021-08-01
415,NDP,-5.862608724534163e-06,2.359940884194888e-05,0.0002106113151233265,0.0002432989118369557,-0.003506658060023684,-0.003028757533359316,2021-08-01
416,E,-6.511456706996027e-05,6.387527700650296e-05,0.0005033356899250442,0.00036825221661172894,-0.00036473900974350135,-0.0014424394372485154,2021-08-01
417,PARR,5.332119066874003e-06,3.537999045031076e-05,3.186204824886175e-05,6.945647888127167e-05,0.0017595926705329143,0.002060864010412036,2021-08-01
418,PBA,-2.2054163555386485e-05,0.000264734999710405,0.00016201879123673864,0.0002920874890606996,-0.0031962883251853854,-0.0034871933746036202,2021-08-01
419,ET,-6.4594193032832925e-06,0.0001015344561837069,0.00011528063383584534,0.00018746871096795493,0.0032997944395942135,0.0027039950755276335,2021-08-01
420,TRGP,-1.644891758181889e-06,6.854126020794893e-05,5.347682596571924e-05,0.00012655153907610415,-0.0009215793582585651,-0.0013618350416176597,2021-08-01
421,SSL,1.3448115121103098e-05,0.00010939309304287652,9.102706572245427e-05,7.49673776310199e-05,-0.003634858404793842,-0.0027532624417910116,2021-08-01
422,LPG,6.396704596740077e-06,0.00019011442395237293,0.00016647410998292905,0.0001588700629798618,0.0026733921340283922,0.0032042103915350803,2021-08-01
423,SFL,1.1071393525430203e-05,0.00023655519094338296,0.00016295773582633544,0.00019767852066186902,-0.0007471769613929084,-0.0010811962179398432,2021-08-01
424,AM,4.987356592864259e-06,0.0001714763919286006,6.196371977110226e-05,0.00014663555591239077,0.0017861373259493024,0.001197686744334096,2021-08-01
425,ENLC,-9.475025095511542e-06,6.021409596705865e-05,3.279098105565986e-05,7.960996249266457e-05,-0.0005175668109340484,-0.0005848049932304183,2021-08-01
426,CEQP,-9.405179443462535e-07,1.8157658547293858e-05,7.161297802033577e-05,0.00011725667141148345,-0.004150735258927859,-0.004295477124484558,2021-08-01
427,MPLX,1.9963418627088735e-05,4.173982603832406e-05,0.00010093056108314682,0.00026954318222255954,0.0018542570290906895,-0.00045599434685766156,2021-08-01
428,MMP,6.716030554654594e-05,0.00010248783745973988,0.00015693395396838424,0.00040313566903965413,0.0025927748898470315,0.003040551447399554,2021-08-01
429,GEL,-7.011746069287101e-08,1.382356983422987e-05,3.104029965401522e-05,9.193870274095988e-05,0.0005624972081976623,0.0029265207184477724,2021-08-01
430,NS,-5.956171973745305e-07,2.389937695404528e-05,5.366514084957132e-05,0.00015895154000171693,-0.0014668871551833606,-0.001926388125701572,2021-08-01
431,HEP,-1.5134098667295181e-06,5.077304366350618e-05,7.911247573949897e-05,0.00020322600705677415,1.737864655380145e-05,-0.0005937461245858979,2021-08-01
432,BSM,2.1262166159865385e-05,0.0004584580837958903,0.00019427012313235367,0.000240456110505092,0.0003053789113645322,-0.0014328374370340667,2021-08-01
433,TPL,1.0935119742969723e-06,0.00010891389383723409,0.0002494121383975639,0.00011927722792443245,-2.725803783605889e-05,-0.00033362421027389007,2021-08-01
434,AR,2.1263179329290702e-07,3.615637846118604e-05,4.1718256480004704e-05,6.06929850568227e-05,-0.0010688736922133493,-0.0017375092412920115,2021-08-01
435,TK,3.693273138243283e-07,4.656258035076328e-05,5.364470045970468e-05,7.81610911742647e-05,0.00012293636686953055,0.0008604887441722666,2021-08-01
436,GPRK,1.6432229790864423e-06,0.0001920927876376355,0.00020497835324638923,0.00013455638284749712,-0.00040023983647712713,-3.1921252564739245e-05,2021-08-01
437,EC,1.7105722138328186e-05,6.282309470452832e-05,0.00043317574460912734,0.00019633483276645865,-0.004138290028103568,-0.0051650392388782424,2021-08-01
438,SBR,9.468360387622874e-05,0.00013092591954607307,0.0004248713761892512,0.0004091698863255813,-0.0014584714193728644,-0.003186243737009491,2021-08-01
439,CPE,5.754934866183078e-09,5.444254057029174e-07,1.3552245603190258e-05,3.1498787509069954e-05,0.0017802858133834586,0.0017909036027981612,2021-08-01
440,SM,5.404004598970715e-09,5.374387922295351e-07,1.3378329579555052e-05,3.109456343925098e-05,0.0033594613214296964,0.004000994513936954,2021-08-01
441,WTI,-1.4249303299237266e-06,1.8849846280088094e-06,2.8766272607039673e-05,6.076921943570389e-05,-0.0025744794214715098,-0.004273517728756043,2021-08-01
442,KOS,-1.2635062237094664e-07,1.8900474979120581e-06,1.6641907979795007e-05,3.51563016755068e-05,-0.0044048795582711416,-0.003919742111719193,2021-08-01
443,BTE,-1.219562651542366e-06,3.208244821187504e-06,4.9415433199055194e-05,5.9327374407250066e-05,0.0010655290089521925,0.0030650772185973167,2021-08-01
444,CPG,-3.16004574410164e-06,4.019929488380219e-06,3.133991675893565e-05,7.433717659975922e-05,-0.0003791826036933993,-7.955339035357293e-05,2021-08-01
445,CIVI,-7.982668535964773e-06,1.4852890668876523e-05,5.886749151690334e-05,8.822543770765398e-05,-0.00032390466570035364,-3.477272779868773e-05,2021-08-01
446,PDS,-4.516042715622308e-06,1.9897134788698194e-05,3.910271857716258e-05,6.901363892727509e-05,0.0030141210132539216,0.0034070927997957106,2021-08-01
447,CLB,3.2866232873199073e-06,2.253191943727306e-05,4.092715288747858e-05,8.777800052663468e-05,-0.00022163806168768645,0.0007175934655284217,2021-08-01
448,NBR,-6.351365591236979e-08,3.3798182089306294e-06,2.9588208408543717e-05,3.714475257239471e-05,-0.0024910025614709058,-0.00369823380643575,2021-08-01
449,RES,-4.787945257638092e-07,5.5652072209665646e-06,2.5785600204864154e-05,6.116253373944418e-05,0.0010258947798735013,0.00016880667853644046,2021-08-01
450,FTI,-1.125250109647482e-06,7.276119392029855e-06,3.573546949010981e-05,7.984579083635279e-05,-0.0019698153131446324,-0.0028493761125836787,2021-08-01
451,TS,1.6146711288452733e-05,1.5813241775070846e-05,0.00012706886951940956,0.00017352942237314542,0.0025939779801140263,0.0024268732907488334,2021-08-01
452,NR,3.711707820292769e-07,1.370221224673789e-05,3.7122458933005234e-05,4.989583896810474e-05,-0.0012806515369460391,-0.0023158297493515788,2021-08-01
453,TDW,1.9425844152297625e-06,2.4529338907715072e-05,3.9976700646030714e-05,8.932221469746948e-05,0.003846275583990547,0.003791715341545946,2021-08-01
454,SOI,-2.831454043414765e-06,9.155009931053959e-05,0.0001513649181383871,0.00011074213042594831,0.002652405529712262,0.002714645860474716,2021-08-01
455,DK,-1.0463289529432627e-06,2.0535566159942776e-05,3.349257637953477e-05,7.301088761823841e-05,-0.002410912351059964,-0.003992090711309302,2021-08-01
456,PBF,1.2022077131108526e-07,1.045387859378056e-05,3.135984795008738e-05,3.716707634163165e-05,-0.0003804704675230417,0.0005188379998522753,2021-08-01
457,CVI,-3.269803339333291e-07,2.557191352440693e-05,3.8556956982286826e-05,5.219920960946387e-05,0.0007854437631640642,0.0008231854768840417,2021-08-01
458,DESP,-8.747470410383458e-06,7.000584567857361e-05,0.00015070027490971612,0.00011246857371638415,0.000629327285517345,0.0003590534334283089,2021-08-01
459,CEE,0.0005198724822139142,0.0004511190954014167,0.0005154794139462782,0.0007247497797394875,-0.0003242307206719844,-0.0016214122095306756,2021-08-01
460,GGB,3.6567092576540336e-06,4.085275891082725e-05,0.0001733479218713437,0.00014294517745068276,0.0005075313973521128,0.0006807917499656195,2021-08-01
461,VALE,1.7515647364335624e-05,5.975960304123638e-05,0.0002535741348991058,0.000209100860966526,0.0014730255945158998,0.001866077193625096,2021-08-01
462,BBD,1.171144334235702e-05,3.06064703696121e-05,0.00014701128717909483,0.00017961887266111694,0.0008521836009981036,-7.73682154969513e-05,2021-08-01
463,PBR,2.4407372208483815e-06,2.1189838606545845e-05,6.369473043355108e-05,0.00012435589195406514,-0.0007670824234908287,-0.0003620978345398924,2021-08-01
464,AZUL,1.826114425862746e-07,1.364699206011662e-05,3.877996025605882e-05,7.571295952993218e-05,-0.0022489878223985967,-0.0021709597989243313,2021-08-01
465,ERJ,2.0371769393405687e-07,1.4212668965895076e-05,8.126216797588096e-05,7.885131210503109e-05,-0.00248969398440573,-0.003888075172758201,2021-08-01
466,EVRI,-3.114303953368429e-05,4.680708571819685e-05,8.603243349434129e-05,8.926309795311768e-05,-0.0013792156604641806,-0.002692569112266784,2021-08-01
467,IGT,-2.7683850693652185e-05,4.431386679819158e-05,6.948004480904275e-05,8.450842371394629e-05,-0.0005326835628595529,-0.0003108165161088106,2021-08-01
468,BUD,0.00012665435338153613,0.00020788039428451307,0.00039948435041553846,0.0003598735825782921,0.00042522478518167297,0.0014637478749984219,2021-08-01
469,TV,1.4895619361536876e-05,7.320360825913864e-05,0.00011130523459490515,0.00012672693282377853,-0.0020514894744991397,-0.0019847873769464042,2021-08-01
470,BHC,2.821153669659249e-05,0.00011517101305353521,0.00018317214116926635,0.00020412923685518878,-0.001951805791556869,-0.0006284171035062748,2021-08-01
471,PRO,2.2075939273055467e-05,0.00010010332213387017,0.00017747957489513857,0.00017742324402718993,0.0020787541036718094,0.0018568449109358039,2021-08-01
472,RYAM,-1.7431618448534803e-06,2.6918094890830628e-05,5.7015442058717325e-05,4.73063111910629e-05,-0.0013854432021837139,-0.0014408064501536153,2021-08-01
473,CPS,-7.550869242523539e-07,2.0198943117519033e-05,5.535257862055163e-05,4.939924390225491e-05,-0.0013687914880405787,-0.0021037511286208285,2021-08-01
474,F,-1.969548387769852e-05,7.234327324066745e-05,6.314855681791307e-05,0.000176925246965206,0.0003937985032437262,0.0014960889858947586,2021-08-01
475,CCO,-8.990980809626328e-07,3.005079759832179e-05,6.33109827876116e-05,5.431850405995979e-05,-0.00023167476198531354,-1.3624618314443671e-05,2021-08-01
476,CEIX,-5.88777616485438e-07,5.389629115364302e-06,3.8898933881437025e-05,4.980637033165714e-05,0.0014810864033069373,0.002864165311594296,2021-08-01
477,HCC,-2.2710565944692122e-06,9.158098263847367e-06,9.298717094811894e-05,8.463135846631571e-05,0.0006056465299017185,0.0004340421030881753,2021-08-01
478,HBM,-7.948694477627453e-07,7.589432770662339e-06,3.155515232260223e-05,7.849873193135593e-05,-0.0028227413849824384,-0.0035646491119324694,2021-08-01
479,TECK,-4.869254640709165e-06,1.0988937848605224e-05,6.502565697297412e-05,0.00011366036335713016,-0.0010997340509835102,-0.0003775219687100395,2021-08-01
480,CLF,-4.009396931880055e-07,3.960385457159876e-06,7.242938217604903e-05,6.245589118189648e-05,-0.002548350648510697,-0.003729804841648737,2021-08-01
481,X,-4.5524793517709816e-07,4.070533578381856e-06,5.58025818819875e-05,6.419294408933339e-05,-0.002731797676115833,-0.003851635231990824,2021-08-01
482,TMST,-4.021731188992282e-07,5.857414399992174e-06,4.281822327528002e-05,5.1784875767016236e-05,0.0030705214208328144,0.003983676304361241,2021-08-01
483,FLR,-1.0250644159555297e-06,1.2826041623580253e-05,5.350314505283969e-05,7.243366961406622e-05,0.0027998611282998367,0.0018367349871200736,2021-08-01
484,MSB,-2.5967942626346357e-05,5.5099950820100966e-05,0.0002081429869523845,0.00020181334326443629,0.0033774071755947144,0.004657624967426236,2021-08-01
485,IDT,1.1239943836033095e-07,4.7352590520665885e-05,5.540007690407553e-05,5.0914920995432704e-05,0.0002747526739306811,0.0005161595103529848,2021-08-01
486,REX,-2.468827931991869e-06,5.264444053347308e-05,7.060095379627342e-05,8.379001647295959e-05,-0.0011460845241177825,-0.0005593422002274616,2021-08-01
487,DFIN,-7.535789243649528e-06,3.497310607725664e-05,6.990758164282576e-05,0.0001252515478678741,-0.0012447756286337074,-0.0011990039037648927,2021-08-01
488,IPI,-1.197135155250729e-06,1.3942923966264869e-05,4.998955335204416e-05,4.993473570008234e-05,-0.003220946052280171,-0.0043056607190285505,2021-08-01
489,DAR,-1.5791402453742456e-05,3.110208311647847e-05,0.00011612419769710875,0.00017159367444720308,-0.0023582182035370514,-0.001992260219652386,2021-08-01
490,ALB,-7.84732499637513e-06,1.5628207452466755e-05,0.00011327538337451582,0.0001469188902272156,0.0014819593107261047,0.003063245108173297,2021-08-01
491,SQM,-8.52106216355372e-06,1.60137874780545e-05,0.00011607012009354452,0.0001505436814660976,-0.0019838956640174515,-0.0020621610760250984,2021-08-01
492,TWI,-4.819027759702002e-07,1.8045563671883638e-05,6.082587188584622e-05,6.568340315684774e-05,0.004494404386847516,0.005159659438096035,2021-08-01
493,BKD,-2.765368532545515e-08,2.9170652480792466e-05,7.643047317373676e-05,7.22316954800026e-05,-4.0920915536887074e-05,4.359850382571446e-05,2021-08-01
494,MOV,-6.792299330012449e-08,3.338417199570422e-05,6.172333344549263e-05,0.00012514978756519968,-0.000990468241791888,-0.00015651082600526823,2021-08-01
495,SIG,-1.789776825701726e-08,1.864333495462801e-05,5.938676907980121e-05,6.988968932279606e-05,-0.0004615520307872275,-0.0010225086487750076,2021-08-01
496,MAC,-5.884151251828945e-09,4.0172344666042815e-06,2.608632426791693e-05,7.267471787384749e-05,-0.0018406701997507556,-0.0021682638457067014,2021-08-01
497,SKT,-1.3389898348576385e-08,4.782511442070295e-06,8.193664768158177e-05,8.651913963953933e-05,0.0037146326136353654,0.0058869253368850636,2021-08-01
498,M,-1.059691848776158e-08,7.347307581664584e-06,2.6853735601404515e-05,7.481267343943843e-05,-0.004413314007097791,-0.005698966678334415,2021-08-01
499,CORR,-1.1178426648817589e-08,1.0404845798145267e-05,7.042445967136582e-05,6.313032364158635e-05,-0.0007882386535864545,-0.000668051190487882,2021-08-01
500,BHR,-7.341979889996395e-09,1.3416045016925725e-05,4.2135256768701125e-05,5.371656421037256e-05,-0.00573987137025848,-0.005287391671562109,2021-08-01
501,RGS,-1.3018789470885186e-08,2.5278627440580226e-05,8.212722217836153e-05,6.71486878279299e-05,0.002942386067302784,0.004916582330742602,2021-08-01
502,MITT,3.7460195546870006e-08,1.3653220857684512e-05,2.2918227237394056e-05,5.3055726124931795e-05,-0.0007460148916680926,-0.0011795953029501837,2021-08-01
503,WMC,2.8694178679710853e-07,2.889143329964765e-05,6.579941159571794e-05,0.00011227064942995444,0.004593851541839686,0.0040546811076852644,2021-08-01
504,RWT,1.0086958689129482e-06,3.900452422386069e-05,4.409225294526759e-05,0.00015948824161484925,-0.00042303912860085333,-0.0020680064077094806,2021-08-01
505,TWO,8.137766242020483e-07,3.5914973688112196e-05,4.90366969116813e-05,0.00014685516911539526,-0.0006611863383341745,-0.00030906769891723594,2021-08-01
506,COTY,4.314359310079988e-07,4.0949696070982155e-05,6.897458964721156e-05,8.32912710401652e-05,-0.002114877308076524,-0.0019199332706120362,2021-08-01
507,GCI,1.6619241490295962e-07,2.2014501936412267e-05,5.510429466867758e-05,4.477727611021993e-05,-0.001342269012289103,-0.001939646417770416,2021-08-01
508,EEX,-6.326461069530708e-07,3.0086077595659532e-05,6.599779674646789e-05,6.860490507316807e-05,0.0005280125324066917,0.0003690202877715965,2021-08-01
509,TISI,-4.428533152829467e-07,2.4628087748967142e-05,4.0931928146182285e-05,5.61591193394815e-05,0.002533796482075308,0.004042879089756416,2021-08-01
510,IMAX,7.286670356865402e-07,3.019369302778701e-05,4.683214503457091e-05,0.00012319720710487805,0.0008780940566061634,-5.001164057553803e-05,2021-08-01
511,CNK,-1.3459836956053145e-08,8.555059761263079e-06,2.3216717187702668e-05,6.107417701148212e-05,0.0009449586981890252,0.001786194222733403,2021-08-01
512,MCS,4.876885449700743e-07,1.4710289676028183e-05,6.219180946937098e-05,0.00010501607944715041,-0.0030157515418697215,-0.004502361170090803,2021-08-01
513,CPA,1.210360325332758e-06,2.6103968651218905e-05,5.9778670953221635e-05,0.00014434697998777586,-0.0026490818995189803,-0.0017118276943995942,2021-08-01
514,MTN,9.792281284653239e-06,6.148484131892232e-05,0.0005299314305636936,0.00033999240797431926,-0.0012253581582364382,-0.002142670120271866,2021-08-01
515,LVS,4.834048348387052e-06,6.364109428041875e-05,0.00019183452031095463,0.00023744146485744482,0.0023418092555269445,0.002938754486015403,2021-08-01
516,CRT,3.307016944364776e-05,0.0001296422158350927,0.0002177137191661686,0.0001662989609586207,0.003416876741460328,0.004087325294175262,2021-08-01
517,ICL,0.0001013275662924175,0.0002834719980533882,0.0006246578264044694,0.00036362459892776714,0.0034651646089442507,0.003341438371698886,2021-08-01
518,GIL,3.4362621304583953e-05,5.111902542380276e-05,0.000448035867925815,0.00023661374025832292,-0.0036847505046952774,-0.004461417416564436,2021-08-01
519,NVGS,9.916444880794924e-06,2.5519581998949587e-05,0.0001900394745827692,0.00011812204353545438,-0.0035251469174788813,-0.004046439084650569,2021-08-01
520,CODI,0.00011079278954225341,0.0001311305094843409,0.00034257831911676547,0.0004351043906260092,0.003194819660288017,0.0029008542221399688,2021-08-01
521,KRP,2.6379641725203544e-05,5.819627841391977e-05,0.00020224326891645354,0.00018361946756353264,0.0024965063391048994,0.004116818003475556,2021-08-01
522,KNOP,8.142879702736e-05,0.00011558295359086002,0.00036966371499896265,0.000364684494888558,0.0014341951116825773,0.0006345173525128374,2021-08-01
523,LW,1.450932607171703e-05,9.562593723880561e-05,0.00015100044940442452,0.00022295184578728414,0.0018672189455147242,0.0026349499046465492,2021-08-01
524,FTAI,1.258338484424167e-05,5.245138169618245e-05,0.00013439599551923992,0.00017207368613648456,-0.0012364851982130368,-0.003495906962545032,2021-08-01
525,USAC,1.3235654834630252e-05,5.404658756252731e-05,0.0001835756612355372,0.00017730696969722027,-0.0016865560650003635,-0.002638636795022469,2021-08-01
526,EURN,3.686495244648338e-05,5.994058470129422e-05,0.00016924345451771575,0.00024659011917017105,0.00036151650850962665,0.0017114291062835054,2021-08-01
527,STNG,-4.3605804268512115e-06,2.1431720259444333e-05,5.6850757510190845e-05,8.81681498292765e-05,-0.0031895249108886384,-0.005603525684584402,2021-08-01
528,INSW,-6.761399232953507e-07,4.142207242031963e-05,0.00011219835179832714,0.00010474505694640855,-0.0008232086698923577,0.00021857748844406928,2021-08-01
529,TNP,8.959717570529263e-06,8.7748870131982e-05,0.00015294693138131167,0.0001314150948208845,0.0019938127634246063,0.00153537394149983,2021-08-01
530,DAC,4.3552641574975153e-07,6.0425753904685504e-05,4.1144043352481704e-05,5.7538141490690614e-05,-0.002456297011935657,-0.00208090329981033,2021-08-01
531,ATGE,3.310324971248426e-06,0.0002230738188787406,0.00024602678849302136,0.0002153427393948774,-0.0001851609760373577,-0.0012686741656699454,2021-08-01
532,AC,3.185107648707925e-06,0.00016579615141283852,0.00030739601684819296,0.00021053057230847934,-0.002138036430793309,-0.0036235288277714508,2021-08-01
533,CIEN,5.568367406226352e-06,0.00024176125847255996,0.0003452942216012533,0.0003069922653482349,-6.1611817070963e-05,0.0007122237102949507,2021-08-01
534,AVNS,1.916771912818953e-05,7.004951319399902e-05,0.000311149103732618,0.0002561708551430164,-0.00017164525285511643,-0.0014400474939144702,2021-08-01
535,EVH,8.939418366712737e-06,4.19715481508604e-05,0.0001298988714756049,0.00015348982300141504,-0.0004159381028208859,0.0010940492987140853,2021-08-01
536,STN,0.0001822326922362238,0.00019967633995124687,0.00065393573730552,0.0007639559823452479,0.0027302189964792073,0.0025047862295506512,2021-08-01
537,ARES,5.3410014617164973e-05,7.123017731095694e-05,0.00039472718884165514,0.00039588930080268605,-0.0005176376757502977,-0.0002903981502157773,2021-08-01
538,PJT,3.989339758947417e-05,6.0764365011769626e-05,0.00019703395612636978,0.0003377214951074995,-0.0017761033933521967,-0.001876224340397334,2021-08-01
539,JHX,1.9096331627180657e-05,4.6582131641092364e-05,0.0001328584466241367,0.0003113628636528034,-0.00285694768007351,-0.003350950985028622,2021-08-01
540,PKX,1.441393982469568e-05,3.950222026946506e-05,0.00015614716941208536,0.00026403953598582087,-0.0013345235264090366,-0.0017864575881424722,2021-08-01
541,BBU,1.2921961359107837e-05,2.505804607795264e-05,0.00036262730780746823,0.0002383322461900083,-0.001591779601072228,-0.0018998769673328497,2021-08-01
542,IBN,1.6807480259555052e-05,2.9360091708533468e-05,9.553605034031395e-05,0.00027924988977477146,-0.003772723214011816,-0.004746648935935298,2021-08-01
543,EL,4.596812482026526e-05,6.935396399721681e-05,0.0003202303013091968,0.0004728193660052216,0.0006233600926800048,0.001072450155118499,2021-08-01
544,AVAL,3.691752894826865e-05,8.655172351847725e-05,0.00027064262886890983,0.0003624284387074422,-0.0026530421374076118,-0.000774556002001035,2021-08-01
545,TAC,5.474487838789741e-05,0.00011109263401307137,0.00030788387890536825,0.00046519154397496506,-0.0027483446857689145,-0.004207119618990189,2021-08-01
546,EFC,1.632489945426796e-05,5.5301894708658084e-05,7.949066369544126e-05,0.0002380587518183388,0.004764014601449217,0.006933458469607931,2021-08-01
547,GPMT,5.506915147407505e-07,1.6334020216121694e-05,1.9438862608176677e-05,7.031325934329454e-05,-0.004782370545446565,-0.0044966468259560795,2021-08-01
548,GDOT,1.458071376303839e-05,7.141270205940847e-05,0.00037926649918590123,0.00021678475851263823,-0.0016452697880889953,-0.002152490328596882,2021-08-01
549,BURL,1.9974027169803668e-05,8.238651187760453e-05,0.0004098679515047344,0.00025563969683455745,-0.00309665498950896,-0.005446860411612596,2021-08-01
550,ELF,2.0499004981650744e-05,8.368600054114533e-05,0.00036436583494450715,0.00025967192104719376,0.0027946025615431286,0.002143648973534493,2021-08-01
551,GHC,6.097654153027748e-05,0.0001351650631900916,0.0007820344715848338,0.0004066520641197212,0.000725046966771089,-0.00013172397783549545,2021-08-01
552,WLKP,9.247135297359179e-05,0.0001764673541044435,0.00041466250769095183,0.000530912442184825,0.00707674480430888,0.010300364331293268,2021-08-01
553,LXU,2.966388969602075e-09,6.802204708800232e-06,2.5955214514056947e-05,2.46093556360389e-05,-0.0009127604794583628,-0.0004522712132979262,2021-08-01
554,MCB,1.2772384131584765e-07,3.999305121980971e-05,0.00016692457870141862,0.00014468885641817284,0.002293267245322226,0.003951043861095863,2021-08-01
555,FPH,1.6480471660769802e-07,5.86723393988622e-05,0.00013295896640317138,0.00016886950173690873,0.0003505480386843567,-0.0005148246681869253,2021-08-01
556,CATO,7.958763756936119e-08,3.084566550902396e-05,0.00012147965146481247,0.00013059505023056104,0.0004285496924244802,0.0014772535000317857,2021-08-01
557,QUAD,2.1127859575473103e-08,1.3803045535482147e-05,4.822616649226409e-05,5.8439634719946484e-05,0.0028455976596278624,0.0027988989131563923,2021-08-01
558,HBI,1.1802837427177543e-07,2.480957527388117e-05,0.00013361868433465877,0.00016208830908285071,0.0038705197622818355,0.004464136782266431,2021-08-01
559,HOG,8.715653758181057e-08,2.0771118974942028e-05,0.00016648568317802686,0.0001357038770410348,0.0014604536351682485,0.0020070313627418143,2021-08-01
560,UFI,6.688670523604227e-08,2.6184391769821295e-05,0.0002610767670381029,0.00012122912847735168,-0.001356523780098474,-0.0029003972279995766,2021-08-01
561,GHL,-5.7855390475176864e-08,3.157385831235299e-05,7.746940592520847e-05,8.91175475304667e-05,-0.0015400074713661541,-0.001483309830894923,2021-08-01
562,VRTV,-2.392339017555409e-08,1.8216233392004714e-05,6.585225937861686e-05,5.141551054921024e-05,0.0010342485384206659,0.001800241607060145,2021-08-01
563,CLPR,2.340713152855126e-07,5.192627737102219e-05,0.0001510922066894758,0.00020550519683642902,-0.0006381162767876246,-0.0002915280731683139,2021-08-01
564,TX,2.0033332936695431e-07,4.730106022036248e-05,0.00017108303894048795,0.00018720028053815447,-0.0019271782551287834,-0.003501868719697049,2021-08-01
565,TPC,5.833182941038094e-08,3.372344197653679e-05,0.00011729269129930364,9.534391808788142e-05,0.0054492712881993675,0.005305163169996745,2021-08-01
566,GHM,3.204063863988209e-06,3.580863281313054e-05,0.00021034477712937762,0.00019918737664442786,0.0031462507602904866,0.002621409451706614,2021-08-01
567,MLP,7.029467977091062e-06,5.593870710299697e-05,0.0004366155046300447,0.0003111619585945562,-0.0014130318229652109,-0.0016297034157568599,2021-08-01
568,CLS,2.06489977167486e-06,3.857202165592452e-05,0.00018332761532312993,0.00015184081810809,-0.002803437030008319,-0.002784849664407181,2021-08-01
569,FC,2.672026846307862e-06,3.1410566194372846e-05,0.00021472914446948622,0.00018288529511358364,-0.002361896235913285,-0.002183496956755643,2021-08-01
570,BRT,2.275087345580456e-06,2.080022568207084e-05,0.00033153365945494493,0.00017155115674437164,-0.0004834175763317583,-0.00016545472600001802,2021-08-01
571,FPI,2.773236270814781e-06,2.3341723902524695e-05,0.00016775194339317684,0.00019251232160127208,0.0015135043604851991,0.002210475779794634,2021-08-01
572,ENR,1.0402504620911522e-05,9.061290266328084e-05,0.00046554583503822047,0.00036352343193851407,0.005085573875406259,0.008132340154091039,2021-08-01
573,EAT,-5.093941552140589e-07,2.327451660122782e-05,9.61122871976432e-05,9.342905450893566e-05,-0.00011575045725352124,-0.00047053881195568086,2021-08-01
574,HVT,-8.258911425465791e-07,3.0818709089377244e-05,0.00010919736618514248,0.0001237131108129893,0.0022959078535447187,0.0005780128291173216,2021-08-01
575,CNDT,2.893102883588979e-07,1.4738557522249845e-05,6.946969983201644e-05,7.972350677487858e-05,-0.0020264785407446946,-0.0016890984971130413,2021-08-01
576,CARS,2.786467108608093e-07,1.1380226575433006e-05,8.238128418068077e-05,8.411140368049762e-05,-0.0007906159754314603,-0.0003193787469318086,2021-08-01
577,HRTG,2.179672989304013e-06,3.324616457981706e-05,0.0003474119603300498,0.00024572283787722873,0.0013868853750998431,0.0024040717637724093,2021-08-01
578,CSV,1.0647050013155438e-05,4.181939868867054e-05,0.00041836856241480507,0.0003618300209716302,-0.0015416769256759667,-0.0029589681631552933,2021-08-01
579,TRC,1.434007815851572e-05,4.966049919525702e-05,0.0004728487877344366,0.00042967283195655874,0.003252631028127044,0.0036413455453038535,2021-08-01
580,KAR,1.3995055001700922e-06,1.135106722871535e-05,0.00015074135101899534,0.0001468707592302481,-0.0009281347803920109,-0.0008074969353422029,2021-08-01
581,RM,1.3875047092632306e-06,1.1301573523650911e-05,9.933447437546876e-05,0.00014623036323104706,-0.002197532377954,-0.0027386967677316583,2021-08-01
582,AMN,6.246956490574975e-06,3.550987681275855e-05,0.000370753801956091,0.00030782759769181726,0.0055335155057940465,0.006913913287874291,2021-08-01
583,AGX,8.16154856248473e-06,4.332273020807508e-05,0.00022151026142389394,0.00038217549933639423,-0.002118273602257377,-0.002998795611725869,2021-08-01
584,UIS,1.3169229949988787e-06,1.6841208913346045e-05,0.00011897513740326606,0.00014856629291306472,0.0030777743220337236,0.0037135831261287337,2021-08-01
585,REVG,3.9236990089669845e-08,1.271912356812427e-05,0.00011424405385224813,8.069426563019244e-05,0.002632589270861977,0.0030030161495482005,2021-08-01
586,SBH,-2.804996964576296e-07,1.93086202002432e-05,7.089500005636651e-05,9.038121788665613e-05,-0.0015064865056181175,-0.0013198951206085396,2021-08-01
587,MOD,1.156954441907024e-06,1.8598549673587548e-05,0.0002011539633397278,0.00011972640488134512,0.0016784288418253978,0.0017112894325476205,2021-08-01
588,ROG,2.78931580683419e-06,3.1560891217718686e-05,0.00019899116656035894,0.00020317025287809956,-0.0048706450652387335,-0.006206403198233665,2021-08-01
589,WMS,3.3989868536701263e-06,0.0001377182642051071,0.0001091042729994278,0.0001870076555553269,0.001169539907823545,0.0024264377229806173,2021-08-01
590,DECK,4.472629833297035e-06,0.00011153176050312262,0.00023125995319572855,0.000230296028182268,0.002408521733946884,0.0015988131648758733,2021-08-01
591,MC,9.376123507972983e-06,0.00015713438872027227,0.00025558621701489236,0.0003244584811526768,0.003153208373428411,0.005105333040731876,2021-08-01
592,MXL,3.043363373961208e-08,1.1210441277200786e-05,3.28900191642778e-05,9.815400048737058e-05,-0.0023877783780366863,-0.0012007242485423822,2021-08-01
593,STM,2.9043115144204955e-06,2.3847667518608287e-05,6.996604525332309e-05,0.0002088003416961482,0.0009511929522188185,0.0016186665253011127,2021-08-01
594,FN,1.0489084836376899e-05,6.600960348947551e-05,0.0002017628020410191,0.0003541594016251645,0.0018732404696084639,0.0025969750702445533,2021-08-01
595,PSTG,1.3516818920681947e-06,5.0770453492318835e-05,9.290094124950577e-05,0.00016989098992972013,0.0009975515768684887,0.002790908204007018,2021-08-01
596,BMI,9.740310925560258e-06,0.00014719765622074051,0.0002031718869510001,0.0003119303840785085,-0.003347275784816212,-0.003996165683533231,2021-08-01
597,JOE,3.241042646964722e-06,0.000143295454774181,0.0001601688110208869,0.0001962133199169478,0.0036573850899368817,0.0028581368075139718,2021-08-01
598,SCI,2.678759064693907e-05,0.0005047519750892666,0.00022013648104170076,0.00046380567264041946,-0.0008916097747352637,-0.0024759087466605704,2021-08-01
599,HZO,9.453224346290252e-08,1.2039883251004251e-05,3.1863842355085576e-05,8.712902767712131e-05,-0.000680276401550169,-0.0012306931027551064,2021-08-01
600,PII,-1.7886656334406042e-06,2.047268479929559e-05,0.00012404402364673013,0.00023881190696557088,-0.007304982485664934,-0.008567322239916225,2021-08-01
601,CWH,1.6516140339634396e-08,4.47985403045537e-06,3.230519282725241e-05,8.833586384823353e-05,-0.0031724171497971806,-0.0034123278332448856,2021-08-01
602,THO,-7.415111607770538e-07,8.768188345175539e-06,5.105853081908769e-05,0.00017289525207506888,-1.803212595244542e-05,0.0008601817753542161,2021-08-01
603,DKS,-9.851533472306993e-07,3.648554924120089e-05,0.0001866522052506443,0.00016675658997840183,-0.002037796090047195,-0.0029941861914333217,2021-08-01
604,BZH,9.294099333512e-08,7.303856939609374e-06,2.7780915533960616e-05,9.908607914326182e-05,-0.0017639187549446278,-0.0012479028711810925,2021-08-01
605,CCS,3.983912966911098e-07,4.0064599922419865e-06,5.494918254975851e-05,9.351456544692012e-05,-0.0035101191712002665,-0.004344641389052098,2021-08-01
606,DHI,-2.078392976137701e-06,9.621883095575107e-06,6.296691792028113e-05,0.00022458385163114,-0.0011884754996132273,-0.0028910870583619876,2021-08-01
607,SKY,-3.409225912760514e-07,1.6050973517930437e-05,0.00013101003319390185,0.00012235920801058608,-0.000927207535433664,-0.0004820832169581161,2021-08-01
608,TPX,-4.153827908456384e-07,2.895691654714308e-05,0.000155222192757496,0.00013234033015098318,-0.0010104063544251849,-0.00152441025846289,2021-08-01
609,FND,-8.935822982263639e-07,2.7268104460236397e-05,0.00010680180949588074,0.00020095152723714302,0.0007112817941287391,0.0009152084959770285,2021-08-01
610,LL,-1.9023042626898912e-07,1.6001735992208945e-05,6.267448335235188e-05,0.0001179243423674368,-0.0008364478658550782,-0.0008912866805671812,2021-08-01
611,SITE,-9.772130632519857e-07,4.333011313993857e-05,0.00010986033084795745,0.00019972705414611597,-0.000356406145397141,-0.00042335842521762384,2021-08-01
612,KMX,9.273178882773412e-06,0.0001453579043863772,0.0003070127933510139,0.00025197531678774104,-0.0022302130080587446,-0.0030401510227978366,2021-08-01
613,BBY,8.156067521969777e-06,4.644999004978405e-05,0.00027441597597447774,0.0003120580758099492,0.0008980338776170566,0.0012211202047897245,2021-08-01
614,WHR,8.451590416269964e-06,4.7093207711353954e-05,0.00021257594189035236,0.0003163793095837638,-0.0010376267622466899,-0.0006125146612993874,2021-08-01
615,MAS,4.7095465632816994e-05,0.00014198050731732491,0.0004556199930514797,0.0005911379477517357,0.0010398458665575611,0.0011744613707867768,2021-08-01
616,LII,2.2714077522023943e-05,0.0001494770500216942,0.0011782535245487128,0.00039634537957440813,-0.0022562654563462676,-0.003469929280514418,2021-08-01
617,BXC,3.3378986906238787e-07,6.770838822645193e-05,7.117733922437851e-05,6.222971726401855e-05,0.0012191896280871182,0.0004803498315015163,2021-08-01
618,FDX,2.152991377877854e-05,0.00038727022579394804,0.0003453566758369038,0.00035593398819845005,0.0024381373010769368,0.002667362667335324,2021-08-01
619,CIB,-9.731317479524299e-06,0.00013319901660285898,0.00011663249096251774,0.0002708345852932854,-0.006515411277658632,-0.008568226275425707,2021-08-01
620,PAC,-5.008689137433661e-06,6.841361009571716e-05,0.0001486045062169685,0.0002429015422641456,-0.0022927802730696094,-0.0026016999080688877,2021-08-01
621,ASR,-5.509481896378066e-06,7.008749976004652e-05,0.00010618194815997982,0.0002488446635301737,-0.0008593710165975899,-0.0018882262487604547,2021-08-01
622,KB,3.44797908823842e-05,0.00016760173454683785,0.00019184726381813138,0.0003244071775967024,0.0010030355032196669,0.0011118329000436172,2021-08-01
623,MFG,9.772210251784607e-05,7.609082457189172e-05,0.0004460501878928267,0.00062351258101491,0.005516039571298497,0.005861176245152349,2021-08-01
624,IX,3.245709078160747e-05,5.3508194249289285e-05,0.0003939881802599236,0.0004384632771366494,0.0012224708595283797,-0.0008995886820997081,2021-08-01
625,NMR,2.384370864635726e-05,7.317073287766943e-05,0.0002705894274421407,0.00036284865293198607,0.0014343887218970805,0.0007410034239520593,2021-08-01
626,HMC,7.364215978623327e-05,0.0001114301421329164,0.00040595175445825275,0.0005674608666471693,0.0021792517032808265,0.0022252354900272747,2021-08-01
627,TM,0.00020922047697994153,0.0001589333861009886,0.0007543681999493143,0.0008093723591275447,0.004239305558052021,0.005346574461644352,2021-08-01
628,CCEP,5.1153646911293885e-05,0.00013107219064589253,0.0002392984834866765,0.0003762306304279361,-0.0012354060403086977,-0.0018985692506633294,2021-08-01
629,HSBC,5.952431881722069e-05,0.0001428182020261593,0.00031693205143652336,0.0004099464723989498,0.00705654567722994,0.008893759097582379,2021-08-01
630,TEF,3.840556798268143e-05,0.00016281788026345127,0.0003247659766353068,0.00032614590216328143,-0.0004897785691749754,-0.0018454727208353245,2021-08-01
631,KOF,0.00013037880837143983,0.00027254821772883047,0.0002764703511319192,0.0005995786184525317,0.0013890543302285732,0.0017119163760532853,2021-08-01
632,FMX,5.096276585049192e-05,0.00019468391201464836,0.00019748553104822556,0.0004282849910866595,0.004908731764872653,0.0066845705592396025,2021-08-01
633,UBP,1.0099756916838051e-05,0.00011776072993466509,0.00017627710231782424,0.00021834000589533752,0.0017405078192629358,0.002892167890258258,2021-08-01
634,DIS,2.6732802288146864e-05,0.00021247166748362552,0.00038147642747251415,0.00039394342372627315,0.0010241309360014038,0.0007391626123507416,2021-08-01
635,TG,4.570710105770659e-06,5.6120136858157204e-05,0.00016101090556474768,0.00015855862349243167,-0.0035441272887970954,-0.0025864299819164365,2021-08-01
636,UVV,4.410009686703637e-05,0.0001597902928929243,0.000279594003790813,0.00045146235036082073,-0.0011207646813919028,-0.0019407892934685464,2021-08-01
637,MO,8.278206176275896e-05,0.00021389798444167247,0.0002942901124285519,0.0006014400738360296,-0.002057235406154643,-0.0031276407577589065,2021-08-01
638,TDS,1.8664797787874607e-05,9.6568065071343e-05,0.00032623141224563283,0.0002715308624263768,0.0010876406767760733,0.0011217222883650507,2021-08-01
639,TAP,3.0124246006292036e-05,0.00011729652182057915,0.00038693901262244854,0.0003164625338176287,-0.0024901393681709227,-0.0030993617024933817,2021-08-01
640,TSN,0.00010018930364428146,0.00023545902799652392,0.0007468803867459159,0.0006352614677184982,0.0013919533973104472,-0.0005020173137875242,2021-08-01
641,EIG,3.094064245997029e-05,0.00012710118092714226,0.0005996991180535793,0.0003754695045958733,-0.0006840126533511405,-0.00015821748311644512,2021-08-01
642,HIG,1.2322580817651624e-05,8.266237221471607e-05,0.00011737157819443967,0.0002441928526373839,-0.00288654659343307,-0.004278239296319496,2021-08-01
643,AVA,2.9874477968343936e-05,3.9955396412777854e-05,0.0002617432296274395,0.0005325921162147469,0.0013434024521818474,0.0015930131854184786,2021-08-01
644,POR,3.482713648956484e-05,4.185620520257982e-05,0.0005054186723729961,0.0005579292638035633,-3.0203539282656825e-05,0.00033288747657765296,2021-08-01
645,HE,3.613372999069392e-05,6.941838421558702e-05,0.0002680575770355007,0.0005454404777687829,0.0037922356649630817,0.0045215756786358184,2021-08-01
646,CPK,2.2999258299931443e-05,3.7227409188262776e-05,0.00030852584468017046,0.000495891205963646,-0.00011393176262825973,-0.00023891211068242032,2021-08-01
647,SWX,1.151729899293664e-05,1.8593762137026083e-05,0.00015287911106596727,0.00042871001299235996,-0.0010372256335400135,-0.001371937293111089,2021-08-01
648,SR,1.4372700324469954e-05,1.973119412718746e-05,0.0003723406475753122,0.00045493539329390684,5.236738210006562e-05,0.0010332124846766544,2021-08-01
649,NFG,5.094238328599884e-05,7.656698451921858e-05,0.0004601892959534433,0.000584938610244957,-5.642942941072743e-05,-8.656943363560158e-05,2021-08-01
650,SJW,2.943232716618421e-06,0.00010040488539571373,0.00022754052436613255,0.0004611832342818846,-0.001183489064722506,-0.000958340138168042,2021-08-01
