,Company,RCRP,"RCRP, no extended terms",HRP,IVP,LW,OAS,dateThru
0,BHK,0.0008069910680591287,0.0011130080366582445,0.002783896268387126,0.0012154172150791976,0.0068664805938715165,0.008318771319200806,2021-12-01
1,BTZ,0.0026390558403892616,0.0021207667337225134,0.0037685467319531684,0.0023159009750484795,0.006768058937957332,0.009279012366322541,2021-12-01
2,FAM,0.005210095084511379,0.004379310738105514,0.005065487251691421,0.003382494727770887,0.0067017805681456625,0.008456342144107242,2021-12-01
3,IHIT,0.0015603958878691014,0.002557739046459905,0.004795804281255771,0.0018927126150329401,0.005808478078404804,0.007312642552607161,2021-12-01
4,IHTA,0.001348313212547008,0.002295271154937485,0.003744157971884741,0.001698487840612283,0.006230043110373123,0.007856006222337496,2021-12-01
5,PIM,0.0024152781814936416,0.0016528396398938585,0.004288098587462883,0.002444710038643517,0.005911785975125324,0.007233905242628771,2021-12-01
6,PPT,0.0014659237341896143,0.0012923221810257227,0.0037687297206410292,0.0019114697716943391,0.00472798105035273,0.004289731789053392,2021-12-01
7,HYB,0.0010649738103645989,0.0013894318998563728,0.0023164738018234023,0.001370474773794332,0.002711146174374857,0.003163843144219219,2021-12-01
8,JEMD,0.0022618607647295454,0.0024387273690152735,0.0017201260625236909,0.001756658492737986,0.00569209623703544,0.0075550166947008675,2021-12-01
9,DMO,0.0009594915003617082,0.0016538547807605673,0.0021356182909398496,0.0012550064146161775,0.00765509054887055,0.009932411365405056,2021-12-01
10,JLS,0.003229718210186726,0.0026098487045877992,0.00413897719346846,0.002694986188390222,0.007253569196928398,0.009523747053755116,2021-12-01
11,WEA,0.004315764020511768,0.002341730669340794,0.005867246025148095,0.003345005942449074,0.006595818903940355,0.007760941079081778,2021-12-01
12,PAI,0.00044941835184401436,0.0007798104037265968,0.003341392636545678,0.0011139071066543157,-0.0016880014208564768,-0.0046868565076000025,2021-12-01
13,FMN,0.001100038888236593,0.0017119461556425603,0.0017946904301810059,0.0008843358337118658,0.002057668657723654,0.001979241213334041,2021-12-01
14,NKG,0.003135130340201308,0.003690146332236261,0.0031201954898221504,0.0019062098550711038,0.005574416612446715,0.006110584864980547,2021-12-01
15,NAZ,0.003070684017009505,0.0028308325162855275,0.00415769636064038,0.0019465273802647966,0.0033785909316373366,0.002689027909192493,2021-12-01
16,MPA,0.002063133868134916,0.0017173313599697813,0.0026321768943453863,0.0016009416853934113,0.004490074568876193,0.0035317783845706862,2021-12-01
17,MHF,0.0007340744328045708,0.0009123487451646426,0.001429199703673867,0.0008505156149807618,0.006943105302424469,0.0070086458924629525,2021-12-01
18,NXP,0.0033283566433499963,0.0034896256621720825,0.0017620622040791234,0.001759199439509643,0.0049531391431558375,0.005518832888276675,2021-12-01
19,MIY,0.0038617091927064286,0.004036615953961002,0.005440684031783755,0.0021921246880462937,0.0054919084710445725,0.006983818925472881,2021-12-01
20,SBI,0.006423613557129737,0.005737336068506482,0.007035488214205107,0.0031157177652855876,0.009216766860357535,0.012561161344714394,2021-12-01
21,BWG,0.001732991254185946,0.002019316801283039,0.0033382219797198913,0.0017312146958592552,0.001200117344519854,-0.0011325998785709018,2021-12-01
22,PCF,0.0003891675243993466,0.0006667661316791671,0.001404553735935517,0.000571636567937616,0.00406795266324497,0.004844170585309249,2021-12-01
23,DCF,0.0013300265129627471,0.0018912232937649085,0.001781984085086768,0.001345767122812432,0.004026617826308977,0.004612124349850034,2021-12-01
24,PNF,0.0007571168993488394,0.0013060399589501788,0.0018340862330364159,0.0009950122992875487,0.0010749046968871118,0.0007832111272699018,2021-12-01
25,PNI,0.0008018829304520084,0.0013588548492654581,0.0017416787441351415,0.0010352495562635663,0.000754078420664039,-0.0013265382106095124,2021-12-01
26,OPP,0.0008739848116560841,0.001050563199805532,0.0016499612628766002,0.0013689112213238744,0.005500577019609697,0.008355247706882143,2021-12-01
27,PCQ,0.0009543885230228167,0.0007365518997688818,0.0016822491573933865,0.0016104232887362208,0.002829123601298163,0.005370731632007067,2021-12-01
28,TAC,9.839243800270876e-05,0.00018356075231736247,0.0008554313445993335,0.00040134376209277265,-0.002005308521106154,-0.0032594308902484585,2021-12-01
29,DHF,0.000391058047144829,0.0005001669693933255,0.0014212325850462915,0.0008673504893529053,-0.001389948498329367,-0.0023418072354317466,2021-12-01
30,BEP,5.976695085908897e-05,0.00013404570289890592,0.0006440026093420788,0.0003860043733800609,-0.0008830723104390664,-0.0015197972459308144,2021-12-01
31,GCV,0.00019966111827403682,0.0003008244536587858,0.0014789720107304682,0.0008662683862349054,0.0007147789680367459,-0.00010045024650757683,2021-12-01
32,FICO,1.815389080015412e-05,5.424603289395683e-05,0.0005175636895887296,0.000276902174283267,-0.0017976319655599792,-0.000519917935677841,2021-12-01
33,CMG,2.998506307545264e-05,5.2096662378634286e-05,0.00031821769072219014,0.0003822799884705575,0.0033693878234018473,0.0016935517024646908,2021-12-01
34,PAYC,8.777196594755843e-06,2.757713617103615e-05,0.000168447117116614,0.00020235820907095627,-0.00327211586785225,-0.004620721519797499,2021-12-01
35,GLOB,2.2881547058120313e-06,2.8024918248758502e-05,9.177272001913568e-05,0.00014303020646556575,0.003982628066947967,0.004355153218292927,2021-12-01
36,INFY,3.647163510401754e-05,7.789750598668685e-05,0.0005666174864209525,0.00039756392027734215,0.001372943785310714,0.003088668023834951,2021-12-01
37,MXE,0.00011764637541806918,0.0002622838415012118,0.0004630592873472839,0.0004972299674736724,-0.000497834997415605,-0.002564071203933377,2021-12-01
38,SWZ,0.0006599428944122744,0.0005710787125409626,0.0007622451837747379,0.0015063292955857172,0.00313472730538347,0.005593864893643973,2021-12-01
39,THW,0.00034400768497606736,0.0003874806048671944,0.0007524735362823898,0.0010220541823135502,0.0007824480877427639,0.004095117895492795,2021-12-01
40,GDL,0.008779956798477028,0.004101978883682411,0.0027076378435309076,0.0032219846840779135,0.008306015827166701,0.00904011563913569,2021-12-01
41,TBB,0.01480072198765047,0.00481384461031883,0.00969424086409389,0.005824306908137586,0.010493048875897169,0.014139733230640023,2021-12-01
42,SOJC,0.005849586547938453,0.003214335128514434,0.006149158312813015,0.003889048319911596,0.006460809580797756,0.007629508626805414,2021-12-01
43,EVF,0.002448442603053028,0.001440353772111262,0.002261210661677593,0.0018422942893619291,0.00275518863512229,0.00401479322765903,2021-12-01
44,EFT,0.0010423875226326948,0.000662689984865807,0.0015888256433213921,0.0012944766531886014,0.0015163510643387893,0.0011013119805986914,2021-12-01
45,EFR,0.0011050065965432269,0.0006812188317729956,0.0017150906044273502,0.0013306702886435244,0.002852716764566159,0.0028485966393023052,2021-12-01
46,HYI,0.004558278721661588,0.002767915645804084,0.003934236431413389,0.0024070023896551832,0.005823696868731119,0.007151486132004359,2021-12-01
47,DMB,0.001081495544195822,0.0010480284206497562,0.0015203241002631175,0.0008623636635835442,0.0005631023363042912,-3.874635993804872e-05,2021-12-01
48,GDO,0.004241347916214464,0.0027596239427656734,0.004231306186172468,0.0022707393869346067,0.005520151809284739,0.005741158407780122,2021-12-01
49,MFV,0.0003215378121291706,0.000787654510582351,0.0010464859297200319,0.0006548129892577193,-0.0006588811422578944,0.0007921640117894599,2021-12-01
50,WLKP,0.0002914598174691135,0.000732144747907576,0.000470050501336509,0.0006086652009295834,0.005487272178311423,0.006773767308132666,2021-12-01
51,NIQ,0.012397473084309264,0.007623130660470281,0.008317411961428765,0.003830763719074033,0.009177792406612999,0.012009419139924843,2021-12-01
52,MHLA,0.0014055010385690837,0.0014879678950103648,0.0011153342819636848,0.001427013058429901,0.003770578785433066,0.00492597170271961,2021-12-01
53,MHNC,0.0033874446701869726,0.002441938181893831,0.0028854588890291958,0.002341903803923669,0.0019393206602203767,0.0003962288740235542,2021-12-01
54,ENO,0.026357198259868053,0.010650264550205091,0.008741115160568878,0.007228752131356085,0.011417667242346476,0.014525526242724636,2021-12-01
55,ECC           ,-6.377820552143433e-05,0.0006697583519840162,0.0004643108386601405,0.0004543615382678292,-0.008746548802174415,-0.011028854867493578,2021-12-01
56,GIM,-0.0009067731302265877,0.003338313712295205,0.003810075381035739,0.002264699423375366,0.005790675359273889,0.008490289184681588,2021-12-01
57,BSL,-0.000531373620619212,0.002762892274221858,0.0025223004889404215,0.0015195743263340651,7.671315610323415e-05,-0.00277876939241555,2021-12-01
58,EFL,-0.000629295584587245,0.001504844639054649,0.0019225811739903976,0.002120287178148352,0.0023670745038979935,0.001872237338378413,2021-12-01
59,JCO,-0.0009498692605403548,0.001968815365844558,0.001147179957338434,0.002774009932988223,0.005406454692247239,0.006794621356355657,2021-12-01
60,ARGD,-0.00015698849340541616,0.0004584219412875329,0.0008026554363102476,0.0019409109606983424,0.00788581985015228,0.01049818369594755,2021-12-01
61,VVR,-0.00012957631049075684,0.00042708091176181095,0.0005233021669233728,0.0018082162917756551,0.0013386063667566786,0.0016976850500846458,2021-12-01
62,ECCY,-0.000817131685476394,0.0007079283925288914,0.0015323375981774134,0.0027525494752014203,0.007384512629391096,0.00931575092595881,2021-12-01
63,AIC,0.00011827324234062002,9.345354401479655e-05,0.0004215119729058605,0.0005874972152555689,0.004959170491719571,0.006276669099812966,2021-12-01
64,TPVG,-1.6706358476977163e-05,3.0389707786238916e-05,0.00016261446716739477,0.0001910453892900951,-0.001627033439862907,-0.0021204826452689857,2021-12-01
65,FPF,-7.85005834067727e-05,0.00036207484820901815,0.0004574887478238033,0.0015619070672248316,-0.002061006404393844,-0.0033423021491422885,2021-12-01
66,CTBB,-0.0004376472626028801,0.00022648152147293398,0.0008054109684407683,0.0027830139578280395,-0.0011661679316285042,-0.0011727978752180518,2021-12-01
67,CTDD,-0.00044908915629184753,0.00022767562848342914,0.0008194536264572671,0.0027976871923406648,-0.002609321812470035,-0.003881655437700168,2021-12-01
68,NSS,6.228924987772539e-05,0.0001609016315017754,0.0008860466672357723,0.0011007289112803663,-0.003161496954477716,-0.006480787833863289,2021-12-01
69,DDT,-0.00020277495150481596,0.0012680825901506204,0.0008073386694474059,0.0010173867106925524,0.002741495923925116,0.003293270518927542,2021-12-01
70,DTY,-0.004538351151840854,0.006757769575802214,0.0033209606901484236,0.0054217801062366065,0.0071247876643900756,0.0072389107166484085,2021-12-01
71,BBDC,-0.0002643908685669351,0.0013832881557840416,0.0011603912658649138,0.0009687194370422163,0.0034830128339058265,0.005210216183478045,2021-12-01
72,SAR,-6.510562620657416e-05,0.0005620548839214177,0.0001953695134829664,0.0003936081491499353,-0.0030265752168859763,-0.0049974632007471305,2021-12-01
73,DBL,-0.001729107815001182,0.005741407271242009,0.007605492902047623,0.0030880738312386953,0.007364488297790822,0.009571149182713028,2021-12-01
74,PCM,-9.308312105685632e-06,0.00035175947301726597,0.0007089482599976143,0.0009367745828234499,-0.0030755280512434744,-0.00644086131735708,2021-12-01
75,PDI,-1.4360680033309496e-05,0.000165206538406906,0.0005847734658746275,0.001253491218534379,0.0032811146844656386,0.0068724420321152144,2021-12-01
76,PHK,-1.2780857696126527e-05,0.00015864197974185747,0.0011950061336425707,0.001203683161785893,-0.000275574722911345,0.001978408937869492,2021-12-01
77,PCN,-7.511067875964263e-06,0.00013886475822451555,0.0004990989022723433,0.001069843499555535,-0.0017929097018192647,-0.0011487244134012913,2021-12-01
78,PTY,-7.34064659625033e-07,4.3678585364523086e-05,0.00043026174677591946,0.0005613547211952297,0.0010955132036292766,0.0011574244067905847,2021-12-01
79,PFL,-4.015114304427684e-06,6.966181671485175e-05,0.0005029174653075817,0.0008952897483644451,0.0006055787659436118,0.0016104093771786858,2021-12-01
80,ZTR,-3.51517001534847e-05,0.0005424556327027058,0.000644414543781858,0.0012614735086009746,-0.002728244633562826,-0.002473203676108278,2021-12-01
81,VGI,-5.1168063279884495e-05,0.0006807442001293956,0.002693863261946734,0.0015830617710031745,0.0015955348390803063,0.003103731879758402,2021-12-01
82,JPT,-0.00025080395386838924,0.0012017568358838903,0.0023947792278475183,0.0029424767359864904,0.004660733579597084,0.005917288912794354,2021-12-01
83,JPI,-0.00015430764649277073,0.0009261760978376259,0.0023297444673496853,0.0022677230034722825,-0.0008216073876491091,-0.0026044154310734765,2021-12-01
84,PFD,-1.0188125026205958e-05,0.000229961512979519,0.00057980598734536,0.0009465877078856511,-0.0035888205383298247,-0.006242028659176103,2021-12-01
85,PFO,-2.1444954559218832e-05,0.0003267364187340671,0.000779994185121705,0.0013449410455035262,0.0014759527896067673,0.0029048171827770427,2021-12-01
86,PSF,-9.745173273643623e-06,0.00021329229059164983,0.0013230659198337797,0.0008254882934104124,-0.0002622911719697794,0.0014525850923137829,2021-12-01
87,LDP,-6.065191291569909e-05,0.00031812522843796363,0.0008884349244292265,0.0020597610508975637,0.00018572747986477704,-0.0007039398234097079,2021-12-01
88,FFC,-2.8773653466941664e-05,0.00015632234235819428,0.0011566551171288218,0.0016976334290946865,-0.0006292007732573028,-0.001216256356904167,2021-12-01
89,FLC,-1.5021238999330295e-05,0.00012755380850690807,0.0005974823434508139,0.0013852121588192065,-0.0006077557265599356,-0.0007708764378282808,2021-12-01
90,MCR,-0.0012381029522353457,0.003550483370825007,0.005318528716435613,0.0032457942024230026,0.002110139145658469,0.0006318072101669453,2021-12-01
91,RIV,7.275164475103503e-06,0.00022784635071037713,0.0011346396814396786,0.0009413681563494301,-0.0014231240726715517,-0.0025382780590520156,2021-12-01
92,VLT,-0.00028293063170808057,0.0002464573908430298,0.0008765657986290332,0.0025725188779596488,0.0009212481455555025,0.0005018414020016354,2021-12-01
93,HIO,-0.0002502731540723948,0.0002322964111652964,0.0008218771490150174,0.002424706765582893,0.0006036661859724294,-0.0006455972746211927,2021-12-01
94,AWF,-0.0003082851403605137,0.0002481396419664145,0.0018804374723815837,0.002620926212060728,0.0019849667536273995,0.0032833764710690485,2021-12-01
95,BLW,-0.0003738309519464285,0.00027134514517949634,0.001023210221254743,0.0028660297801695977,-1.998453830081651e-05,-0.001407693561149808,2021-12-01
96,FT,-0.0003422085646136156,0.0007579101209934828,0.0019748648723368982,0.002267159263404978,0.0031032651729394622,0.002773938777603451,2021-12-01
97,CBH,-4.034810743926372e-05,0.0004913423960450578,0.002329207160395739,0.0009908576781857993,0.0014862367168652485,0.0015941740590024363,2021-12-01
98,EDF,-1.0493522489592585e-06,8.21577049731299e-05,0.00021433327609664962,0.0004716913112390927,-0.012013157386103491,-0.01476471788510746,2021-12-01
99,EDI,-2.3196481912621103e-06,0.00011370743248128868,0.0004053431094508867,0.000652827485167352,-0.006554534379351199,-0.007052286565177454,2021-12-01
100,MSD,-0.00018364639354136606,0.0002187609846063858,0.0011709302384494535,0.0021033507349653598,0.004111155520320032,0.004376709382239299,2021-12-01
101,EDD,-7.72799323511355e-05,0.00015844100355791083,0.0006012366235351033,0.0015233840800351428,0.0018417342788454429,0.0010340225044819116,2021-12-01
102,EMD,-4.106028537694691e-05,0.00021967039182845942,0.0005294389477500903,0.001313723516915144,-0.0019666430391891573,-0.004182321999421756,2021-12-01
103,EVG,-0.00039828277169748496,0.0007404787391951062,0.006157265653056659,0.0027009353216416922,0.007231162449495803,0.009661851447602657,2021-12-01
104,EHI,-0.00021946281120662276,0.00038801700181704613,0.0013374678872687987,0.0021540659677689042,0.005501194057186542,0.006766086396308994,2021-12-01
105,HIX,-0.00018298250383503326,0.00035578677517614704,0.0010605029934063156,0.00197514072991715,-0.0010087773888079717,-0.0038126466017368494,2021-12-01
106,ARDC,-5.601697811804932e-05,0.0008697791532968692,0.0007370137899544175,0.002064388555281187,-0.0008379097480023047,-0.0015417065262114595,2021-12-01
107,BGB,-0.0001512505874463233,0.0007353596942160361,0.000971731189148386,0.0029285631411380955,0.0018449815836190878,0.0024545318464460463,2021-12-01
108,BGX,-2.7220057941334473e-05,0.00046637448737926783,0.0006535330622963236,0.0018573320572895676,0.00046252739468130544,0.0004380269725082712,2021-12-01
109,AFT,-6.749439447198977e-05,0.000908470125626412,0.0016568585233208222,0.002156220142836548,0.003466239803723961,0.006540643741666744,2021-12-01
110,PHD,-0.00010895985073111365,0.0008839387042107148,0.001020815500277862,0.002432154273540419,0.003809203539132583,0.005345366984974741,2021-12-01
111,BGT,-8.302277867721752e-05,0.0005136718112086264,0.0020600826857263025,0.0023572679321132465,0.0024286211465060973,0.0023358791638524935,2021-12-01
112,JQC,-3.243484944532219e-05,0.0002629674210455325,0.0008398731821220204,0.0020010483271208634,-0.0015980460839504565,-0.0034556815289090146,2021-12-01
113,FRA,-8.019118208215468e-05,0.00019219131738174936,0.001586621651779345,0.002460266752815002,0.0027866195233397463,0.0028361544502688452,2021-12-01
114,JFR,-6.177778982460074e-05,0.00011052671999503949,0.0008108444867918194,0.0023860292303334056,0.0008272390308809284,0.00030467954856871045,2021-12-01
115,JSD,-0.00011707619006578236,0.00013426139552843796,0.0009849664620292331,0.002898408767134186,0.0037582455291946806,0.005736106373699605,2021-12-01
116,NSL,-3.1835110243997704e-05,0.0010902773068747287,0.0010994128587511604,0.0018583672972591135,0.0008448235815398653,0.00041442895637720236,2021-12-01
117,BIT,-0.00010416303417112315,0.001578115651787658,0.0008344236662095358,0.002014050830141685,0.0007872393590870375,0.0008519523689373556,2021-12-01
118,KIO,-0.0001532845548145389,0.0018832036777981676,0.0009685918396938435,0.0024034156978918423,-0.00025850585087341336,-0.0004919304158582024,2021-12-01
119,GOF,-2.4382862678416442e-05,0.0010550758477288497,0.0018230246952811063,0.0008754805341415094,0.0001765809088905804,-0.0005326092382020308,2021-12-01
120,MHD,3.0840853933041414e-05,0.0005156465918197008,0.0012813880714077448,0.002471956610602372,0.001460745489307266,-0.0010590434190911118,2021-12-01
121,NRK,0.00018225074092622276,0.001095000825446611,0.0030275883013947797,0.0052493210893251735,0.00546440325690502,0.0051290497584041165,2021-12-01
122,BFK,8.77120930801935e-06,0.0004081931764389865,0.0010993327657164102,0.0021200238224552293,-0.0017169749813741172,-0.004241366682258701,2021-12-01
123,BLE,7.099434413594753e-06,0.00037663969415482196,0.001955303159310982,0.0019561452032499245,-0.002241990377196182,-0.005401054281802405,2021-12-01
124,BYM,9.412091712222891e-05,0.0018372778935771513,0.0017605952639451897,0.0036618601760339793,0.003263821955852328,0.0035337737970607577,2021-12-01
125,MYJ,0.0001011493932737967,0.002978360303528716,0.0027393047036996234,0.0037621222728190613,0.004855901866376633,0.005088296151248308,2021-12-01
126,EVN,3.357249471254887e-05,0.002274535448412341,0.0018813281021431763,0.002807442361293844,0.0020616348932746297,0.0005381241759275968,2021-12-01
127,DSM,1.579493072582035e-05,0.001104902732506707,0.001819814761697227,0.002132801200633642,-0.0011001884019330496,-0.005198986766243418,2021-12-01
128,LEO,1.4784241559761466e-05,0.001073503454284988,0.0007652488609555381,0.002072190961994463,-0.0014321057160599374,-0.0040778844981957,2021-12-01
129,MYI,8.053954856011916e-05,0.0018362283751620135,0.0015221851170585353,0.004255102308711958,0.0022462085759599373,0.0005872984950026721,2021-12-01
130,MVF,2.206651259411294e-05,0.0011893035111867703,0.0015332084810403617,0.0027559796943904414,0.0011393614869431043,-0.00031477578835881345,2021-12-01
131,MYD,3.038855636527987e-05,0.0008306822467086869,0.0012052318401167324,0.0033690940267002106,-0.0006818969589214803,-0.003509527743069979,2021-12-01
132,NMZ,2.5598030227228697e-05,0.0007743325401502083,0.0028069073798524745,0.0031405500069806485,0.00017286527375379916,-1.1947088677647756e-05,2021-12-01
133,NVG,3.202563923666132e-06,0.0001587500516025114,0.0010552111209309375,0.002194732463602418,-0.0004979526431337387,-0.0031260834412371566,2021-12-01
134,NZF,1.062879027211313e-05,0.00022235796237527267,0.0011352547162141813,0.0030741170389501516,-0.0011677752312622732,-0.0039504241670432014,2021-12-01
135,NEA,3.133050037772217e-05,0.0002745185318185658,0.003556966034380445,0.003986855586082668,0.0027581935237915045,0.0017568036776453577,2021-12-01
136,NAD,1.89986841639177e-05,0.000245762097418015,0.0018623334744206738,0.0035692234853783407,0.0030618208837465944,0.0026218300126128174,2021-12-01
137,IQI,1.409279945415003e-05,0.0002264492203335957,0.0016208087108535712,0.0031063333154573397,0.0018543539706487259,0.00048677828491460064,2021-12-01
138,IIM,1.766116467197749e-05,0.000244757782300259,0.0028125315736811235,0.0033574823188028975,0.002080369487998051,0.0014906826961146357,2021-12-01
139,VMO,1.2492367276588759e-05,0.00013313342132410686,0.0015791354668577293,0.0033838849558916408,0.0015253680464218154,0.00044460666574598645,2021-12-01
140,VGM,7.62889045295603e-06,0.00012056644566678154,0.001430074796935422,0.0030644670408036317,0.0009746700426054084,-0.0006997543585165365,2021-12-01
141,VKQ,5.286404917328924e-06,0.00018051420863954664,0.0014219529084225316,0.0025559950851124745,-0.00042008051934399227,-0.0031767897069671057,2021-12-01
142,MQT,4.648732690419428e-06,0.0016624643688638253,0.001536587292279834,0.0019930144057945134,0.002934621382888632,0.0024910338747454936,2021-12-01
143,MQY,7.882433914912195e-06,0.002161825768273041,0.0021325107155993465,0.0025916645070297325,0.0006819234922840585,-0.0002685118168684264,2021-12-01
144,MVT,-0.00012383662264354582,0.0018278984886836147,0.0009606035347951366,0.0014667677074376344,-0.0019141023962263917,-0.005161045124217475,2021-12-01
145,CXH,0.0002561519428903057,0.0025135549138641175,0.0033365736716841187,0.00337401843261827,0.0033565155828934714,0.003977382965991337,2021-12-01
146,DTF,0.0007758376358642181,0.004518991531911032,0.0034985999103232302,0.006065974783926265,0.007188293188832785,0.008470734727945642,2021-12-01
147,NBB,0.0001253530569857748,0.0025243638984144084,0.001364008405487079,0.0023634507426168686,0.00645280231943685,0.008460491977518744,2021-12-01
148,MUJ,0.00023162616645983636,0.002364709971215579,0.002722371903136081,0.0037278211386359388,0.005322697804638566,0.005616258436722785,2021-12-01
149,NXJ,0.0002589119427110917,0.0024935936176517437,0.0028455864277303518,0.003930998351680055,0.004392336668201383,0.003645059591072091,2021-12-01
150,MAV,8.34002371930232e-05,0.0015334978354631169,0.0018487467762210341,0.0024716050306072875,0.003461708086153821,0.004267894760566521,2021-12-01
151,MHI,0.00011256869105247021,0.001749905655993328,0.0014625104210916986,0.002820398909226423,0.0008075040836484994,8.671636404448061e-05,2021-12-01
152,CXE,2.132483642401495e-05,0.00197554954626198,0.001775769326069452,0.0018946110930055718,0.0003605599956225011,-0.0013515513809688451,2021-12-01
153,CMU,2.7465999005468704e-05,0.0022247929940832443,0.0015445098309033376,0.002133643013007087,0.003255691186939586,0.005315174311366778,2021-12-01
154,MFM,1.452540029227436e-05,0.0007595522099345556,0.0008366755949438102,0.002085704237606538,-0.0011124245825306011,-0.0038558311920811163,2021-12-01
155,MMU,5.4978767183503555e-05,0.0011767366464400387,0.0012962200897779406,0.0032312783478549334,0.002986428912158536,0.0032995314412211903,2021-12-01
156,KTF,2.445479583996396e-05,0.0014064157012561181,0.0015492202882118743,0.0023695693395167187,0.0031555817845000124,0.0031338896722002854,2021-12-01
157,VPV,0.000131683349816319,0.0028759690991720438,0.002437237341516032,0.004223060782886207,0.004626052431248108,0.005038026311517249,2021-12-01
158,KSM,2.4913590691109947e-05,0.0013020240087163134,0.00135721612668649,0.0019118865119827294,0.0022708649621734607,0.0012431572340829782,2021-12-01
159,BKN,9.588301081532806e-05,0.0014536504738265558,0.0019819385967663116,0.0009856263261227647,-0.0005811172807230882,0.0001832267731345972,2021-12-01
160,VTN,0.0004441956236896682,0.003998897441270687,0.002099092980552065,0.00271139360152104,0.0031212229248918093,0.0008950860616102628,2021-12-01
161,MHN,0.000306684408498919,0.001020184097338698,0.005528294256142404,0.002876676806703945,0.003121282755325642,0.0020353672054884146,2021-12-01
162,NAN,0.0001729222053859195,0.0007988707915236678,0.0026507998364734228,0.002252625857944928,0.004182152766102254,0.0039059995315443635,2021-12-01
163,MYN,0.00022762101090755915,0.0013610458413598747,0.00504216937778202,0.0024542105812856625,0.006022857063633194,0.006659350679669809,2021-12-01
164,BNY,0.00017946195592478023,0.0016196920910459176,0.004443228274732603,0.0018469794278385366,0.003831134443331534,0.003914320218773517,2021-12-01
165,BTA,5.8175830862096264e-05,0.0008974811032848635,0.001829582821334373,0.0009520329823668097,-0.0014385689334242982,-0.0024664232571995413,2021-12-01
166,OIA,0.00012384059670611543,0.0014510511785596543,0.002191116252432826,0.0015392508834278429,0.0022492303204370806,0.0018329128703516954,2021-12-01
167,PML,0.00022485462030407175,0.0007647210407565979,0.0016080196509922948,0.0024459215207317847,0.0025512825481714837,0.005296095645645765,2021-12-01
168,PMX,0.00011809480272817641,0.000582428269611772,0.0016365265133226118,0.0018628673241638098,0.001917383156951485,0.0011002188691137417,2021-12-01
169,PMF,0.00010916899073329847,0.0008856969482053908,0.0011897948318699077,0.001809769415896278,0.0026268631049766555,0.0037370204354733355,2021-12-01
170,MUA,0.00010040281170579275,0.0008972676416237697,0.002905416157074258,0.0011517504863926616,0.00048812359412193354,-0.0008288458993532812,2021-12-01
171,PMM,0.00018493112595188585,0.0009358329090894056,0.0018258873238602325,0.0018839031666177354,-1.0499393084229059e-05,-0.0023696890742110873,2021-12-01
172,PMO,0.0004990564597053615,0.0013657048003139637,0.0020018177485216677,0.002749268136424041,0.0020430254380524064,-8.00435093184055e-05,2021-12-01
173,NUV,0.00041848195651271176,0.0016360203411382905,0.004075432887677992,0.0020670423429820085,0.005551916309721194,0.005499969092587343,2021-12-01
174,AFB,0.0004524166713270032,0.0014128967196937476,0.004819754735726984,0.0026929969338738593,0.0048327899494052876,0.00578124109830827,2021-12-01
175,MUI,0.00031189641724629127,0.0011334221068490312,0.0024229889162314636,0.002160315199253129,0.0067871651023229075,0.007136349579863573,2021-12-01
176,MUE,0.0002477043510092028,0.0013350301621789602,0.0014626725447927501,0.0018136504235977298,0.003080079827973404,0.003320000607605074,2021-12-01
177,NEV,-0.00033477086204079933,0.0017508909636244068,0.0008857282198891769,0.0017086796554510904,0.0018271648798780116,0.000980827296259171,2021-12-01
178,BBN,0.00012511646713144226,0.00070580044210288,0.0012297556231536302,0.001472399753049297,0.0035555690474580602,0.002652101736827689,2021-12-01
179,GBAB,0.00044586539341459153,0.0013357269068237751,0.001824922075963053,0.0027865156359054115,0.005084210968697157,0.0043160783272394206,2021-12-01
180,NUO,0.0012023845196762358,0.0021175395681713384,0.0030089795807594034,0.004238696668989864,0.007135636474638291,0.009006130598422715,2021-12-01
181,NQP,0.0010481429708353686,0.0019481262899159225,0.0032087091484017415,0.003899580692590888,0.006790272023888988,0.009297773534458051,2021-12-01
182,MMD,0.00026093075822069254,0.0020608666375233364,0.0014504496382731931,0.0017984945504218024,0.004467181778755119,0.006092760569847686,2021-12-01
183,NUW,0.00037335477009567967,0.002609328200705647,0.002280836231911016,0.002277130632223113,0.0062701522854466596,0.008489557080118225,2021-12-01
184,NKX,0.0005405153898582365,0.0008118122737505956,0.0020195858549162914,0.0032327360453346717,0.0027261006122949872,0.0022141906287182584,2021-12-01
185,NAC,0.0003497572909506239,0.0006771470895877643,0.0016845725644317163,0.0026964827649013177,0.0023429229707792073,-0.0001285585517672505,2021-12-01
186,BFZ,0.0010747383258913616,0.0016323903146179446,0.0027751986169938015,0.0041196319233513376,0.004242448614187509,0.0038458755482397343,2021-12-01
187,MYC,0.0003275221141923961,0.001063300137573308,0.00474885720218903,0.0027044517058520965,0.004547681292660839,0.004929026629573764,2021-12-01
188,MUC,0.00027468273966770626,0.0004466910633048968,0.001782240111352648,0.002857307665933489,0.0049956444912999986,0.0048495013836922325,2021-12-01
189,VCV,0.00015684888048837051,0.0003579412833126308,0.0015424006119001907,0.0022896101059115127,0.002923784715944991,0.0022280530185538995,2021-12-01
190,MCA,0.00024986137906436403,0.00064851557882188,0.0016211716493177999,0.002599080871249242,0.0049045240547534955,0.004718758745888056,2021-12-01
191,BTT,0.0037918113822534676,0.0064101806645367725,0.004899677772912947,0.006328902571765571,0.006288974263169834,0.006834546357413236,2021-12-01
192,PCK,0.00036879974722696087,0.002679702524649759,0.0045429623450856625,0.002489420124092466,0.002971508332696985,0.003244053062150257,2021-12-01
193,PZC,0.00019272183327715528,0.0018594366682609144,0.0013318024238658831,0.001727400343457591,-0.00024754010663379606,-0.0017743329004190316,2021-12-01
194,NCA,0.0014104472074944602,0.005217991265985846,0.003898910535966153,0.002738969910988789,0.006397621775419955,0.006991836262304195,2021-12-01
195,MNP,0.0012140610007015972,0.004699903203839647,0.004348620095885795,0.0024670208905465643,0.005336767492565106,0.006615200501268302,2021-12-01
196,NID,0.002620290085033464,0.009907709780357736,0.008673297493724795,0.003994674487421835,0.008205250859307768,0.009216816719817852,2021-12-01
197,ARCH,0.0004520440293521923,0.0001158218327077473,8.253416811955386e-05,8.984721235554161e-05,-0.002330574454692162,-0.00446195787634197,2021-12-01
198,BTU,-5.8395549087619745e-05,2.3864773616360694e-05,2.3876400356010727e-05,1.851277373875178e-05,-0.0017960834459012814,-0.0011115501742534704,2021-12-01
199,CEIX,3.432210966586161e-05,7.683841799045486e-05,5.6597850834518895e-05,3.99422161112425e-05,0.0013417018201198306,0.0026741376720781727,2021-12-01
200,CRK,0.00028970080035374356,0.00023904220879419503,2.371611712429933e-05,7.435989442988348e-05,-0.0005095724272148733,0.0009063853787623095,2021-12-01
201,EURN,0.001046991634120666,0.00010779562476618455,6.629399810037757e-05,0.00021999001939312983,0.0023070045308380372,0.005273709944763776,2021-12-01
202,ASC,-1.7707364290912582e-05,2.160060018301973e-05,2.1271171652201635e-05,7.312645568665675e-05,0.00401121464993424,0.006763137952326133,2021-12-01
203,DHT,0.0006890873149354188,3.22505059981452e-05,5.500171415085811e-05,0.0001890859835229898,-0.002342791299558637,-0.004871803072781888,2021-12-01
204,TNK,-3.566672616473521e-05,1.7464826636685715e-05,5.008207055108742e-05,0.00010239696461959865,2.3441616028480127e-05,-0.0008794144574991183,2021-12-01
205,NAT,4.8071180963573154e-05,7.041991123200179e-05,2.8083107055375817e-05,8.674564639345212e-05,0.0007316643683686568,0.0012373442145442958,2021-12-01
206,TNP,0.00025981680600127083,0.00013595694347199683,5.555640115147959e-05,0.00010978858058551261,0.0028312665975602186,0.00392322247950782,2021-12-01
207,NVGS,0.0003394885109069247,0.000189383526617903,5.9685620932418996e-05,9.810754056225274e-05,-0.003839007651117137,-0.0046576260018230484,2021-12-01
208,GSL,5.605230235461849e-05,4.932181791343281e-05,3.06403803216728e-05,7.270093428993695e-05,-0.00033775779107747707,0.0006919258706212711,2021-12-01
209,NMM,3.205789861959378e-05,3.9945983021499756e-05,2.5863338789347006e-05,5.888084441433484e-05,-0.0006046500313371748,-0.00047686118140688043,2021-12-01
210,GNK,4.152944305171072e-05,2.6631399736074028e-05,3.75866988319683e-05,7.226239895711426e-05,0.0010356542488209255,0.0012105466708558846,2021-12-01
211,SB,1.2716898545037744e-05,1.9707121395981032e-05,2.3488329611343525e-05,5.347386478840037e-05,-0.0018388552351713203,-0.001173224820999745,2021-12-01
212,DSX,2.35560419592913e-05,3.8237598021757934e-05,3.140068625262942e-05,6.03694654765683e-05,-0.0016369974156500388,-0.0029196395645671473,2021-12-01
213,NM,-7.493192825699526e-06,4.693678248815624e-05,2.1703649951417084e-05,2.4532081151899306e-05,-0.0011492448667428919,-0.0009895890304444485,2021-12-01
214,CSV,-0.00015172500411482734,0.00015060858666747018,0.00033135661978910154,0.00020956720252220576,0.00023224089800407143,-0.0007313414273938531,2021-12-01
215,NMR,-0.0003011142581765735,0.0002506835789347388,0.00037479086261592927,0.0003488184672471584,0.002624318470474801,0.002779487395507752,2021-12-01
216,HBB,-5.525533398814806e-05,7.528495817061793e-05,0.00018114633750917176,0.00010610163297744218,0.0016109288047495762,9.625190315240066e-05,2021-12-01
217,MBI,-4.5331928681053794e-05,6.504092940331016e-05,7.717429761677543e-05,9.166437742347089e-05,0.0016842889005195798,0.0025882860376718595,2021-12-01
218,MUSA,-0.0002053005118112867,0.00018352374232616348,0.00020493991990236656,0.00027340173233823855,0.0027329597259467572,0.0032299371719563086,2021-12-01
219,DHX,-3.434767534433935e-05,4.1323576484935374e-05,0.00016884486753288784,7.805927617468766e-05,0.0006329454184585234,0.0005443255969133269,2021-12-01
220,WHG,-5.581138576382199e-05,5.8765580156668885e-05,0.00019730100702257866,0.00011100681599249857,0.0014953889982619302,0.0024534700442279487,2021-12-01
221,BCH,-8.024141817930548e-05,8.577814623004597e-05,0.0003410638142722466,0.00017872753739247785,-0.0020684969138719212,-0.005300170169588877,2021-12-01
222,CCU,-0.00010710638768691824,9.820398776338533e-05,0.0008073785321276887,0.0002046180486111151,0.0008892386042605468,0.0009534888144033907,2021-12-01
223,ICD,-6.779611309494808e-06,2.066023622150887e-05,3.159421392995778e-05,2.815399294686003e-05,0.0017266548183617883,0.001631392516538131,2021-12-01
224,TISI,1.4099888859890925e-05,2.667376963113763e-05,6.740186226480864e-05,1.9424243109799706e-05,0.0012130220164456944,0.002592540292331217,2021-12-01
225,BH,-7.644353825788192e-05,8.900420761498391e-05,0.00035698181527795553,0.0001658110651511382,0.0005014595269264956,0.00042774095812723545,2021-12-01
226,HRTG,-4.8629599135981026e-05,6.498679161009008e-05,0.0003016362248076157,0.00012106763743391864,0.0006784419733882487,0.001059754152895051,2021-12-01
227,CLW,-5.0566133420936534e-05,6.863076723615907e-05,0.00020589708314222368,0.00012997671018184176,0.0016291342807311724,0.0022108833885911535,2021-12-01
228,HCI,-3.86104821001356e-05,5.716569060748257e-05,0.0002723767471646878,0.00010826351940473259,0.0003663122312399554,-8.275957909764868e-05,2021-12-01
229,HLF,-4.900783024572604e-05,8.638996552245972e-05,0.00011276653611582527,0.0001726915251523047,0.004361688021220735,0.006942991271485182,2021-12-01
230,USNA,-0.00022892980069446828,0.0001655209263831845,0.0002160577494160665,0.0003308724693761241,-0.0012046510502261047,-0.002474685826548788,2021-12-01
231,NRP,-4.372955284216898e-05,5.94588726990291e-05,0.00020193104765991568,0.00011145670469228805,0.0034264438913706313,0.004674814677080841,2021-12-01
232,PBT,-4.4467178096662214e-05,6.003808340100244e-05,0.00020073717404325345,0.00011254244536031629,-0.0016380033331237693,-0.00336498985972529,2021-12-01
233,NOK,-8.231519258462201e-05,8.663490007407512e-05,0.00019766852407502444,0.00015055394879394057,-0.004224083787478643,-0.005632148735081001,2021-12-01
234,RAD,-3.228408774423665e-05,4.276122951129896e-05,0.00015860672818069217,7.431037552655446e-05,-0.0009840948001735078,-0.000618734960384064,2021-12-01
235,M,-5.234768000624093e-06,9.277936254436412e-06,2.5194834910534426e-05,4.549815672488609e-05,-0.0013431387913424345,-0.001847787473015295,2021-12-01
236,JWN,-5.187869831450231e-06,9.243203305696335e-06,2.872226718085029e-05,4.532782949887849e-05,-0.002248004760262662,-0.003439989239904057,2021-12-01
237,BIG,-2.77794655813659e-05,3.13631624722894e-05,0.00020221306221563764,9.714446489969421e-05,-0.004094390618379489,-0.0031183843969702597,2021-12-01
238,BBW,-5.988596774143441e-06,1.4584407480154214e-05,0.00010078760023361452,4.3512314745247185e-05,0.00045331483094049877,0.00047953897609510535,2021-12-01
239,DKS,-4.471672891647305e-05,4.076997824474052e-05,0.00011014322829740142,0.00012163648937785105,-0.00043759164400675583,-0.0006087350970959307,2021-12-01
240,BURL,-9.62553656521383e-05,0.00012860274297655326,0.000389022798590821,0.00016492237451287326,-0.0012501505767979326,-0.0021364510242084327,2021-12-01
241,HOV,-1.9297286928141892e-05,4.202965608389416e-05,9.266945894206319e-05,5.389955549065563e-05,-0.0009197866089435445,-0.0015559382745115903,2021-12-01
242,AP,-3.770998524641861e-05,6.557584453847969e-05,9.942463523222083e-05,7.931337472654383e-05,0.002647237968997787,0.001443770368788506,2021-12-01
243,MLP,-0.0003969729340054373,0.0003545490458048412,0.0006315519278884912,0.00042882377690701203,-0.0016021700732084517,-0.0025792063703644467,2021-12-01
244,PSO,-0.00011959077063340758,0.00011589957253662562,0.0004720604227794179,0.00021113177892371506,0.00023457724578325703,0.0004954645850192395,2021-12-01
245,TEF,-0.00020527098364475917,0.00017246305180740334,0.00043789318458539213,0.00031417226250082266,-0.0007935575069447291,-0.0022697134698076637,2021-12-01
246,QUOT,-1.0790718670980245e-05,1.9744321665525253e-05,0.00023722161810407145,6.668772208827252e-05,0.004743665263850746,0.005444208357677627,2021-12-01
247,RGS,-5.147224990049273e-06,1.2535491621810359e-05,5.7557440695720366e-05,4.233943285956481e-05,0.002982564355403924,0.0043622884299501195,2021-12-01
248,ATGE,-3.898470448273369e-05,3.644869151690573e-05,0.00037065023922277905,0.00011762529538100267,-0.0002027738817453862,-0.001437628715852605,2021-12-01
249,RGR,-0.00015029089812505124,8.642905956772914e-05,0.0005543174506314668,0.0002789193037681774,0.005888637408568061,0.006287387939225667,2021-12-01
250,MX,-7.607031677633498e-05,8.296564479166796e-05,0.0003110896749949778,0.00015331571554121976,0.003637853860077977,0.005471509609726441,2021-12-01
251,WOW,-3.418335703035527e-05,6.1031487594553145e-05,0.0002572268468437919,0.00012775130064419102,-0.0021660620201028194,-0.001960398680478409,2021-12-01
252,SHAK,-1.4266987848101878e-05,3.271181598760427e-05,6.89776246035616e-05,8.732274146841094e-05,-0.001243836438656813,-0.0025120046345588056,2021-12-01
253,EPC,-5.133152139174125e-05,3.7075310109015385e-05,0.00027061340338190547,0.0001774799336518301,0.0007679937046462527,0.00215088503832423,2021-12-01
254,GHM,-6.417009016810568e-05,4.364706856226177e-05,0.0003077157700212305,0.00020893901655170326,0.003998640755405149,0.00406867851655981,2021-12-01
255,CXW,-1.773895551254161e-05,1.526996156323547e-05,0.0001423480878372771,0.00010315335922432137,-0.0010479489743725333,8.68720856156473e-05,2021-12-01
256,FF,-1.359625065357094e-05,1.2861363518358769e-05,0.00011989489929210845,8.688252721722876e-05,0.0022395974992592176,0.0030321870766745356,2021-12-01
257,KAR,-3.6075516240713544e-05,3.097316362323062e-05,0.0001620795149385058,0.00015471536008126522,-0.0011438944863097896,0.00031597502539667963,2021-12-01
258,CWH,-7.205015911088331e-06,1.63745993527041e-05,8.798543410929673e-05,9.812859294927354e-05,-0.002909792460207301,-0.0037662844301909544,2021-12-01
259,THO,-2.8589731999431295e-05,2.5586308520951742e-05,0.00013748259813749705,0.00015333190143137015,-0.000778253361318163,-0.0006346988317769264,2021-12-01
260,QUAD,-9.721026884040254e-06,1.8282128469082847e-05,5.84144728033999e-05,6.711012686809756e-05,0.002030784441347892,0.001660665568783577,2021-12-01
261,CARS,-1.3077360587534265e-05,2.5845185212166205e-05,0.0001693745868921827,7.235070333226489e-05,-0.0011142461853324195,-0.00011849021692294738,2021-12-01
262,IVR,-3.263321322221735e-05,5.1564013903953065e-05,0.00014369511196526066,0.00014705524626510135,8.435456817809553e-05,-0.00039829623890993,2021-12-01
263,GCI,-8.176207242200307e-06,2.0386032306267637e-05,0.00011359763510469063,5.81388603057659e-05,-0.0015178181845412497,-0.0018260261505334886,2021-12-01
264,HLI,-0.0007774950476872643,0.000141586228612925,0.0005966097037076755,0.0002913512136425368,0.004066269644503689,0.004877072070699006,2021-12-01
265,MIXT,-0.00026520558533128525,6.255841803449146e-05,0.00023240521157261813,0.0001287305354232905,0.000568934586469414,0.00022129365756715793,2021-12-01
266,ORN,-0.000333234369801551,8.736390789817352e-05,0.0002694256898855921,0.00014831982832666952,-0.00016557696429069923,-0.00022419311378097886,2021-12-01
267,TEI,-0.005121051016646622,0.0005239103901865596,0.0012801007935567103,0.0010387862040214,0.004895988779542939,0.006602803619935514,2021-12-01
268,SUP,-1.54398608957115e-05,1.901677098638088e-05,7.417168450766694e-05,5.0721082204706595e-05,-0.001120436504132666,-0.0012742591513735728,2021-12-01
269,TEVA,-0.00014270080413359345,3.6912474697683005e-05,0.00012534260081210362,0.00014228690865936795,0.0008409100128690131,0.0008242656557005815,2021-12-01
270,TX,-9.349066691587469e-05,1.5167898231635275e-05,9.027447875083529e-05,0.00012736020258930997,-0.0007145064970508115,-0.0011191591034638783,2021-12-01
271,UIS,-5.73224004206572e-05,1.1966546785422871e-05,0.00011150688385061883,0.00010047943357816173,0.0018509125354615344,0.0018937423686720947,2021-12-01
272,TUP,-1.2789316331807076e-05,9.678165946446407e-06,7.211130641381854e-05,5.388731530926781e-05,0.0007029295724559289,0.000690185992688353,2021-12-01
273,BAP,-0.00042724601201679256,9.679222189060148e-05,0.0004217008553377541,0.00015711748195354968,0.002768733549014045,0.0029484629259082695,2021-12-01
274,NC,-0.00010488722852244654,5.518716420232205e-05,0.00020003912297565776,9.726281428565868e-05,0.004544758085950076,0.005581615094308925,2021-12-01
275,USDP,-0.00012989884224450318,5.1510972604211795e-05,0.0002315773357339235,0.00011925190081549521,0.002799974087406122,0.0018862296921442695,2021-12-01
276,CURO,-4.8793691746555245e-05,2.1178880713396417e-05,0.00015739143132000255,6.30169794801342e-05,-0.0012305621930838746,-0.0015697093316585258,2021-12-01
277,SMHI,-4.887523145717409e-05,2.120417116753145e-05,6.658340671012167e-05,6.309223029488863e-05,0.00027912390401021336,0.0002919652392621444,2021-12-01
278,MFA,-0.0001240969686664653,6.301254804781197e-05,0.0001096495640739984,0.00012092522695055575,0.001782364619036826,0.003557487326749528,2021-12-01
279,WMC,-0.00017745635975841302,7.761763874716729e-05,0.00011422584833881731,0.0001489533572542679,0.004598150671625987,0.0035663643058729947,2021-12-01
280,FET,-5.688941410169139e-06,1.1990321653318483e-05,0.00017850706902045792,7.504023329721931e-05,-0.0034205236916831617,-0.0035933815442755765,2021-12-01
281,NGL,-3.4773554459071206e-06,8.48491064192338e-06,5.959065675798386e-05,5.310196777746753e-05,-0.0022059331906408327,-0.0024931997795470512,2021-12-01
282,BPT,-7.133735421810961e-06,3.324461803755169e-06,3.79734609470158e-05,5.825921778053633e-05,0.0011794138151756106,0.0009578099875583201,2021-12-01
283,NOA,-3.098200313091048e-05,8.326376259900918e-06,0.0002758849643127135,0.00014591479658461432,0.0015919804794905985,0.002075588282542379,2021-12-01
284,CRT,-2.4001655230524422e-05,8.769257894912398e-06,0.00013674693531003345,0.00011696725285922135,0.0024631437919899937,0.0019409558976057036,2021-12-01
285,MVO,-1.4128762749541205e-05,7.966708395909228e-06,0.00015134514192002903,7.874990246233627e-05,-5.828595913940649e-05,0.00048281869150438445,2021-12-01
286,EQT,-1.1643995263012445e-05,4.0757117773107845e-06,1.9109942496186608e-05,8.276845430191657e-05,0.0014884045000513285,0.0011947739230771025,2021-12-01
287,SBOW,-4.787717958599666e-06,2.400322833224463e-06,2.3088920671356586e-05,4.874510799256565e-05,0.0012402902245244069,0.0011613506264405728,2021-12-01
288,PVL,-1.4143705638940408e-05,5.920492760102466e-06,0.00016744137136155687,8.712530508478381e-05,0.000602056064781487,0.0008382499012970687,2021-12-01
289,HESM,-4.887433895622183e-05,9.239325246621262e-06,0.0001538805617416176,0.00018602895232178588,-0.001957746400959436,-0.004641281012383479,2021-12-01
290,KRP,-4.041601407759341e-05,8.228409655472145e-06,0.0001635342289012127,0.00016567469881436655,0.0011645621119867982,0.0028230993733489276,2021-12-01
291,SMLP,-2.9293142964574963e-06,3.670025234790431e-06,7.393786002724803e-05,5.319714124438957e-05,-0.0004138170993682083,3.2665489696211125e-05,2021-12-01
292,FMO,-5.653669257072305e-06,1.7987952592549494e-05,0.00011989909112090887,6.174263330608012e-05,0.00032972075488714296,0.0015323126800085999,2021-12-01
293,AC,-0.00011035856256250521,6.919243016989821e-05,0.00040185415528370814,0.00022090386798316483,-0.002199901323197302,-0.003654807501061116,2021-12-01
294,CVEO,-4.716669704032784e-05,3.504890744180294e-05,0.00020355621357797017,0.00011189720036522874,-0.003283535524680644,-0.0033134719772201456,2021-12-01
295,CYD,-0.00010433968203036864,4.886142527264544e-05,0.0005261077787192766,0.00020731178517949608,-0.0012455274922364712,-0.0013170548177353265,2021-12-01
296,ASPN,-1.5726167578790574e-05,1.0774257221976504e-05,0.0002162973459486297,5.936866876464824e-05,-0.002378745089415676,-0.002647153486513719,2021-12-01
297,OCN,-2.5385998656320997e-05,1.5025460925232372e-05,6.496256989310896e-05,8.279379212209333e-05,-0.00047700582458364704,1.0473290298412416e-05,2021-12-01
298,UAN,-2.415659171783672e-05,1.846774662782231e-05,0.00018615596043834552,7.697968056244772e-05,0.002214867594046516,0.0015520040829475068,2021-12-01
299,VHI,-3.268187743960347e-05,2.3031757877201253e-05,0.0001345731974397982,9.600399008656195e-05,0.0014841189600090436,0.0021146591231029116,2021-12-01
300,AHT,-8.938507702982354e-08,3.6346886227790146e-06,3.813056562409385e-05,1.3349942840609645e-05,0.0009638959399828812,0.001916876270758079,2021-12-01
301,MANU,-0.00011729461453179755,5.819804280572077e-05,0.0002935480542545525,0.00021375711251372375,0.004892703740803531,0.005331354547000708,2021-12-01
302,NGS,-3.183240509544593e-05,3.104666515777999e-05,0.00019018137127822262,0.00010215923867258321,0.002647375944794099,0.0032279277689851653,2021-12-01
303,CIO,-0.0002036439924313435,5.011834233864884e-05,0.00015160738896070688,0.00014110124422859907,-0.0006748787377922775,0.0012030330452123192,2021-12-01
304,SPH,-0.0015742252521740482,0.00018906765448804648,0.0009918786482289949,0.0005322937680457498,0.004195836509520492,0.00554005050187686,2021-12-01
305,EVH,-0.00025315912895819344,5.5380090542224924e-05,0.0001865053448257382,0.00012508784879924247,-0.000384415415756008,0.0011349582273264397,2021-12-01
306,GLP,-0.0003847073533217186,7.234004007611718e-05,0.0005408202229428001,0.00020647438033295415,-0.0012509827505996411,-0.002607309285377133,2021-12-01
307,MSB,-0.00011551657694847056,2.810195817963673e-05,0.0002527479066127979,8.02091676363158e-05,0.001759580775159719,0.0023211145734812564,2021-12-01
308,TM,-0.0015526446737542726,0.0001690088166379875,0.00047570668179882833,0.0005232200711084931,0.0033291552564460292,0.0035331538463067354,2021-12-01
309,IDE,-0.001607060476285333,0.00017324334713613422,0.0008061464421382253,0.0005363293951806044,-0.0019990894325813105,-0.0026458194037395685,2021-12-01
310,DLNG,-0.00015466895352236307,4.8329719784880906e-05,0.0002261170023370063,0.00011226071646601511,0.00027596139162440464,0.00012045927390110387,2021-12-01
311,SGU,-0.0007225391205048192,0.00014994501240926994,0.0004523562845601134,0.00034829365033554465,0.003132959900650998,0.003347248255890704,2021-12-01
312,CAPL,-0.0005325262817058581,0.00013468274865379196,0.000718641338255905,0.00020972662835397628,-0.0027965770206954785,-0.004856060374818335,2021-12-01
313,VMW,-0.0006175865702793936,0.0001482831186361733,0.0006142090519123366,0.00023090498838361593,-0.0026505388366193576,-0.00440973772484085,2021-12-01
314,GLOP,-9.507791754591771e-05,4.6316916340155415e-05,0.00012324296260734073,5.342044196221689e-05,0.0049443355637025,0.004608935343646983,2021-12-01
315,EVA,-0.0009211301711907944,0.0002665816463484681,0.0003345848721939038,0.0002667902001682815,0.0028363138295698052,0.0017484818431287184,2021-12-01
316,CIB,-0.0003103762336466805,0.00014376174436905,0.00029419560068019425,0.00028595860715664294,-0.005386829991841633,-0.00664767121857716,2021-12-01
317,AVAL,-0.0013876409079767707,0.0002170927624519125,0.00044426099539324307,0.00043182241734054634,-0.0013451999025131157,0.0013115821630955088,2021-12-01
318,IRS,-0.00019675371466722007,8.206160417395702e-05,0.0001408071365259981,9.717881702907232e-05,-0.00046297470882918025,-0.0008730170125581482,2021-12-01
319,OOMA,-0.0002855606209741324,0.00011566729308125263,0.00025611153087870254,0.00011292618728804175,0.00039175617585381994,0.0002490614299761027,2021-12-01
320,TSQ,-0.0001765201483232031,0.00012445286173139026,0.00025248295029506643,0.00012276199745103132,-0.004477762498176249,-0.005450219299560799,2021-12-01
321,FMS,-0.0018641835917847782,0.0003552052128379158,0.0009398713582434964,0.00044281970318308484,-0.0010722614137435792,-0.003934808431689002,2021-12-01
322,CULP,-0.00042905081636953333,0.00010250598739539857,0.00014881271808530678,0.0001490656955507244,-0.0014397224472141616,-0.0020195865688494813,2021-12-01
323,SCX,-9.72728871073076e-05,3.18911883406447e-05,0.0001130130787449461,4.63766292363011e-05,0.0013937472235077868,0.0001260619096432414,2021-12-01
324,KODK,-3.3340339677534184e-05,1.8775744605230727e-05,3.145556603561379e-05,1.9429941371144017e-05,-0.00011431316068318242,-1.8026894904067865e-05,2021-12-01
325,MPX,-0.00022404822465165415,8.015348196958455e-05,0.00026078784504432245,9.102813163918344e-05,0.001304978602755016,0.0016310555694278388,2021-12-01
326,XFLT,-0.0023420070191346428,0.00045506595437835114,0.0007382979366771251,0.0005168060398846067,0.005334317187109698,0.0035966284411911935,2021-12-01
327,OSG,-0.0002387557909241127,7.174250622493342e-05,0.00014063787165768545,7.912662269835626e-05,-0.0013449067879193163,-0.0007518158434515808,2021-12-01
328,FTK,-7.067341043860398e-05,3.277018806808225e-05,0.00010175956219100471,5.4388831518603466e-05,-0.0022471858780469104,-0.0025208920336827834,2021-12-01
329,GEN           ,-0.001261479791194447,0.00020720553866875987,0.0006341477370024528,0.00034389998339231896,-0.0006616775454959509,-0.001369335709073143,2021-12-01
330,WWE,-0.0009170320256967203,0.0001884358899452223,0.00025710471902885764,0.0002635148657903926,0.0035987818431591147,0.003488780962873453,2021-12-01
331,JT,-8.662726537592372e-05,0.00017016642416589956,6.838014454294534e-05,4.957389433983768e-05,-0.0005645161326902828,-0.0007543421868961705,2021-12-01
332,LEJU,-6.154346680812162e-05,0.00011449673080033085,6.302605431836598e-05,4.9623705891413446e-05,-1.5522157300989093e-05,-0.0005445355472401512,2021-12-01
333,FENG,-6.528922957401077e-05,0.00011957512268580675,0.000110230306062192,5.182471742741678e-05,0.0014064805387876968,0.0008036197942215673,2021-12-01
334,KT,-0.002192062857921938,0.0015250556909386667,0.0007873047829623009,0.0005223527424160768,0.002328521784529369,0.0012722123696812856,2021-12-01
335,QD,0.00010606195549354475,5.257962746461567e-05,9.715586051891833e-05,5.1989793596828457e-05,0.0014056274156491202,0.000672801634678279,2021-12-01
336,BABA,0.0003171885856586984,5.796942834860583e-05,0.0001280631042419124,0.0001276109811338001,0.0008074328746594577,0.0007054565412532719,2021-12-01
337,VIPS,1.2273237396075209e-05,2.6401532826231592e-05,8.146807600569958e-05,5.8119005195825294e-05,-0.0034045830013639203,-0.0036286135018866773,2021-12-01
338,CAF,-0.007387141751851215,0.00044461402540112713,0.0011682484967581576,0.0010082936862944362,0.00559868612196123,0.006452243594219101,2021-12-01
339,CHN,-0.00011255831273730344,0.0001246359668071304,0.0005453461065246232,0.00047067814559992603,0.0017628422893781368,0.0009672980673617254,2021-12-01
340,TDF,-3.991431787362336e-05,9.034758425256088e-05,0.00034239953698032003,0.00034119070525792704,-0.0003104185295916007,-7.88231016283297e-05,2021-12-01
341,IAE,-0.009032654296584864,0.0011370070985872395,0.000999674876634751,0.0012103716740277676,0.00216155394904724,0.0014273197701336825,2021-12-01
342,YUMC,-0.0014790189224341596,0.000407237137100126,0.00059345892037493,0.00043351382411825406,0.002585016707110103,0.002153610960402541,2021-12-01
343,COE,-2.232730967177103e-06,2.0026546036794916e-05,2.1717685161120272e-05,2.0515930690192213e-05,0.0008402288686134665,0.0015208554308519622,2021-12-01
344,EDU,-3.3545562726265e-06,2.364070859463604e-05,3.565056332115339e-05,2.421841180718183e-05,0.0028066442352665177,0.003305567242489808,2021-12-01
345,ATHM,6.340292349148685e-05,0.00011961499277338689,0.0001534328653194983,0.00010423118096590174,0.002984193238431983,0.0031595092142604414,2021-12-01
346,ZTO,0.00015023192415855363,0.0002054043052575198,0.00028934170130217696,0.00017898703846459013,0.0014446952865294768,0.0010778302511083855,2021-12-01
347,DQ,2.258614278804555e-05,1.0224611462878632e-05,3.57605600557467e-05,3.42984416539293e-05,-0.0014803451077201974,-0.001883768382401865,2021-12-01
348,JKS,1.65566940487591e-05,9.30503185989841e-06,3.2544332061381856e-05,3.1213713449491414e-05,-0.0031159527539510543,-0.004564841774302774,2021-12-01
349,SOL,2.321810073061901e-05,1.602653447471429e-05,3.592482663526517e-05,3.1730158648733984e-05,0.0015891279557803627,0.0026119041139594404,2021-12-01
350,AZRE,0.00012904364995734182,5.066301840436674e-05,9.493780629377463e-05,6.239687979946754e-05,0.0029090288894126036,0.002364119955309304,2021-12-01
351,CMCM,0.00021931261215352456,6.292359227579345e-05,7.753105252796063e-05,6.847834289896387e-05,-0.0007618059126261943,-0.00023270590117435488,2021-12-01
352,NOAH,0.0004031152986796795,9.36335896418875e-05,0.00016489097313965024,0.00010189934850278206,-0.002124343704022653,-0.001187053216374117,2021-12-01
353,BB,7.882706433661889e-05,4.1299230621285644e-05,7.5523454063541e-05,4.2752052285075866e-05,-0.0011472103367352684,-0.0005174802114703505,2021-12-01
354,ACB,1.763767756648147e-05,2.1949871782564394e-05,5.272310412588914e-05,3.990388482053799e-05,0.0010740694484544964,0.0019819717525641043,2021-12-01
355,CGC,0.00011173268162803004,3.14133085403598e-05,6.0453184085643646e-05,5.7107989433553414e-05,-0.0004894500878301965,-0.0006777629216076976,2021-12-01
356,YRD,9.74458348161481e-05,6.040684057039503e-05,5.6847486962225677e-05,4.543128865312027e-05,-0.00024858285132607996,-0.0009169762022467951,2021-12-01
357,ZYME,-0.00011126590023911071,0.00011473466195255625,9.379493433794083e-05,7.645137624848434e-05,0.000511215716982706,0.00023271649823432438,2021-12-01
358,SFE,-0.0004317593539747764,0.00013076682229315895,0.0002107093709838521,0.00020828134350450443,0.00038193271729353823,0.00035170281529860967,2021-12-01
359,SRT,-7.580914314485706e-05,4.188635721578549e-05,6.749302175407235e-05,6.671529216986865e-05,0.00033588475799273395,-0.0006215859761235481,2021-12-01
360,GKOS,-7.80869586188746e-05,5.561835049044351e-05,8.888906636144875e-05,6.997791841354455e-05,0.0015171178363419051,0.0029004788473880262,2021-12-01
361,PHG,-0.0005693440455166603,0.00015135448369711679,0.0005742262060417013,0.00024343753052767812,-6.614560422664894e-05,0.0013808590967424818,2021-12-01
362,NVRO,-0.00021917255623605636,7.641154361034566e-05,0.0001786621686757317,0.000122899811263833,-0.001585645603853555,-0.0011241611136950209,2021-12-01
363,HAE,-0.00010254798082661527,4.796846988054448e-05,0.0001330677217962145,9.153587474774911e-05,0.004280602883811757,0.003352506996633286,2021-12-01
364,NVTA,-3.744369000902817e-05,2.9687705085603336e-05,6.981200185197421e-05,5.665158928419533e-05,-0.0002608158819839511,-0.0004743004903518742,2021-12-01
365,KEN,-0.00040987249772608835,0.00022868669082418974,0.0003540293667969745,0.00014815680336481435,0.0037568942522791084,0.00336584255776309,2021-12-01
366,PFSI,-0.0008804135271914301,0.00041684280725587093,0.0005983288958499656,0.0002700554964789088,-0.00165142251115101,-0.0019104018625749194,2021-12-01
367,BNED,0.00010071535219603766,5.372918396669634e-05,7.805234578288913e-05,4.195442486932646e-05,-0.0001705669729672537,4.983446232067619e-05,2021-12-01
368,FEO,-0.005259649038214732,0.0012017176074139793,0.0027560457705520596,0.0009383610051782549,0.0023020431401166654,0.0013160866561263951,2021-12-01
369,TKC,-0.0009218310436673333,0.000387823186002742,0.000618183230029516,0.00027039626264137713,0.001879641272812397,0.0009521401059785318,2021-12-01
370,ARC,-0.00011281645040272025,9.944997921122037e-05,8.203592093552395e-05,7.059424839226197e-05,0.0021064684044604124,0.0022902734578464923,2021-12-01
371,LRN,-0.0002704284523229361,0.0001849107218571563,0.00019417533401015622,0.00013125828213047817,0.003396968458655677,0.004502519959997831,2021-12-01
372,PRLB,-9.836712739554477e-05,8.533492998819319e-05,0.00014663199468085023,7.570928507192599e-05,-0.0015976152461713272,-0.0029167403453162267,2021-12-01
373,VJET,-2.8582470309525413e-05,3.588399401005165e-05,4.206383621548111e-05,3.1836336332638604e-05,0.0002808914798914896,0.001276414569617367,2021-12-01
374,TDC,-0.00011241470207817964,0.00011231197893257459,0.00012751116619851387,7.921546287175672e-05,-0.002191765665483326,-0.002638546984092151,2021-12-01
375,FN,-0.00010969747732335402,7.450721000378191e-05,0.00017306402096881583,0.0001978655864257714,0.001819018219685312,0.0028445436619492477,2021-12-01
376,SQNS,-3.1913713381588554e-05,3.392385596692944e-05,0.00011437231630433751,9.009012220936989e-05,0.0017293273158107433,0.0021537607304690882,2021-12-01
377,SQM,-5.5180431246871604e-05,6.297504526835338e-05,0.000486972920704171,0.00012683167969385555,-0.0029146223207030604,-0.004083924485421162,2021-12-01
378,RACE,-0.0004935601985626714,0.0001851793071950647,0.0005389366444791766,0.00042670638247035845,-0.0023435779048803333,-0.005393192964278815,2021-12-01
379,LPL,-9.45979410888588e-05,7.434883398028644e-05,0.00012227746930785238,0.000171321096666587,0.001156489916239408,0.00142594148177226,2021-12-01
380,LC,8.342635019679782e-06,1.6167983563604263e-05,5.7084023191731465e-05,2.7185196248956926e-05,-0.0006305357278431775,-0.0003828571152282215,2021-12-01
381,GOOS,-3.703148588045671e-05,4.719951138558856e-05,6.836506500678885e-05,8.654726705028753e-05,-0.002688908904009631,-0.0030929851762301645,2021-12-01
382,NKE,-0.0003318372476887124,0.00018326239928972583,0.00036368933030732744,0.0003360386441722176,0.0018071516002955259,0.0017059659817503562,2021-12-01
383,RH,-3.5698219943832864e-05,2.0893597073392408e-05,0.00021371248621193724,0.00015915772382134875,-0.0003777838190076756,0.0005081139681012991,2021-12-01
384,WSM,-2.8681644101267316e-05,1.8749615828293992e-05,0.000167002719628201,0.0001428258699195581,-0.0003144618101062085,0.0014303818978144648,2021-12-01
385,BBY,-4.9461163297518736e-05,3.48474001197277e-05,0.0001598436537983815,0.00017652307089515768,-0.0008320902383192027,-0.0017720887451714766,2021-12-01
386,DECK,-5.576131695802965e-05,3.698820699749039e-05,0.00019338134645077577,0.00017867888896988985,0.002145465748384734,0.0012749229743651146,2021-12-01
387,FND,-5.843261599670481e-05,3.79719964219779e-05,0.00023613872738365967,0.00018343127941043445,-4.464808895287862e-05,-0.0007019887741600542,2021-12-01
388,VSTO,-1.770265934739223e-05,3.7492094160857815e-05,0.0002645270482069717,0.00012586361371782627,0.0007636704915701081,6.832865970922189e-05,2021-12-01
389,ORA,-9.567866882721224e-05,8.544270886809447e-05,0.00039194775297558463,0.00019663696955900468,0.0006379989246362379,0.0011293624858452966,2021-12-01
390,TREX,-6.07645173624067e-05,6.129929940699685e-05,0.0004510922226183609,0.00014107357586345186,-0.00039303866346243236,0.0007862968230904384,2021-12-01
391,NLS,-9.519668764377426e-06,2.843662358254224e-05,0.00011038001168895908,5.9859370256698074e-05,-0.0010527355234443575,0.00025912591879507797,2021-12-01
392,SMG,-5.316371717704395e-05,6.745312960721784e-05,0.0003135013646238651,0.0001875849407947691,-0.001543091582744296,-0.00013646771090631229,2021-12-01
393,W,-1.2497975794611072e-05,2.7521421667022875e-05,0.00015255615597095296,7.653617087981545e-05,-0.002971192654195879,-0.0026344432518222048,2021-12-01
394,DAC,-1.2927453831978076e-05,4.345736019373152e-05,3.000857462898346e-05,7.120183853244316e-05,-0.001508572440866862,-0.0008775010323317666,2021-12-01
395,GNRC,-0.00022163713631056346,7.866461160140177e-05,0.00032646083735520366,0.0001653709203125047,0.0017801102664457707,0.0013443636219693778,2021-12-01
396,TWN,-0.0012143510409081276,0.00015885336087845495,0.000281487339445272,0.0005346059916103492,0.0017961855691257316,0.0015740199551716966,2021-12-01
397,ASX,-3.546050688174469e-05,1.9424276081639398e-05,0.0001304812799871997,0.00017346489311931103,-0.00087922041056192,-5.8035379349902716e-05,2021-12-01
398,UMC,-1.938961732935949e-05,1.542623728380446e-05,0.00041056644600305557,0.00013776114952348975,0.0030848410463751147,0.0023701156243467014,2021-12-01
399,TSM,-0.0002195184224288837,5.3916813904485485e-05,0.00020096160223568178,0.00029935089225266773,0.0014691959575998438,0.001097785039325569,2021-12-01
400,DDD,3.0488904080125058e-05,8.872265854413183e-06,2.4727306646674347e-05,2.4926146563578363e-05,0.0004888130387542192,0.00011455763168890353,2021-12-01
401,AMRC,0.00039100741200971803,2.5292549056944835e-05,0.00010801303671641039,9.787125314001436e-05,-0.0007014248565693406,-0.000840683526822771,2021-12-01
402,LAC,5.2244805185497205e-05,8.98207793398603e-06,3.447950618867293e-05,3.4756766556872764e-05,-0.002082498966043112,-0.0025213676535393685,2021-12-01
403,HIVE,2.5033341262704672e-05,1.0497384948470357e-05,3.1569634065273257e-05,2.2098636270488663e-05,0.0007530422571701753,0.0013820224327104412,2021-12-01
404,ASG,-0.0008983147737102287,0.00010843482801153306,0.000970476862871894,0.0004282940762601636,0.0028044279457600184,0.0059445263994925834,2021-12-01
405,WIT,-0.000565811005659348,7.882575077312622e-05,0.0004437357274022439,0.0003113446365156703,-3.280140032143972e-05,-0.0021983941190414596,2021-12-01
406,CALX,-3.0416454322852042e-05,1.7148793903503328e-05,9.871208656052103e-05,8.944360704448154e-05,0.0026510645897369098,0.001494241538661487,2021-12-01
407,RAMP,-3.5632856297916845e-05,1.9044752584135553e-05,0.0001272138581779311,9.933242978952593e-05,0.0027503351489118976,0.005722688274402904,2021-12-01
408,HQH,-0.002059913898461838,0.0001821190206211876,0.001729721731383635,0.0007106072329048601,-0.0026051688922476743,-0.004013604200053121,2021-12-01
409,PEN,-0.00026546816903539965,0.0001037065388452439,0.0001629972827025264,0.00021787146496778713,-0.0010447997604970537,-0.0023208891158237785,2021-12-01
410,QTWO,-2.093684232541014e-05,2.4132366421711883e-05,0.00016242018924276507,0.0001486241307424291,0.0008288645947430222,0.001249255115509064,2021-12-01
411,WK,-1.88318079281151e-05,2.2938916247748235e-05,0.0001543878065199257,0.00014127402294155617,0.004309926855010548,0.00533065405261354,2021-12-01
412,MODN,-2.161440657670342e-05,3.4829642842651955e-05,0.00016315436106006728,0.00014102868622556885,-0.0026937343642017392,-0.0035858968322650467,2021-12-01
413,SSTK,-3.8936990264244385e-05,6.442568617656498e-05,0.0001337040994470175,0.0001744087785576388,0.002071560561163151,0.0019389630747508682,2021-12-01
414,SNAP,-9.588945202193426e-07,1.3297837425931959e-05,6.38158553216255e-05,5.486445630190544e-05,0.0020247300414450993,0.002098115518125456,2021-12-01
415,CVNA,-7.05219412469665e-06,1.2676572052994852e-05,0.0001401769399988479,0.00013564419743987977,0.0006117928108064109,0.0006948484461372517,2021-12-01
416,SE,-4.503006129952818e-06,7.091840200257918e-06,0.0001381174027251863,0.00011308391914531623,-0.0017350405578571025,-0.0006008112556556151,2021-12-01
417,SHOP,-4.449758846925595e-06,7.048963618028158e-06,9.427838833118011e-05,0.00011240022467093692,0.0012041199978389205,0.0009281035037788561,2021-12-01
418,HUBS,-3.550882573923023e-06,9.9267578868543e-06,7.020399474383044e-05,0.00010780549175618551,0.00028633814852871826,0.00011669822265120211,2021-12-01
419,YEXT,-5.4398619325881625e-06,7.701566074881673e-06,9.739904757402628e-05,0.00013320454434097358,-0.00012231723375393704,0.001318919769603934,2021-12-01
420,SQ,-3.6402796316496218e-06,4.3453880558624366e-06,8.583482381334056e-05,0.00011738912114057276,-0.002372573239171808,-0.0012084917524265092,2021-12-01
421,TDOC,-3.06847010672267e-06,4.032564587608678e-06,0.0001241060617343296,0.00010893830580754111,0.0004291019462165631,-0.0011833666570002365,2021-12-01
422,AYX,-6.478374570373168e-06,1.6824691124031614e-05,0.00017982390086555535,0.00010818467690004867,-0.0036504650033000563,-0.003646659316169951,2021-12-01
423,TWLO,-5.117957948188877e-06,1.4781502668567079e-05,0.00024238934953341764,9.504674282025959e-05,0.001010224576444838,0.0016658232978066967,2021-12-01
424,EGHT,-1.2353021891676618e-05,3.276465540592549e-05,0.000296503839015673,0.00014540138971933802,0.0012586591990627679,0.0016454918470715362,2021-12-01
425,GWRE,-0.000270136352834387,6.98266252652064e-05,0.00031118948926667895,0.0003407507433757594,0.002566266148439281,0.002382213631320244,2021-12-01
426,PSTG,-3.6798545962597996e-05,2.4149453726382267e-05,0.00015194746026703874,0.00011784823164701368,0.0007178738966848654,0.002201345577058768,2021-12-01
427,PANW,-0.00012654446122194781,5.726308468889876e-05,0.00017290924684429103,0.00020537431440513615,0.0025795266012320992,0.003234076675165204,2021-12-01
428,BOX,-0.0001419271764078267,8.247561602725598e-05,0.00031961300199661447,0.00021039888228110865,-0.0005244862298699522,-0.0002727426719297943,2021-12-01
429,FSM,3.5071268023592685e-06,0.00012291746000411957,0.00010389651702341323,6.012559147070496e-05,-0.0003958128718756378,-0.00198336650475581,2021-12-01
430,MUX,8.469610214674392e-06,9.282666508507444e-05,5.532039958549088e-05,7.968508997213239e-05,-0.001953242225992133,-0.001388778043793254,2021-12-01
431,CDE,5.3955354152185215e-06,5.036921464512783e-05,0.00011098311941424518,7.680121657168317e-05,-0.002220865794395417,-0.004266831878468292,2021-12-01
432,AG,1.8571811639507602e-05,6.450061969590034e-05,0.00014061660899946691,9.834828867540787e-05,0.0015889356209518824,0.003801468113444386,2021-12-01
433,ASA,-0.0001999196956389403,7.522436204451086e-05,0.00023670305986092852,0.0003409538752978218,0.0023872874325274397,0.004140840561657987,2021-12-01
434,AEM,-5.1182254332429045e-05,3.248025589174198e-05,0.00013493529352418874,0.00026145276947472164,-0.000729940817457377,-0.0015247482315824854,2021-12-01
435,AGI,-1.9072902736648792e-07,2.066316695589808e-05,0.0001506999632535077,0.00016633003892409798,0.00166079250059366,0.0015636390012408444,2021-12-01
436,NEM,-0.000450161967461169,0.00015683703635598734,0.00020271268561955407,0.00039277932169310586,0.0029948590560980636,0.0030580720539313943,2021-12-01
437,DRD,0.00010643714851426569,9.658077182388088e-05,6.876281547466837e-05,0.00013314028932368512,0.00010737141969043156,-0.00039211184031175036,2021-12-01
438,IAG,7.85250799138797e-05,0.00013008619099758137,0.00011740420561333116,0.00010908466012599198,-0.0005936986219874669,-0.0008218654905334697,2021-12-01
439,FNV,-0.00038106623326807993,0.000803966191688067,0.0002362133966808068,0.0004032989675138819,0.00818431656024092,0.00895737429750338,2021-12-01
440,BVN,3.486922296524154e-05,0.00035585638956569377,0.00018434104775455221,0.00010667936564297157,-4.8690585793571294e-05,0.0014110641347743875,2021-12-01
441,LOMA,-2.394799770459655e-05,0.00012573400624313056,0.00018041062487607814,0.00015588062547940853,-0.0013053681070957662,-0.0015695436560660314,2021-12-01
442,YPF,-3.6430130112481057e-06,4.07570873104105e-05,6.442436723505174e-05,8.594666077419843e-05,-0.005022910831786348,-0.006716697658438965,2021-12-01
443,SUPV,-1.6005706525043855e-06,2.042376661778558e-05,4.681589718881002e-05,7.666859082651803e-05,0.0011484243470362223,0.002160816041986338,2021-12-01
444,BMA,-3.5103533123764997e-06,2.4079821474876615e-05,5.519640268073878e-05,9.039302173700055e-05,-0.0017060927453023864,-0.0015970016190098217,2021-12-01
445,PAM,-9.92505769341949e-06,5.680997643686838e-05,8.820250355735001e-05,0.00011766837577186336,0.00010605142346239352,-0.00032832464145433877,2021-12-01
446,TGS,-8.950948328065826e-06,5.5203506411284075e-05,0.00012428921841131467,0.00011434095459528968,0.0008823820448594274,0.0022476873710460645,2021-12-01
447,TEO,-2.197498199156341e-05,0.00012022412071654778,0.00020951931232562508,0.00014460090176458945,0.003489699555218049,0.0013267469265439166,2021-12-01
448,ARCO,-5.3518874021316725e-05,0.00037721756163736547,0.00032135280326244236,0.0001769058942835736,-0.0019215894301789545,-0.00040916624327033913,2021-12-01
449,AGRO,-2.1187927833108598e-05,0.00019395289715067412,0.00030898791070100825,0.00012048778579921435,-0.000104477322755714,-5.073100678106643e-05,2021-12-01
450,CCJ,-1.0188169668648373e-05,0.00012525410944093905,0.00014662471405882459,7.781059489442516e-05,-0.0007758025719632954,-0.0017415968234752856,2021-12-01
451,NEXA,-2.506701494337714e-06,8.884570934102633e-05,7.019918689300277e-05,3.981863339478652e-05,0.0018386806144489074,0.0018949953054735432,2021-12-01
452,SUZ,-2.9866056604934375e-05,0.00028510042894271467,0.00026177540808568065,0.00017168359540994523,0.004622501098146607,0.004274653039509997,2021-12-01
453,GGB,-1.0558315165703585e-05,6.94460510353708e-05,5.8284029686368726e-05,0.00012214606371626494,0.0007688540375217722,0.001592786143396855,2021-12-01
454,SID,-7.370839897293087e-07,4.3953990603442635e-05,3.6889292551143316e-05,7.730903135295241e-05,-0.0030116627690480054,-0.0026620413077550627,2021-12-01
455,VALE,-1.5309764771607565e-05,0.000136374692810519,0.0001144552717646873,0.00013773748464172207,0.000925649412433094,0.0014379383194770314,2021-12-01
456,CBD,5.459269143286648e-06,9.060024944922733e-05,0.00013414613939757958,5.04307330913872e-05,0.0030194654123376873,0.0032312224346786214,2021-12-01
457,BBDO,-1.1472632716932007e-05,9.357204472238483e-05,6.88951709978594e-05,0.00011271485613134684,0.0034779658510524793,0.0026857561911813503,2021-12-01
458,SBS,-1.2093837192878417e-05,1.4896328199386148e-05,6.33758852569913e-05,0.0001445777270266019,-0.00018459155377597826,0.0010747911363898266,2021-12-01
459,ELP,-2.1525454982488366e-05,1.8145707327205186e-05,8.531520484261363e-05,0.0001761148845233814,-0.000636764940310877,0.0007367067605154369,2021-12-01
460,EBR,-1.9195252568350124e-06,6.335436773437256e-06,7.954418474345069e-05,0.00010709838739134666,-0.0021167139385427545,-0.0022361718208178337,2021-12-01
461,CIG,-4.163458205491548e-06,7.899224128908844e-06,5.8534707568345616e-05,0.0001335336766986567,0.0008330604030444658,0.0003041446331696765,2021-12-01
462,UGP,-1.0811093354291124e-06,9.185329408224958e-06,4.4189908945710704e-05,9.122055940004424e-05,0.0013094154410076934,0.001576528803010634,2021-12-01
463,VIV,-7.893041807816985e-05,7.595329390709264e-05,0.000190447649316824,0.00025334466016714005,-0.0016333566109530502,-0.0028611185869883418,2021-12-01
464,ABEV,-2.66107325685376e-05,5.707002760075366e-05,0.00011399859637485156,0.00017939759790763262,0.0029604465450283027,0.0036747667778364835,2021-12-01
465,BRFS,-1.0377118228070028e-05,3.82592603644146e-05,7.351106798455444e-05,0.00012026662147624475,-5.283533265129681e-05,0.0008194716650449736,2021-12-01
466,BAK,-8.666120433908683e-07,9.502712237959322e-05,4.80920433929009e-05,7.568160782249186e-05,-0.0015821560120244406,-0.0009761348528970392,2021-12-01
467,AMX,-0.0003168427909683353,0.0007375501197017649,0.0005186027393561291,0.0004477777136365268,0.004026788257031493,0.004086412671807337,2021-12-01
468,KOF,-0.0004578300190607781,0.0008852758475577683,0.0005630464807448858,0.0005374642134386021,0.0007362460226907547,0.0015582782729995101,2021-12-01
469,FMY,0.05539280509907599,0.030617117221515538,0.009599639096612956,0.002801536502247131,0.01595541352023757,0.019464506439187526,2021-12-01
470,AMN,-0.0007313354683593479,0.0010234792984281798,0.00031314460268430725,0.00012902711406474082,0.0053029807049659585,0.006114545530796425,2021-12-01
471,EBS,-8.970580295295721e-05,0.00035375790004224056,0.0001512860228817336,4.459724880625551e-05,0.000636049392921701,0.00010133258749719794,2021-12-01
472,ENIC,0.0017330549923442599,0.0010282273127597608,0.00028201743561684974,0.00014778548664593053,0.0034808747702700683,0.0033768652999749335,2021-12-01
473,LEE,0.00016111024522757418,0.0003581685596489238,0.00016653447129999843,5.1479001026454386e-05,-0.00011706466974790677,-0.001095691686671173,2021-12-01
474,GNE,0.001482222813840271,0.0011948169469936404,0.00030262676019274633,0.00012113903070758736,-0.00047511249434902935,-0.0012780280294467474,2021-12-01
475,NMS,0.0176424805486458,0.01132651062494643,0.0027009674080575087,0.0010055679335843099,0.006752722313153694,0.007215957173992991,2021-12-01
476,ARL,0.0004449069738747522,0.0005378177833936246,7.852760025721912e-05,5.164926169118526e-05,0.0011654872511017021,0.00047002103227213336,2021-12-01
477,FEDU,0.0001688143355604221,0.0002482535249676289,4.8110931910195285e-05,2.384099535702385e-05,-8.152479608278497e-05,-0.0009545916045297322,2021-12-01
478,RRTS,2.838989778749129e-07,5.434615406129758e-06,1.103856225489328e-06,4.4186466891145357e-07,0.00028171107191645215,0.0003667045449498287,2021-12-01
479,TARO,0.002642468297577774,0.0016744794807773396,0.0009837490380875372,0.0002603668615586033,0.005468430659063028,0.008493622815397485,2021-12-01
480,TPB,0.0008720898083740675,0.0007121382507997422,0.0004569761268507003,0.00011073124722345759,0.0023269520280476,0.002715936670417961,2021-12-01
481,AJRD,0.004497188571832089,0.002823604455361261,0.001166720366918179,0.00040848201316717075,0.0018690462110192425,0.0036238127008984254,2021-12-01
482,NNY,0.03518705571338702,0.015026421331843294,0.004816278563844513,0.002173825312067001,0.006358878671620291,0.006887437372772291,2021-12-01
483,EDN,0.00042527538262043823,0.0003974476627134256,0.00013754374852719154,4.987950330062381e-05,0.00283771129202466,0.003013558039994207,2021-12-01
484,NOM,0.00681025219600631,0.00409660582248863,0.0018730968368148705,0.0005141221922130427,0.00630145158022344,0.005624705920073401,2021-12-01
485,SAM,0.0008499699768113974,0.0009333941593450907,0.00023899301107913222,0.0001282869707302499,-0.0017971081012092193,-0.0017662260642511357,2021-12-01
486,OMI,0.00027059376132951805,0.0003722582371787362,9.762804039372712e-05,5.116368160108322e-05,5.6501186409004965e-05,0.0001962786141106643,2021-12-01
487,EQS,0.0018712891787314916,0.00119658410384347,0.00029414205694874775,0.00011914279855644878,0.0055774543117523955,0.005575661719662781,2021-12-01
488,ENZ,0.00047743517115439134,0.0005805444539686113,0.00013471687675581186,8.462197070377153e-05,-0.0020148265218550222,-0.0038573699946474957,2021-12-01
489,RCI,0.006290190791893513,0.0038599198673023244,0.001502337376387095,0.0005626339614423798,-0.0010479133440153496,-0.0018269417080680162,2021-12-01
490,MCI,0.009799252240032686,0.005099850435263262,0.001028907675258869,0.0008541049133931546,0.007135684854996819,0.011074216688958447,2021-12-01
491,MPV,0.006964751986395523,0.004034212314060013,0.001612860337889285,0.0006756356098768524,0.00042456481099965724,-0.0008989033235077177,2021-12-01
492,KFS,0.002502182030313833,0.0016300380196390858,0.00040277104110157306,0.00020402636433148,0.001592040985109132,0.0010176206002371492,2021-12-01
493,RNGR,0.0005434916242189237,0.00042066030694198604,9.777634708997974e-05,5.265263264407838e-05,0.0030798675789377792,0.003321910042020341,2021-12-01
494,TCI,0.001008931342168548,0.000771770372361674,0.0001356168144184805,8.919804393208964e-05,0.0032036231693738106,0.0028665465663521264,2021-12-01
495,NEU,0.00361138932995493,0.0018808068327958037,0.0008179361573871234,0.0002966201641219996,0.0013759821418965566,-0.0011294263116863842,2021-12-01
496,UBP,0.0016354201183860204,0.001026574466199101,0.00030086348511511096,0.00016190003212333658,0.0031662021516181958,0.004154037126943863,2021-12-01
497,SPLP,0.0011153716416604522,0.0007958184372826257,0.000350657531825563,0.00011856346504834483,0.0031737138048023345,0.0032911575013007226,2021-12-01
498,VVC,9.505805441800779e-05,0.00013250725150761773,4.561683530861418e-05,1.974133564487431e-05,0.0003384107816421654,0.00031783372158083654,2021-12-01
499,ATEN,0.0003056150413695135,0.00029563399267508336,0.00012578188017710963,4.710603532470684e-05,0.001408843957730935,0.0007605419197628222,2021-12-01
500,VNCE,0.0005554075563249492,0.00046501395659274714,0.00015356242726214932,7.409487544896195e-05,0.00028225518469865137,0.0005694804480945102,2021-12-01
501,KTH,0.02779455736678507,0.014816397638728579,0.004215686179111189,0.0016384393397324037,0.00870171488716844,0.0059994286033635035,2021-12-01
502,KTN,0.018569061149470937,0.010480109649551142,0.002603742506923136,0.0011589202958248385,0.01492464070375731,0.02004850012019587,2021-12-01
503,GEO,0.00035022298401691604,0.0006368599161988413,8.383534219281339e-05,6.542033603344847e-05,0.0005339079812228322,0.0001607219308436907,2021-12-01
504,ANET,0.0009128596085369655,0.0008647849923211857,0.00022222475119446037,0.00015120573176609028,-0.0016737868900399957,-0.00279732782923182,2021-12-01
505,ROG,3.24106820516648e-05,0.0004891397739830773,0.00012569478603108387,8.552500114796371e-05,-0.004127245541336075,-0.005804109460512001,2021-12-01
506,APRN,-0.00010486770513432833,0.0002904432145767354,6.750449529371874e-05,1.9901522141382104e-05,0.0031301573887400026,0.002236168445326467,2021-12-01
507,BGS,-0.002259619226336,0.0023378160151168777,0.00026683244866058047,0.00021631795112342367,-0.00298550222427232,-0.003717424534556607,2021-12-01
508,GME,5.790066165147649e-05,6.489426012510378e-05,1.3401072482676827e-05,9.810162750221117e-06,0.0025595934063477616,0.0028860910633319663,2021-12-01
509,AMC,7.794637377752015e-06,2.229967550775462e-05,6.688034333670974e-06,5.723917093500004e-06,0.00040396316765232585,0.00034211708935564156,2021-12-01
510,EXPR,3.365642729593641e-05,3.265625907585644e-05,9.794141705453627e-06,8.382261861570949e-06,-0.001490363128096363,-0.0012525655294265642,2021-12-01
511,JILL,-0.00030796439067553476,0.000500690130389146,5.0380022405402e-05,3.931370599709432e-05,-0.0010257486995477283,-0.000814754589449893,2021-12-01
512,ATUS,0.0004054363980039322,0.0011713593147693099,0.0003923452399129796,0.00012047570587177764,0.00011404953592669196,0.0006162965481455362,2021-12-01
513,NPV,0.012389918431234694,0.010305161940049205,0.003312603385919756,0.0010598982252468907,0.00479183299677215,0.005135143824565205,2021-12-01
514,AU,0.0010079429284329494,0.0008673244471871986,8.047350160072558e-05,0.0001558148137485395,-0.003331333334950273,-0.00536979039151903,2021-12-01
515,HMY,-2.2040578699515004e-05,0.0005070761118751487,5.335531927498499e-05,9.109620994126871e-05,-0.0006249833798635289,-0.0007407981514957369,2021-12-01
516,ETX           ,0.011388063337556448,0.00970365049660796,0.0037468580457231254,0.0009966587002491905,0.006831875304801075,0.007237384979975564,2021-12-01
517,NMT,0.01062818469333524,0.00952190902544951,0.0033684674822837078,0.0009219432834629552,0.005933522826250166,0.00637054813850888,2021-12-01
518,CHGG,0.00018457124551387737,0.00030806566974484346,0.00011848146086648317,3.3616957643639035e-05,0.0019750538230651664,0.0022154019637699537,2021-12-01
519,GDDY,0.0019584137354688226,0.0019130011837683307,0.00041158042783108787,0.00020875185417523382,0.0011282016396044268,0.0016028630290013228,2021-12-01
520,ELC,-0.00010504038041808719,0.0006890903021946072,8.461346839719868e-05,6.161420735792838e-05,0.0013159283309455306,8.120182631477096e-05,2021-12-01
521,CCM,0.00020827617608604534,0.00022967205663959578,4.74634679618632e-05,2.5559111349395813e-05,-0.0004437719475053481,-0.0006641591898748798,2021-12-01
522,MTR,7.523892859027721e-07,0.00028154250030705373,0.00015178673071367053,5.27849073821013e-05,0.0021478651039018343,0.0013200221947577474,2021-12-01
523,MMT,0.009629778459060417,0.006505735901157737,0.0022482962280131846,0.0012197258553166977,0.0007789928850463475,-0.0007139765071573558,2021-12-01
524,PYS,0.002421751841704434,0.0023788712955693427,0.001326096126056547,0.00041188983471290375,0.002002259110918245,-0.0007925752074626955,2021-12-01
525,HHS,-0.00017012413880324064,0.0003291886486783533,9.873754050260879e-05,4.866126358318392e-05,0.00021951890218698704,-1.7796007122311123e-05,2021-12-01
526,GUT,0.004206587877479918,0.003792410562124789,0.0012506547398394225,0.0006294919458448688,0.003343612113312488,0.0020688476873568984,2021-12-01
527,TSI,0.02201324983517501,0.014966704775248012,0.006294740003088885,0.0024842827424723713,0.008598455642640957,0.007985228201861923,2021-12-01
528,PFE,0.0018216066954200593,0.0017609972882446031,0.0009673502132836017,0.00026564276744436323,0.0006966156788850125,-0.000613257884189083,2021-12-01
529,ATTO,0.00020592895262248605,0.00026151493756957115,7.119416440950891e-05,4.399658048221218e-05,-0.0006918979507816257,-0.0020450969791969646,2021-12-01
530,BFAM,0.0012226792511574405,0.0011507921359095094,0.00017055052720999997,0.00019360622110685437,0.0043852287021298045,0.00486269058527452,2021-12-01
531,JBK,0.004069776346681742,0.0038912947969504926,0.0015978889926247732,0.0005218843662359691,0.008372631801987782,0.009798823076328973,2021-12-01
532,JHS,0.025625008716611795,0.013672058561261866,0.005842438399610763,0.002701665002263886,0.004644799672718966,0.003909541602907982,2021-12-01
533,GJH,0.011182025028656787,0.006190847873005146,0.003987704913725862,0.0014857407730809312,0.011016488710819939,0.015819037006684758,2021-12-01
534,IGI,0.0034948124863202895,0.0025816584367663255,0.0014191207752677721,0.0006195718713098026,-0.00028237493312669105,-0.004063054519051852,2021-12-01
535,NXC,0.004715395798762367,0.0033617076102501896,0.001568764108104323,0.0005989228645092252,0.006801034464918617,0.006756216125402733,2021-12-01
536,TVC,0.00627239289922004,0.004121424698132695,0.0026923019341070194,0.001307253891519243,0.013328209490195841,0.014456115663488698,2021-12-01
537,TVE,0.01113686922766332,0.005375052013335223,0.0033882482579055194,0.001704885610244038,0.01586192066135673,0.020083040502360927,2021-12-01
538,NYT,0.0008441378777050847,0.0013232926732341605,0.0008246523233576892,0.0002747712577160265,0.0043169578984183525,0.003886246947376534,2021-12-01
539,EOT,0.005450861636800418,0.003562638521303983,0.0017841330551238619,0.000868822621963174,0.002271313459942231,0.0005206109166262284,2021-12-01
540,NMI,0.009913655217270587,0.005589750490185619,0.002576266196085698,0.0013631755363228508,0.005373380813171972,0.0055536221450427975,2021-12-01
541,GJS,0.014849721438923803,0.008936107922113096,0.003753537579911509,0.0017610517816410859,0.013240899899883479,0.01587172065605729,2021-12-01
542,HFRO,0.0054752731209068515,0.003634965725844259,0.0010353132414212584,0.0007301200687732548,0.0033175198762982467,0.003019700215973547,2021-12-01
543,NRT,0.00035183049265229084,0.0003942802748880803,0.0003040717574998023,7.91952285465805e-05,0.0027273060147003677,0.002207603506831185,2021-12-01
544,EGF,0.027773826811305257,0.013797056538067095,0.005787564815187417,0.002851829412989085,0.014743497254199937,0.02019139091065376,2021-12-01
545,BHV,0.0014658476322077852,0.0015786609554926591,0.0007670484650778819,0.0003263066824137357,0.006225525318732334,0.007007446605291297,2021-12-01
546,ENJ,0.0911735607962177,0.028620444540333006,0.012954412454581567,0.00542667096073654,0.014222293704969134,0.017237068565582585,2021-12-01
547,NTZ,-0.0004486783931774946,0.0002224457304911096,4.165706497980082e-05,4.2177534464734974e-05,-0.001662240927464243,-0.0018890281763284545,2021-12-01
548,WIA,0.029423693052456942,0.010150444871693096,0.0032280562791003396,0.0018775419704468825,0.006617561584466464,0.004850986935558474,2021-12-01
549,RNG,6.704220772078477e-05,0.00043923284924562414,0.00028692955564843027,8.141103805101793e-05,3.095900448016532e-05,0.0008589743526965646,2021-12-01
550,NIM,0.037329548429542884,0.011593683809029656,0.005735034778389133,0.002449799627352507,0.011352041012221639,0.015665766266010663,2021-12-01
551,QGEN,0.004327318188936684,0.0021977024935567495,0.00035964946362861307,0.000464384818357196,0.004648019456523108,0.004160632107529399,2021-12-01
552,LITB,-2.6123712857712916e-05,0.00011937386393266671,3.7720854015388164e-05,2.3602902316879165e-05,0.0005379568113905714,-0.00021510923873206496,2021-12-01
553,XIN,-4.403824681102393e-05,0.00018664706698575772,7.224800982681726e-05,3.690433018304353e-05,-0.002966409125365829,-0.003119342836433571,2021-12-01
554,PHI,-0.0005132967941643186,0.0016714686985324397,0.0006092662282998932,0.0002901473452564737,0.0041104645378699164,0.0034294930707294297,2021-12-01
555,BEDU,-0.00018818603479573367,0.00020999681272181755,6.646109985714007e-05,4.37301714186838e-05,-0.0019115412522401792,-0.0023956132835578504,2021-12-01
556,GJR,0.014248574604405987,0.0049421727664915776,0.0015285908096589113,0.0010291682976432794,0.011635112969269279,0.01049928370882284,2021-12-01
557,UTI,0.0008270492076442901,0.0005062502249203962,0.0003762900617746515,9.53651045801006e-05,0.00013882400558763348,0.0008172206060493857,2021-12-01
558,GJO,0.048248588941762705,0.018665182715056013,0.00808493023037048,0.003213574616750915,0.01593564642608482,0.01958992508028209,2021-12-01
559,BKT,0.013714635881087782,0.006639445972463965,0.00594822091241236,0.0015822179679656945,0.01220835223645072,0.015333641108751413,2021-12-01
560,MIN,0.04861481368729033,0.015464119910592603,0.006470223386384816,0.0036851882646219475,0.008507925492935305,0.009104963796451463,2021-12-01
561,CIF,0.0033623579519724634,0.0022061174826337694,0.0007641134201650944,0.0004674916874897193,-0.0015626310567634675,-0.004797763800723916,2021-12-01
562,RDY,0.002871567813509567,0.0019276677827706318,0.0006636469389480776,0.00040848625323940135,-0.0005759473813460609,-0.0019168338143461248,2021-12-01
563,SJT,-0.00043059758202951005,0.0003435683845031994,0.00015483622365174404,8.332014625664004e-05,0.0009634947232027873,0.001172216760556658,2021-12-01
564,WIW,0.04795149884473493,0.014323076250647597,0.006156106201383572,0.0034735466413029405,0.010689776736344773,0.013174406686688117,2021-12-01
565,CGA,-0.00048088284074547353,0.00012625066615254055,4.768996461693193e-05,2.878086815491576e-05,-0.00023568959168506924,-0.0005984920006630099,2021-12-01
566,GJT,0.02895307237870068,0.010337346028631803,0.005525322324914438,0.002269922344719664,0.013526927413497045,0.016287479426671803,2021-12-01
567,PRGO,0.0008877745049404306,0.0007892964743535061,0.0004478288903783317,0.00017331737747590972,0.0009675690731468669,0.0010980670953026114,2021-12-01
568,PYT,0.01236980181312141,0.00506245026587191,0.003710956326024767,0.001245171431522276,0.01185028516860836,0.01519805445875369,2021-12-01
569,TLK,0.0027421460078753453,0.0014287388202535388,0.0011919763092019275,0.0003514157510009916,0.000554279118528968,0.0007590261904292445,2021-12-01
570,FCT,0.022996902696408333,0.008621023109343472,0.00480037814540289,0.0022398399653557697,0.006906490235154366,0.008924077131025884,2021-12-01
571,LND,-0.00016197245185054854,0.00020770765396813324,0.0002681179390240513,7.302248745789582e-05,0.003102834490165771,0.003577916491304425,2021-12-01
572,VBF,0.01371030488384574,0.004325977613480161,0.002458543169897088,0.001520857031450358,0.007468172110800268,0.009019129200285515,2021-12-01
573,PYN,0.004912251976494282,0.002167635439703092,0.0009791001362716072,0.0006847898234022718,4.422686916987655e-05,-0.0028097634554342422,2021-12-01
574,DPZ,0.0032313704750168578,0.0016523831457013207,0.001189115117076382,0.00035806888449877404,0.003583970925514031,0.0019962264477734774,2021-12-01
575,JMM,0.03243421734507264,0.011573392176158432,0.006111474767890075,0.0025079362720230496,0.005821820570012152,0.0025478397298079347,2021-12-01
576,RCS,0.005423025468447709,0.0024364621184275238,0.0011757388450649357,0.0005259845813819558,-0.0002204114381164921,9.7040598085703e-05,2021-12-01
577,GJP,0.038083798033697755,0.01332419869481047,0.0075241608850726924,0.0028764342444458006,0.012691860433687887,0.014038087792033815,2021-12-01
578,NEWR,-0.0004065970889838792,0.00015309171987737904,8.885281942310791e-05,4.6901178708946584e-05,0.0027930014077465776,0.0028360216249652516,2021-12-01
579,NXN,0.013487530064268406,0.0046605828748827105,0.0027049531412937783,0.0014278161515058445,0.010462501592387537,0.011802779756186535,2021-12-01
580,MGF,0.06289152537959002,0.016685522269127,0.011523518280897361,0.004570566073920427,0.011331935031021027,0.013815186286186505,2021-12-01
581,AXR,-0.0008289746093952769,0.0003043328496090699,0.00011959689808512628,6.705149373632426e-05,0.003339584546146775,0.0019110188698868405,2021-12-01
582,CPAC,0.0008754092209985134,0.0008566446955290471,0.00043669684607796255,0.00019782894351762093,0.003758695355991295,0.0024360125153165494,2021-12-01
583,INSI,0.0042242612233128005,0.0033159555633514395,0.0034657013566365396,0.0007657690396881113,0.006452154401496592,0.006112957178738735,2021-12-01
584,FCN,0.00031890461232076707,0.0011891326661880226,0.0016122792121505366,0.0006493791248091064,0.004045533687869127,0.004358607151322799,2021-12-01
585,SCI,0.00020073340268133904,0.0008712100125306711,0.0008983528117732921,0.0004757632277277321,-0.00016903379761493487,-0.0014658771523569918,2021-12-01
586,CWEN,0.0001176439874693985,0.0007645056650813513,0.0004294859682836096,0.00031593121755361757,0.00031835298650412046,0.0015323933423441536,2021-12-01
587,BAH,0.00017146827018019195,0.0009503761009159688,0.0005948202646203988,0.0004444971079569742,-0.0007404081262379598,-0.0006670513919177303,2021-12-01
588,CHE,0.00012791441945966445,0.00080853041984985,0.0009643753301236696,0.0003781549567293604,-0.000273189814799937,-0.002166826234128013,2021-12-01
589,HUM,0.00017692493043308037,0.0008677962211260539,0.00030591799061063286,0.0004777075871538776,-0.000711691908134623,-0.002182821567177665,2021-12-01
590,CNC,2.189748259372694e-05,0.00027448801237033125,0.00026078303248658666,0.00024568479064859,0.0002823237006773284,0.00196353795646593,2021-12-01
591,MOH,2.746136697022051e-05,0.0002986531864298634,0.0002129445862545737,0.0002673142078261709,0.0029507260064327353,0.005214101931663237,2021-12-01
592,MRK,3.491875706891687e-05,0.000394019635040304,0.0006361565557922138,0.0002753058164955556,0.0017652623174169947,0.0025910551561503545,2021-12-01
593,ABBV,0.00014650210427105394,0.0005526698384033754,0.000468982756145195,0.0005904560395890308,0.002922792291394049,0.005002003961272032,2021-12-01
594,BMY,0.00022563759794910136,0.0006756840189550198,0.0005733697254191466,0.0007218807362427325,0.005558504646226759,0.009257932762875063,2021-12-01
595,NVS,0.0006075337379524217,0.0009244965907725731,0.0010980563741796621,0.0011417558916029923,-0.001945887131802648,-0.0058989894033918255,2021-12-01
596,SNY,0.00033034500749911587,0.0007052086410373634,0.0005441229582151358,0.0008709346564933123,0.00324668585957842,0.00463485210083963,2021-12-01
597,GSK,0.00030611212201260167,0.001045355122726819,0.0005221472494443287,0.0008357598746162854,-0.001723878932187909,-0.0010842359704296897,2021-12-01
598,AZN,0.0002199190297913944,0.0011909389425530479,0.0007404337803119301,0.00042634427295010923,0.0006128606271213557,-0.0008642418511387908,2021-12-01
599,LLY,0.00013918620227565347,0.0008822264240285793,0.0006050108146112817,0.00031582826784009156,-0.0007470381080401634,-0.0005879222199587615,2021-12-01
600,NOMD,0.00022246943580422177,0.0014786715967675655,0.0009290354729641339,0.0003957330436600913,0.001500975860053089,0.0005288091071493911,2021-12-01
601,WMT,0.0008515794330828629,0.0036196976533764903,0.0011299942226096666,0.0010211043055077093,0.0033554177210681204,0.00477081100330572,2021-12-01
602,KR,7.686134705706417e-05,0.00038034707413770006,0.0010265754750075245,0.0003091246002266842,0.0024372796986182337,-0.0005544990074791952,2021-12-01
603,WMK,7.158850202876142e-05,0.000369316221611864,0.0006359766870790261,0.00030015934688553693,0.002958568994909897,0.0029427181869377066,2021-12-01
604,TR,0.00011122076836781024,0.0006282422584524751,0.00039718782754213537,0.00032199553501219784,0.0033576162904107327,0.004768932377181278,2021-12-01
605,NGVC,1.2855661644288135e-05,0.00032186126140181816,0.00030035317714687025,0.00011906449856630566,0.0007402683477624729,0.0004632939533635695,2021-12-01
606,LDOS,0.0005853484970023214,0.0009651089422672032,0.0004036173313504715,0.00039257055037912147,-0.0010826638129311135,-0.0001273860504105321,2021-12-01
607,LMT,0.0006853416081165628,0.001073265139403426,0.0008934915349771487,0.0004365644830608937,0.0012912089557677998,0.002399445785523739,2021-12-01
608,PNM,0.006460852784745657,0.006049364894312246,0.006872860072764178,0.0018560844310743813,0.0007511597857286464,0.0002450620694869534,2021-12-01
609,EQC,0.0038407999230311834,0.004321188078884697,0.003583593241241769,0.0012462198536372744,0.007974163111213087,0.007390384331685676,2021-12-01
610,FI,0.0005541093295506842,0.0010543237567598041,0.00012015870204138898,0.0003040643392163177,-0.0015022341684033384,-0.003359249462540991,2021-12-01
611,CLX,0.0007341699720715708,0.0019506249403884919,0.0018463545716016947,0.0004606616563355324,0.003802160267171323,0.003273369107453936,2021-12-01
612,THS,0.00023532639158807311,0.0008915145033656915,0.0004947992325933712,0.0002105410113775104,-0.0019390239729984117,-0.004051345384027661,2021-12-01
613,KNX,0.00026283891829387133,0.00038583050212830956,0.000723497185727351,0.00035331604869756947,0.0021682421914102426,0.003499002708125983,2021-12-01
614,UPS,0.00029392883741055257,0.0004158757023418702,0.0005487537517729959,0.0003808292996282914,0.0005173919416486294,-0.0011100324969050713,2021-12-01
615,PGR,0.0006589137268003294,0.0008941773631107017,0.0004908586234390853,0.0006161860528466267,-0.00195642208661692,-0.0013904238888191491,2021-12-01
616,AZO,0.0006548498186403354,0.000896583297188229,0.0012152435212696186,0.0005917894180823469,0.0008431661948415674,0.0014754802347623605,2021-12-01
617,ORCL,0.0005406661631493248,0.0007834560050417054,0.0006458596942005733,0.0005171197977597547,0.0006076457056879044,0.0033968414546938163,2021-12-01
618,RBA,0.00015262257886330588,0.0005232842416146668,0.0006913085527382215,0.0003023816239458799,-0.0026511790974028684,-0.003305956039909842,2021-12-01
619,SPB           ,7.682318804824137e-05,0.0003171233417628626,0.0003460206419680424,0.00018325082899020548,-0.0015350312315363932,-0.002161270130072582,2021-12-01
620,DNP,0.0074143878682696104,0.003046233943452093,0.0038318041273311043,0.0022711353458267363,0.005228256430631776,0.007334056686832831,2021-12-01
621,PCG,-8.86001427705952e-05,0.00026071535235742456,0.0003279492585817792,0.00019437766860007122,-0.00044485449619385706,0.0003582245038217233,2021-12-01
622,CABO,0.00027160938566341995,0.000331914655541761,0.00047768855229615633,0.0003933247230389963,0.003717060075159509,0.006332211573423292,2021-12-01
623,CCK,0.00032689633707213097,0.0003712030238972227,0.00026071138000490456,0.0004398821327346996,0.0018335899114282435,0.00609984011000767,2021-12-01
624,BERY,0.00018577193501226815,0.00034208473747192883,0.00017221699178019494,0.0002905710431052194,0.005198008330493908,0.00685818728680624,2021-12-01
625,NRG,0.000212960531893969,0.00038270191725446297,0.00028784188742440365,0.0002102646587230244,-0.0022225812944949865,-0.002559004247298438,2021-12-01
626,VST,0.000148091883653836,0.0003238870782251645,0.00029127979527436896,0.0001779505220574318,0.0009841120027611,0.0026677831254655446,2021-12-01
627,CHT,0.0059564801028178715,0.004467593432609567,0.0050133426121898635,0.0018664633108311055,0.010591942018972953,0.013575167827383636,2021-12-01
628,JNPR,0.000694535594625487,0.0009220790396305967,0.0004503677411636905,0.00038522455615474854,0.0022665952567698,0.004493909757869623,2021-12-01
629,TFX,0.00014098065144193685,0.0004566741812351967,0.00040416862879805545,0.00026117627745814875,-0.0010270628061812264,-0.0013443500847813614,2021-12-01
630,BAX,0.0008435853242343776,0.000731627918173792,0.001436083241136429,0.0006422966102484466,-4.3842105124894986e-05,-0.0008311987649712134,2021-12-01
631,BDX,0.0011151167219735877,0.0008324438692782357,0.001926104674741928,0.0007308029972313115,-0.001328228026691614,-0.003692551215187314,2021-12-01
632,NOC,0.0009254202083145526,0.001243732118805818,0.0010604302611679568,0.000518131589014727,0.001591620110083059,0.0012264156270426682,2021-12-01
633,MAS,-5.1734693853818745e-06,0.0009528107832060847,0.00036990154025344767,0.0004761812123004801,0.001206241788985515,0.0012124601583099438,2021-12-01
634,HD,-6.433007666560189e-06,0.0006408635712849548,0.00034913436981894974,0.0005613019968095344,0.0019311136145913413,0.005500504163116024,2021-12-01
635,LOW,-1.358950159220419e-06,0.00046297879618784743,0.0002522249937260163,0.0004055011619082399,0.00026630647247507383,0.00032571868607000947,2021-12-01
636,NEP,-4.713186468263269e-06,0.0013389003559836309,0.0005510538838732695,0.00043406056068664246,-0.0029301943332603934,-0.0021815188690497123,2021-12-01
637,DG,-1.2415200216805484e-05,0.001437973557949695,0.002323675702191076,0.0007267011578083672,0.0009338226501946422,0.0018695028079430767,2021-12-01
638,TGT,-4.598831904879344e-06,0.0009533286791343129,0.0003742497281222376,0.00048177871635318525,0.006132430220707089,0.006863871098123606,2021-12-01
639,AMT,-7.777689206866982e-06,0.00036237319469135357,0.0005395520620700614,0.000601321816623545,0.0008412506135260309,0.0032490220676384307,2021-12-01
640,TRNO,-8.288249815571977e-06,0.00037470283612011025,0.00024220298348579268,0.000621781614673927,0.0018478814623069434,0.0018134228965469789,2021-12-01
641,RELX,-1.7904223842321743e-05,0.000782048760471269,0.0007506656351683516,0.0008806399016437924,0.0007108063607817421,0.0009570668852559942,2021-12-01
642,ROL,8.886937252218146e-07,0.000259166510599353,0.0008633955003705304,0.0002919291700313536,0.0010292401209672035,0.0005925544041932303,2021-12-01
643,EW,-9.144671006569379e-07,2.57932207500868e-05,0.00030862783577232695,0.0003679511147205495,0.001726264953631166,0.00488688369034124,2021-12-01
644,MTD,-1.9796759134612036e-06,2.0878198131314607e-05,0.0003884813234271902,0.00047401173065187026,0.00025435642000460197,0.0013395841787066554,2021-12-01
645,ZTS,-4.479426588373739e-06,2.8718875910408778e-05,0.00042460436266863875,0.0006520238953116984,-0.003906602859787324,-0.007253438441793851,2021-12-01
646,EPAM,-9.380903613119279e-08,1.590978426213414e-05,0.00011051817622713514,0.00022246786619453546,-0.004168420246033281,-0.00438920663206944,2021-12-01
647,KEYS,-7.707412104434487e-07,3.3206579101300584e-05,0.00039021798208834467,0.00046433041922942157,-0.0031403260037516805,-0.005505223302136835,2021-12-01
648,ICE,-7.711811682251074e-06,5.34802640857236e-05,0.0006982150062592527,0.0007864546362275762,0.00034229506851520843,0.000970906379330862,2021-12-01
649,MCO,-2.048709244690987e-06,2.010839445987342e-05,0.0003315639273905824,0.0005167511323770339,-0.002267985128020221,-0.0028645249024174513,2021-12-01
650,MSCI,-1.5008273106882165e-07,1.2910128441712409e-05,0.00028009979882233257,0.0003317680834589036,-0.001551063745971534,-0.0017932994577879566,2021-12-01
651,ROP,-6.721710753104362e-06,0.00011183519397606538,0.0009372885047430456,0.0006766869561405028,-0.0013573785063319673,-0.0006875561189257985,2021-12-01
652,SHW,-6.96290171559235e-06,0.00011361733330820708,0.0006278299210444731,0.0006874702381934071,0.0013007910659791136,0.0035009267959929635,2021-12-01
653,TRI,-5.826941428054068e-06,0.00017799767870880338,0.0015596065595310752,0.0006941775888115764,0.004254084951021277,0.0068001043400794485,2021-12-01
654,EFX,1.0433227638853778e-06,0.00012525084454977222,0.0002591490246758423,0.00031378340903162415,0.00043974511135176127,0.000327632290801808,2021-12-01
655,IT,8.597634228812119e-07,0.0001115638223126708,0.00023083002629933306,0.0002794941352747299,0.0009400112901434888,0.0013016905323158055,2021-12-01
656,NOW,-7.232447013547633e-07,5.658110855156285e-05,0.00013031953364125951,0.0002623270629534665,-0.00030452961657704013,-0.0004729644220524547,2021-12-01
657,VEEV,-8.391856694469149e-07,5.958477300442734e-05,0.0005495041556413512,0.00027625295613916843,-0.001906519384710421,0.0006401435098140107,2021-12-01
