,Company,RCRP,"RCRP, no extended terms",HRP,IVP,LW,OAS,dateThru
0,WMS,-5.110545339989832e-07,5.209630425401048e-05,6.113710987723717e-05,0.0002123256713787561,0.0008068201081740203,0.002670279568097746,2022-06-01
1,CAE,-2.602438110006471e-07,1.5575085720070696e-05,4.184493109191449e-05,0.00018237917304855987,-0.003975251078731942,-0.008392580421715074,2022-06-01
2,CNNE,-3.2914657203858956e-07,1.6811678914951512e-05,5.8358640493760127e-05,0.00019685927597275847,0.0013817687647447688,0.0025971067330707695,2022-06-01
3,EB,-1.904752096326774e-08,1.0041258171486506e-05,3.7417069633913386e-05,0.00011673697398806573,0.0009130200674607967,0.0024609243308377615,2022-06-01
4,PRO,-1.5760067240258134e-08,9.418924214940878e-06,2.353881610676318e-05,0.00010950188634701145,-0.00029980313315498835,-0.0025548248657128667,2022-06-01
5,ADT,-5.469344017961874e-07,8.800081568075659e-05,6.102997710455489e-05,0.00021195360541207715,0.0004654371197833605,0.001339647302645466,2022-06-01
6,IIPR,-5.7053028313279335e-08,2.963722707520628e-06,4.65782023440279e-05,0.00021142534135286007,-0.00243184216294478,-0.003260457078351156,2022-06-01
7,CDAY,9.895558643292776e-08,1.34940888145743e-06,6.468743139132614e-05,0.00017176913616418713,-0.001010274396853135,-0.0016830838129048057,2022-06-01
8,CRM,6.204757107100624e-07,1.849454931447669e-06,4.737073218337911e-05,0.0002354210649675377,0.000502116973146784,5.144938489251247e-06,2022-06-01
9,GWRE,3.010901044733754e-06,2.5768550924782843e-06,7.228317877803506e-05,0.0003281040267363462,0.0014244890536579656,0.0007486712364163749,2022-06-01
10,TYL,9.975657931760385e-07,2.0742443848111103e-06,5.3143024058134726e-05,0.00026410795743940957,-0.0011561388397022228,-0.0024525740862144443,2022-06-01
11,CALX,-1.933583179425154e-06,3.4440930019665613e-06,3.795130031521888e-05,9.570713168708777e-05,0.001015977001950645,0.0009202781252398885,2022-06-01
12,GLOB,-1.702027466120866e-06,2.6030645837201216e-06,4.085434814711854e-05,0.00011712277062125766,0.005909452243576898,0.009297445901478369,2022-06-01
13,KEYS,9.58251393496653e-06,8.848103485913307e-06,0.00020074786521030765,0.00039811320913626556,-0.0034835171375852225,-0.005239844939645088,2022-06-01
14,DFIN,-3.9856258720474375e-07,1.3727633651434263e-05,5.250217664378158e-05,0.00015851319036199667,-0.0031094594199634375,-0.0029824615992223467,2022-06-01
15,FTCH,-1.4392261732979761e-06,2.2230429578622177e-06,2.4213298229446486e-05,3.057829746484984e-05,-0.0019569230817108813,-0.0013167272018645084,2022-06-01
16,ASG,1.2428496146224868e-05,3.18352066504708e-05,0.0002614462108046525,0.00043789815908424587,-0.001440435079914486,-0.003013519246581483,2022-06-01
17,GOOS,-1.3169730685509465e-07,9.178610489451322e-06,6.391541689150988e-05,9.630207582736102e-05,-0.0034657180621728567,-0.005607557902858877,2022-06-01
18,EFX,6.129704890408134e-07,2.8899471663035803e-05,0.0002251985832518009,0.000339264088611408,-0.00035960194294315365,-0.0010164956424085106,2022-06-01
19,TRU,1.7322519064567567e-06,3.5182446826998466e-05,0.00012062234651124031,0.0004130228018371706,-0.001397631170331793,-0.002446292068802635,2022-06-01
20,CMG,2.3343019106801568e-07,1.3088691355369243e-05,6.618732410010128e-05,0.000262368356291515,0.0032375285098869616,0.003314940313247816,2022-06-01
21,IT,2.9986855002654414e-07,8.175673885948534e-06,7.640022333080777e-05,0.00028660962634227796,-0.000930310825943727,-0.003271344986957841,2022-06-01
22,MSCI,2.875157111833019e-07,8.089763157637245e-06,7.559740280236476e-05,0.00028359790619742105,-0.0017122374867023062,-0.0017606986236906826,2022-06-01
23,RACE,8.052544271124595e-07,2.9670161050028794e-05,0.0001751036661989746,0.0003400032627636554,-0.0006853088710634701,-0.00226542935689151,2022-06-01
24,APO,-6.389032481046476e-07,3.579221223336084e-05,8.036935710613351e-05,0.0002234269497644961,-0.0008682378228606129,0.000852774652058829,2022-06-01
25,EL,-8.769138223142615e-07,2.4882541722626555e-05,0.00012629107685111773,0.0002709435273311542,-0.0007286493997977989,0.0007530878914761179,2022-06-01
26,NKE,-1.410085911348163e-06,2.8036345161608914e-05,9.546947134309634e-05,0.0003052849799766441,0.0016640634920781685,0.0027777727859018895,2022-06-01
27,GIL,8.292165825874932e-07,8.481405456076822e-05,0.00015311862603611473,0.00029473182941778495,-0.003195409190628734,-0.004712569722693787,2022-06-01
28,KN,2.133292483940031e-05,0.00015122046787973277,0.0003597460887706048,0.0007895089921813668,0.002607020023656464,0.0018711836499217633,2022-06-01
29,R,-1.4357607907216284e-06,4.148999166167795e-05,0.00014810175211705875,0.00021661566031178021,0.002638281475206768,0.003246023383680471,2022-06-01
30,HMC,9.433636528075317e-06,0.00025990073215568404,0.00020725248815246013,0.0005766644640847545,0.0036650716146521246,0.005647982439633713,2022-06-01
31,MXL,1.5152486265924603e-08,8.13055925275772e-06,2.2482376552221288e-05,8.794704001610723e-05,-0.0037339425968727453,-0.003653654641114624,2022-06-01
32,STM,-1.294839772308966e-07,1.84205101206787e-05,5.093583749194558e-05,0.00019925189526796158,-0.00012300644417689548,-0.0007312497820124345,2022-06-01
33,ASX,3.097170231914601e-09,1.7732420839869953e-05,6.238443744287956e-05,0.00020055676431523053,7.711448456713224e-05,0.001186672462054271,2022-06-01
34,TSM,-7.224266912032303e-07,2.839061080682667e-05,9.988102018543159e-05,0.00032110274687073873,0.0011094829044920639,0.0009642480578145588,2022-06-01
35,LC,9.862029250883997e-08,1.5263777163416384e-05,1.7477624128275272e-05,5.4130957772695326e-05,-0.001077803669518066,-0.001128662305945916,2022-06-01
36,ANET,-7.701310211528839e-08,2.9634264641940646e-05,7.276973129094088e-05,0.00020216549073492893,-0.0006035170131034087,-0.0021106948073230064,2022-06-01
37,CIEN,-2.4187614273765265e-07,3.9151261916485874e-05,0.0001163028544401311,0.0002670906187102125,-0.001548333237497214,-0.0018499299825008757,2022-06-01
38,FN,-3.646739517812975e-07,7.363978011154209e-05,0.00013281621721988556,0.00028998953595029515,-0.0012516593434949792,-0.00278754497295226,2022-06-01
39,AER,1.9712440201004077e-07,4.9454365781460335e-05,6.65565187912185e-05,0.00015779862506916804,0.0007027005787730839,0.0007510177906786718,2022-06-01
40,WPP,1.4657933586171273e-06,8.902542044324571e-05,0.0001267158828095153,0.0002840616540150878,0.0009676232343831237,0.0009477228064020957,2022-06-01
41,WD,1.3293317563255545e-06,0.00013225595966770716,8.599100298100784e-05,0.0002596217737300603,0.0013472688139263712,0.0012881064191606745,2022-06-01
42,JHG,7.074833249260555e-07,0.00013860342219015323,0.00012082229242823313,0.00026144944839010415,-0.0006537172675587899,-0.0007580531738067493,2022-06-01
43,QSR,1.7155556388521692e-05,0.00038050214709381864,0.0006506358719045261,0.0007177461775254541,0.003099239734631589,0.0038889347568575833,2022-06-01
44,HHC,1.0855085489908885e-06,9.094057379054022e-05,0.00026316599831636544,0.0003474727224628977,-0.0010822568641105524,4.568451299505096e-05,2022-06-01
45,VVI,2.2308852841483388e-07,5.093413775605915e-05,0.00010546886980866134,0.00019461306185687536,-0.0015537617354427374,-0.0036936006602993495,2022-06-01
46,TDG,9.549328630735937e-07,5.056790807768654e-05,0.00010201003171903612,0.00034222432716862186,0.004746796692026195,0.008580549811440706,2022-06-01
47,DIS,1.4863055597831806e-06,5.907372159196079e-05,0.00012914838902080173,0.0003997884309174326,0.000654941171422863,-0.0020995797315259556,2022-06-01
48,FLT,8.378021634092559e-07,4.8837050058150415e-05,0.00016936843697339452,0.00035108061085223526,0.0024849310357070655,0.003533538328563804,2022-06-01
49,WEX,3.3184130921525423e-07,3.9163508216342325e-05,0.00011522175104162432,0.000281539289767469,-0.0036485326233861052,-0.006506870600622065,2022-06-01
50,ERJ,-2.2812149648263212e-06,3.192829223437768e-05,3.7732820067990495e-05,0.00010932760784914914,-0.0008840715933613605,-0.0009008304807595918,2022-06-01
51,LVS,-2.5914009438345083e-06,3.3509122214934896e-05,9.491632230684216e-05,0.00011474062395792962,0.00029884845483097865,-0.001309053393022086,2022-06-01
52,SOR,3.228112493519211e-05,0.00025671398903433565,0.0005356616470348862,0.0008783461834986453,0.00436919809869081,0.006889372769806006,2022-06-01
53,COTY,3.057018953576255e-08,7.876465589543304e-06,2.7903744961992705e-05,0.00014074242238116045,0.00025204589386583254,0.001196936780794678,2022-06-01
54,YELP,1.3330340618130153e-07,1.282852605040141e-05,7.598840518701975e-05,0.00022922944452525727,0.003185513664238474,0.004640203198307726,2022-06-01
55,OUT,1.1758892778030137e-07,1.188074752365965e-05,6.363904352832761e-05,0.00021975479264153792,-0.003711189762530086,-0.003221668937757186,2022-06-01
56,PLNT,1.4492086310873842e-07,1.2711980462332461e-05,0.00011199560549179041,0.0002351298708267356,-0.0013134960340256351,-0.004218831411768374,2022-06-01
57,CHH,1.7364247333088848e-06,7.518518740492955e-06,0.0001317339522048827,0.000378982592112244,0.002645274843456884,0.0036342310404500777,2022-06-01
58,MTN,7.788233902253321e-07,6.185571584537745e-06,7.153761011819669e-05,0.00031179332441888074,0.0020598511358174043,0.002249767066964477,2022-06-01
59,APLE,1.9076999781887546e-06,7.681249440838581e-06,0.00010477533810104877,0.00036180434874219855,-0.00047954204325647973,-0.0007342609670231088,2022-06-01
60,SEAS,-1.0608524232722833e-07,3.1879820486067508e-06,5.026487397523967e-05,0.00015016121762243705,0.0028773967645613213,0.00022693835213790585,2022-06-01
61,PFGC,-1.0492546199629425e-06,2.901056966313084e-06,2.6872798124967445e-05,0.00014082651576302545,0.002063307374489923,0.0027110029110781852,2022-06-01
62,SYY,4.582280008029007e-06,8.048081358492322e-06,0.0001295082584757472,0.0003906794211401622,0.00042117947621805527,0.001869046253078083,2022-06-01
63,DRI,1.2000118844251306e-06,9.92582407085485e-06,5.392337571532417e-05,0.00028258468228190307,0.0028213102809154025,0.003282057472807464,2022-06-01
64,BYD,-7.823213067351406e-07,2.656921688739728e-06,4.086409538112858e-05,0.00022335599327792424,0.0013895324785146144,0.0016368751376944846,2022-06-01
65,EVRI,-3.98499351870259e-08,1.7207585945624255e-06,2.6465681557008796e-05,0.000144656783340243,-0.0007106687975327693,-0.0012341750547803457,2022-06-01
66,IGT,1.0678394199534512e-07,1.8462136684668255e-06,2.6684783653370972e-05,8.80238504508666e-05,-0.0028897723511763585,-0.0033258428491504304,2022-06-01
67,SHAK,1.7106648936666394e-09,3.920509173198686e-06,2.1511753355957452e-05,0.00010850214840722572,-0.0013041748542991832,-0.0023922674789150773,2022-06-01
68,FC,-5.143207505018285e-07,0.00015771341981589515,0.00010823726641299805,0.0002784457336577471,-0.0027023628445562325,-0.0045637565105466115,2022-06-01
69,TNET,-9.936190362219353e-07,0.0002195271232388245,0.0004427941231747695,0.00038757888174236724,0.0005340514507742732,0.0012649329484452538,2022-06-01
70,BMI,-1.0825865400075006e-06,0.00022777989680438808,0.0007193433544612147,0.00040079922413248684,-0.004280848682088088,-0.0070626125151114875,2022-06-01
71,MMI,-5.440950224986467e-07,0.00016082171125901738,0.0001962356088770283,0.0002829802717472793,0.0021087145019919903,0.003047536583743082,2022-06-01
72,SNN,1.1641004540735283e-05,0.00012259367846538915,0.00024703698971868896,0.0004475070914138131,-0.0007912257103809997,-0.0012363972657896698,2022-06-01
73,FI,8.280584120437646e-06,3.655471762667363e-05,0.0001156633031985828,0.00042002852290032257,-0.0025214810853393457,-0.004380397981173729,2022-06-01
74,GPN,-2.2728629051437802e-07,2.190177002984144e-05,0.00015376275135318778,0.0002516602154744635,-0.00039803056561132233,-0.0004496754017084146,2022-06-01
75,MA,3.150684503344016e-06,5.1609003113445984e-05,9.263863503168578e-05,0.0003364149904058578,0.002031965359833286,0.003224325197622425,2022-06-01
76,IBN,-1.6678209758229187e-05,4.253671746885169e-05,0.00022388066826108065,0.0003951334868617388,-0.0004654148385593399,0.0007739631819975863,2022-06-01
77,IFN,4.6500042289376074e-05,5.226946062834198e-05,0.0004784600102862421,0.000844447953710042,0.003354680127818362,0.004428777092255708,2022-06-01
78,IIF,8.142089258900587e-05,6.0283229381288126e-05,0.000792303730599233,0.0009739157259728662,0.0016194202063849138,0.0036752242973569415,2022-06-01
79,FDEU,2.471497317621537e-05,0.00011692101971663094,0.00020883283330765012,0.0006590353622822925,-0.0008721249701952787,-0.00031296650964624044,2022-06-01
80,CX,-1.2873228783914241e-05,5.242162845108796e-05,6.033470937663192e-05,0.00017481464238652348,-0.0014714320763911976,-0.0007974329810770103,2022-06-01
81,PKX,3.615124078152724e-06,0.00011245442634876077,0.00020966582567343475,0.00037900771536534666,-0.0014728189668916816,-0.003449347624244209,2022-06-01
82,TM,6.038638661021496e-06,0.00014277299100468643,0.00023137326601603122,0.0004811910646250847,0.0025940036699659444,0.0022499254968420964,2022-06-01
83,APD,1.1347475184762212e-05,7.389319654911556e-05,0.00029860551930758187,0.0006366033870797093,-9.167302155150609e-05,0.0013252248601095147,2022-06-01
84,G,5.863208376266645e-06,5.722467766321138e-05,0.00017718396229694756,0.0004930010518726301,-0.0016861749680559513,-0.0020160619712803803,2022-06-01
85,SAP,5.3423136154019015e-06,8.24251404031839e-05,0.00037991525095435537,0.0004435252419164201,-0.000698936759693652,-0.000826145629334973,2022-06-01
86,JCI,5.634848208749445e-06,0.00012864010791834463,0.00020445336556578495,0.000442420174078603,0.0016064748386483303,0.002433284526001282,2022-06-01
87,EXD,9.814400124200846e-06,0.00019678856348664115,0.0005680848518718951,0.000642294983692153,0.0002946565325816641,0.001779829596193666,2022-06-01
88,THQ,9.297447168100375e-06,3.928187951390611e-05,0.00022632636689966327,0.0006913125847741239,-0.0029050235247555056,-0.0043626536372975665,2022-06-01
89,THW,4.178508440916162e-05,5.27339541881728e-05,0.0004798999564459874,0.0009280524920473926,-0.00015509644508299744,-0.0002674411723570952,2022-06-01
90,BME,0.00018884052843668906,0.00012918722410880585,0.0004204914088128678,0.0012843885875241736,0.0007489761454302715,0.002036388864299823,2022-06-01
91,HQH,9.25966511508732e-06,0.00013367931852354502,0.0002976504868123236,0.0007543301998441193,-0.0014587720833077976,-0.0026392967704181956,2022-06-01
92,JRS,-8.196462434254369e-08,3.3908351308424965e-05,0.00043762692377645647,0.0005955770931271833,-0.005329984556291042,-0.006357616536784628,2022-06-01
93,AWP,-4.0372466329173035e-06,2.1156725712406766e-05,0.0002730522845680904,0.0006548913468912511,-0.0019372669319181553,-0.002524050269157618,2022-06-01
94,JRI,9.613480923396784e-05,3.59077400160463e-05,0.00046343137299874315,0.001111498468269092,-0.005447687934719453,-0.00863206359301675,2022-06-01
95,JPC,0.0003075523588635179,0.000156137596699444,0.0008531008533300959,0.0015431452627447377,-0.0034237292187240097,-0.0056259523091892714,2022-06-01
96,MAIN,-1.9453369183294377e-05,9.746567426777158e-05,0.000273080706726195,0.0005673600253592523,-0.0007681003267794996,-0.002556994895247984,2022-06-01
97,GGZ,2.9094075888625123e-05,7.471249761100141e-05,0.00047146129363101637,0.0008121478611779315,-0.0014948415438800417,-0.0018468747559836143,2022-06-01
98,IDE,2.8189972634840507e-05,7.396086568878116e-05,0.0003869689513251325,0.0008039773906737522,0.0009959493447872726,0.002144717407105594,2022-06-01
99,JCE,-1.0241479747061058e-05,4.61315624005193e-05,0.0001733105898475365,0.00048213631682265137,-0.005242203313760016,-0.008432102185641303,2022-06-01
100,IGD,0.00015019215529727209,0.00011904279012437184,0.0004472290791807029,0.001244155831457607,0.0003383572866758502,-0.0017981385059339817,2022-06-01
101,AB,-7.173793773187051e-07,9.733035266521576e-05,0.00018820055672266164,0.0002922901235857359,-0.005318291929359897,-0.0067065158557175954,2022-06-01
102,ETB,1.1974303817699527e-05,0.0003178160054772565,0.0008132976286681754,0.0009544245651507971,0.0013790602852562558,0.0028980006859426026,2022-06-01
103,VICI,-8.827202548058248e-06,7.338394413275407e-05,0.0002550308472303335,0.0005083633794148874,-0.0005971020832197843,0.0020559776075189974,2022-06-01
104,ARE,-1.5762636267020908e-05,5.055879001883269e-05,0.00018417406285423823,0.0006140563526021065,-0.00038360572099029044,-0.0010865734078432858,2022-06-01
105,EPRT,-8.71965342224904e-06,4.3856212603044654e-05,0.00016743173637878453,0.0005326509186619555,0.0025335054271742566,0.004831846129622955,2022-06-01
106,ACM,-1.1159964452402452e-05,0.00011373735248085365,0.0005073091599801933,0.0004543183691217239,-0.0007281865235969792,-0.0015516696646669444,2022-06-01
107,A,8.464376327472897e-07,3.59507790684986e-05,0.00015500761054500575,0.0003723499588318742,-0.00040933204806656835,3.4472136789795004e-05,2022-06-01
108,ACN,-8.63432206126863e-07,1.2052862506713809e-05,0.00011330162108198552,0.0004036066421064682,-0.0007736004838193895,-0.0006448144857045863,2022-06-01
109,BR,-1.4979556364137505e-05,1.798577416685925e-05,0.00016424754607609343,0.0006022783312368941,0.0005706595674143498,0.0005240800793447263,2022-06-01
110,AJG,-1.1779262165863217e-05,1.7712903885536266e-05,0.00030231263314039005,0.0005755344690717355,-0.0020310979298279563,-0.002844935318756391,2022-06-01
111,MCO,-6.484217377576468e-06,1.5101764433725751e-05,0.00014330554945944795,0.0004906923241709684,-0.0029402185006608566,-0.0045900882303192775,2022-06-01
112,EW,-1.3095371167708827e-06,1.7463929711850904e-05,7.828634059104375e-05,0.00031248954413255964,0.0013882731921716811,0.004545154463165722,2022-06-01
113,COO,-5.2493453931420615e-06,2.429625146174217e-05,0.0002026696091579163,0.00043474319174897664,0.0002455019898457123,0.0008941762719686689,2022-06-01
114,YUM,-3.702553389301462e-05,0.0001606529218755145,0.00026318627051425775,0.0006825664022746868,0.0028208373314885264,0.002012251492974264,2022-06-01
115,MSI,-6.721057542043313e-06,4.046603230532685e-05,0.0001915651805753688,0.00045374441372300124,-0.0006668976688085129,-0.0019275144858028432,2022-06-01
116,TDY,-1.5093613666279687e-05,5.17926160600135e-05,0.00044610940545030493,0.0005807490596560848,-0.00030988578814607816,0.0006467511961325788,2022-06-01
117,JNPR,-5.605338487882187e-06,6.357094556249923e-05,0.000270114628425436,0.0004242659276280261,0.0026597303591806166,0.006586780921625234,2022-06-01
118,AES,-6.1866017697598505e-06,0.00010246523875026968,0.0003193323495994142,0.00040438894831313087,6.115505227914409e-05,0.0010140359420176127,2022-06-01
119,HEI,-1.979914299622251e-05,0.00015149899159747467,0.0005048896933116328,0.0005747609974957162,0.0021504823523031233,0.0011986499807956105,2022-06-01
120,JOE,-1.109772702898072e-06,6.794344203953186e-05,0.00016670194238593684,0.00025776567954782775,0.004206659036516307,0.005526051781959561,2022-06-01
121,FAF,-5.75959631016424e-06,0.00010705356557573857,0.00022896755903418215,0.0006021283493803335,-0.00015800437455407656,0.0006883173315630742,2022-06-01
122,HI,-2.1181835015684037e-06,7.707372573370532e-05,0.00010202820789063326,0.0004335051803930386,-0.001442690168010546,-0.0007447780730340531,2022-06-01
123,CSL,-3.0864720628608795e-06,0.00013854042027596565,0.00024166709225572627,0.00047290276152013035,0.0005144447876509171,7.865317662730388e-05,2022-06-01
124,FIX,-1.5862345772029172e-06,0.00011727898525452166,0.00021330099154465108,0.0003920373728277288,-0.002857098649332134,-0.0032588927526132896,2022-06-01
125,WNS,-2.254351409088986e-06,0.00013336870384059938,0.0001719014435110167,0.00044582169736237656,-0.0006273657178111783,-0.0006839386611663819,2022-06-01
126,ARW,-2.42250280799464e-06,1.3278340633525097e-05,8.380365142097743e-05,0.0005065276504830203,0.0024280392582022776,0.004276408893230805,2022-06-01
127,JBL,-6.566516344952587e-08,7.958407515077714e-06,4.096158829535147e-05,0.0003035886464624117,-0.002764211110652627,-0.004552441235060822,2022-06-01
128,BDC,-1.4713672451148856e-08,1.3343539714008344e-05,7.135768744986651e-05,0.00029328984454670234,-0.001935205921124413,-0.003287945343547445,2022-06-01
129,SNX,-8.998266941329409e-07,3.134759277470694e-05,5.8303237531004896e-05,0.00039109459622585133,-0.001452595793403713,-0.004401576831362297,2022-06-01
130,ST,-6.636286723725238e-07,1.8179987989842848e-05,6.270664332040042e-05,0.0003790127061552893,0.0012269235360283651,0.0016831111541742254,2022-06-01
131,TXT,-4.983752089414054e-07,1.6675752799880892e-05,0.0001495921736803522,0.0003476527156888475,-0.0014641759117728175,-0.0013561688229901797,2022-06-01
132,CBRE,-9.407543870611811e-07,3.3041316364224786e-05,9.730747940845629e-05,0.0004060250938982175,0.0017004439514791566,-0.0015008869620663317,2022-06-01
133,ENS,-1.0458578734429946e-06,5.221473646894167e-05,0.00010607958520442367,0.0003396744031599229,-0.003467031750483732,-0.005597153236307199,2022-06-01
134,ADX,-1.4535374037730897e-05,3.600604708791868e-05,0.0002297107055743945,0.0006632541817592609,-0.0007276738662922041,-0.0008863535805766278,2022-06-01
135,RVT,-7.961968027774998e-06,3.1275609878353875e-05,0.00047857903087743334,0.0005761165336544179,-0.0026276634126893247,-0.00464152528635802,2022-06-01
136,ELF,3.925100254059254e-06,1.9081356201981596e-05,6.449214159398928e-05,0.00019978183815525294,0.0006542840653539766,0.0013002087221986945,2022-06-01
137,FDX,-5.12261860277232e-07,9.780969497816696e-05,0.0002114678359854168,0.00033516123171331715,0.0025527718578059015,0.0018003767999290284,2022-06-01
138,XPO,6.490478723943383e-09,4.5579392376549395e-05,8.603422086449164e-05,0.0001561853893223864,-0.0007225876867981652,-2.314409197011436e-05,2022-06-01
139,KFY,7.538084175539446e-07,9.765362151036585e-05,4.9966211998335535e-05,0.000352406449803671,-0.0022141330301842723,-0.0011922786852616818,2022-06-01
140,RHI,9.618435593516387e-07,0.00010529388133469364,0.00019949434680023668,0.00037997815476069796,0.0023941735368333186,0.0027143754217037424,2022-06-01
141,CNS,1.6454707766309873e-06,6.472541008537148e-05,7.225736266547439e-05,0.00044917790664098525,-0.0045972297073726305,-0.005721279056549902,2022-06-01
142,AMG,-6.222981639767329e-08,1.1249506619335994e-05,6.208886159496419e-05,0.00024267619009572415,-0.00165474066040971,-0.0008478027743415465,2022-06-01
143,BLK,1.3073176444988831e-06,1.9788297481940046e-05,0.00019733796417809304,0.0004268763781287921,-0.0033636232130928407,-0.003862052554009592,2022-06-01
144,APAM,2.0341505819255166e-07,2.2640865670968536e-05,5.324306033240398e-05,0.0002791101150605388,-0.0014919401813146493,0.0006688129868258048,2022-06-01
145,IPG,3.52175012486069e-07,4.7323039704496825e-05,7.938115985120208e-05,0.00031502001137404955,-0.0004536273148859869,-0.00012530904392684522,2022-06-01
146,EVR,2.402970945651693e-07,2.66594021930268e-05,4.994628737470088e-05,0.0003142421555972584,-0.0019825988301063182,-0.002990244704729648,2022-06-01
147,LAZ,4.6197526961479806e-07,3.081948955971454e-05,0.00013685539009533206,0.00036327831972860625,-0.0027585069296319994,-0.005030262580059893,2022-06-01
148,HON,-1.555758905899747e-05,0.000537416293147084,0.00039240037377897934,0.0007211589450747166,-5.3435990093775764e-05,0.0004943830885552654,2022-06-01
149,AWI,-4.6591844242030385e-06,0.0001392536897708727,9.63776010850862e-05,0.0004949717393020281,0.0012429798766585172,0.0009523633636470148,2022-06-01
150,SPXC,-3.130481335365113e-06,0.00012101576930333008,0.00019308116500473644,0.00043014577145927254,-0.004509036794131464,-0.007024689786140317,2022-06-01
151,OC,-3.071312365565285e-07,0.0001229947631817337,8.767461428738863e-05,0.00026609703837340203,0.0020571693171322807,0.0024095665868907232,2022-06-01
152,AXTA,-2.777286604323622e-07,2.511748973927208e-05,0.00011329877450212332,0.00037407027994508025,0.002969474746664936,0.005769194714777377,2022-06-01
153,PPG,-4.6911080436099676e-07,2.8081361831250516e-05,0.00018619779449948295,0.0004182106966298852,-0.00017793878729197374,-0.0025264718786049563,2022-06-01
154,AVY,-7.538722065330959e-07,5.3592813080379695e-05,0.00017472985721282488,0.00044774679854629897,4.110464124744296e-05,0.00154624457645088,2022-06-01
155,BERY,-3.9689685357299564e-07,7.65120393167105e-05,0.00019060265964936158,0.0003663778279244811,0.00620124973433966,0.01031984274422244,2022-06-01
156,ECL,-1.2179733825085849e-06,5.500250635815739e-05,7.307540196559025e-05,0.0004597613364639145,-0.00011841477416377015,0.001506347868558304,2022-06-01
157,LIN,-1.8467139723184451e-06,6.186551116667257e-05,0.0007771314545711605,0.0005171286179178666,0.00027586774136652276,-0.00017296264495745292,2022-06-01
158,FUL,-2.3748593940371574e-06,0.00010961722633739288,0.00019570193430579804,0.0005346619419722939,0.002646755583713549,0.0038732928827770975,2022-06-01
159,CRH,3.086812224640472e-06,7.388766006466434e-05,0.00015004373404390122,0.0003445768717568801,-0.0006960383477633476,-0.00046271110300551664,2022-06-01
160,EXP,1.9440690780289e-06,6.40826044754457e-05,4.424403428304258e-05,0.00029885076026034044,-0.002006451758047618,-0.002967420874746249,2022-06-01
161,DOV,8.894293695185262e-07,2.77838044197373e-05,0.00013178637199834847,0.000568177876739088,-0.0029421124218013016,-0.005450992283484165,2022-06-01
162,IR,1.5244938503601392e-07,1.981066884398568e-05,5.744130825548887e-05,0.00040512751927381343,0.00446056365704548,0.005050856648418832,2022-06-01
163,AME,-2.7107964343118736e-05,2.3562940456260613e-05,0.0003712108772971828,0.0008466962391548752,-0.0017965766773355677,-0.0022378493644887847,2022-06-01
164,ETN,-1.3314042813782498e-06,1.529980779229344e-05,0.00012887790988982771,0.0005497739020125305,0.00033598368467048647,-0.0008947980964305228,2022-06-01
165,NVT,-9.929523131707343e-07,2.324316577997363e-05,7.004026179788716e-05,0.0004730939623006825,0.000922170863582421,0.001349458419911484,2022-06-01
166,EMR,-7.752439520493903e-06,3.3781192788885144e-05,0.00029958473863684666,0.0006615942913007867,-0.00013927875929724525,0.0005542997633940765,2022-06-01
167,WAB,-5.858920448964218e-07,1.9515482832790783e-05,0.00012340499918706788,0.0003822047408107221,0.0007565151790728875,0.0008788271636876973,2022-06-01
168,FTV,1.3255248402577305e-06,2.680506917174655e-05,8.440142354912056e-05,0.0005385932360593668,-0.0013654014387148828,-0.0012537474269163425,2022-06-01
169,TEL,5.372419389349992e-07,2.1351508872097705e-05,5.788470125905442e-05,0.0004290150562377408,0.0008497799844661251,0.003125658474171111,2022-06-01
170,DCI,-4.904579359667031e-06,1.6307805931080425e-05,9.768766026369683e-05,0.0006072618363480513,-0.0012117756796155743,-0.0016458184461889235,2022-06-01
171,ITT,-5.036203358088864e-07,1.1273539191376752e-05,6.578541361949893e-05,0.00041979835548874525,0.0005493246870350027,0.001542345413962561,2022-06-01
172,GGG,-7.581622594209442e-06,3.1187398550724844e-05,0.00024555582810193,0.0006540178748499458,-0.0005914028979107275,-0.0009465299779670085,2022-06-01
173,CE,-8.319525117747368e-07,3.387776574807985e-05,9.418913405474378e-05,0.00040457516905178403,-0.0010538887613939659,-0.00046522992234003323,2022-06-01
174,UNVR,-4.5300512657330526e-07,2.836043797962602e-05,7.884950603230513e-05,0.0003386861186570475,-0.0028650944893399595,-0.005717035665049064,2022-06-01
175,TROX,1.5478688518499038e-07,2.5172611768531306e-05,5.489951617818003e-05,0.00017689511020639194,-0.0011406025302978964,-0.0017492346077054998,2022-06-01
176,SCHW,-2.1921933014882285e-07,6.358494967212827e-05,6.819106237806097e-05,0.00026766195822552983,0.002893037148473639,0.004090016074088801,2022-06-01
177,ASH,-1.6361764588971873e-06,0.0001982746506823747,0.0001468533793406649,0.0004926652613511445,0.0007932303786396727,0.001771308236002936,2022-06-01
178,PVH,-1.5471689360883543e-10,1.814842838177726e-05,3.268413588378487e-05,0.00014055627487009165,-0.0023581287468676213,-0.0038662536192130316,2022-06-01
179,SKX,-5.843226818966704e-10,2.4767634419002828e-05,8.311581040775817e-05,0.00019182082095741171,0.004303768444357289,0.00483466549622874,2022-06-01
180,ADNT,4.639033349060713e-11,2.2350573692244095e-05,1.988022914484073e-05,9.978898428370458e-05,-0.0007672642876937749,6.561272945303161e-05,2022-06-01
181,PUK,-8.014272468344035e-09,5.306380390489805e-05,8.0310573531694e-05,0.0002316330861414203,-0.0038044251357033806,-0.0020292311786924244,2022-06-01
182,ALK,-3.843482161904885e-09,1.6176483745735627e-05,5.3410907718398214e-05,0.0002203494709166108,0.0018024289465618962,0.002956764948631311,2022-06-01
183,IHG,-2.794009050076795e-08,2.3514325013203896e-05,0.00013874121921884444,0.000320302555058456,0.0015588090987640661,0.004025675063229009,2022-06-01
184,AXP,-2.4891867139666812e-08,3.920909209410376e-05,5.8860675763382015e-05,0.0003041258932479696,0.0023879623258375796,0.006672071574219815,2022-06-01
185,AXL,-9.552582909643792e-09,1.8896418290246536e-05,2.3618197007230655e-05,0.00011855174670235724,-0.00350716739886551,-0.0052109141900905966,2022-06-01
186,F,-4.5593686995774014e-08,2.8103752685674623e-05,7.605738986148287e-05,0.00017631642772733745,-0.00035893558769227305,0.001474315559885832,2022-06-01
187,GTES,-5.997452204358957e-07,9.825975241787804e-05,8.53328278910773e-05,0.000362568584837073,0.0008944607010162083,-3.397579613338487e-05,2022-06-01
188,HOG,-3.980891241278077e-08,6.736828248945285e-05,4.866673191938786e-05,0.0001528853033383143,-0.0010509891917583462,-0.00036526434253117374,2022-06-01
189,HIE,-6.743162650491371e-06,0.0002905683433733049,0.0009620103916173493,0.0006953145210100173,-0.0038473961597132776,-0.002207736698752279,2022-06-01
190,ARMK,-2.5046703940940363e-07,4.8316296103778984e-05,8.24998756279395e-05,0.0003403575172537405,0.0014474987598219367,0.0010036815429416944,2022-06-01
191,WCC,-3.168336079063226e-08,2.7671864697050165e-05,6.751206271491982e-05,0.00019493065333153262,-0.0004708781798362958,-0.0016753340785663894,2022-06-01
192,BA,-1.8925678056777194e-08,1.4755213471333148e-05,8.322664525176927e-05,0.00019140297386919698,-0.00013611036981387472,0.0025989618950829243,2022-06-01
193,HXL,-7.209269667250835e-08,1.900678612024957e-05,7.61903016917123e-05,0.00024655389731768147,0.0024827930771398163,0.0031975530379257018,2022-06-01
194,GE,-2.1053076805943442e-07,4.4943633927413445e-05,0.00012861951718820582,0.00032671889807220713,-0.00044845682489753306,-0.0028079238525243254,2022-06-01
195,EQH,5.851508182957232e-08,1.1335477201739542e-05,0.00010600836173135805,0.00031102869059318336,-5.9211959316049124e-05,0.001129261652256968,2022-06-01
196,BAC,2.2542973558746443e-07,1.4622316791411812e-05,9.455606939117138e-05,0.0004012146964905548,0.001061242684176779,0.0021989856149503325,2022-06-01
197,ALLY,8.750236787373379e-09,8.729262057361733e-06,4.6377111930607334e-05,0.00023962484985487725,-0.0014872648526831364,-0.004668966106091888,2022-06-01
198,OMF,1.518681169879724e-08,9.798434930257543e-06,7.229570906788711e-05,0.00026897445437505565,0.001578958909812846,0.0016978597114610694,2022-06-01
199,JEF,7.82177650154399e-08,3.731656120851328e-05,0.00015279503106463104,0.00031445404752840166,-0.0004490972110461385,0.00030674086969009827,2022-06-01
200,ESNT,3.859081391671911e-07,9.00137411093203e-05,0.00011395114795703669,0.0004199189028417859,-0.0021155492942881125,-0.002684888568031257,2022-06-01
201,BMO,-2.385357916057144e-05,0.0001762615590025537,0.000280065150359517,0.0007962067460843251,0.0034743403220664276,0.006712781040583948,2022-06-01
202,EMN,-2.1906492909257203e-06,0.00010866554151978399,0.00011414236407173465,0.000490862770728726,-0.0006990835424807316,-0.0014577749950381168,2022-06-01
203,FBP,-2.812637419576143e-07,1.562553228687196e-05,0.0001148526231847572,0.00023718901198223238,-0.003315381759245326,-0.005696309232731906,2022-06-01
204,ASB,-5.004766587723596e-06,1.7308917306418505e-05,9.757115022201814e-05,0.00043703673642341993,0.002895781773119331,0.003682622990941296,2022-06-01
205,CUBI,1.0703162565128616e-06,5.4691954064730244e-06,3.2709233154587056e-05,0.00013809294186301185,-0.004456552352048214,-0.00871884798881244,2022-06-01
206,AX,3.1625465775269036e-07,1.7419446884331657e-05,5.991605617411637e-05,0.0002529556233498211,0.0005550684636141196,0.0015814633501478508,2022-06-01
207,FBK,-4.637552820208999e-06,3.388342877596335e-05,0.00019656974837283528,0.0004920365097793358,0.001660190270954445,0.002276909632238171,2022-06-01
208,WAL,6.894845134869685e-07,4.957871728810966e-05,7.98648576859e-05,0.00022610582272351764,-0.0018097934696982116,-0.0046312303616232115,2022-06-01
209,BK,-3.183351020496069e-06,0.00017334995701991614,0.0001952345095613087,0.00045476375371135115,0.00047356696295935833,0.0018526203573870624,2022-06-01
210,AIN,-1.6602776209905575e-06,0.00016976890484112674,0.00014264726091195744,0.000426144237417097,0.0032587985033933676,0.005528287715952198,2022-06-01
211,NPO,-6.223287754471802e-07,7.939871410797672e-05,7.29504186542913e-05,0.0003399435229635201,-0.0001457631141745914,-0.0009523086093265916,2022-06-01
212,MTX,-1.586535800354949e-06,0.00010280880382608224,9.445927890293285e-05,0.00044017321132903183,-0.002248055859922714,-0.0035134092297512795,2022-06-01
213,SUM,2.8409930214029585e-06,4.8151182314798465e-05,5.180955677874856e-05,0.0002108284317882221,-0.0005841106164170158,-0.0004994352340783803,2022-06-01
214,MTW,6.113883371165034e-07,7.282667361732346e-06,6.781505583889583e-05,0.00017038368343890272,0.001507319099773906,0.0017582716691801302,2022-06-01
215,OSK,-4.320070503008502e-06,1.904251739681138e-05,8.87556616348381e-05,0.0004455145477420684,0.0017932887965945823,0.003451491199602726,2022-06-01
216,KMT,-3.818041386794504e-07,1.2881641884870684e-05,6.495875307438304e-05,0.00032606448946196563,-0.0021466041522903863,-0.0030465792679971065,2022-06-01
217,CMI,-5.662593607741407e-06,1.1865603545976696e-05,0.00013044199971066472,0.0005308071318919213,0.0015133263052648693,0.0019275938016140568,2022-06-01
218,TKR,2.532747992580454e-07,7.051690499941368e-06,7.285264675849305e-05,0.0003154569925381137,0.0023630182232831816,0.004693071487877158,2022-06-01
219,SNA,-8.12316231778352e-06,7.491407465173886e-05,0.0001547081828425118,0.0005755880895828262,0.0026244734067327993,0.0044022078717496005,2022-06-01
220,FSS,-4.946597445619521e-06,0.0001203627237132165,0.00013653417090374304,0.0005202788964811574,0.000302953582448802,-0.00027941264355323174,2022-06-01
221,MAN,-6.666862945290086e-07,6.752588879956341e-05,0.000555012508595537,0.0002918868385884531,0.002569181456751967,0.0022473127184995867,2022-06-01
222,AOS,4.146596228884644e-06,4.371618146534122e-05,0.0002038581218064845,0.00045415465082022667,0.0022398036994135256,0.0026067238597631817,2022-06-01
223,SWK,1.4206926259501476e-06,3.217507276197838e-05,0.00018954793901555236,0.00033425744073545456,-0.0036623497038626184,-0.004183325179541049,2022-06-01
224,LII,3.0288738047936e-06,6.56583956358185e-05,0.00010746609924518851,0.00040375419246315667,-0.001484478497932516,-0.0033647516272257757,2022-06-01
225,ALLE,-8.87570886975021e-06,4.9710961895530556e-05,0.00023620655993000095,0.0005455179669344208,0.0029221461756589427,0.0037584330306945444,2022-06-01
226,HUBB,-1.4746415565384529e-05,5.691170577018838e-05,0.00014233294700992388,0.0006245374630200917,0.0011948490944960197,0.001798769757019332,2022-06-01
227,ITW,-3.5602047774955435e-05,4.008005683074009e-05,0.0002103045298905403,0.0007801666982963502,0.0015407766453090172,0.0015147033354701849,2022-06-01
228,IEX,-1.244296807671863e-05,1.857595024693305e-05,0.00019005941471747902,0.0006411211511530956,0.0003484225694213405,0.0007075045103162956,2022-06-01
229,PNR,-2.9472885766976314e-06,1.4013325624893172e-05,0.00011022426872453666,0.00048364898358822903,-0.0022179380381570422,-0.004860679184859798,2022-06-01
230,RPM,-1.7519022989041883e-05,5.584010373077031e-05,0.00016326710000760252,0.0006056719482915938,-0.000856709018512498,-0.0023458645043361545,2022-06-01
231,KMX,6.650413207296088e-06,0.00010389995197212449,9.626143087174631e-05,0.00020808297296912758,0.00017054868468547959,0.00023298458708031784,2022-06-01
232,RBC,-3.5361342585459265e-07,4.791263447650366e-05,7.905111977632891e-05,0.0002531273277266581,-0.0012600115457689365,-0.0001500518131635734,2022-06-01
233,SMG,-1.2844479511901489e-07,3.101159871556731e-05,7.017556462199911e-05,0.00016383743447154003,-0.003953778409968333,-0.0030035481946173595,2022-06-01
234,AYI,-3.287368078116312e-06,6.897535715535749e-05,0.0001611453103078999,0.0003721973533788713,-0.0022570008900571147,-0.004999549043841919,2022-06-01
235,NX,-5.052846814722244e-06,8.263007878961922e-05,0.00011687080269189654,0.00044587948367868786,-0.0011383489554586304,-0.0013503452220121088,2022-06-01
236,EAF,2.1945175016735742e-07,8.880140513227466e-05,7.132247294718024e-05,0.00018340389576173546,0.001192097982324232,0.0024705116579383755,2022-06-01
237,JBT,9.83432287094324e-06,9.34956933551528e-05,0.00020433815624930883,0.00019111306370797281,-0.001784376987158643,-0.003918784729638714,2022-06-01
238,KWR,1.5384292013126154e-05,0.00011320500720556713,0.00014171796764250779,0.00023140055950980019,0.0009461709113414495,0.0019501346570052814,2022-06-01
239,MWA,-7.761681301994236e-06,7.759810719904422e-05,0.0002006485999286388,0.0004688328243337968,-0.0022817455438676848,-0.002797245841796105,2022-06-01
240,WTS,-3.719952747863297e-06,6.180286167686947e-05,9.938707459835357e-05,0.00037340099182515344,-0.00033046516168801964,0.0009727985935816384,2022-06-01
241,KAI,-5.968788854973245e-06,0.00011459597363620379,0.00016044702516439192,0.0004125853782484987,0.0004916099330280812,-0.0004068436902941768,2022-06-01
242,SXT,-2.385909494028293e-05,0.00028965204994589773,0.00022749727376937174,0.0006206800324752671,-0.000349694570029915,-0.0013817916971139428,2022-06-01
243,EVTC,-1.1514393737566043e-05,0.000465089599426699,0.000336306761608472,0.0004849689581570812,0.0012933796867635758,0.0012490340229705083,2022-06-01
244,ATKR,-8.566974224909641e-07,9.66903050521361e-05,7.822178911312084e-05,0.00015072755302386495,-0.004765847703662987,-0.0065184282273734705,2022-06-01
245,BSIG,-4.2609377895878365e-06,0.00019452146680803872,0.00022742678454608145,0.00030323355259639754,0.0012779980853554263,0.0014894453278997335,2022-06-01
246,GPI,-2.128624874383507e-06,0.0001298379663344627,5.878073566434058e-05,0.00021040156409452698,0.00274690104102627,0.005102198275952728,2022-06-01
247,SPB           ,-5.929729563400893e-06,0.00022004753903091492,0.00034125223097974055,0.000356585578889856,-0.0025071455852852882,-0.002412606260673716,2022-06-01
248,CPS,6.849976571030038e-07,3.2689536943050804e-05,2.3565416859268274e-05,4.737146772508492e-05,-0.0003562401563534468,0.00012047832784528728,2022-06-01
249,GLW,-1.0398213824203609e-05,0.00029266926156875045,0.0002675936030273241,0.0004241165147943697,-0.0006739127175105891,-0.0004520053583556939,2022-06-01
250,HRI,4.654862708413187e-08,0.00011312019339061273,6.441523408419263e-05,0.00012733660396259202,-0.001409090447979004,-6.081912149363414e-05,2022-06-01
251,RH,3.58338536967766e-08,0.00010092711384039156,4.8737661982234014e-05,0.00011361115587738978,-0.0009962823170751671,-0.0010344387131334207,2022-06-01
252,MOV,5.104140325554761e-10,2.5799554087384073e-05,3.455663283034064e-05,0.00013735113952174742,0.0006330633049644234,0.0028113667125543645,2022-06-01
253,OXM,3.961483558657445e-09,4.7098854029915454e-05,8.407789895150331e-05,0.0002507439178702976,0.0007422979456286416,-0.00014517037784301035,2022-06-01
254,SBH,7.10267311158408e-10,2.8365064068377672e-05,4.5507630924112945e-05,0.00016069095650404565,-0.00019770454249882181,0.000278648918932448,2022-06-01
255,DDS,-3.958975977351296e-11,2.639037535538235e-06,1.649408851517752e-05,6.69691813063943e-05,-0.0018615541482558176,-0.0023432661958096204,2022-06-01
256,BOOT,9.279353972263512e-11,2.451888823991221e-06,5.0040809977916866e-05,0.00011088418813951145,-0.0006610517827439557,-0.00020386910418374922,2022-06-01
257,BKE,3.373049870045851e-10,3.1451313418029722e-06,3.708431050591385e-05,0.00014223537870704182,-0.000874858709217268,-0.0021202946319582275,2022-06-01
258,GES,6.04020803936795e-12,2.154331249560305e-06,4.1099469180687046e-05,9.904227613389111e-05,-0.0027963523416844223,-0.002386783505002632,2022-06-01
259,M,1.537662510640318e-12,1.5687504228431182e-06,1.814517407617277e-05,7.212104108692562e-05,0.0014402409859349096,0.005842092243260332,2022-06-01
260,SIG,7.662651108568148e-12,3.847561429208403e-06,2.5705250705582676e-05,0.00010193470919542689,-0.001692570602208074,-0.001844713229255545,2022-06-01
261,AEO,1.506979048119797e-10,4.640722089159847e-06,2.8935900606886e-05,0.0001174853385940798,0.002612152550791626,0.0024155454227056195,2022-06-01
262,DKS,1.8865494140189027e-10,4.9601292813034715e-06,3.556181341452936e-05,0.00012557150738363803,-0.000647349496838449,-0.0002712829217505761,2022-06-01
263,TPR,-5.111899794074684e-09,2.5094959266710418e-05,7.710248697879093e-05,0.0001434661296272111,5.468302982198713e-05,0.0007649622485383977,2022-06-01
264,WWW,-1.7994709822401686e-08,3.4406461540652826e-05,7.095294783121982e-05,0.00019669933786077058,0.004288938175905376,0.0033832776099799646,2022-06-01
265,DECK,7.383056729854205e-09,2.6693623450827873e-05,4.719830246229057e-05,0.00014620949763285323,0.002180334155188638,0.0034246648459737568,2022-06-01
266,VFC,-1.6405882193488208e-07,6.0254876603896476e-05,0.0001415806721054747,0.00033003519564939535,-0.0001775625907695222,0.0020976751885734826,2022-06-01
267,CRI,-1.0799830891848718e-07,5.357937620461968e-05,9.230647864272124e-05,0.0002915043266203919,-0.0020845364591130606,-0.006119730800709881,2022-06-01
268,HBI,-7.164572785368927e-08,4.668317937800638e-05,0.00011510211856157115,0.0002539848302286018,0.002145877478494309,0.0010420067499078143,2022-06-01
269,GOLF,-2.390072163945469e-07,6.60479676193766e-05,5.2257846813188884e-05,0.00035054248039258483,0.0023383776224842326,0.0023059469307001278,2022-06-01
270,YETI,1.81451524322328e-08,2.548990378894994e-05,3.412815118497254e-05,0.00013528492126569988,-0.0026061847174817113,-0.001520289275475893,2022-06-01
271,TREX,4.1560354893965676e-08,2.118480972674755e-05,8.65521960196993e-05,0.00012883513354598395,-0.0013908190373668138,-0.0004184588350424606,2022-06-01
272,FND,4.9539308633119604e-08,1.3225671992774205e-05,3.53642455962693e-05,0.00014108333927695892,-0.0021803091587758454,-0.002694478525547371,2022-06-01
273,SITE,1.9329121142630345e-07,1.7732703664381824e-05,2.848877200263883e-05,0.0001891615827722476,0.00010420707872161371,0.001224585668930146,2022-06-01
274,GMS,-3.4805037037294035e-08,1.4782642888146776e-05,3.2229930319417354e-05,0.0002196798542891379,-0.0008534992432364814,0.0010720442040665669,2022-06-01
275,SSD,-7.545500967520514e-07,2.6643088355655717e-05,5.8088725249894384e-05,0.0003959339214286349,0.001866914107253128,0.0022399524515457733,2022-06-01
276,JELD,-4.2900401538141014e-08,4.208972177294998e-06,5.008001360592645e-05,0.00020245885954451185,-0.0005556679114778584,9.096554201118293e-05,2022-06-01
277,DOOR,-7.03823122387733e-08,4.776848701128572e-06,4.4740200492786905e-05,0.00022977470496578914,-0.002266779011562113,-0.0031598500136633496,2022-06-01
278,PGTI,-1.9812426394214004e-07,1.0274522120919494e-05,7.44710090339071e-05,0.0002841179686649978,-0.0019531991809405673,-0.0026373993306840374,2022-06-01
279,SKY,2.614620597081835e-09,3.7171741294453613e-06,2.5925925509786634e-05,9.877016034135768e-05,-0.0012913850084607652,-0.0005820783988556035,2022-06-01
280,BLD,-4.844156388251288e-08,7.5892155690767956e-06,3.342861526378827e-05,0.00020165534691663455,-0.0009527741184898332,-0.0015434098560326774,2022-06-01
281,REZI,1.9667812346171155e-07,1.984200694240427e-05,4.6604369393187265e-05,0.00017489010005184387,-0.00016751402012901844,0.00104854636056093,2022-06-01
282,HOV,6.229851294258266e-09,8.405757092833912e-06,1.4088643142839159e-05,8.498857036508709e-05,-0.0031627367043954168,-0.003391747569102313,2022-06-01
283,BZH,-2.2175481148949585e-08,8.976454408592682e-06,4.76442556164083e-05,0.0001630927074131245,-0.0003568578229833838,0.00037032866501773013,2022-06-01
284,KBH,-2.4459021812104436e-08,9.156710191483804e-06,3.17363236323687e-05,0.00016636776483785153,-0.002264685180708533,-0.003586426930302358,2022-06-01
285,LPX,1.5379734309721247e-07,1.767048488015485e-05,9.922774124764069e-05,0.0001680302244800319,-0.0023615700395265113,-9.137488510217297e-05,2022-06-01
286,WY,-1.4681875240495805e-06,4.922035307040925e-05,0.00029282832555259727,0.0004680407488249308,-0.00696663990587986,-0.012628102704177465,2022-06-01
287,GPC,-1.8486673462975266e-06,0.00015257881323018147,0.0002242878550565758,0.0006217820954357732,-0.0006410668746375878,-0.0008344845276519846,2022-06-01
288,TTC,-9.7041378321056e-07,0.00012477559441839258,0.00020809856589797273,0.0005084797090384345,0.000881713164821529,0.00014973951729994417,2022-06-01
289,MAS,-4.26722741881748e-07,6.654160896654914e-05,0.00011116771975837664,0.0004742248778060155,0.0026857213163357188,0.004346591169683711,2022-06-01
290,WHR,-5.992238284845901e-08,4.170471989943744e-05,0.00011327064847584068,0.00029721877792565925,-0.0025116897634291794,-0.0036723864233862784,2022-06-01
291,HD,-3.578414675964041e-07,0.00010480020230734966,0.00022211508052895029,0.0004404876107364955,0.0016748196724865737,0.004907195934080692,2022-06-01
292,LEG,1.599135466207558e-07,5.9531779218046136e-05,0.00011730918743430477,0.0003779891533481553,0.0016408681252358618,0.0026242889870421657,2022-06-01
293,TPX,-1.138317043629495e-08,2.45815755455383e-05,2.3506121729836672e-05,0.00015607746065155655,-0.0016355084658783968,-0.003925571995547336,2022-06-01
294,MHK,2.062406472966504e-08,5.5903415332458926e-05,0.0001404926688523006,0.00021647188810182012,0.0010765440537667194,0.0008047490514650347,2022-06-01
295,LAD,2.8285763007588326e-08,6.543522822596363e-05,8.012785496277392e-05,0.0002530441714158239,0.002107411490675307,0.002650811197860252,2022-06-01
296,BC,1.2463541910807845e-08,1.845583667209303e-05,0.00012319444129121307,0.00021835062238017663,-0.002023277634557567,-0.0035854078958320367,2022-06-01
297,HZO,3.2461923997632984e-09,1.3673646434847682e-05,8.132528331433025e-05,0.00016177262848072655,-0.000256247531542013,-0.0011719411462905685,2022-06-01
298,LCII,5.08975556034964e-09,2.5813866083410188e-05,5.566937125474767e-05,0.0001748839171085722,0.0011087633683977297,-0.00036244567078515917,2022-06-01
299,FOR,9.379512167702023e-08,0.00023503610001819895,0.00012221461115984652,0.00029819633598592986,-0.0008317446104049588,-0.0009474541646571997,2022-06-01
300,ESRT,1.2920573919128223e-07,6.350460896822949e-05,0.00018348262056606346,0.000369123637049624,-0.002568400372348189,-0.006368526507076537,2022-06-01
301,BDN,-2.558092811225531e-07,2.688665739376e-05,0.00013090027877360027,0.0004949808146919649,-0.0005994804054949796,0.000724610776705265,2022-06-01
302,JBGS,-6.124532824304655e-07,3.2388170291176263e-05,0.0001823860061299735,0.0005962631457798545,0.0015389632951991502,0.0027456501455283247,2022-06-01
303,KW,-1.1828302159746668e-06,6.448020957196337e-05,0.00020382328859830322,0.0006691355899356922,0.0008425901402601212,0.0008408842104653978,2022-06-01
304,AKR,-3.1753209530737905e-08,1.069779984553233e-05,9.863521490312247e-05,0.0003729750577117261,0.0009094558908464707,0.0003128391436720569,2022-06-01
305,AAT,-2.2263855136897687e-07,1.5014740160940913e-05,0.0002649240860063446,0.000523483675046721,-0.002037140953449078,-0.003612146614199024,2022-06-01
306,UBA,-4.3184785699699356e-07,3.0422446448808462e-05,0.0002767629066010261,0.0005971386402495937,-0.0008349765894974812,-0.0013707124432644042,2022-06-01
307,AHH,-4.6193680624876e-07,5.3385984579800994e-05,0.0003077943954474643,0.0005858405339936993,-0.0007974170563596893,-0.0021129185769678794,2022-06-01
308,ALEX,-1.4898888045090303e-07,4.752494502083406e-05,0.0002630849033620072,0.0005124225793533192,0.0009448302989599598,0.0007639004458834191,2022-06-01
309,BFS,-1.0706842625420408e-07,4.3684226295394645e-05,0.00014805612686306834,0.0004710112532592545,-0.002162030115286284,-0.004582395129536659,2022-06-01
310,AIV,-6.282853905077303e-08,0.00011172971639693987,0.00010450815597621191,0.000341661968285115,-0.0014019134901151159,-0.0009291608319128893,2022-06-01
311,GMRE,-1.3546546357781713e-06,0.00020024341343851876,0.00018652019321850039,0.000612330908712556,0.0009745025208247076,-0.002290547613639784,2022-06-01
312,OLP,1.8176682413195303e-07,0.0002576231556364134,0.00023189350206662717,0.00046651488095674084,-0.00215956221476982,-0.0015937700657390787,2022-06-01
313,ARI,-5.029058855616225e-07,0.0002195029536618267,0.0002715741987993958,0.0004492210052078983,-0.002151897744275017,-0.0033458213209782363,2022-06-01
314,CIM,-4.905481358115592e-07,0.00021819886156069533,0.0001593129739170676,0.00044655213194318377,0.00109752902137432,-0.001147835717644709,2022-06-01
315,HT,2.5019422193821533e-08,8.640801262549228e-05,0.00010818862680283547,0.00015951838154036277,-0.002247811314839806,-0.003636619570653585,2022-06-01
316,MAC,2.484053105642805e-08,8.615297338741048e-05,6.812394125940687e-05,0.00015904755198125213,-0.0013631805818453877,-0.0014826422876650207,2022-06-01
317,BV,-1.2866735821853992e-06,9.269874384024635e-05,0.00012671828370273562,0.00030068670051546593,-0.0014507493068476511,-0.0032134900923597265,2022-06-01
318,PLOW,-3.9813603032354135e-06,0.0001484075839055983,0.00020287172772693278,0.00048138933590028153,0.0006889812567565184,-0.0004699341703007981,2022-06-01
319,ASGN,-1.2522694404838042e-06,0.00014519907030558063,0.0003106394138302819,0.00030419407701874217,0.004286623714220066,0.0075879014990422435,2022-06-01
320,BRC,5.461774692486794e-06,3.4676179808783095e-05,0.000168406407357186,0.0005560151221535691,-0.001108055807481767,-0.0023795809692269466,2022-06-01
321,MMS,6.640940215294526e-06,3.722482352748173e-05,0.0006376871973668575,0.0005968813437613836,0.0024334267097957194,0.00458151828926985,2022-06-01
322,CBZ,7.449165286655206e-06,3.8981593243173605e-05,0.00041958555186122896,0.0006022337071989752,0.0013129405625602957,0.002129526737639036,2022-06-01
323,MSA,5.509901914684647e-06,3.4334717829673795e-05,0.00016808502337619353,0.0005304432857632421,0.0016622480780595385,0.0017464800771964312,2022-06-01
324,SCL,1.323746551954124e-05,7.907368544501491e-05,0.0003715116200556817,0.0007061659866564117,0.0009834534857685252,0.0012649052177069672,2022-06-01
325,HNI,1.2097031236509817e-06,2.0786672705062086e-05,0.00017177983526936054,0.00032651758467873166,0.00024493559437558293,0.0023407440170990904,2022-06-01
326,SCS,2.2320115308994614e-06,2.399328822224753e-05,0.00014248271138551049,0.00037688718295550417,0.0013718336194465189,-0.0015866311541487827,2022-06-01
327,ALG,7.898865865014482e-06,4.880506520337411e-05,0.0002549331568359638,0.0006399348243828496,0.0009634858193771161,0.0014804500155467164,2022-06-01
328,DLX,3.8200108191126913e-07,2.1941291845210395e-05,0.00012146939085749581,0.00028769548171255903,0.000659459637263495,0.0007149041659112737,2022-06-01
329,AIT,8.019665921326113e-07,2.8160476127310712e-05,0.00035017367397998614,0.0003892594297351096,0.0001007742280584734,0.0012024070091111736,2022-06-01
330,MLI,4.695627441171622e-08,1.5561916264093002e-05,0.00015824663042258953,0.0003563753294539564,-0.0005228205313897027,0.00038499005116980167,2022-06-01
331,AZZ,6.653460722088105e-06,1.6439606767167953e-05,0.00026603071720346545,0.0006245811404783972,0.000582013892382099,0.0005887035384439913,2022-06-01
332,SXI,5.336391268833601e-06,1.5252555456736122e-05,0.00022926541572129176,0.0005794821383078233,0.00011181719175563123,0.001597698406370507,2022-06-01
333,WNC,-2.3607198779899443e-08,1.5582582350524175e-05,8.070879427129136e-05,0.00020762737436246957,0.0005138014396234848,8.659238223238897e-05,2022-06-01
334,ACCO,6.92849061610255e-07,1.921256703079396e-05,0.000180674726319245,0.0004283610969401654,-0.0005776434012880734,-0.0010283405421757181,2022-06-01
335,B,5.640268974197833e-07,1.7967677845134517e-05,0.00010512880445052009,0.0004006051965295999,-0.0028563062220676983,-0.0036432322811629923,2022-06-01
336,ITGR,3.0289927463087705e-06,7.730053280694595e-05,0.00017835722012205708,0.0003894232841381968,-0.000385859858106665,0.0009476412529086604,2022-06-01
337,MDU,1.620708830898289e-05,0.00015227395586212401,0.00045972254403813217,0.0007671230951103454,0.002663708428093696,0.004623187305835688,2022-06-01
338,AIR,7.262886241469775e-06,5.0867740586867425e-05,0.0001669377495600134,0.0003551908385110801,-0.00361577724978773,-0.004100829827932029,2022-06-01
339,TGI,-8.687669154597681e-07,1.1320038049420094e-05,0.00013299133646301603,7.90436878139797e-05,-0.0013672789719825823,-0.001645054909805076,2022-06-01
340,TRN,6.258657745669374e-06,7.952080463661458e-05,0.000173987340000687,0.00037019014182253603,-0.0003210769509368753,-0.0001864884216214799,2022-06-01
341,RMAX,3.885661214493003e-06,0.000101240694182622,0.00033863144141353755,0.0002940872915121622,0.001976518094838761,0.002135975234713799,2022-06-01
342,GAB,0.0001110311747010534,0.0006646141229741118,0.0012296351521358913,0.0012201835849222653,0.00010117049789827699,-0.0002637908923511731,2022-06-01
343,CLS,2.548188224423475e-07,6.472778853584113e-05,0.0001324996334906414,0.0002210975516917357,-0.0027198629653807102,-0.002360300005564787,2022-06-01
344,CTS,8.502174625860537e-07,3.5826727387736475e-05,0.00010859829637110018,0.00033388854094106783,0.0016023961603519104,-0.0013539031138739993,2022-06-01
345,MEI,2.4987998582859446e-06,5.024842692477448e-05,0.0001523134809468008,0.00046829211523907494,-0.0007836622263787321,-0.0014430373689244284,2022-06-01
346,MTRN,6.373362708040618e-07,5.319109301497408e-05,0.00016123331670869285,0.0002986900819440857,0.0007097108432306964,0.002955850901993385,2022-06-01
347,CMC,2.4843242891102774e-07,2.5458158570446517e-05,8.11316383163571e-05,0.0002584859350152709,-0.001656978020508312,-0.004806494063890117,2022-06-01
348,RS,8.497314955026143e-07,3.366661317247265e-05,0.00010729085042374486,0.000341829357398468,0.0027689268972765028,0.005761012457984371,2022-06-01
349,WOR,3.4617808836786444e-07,4.122443451360444e-05,0.00013706538062202756,0.00023966752938895153,0.00044568708842268476,0.0024043461473369546,2022-06-01
350,GPK,3.388357656297194e-06,0.00014063385073242917,0.00024041871532817617,0.0004930245585442258,0.00045981959602248103,0.00010405281831942955,2022-06-01
351,BSX,1.013555401031983e-06,0.00023872347146696663,0.00019069132175824965,0.000471717384184007,-0.0007466423092326702,-0.0017164544329125685,2022-06-01
352,RNR,2.3148622393733124e-06,0.0003450317032648548,0.0005639874727453503,0.0006817823631857308,-0.0011628747607853901,-0.0033094343691061714,2022-06-01
353,SLF,3.604742689408006e-05,0.00045491610156246583,0.0004531533481804658,0.0009915193791451052,0.00018409944498912184,0.0010580266381082556,2022-06-01
354,MKL,1.0347129692483325e-05,0.0001977062628188952,0.00037948269767071997,0.0007451844679010477,-0.0009644082334072595,-0.0026617905195309662,2022-06-01
355,AFL,4.0050852610525506e-06,2.607801105601697e-05,0.0002199961646981528,0.0007344016360378957,-0.001550917003534171,-0.002384938428345045,2022-06-01
356,ORI,1.2012046548965585e-06,1.9400658013913513e-05,0.00013919269268624496,0.0005463558917520432,-0.0015163736165400585,-0.0007215496512206149,2022-06-01
357,AXS,1.114637402074804e-06,9.113700740940101e-06,0.00014152828027923532,0.00047245642088947275,-0.0002876783398579737,0.001302372081486294,2022-06-01
358,RE,4.286094664671585e-06,1.2150093714702526e-05,0.0002632912705578231,0.0006298637571160692,-0.0021216902828103783,-0.0037578356498664763,2022-06-01
359,AIG,-1.5763913536888266e-06,7.154331311264207e-06,8.493891696885056e-05,0.00036040776664385873,-0.0018995767138507932,-0.0029684346936479137,2022-06-01
360,CB,1.2498127270108641e-05,1.5824310487245357e-05,0.0003327126157131997,0.0007971680585168911,0.0002198301547721763,0.0015635801341687048,2022-06-01
361,CNA,4.898456169603983e-06,2.4595645027835243e-05,0.00015782532892020376,0.0006833945755265502,-9.363359534827584e-05,-0.0011131469978129492,2022-06-01
362,THG,5.921566424818505e-06,2.6010724870701627e-05,0.00027241734238362276,0.0007227128323747614,0.0015483181522521405,0.0032841263243005574,2022-06-01
363,RGA,-2.7583760202433606e-06,5.506316076952595e-05,0.00014661839706608717,0.0003406252207054954,-0.0015452043201651987,-0.0027890760637194556,2022-06-01
364,EME,1.1090029561696238e-05,0.0002784609453117796,0.0005137698174624127,0.0005625704226153299,0.003223144080154383,0.0030122401667705585,2022-06-01
365,MMM,1.757780607133584e-05,0.00014333197875487325,0.0005155529422870659,0.0007971823999737541,0.0009845571539537188,-0.0005594635095422886,2022-06-01
366,SEE,2.2984017336062644e-06,4.6276485650497514e-05,0.00012550894955789147,0.0004257099013439845,0.00025655140839391275,3.3772215885309244e-07,2022-06-01
367,SON,8.731303790884328e-06,6.9674427593244e-05,0.00018896776830289427,0.0006409538944018672,-8.667129061619604e-06,0.003973391452960993,2022-06-01
368,OI,-1.4760247467598264e-06,2.103158591730782e-05,4.605413623487662e-05,0.0001719070993412285,0.0003398998933300519,0.0006119547615578438,2022-06-01
369,IP,1.9036504747796164e-05,5.127938282400313e-05,0.00025981112841832267,0.0007115769900896216,-0.00029221376709316274,-0.002263832190871511,2022-06-01
370,WRK,-1.28044894622296e-06,2.4920593023441258e-05,0.00017205935847072466,0.00034580994540691387,-0.0013592378344802257,-0.001493729934444759,2022-06-01
371,CC,-2.1752391548733458e-07,2.711020908363045e-05,8.008081629149113e-05,0.00014271518550613562,-0.0013054286161354486,-0.0014111788441689111,2022-06-01
372,INGR,-4.290393900082519e-06,0.00019512407362314493,0.0010243199289106557,0.0006246714673704156,0.002748755027162212,0.004351868637439014,2022-06-01
373,VVV,-5.00096312922278e-07,8.935326067258054e-05,0.00038342710157286404,0.00028605610482729997,-0.0009492028724071363,0.0005466241506052412,2022-06-01
374,BUD,-1.3234008498517104e-06,0.0001219357494677597,0.00021208385072611733,0.0004202176397755173,-0.0002222473537576884,-5.3211529352319895e-05,2022-06-01
375,CCEP,-7.234698553370151e-07,9.907487091310839e-05,0.00023877497755292465,0.00034143398140328306,0.00020868252946527787,0.0008500765688946478,2022-06-01
376,HPE,-3.856347538342452e-06,6.461702553560562e-05,0.00024192280485820284,0.0003134442006630146,0.0024778387770281853,0.0019557396465353484,2022-06-01
377,XRX,-1.3406987248843585e-06,4.3002069716121106e-05,0.00022339599979509877,0.00020859439532074518,-0.00023093113161831906,-0.0005607276729869663,2022-06-01
378,DXC,-7.803476930601733e-07,5.1399129926744656e-05,0.0001512297008981483,0.00015729674889520404,0.0020647989400757807,0.0024880472907795677,2022-06-01
379,OPY,1.2305255316021999e-06,0.00011262005676267394,0.0002751084157041511,0.0003695458127932412,-0.0014670980134942164,-0.001132155446802317,2022-06-01
380,MTB,2.090641401043659e-07,1.863317778406191e-05,7.963578741322343e-05,0.0003207851102295477,1.9605886798387838e-05,-0.001497109077464558,2022-06-01
381,USB,6.410002518733143e-06,3.1293360167152694e-05,0.00013374376644698934,0.0005387403108051438,0.001986286175049979,0.0033898907489170794,2022-06-01
382,NYCB,5.967386811199696e-06,5.222517922858068e-05,0.0005568052271652771,0.0005199128443593523,0.0025622158815735287,0.001272659362362054,2022-06-01
383,NTB,2.5763454968198416e-06,2.4723959773081306e-05,0.00017423064588079044,0.00043631836069569433,0.002588705672854464,0.004565858276342681,2022-06-01
384,BANC,-1.8200591161581653e-06,1.1988744128442182e-05,8.247806794481558e-05,0.00036943241479772015,0.0013951970722804075,0.004229064649141032,2022-06-01
385,CBU,1.6884994982779568e-05,4.2277745353070995e-06,0.0002050808841455995,0.0007284515512864772,0.0020637538466598913,0.0020235059276969363,2022-06-01
386,NBHC,2.7577090866931237e-06,2.9627750008445234e-06,0.00018043001685454378,0.0005104903365716533,0.004203696515571797,0.005416979640409685,2022-06-01
387,BY,3.1434513208861465e-06,5.419077268470803e-06,0.00021938866943129555,0.0005319123889864041,0.001444707619834166,0.0008241869605255417,2022-06-01
388,BHLB,-5.236434350027575e-07,8.048598867139135e-06,0.00012339078258401983,0.00043828661731323224,0.00017463956363451315,-0.0015123115942548837,2022-06-01
389,AGM,3.855105414270265e-06,4.527257731466855e-05,0.00017466242919583788,0.00045763999117117365,0.002453104176057798,0.002099141028921204,2022-06-01
390,CBT,6.334646634861642e-07,2.3515798288425243e-05,8.808586574581147e-05,0.00032879968904629914,0.000840773567994907,0.005331633927760769,2022-06-01
391,TSE,9.096377167489364e-08,1.354905724175692e-05,6.943671585981728e-05,0.00018944395394618406,0.0011412935574699882,0.002484762702180674,2022-06-01
392,OLN,2.1241230243577237e-07,2.439023670070155e-05,0.00011661580624305373,0.0002078256340488046,0.0009919285921084098,0.001676359598690938,2022-06-01
393,TRTN,7.520927819416042e-07,6.222450803885542e-05,0.00027462927596150905,0.0003269060822992644,0.0006522019381078651,0.0002649554938928978,2022-06-01
394,GNW,5.375415627655631e-07,8.502379986507182e-05,0.00025068469557875555,0.0002730400989819441,-0.002247826724689982,-0.0022017813360794137,2022-06-01
395,AGO,1.0890719751684107e-06,0.00010880482868017832,0.00017564563379902966,0.0003403737862327825,-0.0016591206457327668,-0.0018839803594902854,2022-06-01
396,CM,4.082948439126124e-05,0.0002659052406664717,0.0003762821695156495,0.0008318304862261551,0.004036708853815557,0.0066936132917663985,2022-06-01
397,AEL,-1.7423315266045866e-07,9.262509797908569e-05,0.00016027288007804144,0.0002878312905165159,-0.0011073774028902987,-0.0012452489134358571,2022-06-01
398,PRI,-2.683002158252666e-07,0.00011234460109429942,0.0003053784503711157,0.00034910939066252605,-0.0008415014997221115,-0.0001280020759943431,2022-06-01
399,KB,6.852432592564319e-06,0.00014746851990539195,0.00014636422676375728,0.00048143864826074987,-4.9748576312153455e-05,-0.0009808996728970266,2022-06-01
400,BCS,6.457349468595759e-07,2.6328979979393854e-05,9.675443639125487e-05,0.0002546725486600678,0.0014769729498455059,0.0008525045439976746,2022-06-01
401,UBS,2.1563753190998857e-06,3.642421967422467e-05,0.00023265942214937508,0.00035232085954901995,0.000963275617004687,0.003356039503198686,2022-06-01
402,BBVA,5.414256551536456e-07,4.447341736244192e-05,0.00011277442803716608,0.0002528088022477741,-0.0008357579685447784,-0.002880373747027082,2022-06-01
403,ENVA,-7.5867851609771485e-06,5.669855255243259e-05,0.00011905660444360179,0.00018157134904288826,0.0014354064287040887,0.002541171415290409,2022-06-01
404,MCB,-6.710269900372633e-06,5.394893615169044e-05,0.00016013115287438878,0.0001727659821197818,0.0015783757123641162,0.004891628416016242,2022-06-01
405,AMRC,8.37052016203374e-07,3.186290122624621e-05,5.623678324237886e-05,8.468865197241112e-05,-0.0005097552696067218,0.00028071842214945727,2022-06-01
406,BE,1.5096704640435525e-07,1.9658452060215142e-05,1.8860584421784074e-05,5.225035200098209e-05,-0.0027353547891200525,-0.002966596882378529,2022-06-01
407,ASPN,4.059402782540982e-07,4.0077783336354904e-05,2.317911467978967e-05,6.42141767193224e-05,-0.0007458897093773561,-0.0005650978252004047,2022-06-01
408,HIVE,7.40334491129742e-08,4.222566735129438e-05,1.8433268733618286e-05,4.033279957824209e-05,-0.00011301976391437463,-2.53092047637194e-05,2022-06-01
409,DAVA,2.5357374825521477e-06,0.00017831208420412295,7.109910176435425e-05,0.0001078862384314688,-6.569541325534034e-05,-0.0005508698133049541,2022-06-01
410,CARS,5.455649061509621e-06,0.00016369536976725284,4.66931686579985e-05,0.0001493118465857509,-0.0025951763055320812,-0.0012798629942177603,2022-06-01
411,LAC,2.4161582796593103e-07,3.3526121141931275e-05,1.8841341382726312e-05,5.330777479050683e-05,-0.001452932749058278,-0.0011230972627548088,2022-06-01
412,LTHM,3.340774860520357e-07,3.641052230076734e-05,2.491987269394638e-05,5.789407950287631e-05,0.00031286546489683794,0.0017117819463841135,2022-06-01
413,INSP,-1.4484013304353678e-07,1.1547403417350472e-05,2.5111866971507213e-05,0.00010718181201233917,-0.0027591870586482167,-0.0022596425358230644,2022-06-01
414,PEN,-6.172668159476821e-07,1.5944946140747304e-05,5.415304112733584e-05,0.00014799935171889736,-0.0030279178724477046,-0.002722393915064984,2022-06-01
415,QTWO,-1.019357486044379e-07,1.8240764592939172e-05,2.2342321819093632e-05,9.719424094973895e-05,0.0025872360601473183,0.0045103598593794455,2022-06-01
416,QUOT,-1.385040942025961e-07,2.9046618537749166e-05,2.997421425053081e-05,8.939152868932891e-05,0.0037027930862241045,0.004388478872371682,2022-06-01
417,SHOP,-3.744505329474857e-06,8.687243099802331e-06,1.7795875146343903e-05,4.7797195273986756e-05,0.0014207904700932665,0.0009262159957348469,2022-06-01
418,EGHT,1.7670661934009696e-06,3.970773105946027e-06,4.0660171341425376e-05,0.0001275332719735594,0.0018885446037526068,0.002355997837818414,2022-06-01
419,RNG,1.3840334688748958e-07,2.5345208054654273e-06,1.3483809887576046e-05,8.140372733008553e-05,-0.0006542424959609651,-0.00025373323213799515,2022-06-01
420,NVTA,-1.0563571405915482e-09,1.3180971516798814e-06,8.554617195025491e-06,4.1749728443189825e-05,-0.002633094225866629,-0.002031578266602802,2022-06-01
421,TWLO,4.150067945262096e-08,2.4324651286541146e-06,1.7204192777804858e-05,7.704648966080316e-05,0.0008943251670531674,0.0028393598944460043,2022-06-01
422,ESTC,-1.8084472375188972e-09,1.2837982411492336e-06,1.2210808543496804e-05,7.371843250849803e-05,-0.0010957427628890857,-0.002824901817835304,2022-06-01
423,ZUO,1.154511816707167e-06,2.0859488154421545e-06,3.523513289065656e-05,0.0001197796289467565,0.002390882053618198,0.002261791302965512,2022-06-01
424,VEEV,1.3012327518787837e-05,5.5719979589215e-06,3.719279561416251e-05,0.0001815147401145306,-0.0013513513838557638,-0.0007664158278736786,2022-06-01
425,WK,4.0331674208692715e-06,7.424983369177076e-06,3.0054298249561425e-05,0.00013459382891447592,0.001026229534679653,0.00010268767279369353,2022-06-01
426,AYX,2.2164120622270887e-06,2.170160396829136e-05,3.792323450140174e-05,0.00011831615043207311,-0.0018224640999958165,-0.0008155166583003054,2022-06-01
427,GNRC,1.4558150106024839e-06,1.8877452057256726e-05,4.428522134246224e-05,0.00010291900362038018,-0.0006648000366535294,-0.0008324096462642394,2022-06-01
428,CNK,1.8360044280526393e-06,4.2434724331041477e-05,3.132765844302165e-05,0.00013331378151494228,-0.0006678947444365046,-0.0010092677806078614,2022-06-01
429,LYV,3.880114173712145e-06,5.244214342269672e-05,6.956133505457278e-05,0.00016475329015662942,0.00419975117173141,0.005644847774671463,2022-06-01
430,SPOT,-1.64328378244513e-05,3.034306273772792e-05,3.578654750803615e-05,9.583475880419159e-05,0.0004239403611225639,-0.002205016212031688,2022-06-01
431,NIO,-4.435220453350769e-07,8.99455978470974e-06,3.4696424024564045e-05,4.949622487929304e-05,-0.00029573886953146786,-0.0012734182075281118,2022-06-01
432,PAGS,-2.1689704361209524e-07,4.469927853136642e-06,9.937856560906766e-06,4.3231962771177215e-05,-0.004890789052227708,-0.005522649912153591,2022-06-01
433,SE,-2.0691281619019406e-07,4.419159913974379e-06,1.0013872660035968e-05,4.274094865910555e-05,-0.0024643512462770617,-0.0021593784565036777,2022-06-01
434,GDOT,6.7005077152812825e-06,6.016445930938075e-05,9.010617537465147e-05,0.00017694014183861686,0.00028022813549053203,0.000630901210634931,2022-06-01
435,PAR,1.6595856950919692e-06,3.660000845130802e-05,2.3138252391777347e-05,0.00010763847562175779,-0.0024945144782152675,-0.0031270890296729767,2022-06-01
436,GDDY,2.485204773602147e-05,5.410224644705226e-05,0.00013435040310796586,0.00024127756292362308,0.002696473722634582,0.0036882959406806482,2022-06-01
437,SSTK,1.5691732311020325e-05,4.393363131929442e-05,0.0002737449907320316,0.00019592900833569483,0.002415176683035733,0.0026658987692176083,2022-06-01
438,PSTG,1.0666898245467069e-05,5.890933085622783e-05,0.00017002443617961723,0.00017049289824312252,-0.0011022916811321603,-0.00027520627644403905,2022-06-01
439,NYT,4.582881042280569e-05,0.00010713398423733418,0.0002382256347334484,0.0002971570653454058,0.0029408460659549477,0.002616206993009353,2022-06-01
440,PANW,1.0501663556725302e-05,5.640328539395426e-05,0.00020704433978390612,0.0001564455469739365,0.003993160075611533,0.00607972203437815,2022-06-01
441,DDD,-5.010788495551628e-06,2.5222870421606513e-05,2.187409373852285e-05,7.60631457755211e-05,0.0014269832968948314,0.0012401970976410525,2022-06-01
442,BB,-9.847580186317738e-06,3.198956421190336e-05,4.805929572815474e-05,9.646907133380972e-05,-0.000503872081439097,-0.0007492610158473485,2022-06-01
443,CVNA,-7.567001894769642e-09,3.9007073398676855e-06,1.9094546586275238e-05,3.084679885005844e-05,0.002001907121381798,0.003570339261002284,2022-06-01
444,W,-2.6922021544375973e-08,5.906785699896967e-06,2.0916913291653815e-05,4.6710869198739736e-05,-0.0032524752541448006,-0.002068965840964706,2022-06-01
445,YEXT,1.8857164950497238e-06,2.4594381825458944e-05,3.419820754716564e-05,0.00011891798933550906,0.0006150811423313988,0.0019580951619430974,2022-06-01
446,RAMP,3.365751685871271e-06,5.052666835060892e-05,7.356877755609194e-05,0.0001533206846193193,0.00011669577793910896,0.0011212939001928345,2022-06-01
447,GKOS,-4.9736342424855706e-06,3.747391691465444e-05,3.8865367556405005e-05,0.00011209613672548299,0.0007655194395555928,0.003221597881406737,2022-06-01
448,NVRO,-3.5738137869469344e-06,3.312068816829122e-05,3.775739734420151e-05,9.907427605740841e-05,-0.0031274354329609436,-0.004018630680948109,2022-06-01
449,CMSC,-0.0009576019627135157,0.0019086821720699968,0.0031393732938972962,0.0027345345430656136,0.0048572371818998835,0.005241492812702799,2022-06-01
450,GPJA,-0.0021291681272123685,0.002457659471381425,0.0023182343539211205,0.003521044424225085,0.006604866474298559,0.00797036356132632,2022-06-01
451,JOF,-0.00036810871810792926,0.0016916963148437348,0.0009603945953766896,0.0014523943264997574,0.00348376977965367,0.004389863799339431,2022-06-01
452,DLB,-2.5181771914478367e-05,0.0003973435148162034,0.0008713445481364413,0.0006060020458550445,-0.0013596433946837618,-0.0037193788313957727,2022-06-01
453,HDB,-5.435666834342633e-06,0.00013554227742980214,0.0004024432731257675,0.0003146163913684297,-0.0028476674636061586,-0.006132550777576286,2022-06-01
454,IFF,-1.170430951082646e-05,0.00013672329827871187,0.0007322032900474457,0.0004603144958553875,0.0018204511638365585,0.0006235174880635218,2022-06-01
455,LPL,-4.047780989085671e-06,7.907970720457351e-05,0.0001445953915864999,0.0002662423742883967,0.0004060860309382129,0.0003686109177509927,2022-06-01
456,AZUL,-5.264780571646715e-08,1.3474349949471772e-05,4.3865331798090306e-05,7.303613982165487e-05,-0.003195634399010563,-0.0018381954139218065,2022-06-01
457,BRFS,-3.884757060059354e-07,2.3167419777969797e-05,0.00011986030578767239,0.0001255762924783698,-0.00518616541369277,-0.005264098447897007,2022-06-01
458,NOK,-2.8769797157941755e-06,9.515223273174932e-05,0.00016950371101405264,0.0003121058698753791,-0.00263118934529363,-0.006421885417923017,2022-06-01
459,TV,6.921098320864918e-06,6.728741617363201e-05,0.00014391908952711963,0.0002258016022703634,-0.0017477385471739732,-0.0011210496224852739,2022-06-01
460,EMF,-2.3075506373115756e-05,5.4458711209924496e-05,0.0003793201635973642,0.0007445171450780924,0.00122906698532449,0.0020225860377353446,2022-06-01
461,IHD,-8.524963426306715e-05,7.141474505021113e-05,0.0007614799871233002,0.0009763268523984738,0.00018050298836652464,-0.0014214968178886,2022-06-01
462,TWN,-3.842551130870623e-05,8.810838012587832e-05,0.0006072521518703392,0.0006823474703320881,0.0025821164623667354,0.005388620707150708,2022-06-01
463,YUMC,1.7780232500134623e-05,3.5243145905894484e-05,0.00018365859696021784,0.00016743521404378472,0.0030354145820022456,0.002067018367317495,2022-06-01
464,VLRS,-3.482597875780609e-07,4.5020190887061535e-05,0.00013621907717294016,0.00015246904113623032,-0.005100699488366413,-0.0055742629938193,2022-06-01
465,PAC,-1.7017839090530346e-06,8.814202579460469e-05,0.00014105873055912427,0.00029850895546892274,-0.0010329404487238291,-6.256254074075771e-05,2022-06-01
466,BNED,6.30470071176343e-07,1.5007999883042755e-05,7.97230111844614e-05,8.095053985156371e-05,-0.0016466952575912026,-0.0020387132108358372,2022-06-01
467,IDT,1.5714503673925294e-06,2.5131994876094976e-05,6.388338716407555e-05,0.00013555760718423945,-0.0015989312292306551,-0.0004941908783415641,2022-06-01
468,SAM,4.967458719388702e-06,6.207858363185469e-05,0.00028136364803871825,0.0002375088293674723,-0.0010231869688658165,-0.0006467244719290545,2022-06-01
469,FUN,6.696242506612108e-06,3.0168558653440517e-05,0.0003168535785730125,0.00027414065156476495,-0.003030070412955646,-0.003100284597695397,2022-06-01
470,DIN,1.1774033099112473e-06,1.5101149824094202e-05,0.0001345327461862357,0.0001372236274099293,-0.0010304103122024838,0.0021008706750609268,2022-06-01
471,BBW,4.12824059467379e-08,1.1518063247057287e-05,7.145037375732774e-05,6.862566692901588e-05,0.0013471752279407283,0.002337997522144534,2022-06-01
472,IMAX,2.1395455687868035e-06,1.820113008106481e-05,4.214356371747827e-05,0.00017934049734075948,0.0006847608184005131,-0.0001511882434400358,2022-06-01
473,MCS,6.073449471010875e-06,2.6187747870932465e-05,0.00010783341074957645,0.0002580347322660684,-0.0022400480634330064,-0.002393977600479359,2022-06-01
474,ELAN,8.975461347496843e-06,4.7761909032437065e-05,0.0002465474220959351,0.00028971980553695926,0.0017497301002329766,0.0015423333894948807,2022-06-01
475,ROK,1.0121098504341084e-05,0.00011640810806430433,0.0001857243385561054,0.00030325523694272645,-0.0015073936972703173,-0.004459491023592032,2022-06-01
476,TDC,1.1584110452296653e-06,5.319587915495977e-05,0.0001645698745815831,0.00015913936452296244,-0.001953543714122339,-0.0008674187842260676,2022-06-01
477,ATEN,1.2340760029517052e-06,2.8280045313256914e-05,0.00021103349685565366,0.0001186692138871973,0.0023705413552168025,0.0018489855462593499,2022-06-01
478,BOX,6.017158712744054e-06,6.50544707234935e-05,0.00021851540435953903,0.00027298269203924363,0.0034633410964648058,0.00441572426685426,2022-06-01
479,CGC,1.1809861080412533e-07,1.3758053980863647e-05,5.158190438540614e-05,5.92513962784932e-05,-0.0017402239456684623,-0.0032341072483493315,2022-06-01
480,PRLB,1.4808144008662869e-06,3.891598343830864e-05,0.00014590439458741497,0.00016759829256940864,-0.0009119938185196241,-0.0019852293548343397,2022-06-01
481,MODN,4.892611559842268e-06,5.67767712753417e-05,0.0002899401384883587,0.0002447485428875896,0.0017208444134518617,0.002524313786601956,2022-06-01
482,SWI,3.7532077998280174e-06,4.8984793008445345e-05,0.0003483531429646179,0.00021115953660566844,0.001761824545644087,0.004016315412468899,2022-06-01
483,FCX,3.849585686059224e-06,2.2026760590030735e-05,0.0001519650227533995,0.000171930426895914,-0.0006130794121900953,0.0009092338296228674,2022-06-01
484,PWR,1.2872064108999052e-05,3.5452805457403755e-05,0.0003274032994907027,0.00027672775359023914,0.002717816414619163,0.005216769024375207,2022-06-01
485,CCJ,1.342027141653438e-07,2.3922151268051252e-05,0.00015543694560828604,0.00011915320110481467,0.0026819338759456776,0.003191283649008483,2022-06-01
486,BFAM,2.688372565494093e-05,5.807757847934291e-05,0.0001728375785321408,0.0002552925130898031,0.002736629016441435,0.0026428774629505226,2022-06-01
487,WWE,7.719007806816597e-05,0.0001054209105480069,0.00027093790989782024,0.000463400332635916,0.0019787620873578087,0.0017423534534520345,2022-06-01
488,HASI,-3.523542349635226e-06,3.947869452722047e-05,9.539787355960669e-05,0.00018337449103638485,-0.003196924448297116,-0.004766695988051084,2022-06-01
489,SRG,-2.2993078463583873e-06,3.170209351789211e-05,0.00021946952919567873,0.0001472529761495291,0.0008742232334122966,0.0031592289446115084,2022-06-01
490,CCO,-3.3407586908758707e-06,1.3499922447033052e-05,3.090276350812001e-05,8.590973523397644e-05,-0.0007412121012411834,-0.0013888527411827119,2022-06-01
491,GGT,5.987411364178261e-05,6.330559094337516e-05,0.00015896381471588577,0.00040285909627362637,-0.0045132803660573855,-0.005511371265458067,2022-06-01
492,ARLO,2.9556899322028884e-06,2.3164524288802836e-05,7.244961280030796e-05,0.00010380618424649846,0.00034589792835892317,-0.00014659840862699623,2022-06-01
493,SAFE,1.5974084114226892e-05,4.677979640353619e-05,0.00023084369806407513,0.0002086235712351662,-0.0010073852362274902,4.6952714641304955e-05,2022-06-01
494,WIT,5.0262069125815275e-05,8.679107174414095e-05,0.0002646369270889492,0.00038706161058070537,-3.727483460711993e-05,0.0006040238852371399,2022-06-01
495,MED,4.287679024372614e-06,4.2236694496335536e-05,0.00011748572462194379,0.00019264611981924563,-0.0008110906958177547,-0.0009689407603983443,2022-06-01
496,VSTO,4.6316432453590055e-06,4.405476799333932e-05,9.469505547408393e-05,0.00020093854916109142,0.0007200027193497991,4.7437310767411926e-05,2022-06-01
497,ACV,3.183207233730286e-05,0.00010738233857701265,0.0003230000471941807,0.00033693029210455413,-0.008063964930184768,-0.010742779811972535,2022-06-01
498,ALB,-1.1941794550956965e-05,2.552332379100819e-05,7.453321649953798e-05,0.00013104253456350205,-0.00022688298629042707,0.001775816267025094,2022-06-01
499,SQM,-1.158251771505682e-05,2.524135885335277e-05,7.448858008106712e-05,0.0001295948626070219,-0.0024010165980569414,-0.004024192785470023,2022-06-01
500,DPZ,7.40964081705998e-06,0.0006310612092372986,0.00039160250977770395,0.0003805189060295896,0.0035546031976282587,0.0032615813637906087,2022-06-01
501,FICO,3.785442685853749e-06,0.0004438779571521997,0.00025061223046730837,0.0002676506687367802,-0.0023104742547871687,-0.0011377091595472552,2022-06-01
502,FDS,-2.088134427836667e-05,0.00018256402821781548,0.00020275202489442975,0.00062033410379824,-0.0011383927708658501,-0.0017111893285174326,2022-06-01
503,ICE,-5.31321381860559e-06,9.487280181747542e-05,0.00028649386382367543,0.0005391252276654506,-0.0007789645234028019,-0.0003072955671345589,2022-06-01
504,TRI,-8.418820576594065e-05,0.00017189112884723363,0.00031925737183305576,0.0009767904204170592,0.0015633237348822192,0.0027974353721197504,2022-06-01
505,SUI,-2.5065363923114464e-05,0.00027949076305934197,0.00025627460191216217,0.0005665350207542645,0.0015436979209145826,0.0025113068110954127,2022-06-01
506,ABT,-4.4787914451105365e-06,9.383732371920497e-05,0.0001750008279454934,0.0006233935212791273,6.0652551826412115e-05,-0.0004627206062223382,2022-06-01
507,ZTS,-3.3439116878747966e-06,8.609958515000586e-05,0.0003364451480228471,0.0005719890704464875,-0.0027167836005368485,-0.0058825594857395995,2022-06-01
508,CTLT,-7.335983943038716e-08,3.656370358653176e-05,0.00011885822214898445,0.0002467616302958085,0.00020798224383740668,0.0009731276319665101,2022-06-01
509,BIO,-3.876012477973685e-08,1.4619629707532554e-05,0.00010840382367643019,0.00030530823104118527,0.002530440070591509,0.002615903540650201,2022-06-01
510,DHR,-5.487136147223387e-07,2.185377164996846e-05,0.0001620446246588271,0.00045638203548973303,0.0005641999241832261,0.0017363754814463481,2022-06-01
511,CRL,6.050208339489608e-08,1.8516826812745517e-05,5.952877358167022e-05,0.00021828569905535847,-0.0009108222456577106,-0.0014140006826867495,2022-06-01
512,RMD,-7.26962490648082e-07,9.70981971376925e-05,0.00016200126576003867,0.00035195612678680263,0.00010789075526039928,0.0018981416244974708,2022-06-01
513,STE,-2.2100608775380265e-06,0.00014242284805906718,0.0001293324581684362,0.0005162463922757631,-0.004626220155056136,-0.007467128450622651,2022-06-01
514,QGEN,-1.177745150219988e-05,0.00026435180228676883,0.00029527693454205016,0.0005337647945315347,0.004956973675847431,0.003927766499432504,2022-06-01
515,RELX,-2.952538222476793e-05,0.00037328282339371346,0.0005501463434565407,0.0007537123931341895,0.0020226370207013494,0.00317846529295506,2022-06-01
516,GIB,-4.531308257993267e-05,0.0003891150558485053,0.000528812085389181,0.0007727083702315358,0.00287054338582262,0.0026935440167796445,2022-06-01
517,STN,-3.0599546771790336e-05,0.00033001329259079793,0.00058027685740082,0.0006553435279354998,0.0038841222182852053,0.0073460547345174385,2022-06-01
518,WEA,-0.0004582620588616676,0.0007542599898867384,0.001986750140735444,0.002839811869512279,0.0041510985960572355,0.004100095145588402,2022-06-01
519,HYI,-0.00016476455692461672,0.00048708406862537767,0.0010956002391993502,0.001833886376155773,0.00345233293252376,0.003087197585990857,2022-06-01
520,DFP,-4.949889880493501e-05,0.00025462039314422377,0.0007224449891515784,0.0016400131970222,-0.0007239251883662209,-0.002298065146694166,2022-06-01
521,FFC,-4.891292263585402e-05,0.0002536498261660707,0.0028980350483068886,0.0016337617627473996,-0.0007091723184133126,-0.0011779750050845508,2022-06-01
522,HIX,-1.3642850701181191e-05,0.0002596934721658341,0.0005443950773893469,0.0009960628698271671,-0.0010737036593552022,-0.0028809657633765305,2022-06-01
523,BLW,-0.00013346717828955238,0.001096824787463019,0.0009698324698347891,0.001574983139838403,-0.0006921974261025989,-0.0029798274900147484,2022-06-01
524,BUI,-3.0265990918681503e-05,0.0004566257221651301,0.0005005489047878872,0.0011338608211695239,-0.0013149260372540073,-0.0011013707509616552,2022-06-01
525,HTY,-1.3175082529145952e-05,0.00021600182158033,0.0008002335143736262,0.0008460332162472001,0.00020829301900097245,0.0011936370940093762,2022-06-01
526,RGT,-4.5367599037272145e-06,0.00014217213451175423,0.00022701466405502906,0.0005568580271300006,0.0010045572969698583,0.0002748294126616327,2022-06-01
527,MCN,-1.70228002592789e-05,0.00022223043337190633,0.0006370248763453775,0.000930830568358741,-0.001674218947393128,-0.0020008052574467996,2022-06-01
528,AVK,-4.28231514605599e-06,8.838711570660763e-05,0.00042465259840752224,0.0006069879974592613,-0.004703689955955162,-0.008732236828096297,2022-06-01
529,DDF,-1.1796426555942335e-05,0.0001241971339286555,0.00046853697817313806,0.0008529090355631838,-0.00976773686572056,-0.014167074741522767,2022-06-01
530,FGB,-6.404917155418797e-06,0.000165985563660688,0.0002478305796522989,0.0006657673535938465,-0.0040649479178637045,-0.003897913054576599,2022-06-01
531,SPE,-7.057731594462829e-05,0.0003916270118648565,0.002422086353056725,0.0015708141933242312,0.0016058134018954173,0.005266110447440272,2022-06-01
532,PTY,-3.998168035455398e-06,0.00018711484604352975,0.0006377761356369603,0.0008082812972813107,-0.0001235285593192154,-0.0018699507467231252,2022-06-01
533,PCN,-8.178166469206965e-06,0.0002180004118504589,0.0005146820659705014,0.0009416978899544782,-0.0018696079290095235,-0.0011098435983672116,2022-06-01
534,PDI,-3.148042684501949e-05,0.0005081284608907034,0.0007602166807028679,0.001234572456555199,-0.0008211726926226434,0.0006688520278345314,2022-06-01
535,PHK,-2.856247618443478e-05,0.0007954998280051476,0.0015732044536910215,0.001101243102417453,-0.00044502795203256413,0.0011953565030049138,2022-06-01
536,ZTR,-4.374759151985941e-05,0.0014041536673502072,0.0010507111805098865,0.0011827444414624576,-0.00020833711140835786,0.0015467068211718455,2022-06-01
537,EDF,-5.822755663315825e-06,0.0007358445987240455,0.0005621721120543951,0.0005628931844273897,-0.0104239141739404,-0.015354450230002882,2022-06-01
538,SWZ,-2.2867404320883932e-05,0.0014676787902748421,0.00115542066044434,0.0011227185596073992,0.002831300411802705,0.006199650435486977,2022-06-01
539,FEO,-2.4797747626392652e-05,0.0008959300584154517,0.0009167756938327923,0.0012223588841120728,0.003001428977991822,0.0019082000244697206,2022-06-01
540,IAE,-1.568016085160001e-05,0.0007323015507978104,0.0005090328448089732,0.0009991129308128078,0.0009379500870861246,0.000296079538518772,2022-06-01
541,EDD,-4.93699373316972e-05,0.0007369840550284279,0.0018595685132311135,0.001600551583821722,0.002329100685862433,0.0023409759128857175,2022-06-01
542,EMD,-1.1382644395036431e-05,0.00041566514311969086,0.0008780919046705042,0.0009027244193689394,-0.0006721461849286624,-0.0017212958760497938,2022-06-01
543,MXE,-2.0631287765515707e-05,0.00047838338436412454,0.0009132788506362061,0.0011653491671743499,0.0006277132782249054,-0.0012125911714177635,2022-06-01
544,MXF,-7.0951528132320134e-06,0.0003718266945161678,0.0006737168840276922,0.0009057754574055031,-0.00020847462214765045,-0.0020163847925205865,2022-06-01
545,DSU,-0.00011939791491293177,0.001077111039299507,0.0007432602469866794,0.0020323133817697864,-0.0005544638864241761,-0.001592863577366118,2022-06-01
546,VVR,-9.35747797514285e-05,0.0009859404721844376,0.0006813481803216131,0.0018602910397724417,0.0024578945078181026,0.004802186612672443,2022-06-01
547,JFR,2.439486912161476e-05,0.00011444537506163986,0.0005188085524440915,0.0013899457713604088,0.0009907577513562573,0.001250652526692294,2022-06-01
548,NSL,9.37806169661554e-05,0.00015333969355195884,0.0012884894350345872,0.0018623195434455343,0.001123776660662128,0.001695278430274616,2022-06-01
549,JQC,6.21172545134022e-05,0.00023953591737525606,0.0006881283213172244,0.0016598980302242128,-0.0019697458664996157,-0.0034655054383121698,2022-06-01
550,BGB,-0.00045730941312295694,0.0002355868930377306,0.0017719889024281144,0.002923380814188565,0.0014519813392738926,0.000711113829518263,2022-06-01
551,BGX,-0.00030092398319724045,0.00021654845046824452,0.000957391712102486,0.002687134149435647,0.001413580447330841,0.0008356174514389523,2022-06-01
552,PHD,-0.0002926537128130908,0.0003750166434017519,0.0010742492770218172,0.0025912961342515026,0.004843263077047761,0.006508765405106967,2022-06-01
553,FRA,1.4824222084298518e-05,0.00046339465796355414,0.0006066725313800793,0.0017027622612440904,0.002965996046705876,0.0036640205207458497,2022-06-01
554,BGT,9.063300402523667e-06,0.0004088369414375678,0.001046403444022634,0.0015022877431122709,0.001526238522222597,0.0012884108510875852,2022-06-01
555,EFT,-1.7327687552198835e-05,0.0008922549007775262,0.000608893047017487,0.0016312921441361823,0.0005398309880803306,-0.00038396562633772496,2022-06-01
556,EVF,-2.5646147390732734e-05,0.0010063190647220718,0.001159531315636982,0.0018398334190656367,0.0031125139441671866,0.0062600579174063855,2022-06-01
557,AFT,-3.7822826230597114e-05,0.001835443856297341,0.0008042217163935295,0.001986062330203256,0.003098498024220944,0.0049103006491276425,2022-06-01
558,HPF,1.0236194252330975e-05,0.00016878531785022123,0.0008064286894528357,0.0015870279357183498,-0.0027006484667766876,-0.002340499581022701,2022-06-01
559,PDT,3.9133641524965627e-07,0.00010896424128671429,0.00031671694271032244,0.001024551762670651,-0.007418458535859412,-0.009040620005889663,2022-06-01
560,HTD,1.0877735737904452e-06,0.0001655339968735518,0.0005638765218719774,0.0008805981943556416,-0.0055946775940144385,-0.0072789546055195865,2022-06-01
561,FOF,6.908313875757894e-07,0.0002652575232216666,0.00033463980250896094,0.000820858251602381,-0.0015599745033382149,0.0005415762582275873,2022-06-01
562,PGP,1.0486909417160093e-06,0.00025331283781025184,0.0004841446065705353,0.000791241145164291,-0.006257090524193498,-0.008046701572146877,2022-06-01
563,NCV,3.5245320040886336e-07,0.0001328258184100584,0.00043017385486923465,0.0006818563013224,-0.004889389155762627,-0.004646431148766863,2022-06-01
564,PFL,5.555662212316178e-06,0.00025442267185519433,0.0005398359700748858,0.0013060691368614859,-8.709332319981869e-05,-0.0008484152239578488,2022-06-01
565,ACP,7.585280183695839e-06,0.0011794593071673821,0.0005028839049163325,0.00121666799554779,-0.0025339257379627476,-0.002659236776098506,2022-06-01
566,DHF,1.4576299752779134e-05,0.00014142400085814468,0.00047412336616212234,0.0012664165889973611,-0.002030759826708717,-0.0038641507268063003,2022-06-01
567,HIO,-5.775522657612238e-05,7.069740812559134e-05,0.0007639515875881125,0.001968121978956397,0.0014849057423952775,0.001435744813554207,2022-06-01
568,FSD,-2.557422301521056e-06,4.92447803241495e-06,0.0008683938672401658,0.0014715054319263605,-0.0007838668978499454,-0.0016618478348050208,2022-06-01
569,HYB,-1.6017198638853885e-06,4.461885769210997e-06,0.0008373725987325149,0.0013332761569471582,0.0002505858948951954,-2.564533938838935e-05,2022-06-01
570,HYT,-1.701242099318355e-07,3.5921559324413756e-06,0.000354769629661476,0.001069661538926494,-0.0038660979194099256,-0.007045663955606516,2022-06-01
571,VLT,-4.766957675086819e-06,5.450043022197031e-06,0.000538258856516248,0.0016228976458649367,-0.0013971749612521195,-0.004723899325616185,2022-06-01
572,IVH,-0.00013053376078897544,2.663476379731127e-05,0.0008891514267908732,0.002394501064328006,0.0009097573040980974,0.0012657020015405438,2022-06-01
573,PHT,7.274957914595781e-06,2.4808220756258204e-05,0.0004734181891178987,0.0012196384671210685,-0.0030140139971816093,-0.004914461210870621,2022-06-01
574,GHY,8.180613099707255e-06,8.907933933246643e-05,0.00059176567972545,0.0014019866238415928,-0.0008423502975550724,-0.002443482862781175,2022-06-01
575,AWF,-2.92627084974076e-05,0.00020616451672325926,0.0006548605259473921,0.0017879715597766287,0.0002857576632797304,-0.0008262994495222165,2022-06-01
576,BIT,-2.4055923080605804e-05,0.00019418207099706843,0.0006304789381973665,0.0016840532303011707,-0.0013166541259639955,-0.0044927395622998455,2022-06-01
577,AIF,-0.00012737264654208132,0.0002837952715735874,0.0015017137859256468,0.0024595190017233184,0.0022465665436802095,0.004327284363767645,2022-06-01
578,ARDC,-9.162105901937366e-06,9.348407380991212e-05,0.0009344591651769971,0.001431787107808612,-0.0009839812847967809,-0.001975411496709162,2022-06-01
579,BGH,-2.5688864798166565e-05,0.00011668155867532934,0.0006635959628435799,0.0017870760721238159,-0.00205703005369203,-0.0034948234500797063,2022-06-01
580,EHI,-9.296092351089363e-05,0.00043956416367922684,0.0009107302256688988,0.002157664153332478,0.004935785805422546,0.007566876613741248,2022-06-01
581,DSL,6.631936634280397e-05,0.0005189769573611148,0.0006456796029043791,0.0014657490683890112,-0.0015172862617802234,-0.0017795609695096717,2022-06-01
582,PFO,-1.93359522214151e-05,0.000654620761946875,0.0004975991522865972,0.0012288438769463641,-0.00207479861676339,-0.0028832514403812322,2022-06-01
583,PSF,-2.5493198489765543e-05,0.00045379425950547563,0.0004883847452616649,0.0014441450793449395,-0.0036671949817210737,-0.0054059812317742845,2022-06-01
584,LDP,-6.234122026739275e-05,0.0003626811368761873,0.0006662119539804461,0.0019699769996422895,0.0008527900916622726,0.0029418944041706575,2022-06-01
585,FPF,-1.0399132084148625e-05,0.00023710805360245405,0.0003981253984327145,0.0012879010362930566,-0.0020167308532163656,-0.0027648063598284104,2022-06-01
586,BHP,7.22409770750009e-08,0.00021831008691113596,0.00018761678597689356,0.00030232661545907553,-0.0017373031824133459,-0.0024236875036517803,2022-06-01
587,SID,-8.398230560215055e-09,7.74443367934342e-05,4.3744990314006845e-05,0.00010724875135413368,-0.0039157361872906565,-0.004109934306471156,2022-06-01
588,MFD,5.361098558360161e-07,0.0007054589733862543,0.0007798856083256372,0.0009955843684534434,0.00052090098301651,0.003540339366496166,2022-06-01
589,MGU,5.754036367121515e-07,0.000722937558494759,0.0006673246005822689,0.001020251155287527,-0.002445473215252469,0.0003892322197239395,2022-06-01
590,MPLX,1.0173082430204824e-07,3.0998435245918635e-05,0.0001933724202536819,0.0005357550991450478,0.0027606754299572068,0.0008214574597934822,2022-06-01
591,WES,2.4779483532926433e-09,1.730076497626025e-05,0.00017819306304512722,0.00029901422383447126,0.0012465044166545518,0.0037078571971800108,2022-06-01
592,MMP,1.9733732292543534e-07,6.41225883588552e-05,0.000413384965864027,0.000651054092562475,0.0003270031367851908,-0.0013927889918639276,2022-06-01
593,CEQP,-4.8122158509955646e-08,4.925662265241664e-05,0.00010743735618977682,0.00029370717913960515,-0.003068012373536211,-0.004180944607064023,2022-06-01
594,ET,2.4957929128810403e-08,3.660480434354637e-05,0.00014978899796401463,0.00035863810631402084,0.004455291785457654,0.005080758229942695,2022-06-01
595,SUN,2.2013155775684846e-07,6.567169041364637e-05,0.0003837070081110728,0.0006434229361628369,-0.003420843735334939,-0.0044784880786550565,2022-06-01
596,GEL,-2.01778137530051e-09,1.6256816361787542e-05,5.837357440242133e-05,0.0001595789256368767,-0.003813871491927066,-0.002870787708039825,2022-06-01
597,HEP,-3.632849151609595e-08,3.131533412301107e-05,0.00011094948902597207,0.00030739520359326044,-0.0004163239791914985,0.0004494434678504303,2022-06-01
598,SMM,-7.400279761075675e-09,6.17912367520404e-05,0.0001485163633259007,0.0003469733597861229,-0.0007896674871389479,0.0014605285620022215,2022-06-01
599,TPZ,3.598270539083097e-07,0.0001502888258814564,0.000784130936660578,0.000843909615592516,-0.001364327618193229,0.000987829205725813,2022-06-01
600,FTI,7.862119570691325e-09,1.3512288688634679e-05,4.454175261923577e-05,0.000132445800994739,-0.0029356479497612783,-0.003049822847128682,2022-06-01
601,MPC,-3.3973607672872704e-08,2.4373220350677834e-05,0.00019701757392010275,0.0004112986421650178,-0.0036323046709353587,-0.0018775742713183679,2022-06-01
602,APA,3.5081326838039537e-09,4.0687147179141514e-06,4.619696243184075e-05,0.00011734064098114881,-0.001607312755155269,-0.003230571283936907,2022-06-01
603,CNQ,-1.896212607932873e-08,1.0036469159492922e-05,0.0001035834388932388,0.00028944907815168185,-0.003336974312861678,-0.0034892092369701792,2022-06-01
604,FIF,2.4838501436985575e-07,4.9557247329734154e-05,0.0005114589732441208,0.0008787418546574693,-0.004177238526452237,-0.007486320524620422,2022-06-01
605,TRP,1.9678518838302983e-07,4.5738383548078505e-05,0.0007888959596029405,0.00081102632114835,0.0011571966690764053,0.0029401272571808698,2022-06-01
606,ENB,3.3518660486851703e-07,3.0029213116361787e-05,0.0006793158217121496,0.0009956760087490152,0.00021511619416068477,0.001515811659828903,2022-06-01
607,PBA,8.13165229217076e-08,2.1957521636330437e-05,0.0003116273630776492,0.0007280436360475105,-0.0017300280352646271,-0.001010652802205604,2022-06-01
608,CEM,-3.4815304254870495e-09,5.3480810619432715e-06,0.0001798615308818379,0.00030752741610488057,-0.007449529197190014,-0.00912697770203947,2022-06-01
609,KMI,3.018054409967021e-08,1.048018648974517e-05,0.00021566169940662888,0.0006026357181500024,0.000246128332777679,0.0012222636881387074,2022-06-01
610,AM,6.527901077854909e-10,8.660842510459801e-06,0.0001564488959125783,0.00028575274757486487,0.0014462842316737235,0.0008455944097186379,2022-06-01
611,PARR,-4.3551900582041164e-09,4.2485794701621855e-05,9.588435316722934e-05,0.00012287870214141707,-0.001184072080620652,-0.003700917612899889,2022-06-01
612,ETRN,-3.103444029791605e-08,4.3025014409573566e-05,0.00030028513622416765,0.00018244399976091738,-0.0015614102296591938,-0.0031114597263943514,2022-06-01
613,KEX,-1.4395087218477076e-07,8.824775792119226e-05,0.00028965383769269186,0.00037420728722621893,-0.0001377964185059881,-0.0014648212125672633,2022-06-01
614,E,-1.9228071011485262e-08,0.00016945997730991047,0.0002995845628128506,0.000513408771583883,-0.0008987312217767465,-0.002862296834110209,2022-06-01
615,CPE,4.400633753213759e-12,5.214978796165224e-06,6.0845399485177425e-05,7.656945331916858e-05,0.001097541219985898,-0.00010660676318606693,2022-06-01
616,CIVI,-3.7914634077215254e-10,1.0164643460037345e-05,8.686496303452768e-05,0.00014924340507225785,0.0007715333646795773,0.0029079295871293448,2022-06-01
617,HP,-3.4644470782780054e-10,1.6623468412768334e-05,4.506268430674462e-05,0.00014480460402691427,-0.0013941087212622377,-0.003356485190962173,2022-06-01
618,TPL,-7.543337232142028e-10,3.6183709948470864e-05,0.00013633663015604933,0.00018495671093136427,-0.0019423837855907678,-0.002114113417624174,2022-06-01
619,RFI,6.715078672345125e-07,0.0002585045579651611,0.0006779321708984958,0.0007144703035224676,-0.004411160591265699,-0.004040720077850684,2022-06-01
620,DPG,1.1201747398889518e-06,0.0003246644093620882,0.0007602788692933774,0.0008973268437732375,-0.005270664988072699,-0.006531611286756,2022-06-01
621,AQN,3.0543705672855564e-06,0.0004603906495271481,0.0011553197663348445,0.001266719973682454,0.001645811230281046,0.00034134644679018777,2022-06-01
622,UTF,1.9103509830451114e-06,0.0002524536254431451,0.0014841460788353985,0.0010654489771333249,-0.0013757503426704302,0.002796988836694723,2022-06-01
623,NEP,3.3464687881870663e-07,0.00012799299760709866,0.001011020821689003,0.0005401784511564606,-0.004779073384731343,-0.007762540829195185,2022-06-01
624,PGZ,1.8796778429831669e-06,0.0005938643319917479,0.0018115713959346185,0.001061021837786243,-0.0016181959384887388,-0.0028540873702952788,2022-06-01
625,FCPT,1.6963425105144034e-07,4.157981186909043e-05,0.000340648877865502,0.0007033822369908505,-0.00023253237433777267,-0.0013442029632774917,2022-06-01
626,WPC,6.242669623594269e-07,5.455298655788565e-05,0.0004316056683201832,0.0009228421196427305,-0.0008245413821130214,-0.0028608316209277193,2022-06-01
627,CUBE,-1.1064659054333167e-08,1.4153163622949838e-05,0.00020598616592154998,0.0004404314491882521,-0.0008482259466884065,-0.003707626824613667,2022-06-01
628,EGP,-1.0783396057558905e-08,1.4072865992763012e-05,0.00013134924690075682,0.00043793267205462103,-0.0018633286326554996,-0.0034098529592852017,2022-06-01
629,AMH,1.1909910646643776e-07,2.0756930849483508e-05,0.00039513817958481133,0.0006391059232217862,0.003208787125573838,0.0034784273574593955,2022-06-01
630,AVB,1.5434964164139569e-07,2.208109305905513e-05,0.0002044224030589846,0.0006798768790813194,-0.0007813397626533761,-0.002305133328612002,2022-06-01
631,IRM,-3.150762807584819e-08,6.899108767304663e-05,0.0004449717472704723,0.00036849429882562015,0.0003336686737282986,0.002311507886054373,2022-06-01
632,CNP,1.2408114913224296e-06,0.0003153764710258413,0.0008311309136763215,0.0010481773382036797,-0.003682956333804797,-0.005058125299399851,2022-06-01
633,VTR,1.1290118948602284e-07,9.232115552658027e-05,0.0003282649578180052,0.0005365486647270839,0.003460306821958576,0.005659863449371426,2022-06-01
634,OFC,1.9573346489168912e-07,6.756411065227909e-05,0.00034275298887860936,0.000660733915855612,-0.0004294669923090721,-1.8290392553662844e-05,2022-06-01
635,GNL,1.2826711731338265e-07,5.9188981735710416e-05,0.0001740402190279078,0.0005788304959568504,-0.0017431806718438208,-0.0025092097530884203,2022-06-01
636,CHCT,3.636818016627773e-07,0.0001354683759976947,0.0005010797755705263,0.0007552921245269128,-0.0027648645993986203,-0.001942197947693521,2022-06-01
637,MPW,1.2787972906440902e-07,9.280388543790174e-05,0.0003432694143176853,0.0005174199755516214,-0.0008009572155812928,-0.001313663827303947,2022-06-01
638,RYN,-1.8898214031061614e-07,0.00015921424181589033,0.00027036518779746237,0.0005211900553483512,-0.004294257018653556,-0.005282412411657424,2022-06-01
639,UMH,-1.3396967591718897e-07,0.00014008966773357422,0.00023742107794019916,0.00045858549365341135,-0.0019151144223008988,-0.0008374242533896586,2022-06-01
640,CI,1.1083658892069947e-07,0.00023188485713905363,0.0002412689904990214,0.0005105742413491875,-0.00040501391623830644,0.003145553650937102,2022-06-01
641,UNH,3.7431856139291826e-07,0.00033669614157885356,0.0002907349530350486,0.0007413523210303206,-0.0026623178605993717,-0.005149144210681691,2022-06-01
642,CW,1.3203764659664325e-07,0.000155949259890574,0.0006281621265420026,0.0005027688122925852,0.0003796241934361846,0.0003429321303373801,2022-06-01
643,GD,4.126058083458354e-07,0.0002450862632507838,0.00048209820233576997,0.0007901398799217532,0.0024952629121713604,0.006795499406917912,2022-06-01
644,NFG,3.7439164317416875e-07,0.00034695946373436843,0.0005606666768392757,0.0007131329495673568,0.001353091480699469,0.0009641106386644124,2022-06-01
645,BCSF,1.2388245640993399e-06,0.00023033073832933343,0.0006115741638984533,0.0011132891417446195,0.00039709950181982277,-0.00036169829412201394,2022-06-01
646,NMFC,1.9678013828045506e-06,0.0002649754665447869,0.0008155775068651509,0.0012807422572980016,-0.0011441742812440922,-0.004005898307233881,2022-06-01
647,GSBD,6.529239914950221e-07,0.00011017072264248934,0.000639536821032094,0.0009337927780104069,0.005180423791084017,0.007693700787623392,2022-06-01
648,TSLX,1.5542437953705215e-06,0.00013718841332525166,0.0005868607534301792,0.001162791225446863,0.0024140153580339352,0.003791715638893712,2022-06-01
649,HTGC,-2.8216450642062006e-07,0.00011143683883152752,0.00020293875026186183,0.0005451707972964383,0.0004122246195008385,-0.0009571871894466118,2022-06-01
650,BBDC,2.152667437094213e-06,0.0007547837204862567,0.0008658102524724771,0.0011942646038402079,0.0024109911788735435,0.002228811160640779,2022-06-01
651,SAR,6.995364789387e-08,0.0005021072223483921,0.0003616286428095638,0.0007499274407811049,-0.00022115799892994778,-0.0010808958888479236,2022-06-01
