,Company,RCRP,"RCRP, no extended terms",HRP,IVP,LW,OAS,dateThru
0,TNP,0.0007576860184795481,0.000444878414044139,0.0001308091655200703,0.00014287161444800567,0.0015030953621406153,0.00011527552084181295,2021-05-01
1,DSX,0.00013942371673654778,9.972057330204913e-05,3.842977399819816e-05,8.127745716779094e-05,-0.0014143385178847193,-0.0021079682571367537,2021-05-01
2,GNK,0.00030809045930048356,0.00013751313876802747,0.00011371309928021423,0.00011208036492502978,0.0027045613178612515,0.003693520774859069,2021-05-01
3,SB,0.00015254297621781368,0.0001627399299363794,7.274194140276451e-05,8.409273539440036e-05,-0.0017376980768036283,-0.001060113072489865,2021-05-01
4,NAT,-0.00011331231558055845,0.00017668050217009055,5.645999101893094e-05,9.776870554745096e-05,0.0015471564678753644,0.002368286641252358,2021-05-01
5,DHT,0.0011832418686527802,0.00011468400875854947,0.00012051059148616451,0.00020065335421826604,-0.0011738438873654092,-0.0035461808326165607,2021-05-01
6,EURN,0.0024792958999445116,0.00013429752270553675,0.00015227703236298833,0.00023496953660560668,0.00023474316689888052,0.0013942863839262842,2021-05-01
7,STNG,-0.00024762405855616887,5.49753389329783e-05,3.250183362300857e-05,9.536157562752936e-05,-0.002619591773342185,-0.003830371000011463,2021-05-01
8,TNK,-0.0005371152054102203,6.555037462909628e-05,3.87538742183676e-05,0.00011370529275365027,0.0011957646193781215,0.0015411678833092324,2021-05-01
9,DAC,2.407925425324896e-05,0.00012450630425720038,6.340065949146951e-05,6.249343700778487e-05,-0.0020293176660305793,-0.0021651976133018488,2021-05-01
10,GSL,4.973700175016983e-05,0.00016911371634478392,6.431406268983463e-05,8.488323095441943e-05,-7.842322114408524e-05,0.00032708782717573133,2021-05-01
11,NM,-1.3065435971312482e-05,5.415249316709963e-05,7.058649232945798e-05,2.6375713562386148e-05,-0.0012960733070521838,-0.0011359504461561133,2021-05-01
12,NMM,-0.0002508751914437763,0.00013771102801680046,6.480846162699465e-05,6.707404252182471e-05,-0.002130315034617638,-0.002521704660116772,2021-05-01
13,AR,3.5770772704347485e-06,4.501944319057389e-05,5.9189228196829846e-05,5.9372691238262986e-05,-0.0009423363967705138,-0.0011922352907696525,2021-05-01
14,SWN,3.5261864273566045e-05,6.632956665223027e-05,8.652834247811924e-05,8.747697887199151e-05,0.003627713759847231,0.003322401051995523,2021-05-01
15,CRK,0.00010123744771330407,0.00015677008815608967,7.555183009519548e-05,0.00011711300563044403,-0.0010977133529891812,-0.0005223975002907801,2021-05-01
16,CTRA,0.004637630432725599,0.00041555649595710815,0.00020159135999724712,0.00031248707077855166,0.0007618350473325914,0.0012726978857247819,2021-05-01
17,CNX,-0.0002443262793318666,8.79125539337298e-05,0.0001299813329934844,0.00011777272977414309,-0.0003204175722563298,-0.00042604093886376015,2021-05-01
18,EQT,-0.0003555258404453465,9.53341486200685e-05,0.00013611161370605466,0.0001277151262394563,0.0004973292037474237,0.00044128586393631347,2021-05-01
19,AM,0.0010913042491420572,0.0005658938417583432,0.00011309832574040838,0.00014584286263040898,0.0008247221270879945,0.0005449752377270176,2021-05-01
20,SD,0.00011951175799692897,0.00010150778952711966,5.6453828103803496e-05,4.83334665602457e-05,-0.0020864497218189304,-0.002954925574271968,2021-05-01
21,ARCH,0.0004507188126103549,0.00014938778020818998,7.854950831177505e-05,0.00011178942124377244,-0.0005661215595627842,-0.001416432971112798,2021-05-01
22,CEIX,0.00010865561978714482,8.736327414164997e-05,8.065597763818974e-05,6.537542656196891e-05,0.0018970777761588902,0.0027856323425923214,2021-05-01
23,PBT,0.001570470652002631,0.0003111281404772932,0.0001217440053274574,0.00020602282039983204,-0.0009144804410212778,-0.0016499838663092015,2021-05-01
24,SLCA,4.4168757373590236e-05,6.208449530438537e-05,4.030825874147786e-05,4.111110877366333e-05,-3.44943442889467e-05,-0.000740222155291986,2021-05-01
25,YPF,0.00042216793251708486,0.0001374223823539648,6.89067634261674e-05,0.00010460617816852135,-0.004899756992166082,-0.00626630512059838,2021-05-01
26,ESTE,0.00010644645828908167,4.95938385593578e-05,4.329573680455112e-05,5.583083705201532e-05,-0.0045457448714932135,-0.005182278015319487,2021-05-01
27,RIG,4.1469372141135885e-05,3.111877018178572e-05,2.8352901632737274e-05,3.503231525825431e-05,0.00016221033269884016,0.0006177823422514725,2021-05-01
28,OBE,9.854468749080187e-05,0.0002336431231719742,7.545195755844412e-05,5.239757961401321e-05,0.00037560348966303014,3.353396214769303e-05,2021-05-01
29,AC,-0.0003288311868011197,9.62654763336135e-05,0.0003396018062926815,0.0001889749060212574,-0.0015870497801766894,-0.0022504429017531644,2021-05-01
30,PAR,-8.822675610704705e-05,4.142919997553421e-05,4.802025794548564e-05,8.132800532540176e-05,-0.00184979002308174,-0.0029807538352522004,2021-05-01
31,TPB,-0.0004100217813966654,0.00013891417131364035,0.00035908622545351425,0.00020821466207484582,0.0017780897465622246,0.0016890180686443311,2021-05-01
32,EGHT,-0.00019182130627084812,8.644310604942288e-05,0.0001512564230752643,0.0001249256517543648,0.0032926963894191765,0.0037903472473915876,2021-05-01
33,OOMA,-0.0005494614113626122,0.0001744936541657381,0.00043425091942740635,0.00025217434298569017,0.0007724354636895371,0.0015354715584267496,2021-05-01
34,LAC,-1.0101268775380499e-05,1.621068886611175e-05,5.15216015622287e-05,4.337888387283032e-05,-0.0019101038507449777,-0.0022191082965228644,2021-05-01
35,UMC,-6.145874864138937e-05,4.2619573650466376e-05,0.00010749087856649675,0.00011404756154181655,0.003945188731369373,0.004025539139616139,2021-05-01
36,VSTO,-4.0218202596795636e-05,2.4401827030385702e-05,0.0002703176328927095,0.00010559011157452928,0.003029770409403181,0.003281136122284557,2021-05-01
37,CARS,-2.049330515507436e-05,1.2392540719835476e-05,6.908806064689372e-05,7.698325564133941e-05,-0.0017807780865652738,-0.002124762888936679,2021-05-01
38,HZO,-2.995134538341344e-05,1.5325693040998057e-05,0.00016375579222511824,9.520418547969179e-05,-0.0005951063574551426,-0.0005867424226926673,2021-05-01
39,ATEN,-0.0001406016048292877,3.713294980333655e-05,0.00015119583644872367,0.00016041841588991144,0.0023896071812446375,0.002145413546993757,2021-05-01
40,CALX,-3.9016203772859386e-05,1.0359318106817824e-05,8.809257341747734e-05,9.016777374575454e-05,0.003258676683613914,0.0031294851643006902,2021-05-01
41,MED,-0.00017735861061489542,2.266548441893483e-05,0.00016325307745131053,0.00019728096481364085,0.0016383925348350495,0.0015747306745579116,2021-05-01
42,DQ,1.0936956972208026e-06,3.3281617626674676e-06,1.997042595065688e-05,3.55894989432123e-05,-0.0029633155264395827,-0.0030967535017078843,2021-05-01
43,JKS,3.3647522668691416e-06,4.3393686284770714e-06,2.6038109337014042e-05,4.6402779140643544e-05,-0.002032192439242567,-0.002898550990907342,2021-05-01
44,ASPN,-3.835583694849835e-05,3.63736913107867e-05,0.00010559156810545141,9.352405991761508e-05,-0.002370937527380872,-0.0027232698120268255,2021-05-01
45,TCS,-2.128919675870821e-05,2.4772525167976146e-05,0.00011188938725849007,6.369513361525034e-05,0.001179779567971882,0.0011830368911552903,2021-05-01
46,DDD,9.339829974476136e-06,2.567693295436975e-06,1.9016669173564422e-05,1.85671852424321e-05,0.001076240199915307,0.0009825810285880785,2021-05-01
47,PRLB,-9.289613538515373e-05,1.6848366631828557e-05,6.956020830075946e-05,0.0001218318187929587,-0.0009211166343417566,-0.00168890273923403,2021-05-01
48,VJET,-4.22211601402613e-06,4.776693828991327e-06,3.3807928182427514e-05,2.4691683232506186e-05,0.00019896084808006647,0.0007836054324047715,2021-05-01
49,ORA,-0.00015116412706723962,4.9732161210180605e-05,0.000514767659639779,0.00018332532779315557,0.0012426841062988957,0.002342894252062146,2021-05-01
50,ZYME,-6.21025156933301e-05,3.889649513674489e-05,6.032464184906889e-05,0.00010215251659095784,-5.1248136723573396e-05,-0.00020180404254005658,2021-05-01
51,ARC,1.0684868477985724e-05,0.00010919721197814816,8.434012767881116e-05,8.144076570620197e-05,0.0017775022738793045,0.002097110579455779,2021-05-01
52,BW,-3.642939173871392e-05,4.1842781653751704e-05,9.470208034014028e-05,5.568847409828468e-05,-0.0010201075388390263,-0.0004933263122932289,2021-05-01
53,YRD,-5.197080328449722e-05,5.235128699588683e-05,9.875486206485213e-05,6.967422276097443e-05,0.001224850927152514,0.0014102247199011418,2021-05-01
54,CMCM,-4.472904405050421e-05,3.983780979667622e-05,6.506765248379566e-05,5.448235077642496e-05,-0.001180446167113678,-0.0006628863605678531,2021-05-01
55,CHN,-0.00451110404875677,0.00030558349341443513,0.00040479894271889844,0.0006853852571119192,0.002374696661809686,0.0018824508758681446,2021-05-01
56,QD,0.00017655843305638836,1.9012158231400523e-05,6.327202883955238e-05,4.264187444185231e-05,0.0013574340077034696,0.0006505671981431968,2021-05-01
57,NOAH,-0.0009936977393917043,0.0001437435814355013,0.0003885333340528134,0.0002723771326145079,-0.002189968100337023,-0.0018737119066963416,2021-05-01
58,LC,-5.9429841799062006e-05,5.2606446013866564e-05,5.9462837389880914e-05,6.15415454005458e-05,0.0012732921063819266,0.0028022806034108507,2021-05-01
59,TDC,-0.00013178607014312184,6.546972894866101e-05,9.192640079558383e-05,5.6844756743160526e-05,-0.002447945513123705,-0.003114492157217049,2021-05-01
60,WIT,-0.0019897282598998075,0.0004230755844773374,0.00036284761927411177,0.00036733967086443166,0.0009317694179064945,0.0006108687406379968,2021-05-01
61,MX,-0.00022664295374066266,7.574947176043536e-05,0.0003339681609208439,0.00011051875896954822,0.001945048250799244,0.0016741621871883008,2021-05-01
62,TLK,-0.002969805642123258,0.00019235818303666737,0.0007789081755707041,0.00040330161435663924,-0.000979046121732619,-0.0017891636994098175,2021-05-01
63,LPL,-0.00023754348170700602,7.159315739412503e-05,0.00016450937644002682,0.00021386762211797396,0.0028658284113221412,0.004297235247222039,2021-05-01
64,KT,-0.005744202117640156,0.00013834452369303044,0.000714841344486952,0.0006418143641266966,0.003539793850051307,0.003987580686119613,2021-05-01
65,SKM,-0.0030927791103340574,0.0001056248271909237,0.0005129584247326797,0.0004900196226773388,9.86098376264553e-05,-0.0014371208178909616,2021-05-01
66,ICL,-0.00429708388362513,0.00027060731011934683,0.00035597269403801513,0.00040691794226715896,0.003855230627091882,0.00488370651705891,2021-05-01
67,WAT,-0.006923887939237996,0.00038219296639936933,0.0003342517187922437,0.0005747116564132092,-0.0022509109946627494,-0.00282866432641686,2021-05-01
68,YUMC,-0.008632422415767756,0.0007728898444361889,0.0007043651408607752,0.0006298022377399582,0.0013762519683186744,0.0005581799592674465,2021-05-01
69,KEP,-0.0037948003973479324,0.0003635998227713146,0.0007875862893760652,0.00039058265546967484,0.001342156454152855,0.0005329175666335932,2021-05-01
70,TKC,-0.003642347229630632,0.0003535774121093487,0.0007529696634210477,0.0003798164792358091,0.0017802635092895906,5.7540078274141707e-05,2021-05-01
71,BVN,-0.002192436099852415,0.0004443199062456114,0.0003048271427466251,0.00022085690398002477,-0.0015081369786292358,-0.0014368585788109344,2021-05-01
72,HLF,-0.001663585790801596,0.0006528889656954963,0.00040770376915065846,0.0003486224900432608,0.004203094025525362,0.006206908770913769,2021-05-01
73,LEJU,-0.0001091097741019552,6.716242519384937e-05,8.701876873995305e-05,6.79913762112099e-05,0.0008199895775370368,0.0005514913638764963,2021-05-01
74,XIN,-0.00012528105524069704,7.291527102088632e-05,8.937337497996113e-05,7.381522643374443e-05,-0.0048150794023028255,-0.005364287419907741,2021-05-01
75,CCJ,-0.0004009868410137138,0.00015392667203999782,9.725993009427135e-05,0.00014755357815678067,0.0007986201214353304,3.090966025235035e-05,2021-05-01
76,ACB,2.1716087143102362e-05,1.7786593391233484e-05,2.186360628426285e-05,2.75790399674592e-05,0.001124333635686953,0.0016700567192763328,2021-05-01
77,CGC,-0.0001836084563449925,5.1299229512245924e-05,6.305795224928122e-05,7.954212872012918e-05,6.379816126987958e-06,0.0003084015809125353,2021-05-01
78,IRS,-0.00013328725480211452,0.00024815473731697846,0.0001600456477945329,0.00011320486730437252,9.027152016828094e-05,-0.00038247243121871375,2021-05-01
79,PAM,-0.000229610377151449,0.00011851944147330569,0.00010678132751486483,0.00022469682001352944,0.0014999458317593627,0.0023958278036872354,2021-05-01
80,TGS,-0.0003104078737873692,0.0001302929120125873,0.00023286846148068356,0.00024701772667503605,-0.0011355574294046567,-0.0023425465320279647,2021-05-01
81,SUPV,-1.644012249012031e-05,3.4414963872509774e-05,5.0227613662726644e-05,0.00010569249633379655,0.0018954973593201308,0.00266999518976021,2021-05-01
82,BMA,-6.844366430308275e-05,4.758746447923232e-05,0.00010339096537731461,0.00014614683117606135,-0.002303762665279213,-0.0015764904108826786,2021-05-01
83,LOMA,-0.00011863795242149366,9.765349943865976e-05,0.00011368141477033459,0.00017257781002378759,-0.0006336453737171387,-0.0005449672529651714,2021-05-01
84,TEO,-0.000349779626354217,0.00030101545574581675,0.0002758269566092685,0.00020359769420215097,0.0035506086783440556,0.002542358694211369,2021-05-01
85,BRFS,-0.0002790925088847906,0.00024499148918264867,0.00013710596933521845,0.0002140239206073285,0.0004412580596006851,0.001491460315298108,2021-05-01
86,ABEV,-0.00029622669248555476,0.0001716199282969609,0.00012669630852483243,0.00023507115920874924,0.0026662318860625205,0.0022702315998281096,2021-05-01
87,VIV,-0.0008842010286563882,0.0002657546051009304,0.00034854388091829554,0.0003640092599155652,-0.001509147803292038,-0.002652249769044721,2021-05-01
88,EBR,-3.753800101494622e-05,0.00010125091759143046,9.508003492909662e-05,0.00014389708141017063,-0.0017449094851986647,-0.0012818461966406852,2021-05-01
89,CIG,-6.540295666711668e-05,7.539311860903227e-05,7.142510397511583e-05,0.00018278852771527206,-0.0003511650404871685,-0.00014651078296841583,2021-05-01
90,ELP,-6.763238854247843e-05,7.613985551667e-05,7.380342246482666e-05,0.00018459897066359446,-0.00030676233549699073,-0.0002594500821816413,2021-05-01
91,BBDO,-0.00010397477531281362,0.0002088115481298341,9.722969124181162e-05,0.00018039906999533202,0.002299886427038878,0.0009241414886331262,2021-05-01
92,BCH,-0.001343408938636915,0.0007828806751324403,0.00040947506058449474,0.0004212082441974593,-0.0005730498949949349,-0.0017050444915389107,2021-05-01
93,ENIC,-0.0010705242783378107,0.0007161866706737194,0.0002583888881330432,0.00038532529880248834,0.003102436461639809,0.0021607199336745914,2021-05-01
94,TSQ,-0.0005799818119899501,0.00028725710826193687,0.0002833462094941175,0.000146629565766697,-0.0035142229529974835,-0.0032770173420872003,2021-05-01
95,PBI,-4.439545615216418e-05,3.785799786473265e-05,5.254104075406734e-05,2.5724424490268578e-05,-0.0026032086242551776,-0.003297112543815081,2021-05-01
96,MITT,4.175512918084089e-05,3.813785712499998e-05,4.88131376635806e-05,4.521393576141084e-05,-0.0016769802030360027,-0.002947436000799353,2021-05-01
97,IVR,-0.00032844848078679797,7.564335330128719e-05,0.00011315527963902226,8.967818264493287e-05,0.00016938541281947845,9.290815336856384e-06,2021-05-01
98,BNED,-5.071972745068383e-05,6.27854457156603e-05,7.651746691512756e-05,5.329120445806596e-05,-0.0009817326414059962,-0.0012309914760906826,2021-05-01
99,MD,-0.0002712734476528934,0.00010204537868434589,0.00017621241424273264,0.00012671203066005838,0.0010459803335631228,0.0014174037148333147,2021-05-01
100,MAC,-5.718945857189394e-05,2.6922619690107023e-05,3.689536007168967e-05,6.938263933298028e-05,-0.0030484511972409213,-0.0035086402941063724,2021-05-01
101,SHAK,-0.00032140806530504335,5.773936979949823e-05,0.0002315605760329192,0.00014880089368064895,0.00018894674003492023,0.0008621286026620676,2021-05-01
102,BBW,-5.430501393202958e-06,2.2935005767103422e-05,4.221437611266731e-05,3.997897310408885e-05,0.0005390637373517379,0.0003784275866367748,2021-05-01
103,BB,6.52770618318594e-06,2.319596484128096e-05,5.857297505826725e-05,3.819678775833253e-05,-0.002105851994916481,-0.0023799520582364632,2021-05-01
104,CHS,6.601951638835968e-06,2.3347802685682128e-05,6.64616752187133e-05,3.844681908731404e-05,0.0019113888934553151,0.0007279886961473201,2021-05-01
105,PSO,-0.0014945503339199842,0.00026491401569921986,0.0010341244799157178,0.0003065381413279032,0.0006730281263932466,0.001151264697488657,2021-05-01
106,BIG,-0.00026532431636129973,0.0001238827946907342,0.00019515491416676833,0.00010932945094864591,-0.004779238130363767,-0.004567491593084203,2021-05-01
107,MBI,-0.00012561839778195755,0.00011391127574109347,0.00029073951092650443,0.00010001193543953265,0.002523926337055762,0.0033840277666719945,2021-05-01
108,HBB,-0.00026757661886203123,0.0001251949906985419,0.00017532393130311995,0.00014283793319741693,0.0022859010825767097,0.0012328821219651106,2021-05-01
109,GOOS,-0.0002866880695279459,0.00010568357428829138,0.0002847087888045663,0.00016437081510455923,-0.001750389670457957,-0.0010177249259757922,2021-05-01
110,GNW,-9.532686610337702e-05,4.109482318915073e-05,0.00015501621647709066,8.397822369347463e-05,-0.0025986425006155143,-0.002018645007619519,2021-05-01
111,HVT,-0.0002924132183995633,8.510637362364543e-05,0.0005893385876992793,0.00017391684711746846,0.0024423837235130353,0.001211266055130743,2021-05-01
112,DDS,-0.00010205769556144763,6.548793195569563e-05,0.00025896574789047573,7.349113614520209e-05,0.00020978901888103792,0.0007634318994579839,2021-05-01
113,HCI,-0.00032537907054881,0.00014479076792295664,0.00015825908779609082,0.0001624854796940783,1.0837330074367796e-05,-0.0013456800421946626,2021-05-01
114,AP,-0.00014690995275815603,0.00012378532232890235,0.0001773376766837829,6.9988443547988e-05,0.002199188849558531,0.001721698834921113,2021-05-01
115,CNDT,-2.62876307123285e-05,2.3957724309376597e-05,4.282019150306252e-05,6.65884080007012e-05,-0.0020675188430784915,-0.0018056110212284033,2021-05-01
116,FPI,-0.00011604278003734766,6.600171384842454e-05,0.00017435902270167245,0.00018344601489400747,7.67337699677032e-05,-4.009006814666317e-05,2021-05-01
117,WOW,-8.251854769030108e-05,6.17289741765856e-05,0.00021393646808191434,0.00013628934500883118,-0.0022408535486741635,-0.0020099863920616636,2021-05-01
118,LXU,-8.430980024745545e-06,1.9769462755289322e-05,7.516359788821563e-05,4.364833801364001e-05,1.97193759804982e-05,0.0003844302751528304,2021-05-01
119,OCN,-2.3420189094861198e-05,3.5117671984226906e-05,4.510046528842662e-05,6.549582597640513e-05,-0.0003034018129393627,3.480066865748795e-05,2021-05-01
120,CYH,-1.4416367255894147e-05,2.232258737426604e-05,6.960589251375459e-05,5.345299770902371e-05,-0.0004959212641605583,-0.00026603153880417734,2021-05-01
121,NC,-6.68090308777199e-05,6.0643820509858945e-05,0.0001487313325780275,0.0001452158723552323,0.0058173232564459176,0.007046984698323285,2021-05-01
122,CXW,-4.1980802112313325e-05,3.726924975391492e-05,0.00026976660741655044,9.523055748488135e-05,-0.0009915080508213665,-6.196641206679457e-05,2021-05-01
123,EVC,-5.574907463084309e-05,3.5897556438386204e-05,0.00012669236655976258,0.00012040738363606953,0.005181772721454362,0.005696017309182302,2021-05-01
124,VRTV,-1.5622661776068153e-05,1.5887096118284565e-05,7.601344172519596e-05,5.32884092113819e-05,0.000895641744961852,0.0012893446402363578,2021-05-01
125,TBI,-7.55613552178759e-05,6.806852626207428e-05,0.0003436868748541692,0.00012962566027510265,0.0017489809101780358,0.0008024147108018194,2021-05-01
126,TUP,-0.0001318363513532206,3.272425997357006e-05,5.874619966121617e-05,4.51134287989242e-05,0.0003939546647009824,-4.077211989244231e-05,2021-05-01
127,HOV,-3.6742811343183056e-05,1.565931558253881e-05,0.0001558260591267795,4.8750046014338694e-05,-0.0001267544729920167,-0.0003807646423659103,2021-05-01
128,TGH,-0.00010083598143389666,2.9870211803394898e-05,0.00018704542335711366,9.299092238087829e-05,0.003915375502779128,0.0033950871785367463,2021-05-01
129,FTK,-6.786416270213121e-05,2.898251134013574e-05,8.529643013276813e-05,6.783959303871456e-05,-0.0020455622449544572,-0.0019013343270546893,2021-05-01
130,CULP,-0.0011959291116863339,9.298086053061742e-05,0.0005612487221937742,0.00019428642780339316,-0.001025233544668128,-0.0014969819632193863,2021-05-01
131,HLI,-0.006820498135738128,0.0003360693749730874,0.0018792961477541671,0.0007022275120387786,0.005103683750906753,0.0075039668394329155,2021-05-01
132,NMR,-0.0017999057618308082,0.00010998698427790834,0.00023005079565422573,0.00032086917607850426,0.000982203023913804,0.0003184776374152125,2021-05-01
133,TARO,-0.0029244264200025782,0.00015514393334415758,0.0007478545250775419,0.0004526072461440972,0.004465000811969147,0.005405402655646722,2021-05-01
134,CATO,-0.00029016620938802044,2.3230411537137426e-05,0.00031245870858654875,0.00014685454975372873,-2.0390315123707252e-05,0.000921591532139016,2021-05-01
135,UFI,-0.00022791390560717874,1.988258034525035e-05,0.00022187850264015447,0.000125690730010368,-0.001275391742313537,-0.002547510982096931,2021-05-01
136,HOG,-0.00027397644005657163,3.138432488940152e-05,0.0003143989350348529,0.00014655582044791686,0.0021208972069654127,0.002419805960879557,2021-05-01
137,HBI,-0.00032233783097568156,1.920867241057947e-05,0.0003299469728663271,0.00015507397557289963,0.004430410736258919,0.004898609033333523,2021-05-01
138,UIS,-0.0004997458605577032,2.5314203109039646e-05,0.0001362644382716734,0.00020436467605208187,0.0020284614443996096,0.00176248883268298,2021-05-01
139,GCI,6.310260160014557e-06,6.490386764122731e-06,4.8596423548327054e-05,3.839931126111102e-05,-0.0016726751983811739,-0.0019245985080700355,2021-05-01
140,NEXA,-2.0531534929721484e-05,1.7494738302553827e-05,0.00016788519985246845,8.16954238935444e-05,0.00192719616343967,0.0016346519729419108,2021-05-01
141,CLW,-0.00021766992827429367,3.929519660011005e-05,0.00015125299606884976,0.00014374960400772105,0.0011820262604087166,0.0019149009649004807,2021-05-01
142,SRT,-0.0002105742024343992,3.839403057190757e-05,9.671599326491152e-05,0.00014045296037421,0.0009358114148430226,-0.0003492549581252155,2021-05-01
143,VNCE,-9.198947179347637e-05,2.6464640643737664e-05,0.00010158269584568361,7.447520080654607e-05,-0.00011942061371331677,-0.0004195602864676412,2021-05-01
144,EGY,-0.00023109546536329598,5.2362691097468665e-05,6.597152060467757e-05,6.817340215151402e-05,0.0016756193356723867,0.0018991429771846831,2021-05-01
145,PHX,3.457632676919126e-05,3.519897721369673e-05,8.153579171026072e-05,5.4568479376710484e-05,0.0048397391516717915,0.005725140902356458,2021-05-01
146,SGU,-0.007753322793058666,0.00034845170281219424,0.0012715333573261938,0.0005401997746482216,0.0007783278586832997,-0.00014986579266607964,2021-05-01
147,NRP,-0.001494877402734359,0.00015623513120466357,0.0001641057105626088,0.00016757087581753728,0.003862560770427215,0.004619544828875858,2021-05-01
148,DHX,-0.0016794072418157978,0.00015408762970149463,0.0002893407012640003,0.00013005301582109138,0.0004788307314324566,6.90393534509828e-05,2021-05-01
149,HESM,-0.00145469478838175,5.910421265701065e-05,0.00017937310183673298,0.00021053300071874649,0.00023572872164494315,-0.0007289199674718022,2021-05-01
150,NGL,-9.949231794598382e-05,1.791504125818801e-05,9.044944593221428e-05,6.381452733283451e-05,-0.0015728309981118606,-0.0009043385832682289,2021-05-01
151,NGS,-0.0010613048848825781,6.459661616119275e-05,0.00013432854301931698,0.00016593323331303344,0.0023408311196290825,0.0024940201135881424,2021-05-01
152,TEVA,-0.0017064079035804204,0.0001139543563794014,0.00014521526770222944,0.0002149985945997843,0.0005655646765387407,0.0003131390816690074,2021-05-01
153,FET,0.0002714565868192472,1.558472803431567e-05,3.300135501353828e-05,4.346775292218905e-05,-0.0030928201960757286,-0.003072963918413814,2021-05-01
154,TTI,0.000261985636013253,1.5275362081157055e-05,4.1228829191727554e-05,4.260489264096843e-05,-0.0016959741836208323,-0.0017277767444586422,2021-05-01
155,SMLP,0.0004286632345069695,2.716544044230123e-05,4.401317465641184e-05,5.278650240508329e-05,0.0007259366648950127,0.0018195600653745298,2021-05-01
156,VOC,9.939667054176039e-05,4.9989704752540125e-05,0.00013023219536397888,9.193773091692593e-05,0.0008526721648798855,0.0002188986308460535,2021-05-01
157,CVEO,7.656425190008111e-05,3.374541198939229e-05,0.00012977666869619617,8.1233268731012e-05,-0.0007863063026064285,4.977513503301838e-05,2021-05-01
158,SUP,2.2883688215071382e-05,1.540865469477822e-05,4.6543613466275525e-05,3.709231311200922e-05,-0.0015639422097880264,-0.0020086787984468714,2021-05-01
159,AJXA,-0.015371174449123025,0.0005320665062285196,0.0020606020692171146,0.000845154300333024,0.007704421519908059,0.008357396615654752,2021-05-01
160,VHI,-0.0011124215623240163,8.322467381689813e-05,0.00023566163760511342,0.00013219717863607647,0.0011041155051493483,0.0014789528674444949,2021-05-01
161,CYD,-0.002209552024583226,0.00030153470202397146,0.0006154763768663479,0.0003347170569950689,-0.0010658271602164147,-0.0014731703245051532,2021-05-01
162,XFLT,-0.003541388648176024,0.000423950532931656,0.0007304755357781439,0.000470604125302612,0.004616507010608497,0.0035269434413125467,2021-05-01
163,DLNG,-0.0006185066495225911,0.00014868731810422682,0.0002516810303490003,0.0001298185399506979,0.0006197892867805852,0.0006546374606322811,2021-05-01
164,ICD,1.2314654852662142e-05,2.0046167241347287e-05,2.8510554880110135e-05,2.5082910573831527e-05,0.001726955662300032,0.0018876832676218206,2021-05-01
165,SJT,-0.00023817381148708616,3.8776699597024405e-05,0.00012704291054075904,0.00012267555429114305,-0.0006135493362371799,-0.0016204119764974534,2021-05-01
166,SBOW,-0.00012528500234063083,2.6080905438092034e-05,0.00010991682406828068,8.251062014773287e-05,-5.765230261540618e-06,-0.0006966518851543479,2021-05-01
167,CRT,-0.0008037133584876234,0.00010646795738145125,0.00035590595025412826,0.00024590105585064776,0.004830682790369136,0.005701675660512337,2021-05-01
168,NOA,-0.0004748487849532966,9.79298206803963e-05,0.00030532587457252693,0.00016498531114849944,0.0025962958710953324,0.003561054544100652,2021-05-01
169,SPH,-0.002044681501753198,0.0002575274271576485,0.0005346077911932112,0.00037233189040292175,0.004291146640822666,0.005751454147339716,2021-05-01
170,CAPL,-0.000616161972192239,5.3777808302001426e-05,0.00026524265186197646,0.000211639051519375,-0.0006724533915651174,-0.0013844483724348828,2021-05-01
171,USDP,-0.00010083641795591302,2.1316890959648626e-05,9.283611610485364e-05,8.38912318387299e-05,0.003322371918930576,0.0032243889965021207,2021-05-01
172,GLP,-0.0011595805867416229,0.00010489021861853569,0.0002295827069382116,0.00029515133109618883,-1.8753500240232258e-05,0.0005162894243687793,2021-05-01
173,DKL,-0.0003908411678950695,7.757819168273386e-05,0.00014164525195930366,0.00015436032684394975,-0.003763782675605098,-0.0032886342583471847,2021-05-01
174,ARL,-0.00021209596802871237,7.031861175056389e-05,0.00019162387201053562,7.962416962280069e-05,0.0018793579371935464,0.0013071500052762208,2021-05-01
175,TCI,-0.00039189055430181874,0.00010044974180237594,0.00025345876845753683,0.00011374267893982958,0.003295532340698597,0.003264479627789761,2021-05-01
176,GNE,-0.0018143706949361289,0.00038061945300981207,0.00062552104120643,0.00030625904170623674,-0.0005109087108905018,-0.001120709257558883,2021-05-01
177,MFA,-0.0001844456708868957,7.585598267073639e-05,0.00011454804659220639,4.8671648003758314e-05,0.0024278014664658445,0.004443020112886222,2021-05-01
178,BPT,-6.0186239829704344e-05,6.00035982728848e-05,5.987310637465213e-05,5.067530505298755e-05,0.001613426387908819,0.0017731440335073485,2021-05-01
179,BTU,-2.49939253473313e-05,3.079480928765722e-05,5.992682944870671e-05,2.6007379550866024e-05,-0.004800466164317163,-0.004969254343345324,2021-05-01
180,CODI,-0.0035087144386343875,0.00039625474968577626,0.0008393306315976609,0.0004372903491167001,0.002768378764510343,0.0021179642003782808,2021-05-01
181,UAN,-4.238587099609994e-05,5.584103811117076e-05,6.019487603881844e-05,6.1623859575277e-05,0.0007710420665691959,0.0006029461402659324,2021-05-01
182,NRT,-0.0010531207555028543,0.00020677539054613972,0.0005684520912499133,0.00018572808230812561,0.002898405935041079,0.002512191182544706,2021-05-01
183,BAP,-0.00136585314153168,0.00018825742772800704,0.0003795728106314081,0.0003065768092998319,0.0014068120721439288,0.0011118424211021766,2021-05-01
184,GLOP,-8.230540208664751e-05,3.964677224492534e-05,7.338761188825775e-05,6.456468188573937e-05,0.004680733507399537,0.003905543916675089,2021-05-01
185,OSG,-0.0003860199766881139,0.00010028489510950335,0.0002566084633084423,0.00012917340831613771,-0.0014176106464969512,-0.0006284207952002045,2021-05-01
186,WTM,-0.003822553399039399,0.00037422695695260165,0.0006044562544012865,0.0004924557728383278,0.005763691315286159,0.006919363768641393,2021-05-01
187,AHT,1.6819390972775794e-05,1.7991629907023968e-06,3.019419668686561e-05,7.230198306409601e-06,7.065996079811635e-06,0.0006224879321177422,2021-05-01
188,IMAX,-0.00041726124766604077,3.0852142655290164e-05,0.00013623176676102176,0.0001239838251054178,0.000549214408916866,2.520902035767373e-05,2021-05-01
189,UTI,-0.000788720781703256,6.027149389606348e-05,0.0001650356524863847,0.0002054089592434001,0.00044874634012340554,0.0010539945397646771,2021-05-01
190,MANU,-0.00117783899219551,0.00010408432939348654,0.0007476614017491027,0.00025940894323877667,0.0045282666056413855,0.005196516619529889,2021-05-01
191,GHM,-0.0007094563222003194,0.00010299902207812116,0.00018340304220853363,0.0001849199941109525,0.002969308420160944,0.002847587061339616,2021-05-01
192,MVO,-0.00022906183368472498,0.00015111237639938533,0.00014900330100885568,0.00010481040877588166,-0.00033013881565753154,-0.00034110444421759777,2021-05-01
193,JT,-0.000774583299111515,0.0003305145770941559,0.00011110819614536302,3.882412977102251e-05,-0.00015731427452806885,4.789365624659583e-05,2021-05-01
194,NTZ,-0.0005951281974055115,0.0002668194086168421,0.00010826556626103178,3.134213152304237e-05,-0.0018267025948598952,-0.002063029114921396,2021-05-01
195,MGF,0.14033741051384588,0.0660780363010878,0.023651592905672224,0.00654396710083128,0.010452369562216925,0.01175235192811008,2021-05-01
196,GEN           ,0.003505364360297503,0.0044187545501452935,0.0013470496126029522,0.00043760659398292843,-0.002144542152950588,-0.0030542921182517037,2021-05-01
197,KEN,0.0026138883572008912,0.0021584613924834125,0.0006497568997227631,0.00019010350062243598,0.0035815865360567813,0.002934155845484251,2021-05-01
198,COE,0.00032758972239026684,0.0008623705172567141,0.00023392030621809386,8.09757579636828e-05,0.001032857729191189,0.0019154741035255702,2021-05-01
199,PEN,0.0011021328463120758,0.002015027455639638,0.0003581985334375662,0.00022150011664541836,-0.00038267630727115343,-0.001375348935144132,2021-05-01
200,CGA,-5.931599481482531e-06,0.00018479083376748225,6.851120308512183e-05,2.1772778312773874e-05,-0.0006451228068456765,-0.0012031442247804726,2021-05-01
201,DPZ,0.003765467428809669,0.005176350322913859,0.001558163708789804,0.000609897827464056,0.003957184615085001,0.003005136262048747,2021-05-01
202,SAM,0.00029306088934349646,0.00084467731456874,0.00023350582291843162,0.00017819969421413201,-0.002979778684472904,-0.003797412033559843,2021-05-01
203,LITB,3.778250842681041e-05,0.00019237148935479306,8.722337327628961e-05,4.05841852116552e-05,-0.00028813280394920855,-0.001013494907738293,2021-05-01
204,FEDU,3.628701105343146e-05,0.00018825124672980524,7.888929010040797e-05,3.3520185400478706e-05,-0.0003968840557138142,-0.0014140420433017278,2021-05-01
205,ATHM,0.0005535583959081516,0.00044798761122800723,0.0003054606783223523,0.00020883618002383528,0.0028677086231441292,0.0035253632597550735,2021-05-01
206,CBD,-6.442051641413339e-06,6.601218529792977e-05,8.972535576309974e-05,3.0772575551489676e-05,0.004043966096229182,0.004723994964840775,2021-05-01
207,BABA,0.0007830890338076261,0.0007219494426897958,0.0003864044769165703,0.0002641755244784966,0.0031203965346279588,0.003266631419858147,2021-05-01
208,SUZ,0.0008878787097261795,0.0009519664257294646,0.0005141063857417262,0.0002572657378342194,0.0037588569509470777,0.0031348998746864166,2021-05-01
209,EDU,0.0003444213864407971,0.0002857199563277983,0.00045373374042001924,0.00019143908142185944,0.0005165846954725358,-3.439083657182785e-05,2021-05-01
210,TAL,0.00014444782689607288,0.00022690098240099629,0.0003131818314802224,0.00015202898741426853,0.0011049159967370774,0.0018622021937876006,2021-05-01
211,ZTO,0.0006901689151267113,0.0006463469050333989,0.0004955990143948064,0.00025185749640232194,0.003303748215702342,0.0032793186105973815,2021-05-01
212,NYT,0.001400751159988868,0.0013364245164016705,0.0003671649726469853,0.00037697030570703306,0.005798787877085793,0.005776005761927592,2021-05-01
213,BOX,0.0004504241282312895,0.00047303711952922944,0.00042635340621935896,0.00019945277688679006,0.0001544210284261077,0.000510609454384121,2021-05-01
214,AYX,0.00017316519661586356,0.00020429154689544928,0.0001307091458390008,0.00012075224523766828,-0.0032089715923670705,-0.0029407045629264855,2021-05-01
215,NEWR,0.0003103298426928877,0.0002877952464523749,0.00023643896995777857,0.00017010944753204798,-0.0002514650783259446,-0.001991754494515272,2021-05-01
216,QUOT,0.00013446484794577067,0.0002287115359070082,0.00019790557202065782,0.00010762780363228289,0.005756954098556995,0.007129392858518421,2021-05-01
217,SSTK,0.00027535769429726616,0.00031751036662310315,0.0003077970643384781,0.00014941504045523906,0.0017008724508263144,0.001142395295480349,2021-05-01
218,CHGG,0.000148167770151567,0.00013483225630787685,8.359623814012432e-05,0.00017944336964505195,0.0037094929680160393,0.003950761626472276,2021-05-01
219,TDOC,5.98648532920934e-05,8.782181396749338e-05,0.00011543956875393246,0.00011687887348472166,9.598257245387589e-05,-0.0008711878950700786,2021-05-01
220,NLS,5.746445552077618e-06,6.0184997460214216e-05,5.495725927620619e-05,5.33068738527365e-05,-0.002130238821777233,-0.0014683689415649387,2021-05-01
221,SNAP,6.0497118286627814e-05,0.000153437205814853,7.286579681600554e-05,9.755099585944325e-05,0.0031780341729135348,0.003981480909637547,2021-05-01
222,LRN,0.00022869604578483637,0.00025132908738022936,0.0004382426798507484,0.00015030150464046002,0.002149993269885685,0.00233409548964673,2021-05-01
223,QGEN,0.00226991104391545,0.0009427915345196391,0.0007164149909311898,0.0005638145098032811,0.0036477516855319097,0.0033618437097983206,2021-05-01
224,AZRE,0.00019164725907141908,0.0001962882305344155,0.0001601466446096717,0.00011428045190051696,0.006094586728874154,0.005848468039520999,2021-05-01
225,SOL,-7.093212672167632e-06,3.2962812411654165e-05,2.607956191769851e-05,1.9191191891942467e-05,0.001207266133841034,0.0021795865690380878,2021-05-01
226,SQNS,0.00011422873137871817,0.00019024675320865645,6.181490760794845e-05,8.275632820349925e-05,0.0013907162938035587,0.002126871420080649,2021-05-01
227,ENZ,0.00010946198933838384,0.0001879345145927255,0.00011569394826207839,6.20427251656975e-05,-0.0030058487869414146,-0.0051190226793442995,2021-05-01
228,RGR,0.0009322655835037732,0.0008979959987268666,0.0008619398957917675,0.0002964549596951127,0.005649539112852544,0.005358676046643452,2021-05-01
229,VIPS,0.00025995857204262027,0.00037484233030563984,0.00029644130323427443,0.00010557228697094714,-0.002879132473307826,-0.0032615132613385807,2021-05-01
230,EBS,6.073610665207803e-05,0.00034342008221884283,0.00019692359254858862,0.00012228153264024204,-0.0005420747126117253,-0.0018230614382256302,2021-05-01
231,HAE,3.511829951961065e-05,0.00024049880196563492,0.00013500765703559805,8.563436917401772e-05,0.004709874627970435,0.005362952656530336,2021-05-01
232,HIVE,5.996521936311911e-06,7.156366870009807e-05,4.085459798010898e-05,1.9009246133148277e-05,3.331954233244219e-05,0.00023413813983492557,2021-05-01
233,NGVC,0.0011337157405168386,0.001470896145507922,0.0002509178236063135,0.0001491967500750959,0.0006651256142408191,0.000810712919742332,2021-05-01
234,WSM,0.0012114183821076902,0.001547688831919702,0.00024543184097242245,0.00015698602824892454,-0.0018303244989703918,-0.0017819325495316948,2021-05-01
235,APRN,0.00011493005713897245,0.00022490638162153697,0.00013728652850338415,3.2888127133355114e-05,0.004066181019500795,0.003283781399162168,2021-05-01
236,RAD,0.0002442539683023841,0.0003993742173479273,9.821764966922452e-05,5.840061068620677e-05,-0.0022069544495547646,-0.0023049510364520596,2021-05-01
237,JILL,6.465269264423308e-05,0.0001295335251519594,4.5696761946421495e-05,2.2224796690659742e-05,-0.0010898368941466916,-0.001136770847405422,2021-05-01
238,AMC,-9.382501790399489e-05,1.0860681399997275e-05,3.03970724660094e-06,2.857831038066433e-06,0.00016235716890507416,0.0002958164005006029,2021-05-01
239,NOK,0.0008542077755802712,0.00031542900162393644,8.764150702026092e-05,8.300057408436819e-05,-0.0036636180904269225,-0.004132725610496737,2021-05-01
240,GME,1.477734246393651e-05,1.9947060398329615e-05,4.4615076750760385e-06,4.194560224397095e-06,0.0025775648123212034,0.003070982013950926,2021-05-01
241,KODK,3.670292617664819e-06,0.00011992219057343372,2.621368412273594e-05,7.588679982492222e-06,-0.0007240941589378625,-0.000996384659184705,2021-05-01
242,ATTO,-5.9782160973060034e-05,0.00015506197594711475,6.596144986999187e-05,2.176133329351575e-05,2.993663641877797e-05,-9.794147230432835e-05,2021-05-01
243,INSI,0.02248861449971153,0.01233613334761565,0.004635427773194007,0.0017312478297211683,0.007133458272019099,0.007391887026702973,2021-05-01
244,VVC,1.3456612428042483e-05,0.00018276335980181495,7.65773117722395e-05,2.5967968511921402e-05,-0.00024549806979004335,-0.0004941359117618807,2021-05-01
245,LEE,0.00016402365393135285,0.00044813149932162094,0.00021880544126975473,6.953610726228225e-05,0.0019367748205954408,0.0018165342322863378,2021-05-01
246,ETX           ,0.01434247420985045,0.007127160240789954,0.002447859550033736,0.00121395140591694,0.006107313087903425,0.006343349453617346,2021-05-01
247,HHS,1.4210713130354677e-05,0.00037304796875406047,0.0002147713783752858,6.35403289449904e-05,0.0009210022546876154,0.0008499321461259903,2021-05-01
248,ENJ,0.0795728257081615,0.028668058750981287,0.016229430923657844,0.0042060225132114736,0.01266530717987301,0.013715095973731488,2021-05-01
249,KTN,0.011416194631757208,0.005578442451691567,0.003134961623293065,0.000818438902482932,0.0144370250794668,0.017556118844298092,2021-05-01
250,TVE,0.09594231691778415,0.03370285973210796,0.014116474831571463,0.004934293262368581,0.014585628815335592,0.017115990588520424,2021-05-01
251,MDLQ,-0.0005657075994589468,0.00018906874697024895,4.9221977746227666e-05,2.978951527394477e-05,-0.0006201556719973632,-0.0005241165264086714,2021-05-01
252,PYT,0.027584429006364354,0.009895594500941622,0.0022085648804725886,0.0015591416786453368,0.01038355019074246,0.011953628274215243,2021-05-01
253,MTR,0.0004658643698508124,0.00029597471268975965,0.0002441604971780367,7.143558652022591e-05,0.001218037361379748,0.0012578804294030256,2021-05-01
254,PVL,0.0001989082559312398,0.0002047929899580458,0.000144158254330938,4.942823398638913e-05,-0.0007852196968573317,-0.000871758384122458,2021-05-01
255,RDY,0.007803954705262838,0.003475041795424342,0.0008466406017768864,0.0005423115347536121,-0.00031990933857510036,-0.0010344580801959886,2021-05-01
256,JBK,0.01262476474595976,0.0060432353190255405,0.003238602092970512,0.0008375283267337435,0.008565527836908627,0.009370811263909318,2021-05-01
257,GJO,0.06866136114993755,0.024367016948801723,0.013253407817313828,0.004156486116766344,0.014704118365323933,0.01676533038880166,2021-05-01
258,CURO,0.00013240401732339963,0.00020336543812639167,9.141711099788735e-05,3.796095305410834e-05,-0.0013158169463234266,-0.0018997761541022235,2021-05-01
259,PHI,0.008473913194648505,0.003125950076831036,0.0018086687738244297,0.0005835015291158751,0.0038673213073907595,0.004170325260169312,2021-05-01
260,SCX,0.002156884266214176,0.0009493029250300399,0.0005329530613794986,0.00016714282326830114,0.0027603480239996956,0.0017943142589979906,2021-05-01
261,SPLP,0.0014858320038530735,0.0006732232441321468,0.0002350680603336118,0.00011853374802414204,0.0030739681756334902,0.0027765136575971607,2021-05-01
262,EGF,0.039361880058403804,0.008539545065335465,0.011241051901698336,0.003558709280481293,0.013906588987408855,0.017647667029065235,2021-05-01
263,BHV,0.009106775059581802,0.003061910211831601,0.0036445092308931416,0.0012759986865199008,0.005280021518200832,0.0052392238850556975,2021-05-01
264,NXC,0.013841206254906797,0.004369928685517545,0.0037380724216753234,0.0014643543350375552,0.004917112715773938,0.004181744875441388,2021-05-01
265,BKT,0.10631214752426145,0.02097296967787502,0.02054056439940578,0.006911741267925356,0.011794961977437816,0.013766250145872662,2021-05-01
266,TSI,0.022559454616381678,0.006312781475907103,0.0035378751338724437,0.0020804069672808816,0.008182983426433177,0.0077511790142635794,2021-05-01
267,GUT,0.001994150562122632,0.0014050768296124056,0.00107158783876057,0.0004605978053857967,0.004531071225507463,0.004852987696049125,2021-05-01
268,IHTA,0.004989443872312942,0.0028375075683557626,0.0028968055690600522,0.0009301624873500892,0.006229309834196985,0.006980613634596361,2021-05-01
269,MCI,0.002779003917073079,0.001127476607733686,0.0006358975662605291,0.000707707459960409,0.006224013352734827,0.007793731853757532,2021-05-01
270,MPV,0.0016141101857285903,0.0008521844937737763,0.00048063262854292825,0.0005349089456663387,0.000513935608843679,-5.490897703764403e-05,2021-05-01
271,MHNC,0.0076918199602777695,0.0030311370096054373,0.001632311062304841,0.001289414474759725,0.0021703163737667825,0.0011256086540471935,2021-05-01
272,BEDU,0.0016967886483216575,0.0009558237997751698,0.0007593557569292974,0.0003664987895490053,-0.0010852577071583534,-0.0006324643644305962,2021-05-01
273,NMS,0.01511963851802455,0.005419364970123635,0.0032618652914711155,0.0020779883302150335,0.006901199449271915,0.007093931812455567,2021-05-01
274,NUS,0.00046552671558028726,0.000657101509583275,0.000372818255623314,0.00018526651557661963,0.0005035761885255018,-0.0004791063250910362,2021-05-01
275,USNA,0.0011335738435947964,0.0010014389779608253,0.000330200925007651,0.000282350759058636,-0.0025759472713016806,-0.003997585521329022,2021-05-01
276,CHT,0.06799822466446308,0.019880441019158656,0.00877799044542487,0.003729252113726734,0.011015434631612456,0.013425649151214645,2021-05-01
277,AJRD,0.0029206749761645965,0.0013600798319013195,0.0009614376440526657,0.0003007595091332137,0.0016748517133660515,0.0027053063012555975,2021-05-01
278,GJP,0.018860260788252415,0.006451979009277805,0.005379229350315651,0.0014267501026432282,0.010581422571956493,0.010154484409498676,2021-05-01
279,KTH,0.033865709815896046,0.009801132654753526,0.007256409966158,0.0022701614975791664,0.01033500568295848,0.010166453112550477,2021-05-01
280,WIA,0.030552598196195765,0.0089911522564603,0.004435653170602885,0.0020825519244032204,0.006252934046889649,0.005426057786854086,2021-05-01
281,GJT,0.02572156463681787,0.008030168380767571,0.003806437071179596,0.0019140776236246289,0.013559919865192824,0.01499927879659167,2021-05-01
282,WWE,0.002697864392700481,0.0012925031573575703,0.0009731526040778298,0.0003080821291229054,0.0031489086658039404,0.002482473521264148,2021-05-01
283,LND,0.000807617056920544,0.0005302786727306745,0.0002884825078251538,0.00012946000435100602,0.004467468461823775,0.004711892257588972,2021-05-01
284,DGX,0.006203453115791587,0.002644187585615771,0.0016055469404503413,0.0006455408334186474,0.0016763469912314591,0.0017305801145829352,2021-05-01
285,GJS,0.027512033328549877,0.01050262460213845,0.0063871781939974104,0.0018848891225909366,0.011525095370595009,0.013089065143650762,2021-05-01
286,OMI,0.0008633886643713012,0.0006953861967800274,0.00012932901245380794,5.199920125737607e-05,-0.001235993001085224,-0.0014011637962758198,2021-05-01
287,CPAC,0.0027719774269073624,0.0017321515274842628,0.00045831850206166144,0.00018621609213744048,0.004735589509889598,0.004614417334207432,2021-05-01
288,EDN,0.0023277190307544513,0.0014967989069288288,0.0002970333635946184,0.0001609143534738541,0.0007666858758268501,0.0005592715646184379,2021-05-01
289,PYS,0.005711741859190402,0.0035548616292149626,0.0008202146744553364,0.0003285185032220431,0.0008518706940958436,-0.0022712886171257353,2021-05-01
290,FMY,0.0848491854588379,0.04152496262414039,0.007758533032096825,0.0033271500315000505,0.015082810447822453,0.017727141998724646,2021-05-01
291,GJR,0.027704987729179415,0.015016324567598617,0.0050574342894725705,0.0013203354511585785,0.012754605476456524,0.014123210302423398,2021-05-01
292,TVC,0.08482115431489846,0.03974591180652377,0.01148786405210325,0.003494725767316564,0.012857213504238357,0.013927159798253994,2021-05-01
293,SAB,0.00891819304395791,0.005561751962916649,0.0014374916235510146,0.0004998097128273764,0.008323172698805751,0.01003818767117138,2021-05-01
294,NXN,0.023953501021019542,0.010986750125609335,0.003799385656302152,0.0012160732309829314,0.011176533455673807,0.01387797784321589,2021-05-01
295,NOM,0.008358369985041351,0.005042640135507318,0.0017438218200741568,0.0005581468234156726,0.005182585637827111,0.005245503574669304,2021-05-01
296,RNGR,0.0013904489091982309,0.0012355655693879995,0.00021443618461700187,0.00010345734310588918,0.0024674765541299317,0.0018529658133512256,2021-05-01
297,RENN,0.00019092354781184164,0.00021819902811504082,5.780016000090037e-05,1.827041176637096e-05,0.00031443401409049065,0.00019588447252322097,2021-05-01
298,FENG,0.0004546320259322185,0.00045317702373845237,8.031433980801494e-05,3.521939178149921e-05,0.0015013074730396002,0.0013555710835635477,2021-05-01
299,RRTS,0.0004248216856825928,0.00028121530888649795,6.234611099034056e-05,2.0829399423209165e-05,-8.921351869717177e-06,-0.0002900714260023186,2021-05-01
300,EQS,0.0014205506138699059,0.0010560732986406667,0.00021333538310551998,8.419537064248955e-05,0.004612941921952668,0.004949632488463999,2021-05-01
301,AXR,0.0016770586213982934,0.001071574259517902,0.00033922827772160956,0.00011333379388179436,0.006337892098727338,0.006053000713230331,2021-05-01
302,KFS,0.002994947437858696,0.0016971878822816776,0.0004015197183744117,0.0001795010844285564,0.0013341439096218619,0.0008852042302912438,2021-05-01
303,CCM,0.00010426529055892996,0.00011959113144666345,3.019046269616006e-05,1.0549342732820972e-05,-0.0002736928106434273,-0.0001539870760176805,2021-05-01
304,ELC,0.00263039104825697,0.0016660229070337717,0.0004369004872519976,0.0001409501319824069,0.0009937597329742229,-0.0005589712187661361,2021-05-01
305,AG,4.5297066599107844e-05,0.0006269957421786535,4.1396905370506506e-05,7.56633701471514e-05,0.0019694026064616768,0.002890601707899621,2021-05-01
306,MUX,4.939150986556076e-05,0.000639095546573533,4.219578552844184e-05,7.712352675915122e-05,-0.00193516528835304,-0.0023311834529629876,2021-05-01
307,AEM,-0.00010785818542902849,0.0007688951749922874,0.0001651665932531734,0.00029552586790195087,0.0008818294566893971,0.0005437752087550922,2021-05-01
308,FNV,-0.0013249930094857726,0.0011500837694406144,0.00043024222296010617,0.0004420362036051191,0.007333378461241043,0.007833493380755455,2021-05-01
309,EGO,-1.3759781435236557e-07,0.00035871763660903013,0.00022838922715344724,0.00013711960685284445,-0.0026942109962426563,-0.0018096676568246544,2021-05-01
310,AGI,2.609283214568793e-06,0.00025120036952472205,0.0001626337734399991,0.00017062382245948128,0.0010483342859926026,0.0013593250137598823,2021-05-01
311,OR,3.001768230755444e-05,0.00036705000335883513,0.0003930564462385312,0.0002493128283423419,-0.0009485692276411929,-0.0029664444807318536,2021-05-01
312,AU,0.00013681504506170863,0.0008705589719683187,0.00010283359798475172,0.0001839959745815013,-0.0014583082752818452,-0.002640478435349535,2021-05-01
313,DRD,3.0151133090843657e-05,0.0006200351297631534,0.00018087105750837413,0.000131046800560331,0.0003545736884856127,-0.0004432265227791097,2021-05-01
314,BGS,5.555321642535204e-05,0.00038327012322219954,0.00021870273876765955,0.0001969677525205132,-0.0025505903873099633,-0.0031490248187114357,2021-05-01
315,TR,8.887392322508877e-05,0.0004612128773646705,0.00021028455417359786,0.0002370235987201425,0.0034434979280986056,0.004112039750174455,2021-05-01
316,IRM,0.00028884940556768955,0.0011695661122799884,0.001449577766860471,0.00037567285943331143,-0.0010227077266245252,-0.0012650399319756428,2021-05-01
317,KR,0.00040362666254422903,0.0009778965759581564,0.0003935283395790727,0.0005255267948380324,0.0017008770241074135,-0.0007546939707283008,2021-05-01
318,WMK,0.0003103489500149108,0.0008818926953893814,0.0015416473629850994,0.0004739338013786909,0.0034624201841147143,0.0030993195040016214,2021-05-01
319,CPB,0.000809411717263771,0.001281687532509343,0.0004966904528492259,0.000679919709066242,0.002647776201691833,0.0029191002470650364,2021-05-01
320,CLX,0.000665911136949614,0.0011820498269196427,0.000980350009623771,0.0006270631133061649,0.002448528490411766,0.002038185751304442,2021-05-01
321,THS,4.169138740100867e-06,0.0013538601353738208,0.0005966398554420428,0.00028568781731313304,-0.001105993073397449,-0.001743451134212103,2021-05-01
322,EQC,0.005537436023954644,0.014999991415046496,0.005743461119134596,0.0016299201206698229,0.008231958869582246,0.00916397737302977,2021-05-01
323,DVA,0.00012045478337101174,0.000440332103845027,0.0002925971977957572,0.0005197249950309756,0.0009364248846920481,-9.904499911062665e-05,2021-05-01
324,FMS,0.00019782663360061318,0.0005805502415391965,0.001374266611509899,0.0006852247854845987,-0.0010133195135729365,-0.003411753956222046,2021-05-01
325,CNC,2.165046088273396e-05,0.00014689053282740302,0.0002142210113197505,0.00034693782618714725,-0.0008650702798860948,0.00037426771346936536,2021-05-01
326,MOH,2.313456303995146e-05,0.0001501548869514996,0.00013242108677020617,0.0003546478392282861,0.004445765531116331,0.007149302977258484,2021-05-01
327,HUM,0.00011323482003780716,0.00037868397124267536,0.00020017054053799322,0.0005360932417217526,-0.0020838109819191434,-0.0034077637657061346,2021-05-01
328,LLY,4.630055033867871e-05,0.00047494668327259146,0.0006351283952892556,0.00036827657210262727,-0.00146884289717412,-0.0012638102765798703,2021-05-01
329,AZN,0.00010797812725895614,0.00018902737686579305,0.0005116572510940478,0.0005921234428658036,0.0008577431013597251,0.00019495879001793747,2021-05-01
330,GSK,0.0002971823459974441,0.00028443077019902333,0.0007372933535715729,0.0008909721422352093,-0.0027938767657608235,-0.0023555780256337986,2021-05-01
331,SNY,0.00044848609947764254,0.0005032886641091651,0.0008748976371663373,0.0010051237519249322,0.0027679884442834445,0.004948366488499602,2021-05-01
332,BMY,0.00024351890383555956,0.0002725103898922593,0.0005367474588548044,0.0008720334884561175,0.0056581959590033815,0.007759930617564421,2021-05-01
333,MRK,0.0003839236110689382,0.00031431010214931835,0.0012822822945068345,0.001005792604614574,0.00042842722893308283,0.0008736382171732586,2021-05-01
334,PFE,0.0003199858579956472,0.00043405879080740374,0.0006450821243718518,0.0008259516175233939,0.0015152901685991464,0.0007391798791217442,2021-05-01
335,NEU,0.0002342793937742138,0.0005503389126032097,0.000969429097330664,0.0006058317911177609,0.0023491359718583508,0.0009847064076249075,2021-05-01
336,ORAN,0.00037934053668168025,0.0007362544324027345,0.0010620391360740109,0.0008104939179951005,0.0017015220385302153,0.0017237449300072042,2021-05-01
337,PBH,0.0002038021523457629,0.0006787618679614141,0.0007705986511984128,0.0005380428815266985,0.002306482526996678,0.003497420481236231,2021-05-01
338,BAX,0.0005982206563798248,0.0011678352844248755,0.0009277080381857249,0.0010014168289994097,-0.0003452048076240611,-0.0013830095150042473,2021-05-01
339,BDX,0.0004341908721370566,0.0009947223166201864,0.000666186079887822,0.0008529727448124666,-0.0009626606745375137,-0.0028880811300607215,2021-05-01
340,EPC,5.180896565979448e-05,0.00041662756202469787,0.00042127215643781267,0.0002749551706438658,-0.00034137866292033054,0.0010488968861885593,2021-05-01
341,SAIC,5.9818140778071474e-05,0.0004559119247274289,0.00018378003484994198,0.000300881056579191,-0.0022855058336462555,-0.0031053436397104196,2021-05-01
342,RCI,0.0002521122848956656,0.0006324784248719504,0.001023828008805913,0.0005855467574543039,-0.000620337157307114,-0.0006671840321482794,2021-05-01
343,UL,0.0005338695644774899,0.000998597343275167,0.0008455104354089718,0.0009244986285115381,0.0004909723734213429,0.0007145283480102504,2021-05-01
344,BTI,0.00033227152207643225,0.0010025925079523372,0.0009837310081672534,0.0006756226520523184,-0.0014827599136615717,-0.0011524164249117391,2021-05-01
345,NRG,3.854654381723602e-05,0.0003307936279326799,0.00034994095776923407,0.00021737917450466725,-0.0034804827989545844,-0.004816873878325393,2021-05-01
346,VST,2.9539078962625097e-05,0.0002814853465285832,0.0005908329369812836,0.0001849765143480825,0.0008282645101829651,0.001268734188525285,2021-05-01
347,FE,0.00013331638545102033,0.0007147482873469796,0.0009761608767430673,0.0004550335329996549,-0.00016914055048671141,-4.258596196535719e-05,2021-05-01
348,UTL,6.26983713080571e-05,0.00044278622189884026,0.0006573423395262194,0.00028189305589253856,0.002952533391804316,0.004583494619360249,2021-05-01
349,EFX,9.196657908183285e-05,0.0004547344448287273,0.0007499135405104755,0.0002992222662168346,0.0012520242146634257,0.0013326351025151736,2021-05-01
350,BAH,0.00028092697268960944,0.0006902478852262595,0.0016404955489279448,0.000640802104528536,-0.0008082250565088079,-0.0007508432742560418,2021-05-01
351,WSO,0.0002067627623906223,0.0005767355831724806,0.0020603767878304047,0.0005354212354193216,0.0014454303899279499,0.0012169364084155213,2021-05-01
352,WMT,0.000657172855065454,0.0009188555001894252,0.0009357696591220873,0.0010217763836906234,0.0036508034547820013,0.004648804045942785,2021-05-01
353,DG,0.0002614343959777161,0.0004046627078662993,0.0006604883361641381,0.0007211939145673678,0.0008900358153229055,0.0015641957332917292,2021-05-01
354,TGT,0.0001677797177530713,0.0003400974920389262,0.001015393366105623,0.000606125142866233,0.0057280625271690635,0.005920111911638279,2021-05-01
355,BKI,0.0003320974130810738,0.0004901569584226633,0.0004268825186221238,0.0006623707828014767,0.007724233323847284,0.01059152777943456,2021-05-01
356,RMD,0.00014651208344791165,0.00028776289949858846,0.0007709114059662472,0.0003888667369233652,4.321312774176175e-05,0.0010337451096139132,2021-05-01
357,PGR,0.0003877077192493603,0.0006884423259895281,0.0010420144485514308,0.0006999991230790101,-0.0033336632538824443,-0.005479468029241286,2021-05-01
358,ORCL,0.00025178023119161994,0.00044393539614240264,0.0012132631880601309,0.0005853535687042332,0.00031252369811601133,0.0016888616998162462,2021-05-01
359,DLR,0.00022999011072646352,0.0003002613695253796,0.0011530370919750786,0.0005521063453653926,0.0038958651228596613,0.0052845393362508835,2021-05-01
360,KDP,0.0005802133486054973,0.0005131555515541741,0.0028512898925361833,0.0009435660558678358,0.0019083116056276264,0.0018664373746142457,2021-05-01
361,MUSA,0.000166046996838863,0.00038473963308507367,0.0013815683965467584,0.0004793496052114687,0.0031878233875472536,0.004284486175422541,2021-05-01
362,VMW,0.00014815073621650906,0.00035737224317627795,0.0004231555610425671,0.0004452523965530906,-0.0039037949436404617,-0.0049450194317193445,2021-05-01
363,AON,0.00031058980295304645,0.0005190805399485247,0.00145115754763258,0.000648746105250638,0.0023563515795438634,0.002304471309735299,2021-05-01
364,UPS,0.00015936764778127358,0.0003410540678914138,0.0010490916518096985,0.00042624887892422756,0.0002797667742018818,-0.00010216253444064064,2021-05-01
365,NOMD,0.0006561082968526533,0.001234286970934142,0.0012295606952700455,0.0007875891450577262,0.0014969516325813962,0.0006925637898681474,2021-05-01
366,TRI,0.0007173033383404658,0.0013131936372659365,0.0011352099771695227,0.0008379388897597861,0.004753175311162751,0.005821467152328437,2021-05-01
367,FCN,0.0004824875810172774,0.002083397084934452,0.002310425975340166,0.0005532466436259162,0.0031492753513017945,0.0021825824670338046,2021-05-01
368,KNX,0.0002955806312383106,0.0011694027386541083,0.000889479913534842,0.0005309628343700139,0.0008363022850494581,0.0017924257321473575,2021-05-01
369,SNDR,0.00025833820183587336,0.0011246473606310414,0.0010569989288427175,0.0005106418264033498,2.9342981842700885e-06,-0.0003702582378810839,2021-05-01
370,NGG,1.8582685743816694e-05,0.002519177344147132,0.000833093327206227,0.0009048207354638127,0.0007664055945441843,0.0028372008221419823,2021-05-01
371,AGR,4.913760193341712e-06,0.0006584318451533877,0.00019572743877608963,0.000732751254949231,0.0011145807270437243,0.0009459153701204804,2021-05-01
372,SO,3.1883851479492904e-06,0.00021592564087786456,0.00034968328621146636,0.0008087201096638676,0.0007032250726881172,0.0016619056318590132,2021-05-01
373,ED,4.395558409293237e-06,7.263097051500899e-05,0.00020410647359334267,0.000870765962748931,0.0010535479906310715,0.0001928091695581155,2021-05-01
374,DUK,4.761511475604364e-06,7.39785745561128e-05,0.00023690853022563938,0.0008869222624918018,0.0006274126575943396,0.0008809927171158955,2021-05-01
375,D,2.1295628411806053e-06,0.00011536969333409299,0.00018316978706402908,0.0007814451603191496,0.0021218424057193193,0.003059481978131694,2021-05-01
376,AEE,3.109326790675473e-06,0.00012333194879194875,0.00018659244359679416,0.0007956677810193702,0.0006791947560817429,0.0009333689165540918,2021-05-01
377,ES,1.5984629444439023e-06,0.00010601071453143738,0.00016038665135529258,0.0006839210019927384,0.0006032517992352303,0.0017220110383269688,2021-05-01
378,AEP,6.526906571864969e-06,0.00024919246463842796,0.0006093719313060027,0.0009110216629114916,0.001812104768008602,0.0010635024759753987,2021-05-01
379,ATO,2.1981431882753314e-07,0.000327441186616472,0.00020039772533787627,0.0006531445735963238,0.00044500513028085566,0.0003648223493915552,2021-05-01
380,NI,1.8952950930712485e-07,0.0003134893189818476,0.00025778187050063425,0.0006253148838396632,-8.319806409398381e-05,-0.00025221157395118623,2021-05-01
381,EVRG,1.9386063399627127e-07,0.0003144564196623502,0.0002571094982684332,0.0006236838755633274,0.001606674065564031,0.0009226130863655679,2021-05-01
382,IDA,2.28175350575603e-07,0.00033039071261770433,0.0002675703242523229,0.0006552874968073387,-0.0001422526075823159,-0.0010909861740266116,2021-05-01
383,AWR,8.117124394742083e-06,0.0007016621938244733,0.00030670524554692985,0.0006394404771767993,0.004045774587894177,0.0053473257285024944,2021-05-01
384,HE,6.36760865122347e-06,0.0006326966151708264,0.0002720940829989703,0.0005765906002542673,0.004706604598695738,0.006560959927206443,2021-05-01
385,CPK,2.802775299137377e-06,0.0005170617745728648,0.00021019803157349562,0.0005147810854156411,-0.0006438158626298205,-0.001137466122613765,2021-05-01
386,NWN,1.0380817900309438e-07,0.00016468638009709268,8.472860110146634e-05,0.00028482487346360205,0.00014300535600525482,0.001352523440325296,2021-05-01
387,SWX,1.9253169729842618e-06,0.0002663991937900702,0.00013512184981827083,0.00046073704830556204,-0.0004905988353965457,-0.0001521948337969094,2021-05-01
388,VZ,6.886780084821332e-05,0.0042589282133889215,0.0025225782710258755,0.0014331786719331558,0.0037346205858466825,0.003017648977373363,2021-05-01
389,LSI,2.391092261584253e-07,0.0016253869802925719,0.0003290341415046155,0.0005823054192380295,0.00015011171527549,0.00028230905553816663,2021-05-01
390,CUBE,4.1476559398438284e-07,0.0010538134411881123,0.00037670979182653417,0.0006666790025421835,0.0010957820968660844,0.0012787015614915006,2021-05-01
391,NSA,1.303645769290455e-07,0.0008243942955586485,0.0005215259331856865,0.0005215404787823328,-0.001933963896123045,-0.0020513888255218635,2021-05-01
392,DEA,1.0718731907339693e-06,0.004163346677703822,0.0007921072321362577,0.0008355872655893333,0.004371866212108199,0.0050605160889982915,2021-05-01
393,SJM,2.25197122752133e-06,0.0002902118456407981,0.0008259914244066483,0.0007225576951298035,0.0010025564763243907,0.0026828822343942234,2021-05-01
394,GIS,5.16014722665125e-06,0.00020279041150956934,0.0005771754095321178,0.0008976991022700948,-7.22083916692309e-05,-2.2129446802008394e-05,2021-05-01
395,K,8.218722908005514e-06,0.00022447739817480614,0.000638900198770661,0.0009937016120308082,0.0005920043701226766,-0.00010867439406544354,2021-05-01
396,CAG,3.240744068514596e-06,0.000502930622546029,0.0006424543668119029,0.0007241466052210255,0.0008697284157756334,0.0009242329709808952,2021-05-01
397,HRL,9.554662527667133e-06,0.0010794620468719057,0.0006704744302917331,0.0009178126476264121,0.0015395911362466948,0.0012432518393653052,2021-05-01
398,FLO,2.600450413297829e-05,0.0022978683531543714,0.0011435874031415266,0.001153913912801504,0.0021097238955693366,0.002336792145935724,2021-05-01
399,CL,4.396050891008821e-05,0.0016089952242391303,0.001181397485279681,0.00139303319078427,-0.0006224908049445135,-0.0019833231146214633,2021-05-01
400,PG,2.9701298205896197e-05,0.001463436320967114,0.0010745215171630276,0.0012670114472654458,-0.00013471054218129938,-0.00038925539542338867,2021-05-01
401,JNJ,4.681140741404414e-05,0.0025499628436684548,0.0017360026535374036,0.001257763230238129,-0.0014033301748002868,-0.0020529603877227996,2021-05-01
402,MKC,8.733848712771636e-06,0.0018467613887155915,0.00177705733751965,0.0009277413482625353,0.0010425561586101517,0.001725030320617435,2021-05-01
403,CHD,8.22769860153384e-06,0.0011677873473591165,0.0011350674468075847,0.000966392559024452,-0.0008301151317642035,-0.0020838010122362065,2021-05-01
404,KMB,6.630797530985922e-06,0.0010824891423568065,0.0006708022487098665,0.000895804749695306,0.0010234076209760096,0.00030693247504788503,2021-05-01
405,SOJC,-2.703924503239522e-05,0.0026297944396268987,0.00205914381348449,0.003856309095388657,0.005335707623443998,0.005532715228125166,2021-05-01
406,TEI,-1.2121762565819275e-05,0.0017248838153053154,0.003038562924152083,0.0025293555439999654,0.004526357394960925,0.005255966735432521,2021-05-01
407,JHS,-7.524163816071617e-06,0.0013965830832077235,0.0034798319122893323,0.0019520528059101072,0.0046118972464523535,0.004415231512036507,2021-05-01
408,PAI,-8.207659525670858e-06,0.0014730873108986162,0.0017542456610592648,0.002058985428912373,-0.00041775529963918045,-0.0012988919563421536,2021-05-01
409,NPV,-1.544008729376394e-05,0.0029706032868299023,0.0035273395540544573,0.002775937610474783,0.004825132626861873,0.004784735166795176,2021-05-01
410,GBAB,-6.399271497522408e-06,0.0013739694439359267,0.0027280044575533013,0.0020050692558079898,0.005148215877746956,0.004812152408060542,2021-05-01
411,BBN,-3.649455249880555e-06,0.0007350158888462904,0.005024028509197375,0.0017279605880559234,0.004425266978356735,0.004040927299534773,2021-05-01
412,NBB,-5.365467911296545e-06,0.0008525851835710385,0.002727034198088891,0.002004356120088266,0.006419210497025953,0.007367880286797126,2021-05-01
413,MUI,-5.995631136097673e-05,0.005919937517762024,0.007168089600414858,0.004743444420230035,0.006982182939468824,0.007449903548584356,2021-05-01
414,NAZ,-9.674534035379409e-06,0.0021494641345056486,0.002309989553615985,0.0017222924439175248,0.004363432697943482,0.0042993137172251256,2021-05-01
415,NIQ,-4.869510011577603e-05,0.006840053206555563,0.008073205499699107,0.0040509616702037,0.008318505789884363,0.00969135314872523,2021-05-01
416,ENO,-3.3249823022068906e-05,0.0028599505116270944,0.004105277536218491,0.0047081580311047685,0.00983179990988378,0.012237044044731386,2021-05-01
417,NKG,-9.513140272022122e-06,0.0014822998864595152,0.0029463086702496946,0.0024402177892825106,0.0047050122734173085,0.0038347025932701467,2021-05-01
418,DCF,-7.39455020387261e-07,0.0004311552640180495,0.0013696443381305515,0.0011739798697706877,0.004032084432450193,0.004844282525125992,2021-05-01
419,GDL,-2.2006354978242915e-06,0.000753742099507449,0.0019320958586308131,0.002052341988299129,0.006984747483889172,0.006889283124142728,2021-05-01
420,DBL,-4.431769800855571e-06,0.0004919448497816049,0.0023283240766216596,0.0022028634785808206,0.007327486459086414,0.009148696754089186,2021-05-01
421,DUKH,-1.3704054944541063e-05,0.0003210157713778615,0.002453849950596851,0.0040270761211887735,0.009816867516061848,0.01201022411491047,2021-05-01
422,SOJB,-1.298343322312587e-05,0.00031547921383438983,0.0018082165076995877,0.003957621157710802,0.00630865070145456,0.007129782546002394,2021-05-01
423,DTY,-6.8864766801855436e-06,0.0004292535082251315,0.0017137069026426388,0.0032093841489915483,0.004978119469350112,0.004243214579823631,2021-05-01
424,PFD,-6.878297904743647e-09,0.0001317141912064562,0.00025343969567950196,0.0005814077559136527,-0.004655491023847125,-0.00806038239288761,2021-05-01
425,PCM,-1.0553677376073436e-07,0.00015291611525392312,0.0007376753707711937,0.0010124520254737688,-0.003596023557847114,-0.005440349140414041,2021-05-01
426,PHD,-3.3672086998694727e-07,0.0002611547213272733,0.0014064051509393297,0.001729095891108521,0.003991896097153795,0.00473891141940745,2021-05-01
427,EFL,-2.18100243921552e-07,0.0004191426561190218,0.0006720028289794831,0.0010702787768961323,0.0025419948899265813,0.0028860515938453255,2021-05-01
428,AIC,6.803566508371078e-07,3.666351683091893e-05,0.00024464557744223144,0.00020262252090960688,0.0036527824761755255,0.004426624682681243,2021-05-01
429,GIM,-5.311292875111067e-06,0.0003415452712950491,0.001699131592685726,0.0018875648016449134,0.005073139027191195,0.006174886816568565,2021-05-01
430,TCRZ,-4.170130376787444e-06,0.0005096287494830955,0.002325639375084219,0.0020454507802667296,0.011228183125762757,0.013982973875512308,2021-05-01
431,JEMD,-1.1075175008612186e-06,0.0007636264250438175,0.0015696255823540897,0.001240267017598092,0.004658528265133577,0.005007259459646134,2021-05-01
432,JCO,-1.3213232656943567e-06,0.0005179634556064013,0.000804542224088504,0.0012813703014709005,0.0065920957030053675,0.008247989596226264,2021-05-01
433,GJH,-3.3172498764190597e-06,0.0007853931532525474,0.001767333337379856,0.0019429545668973652,0.010226907928654225,0.012712480679111663,2021-05-01
434,GOF,3.060789477616206e-07,0.0004939926814128433,0.0010684050865683076,0.0008023331953920208,-0.0005762715602606127,-0.0014436382497349193,2021-05-01
435,MHLA,8.241463854418118e-07,0.0025075393658276005,0.0012676443931261615,0.0014538042988390606,0.003078636701445098,0.003952025051018956,2021-05-01
436,IHIT,6.859009790109132e-07,0.00173515981147875,0.002437979793966665,0.001355279222281446,0.006774200538336168,0.00836042680505644,2021-05-01
437,DMO,3.315374158737354e-07,0.0010922960983894047,0.000736890599189232,0.0008531584220272148,0.007465496943541163,0.010133382572780965,2021-05-01
438,BNY,-1.806427757719148e-05,0.0032608373984323678,0.0016369070463284896,0.001581788795915782,0.0032683635384605845,0.0021346635440116966,2021-05-01
439,SBI,-9.352796507611883e-05,0.009767993134988806,0.006786346841022614,0.004738323384948762,0.008096739764325333,0.009499567490417573,2021-05-01
440,NMT,-1.1199860117725569e-05,0.0013000749239418005,0.0025536031274985328,0.0021152315757952036,0.0060499005636792886,0.00647981499722719,2021-05-01
441,MHF,-1.4492379536949423e-05,0.001521051328150036,0.0036766904853025887,0.002474761829843753,0.00895099284977866,0.01088785126969709,2021-05-01
442,MUA,-5.641829000144008e-06,0.0012379324665502877,0.0012340884342080297,0.001450283124677124,0.0007628550867839109,0.0001158854147841215,2021-05-01
443,NXP,-5.612871017895249e-06,0.0015762633708850398,0.0013522488202739901,0.001329418350878216,0.004277871492553081,0.004156778116054233,2021-05-01
444,MMD,-5.931986770316433e-06,0.0008661383938124336,0.0018781528320565713,0.002135765615525123,0.005468811891708209,0.007142616393553625,2021-05-01
445,NEV,-2.6869315301214187e-06,0.0005549504772787102,0.001405698735045393,0.0013684235177176501,0.0017323396664557914,0.0007549304550363115,2021-05-01
446,BKN,-2.3203690668554817e-06,0.0007226559226459675,0.0011976460954490206,0.0012563259350211443,-0.00018402091493114548,-0.000852568069896603,2021-05-01
447,NIM,-4.921721773557366e-05,0.0021575365827026156,0.007416576811394608,0.003579569127078376,0.010673847705151512,0.013063293189040271,2021-05-01
448,NUV,-3.0486573065618894e-05,0.001254476685335062,0.0036388161627252595,0.0029836810638472645,0.0057795023324158125,0.005855933289240026,2021-05-01
449,NID,-4.785582152225656e-05,0.0016148140093187912,0.0037254739463957617,0.0038407170396736984,0.008154861005387551,0.008988876138954318,2021-05-01
450,NUW,-2.3385047952272555e-05,0.001632495500570485,0.0025447600512447212,0.0028289452633601794,0.00556463477738022,0.005972854980691879,2021-05-01
451,NMI,-1.781734595058299e-05,0.0013989367621563972,0.0023083404717754163,0.002424212211096318,0.004099840389820093,0.003109296736440922,2021-05-01
452,PYN,-7.566044957133105e-06,0.00285138131052727,0.004127155040583497,0.0014569307858567496,0.000585178816890341,-0.0013888289772819803,2021-05-01
453,VBF,-1.3435481054958198e-05,0.0033786503084629878,0.0028574170754366223,0.0022910219209822994,0.007562409409592814,0.00824520645197557,2021-05-01
454,GDO,-7.0184840551928085e-06,0.002200780576295745,0.0016271860626263293,0.0014923226978939199,0.005467614549239125,0.005270257394784192,2021-05-01
455,PIM,-5.732668165670471e-06,0.0010155342208424114,0.004844531050677709,0.0016844228053594663,0.005235087339922697,0.005925808029444351,2021-05-01
456,PNF,-6.688008719939626e-06,0.0007935842792063733,0.0019010914447084748,0.0018611742794818343,0.0015624684805918437,0.001053989359859603,2021-05-01
457,HYI,-9.781236332593904e-06,0.0009898892823236606,0.002005137868481919,0.0023215637205388994,0.0061551412954627925,0.007060132242236623,2021-05-01
458,EOT,-4.84501376420632e-06,0.0011360991486884296,0.0018277163919115185,0.0017661731723385156,0.0024718494873033747,0.002105203005009721,2021-05-01
459,PCQ,-5.8708720751371385e-06,0.0012893889867799566,0.001170785288394096,0.0020044766689496355,0.0019943124622653972,0.00241143525214972,2021-05-01
460,CMU,-4.207222811578842e-06,0.000780528764446096,0.0016069020057962722,0.0018273092545615884,0.0030166697411674152,0.004159592606086273,2021-05-01
461,PNI,-3.8047656639473602e-06,0.0007332928662926809,0.0017084003043052682,0.0017167244846274304,0.0016250061280333257,0.00025652572198780707,2021-05-01
462,CIF,-1.03025467224604e-06,0.00037968413154373845,0.0018589593238668048,0.0008988926371305608,0.00016112123964519745,-0.0014066205799596922,2021-05-01
463,PCF,-1.478618378060566e-06,0.0004718525495997452,0.0006524810957769835,0.0011170990499971257,0.004256076420660632,0.006477442523939294,2021-05-01
464,WIW,-5.485616508614839e-05,0.002198985574232345,0.00646164377531997,0.004850524381455856,0.010027908318670382,0.011541212731484724,2021-05-01
465,HFRO,-4.856419242587948e-07,0.0003714993666140155,0.001933759212553653,0.0011957104850676226,0.003250792187301057,0.0025625525091075413,2021-05-01
466,PZC,-1.1575587873780486e-06,0.0005824759706471058,0.0012201420999178154,0.0018747612728134578,-0.00044782326784377084,-0.001285727275145905,2021-05-01
467,FAM,-1.712884353928607e-05,0.0008842273674242744,0.003087120174078925,0.0028966811281829884,0.00566255622870525,0.006511171207005368,2021-05-01
468,BTZ,-1.0324097437780014e-05,0.0003423961822667667,0.0023648861963283157,0.0024309516418903076,0.005510214517490078,0.0070946272768470904,2021-05-01
469,WEA,-1.5248186870157966e-05,0.00041969636656623125,0.0022261618625138363,0.002979769121971904,0.006877943419285055,0.00858736468588706,2021-05-01
470,EHI,-6.214427501378292e-06,0.00039302067461959467,0.0024421904751140942,0.0018940463133840099,0.005505299208999435,0.006670254331802072,2021-05-01
471,JLS,-3.1460178811960085e-06,0.002126488847582891,0.003123492096945699,0.002467345847618377,0.00733081047393106,0.009599335735896015,2021-05-01
472,MUE,6.162998886897401e-07,0.0032378755017281966,0.0017081870011021836,0.00232435883361812,0.0025240421774517176,0.0014452977282605438,2021-05-01
473,MYN,4.0240805701672405e-06,0.006092540177284236,0.0037317129418795096,0.0043736238693196944,0.00531879719008661,0.005226120952833345,2021-05-01
474,AFB,2.8227857548539753e-06,0.008016746713049718,0.0037847458525508905,0.003634586173757739,0.005018904487939481,0.00542996395946014,2021-05-01
475,DTF,1.520058560453267e-05,0.006964262113762164,0.005581051065052346,0.005354600940213272,0.006530408929805872,0.006819423507492778,2021-05-01
476,VTN,3.317712476879927e-06,0.003951207280419798,0.0027012278700885447,0.0030379583469301785,0.0038249926833284365,0.002579018701812894,2021-05-01
477,KSM,-3.4875907251570827e-06,0.003263942572322965,0.002001429902358769,0.002636452966661719,0.0030851524077920543,0.0030916841215139473,2021-05-01
478,BLE,-7.28670296744236e-07,0.00023344719830317587,0.001021328782959275,0.001739774187309518,-0.0011629301023381835,-0.0033160672503250136,2021-05-01
479,MUC,3.224695136630991e-06,9.732949616401636e-05,0.002176897572918728,0.004059618335521319,0.0049469865066505215,0.004751481526274127,2021-05-01
480,MCA,8.096145992852032e-06,0.00012236751657525687,0.0043108759061649,0.005103955466120872,0.005339609526069049,0.005102466795201051,2021-05-01
481,VCV,4.87409112106135e-07,6.839660987013946e-05,0.0020056508366650366,0.0028841049153280817,0.0035564075829643597,0.003496891716089462,2021-05-01
482,NAC,1.6333244162297896e-06,8.934972869748029e-05,0.002844388967749305,0.0037676427561088408,0.0032249739396237177,0.0024529252223518465,2021-05-01
483,BFK,-1.5573511341904565e-07,7.639485003019098e-05,0.0013211329221125096,0.0024484042155424103,-0.0004418828112598404,-0.0022849932157858435,2021-05-01
484,NMZ,-1.4239208500464456e-07,4.433561167443189e-05,0.0018537996984017639,0.0024555203539854773,-0.00013057846971130054,-0.0011009437600667886,2021-05-01
485,PML,-7.868625521517476e-08,3.7893212075714294e-05,0.001849459122616898,0.002098709141831119,0.0012473690286072402,0.00246062899663326,2021-05-01
486,PMX,-1.7267491243160204e-07,7.807624976233232e-05,0.0013502101771956099,0.0025022919604697153,0.0005001853254461477,-0.0016497285867971834,2021-05-01
487,PMM,7.382450734443616e-07,0.0004855157711543459,0.001984792160608251,0.0022160264685959297,0.0012414111750126877,0.0005686149163733956,2021-05-01
488,MHN,2.7976241881512612e-06,0.0002892228938548001,0.002112259631859485,0.0037774522902787777,0.003722072962698205,0.0029840352782373515,2021-05-01
489,NQP,3.5654554228156752e-06,0.0003142145658760745,0.0024009705582078078,0.0041038609208557675,0.005718109327427992,0.006210386992379533,2021-05-01
490,MIY,1.4464732393938081e-06,0.00040745820570645526,0.0018856261195042137,0.0032120544376754855,0.005789760238364713,0.006732546073838355,2021-05-01
491,BTT,1.134136822344505e-05,0.0011709463765091834,0.00476142232903551,0.00545249792863923,0.006770164171269015,0.007750453171747567,2021-05-01
492,MUJ,4.0469274796357554e-07,0.0004332203101378074,0.0019699494553342208,0.0036495988193500236,0.005664698316230038,0.006107978817361004,2021-05-01
493,MYJ,2.5317968988221873e-07,0.00038914897752238093,0.0029242817843116668,0.003278326559678544,0.005861231219358404,0.00637229562434065,2021-05-01
494,MPA,3.0937436296029133e-07,0.0006770376198724127,0.00291810756257351,0.0032272811933452823,0.004137500692716811,0.003443669491963723,2021-05-01
495,BYM,1.9204505274265744e-07,0.00039014485065253207,0.001849142327862907,0.0031606480597918428,0.002868127735911246,0.002383019891835514,2021-05-01
496,CXH,1.284935653127148e-07,0.0003370559172330474,0.0015291399039424303,0.0027305630948664607,0.003372009923709414,0.0037107108895666255,2021-05-01
497,NUO,3.8880534774365555e-06,0.0003119513317176963,0.002613257503560678,0.004841414318437191,0.006531448366598713,0.0075343158205364615,2021-05-01
498,MHD,3.1704615707204955e-07,5.688253937412769e-05,0.0022051271200060705,0.0024724849937772307,0.0022016442794040923,0.0014592947236441172,2021-05-01
499,PMO,5.998095071867739e-07,6.955731005699531e-05,0.0016212509985725685,0.0030234129350711373,0.002772571780165148,0.0021267176194505496,2021-05-01
500,BTA,4.1625991078112747e-07,9.868836746955369e-05,0.0014320691137799779,0.0025610359030170306,-0.00012332282282521295,-0.0009785782656949005,2021-05-01
501,OIA,-6.221951580482184e-08,9.148522461166309e-05,0.0013694018039411978,0.002445321071175295,0.003149678802484757,0.003109924684234302,2021-05-01
502,VPV,-9.809292217970769e-08,0.00010938965939180233,0.0016541014583334713,0.0029238911552648818,0.005077631827844688,0.005831898049953906,2021-05-01
503,MAV,3.819978666219635e-07,2.2921939424551106e-05,0.0016866438185842343,0.003182766911478142,0.00389042896738276,0.004460316565893863,2021-05-01
504,MHI,1.8023882754555395e-07,1.9574941093495917e-05,0.005385225462243228,0.002718028071384832,0.00133549674035769,0.0011614966557259906,2021-05-01
505,BFZ,2.4860649824232505e-06,1.7233466611815632e-05,0.0036365807021782205,0.004343328905473099,0.004530834180037215,0.00414717387590585,2021-05-01
506,NRK,5.698884802982683e-06,1.2201471085909602e-05,0.002597292797798596,0.005336560370943509,0.005188974013542173,0.004439572832298978,2021-05-01
507,KTF,9.661811166082241e-07,8.341673990537769e-06,0.0017756686570545978,0.0036483999783142084,0.00430841177520391,0.004637464184336069,2021-05-01
508,MYI,5.419188938552929e-07,4.772148632053707e-06,0.0020690861636148542,0.003904451494731352,0.00306414830125304,0.0023726442245758077,2021-05-01
509,MYD,8.991238775586103e-08,1.9711974754272164e-06,0.003641764849544895,0.002944195139756311,-3.380084256645187e-05,-0.0016800154674430422,2021-05-01
510,VKQ,4.656330690386467e-08,1.0161345558214858e-06,0.003501449158404693,0.0027151806232583475,0.0013510930068180243,0.0009914381176299289,2021-05-01
511,IIM,3.7915545290651587e-07,1.4172577673532961e-06,0.002633544281189027,0.0037870091180681126,0.0022859293837250586,0.0015044526526137574,2021-05-01
512,MVF,-7.404330992096248e-09,5.983123953772263e-06,0.0013432465941269406,0.002696368021030152,0.0022133107089189674,0.0014672581936802781,2021-05-01
513,NVG,2.520407770087463e-07,1.30815329726559e-05,0.0027979388344108367,0.0033249797324372554,0.0010512357210743998,-0.0001501740037819471,2021-05-01
514,DMB,-4.1493782631798325e-07,1.680779003718994e-05,0.0012486756588629576,0.00220723565434878,0.0018486453416326752,0.002598312904380937,2021-05-01
515,MFM,-7.190570312713455e-07,1.9920748159365866e-05,0.001356264241957258,0.002616036105958306,-0.00016104611610488892,-0.0020877847571448387,2021-05-01
516,DSM,-2.0812323631915963e-07,5.3301811749434045e-05,0.0013697511127756155,0.002749571905417095,-8.470009406810995e-05,-0.0032030594854545215,2021-05-01
517,LEO,-1.1473859466834981e-07,4.471721898027235e-05,0.0011959099379261382,0.0023067360181775894,2.8240264427335247e-05,-0.0015341589639754343,2021-05-01
518,MYC,8.371757311443829e-07,0.0026731090886119068,0.0024037607641454618,0.0031664372508412334,0.00458454753139133,0.004198908529057821,2021-05-01
519,EVN,6.00002905110888e-07,0.0022920105574295115,0.001995276349717021,0.002715006147442664,0.0023691421312440454,0.0015735368094909289,2021-05-01
520,PCK,7.706535539239177e-07,0.0026905656071575597,0.0020218515894428217,0.0031065964034181375,0.0025393973323674626,0.0017413363441550268,2021-05-01
521,PMF,3.92908485033531e-07,0.0019340524285092395,0.002329499864085998,0.002233106787080502,0.0027619808486053113,0.004016333685510733,2021-05-01
522,MQY,4.594927275764409e-07,0.0019158089200745354,0.003083598466716427,0.0021422341074703245,0.0021825365824037638,0.0019658176456016805,2021-05-01
523,MNP,1.7250970383699724e-06,0.003712881558428404,0.003734634698513102,0.004151698756655467,0.005463906875162693,0.005662589959128216,2021-05-01
524,MVT,8.836981215358996e-09,0.0014189584738523047,0.0021696810199005774,0.001627211917355105,-0.0014566338405727882,-0.0033667997712019657,2021-05-01
525,FMN,1.4672974379607854e-08,0.0018340796357521022,0.002804428634105116,0.0021032583374844915,0.00301690436588568,0.003367079018266484,2021-05-01
526,BGT,1.6928616477116123e-07,0.0005580303762496415,0.0010765290001441997,0.002000525136275027,0.002494441666553751,0.0030924434402665045,2021-05-01
527,EDD,9.84487890812177e-08,0.0004565651777353433,0.0007165254851547759,0.001636774902015052,0.002265661451334269,0.002964313018534509,2021-05-01
528,MCR,3.098463389344716e-07,0.0010778591413695417,0.001878220074286338,0.0023822728302197904,0.0015703752354256435,0.00034252713768916836,2021-05-01
529,PPT,2.9613321280700534e-07,0.0015993733702731796,0.0010807814875192143,0.0021691745059932675,0.0050368984393627655,0.00559005942561844,2021-05-01
530,CBH,-4.889910632873964e-08,0.000283678074500331,0.0007244679539210687,0.0011386655930327471,0.00013759298376049697,-0.0005152484122545601,2021-05-01
531,ARGD,-1.5211284638707e-08,0.00013017472058028272,0.00030048193950372597,0.0009125498224616969,0.007159218583643037,0.00894191209804165,2021-05-01
532,GMTA,-4.531103013563285e-08,0.00016773932633502568,0.0008287962144468254,0.0011758849320707332,0.0005472188875315841,0.0003135050904840294,2021-05-01
533,MFV,-1.0315186029348097e-08,0.00028676066373129177,0.0005368041094152285,0.0006808647519626462,-0.00036930135963611407,0.0007379684259183879,2021-05-01
534,DTJ,1.417693007434094e-06,0.0009265918012152216,0.0020929063798132753,0.003476358439159348,0.006767692002938545,0.008593890185503515,2021-05-01
535,PFO,-1.6785131005213845e-07,0.00019498058727601756,0.0003188755992105178,0.0007315221321408931,0.00022636621151059884,0.00035295839820826254,2021-05-01
536,AEB,1.2630255675383732e-08,0.0002159131092389503,0.00046375817753012194,0.0008970189814360409,-0.002012676615999594,-0.003005760760503181,2021-05-01
537,JPT,6.954390072123687e-08,0.0003565407533852938,0.0006848080794458066,0.001481261719445516,0.004214304907148479,0.005339287648514868,2021-05-01
538,MQT,4.914145904331737e-07,0.0023221097373099537,0.0028459214121307713,0.0026826041952237945,0.003367319345185061,0.003123535269016317,2021-05-01
539,CXE,1.8040055546733023e-07,0.0014978503595343797,0.001805075974324889,0.0017303831915192803,0.0013731309160941749,0.00041496346886874425,2021-05-01
540,NAN,1.0946693832611844e-06,0.004867507197475748,0.003200295176366215,0.0036659127941783215,0.004907927228079661,0.004968200324294909,2021-05-01
541,INFY,5.985367794068912e-08,0.0006444748410183248,0.00025554788801438865,0.00042409305934953007,0.0006235182722779954,0.0014029277773085715,2021-05-01
542,NVS,5.238989382402034e-07,0.0007254089942203938,0.0007347353435550576,0.0011629751180095972,-0.001349176538162,-0.002951171361727631,2021-05-01
543,NVO,1.9008351060424699e-07,0.0004749104939600611,0.0004837318868287051,0.0007613761232044986,-3.0288094860215693e-05,-0.0009622465667529048,2021-05-01
544,PHG,1.4279419639150778e-07,0.00029448188390395304,0.0005876479297201811,0.0007045836289347757,-0.001296394230406953,-0.0017474102265828922,2021-05-01
545,SAP,3.8631813136095644e-08,0.00017144093046422506,0.000247172193422396,0.00041019322252718276,-0.00019703789425395277,-0.000722254732891787,2021-05-01
546,EW,8.920946321648631e-08,0.00033883335641747184,0.0004543774053218628,0.0005264163895508512,0.0015514050649271004,0.0026074201788610623,2021-05-01
547,CRM,1.8428894186252746e-08,0.0002010050763973856,0.00032718409433546165,0.00034270464405254094,-0.0003622791415486255,-0.0012061639137837588,2021-05-01
548,STM,-2.9302974969583147e-09,5.2315765129222434e-05,0.0001697549608076706,0.00021136626627544887,0.0005875005263663787,0.0016695571780657875,2021-05-01
549,BST,8.475749755540546e-08,5.570441723414022e-05,0.0006454463021534719,0.0005945987380669914,-0.005390974294895706,-0.007220973931457678,2021-05-01
550,CMG,3.245367531646621e-08,3.942981216052793e-05,0.0004902118748027524,0.00042088074369979125,0.0028633263005442213,0.0013250911338100564,2021-05-01
551,GDDY,8.444749848781491e-09,4.938498161111249e-05,0.00038085701148168205,0.0003260742494705114,-0.0001205531899339344,-0.0008292512393545762,2021-05-01
552,GIB,1.6997367684075453e-07,0.00028099586388026005,0.0008124753689760459,0.0007460051771148937,0.0003194882264043335,-0.001530555990984528,2021-05-01
553,BME,3.440529677862913e-07,0.0005836912767727912,0.0005889104363462343,0.0009536521614023975,-0.00242489484780549,-0.004039928165911207,2021-05-01
554,RACE,1.5257017707892238e-07,0.0003761270082300096,0.0004279190495167521,0.0006145274884757136,-0.0010522298552806252,-0.0029403680902944677,2021-05-01
555,DHI,1.696521366048924e-08,0.000250772377916708,8.502769118109177e-05,0.00025071569241317203,-0.0007322404021199197,-0.002850255669087353,2021-05-01
556,NKE,6.667211107830771e-08,0.0005386347994078974,0.0005903832033118144,0.0005385130444320102,0.002769476678388584,0.003225456996811803,2021-05-01
557,ABBV,1.2135315454834323e-07,0.0011544862816546548,0.00044387798470468787,0.0007211519329346434,0.0032039522782691615,0.004944463752844172,2021-05-01
558,ATUS,5.476245926114669e-08,0.0006980898883709989,0.0006210357428773774,0.00043606310474243244,0.0010918823650534067,0.0015399953970881683,2021-05-01
559,CACI,6.457212339076718e-08,0.0007715067063750152,0.00035764958377901843,0.0005855368606301736,-0.0006280977906689386,-0.001428537855558901,2021-05-01
560,LDOS,4.0658404908408255e-08,0.000654947060803683,0.0004043196275436354,0.0004970736387553033,-0.0011951253568688472,-0.0002526036327531533,2021-05-01
561,ROP,1.0300228677053346e-07,0.0014168097241730182,0.0008690832564390299,0.0006554940203806634,-0.0021546240635108255,-0.002662590928526377,2021-05-01
562,ANET,2.3364657058203076e-08,0.000327046115935556,0.0002792619109505832,0.0003778011346193963,-0.0011159094478751987,-0.001026503768846635,2021-05-01
563,KEYS,4.7029828468088786e-08,0.00044865137560150985,0.000729769552919698,0.0005182785866938819,-0.004098614348708368,-0.007027074519620712,2021-05-01
564,CIEN,1.4753416273164594e-08,0.0004472586512359285,0.00038142540124945815,0.0003368835090589286,-0.00023156259978767674,0.00017407320543263104,2021-05-01
565,TYL,3.2263352531101816e-08,0.0008295845108551817,0.00041049662794591596,0.0003936716904459376,0.0003424125936080233,-2.8103867775098552e-05,2021-05-01
566,CABO,5.6772952030740896e-08,0.000814229628702239,0.00046704860827997513,0.00043652676227507516,0.0035039253104538356,0.004285352521028924,2021-05-01
567,FDS,1.828701141522134e-08,0.00012822077379360413,0.0002558415295099773,0.00046648994545067,-0.0009772395554449686,-0.0019381324577876446,2021-05-01
568,MCO,3.789094785556577e-08,0.0001652202030211242,0.00031200164364704984,0.0006011004396115833,-0.0018023133182321614,-0.0016619042044867757,2021-05-01
569,HD,6.344929596528428e-08,0.00019767792554019884,0.00040943147802375033,0.0007465389540740611,0.0011726777196031965,0.0027915440218052295,2021-05-01
570,SHW,4.5139364515885603e-08,0.0001787019286170352,0.0008000954933319181,0.0006748753079850073,0.0003902591093323085,0.001582392536961342,2021-05-01
571,WCN,8.163055158472875e-07,0.0006191769993826677,0.0010857148660624288,0.0013283824761616601,0.0004315335088618679,-2.999352244368414e-05,2021-05-01
572,HSY,4.967971602772828e-07,0.00034552911498489294,0.0015878107524133916,0.0011148886265915162,-0.0019536332178322056,-0.001952560533592851,2021-05-01
573,UNH,1.3421799783871835e-07,0.0001922516649236451,0.0005427400586627993,0.000620321661391765,-0.002906592793722665,-0.0033991254838705836,2021-05-01
574,STE,2.049628078724893e-07,0.0008494909117260239,0.0004005486945361146,0.0006887025279713856,-0.0037139281983142986,-0.005338409545459886,2021-05-01
575,AWK,7.385536946185649e-08,0.0006546159180042764,0.000342242146366519,0.0006782123735168493,-0.0008470985124531463,-0.0013989070020421453,2021-05-01
576,NEE,3.928222289265603e-08,0.0005447664668220106,0.00037225968628464245,0.0005644032604678124,-0.0015178772008393859,-0.002385186189360252,2021-05-01
577,AMT,2.7021525161276803e-08,0.0003297401270379345,0.00043906845706285445,0.0006050078960464307,0.0006507156063884779,0.0018311255536633928,2021-05-01
578,CCI,5.491679608487032e-08,0.0003786720342884194,0.00041316290870027547,0.0006947882649723794,0.0008938660016519739,0.001475850049314518,2021-05-01
579,AMH,4.1870069714718674e-08,0.0002257155648956947,0.0004400910762181534,0.000679430602426825,0.003042327627516159,0.003880547503730116,2021-05-01
580,ELS,3.549469717582456e-08,0.0002137073147891171,0.0004916635413825212,0.0006432843463732199,9.72193296649085e-05,-0.00021471192999951845,2021-05-01
581,ARE,8.249015926206535e-08,0.0002706664677911109,0.0003163146754974459,0.0008224374186135289,0.0015857579347931484,0.0024108340449542688,2021-05-01
582,PLD,3.727918251078277e-08,0.00021299992574982279,0.00024892260553875656,0.000647213932808823,-0.0008521488819402019,-0.0008923836172016064,2021-05-01
583,MSCI,9.6012916701211e-09,0.00022232010288926414,0.0002372600153336446,0.0004028327065620779,0.0005356391834459627,0.0009465173180473764,2021-05-01
584,ZTS,3.950011460923083e-08,0.0003825528783041128,0.00040826043435924825,0.0006931663370411332,-0.002863509437899837,-0.004467286812932074,2021-05-01
585,CHE,3.1170714702404655e-08,0.00034150445391852474,0.0003895547407398525,0.0006131447736987226,0.0009611123272570721,0.00036884788959784347,2021-05-01
586,WST,2.655071037330411e-08,0.0003177942513477053,0.0005231523932162085,0.0005705749429898544,0.004346186171081537,0.005153329823715736,2021-05-01
587,EPAM,8.15430593029127e-10,5.7246955843110276e-05,0.00012551731716284057,0.00033174367880984727,-0.004733173702360142,-0.005291112411349774,2021-05-01
588,NOW,3.0258963674572665e-10,4.263066566435897e-05,0.00013702974323672655,0.00024704289772831903,-0.0004846831910887857,-0.0005901662186935848,2021-05-01
589,VEEV,5.070633625244285e-10,8.154173197693298e-05,9.374575281754942e-05,0.00028110661348637773,-0.001588781466802208,-0.00014169116679682464,2021-05-01
590,CTLT,1.2533164103891675e-09,0.00010486172267397838,0.00024316940692302273,0.00035590225219354123,0.00015009348762801535,0.00030815827436115614,2021-05-01
591,CRL,2.4878068657233148e-09,0.00012824134476948273,0.00018315953734133775,0.0004352530386105635,-0.0003449991631909632,-0.00018354431278692543,2021-05-01
592,MTD,1.677427908280053e-08,0.00016849326878955645,0.0003978249576896343,0.0005381998564840205,-0.0009620661773650258,-0.00018514560644901682,2021-05-01
593,DHR,1.864370497229279e-08,6.229007084420609e-05,0.00033344675823325965,0.0006143342819338723,0.001196282465309255,0.0013842541658521225,2021-05-01
594,TMO,7.19040329880183e-09,5.1382187339445345e-05,0.0006344739501998101,0.000506755550853671,0.0010702276955219456,0.0011703706727598099,2021-05-01
595,BIO,4.563806040792138e-09,7.778711140848742e-05,0.00023346885910166667,0.0004301374068534477,-0.0007568283075501124,-0.002041480983182618,2021-05-01
596,ABT,4.4688664725541744e-08,0.00036525901226014775,0.00044983751775938823,0.0006979888277774908,0.0008259575725513759,0.001746685074751914,2021-05-01
597,ROL,2.3752638734898505e-08,0.0003909908686630098,0.0004391653621079973,0.0004950479822143533,0.0007502289319713833,0.0004306416993660144,2021-05-01
598,SMG,6.821588748751438e-09,0.00015398181620297983,0.0002098313891232947,0.00030120362228203547,-0.0036269314461504017,-0.0031722842159517695,2021-05-01
599,TREX,3.90741426000734e-09,0.0001201039134756968,0.0002313334287888842,0.00023493510260614773,-0.0034035721285627573,-0.004046094400466436,2021-05-01
600,RBA,1.4832362747534778e-08,0.00044143500005936696,0.0007569853615391567,0.0003627639153329305,-0.0032005517104382905,-0.004507118059705274,2021-05-01
601,LH,3.6917256618365175e-08,0.0009693975785231731,0.001826378917977173,0.0005364287637080604,-0.0020615248571054217,-0.0028231096888917963,2021-05-01
602,GNRC,3.7495124625388213e-06,0.0004003439806290059,0.0001125650223129957,0.00017136476584489645,0.0010891821120084326,0.001540468133965528,2021-05-01
603,BEP,1.6821415186079426e-05,0.0005142023470370414,0.00033486208974172784,0.00033903716242373493,-0.0012115486095076761,-0.002576709934187836,2021-05-01
604,NEP,1.3039481404647596e-05,0.0004576291751970917,0.00013488675175004987,0.00030173587867726986,-0.002370201218859329,-0.0022653723157218873,2021-05-01
605,LL,5.613556948508224e-07,0.00036369252869127385,6.266972455474414e-05,0.00010631908226427486,-0.0004075134892211701,-7.34052205693001e-05,2021-05-01
606,W,8.416438105313155e-07,0.00040695924444993217,0.0001064345330884406,8.46515545697092e-05,-0.0028662708456465248,-0.002232141641190193,2021-05-01
607,GWRE,2.174883986231895e-05,0.0004828785276724608,0.00022537251126491349,0.0004278111920266598,0.00010660818540022984,-0.00023385172703849018,2021-05-01
608,RAMP,2.107765272916753e-06,0.00017611724160917843,9.212987686588535e-05,0.00015603287939193006,0.0026364790651166657,0.0036882969544704013,2021-05-01
609,PANW,1.5850706694846612e-05,0.0002179302825317116,0.0002176345499640469,0.00038554695188036913,0.0021602383024544665,0.0031304104521728956,2021-05-01
610,QTWO,9.026560403704015e-06,7.268987909175243e-05,0.0001829295768360713,0.0003240659204596157,-0.00020688155723808119,-0.0004944728443271392,2021-05-01
611,YEXT,5.796587645242805e-07,3.198292487216356e-05,5.7250442490892996e-05,0.00014258623232273908,-9.066758975072568e-06,0.000427831667400402,2021-05-01
612,PSTG,1.4653338569956753e-06,5.9283207664751675e-05,0.0001477278517915089,0.00016966786123311865,-5.447437965135806e-05,0.00026638758148826995,2021-05-01
613,GLOB,1.5597454751927574e-07,3.4485402211292666e-05,6.931027911832554e-05,0.00018318784605808803,0.0036609272966747937,0.004584052366632298,2021-05-01
614,WK,2.1966816353375992e-07,3.928572769080338e-05,0.00013041095850951513,0.00020868736842356503,0.003856147604452005,0.004273445708335875,2021-05-01
615,NVTA,2.0285410900231542e-09,1.3118167167578563e-05,4.718573556095973e-05,6.737754678548926e-05,-0.00021770677807092019,-0.00016618478079902826,2021-05-01
616,SE,8.113673620834027e-09,2.2449281084361703e-05,4.6296240492239606e-05,0.00011530402587798254,-0.0030942438461277473,-0.0029012378806241427,2021-05-01
617,RNG,1.378183677428221e-07,3.578542254281789e-05,6.499274032520178e-05,0.00019488764647902903,-0.0007698185899454318,-0.0009683572813838398,2021-05-01
618,TWLO,3.154744408275416e-08,2.14654508172031e-05,5.445998204772617e-05,0.00011690098629883742,0.0018238840299533196,0.0027697102352510043,2021-05-01
619,CVNA,1.8328952522651238e-09,1.4481310068231228e-05,3.6080545303521034e-05,7.951507989508644e-05,0.00042285384507364767,0.000547357777489031,2021-05-01
620,HUBS,3.828149516885503e-08,9.230400841848759e-06,6.365083429644236e-05,0.00014027507433421772,-0.0007226987502488151,-0.001348341524512669,2021-05-01
621,SQ,2.589821802805743e-08,8.11155118012755e-06,7.630186349433009e-05,0.00012327183447975843,-0.004698967030800655,-0.004228619695929191,2021-05-01
622,SHOP,3.093619541061959e-08,1.3637620411025918e-05,9.086952467829579e-05,0.0001244290376460739,0.0015050483652872893,0.002333490386552707,2021-05-01
623,ASX,4.731076330220569e-06,0.0002915195292064173,0.00011749919310061771,0.0002423744456310068,-0.0014156100785053555,-0.0011121162098214079,2021-05-01
624,TSM,5.5371391687295195e-06,0.0003076681468012221,0.0001240080178858569,0.00025580068931321484,0.0023246144060092046,0.0029514901939075673,2021-05-01
625,MODN,5.040837014911721e-06,0.00040194880405199947,0.00015469565995516338,0.00020172102775554106,-0.002195676266260205,-0.0028608518279935624,2021-05-01
626,GKOS,2.95608882940763e-06,0.00023510266808694555,0.00015379412554941368,0.0001904678960265117,0.0015198320905222445,0.001373629654462405,2021-05-01
627,NVRO,6.040895809700538e-06,0.0003358126109640928,0.00017870765579901734,0.00027205782899003946,-0.0025849988891699753,-0.003178026680917712,2021-05-01
628,AMRC,6.969007884743297e-07,0.00012541972990545548,8.612820679897202e-05,0.00010125433830217682,-0.00028146658991611484,-7.263499598067799e-05,2021-05-01
629,IIPR,2.2107933011627966e-06,0.00021846021479284103,0.00015297332098609473,0.00017636814009147674,-0.0018080063419372505,-0.002567850828045364,2021-05-01
630,NCA,-0.00014806843428732467,0.009957226413310453,0.0037411414107731975,0.003011237034043458,0.006182727334066585,0.006327560799334878,2021-05-01
631,NNY,-0.00015339510889081923,0.010207398600105187,0.0031399054942184757,0.0030868934189135374,0.005914416067745998,0.005941797189396802,2021-05-01
632,PCG,-5.035055416415007e-07,0.000800816148020205,0.00035447320416713486,0.00022019455223840805,0.0003047519928449818,0.001403470457527287,2021-05-01
633,IGI,-2.1878778010107432e-05,0.006582650156646856,0.001577056371303653,0.001809983112064281,0.00044308891324333703,-0.0020700909884423563,2021-05-01
634,BHK,-0.00010507094005093352,0.008090690806262735,0.0036268486876915246,0.002495956462294381,0.007612891990157809,0.008957066555256939,2021-05-01
635,MIN,-0.0003115159511142319,0.01624319214336427,0.007469207972694071,0.005010981307941826,0.007402509464145744,0.007302691041006342,2021-05-01
636,CAF,-1.2850511959328783e-05,0.0014130072944216066,0.0009573101730886965,0.0012393089490828802,0.005800191208030734,0.00775201869145891,2021-05-01
637,TDF,-2.5843938290089194e-06,0.0006081799196126514,0.0004120409189761323,0.0005334174989782987,0.0005746154467539514,0.00046232374380202567,2021-05-01
638,TWN,-4.574286320933858e-06,0.0010855420986234405,0.00035792578059843467,0.0006794291548488763,0.0007590449193627426,0.0004710041693235594,2021-05-01
639,FEO,-1.5101257781583028e-05,0.0020142751946960477,0.0016272192868207493,0.0012423009470446176,0.0014795326238945666,0.0010887362170287327,2021-05-01
640,IAE,-1.4592350972565835e-05,0.0019737659186203666,0.001484606557423261,0.0012173169169749304,0.0005566486079684776,-0.0008645299255440442,2021-05-01
641,JMM,-0.00010874037818860926,0.005042655637540744,0.0028726776427563353,0.0025903066529545512,0.006419853350714722,0.00576661080554768,2021-05-01
642,RCS,-2.848015933390912e-05,0.002065865332305264,0.0013056477613373866,0.0010611917804857747,-0.0014931479517648109,-0.0015614320575946098,2021-05-01
643,TBB,-0.00035694287966294943,0.01129322308997138,0.006880942306054812,0.005253257021106657,0.00808773816020877,0.008201120165054625,2021-05-01
644,HDB,9.530068739304793e-06,0.0007007396396345004,0.00018787507756922142,0.0003259623406489367,-0.0036424174399472516,-0.005828647700921483,2021-05-01
645,THW,1.5089878348015172e-06,0.0017572676837065862,0.0012084186031819436,0.0006253476810765154,-0.0006802859456974218,0.0008406391572548972,2021-05-01
646,SBS,1.8534346314523765e-07,0.0002264098217061116,7.785143792121953e-05,0.00019923456776617935,-0.0017629283287621295,-0.0015606564779913465,2021-05-01
647,UGP,4.1029619714780973e-08,0.00014522826490293687,5.1093753052022785e-05,0.00012779697615294657,0.001571152415684387,0.002467932142571251,2021-05-01
648,BAK,8.818478562292377e-08,0.0002339001441466684,7.95573665690292e-05,0.00012418992104324273,-0.0017198177639602813,-0.0022008996170027376,2021-05-01
649,CWH,5.1423604503989094e-08,0.00017783659226541592,4.607912405431825e-05,8.355525195243873e-05,-0.002151636927324844,-0.00179377997233789,2021-05-01
650,PFSI,2.9438916313191274e-07,0.00046951402948915556,0.0007021117621174492,0.0002205978113358186,-0.0023586744491372828,-0.0028649729852242693,2021-05-01
651,EVA,1.8047925733179776e-06,0.0020129868514145175,0.0012252184164430263,0.000696096102576731,0.0007631231887840853,-0.0014512956552991257,2021-05-01
652,PVH,-8.493710362545137e-08,3.7879451994373205e-05,5.183257029423666e-05,0.00013050246869925012,-0.0021010646232930883,-0.003241178738011139,2021-05-01
653,VFC,5.599704271162478e-07,9.504896911419466e-05,0.00013342035397653163,0.0003274631617839601,0.0032555093603179775,0.004932339918931691,2021-05-01
654,TJX,8.352886343452604e-07,0.00020817770392467775,0.0002852917736568773,0.00042609976831828604,0.0012224061892545175,0.0020858629751639027,2021-05-01
655,WWW,9.399639959470626e-08,0.00018348632946165808,0.00016964027542239405,0.0002246459882163742,0.0036510026737013477,0.003849170794101661,2021-05-01
656,UBA,-8.856156571052534e-09,1.0527695625432513e-05,7.017873847678408e-05,0.00020215996149995126,0.0004410375401686966,0.0019332923402178399,2021-05-01
657,AAT,-2.816517079834853e-08,7.219099020622207e-06,0.0001381719990334646,0.00024632821489041365,0.0008555093630686077,0.0007715287737688522,2021-05-01
