,Company,RCRP,"RCRP, no extended terms",HRP,IVP,LW,OAS,dateThru
0,FIX,3.0556968603470534e-06,0.00010922248440382268,9.476479712394194e-05,0.0002516606592046229,0.00036109353498118716,0.0014279184274001075,2021-07-01
1,WTS,3.314327314235075e-05,0.00023656457419088902,0.00021846606324628164,0.0005450708891149929,-0.0003015723254848756,0.0005913371554139949,2021-07-01
2,ALV,8.720268072028671e-07,7.551007128115719e-05,9.381939067203589e-05,0.0003115192332507345,9.72777175927038e-05,7.672010431698411e-05,2021-07-01
3,CNHI,5.277610187788575e-07,6.405984447033478e-05,8.277255420755039e-05,0.000264280953427464,-0.0011836182594947345,-0.0009516870979925864,2021-07-01
4,CRH,2.31720286962532e-06,0.00016550348082305997,0.00016422216141573917,0.0004097328354123046,-0.0017430511002551484,-0.0031148629940475655,2021-07-01
5,WCC,-8.640532961828816e-06,3.643853521782547e-05,8.299589521798728e-05,0.00014255661136454626,-0.0024180839150596996,-0.0023195890885535863,2021-07-01
6,BHE,-1.9044585799857942e-06,4.757377687763371e-05,0.00011603758375331178,0.0003226452419684292,0.0026776896469756857,0.004677967468854219,2021-07-01
7,ST,-3.614475817013332e-07,3.094494673890764e-05,0.0001343329464534009,0.00036591847777557964,0.0013348238206692046,0.0018890085124639922,2021-07-01
8,ARW,1.56098311574623e-05,1.2939520075812097e-05,0.00014077194443170928,0.0004731372292044879,0.0032821838595344663,0.006135215485993795,2021-07-01
9,VSH,-5.946255820415107e-08,7.834662385858279e-06,8.523505134358892e-05,0.0002864766568836565,-5.205311270915967e-05,2.3805622271150206e-05,2021-07-01
10,RMT,5.6446552412987425e-05,3.153901584177653e-05,0.001043643543023604,0.0006566884822320498,-0.001336549025852225,-0.0026549491062709866,2021-07-01
11,BDJ,0.0003645059780147138,0.0003709252747566026,0.000562306495707496,0.0012996425705093992,-0.0011702817200998738,-0.0014085793681404902,2021-07-01
12,UNVR,-3.1710549408442406e-05,6.70791582529216e-05,0.00012876037604807683,0.00023503097683661423,0.0006193613032272606,6.003282805824575e-05,2021-07-01
13,KBR,-7.860656520859291e-07,0.00011812953990504959,0.00010982146815313031,0.0002913318265492489,-0.002056640461698143,-0.001997952445742444,2021-07-01
14,GATX,-1.0422268991666376e-06,5.171641571195386e-05,0.00012607410473144585,0.0003347229720976575,0.0011947274154988495,0.0009332471549054877,2021-07-01
15,HPE,-9.866033288958117e-07,5.07145745996831e-05,0.00011428810951815206,0.0003282387788284131,0.002605698890865518,0.0011861975490181928,2021-07-01
16,NCR,7.594405803673966e-08,4.0362472970035374e-05,5.9524658652738695e-05,0.00015897510878779724,-0.0010924418820328133,-0.0007975995514938344,2021-07-01
17,MTZ,-1.3192574931489985e-06,4.624845681307309e-05,7.82044565574739e-05,0.000207630489908771,-0.0018495318004858373,-0.0011800240065940274,2021-07-01
18,PGTI,-2.4930608344288214e-06,1.688984872634351e-05,7.099301508293653e-05,0.0002165422008096437,-0.0012002049423050006,-0.0021887905914825426,2021-07-01
19,NX,-4.286554131607194e-06,1.9821234906734447e-05,0.00014735381677312713,0.0002541250605030383,0.001445202611152799,0.0036611260306591447,2021-07-01
20,GMS,-5.231846803676012e-07,2.1016967004239842e-05,5.202140328164057e-05,0.00015867517589797392,0.0005238887785916172,0.0019247929865143182,2021-07-01
21,CLH,-7.578582981654076e-06,4.03927701543207e-05,0.00013390529427431433,0.00029844982486215574,0.00026231924786671224,0.00034899722053321553,2021-07-01
22,EVR,-5.487700758580372e-06,3.605935112939567e-05,0.00010211237157724875,0.00026643151702879545,-0.0007312448529211385,-2.4158470648982862e-05,2021-07-01
23,CIR,1.622850284656858e-06,1.4476839170133374e-05,3.921037840853446e-05,0.00010472087222663414,-0.003507842725044493,-0.0038023339432426036,2021-07-01
24,HRI,2.0424957756665433e-06,1.5825500804320253e-05,4.3851195005908615e-05,0.00011447666359869143,-0.0026328936195700943,-0.0013020929494429185,2021-07-01
25,KOP,1.3888682720686543e-07,3.957636903200646e-05,5.505631039266056e-05,0.0001451602821004928,-0.004440509227961153,-0.006863805384253368,2021-07-01
26,WNC,4.447722891949045e-07,6.080740657043527e-05,8.407515009527156e-05,0.0002230325951434621,0.0015370561329114585,0.0011407776952522416,2021-07-01
27,AXTA,2.3884129068910015e-06,0.00018754881995528837,0.00020542054675746926,0.0004308971241586151,0.001646016080892773,0.0021379434225713857,2021-07-01
28,CMC,-6.464070623292495e-06,7.697479697731818e-05,5.3320975798175285e-05,0.00018352437116430774,-0.002667591940627288,-0.004178138716491252,2021-07-01
29,CMP,-3.135116944996049e-05,0.00012993897895662818,0.00012491580291875182,0.0003098023033405893,0.00244134381464823,0.0035380157339654646,2021-07-01
30,AN,-1.0530604547602919e-05,5.288234528874414e-05,0.0001426812377935493,0.00023031247962879527,-0.0002542737667566995,-0.0013612374220711842,2021-07-01
31,GPI,1.7851976870910032e-07,3.0281555202236047e-05,7.28336953851893e-05,0.0001318818223277187,0.0007559175579691888,0.0007580022107893133,2021-07-01
32,GEF,-1.4173236947420463e-05,6.396434533462504e-05,7.973763334007011e-05,0.00025918694803656246,0.003202920828109781,0.0050011333984900565,2021-07-01
33,R,-1.0953139841449335e-05,5.796964097167565e-05,7.057930916879842e-05,0.00023489608536789923,-0.0028168263603051934,-0.005429076843446693,2021-07-01
34,MPC,-7.420314017751155e-06,0.0001060874530155202,7.998456167850538e-05,0.00019804667688354426,-0.002711135271635424,-0.002217787505958091,2021-07-01
35,XRX,3.021230064269971e-06,4.408189299515265e-05,0.000154233763393305,0.00024769085832945315,0.0002098779950811276,0.0011719470085845645,2021-07-01
36,KW,2.2591108710567435e-05,4.616125838895084e-05,0.00022133786693707576,0.00043602574630413095,0.0007446155009744106,-0.00013727610097659043,2021-07-01
37,STWD,6.720709422615621e-06,3.256643669555542e-05,0.00017370945375644607,0.0003076130365641126,0.0025382520112387998,0.0028876200875547946,2021-07-01
38,PVH,-1.8867537324214133e-07,1.312302046872901e-05,4.095971078662614e-05,0.00012707459972301563,-0.0017408132433959442,-0.002875024341217624,2021-07-01
39,SYY,1.1294882548787605e-05,3.1049399910876685e-05,0.00013730176130429014,0.00030066173216116554,-0.0005937295343443057,-0.0004324651628688696,2021-07-01
40,CHH,3.2204277844576975e-05,2.611248529561494e-05,0.00013740564240347683,0.0004268275437289213,0.0007989171304159441,-0.00010682057118561267,2021-07-01
41,VAC,-1.6675822361601117e-06,1.1320975326710693e-05,9.410170754421794e-05,0.000185049566772838,-0.0008837780402354992,0.0012008595803349347,2021-07-01
42,CLDT,-3.404295175697044e-06,1.2710332221768467e-05,3.213160487775826e-05,0.0001263924615993631,-0.0024457470586158416,-0.0037868334581525566,2021-07-01
43,ATI,-2.1452706346909074e-06,6.380662833121112e-05,6.950234149587193e-05,0.00011345385869377228,-0.0020651494497797135,-0.00240471950553634,2021-07-01
44,JBT,-6.4293216914135296e-06,9.615614438892228e-05,5.7875639967699904e-05,0.00017097417467994396,-0.0009225164081844519,-0.001667390585157851,2021-07-01
45,ING,3.145999133031342e-07,0.00013197967446758243,7.74221552435222e-05,0.00024508013978826696,-0.0020026021116025974,-0.004635306362631511,2021-07-01
46,WPP,8.915889526006881e-07,0.0001807807222959398,0.00018961960906428713,0.0003357014242537431,0.0007649970819375611,0.0011906903004277013,2021-07-01
47,ASGN,5.5580602323791e-07,0.00015278850721565368,0.00010144662476983177,0.0002708972784010451,0.0002427992132049294,-0.0003211666355773981,2021-07-01
48,SCHW,8.26435108639443e-07,0.00017888324006427457,0.00019292780012981146,0.00031716379568114524,0.004458467342244727,0.0046645014253479545,2021-07-01
49,ATKR,-3.2966950377866478e-06,7.316705192191791e-05,8.142185653321144e-05,0.00013512553088413818,-0.0015118081012521411,-0.001415837357217055,2021-07-01
50,PLOW,4.88949693412782e-06,9.243079160557647e-05,8.82518516692573e-05,0.00028285102765630854,0.0025768068743528116,0.0014758457234291674,2021-07-01
51,BY,1.4350138066704324e-06,4.7734959450587495e-05,6.845992863987437e-05,0.00023513129555586602,0.0017397644169211061,0.000441725429850135,2021-07-01
52,EBF,2.396765677140258e-05,9.829784621512548e-05,0.00016827414932979597,0.0004841923026003384,0.0010781643472622226,-0.00018818843383379625,2021-07-01
53,AIN,1.670601272549712e-06,9.008561149938001e-05,9.089076811111847e-05,0.00027106375987467126,0.002482136092148484,0.0030592294821187513,2021-07-01
54,CBZ,3.717048415902911e-05,0.00019255317230064121,0.00021696998826569022,0.000579384276699575,0.0006765536880717168,0.000517455970184614,2021-07-01
55,NGVT,1.5956483894080674e-08,0.00012143665139098082,8.457260708183785e-05,0.00022789791357038554,0.003085082717340461,0.005394785572538673,2021-07-01
56,CSL,-4.851732851534358e-07,0.00037290724702645063,0.00015092923986679906,0.0004818955243553614,0.0014756009686996098,0.0021739386657147323,2021-07-01
57,NSC,-9.921601381330323e-07,0.0004716268368002076,0.00029653664532652526,0.0006094675381939566,0.0007288129916678862,0.001911856390986066,2021-07-01
58,CMI,-1.3370935999601614e-08,0.00021511734805295852,0.0002176442680807908,0.000511629480526671,0.002524851489468322,0.00244400625305024,2021-07-01
59,DOV,-5.119454466131863e-07,1.4228947216746707e-05,0.0002204129366518702,0.0006449942624232152,-0.0037186772592334083,-0.0062516875130308605,2021-07-01
60,ITW,-1.6568545274352615e-06,1.793802500641877e-05,0.00022706999031296362,0.000813125738123976,0.002292924458069248,0.004368806243067676,2021-07-01
61,DCI,-2.5078491261633956e-07,2.1369836516228063e-05,0.00019347315312371943,0.0005437263840782132,0.0007353816456224992,0.0015249240365720243,2021-07-01
62,HUBB,-3.475463336746081e-08,3.597730948691497e-05,0.00010861470440100126,0.0005207549722359427,-0.001836856395413009,-0.003038546196859704,2021-07-01
63,PNR,-3.566325150181255e-08,3.504006158106358e-05,0.00010150807566754964,0.0004939073042766422,-0.0016359306898505322,-0.003475378538803491,2021-07-01
64,XYL,-5.6106526250432135e-08,3.949842885586046e-05,0.00011442358615079554,0.0005567502349911287,0.0011036937677821378,0.0014489466399633657,2021-07-01
65,SWK,-7.394577363589135e-08,5.956660246533642e-05,0.000164053146587478,0.0004592649714330535,-0.0020839831864617464,-0.0017338312166174609,2021-07-01
66,AME,-4.648151511478855e-07,4.866324974276518e-05,0.00013658915460817078,0.0006548789301410019,-0.0021458817665638355,-0.001985472164158276,2021-07-01
67,HON,-3.6097288538284425e-07,4.56441378678783e-05,0.0001779930490770171,0.0006142496510638096,0.0002838520000723966,-0.00015836866276824544,2021-07-01
68,JCI,-5.990540527122537e-07,0.0004302232004536443,0.00027378327528686393,0.0005819601444522797,0.001128717798258967,0.0021086541717575216,2021-07-01
69,IP,-1.1022059694788624e-07,0.00017323426052069573,0.00012611331888611436,0.0004099309806380694,-0.0019164992703839979,-0.0033159519258588316,2021-07-01
70,SON,-1.1812926461491303e-06,0.00027719070566256936,0.00023341740355458963,0.0006559271673771515,7.941791052041755e-06,0.0021048943195348707,2021-07-01
71,GPC,-2.3029609457413358e-07,0.00019963805353360336,0.00012924802664070087,0.00046283041153275315,-0.0002529080594736651,-0.0007884463558079794,2021-07-01
72,LEG,-2.1017951716286948e-08,0.00011704033901793672,5.8095250941313016e-05,0.00027134019449095997,0.0015735578891701615,0.0019585671265850224,2021-07-01
73,IR,1.6552483923522878e-06,0.0004596405043635778,0.00012002518472172326,0.00035795140173694256,0.003894262405553204,0.003981863603458077,2021-07-01
74,KMT,4.0303590365317075e-08,7.681185411997366e-05,5.409489196312373e-05,0.00019425622724124293,-0.0015714079882144076,-0.0014753394115924034,2021-07-01
75,WOR,3.390086355105146e-08,7.281257502311343e-05,5.5329241370415617e-05,0.0001841420999630834,-0.0009641335227422583,-0.0017886022695643535,2021-07-01
76,FUL,-1.2266253189800939e-07,0.00014316992105866896,0.00010874209873901074,0.0003752663182789893,0.0019151711364059276,0.0023845123275242786,2021-07-01
77,HUN,-7.07279642280929e-09,5.847482185275283e-05,0.00012774278364117772,0.0002690054124252302,-0.002437654404357146,-0.005850627499748107,2021-07-01
78,CE,-1.1922125351476662e-07,1.5609367355644648e-05,8.631718728547781e-05,0.00039286286460469736,-0.0007916281080491903,-0.001246073669645697,2021-07-01
79,NUE,3.372382938201023e-09,8.233433510633021e-06,0.00010280000991020565,0.00020722238133180342,0.0007658008228054837,0.00041595784587656216,2021-07-01
80,CBT,-4.721684347096804e-08,1.1681453814705282e-05,6.728230971672038e-05,0.0003012139210460873,-0.00033068308991110646,0.00028810839307374714,2021-07-01
81,TSE,6.320689482924356e-09,5.912748564363381e-06,4.2456956868665e-05,0.00015246408601894145,-6.632589095064281e-05,0.0005975538813594338,2021-07-01
82,VMI,-7.807601409334073e-08,4.134954457180123e-05,0.00017625826814597138,0.00033599729323392265,-0.0004962496215046524,-0.00153709598019655,2021-07-01
83,ADM,-8.831129563685205e-07,0.000438095260755983,0.0003855566462803801,0.0006347455050250425,0.0005547033726605062,0.0006464398529328404,2021-07-01
84,CAT,-1.7284405321966732e-07,3.081301005815207e-05,0.00033847943767479916,0.00043607152886381657,0.0018104602871492985,0.002269784867700998,2021-07-01
85,URI,1.827806516481594e-08,1.442911931825418e-05,7.881848241135632e-05,0.00020420361754319575,-0.0019429675387657988,-0.004193717508765648,2021-07-01
86,OSK,-4.2184698898064525e-08,3.649224156411647e-05,0.00010974370213721566,0.00030252266261260183,-0.001384839428028484,-0.001805301441356687,2021-07-01
87,EMR,-2.1031966991946804e-07,3.27607685215179e-05,0.00015275034183284355,0.00047548550349448904,0.001471407634809761,0.0029406242820225947,2021-07-01
88,PH,-6.817887829030973e-08,2.584911733637959e-05,0.0001070992646977833,0.00037517070344377586,-0.00020527213757413258,0.0015893706449031009,2021-07-01
89,TKR,1.3411137416244081e-08,3.4021079876602916e-05,6.133003822693914e-05,0.00027913669643177285,0.0009037855934141154,0.001246772034519357,2021-07-01
90,EXP,-3.0122804300751384e-08,0.00011459276974663583,0.00010090604519663283,0.00028653315240063416,-0.001880001116758036,-0.0015720116259885348,2021-07-01
91,ACM,-2.881631616287544e-08,0.00019331922645023436,7.237277795752993e-05,0.0003947450756423012,-0.00282059204182982,-0.0031360787900623077,2021-07-01
92,PWR,-1.7826655931850364e-08,0.00016958094593706716,0.00011134211922293638,0.00034627307671672826,0.0011745742321287876,0.0017842098294860549,2021-07-01
93,AIT,-3.210624376473816e-09,1.3128919357789847e-05,4.8139627575002756e-05,0.00027622505100636754,0.0006558834990322408,0.00214802701863311,2021-07-01
94,MWA,-2.5693038869015526e-08,2.017918118971547e-05,0.00012664458566529412,0.0004245585795367567,-0.0014289137677191398,-0.0018595580761461452,2021-07-01
95,ESE,-2.1173495921134787e-08,3.2402913806482285e-05,8.813150497096913e-05,0.00039455298564759707,-0.0011037669150962635,-0.0017834958191958513,2021-07-01
96,ALG,-2.3040133938034246e-08,5.722287487461295e-05,8.41457893445938e-05,0.0003958936977721175,-0.0010153070871383898,-0.0027061892995800013,2021-07-01
97,TNC,-2.1964562623929258e-08,9.974836679040589e-05,0.00019350594508608612,0.0003903291357455694,-0.008164759628307004,-0.011185892037389516,2021-07-01
98,MEI,-1.4291147457128392e-09,2.5677621357976375e-05,6.707213765694748e-05,0.0003132677212315566,-0.0011792945613454224,-0.003338620017363485,2021-07-01
99,EME,-1.422888624727002e-09,4.783389495504747e-06,6.316674851588797e-05,0.00034276758881788877,0.002619498217626902,0.003386093199747612,2021-07-01
100,MTX,-5.190056614001869e-10,3.81602685172136e-06,5.03923020901988e-05,0.00027344842481635037,-0.0012095385613621664,-0.0012722112594986423,2021-07-01
101,HI,-3.5306503121064577e-10,6.257833927442029e-06,4.4445605178545676e-05,0.0002550287606260516,-0.0011963214471271977,0.0009368386857168924,2021-07-01
102,ENS,-3.904460793628607e-10,3.7151889337888426e-06,8.900434918556787e-05,0.00027705520837400556,-0.0012380772415359945,-0.0013086096890119502,2021-07-01
103,SPXC,-4.327587486756098e-10,3.8021001040012468e-06,5.198373539885016e-05,0.00028353649177637334,-0.004029792128264369,-0.005235399302978135,2021-07-01
104,NPO,-5.137037122582786e-10,3.913373684242494e-06,8.79375340358483e-05,0.0002912915218707068,0.0013679340504402385,0.001698106530373833,2021-07-01
105,SXI,-4.761628837887069e-10,3.84620784998319e-06,5.413774891209576e-05,0.00028629204069212995,0.0011693069656985744,0.0019077150314111336,2021-07-01
106,FSS,-5.125487004606086e-09,5.684583454292093e-05,7.285090857518562e-05,0.0003852512470758787,0.002082934166153703,0.002139647274671464,2021-07-01
107,GRC,-1.657483441997317e-09,7.6307028353497e-05,8.18319315759169e-05,0.0002917613589576529,-0.004390286206709947,-0.006323404288459677,2021-07-01
108,WAB,-4.488840328019768e-09,0.00016775986085148964,0.00010742711051047634,0.00033409743176136375,0.0018446790479266836,0.002799791533924994,2021-07-01
109,DAN,3.2730886168489507e-10,3.707233654015342e-05,6.902111414006607e-05,0.00012953200117604306,0.0016889988590725108,0.0017960238133751896,2021-07-01
110,LEA,-2.5416714496465338e-09,7.166570398347801e-05,7.541300217478053e-05,0.0002504024002537663,0.002019217821177964,0.0007157308211601611,2021-07-01
111,GD,9.682723304689209e-06,0.0010572783140665426,0.0004198334865385962,0.0007223615169589183,0.002479986304210468,0.004832572274450548,2021-07-01
112,MDU,1.9516046304090734e-06,0.0006448002001068996,0.0002295934877213784,0.00044054516628941185,0.0048685751101372405,0.007233239306549272,2021-07-01
113,HNI,1.959976328146801e-08,6.75604350665812e-05,7.117190443802411e-05,0.0002444458010717787,-0.0010075454314743867,-0.0033349672801125246,2021-07-01
114,B,2.7261951453407992e-08,6.368023878540305e-06,4.613584103583244e-05,0.00022425887890980428,-0.0033655037140323694,-0.0041718495372844505,2021-07-01
115,CW,2.1047198331804591e-07,9.200533435467917e-06,0.00011435952872233799,0.00032400966971297864,3.6932270614028276e-06,-0.0006976709605432909,2021-07-01
116,KAMN,2.351697398296479e-08,1.1234237207158276e-05,8.008218115100564e-05,0.00022429027204100505,-0.0032956785871767506,-0.004348090321311745,2021-07-01
117,AIR,-3.402265629058078e-08,1.3292599253317957e-05,3.1007206065522084e-05,0.0001475422504463032,-0.0020943772739954675,-0.0030744782026820945,2021-07-01
118,AZZ,2.9654074637931447e-07,5.7021807618089065e-05,7.707883830884485e-05,0.00036264472121240216,0.0002993121424875403,-0.00041320351753839344,2021-07-01
119,BRC,4.882024607382069e-07,0.00019298850181135517,0.00011312044448253059,0.000399401552401921,-0.000982891590807967,-0.0017373808969833896,2021-07-01
120,RBC,1.0965928023717689e-08,0.0002078333193651373,8.410407196233418e-05,0.00024845728356538086,0.0006901311196173559,0.0027138757356238294,2021-07-01
121,KEX,-3.7849226302699753e-08,0.0003060599939743186,0.00011992872206530648,0.00021614397381057265,0.001771695471068107,0.002478772458216721,2021-07-01
122,PRI,7.904107102291333e-08,7.606405802690577e-05,0.00016451549452298032,0.0003672317261599855,-9.132983225738338e-05,-6.179456654896402e-05,2021-07-01
123,VOYA,1.9971707863466832e-07,9.166294866633024e-05,0.00012412222604956476,0.00044254203281849193,0.004058564740613495,0.0059560705274225535,2021-07-01
124,IPG,6.20999142433838e-08,0.00012277397046767065,0.00010445566398294807,0.0003320379439800621,-0.0015266447385979428,-0.0018408772319333656,2021-07-01
125,TXT,-2.8673907141362595e-08,9.824241543232603e-05,5.583005770943745e-05,0.0002713809019253356,-0.0016551146701113996,-0.0025898143598581712,2021-07-01
126,ALLY,-1.0896627875009347e-07,3.5653266678780586e-05,5.30470268162146e-05,0.0002524147999471785,0.0019211474696687566,0.00328261645912691,2021-07-01
127,AMP,1.2325302151349993e-07,1.55406042277952e-05,9.944616684948498e-05,0.00034836176025100754,-0.0013482810322209184,-0.00013816218380105456,2021-07-01
128,RJF,2.5075338016976734e-07,1.7868118526165078e-05,0.00012600439070196832,0.0004005358563224674,0.002702758688855554,0.003653597116321756,2021-07-01
129,ASB,-5.1284732101140624e-08,1.7801883223497178e-05,9.622905967724835e-05,0.00022223360578833232,0.003565119199487556,0.0027000903019533708,2021-07-01
130,AFL,4.448285166821016e-07,3.823072524426065e-05,0.00015196510232114664,0.0004785815996471809,0.0007282684882701082,0.0018459170202273624,2021-07-01
131,AXP,1.9763199172077708e-08,2.4851507090299723e-05,0.0001192309369138386,0.0003110972638088888,0.002556541441046624,0.004244279667425234,2021-07-01
132,ORI,2.0948091010586711e-07,0.00028606204633010746,0.0001243497582062971,0.00042799687810712134,-0.0006962673331294285,-0.0012396279349072025,2021-07-01
133,CNA,5.545826325719739e-07,0.00018709270601378574,0.0002220982693412687,0.0005034149051399889,0.00034211528877244767,0.0014358988970477752,2021-07-01
134,WRB,8.961165795637158e-07,0.0002057362147453914,0.000156787455892586,0.0005535794485878036,0.000428711698017314,0.000752873967464033,2021-07-01
135,MFC,-5.942306840830117e-07,0.00018643191978778256,0.00014768459421568374,0.00046016650465112034,-0.003883578993327593,-0.005523243411198693,2021-07-01
136,SLF,1.2666899900120208e-05,0.0003214757097011792,0.00043880724116834895,0.0007934926263261291,0.0004511449660654668,0.0017003066758670032,2021-07-01
137,BMO,6.901277865584222e-06,0.00048254997180401224,0.00021744615716839905,0.0006775347058059901,0.0037088455609233227,0.005638642519779453,2021-07-01
138,BTO,-1.8882776381502692e-07,0.0001567767187090261,6.723752140801696e-05,0.0002117501983038018,-0.004316837356503793,-0.0039218752863032945,2021-07-01
139,BK,7.640891020152565e-07,0.00017537848128126328,0.00016944983561265167,0.0004115998578971095,0.001463072956035181,0.001486977788306115,2021-07-01
140,C,9.851803634392954e-08,7.139191898732327e-05,0.00014693901626805655,0.00029914713920647766,-0.0009444185529390033,-0.0023788312007658797,2021-07-01
141,GS,7.095674536347472e-07,9.904937878524318e-05,0.00012949518478228873,0.00041503770628501516,-0.0006157243443384387,-0.00032238759390871614,2021-07-01
142,INGR,3.7007288151756226e-05,0.00042323677935208857,0.0004863583388203874,0.0005449401856848854,0.004932253434805785,0.0069538851306418705,2021-07-01
143,VFC,1.1819045171182178e-05,0.0002185938014330951,0.00016446531274538317,0.0002814513117807751,0.0030209179415027427,0.003706076184730543,2021-07-01
144,GPK,2.3625888113415466e-05,0.00012496466744881077,0.0003071051143914075,0.0005363081990668191,-0.00020143179668085154,-0.0011114505999109325,2021-07-01
145,MSA,1.9822826924106278e-05,0.00011494617830248966,0.0003862683156082443,0.0004933120627898602,-0.0006192616507496034,-0.0007344833892723809,2021-07-01
146,HII,1.56944240878374e-05,6.922603530642238e-05,0.00037006399748111014,0.00047640548168090133,-0.001192213798632514,-0.002570400588731817,2021-07-01
147,MSM,1.4479781214118382e-05,4.423059226960312e-05,0.00035090291950748534,0.0004809881221362649,0.002482576145160638,0.0019408303516587017,2021-07-01
148,SNA,9.770821058228372e-06,3.756265441885772e-05,0.0003412783211249435,0.0004084772480832521,0.0010094756510229458,0.0009353612084365613,2021-07-01
149,AYI,-1.2206960619476302e-06,4.988328231872201e-05,0.0003951443203534377,0.00021398130693745968,-0.006303097750784767,-0.009812001681429303,2021-07-01
150,DXC,-7.5256941354034285e-06,6.0810685567272455e-05,0.00010750680541651694,0.00014490313283272707,-0.0012559789554643197,-0.0020840124812921993,2021-07-01
151,ARGO,3.163157364922097e-06,2.7937102615086804e-05,0.00014135516622979698,0.00032573915520263386,0.0018842320193902173,0.0029113382449924142,2021-07-01
152,KMPR,8.051946133413318e-06,4.0807845563749563e-05,0.00024916841227900214,0.00047580858053608257,-0.0018486580272793977,-0.0022955351613781587,2021-07-01
153,HMN,4.853771400780563e-06,3.386791590980726e-05,0.00022814020147563,0.00042457840345170304,-0.000857062864452662,0.00013747154730121228,2021-07-01
154,RLI,5.747822105819857e-06,3.569489121167538e-05,0.00024658328650287723,0.0004474819165842673,0.002538659127874922,0.0026434425854972824,2021-07-01
155,AXS,2.769622600692601e-06,1.76271945614684e-05,0.00012529055924097898,0.00040435755201819964,3.0033277575709432e-05,0.0016278633304281555,2021-07-01
156,RE,3.5760769896825576e-06,1.8739081568765097e-05,0.00019887204391501328,0.0004298635908165758,-0.002991033785946484,-0.004019197403510377,2021-07-01
157,CB,4.218412847728458e-06,3.3032895443276844e-05,0.00013344814510558208,0.00043068500614221563,0.001448441158020801,0.0034454278368597855,2021-07-01
158,ALL,4.122048986110572e-05,5.469310146511464e-05,0.00034461033283282426,0.0006521770441192937,-0.0009440283128188542,-0.0013638408366266155,2021-07-01
159,AIZ,2.3941429600716657e-05,4.4348966209392066e-05,0.0004886608471035893,0.0005288304542509112,0.002934023815295065,0.003311233662398834,2021-07-01
160,BLX,2.653980016884116e-06,0.00018170424055177878,0.0002057706990112783,0.000370412824954135,0.0029545405118160044,0.0033080331090369008,2021-07-01
161,WD,5.227316348974706e-07,8.462200536416067e-05,0.0001625898175894931,0.00017250602388275342,0.0004885134944318144,0.0002601873748487953,2021-07-01
162,GFF,7.156796909530639e-07,0.00013407522650741696,0.0001471450379421809,0.00018763354983854713,0.00028719074175070637,0.0014846260955656927,2021-07-01
163,VPG,1.957448476102329e-06,0.00010863551214790932,0.00021971515979852773,0.0002866575074769532,-0.00022688842897200523,8.991252968017231e-05,2021-07-01
164,SXT,1.407458126171274e-05,9.844992670811906e-05,0.0004608669464015442,0.0005516133031189929,-0.0009791629970937125,-0.0020452295971995875,2021-07-01
165,KAI,3.0654945752926224e-06,3.79502546323613e-05,0.000210983465566037,0.0003399192796291848,0.0028064259051579486,0.002923728490278625,2021-07-01
166,ITGR,1.7015145191108328e-06,2.01777385379268e-05,0.00023193713186959192,0.00027801346269763896,-0.0023963399365062262,-0.0027425546113181427,2021-07-01
167,SRI,6.347655450998045e-07,1.3151111858069375e-05,0.00012112470192543741,0.00018119900498827208,0.003344573807510221,0.0037382255186438336,2021-07-01
168,NNI,1.0158921802708764e-05,8.701813141905378e-05,0.0004765182374754931,0.0004875611441094991,-0.001598835904104562,-0.0028004202720078196,2021-07-01
169,GTN,-8.416245499147335e-09,5.1209012034283553e-05,0.0001414325651243647,0.00022786456523596314,-0.003027543203735171,-0.0034892356181719904,2021-07-01
170,MATX,-6.5278334873287474e-09,4.525305279779405e-05,0.0001853536847109842,0.00020136235384635048,0.005050382123386158,0.006267589492323582,2021-07-01
171,AGM,6.384411851837458e-07,1.3620749824422889e-05,0.000153279570946476,0.0002759222724851121,0.0024405988043808666,0.003983292521020186,2021-07-01
172,MG,-1.493534522736598e-08,4.06732316815616e-06,3.824925301988733e-05,8.239377904707564e-05,0.0011605189839432384,0.00199470117694153,2021-07-01
173,DCO,2.3477273074466455e-07,1.2567185372265269e-05,6.167250923566469e-05,0.00017148186838708896,-0.0038698387201875984,-0.005113716509494704,2021-07-01
174,GLT,7.836420203725587e-07,1.1662748970054648e-05,0.0001223473846565753,0.0002726894087420852,0.0030212254531513725,0.0030332103924555465,2021-07-01
175,SCL,3.345222802489677e-06,2.0058733860059736e-05,0.00016329843372761996,0.00046899785723407433,0.0028406636149995714,0.005102331728308631,2021-07-01
176,ABM,7.947648485183985e-07,4.699141974730972e-06,0.00016102911884635827,0.0002911890356848116,-0.0020490741376871656,-0.0031336620841832773,2021-07-01
177,MLR,1.6744374573897637e-06,6.3360930611697025e-06,0.00015039814110410783,0.00039262504482998935,0.0009071557254695893,-0.001055472798132467,2021-07-01
178,AVD,9.947857653838649e-07,8.099780653175537e-06,0.000131496196328484,0.00031694119765892173,-0.004128912100223055,-0.0035154982232689733,2021-07-01
179,KFY,2.1641137603313633e-07,9.429922821057172e-06,0.0001419255487433081,0.0002257217561996702,-0.003231098599620753,-0.003246386254468834,2021-07-01
180,MTRN,1.223448487162351e-06,2.137015537873489e-05,0.00013639818822096456,0.00028611347780244404,0.0010242680407682924,0.0013025308915605147,2021-07-01
181,PKE,1.2678064205123564e-06,2.1716607888982322e-05,0.00020977456708272247,0.0002907519434964705,-0.0030485227936092687,-0.004174301017479715,2021-07-01
182,LXFR,-1.3152214537982165e-06,2.4085789815628868e-05,0.00022318323666620227,0.00020826018887111527,0.0011354888929263618,0.0012591513060258234,2021-07-01
183,BOOT,-8.466872362810948e-10,1.8154131810587997e-05,3.477636078718707e-05,0.0001058971076802161,0.0010350293621072145,0.0011904172618633197,2021-07-01
184,WWW,-3.99123723389599e-09,3.069979165161807e-05,0.00010314654482769817,0.0001790787450598719,0.00437826163674185,0.005349014422821416,2021-07-01
185,TPR,-4.426014147857666e-09,2.8881420311273298e-05,5.6694448751376183e-05,0.0001758905090694753,-0.0011580747455272507,-0.0015958998391505585,2021-07-01
186,FL,-3.970626899039247e-09,1.7207225436165608e-05,9.154463772996472e-05,0.00017648068506811174,0.00033992392510784423,0.0014905131531993423,2021-07-01
187,GPS,-7.4791379670298e-10,1.1099471171218513e-05,3.597924704636282e-05,0.000113838357232966,0.00158473756517977,0.0031224362165929616,2021-07-01
188,BDC,-1.0627662353164718e-07,5.303294238114537e-05,9.153675668048361e-05,0.0001798728583106833,-0.001435153422177833,-0.0019179025892171334,2021-07-01
189,GM,-2.9596785062207715e-07,3.894123895692964e-05,0.00010040189962310298,0.00022198444697793038,0.0009701645366472846,0.0024612200713936116,2021-07-01
190,AXL,2.998870451188762e-08,8.729621376697987e-06,3.4857447086922004e-05,8.148932105821494e-05,-0.0018990049439088644,-0.002765635042054626,2021-07-01
191,ADNT,3.651376480814937e-08,6.186924618769084e-06,3.462043244826672e-05,9.127948648918892e-05,-0.0006145937573760853,-0.0005145551295016128,2021-07-01
192,BWA,-5.017342438527682e-07,1.7856616238930415e-05,0.00011269182343328519,0.0002634495910584351,0.0011948677216641155,0.0016405552849110894,2021-07-01
193,GBX,-5.458441223720011e-08,4.958409786877305e-05,9.389137746299748e-05,0.0001565204794817511,-0.0011977069344151384,-0.00285582249006663,2021-07-01
194,HTH,-1.2159391553336297e-07,7.188552532029503e-05,0.00014142457501484316,0.00022691865687882385,0.002037908213839472,0.0032470826022142104,2021-07-01
195,AGCO,-1.9905851716727694e-07,7.055262579618709e-05,0.00015856281891355454,0.00024133763776691225,0.0011803930863234083,0.0012043337849219006,2021-07-01
196,ABG,-4.0186595469024054e-08,1.618977892313126e-05,5.098360545259318e-05,0.00015974397351396115,-0.003470695907579218,-0.0026997829404437675,2021-07-01
197,SAH,-3.050606166071424e-08,1.5036848496066507e-05,4.735288570732373e-05,0.00014836804994644817,-0.0032291132769032027,-0.004202459237059594,2021-07-01
198,LAD,-6.248744248484984e-08,3.0024059247964e-05,0.00012226495662247798,0.00017120310178250412,0.0008246995477573935,0.00110589293304169,2021-07-01
199,HY,-9.863612430592492e-08,2.942264707875878e-05,0.00013512648005329806,0.00015330642534935936,-0.00041814309069434136,-0.0001004776916372945,2021-07-01
200,LCII,-2.231032020674981e-07,4.118411858495064e-05,0.00010920393179744525,0.00021458946180206325,0.003580557657660779,0.003939020935600382,2021-07-01
201,LNN,-8.355405458174712e-07,0.00010276807530317597,0.0001375730779596303,0.00034119347139184044,0.00026857100726727007,-0.00010928597868258602,2021-07-01
202,OI,-2.644147618562368e-08,4.5328810908956984e-05,0.00017449443531496417,0.00012111011579980472,0.0008997330441693508,0.0012315688898196751,2021-07-01
203,TRN,-8.659443249954178e-08,7.647727974359936e-05,0.00012432961329807832,0.00020433300631698614,0.0024254420064402375,0.0038009513303852494,2021-07-01
204,JEF,-2.3067782241920477e-07,4.0468885020464255e-05,0.00016798913720429868,0.0002718656272207435,0.0006696301837279898,0.003451248423154573,2021-07-01
205,LAZ,-3.4182819693737775e-07,4.673050546262183e-05,0.00013349404061804623,0.0003139305214738116,-0.0035571743335188295,-0.00426077453469158,2021-07-01
206,MHK,-6.940999249699345e-08,3.159738334195665e-05,8.686350398027739e-05,0.00020016844915648907,-0.001214837538920132,-0.003001272270898681,2021-07-01
207,XPO,-8.635589832089119e-08,3.494769891181427e-05,0.00013279177441272876,0.00022139259498355003,-0.004141581544223457,-0.004919140742079131,2021-07-01
208,AMG,-1.0487524458522902e-07,1.1856832943993323e-05,0.00013584920718274156,0.00024159870778693845,-0.0001789658438943614,0.0009925145332545311,2021-07-01
209,BEN,-9.84800856028599e-08,1.1623675334445022e-05,0.00010587732072466634,0.0002368478120423799,-0.0008017963310280776,-0.0009217902556737627,2021-07-01
210,IVZ,-3.257685507976128e-08,1.552884977472297e-05,7.074420984335469e-05,0.00018787076028668902,-0.002541474431853317,-0.002997389683805391,2021-07-01
211,JHG,-1.906882210327299e-07,3.8246647122513046e-05,9.991436323477435e-05,0.00026923936369709816,-0.000520845740332167,-0.0011973014951210403,2021-07-01
212,OEC,-1.5534938831531215e-07,2.4135273041774878e-05,0.00010436667936395795,0.0001600841102914131,-0.00010381702891866522,0.0007412592732771271,2021-07-01
213,KRO,-7.197619475732538e-07,5.05054923041504e-06,0.0001529261532802771,0.0002722809589289898,0.0011764143397562613,0.002394423757701059,2021-07-01
214,TROX,9.086198035302996e-08,1.8565608209303097e-06,3.605840641761366e-05,0.00010008934426154601,-0.0009540550152253323,-0.0018635276879170022,2021-07-01
215,CC,-3.977768973660905e-08,4.2752465719224475e-06,5.059240804489875e-05,0.00014043218902078144,-0.0005940898894926867,0.00010723727588746609,2021-07-01
216,OLN,-1.4087725086944124e-08,7.068554194506071e-06,5.609511187981165e-05,0.00013262009510299385,0.0008742093133340056,0.0016279654936365228,2021-07-01
217,ASIX,-5.4753712923644526e-08,1.185303429030998e-05,5.585349783569266e-05,0.00013134756892904385,0.003011493860838873,0.0034108131374544835,2021-07-01
218,CSTM,-1.689148059775777e-07,1.0658110447859172e-05,0.00012229706407661443,0.00011377827279215527,-0.001156715105259472,-0.00016623880239258418,2021-07-01
219,RYI,-7.695229745706098e-08,7.557937378239844e-06,4.3218107235723683e-05,8.068306900874052e-05,-9.810882599121064e-06,0.0014857915567393837,2021-07-01
220,MT,1.773124324655538e-07,4.747789166951352e-06,8.046203100678769e-05,0.0001541567669315534,0.00361938835369766,0.0067485050415137336,2021-07-01
221,BHP,-2.4899720909215575e-06,1.0302267690816397e-05,0.00017459523858995936,0.00033450606659929827,0.001668054258804309,0.0040469568354827515,2021-07-01
222,FCX,1.832187683740802e-07,6.40222965607021e-06,9.355908638587262e-05,0.00012373503034533698,-0.0010786818564525783,-0.0007796582931606749,2021-07-01
223,AA,1.0514761278506987e-07,7.754848119507545e-06,4.720411048002369e-05,8.812446326219103e-05,0.001964947737410844,0.0020195974968442356,2021-07-01
224,MOS,1.2934271944497847e-07,1.455926934714984e-05,5.395218980988668e-05,0.00014853975919679112,0.0024337438820680414,0.003281025932074257,2021-07-01
225,NTR,-3.0928752942420986e-06,3.621846892500262e-05,0.0002351824332535724,0.000369515978056243,0.0005764812020279826,0.0010225417195075675,2021-07-01
226,BG,-2.8899520395028924e-06,5.76644844979806e-05,0.0002751691897537421,0.0003659383163723548,0.0017820317835171918,0.0023816489899455037,2021-07-01
227,MLM,-2.7168792016692048e-06,1.9947119263457346e-05,0.00012471358571350505,0.00034431111959343507,0.002096128612810456,0.0034477703196828745,2021-07-01
228,SUM,4.172170180276988e-07,7.403607161203981e-06,4.628890939552621e-05,0.00012779510850842956,0.000140419348972375,0.0006344590827886564,2021-07-01
229,GVA,-3.3011099948193036e-07,1.5227486799225355e-05,8.442414425401447e-05,0.0001580082331820303,0.0011719333217260603,0.0013727815183036407,2021-07-01
230,CX,-1.0023101444902081e-07,1.9915732541993033e-05,0.00013775701449892988,0.0001281613364395496,-0.001905474833661679,-0.0025070050800903537,2021-07-01
231,MGA,-1.5260641881257635e-07,4.3494478870024344e-05,0.00014012970000504564,0.00025991157284048,-0.0017894916080248898,-0.0017308977962028952,2021-07-01
232,MTW,-8.817333911460127e-09,1.614097066804389e-05,4.477645113344719e-05,9.645419792337411e-05,0.0003859018064813349,-0.0007740052816660388,2021-07-01
233,HPQ,-7.066699346419364e-06,0.00026405226561460895,0.0002506104178507288,0.0003149290610592865,0.0032970155079605793,0.0046956242722895215,2021-07-01
234,FNF,-9.991008840834858e-06,0.00012480438002910568,0.00021374286448520068,0.0004041093906017878,-0.0033407420887571477,-0.004145348153935417,2021-07-01
235,SPB           ,-7.707528064023722e-06,0.00011161074145171336,0.0005825386873596125,0.00036138914918007784,-0.0007872474394055554,-0.0013948470078858145,2021-07-01
236,SSD,-5.208987037697488e-06,0.00010284894607868905,0.00019890764744560585,0.00035848534529363393,0.004205794088350928,0.006730173173938988,2021-07-01
237,JELD,-4.1925944725047805e-08,7.6095977162498185e-06,8.371930627950736e-05,0.000136130840782217,-0.0011803615885097674,-0.0026749093138308797,2021-07-01
238,DOOR,-4.982785186484231e-07,1.167897618807039e-05,9.33970517516659e-05,0.00020892942140192887,0.0014824084690057953,0.0025732317519867715,2021-07-01
239,OC,-2.2170092777865995e-06,2.9022782306577155e-05,0.00013416842880104927,0.0002966408462499395,0.00211610939734113,0.002552027869064568,2021-07-01
240,WY,-2.825788812560693e-06,5.192846247302399e-05,0.00014148988790449476,0.00030709006423764015,-0.006297006584014966,-0.008815799522769912,2021-07-01
241,ASH,-1.6953969954455078e-05,0.00034318533476838524,0.00017549552817759995,0.00041254790079254085,0.00300378531924382,0.0056978996062183795,2021-07-01
242,KN,-1.973942112517805e-05,0.00015217783975052663,0.0002474331882089299,0.0004887019967122572,0.0005062941331109427,0.000280214641632846,2021-07-01
243,SNX,-5.806985761875109e-06,9.454779566852354e-05,0.000153729758279791,0.00030362959944560565,-0.0014383426926391472,-0.0031775860049521316,2021-07-01
244,CLS,-1.5357651647130588e-06,6.934947265797888e-05,0.000202490453375745,0.000230922583479369,-0.001858141807205551,-0.0014537365766959763,2021-07-01
245,JBL,-3.8302440587911564e-06,9.544379080452782e-05,0.00016605715900672402,0.0003178124635257805,-0.002008846581078549,-0.0024407723053532183,2021-07-01
246,NSP,5.37820698280037e-06,0.00012627960715022325,0.00015644355372081235,0.00025101691897572235,-0.0019503379434911978,-0.0029742200530361853,2021-07-01
247,RMAX,4.3053189008879595e-06,0.00011497012400598574,0.00014366828003344054,0.00022853607920958957,2.339525064923473e-06,-0.001293382464603209,2021-07-01
248,APTV,4.080815394361828e-06,0.00011196879095201029,8.873029912811819e-05,0.0002341469088644271,-0.00398103616324679,-0.005194971069935013,2021-07-01
249,BYD,8.97778138164844e-07,7.187674602022829e-05,5.695913227699389e-05,0.00015030722183186882,-0.0003555054398324008,0.0007742472856930354,2021-07-01
250,HCA,8.042986581176236e-06,0.0002637671219929557,0.0005053371695657383,0.0003784470120110876,0.0007746909541791453,-9.757401159483747e-05,2021-07-01
251,VVV,8.62576338059633e-06,0.000272721537756187,0.0008191930001327672,0.0003912946022046461,0.0012517198755281934,0.0016131287350313061,2021-07-01
252,AVY,-4.574935911504376e-06,0.0001288068599467588,0.00025120583738297,0.00047540849731111815,-0.0006758560870692053,-0.001156412489360441,2021-07-01
253,GLW,-2.7318429752294277e-06,0.000105034446608674,0.00024549744409717674,0.0003876677721106971,0.0012059885538571664,0.0014872345373132339,2021-07-01
254,GGG,4.708189536646109e-05,6.476900472963316e-05,0.0002560173422595836,0.0007167177212082118,-0.0022471738975319696,-0.003522943055622158,2021-07-01
255,IEX,5.001894454014407e-05,6.585277101728597e-05,0.0004390733420370915,0.000728710409798244,0.0007348428826290236,0.0008223328570406515,2021-07-01
256,ROK,1.6917540501393555e-05,7.955858427856706e-05,0.0004113246205297636,0.0005101567327517939,0.002339516373429383,0.0019099052676438133,2021-07-01
257,FTV,2.1444748912482383e-05,0.00014004107045437544,0.00032490703942439976,0.0005424241548331252,0.001313496279298513,0.001990273775660561,2021-07-01
258,ECL,2.100590898617672e-05,8.634549448094244e-05,0.0002713377686621133,0.0005391415430637323,-6.328451935887665e-05,0.0009489213119831285,2021-07-01
259,PPG,1.64731882659321e-05,7.898095230350667e-05,0.0002995532543225464,0.0004931573182078887,-3.105913149824005e-05,-0.0012989536513859036,2021-07-01
260,ALLE,2.146445574210336e-05,0.00013721937952488505,0.00026427306303091413,0.0005251041449010061,0.0023624113583959362,0.002778226571524825,2021-07-01
261,TNET,1.4254071599532155e-06,0.00010656426454886695,0.00020238463854497848,0.0002799766465493055,-0.0012721426830931955,-0.0015864483328286128,2021-07-01
262,CNS,2.9373467779014366e-06,8.547934383056115e-05,0.000267327228541843,0.00034414630427916174,-0.0049429976290623215,-0.007174344653701528,2021-07-01
263,MKL,6.756027749592835e-06,0.00012408290176958164,0.00021130489368723332,0.0004995671486772505,-0.004295326152730498,-0.007254730624710449,2021-07-01
264,APAM,9.24810609313518e-07,8.742786024172012e-05,0.00016755305526045696,0.0002191409939961357,-0.0011331237258481635,-0.001065681318015978,2021-07-01
265,UBS,7.796045237158767e-06,0.00020431956204079214,0.00029506075902839784,0.0005121341388738236,0.0001594945127406196,-0.0006170130177126813,2021-07-01
266,APH,-0.00014479724360010054,0.00013137072223801815,0.0002337669091305801,0.0006367732846017575,0.0016052338226295317,0.0025582588463964407,2021-07-01
267,BLK,-9.263558329912218e-05,0.00011346963006400388,0.0005709455501937146,0.000550004048143171,-0.0013175442436056928,-0.0026446606412707727,2021-07-01
268,FMC,-4.561018026665978e-05,0.00015580623725579049,0.0005687935965294547,0.0004529850804483685,0.000841479725603443,0.0021725880678136957,2021-07-01
269,USA,-0.00042826974770181014,0.00012126486525099491,0.0002042891808727322,0.0005436772108434692,-0.005148771234963614,-0.006670750610152991,2021-07-01
270,ADX,0.0004735162006780379,5.4316597835949493e-05,0.0006510421604558244,0.001384430430663053,0.0006706802588933418,-8.53565993324293e-05,2021-07-01
271,GRX,0.000651320542855929,5.8374425098735313e-05,0.0005590690254681127,0.0014878570031803902,-0.002123338338252877,-0.00361068644457326,2021-07-01
272,JCE,0.00018082378860517876,4.6333348584824754e-05,0.0003183373468055544,0.0011915477451013212,-0.004343277685757952,-0.005044188143608549,2021-07-01
273,AGD,0.00019219719409809411,2.723992854463771e-05,0.0006153313655222763,0.0012485239863343988,-0.00031806221209826357,-0.0008572084006667365,2021-07-01
274,ETG,5.156658161313663e-05,2.11602744922946e-05,0.00025911250121856674,0.000969867091162046,-0.0020086913835608896,-0.0016154202647122634,2021-07-01
275,SOR,0.0010514612007487445,0.00019201684506761784,0.0022296906193361495,0.0015035829857172763,0.007464944959123127,0.010521893024955022,2021-07-01
276,G,-0.0001637455867678773,0.00018504602509729833,0.0007422114154220112,0.0005151414158706305,-0.0011201503853743083,-0.00031434073232072265,2021-07-01
277,CEM,-7.263192783223486e-07,1.4882687050373105e-05,6.818342370908607e-05,0.0001575153663671092,-0.002024630167502011,0.0013499055607817127,2021-07-01
278,OKE,-1.6528221157729563e-06,1.7761915946667106e-05,0.00013378757851305098,0.00018798854590246374,-0.0017810149779388402,-0.0013741060270862691,2021-07-01
279,TRGP,9.448551094114588e-08,2.0353064682290977e-05,9.380927005955455e-05,0.00012146086755149583,-0.0004703307977957354,1.321584642829606e-05,2021-07-01
280,KMI,5.417187656725291e-06,6.402963802622939e-05,0.00019392467209387285,0.00038394403785748434,0.0004516702835905832,-0.0001328020982538527,2021-07-01
281,WMB,4.132655353199799e-06,6.057910257436588e-05,0.00018347413736217875,0.0003632534240261807,5.69959383856283e-05,0.0005211607256294631,2021-07-01
282,EPD,8.589167810750036e-06,0.00025173086472327175,0.00022547419143012178,0.0004772786093017829,0.00014312803549479904,-0.0009810380101415567,2021-07-01
283,FIF,2.1897399527425057e-05,0.00035472991693561205,0.0002777885832388073,0.0006438321057896826,-0.0014269669794281462,-0.0010847546178290792,2021-07-01
284,FPL,3.8291019600624854e-06,0.00022427728091186595,0.00017563127648031953,0.00040706156192763616,-0.002720883988082008,-0.002180861660872076,2021-07-01
285,BCX,2.4471656268793086e-05,0.0005843385165866043,0.0003556272758720645,0.000605136495704784,0.0017145310615330213,0.0017144709578030045,2021-07-01
286,BGR,2.0395236593129114e-06,0.00010980217728751806,0.00014451043217314217,0.0003578166869493112,-0.0013524868881684292,-0.0023576084906263527,2021-07-01
287,NDP,2.701110837448673e-07,7.681001416282046e-05,0.00020634300616607598,0.00025030382339598985,-0.003736220497166867,-0.0036510638417493004,2021-07-01
288,E,2.8293594021369325e-06,0.0002049263657068604,0.000280548563657735,0.0003774538981030071,0.0001003311291580567,0.00036530953605039355,2021-07-01
289,AROC,-1.4002885438530836e-05,0.0002511397830486482,7.738975247874781e-05,0.00015151944288078654,0.00033211027213397864,-0.00029067504121542854,2021-07-01
290,MGY,-2.3635451380858688e-08,4.604209214902213e-05,5.752911119421666e-05,9.200174186828828e-05,0.004215822530813851,0.004531219597670667,2021-07-01
291,NOV,-2.7110401152200837e-08,4.804261915185929e-05,3.091450266186739e-05,9.599921375379368e-05,0.0004957853851384279,-0.0003313513997742627,2021-07-01
292,CF,-1.3719618125084052e-06,0.0001887284587750032,8.107546686915039e-05,0.00022321485685654522,-0.0015398533361752566,-0.0016785553496184973,2021-07-01
293,WTTR,-2.829881747187926e-09,2.2722760651826747e-05,3.688108450933617e-05,4.95490766007379e-05,-0.00014532748077798486,0.000584769823795977,2021-07-01
294,HLX,-6.606741974340462e-09,1.6350082884841298e-05,2.3405009667818697e-05,6.073050317844313e-05,-0.001123051096726684,-0.00010883798682052337,2021-07-01
295,PUMP,-5.511949373767618e-09,1.549671340124669e-05,3.817106757360689e-05,5.7560760339776686e-05,0.0002796251754163702,-0.0005223713095764643,2021-07-01
296,MRC,-1.4172047499291523e-08,3.2579372401181636e-05,2.827429597547177e-05,7.110380395072014e-05,-0.0005558336155964752,-0.00041350879344450464,2021-07-01
297,DNOW,-1.348163129070664e-07,5.06131784330857e-05,3.557200304302709e-05,0.00011046221125175562,0.000739881044635189,0.0008837515408787231,2021-07-01
298,THR,-5.071446483454189e-07,0.00033153059497304665,0.00015185070715614194,0.0001386059066995584,0.0014703636953647412,0.0004043361621368225,2021-07-01
299,FDEU,0.00011869585311073154,0.00031832399783191185,0.00039851886273575913,0.0011940439684223981,-0.0013798293738001154,-5.850338078766051e-05,2021-07-01
300,SCD,1.2777202633580915e-05,0.00011687928231308361,0.00022841207134184966,0.0007474306804969529,-0.004780808393130675,-0.0054884300535537325,2021-07-01
301,MGU,1.265607009171804e-05,0.00011655112632510885,0.0005699292519419309,0.0007453321575718708,-0.0015619674438175938,0.0005304411727208761,2021-07-01
302,GGZ,3.394211151087672e-05,0.00024164842605487661,0.0003921787712242861,0.0009064313327767132,-0.004307276316780109,-0.006557077125576389,2021-07-01
303,NNN,1.5449380072572839e-06,2.4947925181889724e-05,0.00012688072168036204,0.0003468931603826114,0.0017578542599952732,0.004184829154962575,2021-07-01
304,GTY,4.267455485776481e-06,1.876877379360888e-05,0.00016647155213068068,0.00045283149911655294,-0.002574044246414135,-0.0033181161219161086,2021-07-01
305,GNL,1.708499971536697e-06,1.494535730939423e-05,0.00013255936993015888,0.0003605844808865489,-0.002161750712648663,-0.0011507062504275674,2021-07-01
306,UHT,-9.95772680380941e-07,1.4689173392262995e-05,7.58746587094949e-05,0.0002002733689546823,-0.0036530876938334752,-0.003976274448550309,2021-07-01
307,LTC,9.0508445492784e-06,1.9833794455906133e-05,0.00035753410601295,0.00047268770326178866,-0.0029661266795871976,-0.004395001766452067,2021-07-01
308,VTR,-7.449752526292266e-07,1.0745615639345573e-05,0.00016335883331749382,0.0002560942329007393,0.0011293419697646753,0.0018450314202843386,2021-07-01
309,OLP,3.2412913821896837e-07,6.121600830543976e-05,0.00010411871263247854,0.00026637128159081154,-0.0013256635507707486,-0.0007988361777575524,2021-07-01
310,UGI,8.539613363720475e-06,0.00018050048188213237,0.00022414390186871951,0.0004644555046549183,-0.001555506012857168,-0.001524844978127383,2021-07-01
311,HHC,-2.1224343055522443e-06,0.00012243713055016162,0.00021387349093338377,0.0003010400672260442,-0.0017158992188113728,-0.0012846571950888962,2021-07-01
312,MAIN,-6.076812037395212e-06,0.00018090223277257366,0.0002715212120888197,0.00044479007365241753,-0.0015576436176196287,-0.0028035614824828982,2021-07-01
313,ARI,-1.8740330111449477e-07,4.018489879765431e-05,6.64668608450303e-05,0.00017022334202636329,-0.003336765730580434,-0.00395666188981918,2021-07-01
314,ACRE,-1.4587266997970977e-07,3.721178486130287e-05,7.046388114078899e-05,0.00015762922320030219,0.0002230016890559189,0.001460461725597305,2021-07-01
315,ARR,-1.9618864168859604e-05,0.00016383797532091473,0.00014946254254025879,0.00041024052051618113,-0.001227829241875376,-0.0018679010444930947,2021-07-01
316,FLT,3.4368922646327485e-07,6.772682210628861e-05,0.00026073767644805814,0.00038491286361878315,0.0030555822713779486,0.0029342990644996613,2021-07-01
317,GPN,5.962106733919905e-07,7.983989637439166e-05,0.00039400288009530367,0.0004537552802383815,-0.00098464066360164,-0.002406625563801049,2021-07-01
318,PUK,2.0957900276887153e-07,8.588107906969339e-05,0.0004644270864828235,0.00028804776670183374,-0.002163827019696221,-0.0019843215794046096,2021-07-01
319,BUD,4.753311770349589e-07,0.00012176143990764688,0.0007167816586365652,0.00038641113484897543,-0.0008067027498448716,-0.0007522858132350161,2021-07-01
320,USPH,6.149060397853874e-08,5.40252543911278e-05,0.00012720226942740314,0.00017144967959983217,0.0021464572388645983,0.004556163293135113,2021-07-01
321,TDY,5.260569126682436e-07,0.0001215405555333008,0.0004423694111907666,0.0004159330245170423,-0.0013932847394825293,-0.0016262410271152075,2021-07-01
322,HEI,2.747216330247076e-07,3.803493455942748e-05,0.0001836089964987145,0.00036741729451159944,0.003910844254384706,0.005016644721253494,2021-07-01
323,TDG,1.1158218856708462e-07,3.105229933132643e-05,9.570891824987658e-05,0.0002999650700293473,0.007276579373109385,0.011562390509332323,2021-07-01
324,CAE,7.277238795590056e-08,3.971076428955478e-05,0.0003215617625472964,0.00021787452157810485,-0.0015354765694181463,-0.0016009187576379216,2021-07-01
325,CBRE,2.564791449238541e-07,9.440206491740745e-05,0.00021089363094892145,0.00031133080770428395,0.00183457760417702,0.0015121491556717881,2021-07-01
326,LW,3.249606633484604e-07,0.00010451353683072539,0.0002414158378285968,0.00034467767062096544,0.0013850745585567907,0.0017169287492385748,2021-07-01
327,THC,-1.0430586534848855e-07,6.474016471451773e-05,7.269167970794349e-05,0.00012439807682135682,0.002082955416084381,0.0036373401813694067,2021-07-01
328,ESNT,-3.2138595751399033e-07,6.85318243278437e-05,0.00010917503050685999,0.00020847913995328764,-2.1078933578436915e-05,0.0016888464985796115,2021-07-01
329,OMF,-2.1320250604227884e-07,5.786975006167302e-05,6.790943821049058e-05,0.00017604428074837622,-0.0025582035369186955,-0.0028267633481628175,2021-07-01
330,ACCO,6.333413912028527e-08,3.895698014022004e-05,9.562447784222692e-05,0.0001993000962799933,0.001340220664142047,0.003188174733492213,2021-07-01
331,CRS,8.596411046339156e-09,1.9899666109163565e-05,4.2237918705373104e-05,0.00010180474352018439,-0.000794078500999893,-0.0010060542177970572,2021-07-01
332,DLX,1.317283672065422e-08,3.164460344627308e-05,5.6340302417026973e-05,0.00016211367500682027,0.004557937586109993,0.005945036917866875,2021-07-01
333,MAN,-2.7056559776190734e-07,3.931717537245546e-05,0.00021730088253241506,0.00034217311941998646,-0.0010449641763887558,-0.003975932507696503,2021-07-01
334,RHI,-3.5082667307142e-07,4.250013988541014e-05,0.00015227193780776612,0.0003698741148776571,0.0032005067273253108,0.0034978401124090997,2021-07-01
335,BCO,9.059671082606538e-09,6.96755566829172e-05,8.734467357792739e-05,0.00022639048868355692,0.0020949166022776024,0.003332985341004335,2021-07-01
336,AWI,-2.222778649394923e-07,9.368720549119342e-05,0.00013776220306386267,0.00030440936885615537,0.0012977445773556995,0.0007527015192230857,2021-07-01
337,NYCB,-2.42080776122109e-07,5.882974644579704e-05,0.0001831435905483422,0.0003197747909145829,0.0028965978624419086,0.0008430776882211048,2021-07-01
338,AGO,-5.573970043291835e-08,2.278601600194661e-05,7.81342773915017e-05,0.00020251786991701306,0.001352108304948431,0.0018652096243808665,2021-07-01
339,RGA,-8.150722938817254e-08,2.613757730121837e-05,0.0001572617808092154,0.00023230592304428318,-0.0029179536292726436,-0.004438493018998438,2021-07-01
340,AEG,-6.530150746838427e-08,5.548058989188431e-05,9.925927294131764e-05,0.00023237970796107361,0.0003505374893342259,0.001005437630482593,2021-07-01
341,BCS,-4.4779693417517064e-08,4.949133671402533e-05,6.54852444280894e-05,0.00020729380121264175,0.0012295834548663172,0.0013808921876796844,2021-07-01
342,BBVA,-8.761346230882422e-08,9.791246284481181e-05,0.00010341135430739251,0.00024210030561092267,0.0003343055938270265,-0.000830608893261784,2021-07-01
343,GE,-1.1261189861488093e-07,0.00016207654656689738,0.0002220592130569553,0.0002376367128597316,0.0007781357504720466,-0.0010263552645585765,2021-07-01
344,TGI,1.3478662249995628e-08,7.2195406627924675e-06,5.129271941665356e-05,6.211459509909101e-05,-0.0028486453952017124,-0.003929032791323945,2021-07-01
345,BA,-3.976409672410706e-08,1.1940616456248572e-05,5.872981018288388e-05,0.00017714513824009924,0.0003629025562458928,0.0024925226079876225,2021-07-01
346,HXL,-3.5339685044092836e-08,1.1558974631428584e-05,6.234436790920173e-05,0.00017148328702298212,-0.00021908310563378743,-0.0012682445223406093,2021-07-01
347,SCS,-3.752233051775314e-08,3.3321238725078756e-05,9.348848539409541e-05,0.0001756793164005491,0.003087192088812447,0.0041793148409189325,2021-07-01
348,DRI,-4.411607889514706e-08,1.3079288433868928e-05,8.452671459950313e-05,0.0002191218933304927,0.0023063958142227666,0.002586487980527311,2021-07-01
349,DIN,-4.75183020651968e-10,6.41153223648081e-06,4.27414803401932e-05,0.0001074146418523155,0.001701051799725229,0.003176234460072774,2021-07-01
350,ARMK,-4.512335288471145e-08,1.3431022102644548e-05,6.225948643347735e-05,0.00022550635510482504,0.003819706980174889,0.004523612697949927,2021-07-01
351,PFGC,-5.256346270541918e-09,7.65787140541546e-06,3.5498053478811695e-05,0.0001285753723952759,-0.00026523849960902646,-0.0018704894325304335,2021-07-01
352,LYV,-2.6915948208439857e-08,7.203456307260282e-06,8.86501081680832e-05,0.00019588771721345223,0.0049232248414134054,0.006974582440923145,2021-07-01
353,SIX,-8.122330644206449e-09,4.677527060720943e-06,4.624427915460579e-05,0.00012719867505898196,-0.000979139659123078,-0.001668486854717898,2021-07-01
354,HGV,-4.345215086938887e-08,4.064932533619728e-06,6.881719196823965e-05,0.00021376904543610024,9.775725356040746e-05,0.0013268780017302608,2021-07-01
355,H,-3.9066229663517936e-08,1.4642928769877392e-06,6.124177179802988e-05,0.00022693347412219102,0.004946694151776856,0.006713764497746045,2021-07-01
356,IHG,-1.5370023629217117e-07,2.008068481575673e-06,0.00016376016662028638,0.0003112068384411433,4.934304933384728e-05,0.0007113202135061907,2021-07-01
357,MGM,8.246282431855308e-09,1.6749946179602242e-06,4.7692527662260996e-05,0.00014947501927392386,-0.0003650835957221679,2.8624812086139195e-05,2021-07-01
358,AER,-7.054270514474546e-10,2.3331495942291244e-06,3.1775714900571074e-05,0.00011774599531319961,0.0014778245105270137,0.003190754118738756,2021-07-01
359,ALK,-3.84616769169086e-09,3.6472083501061654e-06,0.0001084198877699415,0.00018406199857911467,0.0017275875120919143,0.002287878763343983,2021-07-01
360,ENVA,6.856337635108554e-10,1.3993120850858192e-05,5.18865854771238e-05,0.00013264078313460502,0.0010764259874216035,0.0010737295686058712,2021-07-01
361,ALEX,-5.837415865704245e-08,1.85535057534812e-05,7.443500848490809e-05,0.00024783302740869894,-0.004010594782365818,-0.006986682655350289,2021-07-01
362,AHH,-6.465572216755936e-08,1.9116603574654528e-05,0.00016619014871623088,0.0002553547453849604,-0.0017245729140000841,-0.002004680790413594,2021-07-01
363,WSR,-2.4728238060906064e-08,9.112945675148666e-06,6.68275817633971e-05,0.00022250392980317953,-0.0009859931056400049,-0.0015963023062252899,2021-07-01
364,SPG,7.773141214350906e-10,3.852319403650406e-06,7.616727530711983e-05,0.0001693557853168055,0.00044200141039285455,0.0009111650176085396,2021-07-01
365,UBA,-2.4278190758271324e-08,2.7761924349739304e-06,6.620059784314483e-05,0.00022137179137446988,0.00020468120790103397,0.0012508691294384122,2021-07-01
366,AKR,-5.895707612735911e-10,1.1814229858843777e-06,8.816786586846529e-05,0.00016715422026101866,0.0028899569459916175,0.0038192257906249907,2021-07-01
367,AAT,-5.0679706469926157e-08,1.8496565122593978e-06,7.826050529309915e-05,0.0002616995739472545,0.00029588156832835536,-0.00043277594177355865,2021-07-01
368,CUZ,-2.3299865235505325e-07,2.510637517667357e-05,0.0001255596134911157,0.00034114540758183845,-0.0027202114593657192,-0.0042503733291630276,2021-07-01
369,WEX,-6.129625654351028e-08,2.6969269436006704e-05,0.0001223532049642573,0.00019779699862093104,-0.005391098932035947,-0.006590252147556187,2021-07-01
370,PEB,-8.544842622363307e-09,2.3248690119007487e-06,3.803218950858379e-05,0.0001508045333957631,-0.003760725569925889,-0.005922338990222458,2021-07-01
371,RHP,-2.0325164804103717e-09,1.7775952208843354e-06,2.9079418222772566e-05,0.00011530517051919167,-0.0007968464744137175,-0.003183749434852021,2021-07-01
372,APLE,-7.605029484992706e-08,6.067338267371636e-06,5.610401095134679e-05,0.00022069000526789357,0.0019769861563230288,0.0029849720213733642,2021-07-01
373,EPR,1.4598300523463916e-09,4.671703721433116e-06,3.462230840493042e-05,9.6179515423887e-05,-0.005905556086296598,-0.006704721723603961,2021-07-01
374,VVI,-7.418177859257575e-11,7.643444066490944e-06,3.1284128381206654e-05,9.436147042792533e-05,-0.0005536336936784606,-0.0016738643630240587,2021-07-01
375,OUT,9.299441811108412e-08,3.587865069517772e-05,7.405673470642584e-05,0.0001543487053756744,-0.005009834249046067,-0.006323417773281093,2021-07-01
376,TJX,-1.110396481543172e-06,0.0001948241798983822,0.000292412550326506,0.0003974375203307286,0.0012140787754147831,0.0012107759751970755,2021-07-01
377,CAL,3.3012997450104654e-08,9.876031822869328e-06,2.04747570893554e-05,6.234745405035568e-05,0.004687332871072146,0.004770894010492188,2021-07-01
378,GCO,6.066610286797e-08,1.1286001597891482e-05,6.099532622193789e-05,7.124860254169821e-05,-0.0044820997853301245,-0.0046306552963079756,2021-07-01
379,GES,7.155480804904401e-08,1.9883368619069302e-05,2.4714082680878834e-05,7.074596163654363e-05,-0.001583840743660618,-0.0015758601436948,2021-07-01
380,KSS,-1.0962518112319827e-08,2.9984648274634836e-05,3.163717139307598e-05,0.00010010002750320587,-0.002358514903076238,-0.001992273745534676,2021-07-01
381,OXM,-3.120176854383805e-08,4.2660997354800576e-05,6.957323235875269e-05,0.00014241844591327747,0.0013558820595003728,0.002477497285258723,2021-07-01
382,BUI,-0.0003165709287653427,0.0006123536035484165,0.0008660243972876968,0.0007760677965688084,0.0002411940712429013,9.570494374398023e-05,2021-07-01
383,UTF,-0.00018083564557300652,0.00032404987157150814,0.00030496547524120043,0.0006551192955412484,-0.0036533143830104727,-0.003157844952035495,2021-07-01
384,DPG,-5.974833763347334e-05,0.00021435273607677555,0.0003280928838606219,0.00043334877059183894,-0.011437402023213966,-0.015174169042149674,2021-07-01
385,JRS,-0.00011343481397236038,0.00030088947497983035,0.00019258491877406004,0.0006301938249021637,-0.006605167214986435,-0.007055198794361321,2021-07-01
386,GGT,2.7629810233206153e-05,0.0001168294531136807,0.0002392260168802178,0.0004144521936776758,-0.006206189969192241,-0.0077859972674323135,2021-07-01
387,RNP,-0.0001709791337349109,6.909925258627724e-05,0.0002527410040425847,0.0007505787782449487,-0.004036095869792402,-0.005119706834548439,2021-07-01
388,RFI,-6.541322360406001e-05,5.420595723837813e-05,0.0003789424837383513,0.0005888029122569668,-0.0035238807152236933,-0.003598552824808352,2021-07-01
389,AWP,-0.00016667369614243024,0.0001154126402633798,0.0002440774373803015,0.0007248501106500197,-0.002263754975773228,-0.0022883561313430663,2021-07-01
390,BWG,-0.006916947844687706,0.0016398683776420548,0.0009310487972463513,0.0020058444776220328,0.0014981955375538173,0.0006449900326610143,2021-07-01
391,MFD,-6.070259638486158e-05,0.0005832800272734045,0.0006806367236761608,0.0008040200889479292,0.0010196673545514714,0.0032899934665318958,2021-07-01
392,HEQ,-0.00036218604159302933,0.0002944993001371681,0.0004540214154392643,0.0010977827620039175,-0.0017950497285999412,-0.002937502351633698,2021-07-01
393,HIE,-1.5640738587154702e-05,0.00013710450221174984,0.0009850981787976533,0.0005110740808249252,-0.00435348253934188,-0.004112575238791308,2021-07-01
394,SPE,-0.0005730088344930685,0.0001249500717720778,0.0005040974504866302,0.0013529184272672418,-0.000734478469338857,-0.0020464620059767696,2021-07-01
395,FOF,-0.0002727721465155898,6.183753428364925e-05,0.00040300654846152383,0.001081606314804056,-0.002883630864031393,-0.002571147778726955,2021-07-01
396,DDF,-4.592789213763226e-05,3.525804878977789e-05,0.0003572170087626246,0.0006167019539260123,-0.007769437736061294,-0.00848344627905926,2021-07-01
397,EOD,-0.0002998491991188739,0.00016509067488979965,0.00038206707002496303,0.0010653799168233917,-0.001199530086136813,-0.0011294685358262668,2021-07-01
398,LGI,-0.0005427211340119565,0.00031808823421146994,0.0004388014036701996,0.001223581511260838,0.0002828746805427785,0.0009573458797269847,2021-07-01
399,ACV,0.0005754959540636279,4.996432884763268e-05,0.0004259607992865985,0.0005925686241108658,-0.0048356789657175835,-0.004763865924351592,2021-07-01
400,STK,0.0004965646393442795,4.814892317759895e-05,0.00025440479496628514,0.0005710382150189016,-0.0030596218748704758,-0.0031625290070135385,2021-07-01
401,AVK,0.0018795851550721606,0.0001145871699423315,0.00036177032777802654,0.0007771460756146881,-0.0034896737564542655,-0.004599980946208744,2021-07-01
402,BGY,-0.002386757985675063,0.00014680088470362453,0.0005738565999385975,0.0017193916674162575,-0.0013201493575135863,-0.0013440497471991848,2021-07-01
403,DEX,-0.0019844828361972426,0.00013816632829839986,0.0005036024465067239,0.001618260231015504,-0.0006103438271037764,-0.0007958269730062798,2021-07-01
404,IGA,-0.0015158370426620914,0.00013112930600336044,0.0008073176077405049,0.0015952567003063454,0.00031390078363261603,0.0009391420070203591,2021-07-01
405,IGD,-0.0016032798321018859,0.000133089366557763,0.0006696287693323754,0.0016191018637386648,0.0010427540086150365,0.001772108996072735,2021-07-01
406,ETW,-9.55561735282965e-05,4.3940229151643207e-05,0.0003150914757479489,0.0010218767551419046,-0.002284671610575969,-0.00226021720367,2021-07-01
407,ETY,-0.00019975009945863434,5.122561832282483e-05,0.0006168999530444791,0.0011913062276305488,-0.0027724588765275504,-0.003625768706433018,2021-07-01
408,BXMX,-0.0011222294220952249,3.643097860586017e-05,0.0004298697405812884,0.0014673816724806248,-0.001756262012482063,-0.0014885333952599133,2021-07-01
409,SPXX,-0.00037656914953289864,2.7858534128211868e-05,0.0003287186152266319,0.0011220972909944953,-0.002124294012191881,-0.002680711589174897,2021-07-01
410,EOS,-0.00044508890007529913,5.111785847622059e-05,0.0005393990871829329,0.0011887813172839262,-0.00012174438280637051,0.0016286611872109063,2021-07-01
411,ETV,-0.0007482534641385884,5.720873001541614e-05,0.00043359908263819566,0.001319088101455575,0.0005784149219587731,0.0025913827081563523,2021-07-01
412,ETB,-0.0016570585521124147,6.82121376618597e-05,0.0004849659974054832,0.001572798751875148,0.0005197878394732682,0.0006200887761322615,2021-07-01
413,FFA,0.0004496039644880941,8.410453637191225e-05,0.0003413789303277568,0.0010969762964577765,-0.00162654151099794,-0.0019155659799392824,2021-07-01
414,EXD,-0.0008533087994219593,0.0004911307512890328,0.0007332787513510634,0.0012240815675995825,0.0009946189580017275,0.002400516576469023,2021-07-01
415,THQ,-0.0006539502332059852,0.00044126226593205577,0.0010023634168619695,0.0010997906459471096,-0.0035581024720709865,-0.004818935542190206,2021-07-01
416,EVF,-0.030598744040563865,0.001177832096461181,0.000983093389064197,0.0029528623138081423,0.002743871040673815,0.00328100016368639,2021-07-01
417,EFT,-0.007124691777729508,0.00048535333096614875,0.0007074678938821399,0.0021249815178417107,0.0018375127025954362,0.0020520683188151494,2021-07-01
418,EFR,-0.014697328402541962,0.0005790328516678838,0.0021396750635001927,0.00253513065536837,0.0026172386478991922,0.002233612598263032,2021-07-01
419,JFR,-0.003455354854077509,0.0004472992593024308,0.001512531123192214,0.0019272395688121789,0.00010877546358065955,-0.00032117317035914027,2021-07-01
420,NSL,-0.002531710465182435,0.0004167213579272973,0.0009758357583958319,0.00179549121413505,0.0019247430073142848,0.002560084446410313,2021-07-01
421,KIO,-0.0036010613372060014,0.0007373881659859597,0.0008455516285614939,0.0017943747319931515,-0.00017922764096160309,0.0002083777947763353,2021-07-01
422,JPI,-0.00273860689949204,0.0004535474551640066,0.0005924127695909793,0.0018017255431259434,-0.0006807529565258587,-0.0015987516081253548,2021-07-01
423,HIX,-0.0022997233057826943,0.00042686269263349284,0.0006403612122220084,0.0016957198369620954,-0.0007421056913795186,-0.0016923316115552234,2021-07-01
424,PHT,0.004179349055990056,0.00030814208903530416,0.0008233390391153298,0.001218975986029438,-0.00334081086431428,-0.005632652929702219,2021-07-01
425,JGH,-0.0003421804625186241,8.64155603139536e-05,0.0011115132428908517,0.0019583948942843796,-0.00027368559318643163,-0.0005267647107511817,2021-07-01
426,HYT,-0.0001443823304656905,4.136324450079777e-05,0.0004558753817291379,0.0016251569871812645,-0.0009289734055991165,-0.0012597394923768263,2021-07-01
427,DSU,-0.00021560963381587442,4.5964620945209e-05,0.0009854137208569309,0.0018059445237861833,2.1096630226609532e-05,-0.0001635304663437605,2021-07-01
428,IVH,-0.008714629456550658,5.812853322777645e-05,0.0007074187202564011,0.0023672360580054333,0.0013751505033041097,0.0015543799294974012,2021-07-01
429,FSD,-0.012388081677754485,2.127837108592139e-05,0.0008967935928024705,0.002676931986293991,0.0004214303657200372,-0.0011216936179984061,2021-07-01
430,GHY,-0.005260267652204395,1.7332098715212565e-05,0.0006116471169847207,0.0021804699830174253,-0.0005530476621215817,-0.0013219493933920533,2021-07-01
431,BGH,-0.0032351459632466353,2.7856128960873033e-05,0.0005994840223552078,0.0020060540572110225,-0.0004102980122412348,-0.000911835111727683,2021-07-01
432,HIO,-0.004676741175626221,9.08862170140094e-05,0.0006952132850771066,0.0020752140682714997,0.001029036467307084,0.0006963751998867525,2021-07-01
433,AWF,-0.005640238978759124,0.0001742168056853954,0.001026056374894355,0.0021359433909135584,0.0018048166045741285,0.0026885147829371894,2021-07-01
434,VLT,-0.004644958735945305,0.00016521462700209427,0.0009402067662805417,0.0020255743367527186,0.0008817201876583696,0.0007345235915013654,2021-07-01
435,JHI,-0.008649649257489405,0.0014252472800877802,0.0007956809697195667,0.0019249927031599805,0.002079511967330045,0.0021788443468558193,2021-07-01
436,ZTR,0.00022747444473104913,0.00024387734289458947,0.00039592995013456087,0.0008414205228629462,-0.003706379024030371,-0.003994522714351968,2021-07-01
437,PDI,0.0010866045572359348,0.00011189095887599828,0.0006523128308128667,0.0011769332702740573,0.0027218560583533824,0.0051298868542312935,2021-07-01
438,PCN,0.00016799732005802308,4.4719094788098794e-05,0.00046115377053874073,0.0008320351672111659,-0.0016207359217538814,-0.0010225357532957099,2021-07-01
439,PFL,0.000830860321517605,6.092410397393109e-05,0.001056924414978972,0.001133542556649218,0.0006865740744006675,0.0016221528032661237,2021-07-01
440,PHK,0.0006359749563045755,0.00016697288364413458,0.0006858476497221695,0.0010045988807546192,-0.00139805353216122,-0.0012201390156865214,2021-07-01
441,FT,0.01009664009890118,0.00023209649586409002,0.0008694539635851812,0.001916189056875412,0.003106336245976483,0.003628517200195415,2021-07-01
442,DFP,0.0008534751697045956,8.024440913233889e-05,0.0004417143879746026,0.0011696895996574257,-0.0001956691630372323,0.00017179795664718785,2021-07-01
443,FFC,0.0003186663711279009,6.473712195455007e-05,0.00031027373124161827,0.0009436462811647165,-0.001092886493559437,-0.001161168266338567,2021-07-01
444,HPF,0.00014481879574130177,3.691544981378874e-05,0.0003957889208731086,0.0009575329983584015,-0.0032752235557512244,-0.003043317398217129,2021-07-01
445,HTD,0.00016049648623064634,3.771800032451433e-05,0.0005413419074536992,0.0009783499896383534,-0.007963777244967479,-0.009913578180963611,2021-07-01
446,JRI,0.00016159840581335264,6.411687470549322e-05,0.0003053073435265825,0.0009288010520745708,-0.006070893009069416,-0.008442198658022737,2021-07-01
447,DSL,0.0017115513180566695,0.0003157660155485676,0.0007350605079599926,0.0010766836685708059,-0.002969507215139006,-0.003925750277908719,2021-07-01
448,RA,-0.00010044390548845462,0.0002445485114419655,0.0005127912599180563,0.000790003087726956,0.0006725243464000677,0.0028426915521393933,2021-07-01
449,RIV,-0.00021721960894932745,0.0003304042424619697,0.0011189833308628422,0.0010673562075841354,-0.0014036370094002814,-0.002855067584370431,2021-07-01
450,EDF,0.00010539966801647062,0.00021307351593927076,0.00018726557335035812,0.00047335816869481387,-0.011832503854124132,-0.014516553859089575,2021-07-01
451,EDI,0.00028851110131842547,0.0002661819321037728,0.0003952025754751154,0.0005913423419370474,-0.005924779650025931,-0.006169591053472688,2021-07-01
452,EMD,0.002037149490440098,0.0008794068875246601,0.0005294824086876581,0.0011090196323541863,-0.0019525425296236492,-0.004253097815833533,2021-07-01
453,GNT,0.0009110717535384152,0.0007005193190521801,0.0004465369590308766,0.0005924604384181562,-0.001998862920151253,-0.0022194911552542436,2021-07-01
454,PGZ,0.0010342157113144759,0.0007496375339007511,0.0005363539186859122,0.0006340019038881953,-0.0005903075113765134,-0.0003804907352176261,2021-07-01
455,MCN,0.0023479361835122433,0.0015963794186706238,0.0009658969532861444,0.0009216244417915108,-0.001737066476575066,-0.0027994193487904423,2021-07-01
456,GCV,0.00113868626775443,0.0012681734965473864,0.00039112671779721435,0.0007610674774364168,0.0003425680018614027,0.00012604433150949833,2021-07-01
457,HTY,0.002563897544193247,0.0006830474424478664,0.0005782544117126972,0.0010129457165551944,0.0006238794616079189,0.0007554041007555628,2021-07-01
458,IIF,0.0011266521012307422,0.000346262524406927,0.0003959079243890048,0.000849140757314739,-0.0023616942926083856,-0.0026850450458457604,2021-07-01
459,EMF,0.0017901756479986144,0.00025095147950249805,0.0004401407252117786,0.0010364007075070573,-0.0004989547214667062,-0.0006034355347162649,2021-07-01
460,IHD,0.0012425610250146766,0.00022386587293192424,0.0007632511994831364,0.0009245402719015324,-0.0019485471536772802,-0.005577514069437992,2021-07-01
461,RGT,0.0022044881706008647,0.0009932990043041044,0.001103972529514818,0.0009378541701687917,0.0011149637621123939,0.0008576892681662037,2021-07-01
462,HTGC,8.467735936480707e-05,0.00025747564772699515,0.00022665078825206982,0.0005070227059807666,-0.0006573936030680233,-0.0020090570290535858,2021-07-01
463,TSLX,0.00026036741961043246,0.0003857751555399192,0.0007095023863400599,0.0007596709241776324,0.0028193217331607557,0.00506658866294377,2021-07-01
464,FGB,1.3855865675882908e-05,0.00016516217370240622,0.00018887211619501322,0.0003234229069968083,-0.0009903015843436306,-0.0007511921659134077,2021-07-01
465,NMFC,3.372523281588577e-05,0.00023154093304187837,0.0002647799131548382,0.0004534067333606825,-0.002299630301043139,-0.0038440147790681236,2021-07-01
466,ABR,-1.2701992229517492e-05,0.00010094667862649116,8.103096781107663e-05,0.0002080552289647834,-0.0001989310744995452,-0.001997047010186176,2021-07-01
467,DX,7.899319790640084e-05,4.550743386727816e-05,0.00026608918469372896,0.0004603856144183593,0.0031595915234519695,0.003121650625716957,2021-07-01
468,ORC,1.0615191588966664e-05,2.6271613579107444e-05,0.00017604427107318442,0.0002657823553543849,0.0035293910367429726,0.003398188981594977,2021-07-01
469,NLY,0.0001447866137026936,8.795454062523469e-05,0.00031579737510482257,0.0005396693011275054,0.0043984249620271695,0.0044662242005501715,2021-07-01
470,CHMI,-9.119966333298082e-06,3.1870640287986136e-05,9.088465091857346e-05,0.00019008168753975425,-0.002559191215210125,-0.0029629009978862806,2021-07-01
471,EARN,-2.2451705276481902e-05,4.2260527893313926e-05,0.00012051321500014857,0.0002520486687965928,-0.0002935832930772541,0.0012860150600205325,2021-07-01
472,AJX,1.2635391988841744e-06,0.00010876295977897262,8.008468567441315e-05,0.00021981415930748374,-0.0022358829452830864,-0.003442766206034339,2021-07-01
473,PMT,9.851161516434695e-07,9.881920300552267e-05,6.95597238067729e-05,0.00019971744127079247,-0.0034806331115227692,-0.0038464664667118825,2021-07-01
474,TPZ,8.649054574296698e-05,0.00012234054824878738,0.0005714496173190958,0.0005111214549053261,-0.003660569268501653,-0.0036155062263112784,2021-07-01
475,CEN,-2.2687350990214586e-05,2.400428722053832e-05,0.00010124536116250844,0.00016314231524088883,-0.007119786201836445,-0.0085178371471691,2021-07-01
476,NSS,0.00013049668046798748,7.821242318356474e-05,0.00037238228155218666,0.0005315615365512514,-0.003927149439838672,-0.007061771834287522,2021-07-01
477,SUN,5.543692167978643e-05,0.0001855114438609227,0.00028444402949549054,0.00045834057971167456,-0.0027509683897556894,-0.0018318731160282488,2021-07-01
478,GSBD,3.661578550833214e-05,0.0001019371356835067,0.00039164962167567474,0.0003907804254690001,0.006647573518476077,0.009263174545782417,2021-07-01
479,SAR,1.407322395010578e-05,7.040215398431377e-05,0.00031424943989911204,0.00026988970705771516,-0.004833578144813656,-0.008695504807892229,2021-07-01
480,SCM,1.0970595725607277e-05,0.00010517239549132316,0.0002336278714380675,0.0002538058964958572,-0.006076751465219401,-0.0067248920773588195,2021-07-01
481,ECC           ,-1.0587683094123806e-05,0.00019193057691341343,0.0002875662648283626,0.00028692806299508364,-0.008860183024602236,-0.010624914268746467,2021-07-01
482,AB,2.6966445246853332e-05,0.00033177829239823455,0.00030877022503795603,0.00033613409203662103,-0.0026724957742718164,-0.0014725109058375046,2021-07-01
483,SAFE,1.3847150939316713e-05,0.00023401293689186855,0.0005882913589856467,0.00023708520982004393,0.0015604412373226256,0.0022453778006244034,2021-07-01
484,FTS,-0.0034088642653802644,0.0023525719027335168,0.0008374584639849033,0.0013792796207447299,0.002732785367766785,0.0035593269603736597,2021-07-01
485,KO,-0.0015928985178061052,0.0011400125798791253,0.0011135361870307085,0.0010770856386852587,-0.0013483884246495046,-0.002513287681466974,2021-07-01
486,RSG,-0.0013336543406209066,0.0010641574167415974,0.0008961757546865661,0.0010054175638959245,-0.00026588618876371566,-0.0008739591185230811,2021-07-01
487,DTE,8.35100632191523e-05,0.0002250028377795366,0.00032040038134847367,0.0006987971801935489,-8.044078353209018e-05,-0.00017449099002730018,2021-07-01
488,SRE,5.0545267172968466e-05,0.00019608418872357216,0.00024225958641862073,0.0006089837777727521,0.002541479113788344,0.002826747580052681,2021-07-01
489,PNW,1.0930722731854495e-05,9.364277767412869e-05,0.00020966366410604068,0.0005566442833232634,-0.0001542521782517661,0.00047972476236877255,2021-07-01
490,BKH,5.593446168808113e-06,4.6488790272626574e-05,0.00019643102558762789,0.000489835350652982,-0.0022551162671559585,-0.003221401603679477,2021-07-01
491,ETR,1.5547068888736348e-05,5.764002947228022e-05,0.0003966889995253127,0.0006073318725358908,-0.0003282876882460407,-0.00046701416508557176,2021-07-01
492,CNP,4.816274947797634e-06,7.774809558966405e-05,0.00030178555449599865,0.0004407927475228423,-0.005826290487284847,-0.00791583817203388,2021-07-01
493,OGE,1.4699080152779443e-05,0.00010231779294199901,0.00023262468809857602,0.0005800906212469701,0.00177154375882635,0.0032667389393279916,2021-07-01
494,EXC,4.410083135906343e-05,0.00011234597732988972,0.0004087694827176629,0.0006199014873495564,-0.0013235050095904242,-0.001512973328392836,2021-07-01
495,PEG,7.602505330999825e-05,0.0001273015572775689,0.0002645722472318724,0.0007024232337803916,0.0026048137932572183,0.004143819160967949,2021-07-01
496,EIX,3.6821667095767066e-05,0.00017976505446574926,0.00022354152013156397,0.0005619309494879909,-0.0005441556327990247,-0.0031615613735091436,2021-07-01
497,PPL,6.459024373015221e-05,0.0005552727167853703,0.00028548544717424336,0.0006226472784833533,-0.0002863613003776326,-7.392637917785723e-05,2021-07-01
498,ALE,1.9541436442930934e-05,0.00023741241330389222,0.00032896043682037734,0.00043435944905437864,-0.0011301557547287212,-0.00136492507062108,2021-07-01
499,NJR,7.586280876571957e-06,0.0001710884400769993,0.00022486170154544557,0.0003130159857155212,-0.004927710492731526,-0.007320755063516626,2021-07-01
500,OHI,3.1673451861669e-05,0.0005156825180650818,0.000108166632929359,0.0002957286548175325,0.0004045350811418329,-0.0002224984118350628,2021-07-01
501,OFC,-4.814552937965636e-05,0.000259965142813078,0.00035213828174352927,0.0004497238192592509,-0.0024281685120985143,-0.004039968436361986,2021-07-01
502,NXRT,-1.9700642884359992e-05,0.000131721896534577,0.00022279465297787677,0.0003833717126441142,-0.0029288133920004475,-0.0026284933774822247,2021-07-01
503,IRT,-1.8370763234093546e-05,8.679705475196527e-05,0.00015512647380634147,0.00044079439217622796,-0.004088690786323932,-0.005666857632857831,2021-07-01
504,AVB,-3.916035431406772e-05,5.912079525877336e-05,0.00018868613195587087,0.000536154705298095,-0.0018056458959512104,-0.0029446469890673974,2021-07-01
505,CPT,-9.337474087447095e-05,7.047942272232348e-05,0.0003714470309534363,0.0006391638331972471,0.0027343937613211544,0.004821422522286798,2021-07-01
506,GMRE,-6.1947480363976976e-06,4.36973938339407e-05,0.00013233926083268448,0.0003385690969616024,0.002318817557053529,0.0031621580005054537,2021-07-01
507,MPW,-1.7984586467272504e-05,6.102337590540058e-05,0.0001847945145739397,0.0004728114759510513,0.0022193096407522156,0.004422504203162626,2021-07-01
508,EGP,-2.6336883015710837e-05,3.4283608783291285e-05,0.0004389952509254055,0.0004991841220074406,-0.000630376802726786,-0.00022753874645844887,2021-07-01
509,LXP,-4.5534196841136884e-05,3.92423545767377e-05,0.00034955596027943804,0.0005713855982524393,-0.0016542340162415423,-0.002809722756468726,2021-07-01
510,CHCT,-6.549393403632894e-06,2.4650208320460826e-05,0.00015115752503282523,0.000344307944396272,-0.0008797686323664734,0.00022601878100793956,2021-07-01
511,DOC,-4.525133889303367e-05,4.037178208544925e-05,0.0002475637764138368,0.000563902954520565,0.0029438703394923217,0.004410533384218244,2021-07-01
512,VICI,-1.4172670672293774e-05,8.818920984218659e-05,0.0002381169750061082,0.0003815368738560709,0.0011599496445704608,0.0026995038698544413,2021-07-01
513,ADC,-9.215811106646253e-05,8.499120113245296e-05,0.00046018111100343587,0.0006252796081324698,0.0018599553605748564,0.0024762918024191314,2021-07-01
514,FCPT,-2.081408728850008e-06,2.5125258970587536e-05,0.0002035436988763473,0.0003141786395121122,0.0016550082626368792,0.0020805993841074206,2021-07-01
515,WPC,-6.414556702914631e-05,4.4807751377722614e-05,0.00021898800356153866,0.000560298239470073,-0.0014721289696383426,-0.0027570813329013807,2021-07-01
516,UMH,4.681303131231564e-05,0.00014021547457518342,0.00013816575757052402,0.0003646925365261909,-0.0005451627985562493,-0.0006950412614167258,2021-07-01
517,KREF,-8.46996160816237e-05,0.0011624018495662322,0.0001607902644579955,0.0004128453132278077,0.00012673644237326054,-0.0008426376291779857,2021-07-01
518,KKR,-1.7211561277438797e-05,9.321668530525584e-05,0.00021529498800510895,0.00043428716237273526,0.00036789887184171294,0.0010849278521014448,2021-07-01
519,BX,-2.5817962893280745e-05,0.0001082672553322619,0.000250056064123867,0.0005044062545472352,0.002756306502807394,0.0028602186907494198,2021-07-01
520,AJG,-0.0002503943827314882,8.636371483194301e-05,0.0005145452080836025,0.0007793769434554778,-0.0006506794061583313,-0.0016443567644732243,2021-07-01
521,BRO,-0.00024806912720226436,8.617639668885726e-05,0.0005134291878533533,0.000777686517770385,0.0009888450527052864,0.0021271659571023642,2021-07-01
522,MMC,-0.0006682406621082269,0.00018380370919994914,0.0008276675058693509,0.0009385720484812435,0.0003805172314754757,0.0004389522292789166,2021-07-01
523,MCD,-0.000987805623124626,0.00021524676546282194,0.0005436840309431912,0.0010376655199999933,0.003346424702231381,0.0057301724333297405,2021-07-01
524,YUM,-0.0004279060931549862,0.00016729605508183495,0.0004225670633991309,0.0008065038636802372,0.0031862688320838644,0.0028358593134549808,2021-07-01
525,GAB,-0.00028987804031911933,0.000285364627044812,0.0007498427432834021,0.0005679750086224196,-0.0003440845936169904,-2.1053029605864367e-05,2021-07-01
526,RYN,-8.941810291056785e-05,8.499059654893103e-05,0.0004015554649086444,0.00044104683287817263,-0.0026773073952606925,-0.003059731073689708,2021-07-01
527,HD,-0.00016947128354501045,4.8598124057254816e-05,0.0005148481929289966,0.0006964508589617314,0.0012987343886367933,0.0032695152726595587,2021-07-01
528,MAS,-9.097069836912348e-05,3.894892437039658e-05,0.0007050028653357401,0.000558169936795097,0.0006916680438491174,0.0009729220632717255,2021-07-01
529,RPM,-0.00014947996585072679,7.432114741553174e-05,0.0009653250748803463,0.0006516933689082889,-0.0008352007569891233,-0.0011617110071070835,2021-07-01
530,BR,-0.00031586725586802843,9.174476141903719e-05,0.0008990941763701208,0.0007823767496613146,-0.00014385457032808926,-0.0014944455645355362,2021-07-01
531,LIN,-0.0002179296569870956,7.844341623865873e-05,0.0006225414974578072,0.000668946151037639,0.0018783019598232328,0.00270463069839516,2021-07-01
532,CCK,-5.544832000427189e-05,8.228468998712259e-05,0.0004096321142557228,0.0004458044690390344,0.0008683157076107725,0.003067119074726557,2021-07-01
533,WNS,-3.634375858898766e-05,0.00020750992637481606,0.00029218434182177696,0.00041024916697857887,-0.0014768955568875617,-0.0020926619493362676,2021-07-01
534,DLB,-9.961913904166789e-05,0.00011217842587000454,0.000572350811373466,0.0005582582346742659,0.0005623232607260933,0.001211985584207462,2021-07-01
535,ACN,-0.00015957765857869128,5.12835613823691e-05,0.0009176534553179562,0.000725750174774398,0.0020946601084617334,0.0039610734260376946,2021-07-01
536,FIS,-5.244704801724446e-05,1.3172140778601892e-05,0.0002854174906181228,0.0005683871033034596,-0.00063752626986574,-0.001036009437387035,2021-07-01
537,FI,-5.2205476752921015e-05,1.3156959741354265e-05,0.00044961637318815335,0.0005677320309100386,-0.0020736697902011473,-0.004013744311966296,2021-07-01
538,MA,-1.713982823367697e-05,1.8099506146434668e-05,0.00022407842529729172,0.000446235046043255,-0.00015636851055488138,-0.00035065371066954955,2021-07-01
539,IQV,-6.432519609926082e-05,4.188886170231571e-05,0.0005031408918602186,0.0005644726351333267,-0.002092478744229729,-0.0012791365284923867,2021-07-01
540,TRU,-3.6324046856162837e-05,3.2953942484003365e-05,0.000316272144763922,0.0004440702849404266,-0.001621421515244077,-0.0029701653632325225,2021-07-01
541,MSI,-0.0001557515965471449,0.00019610177867090357,0.0007192120072575189,0.0006024143677351995,0.0008903455175598875,0.0008830662576322683,2021-07-01
542,SYK,-4.263149757646303e-05,3.106298487774428e-05,0.00032070717636875054,0.0005867472265178885,-0.000384557533080746,3.6694341230525455e-05,2021-07-01
543,ZBH,-1.8778451383735306e-05,2.6527511938473908e-05,0.00023631854514018986,0.0005010768964276698,0.00246295107781613,0.0029158198770938798,2021-07-01
544,MDT,-0.0001499637722790653,6.822204162478942e-05,0.0005361856359647497,0.0007170092061624625,0.00042570281549845926,-0.0003690362809861433,2021-07-01
545,BSX,-6.021703750536408e-05,9.254137543844594e-05,0.00025339744915048106,0.0005372900688250628,-0.0017658164961403939,-0.0028687044003175765,2021-07-01
546,STZ,-0.00010355833683759146,0.00015462641277163146,0.0003533933626351739,0.0005204158277785247,-0.0005817561685937757,-0.0004861501952198365,2021-07-01
547,RELX,-0.0002824241897152956,0.00022499925620460623,0.0006102883256770025,0.000780667307889433,0.0008059852681249211,0.0015776057606885746,2021-07-01
548,SNN,-5.6337967854945114e-05,0.0001299276738827741,0.00025517603021564224,0.0004508027675352155,-0.001727214458315948,-0.0027023105512018167,2021-07-01
549,DNP,-0.010224445460308818,0.0014243789068557001,0.0008466724229418153,0.0016086063826262894,0.0030859773684722147,0.0029116814759374623,2021-07-01
550,LDOS,-0.0014697881991583392,0.00046647084866081873,0.00025102919465459317,0.0005268036340985446,-0.0009692885001970982,0.0010449972465682144,2021-07-01
551,DEO,-0.0015554870502855003,0.0005665002822996625,0.0009207313980969602,0.0007442325151828289,-0.0021509495331804036,-0.00442059716974198,2021-07-01
552,BCE,-0.005783967817707169,0.00025672245217948307,0.0012769021191280634,0.0014603712024051309,0.0012909942158495303,0.0021030586863379046,2021-07-01
553,TU,-0.002885129033367647,0.00021282850394610162,0.0009283200652667129,0.0012106795318258996,0.0008143480414823694,0.0009615321771624518,2021-07-01
554,BIP,-0.0005705074603163366,0.0002079601964409622,0.0009365416777110107,0.0006876058387304588,-0.002880742102184906,-0.0023031305705377243,2021-07-01
555,ENB,-0.00013575349612483128,0.0001012965474192599,0.0002642788359076881,0.0006369703838336743,0.001266665924382732,0.0034356297350418416,2021-07-01
556,TRP,-9.941483990496382e-05,9.36520220375242e-05,0.00024433456021001734,0.0005889002729494742,-0.0043609860664638985,-0.008532826423362788,2021-07-01
557,PBA,3.532878865385431e-05,8.013162698785676e-05,0.0001473812485062989,0.0002885540262049755,-0.003663994775051878,-0.004114638293382485,2021-07-01
558,PLNT,8.646112863083352e-05,0.00014893301224364167,0.00022424887211895737,0.00018121233657413988,0.0018818544920442817,0.003262267423539019,2021-07-01
559,QSR,0.0012002126551755767,0.00044338035566428627,0.00049258057869395,0.0005394773732875244,0.001144434447436612,0.0010526955210750431,2021-07-01
560,EEA,-0.0025406653177010843,0.0010087154992188415,0.0005717167569701125,0.0010050330461740546,0.003029642440208446,0.0035393016953918547,2021-07-01
561,GF,-0.0016422127241675006,0.000795996866178327,0.00045115272566176215,0.0007930909714183383,0.0014344870893390443,0.0013798632243020186,2021-07-01
562,MXE,-0.0007237369152424978,0.0002990109697521537,0.00039741015453140016,0.0007455703442850241,9.243290016686477e-05,-0.00047891717592394553,2021-07-01
563,MXF,-0.0005239840266506873,0.00026529829411808136,0.0003292984831099021,0.0006615093106711107,0.0009339166505504916,0.0011821659959290974,2021-07-01
564,APO,-0.000181594821499533,0.00020685326701239796,0.0002556459304964616,0.0003170445369651412,-0.0020250817916023433,-0.0025361055366067762,2021-07-01
565,JEQ,-0.0021295052473524825,0.00037129065871657226,0.0008122974787727414,0.0010429628426234855,0.00166433914454168,0.001414397274868566,2021-07-01
566,JOF,-0.0028423493874032094,0.00042027313078672675,0.0008405714650382109,0.001180555580576021,0.004164592247160503,0.005717050843446459,2021-07-01
567,IFN,-0.0018245751967651412,0.00035567883992169074,0.0004662166298396614,0.0009999384143313953,0.0021817144252422663,0.002173166805198238,2021-07-01
568,KF,-0.0007814801790157722,0.0002511629973456039,0.00029987118449483337,0.0007061075923430766,0.0010396472818869588,0.0018544291360425014,2021-07-01
569,BSIG,0.0004624295908010815,8.242424669331052e-05,0.000141804729820762,0.00020475657224810462,-0.00015351039489291555,-0.0015515043904121093,2021-07-01
570,AES,0.0010295530975211545,0.0001237806282716844,0.00033806454996360223,0.0003074932216236307,-0.0005429111752722432,-0.001114749447461897,2021-07-01
571,CNNE,0.001626289453156416,0.0002180286059797913,0.0002952235018354604,0.00036785738150343916,0.0024185360838427992,0.0017349300843114302,2021-07-01
572,FAF,0.0016176110351637794,0.00013589797807881833,0.00020010931707258893,0.0004224167950851338,-0.0004329157727822668,0.0010117679876427083,2021-07-01
573,STC,0.0007643013640982592,0.0001087471095633293,0.00016012975421690728,0.0003380227295940421,0.000521148380128134,0.0024570159849843926,2021-07-01
574,FOR,0.0010800761052652359,7.589879141159885e-05,0.00020194853313427167,0.00035260884514259075,0.00013086004170000345,-0.0004577740076995198,2021-07-01
575,BLD,7.726654209703785e-05,3.543879556529767e-05,6.467640322875636e-05,0.00016464073465620872,-0.0019900659543556957,-0.0012238366515225135,2021-07-01
576,TPX,0.00026804286952549823,6.63650302437563e-05,0.0001822764998315984,0.00019506323405932535,-0.00045168511931492937,-0.0007017583326713443,2021-07-01
577,SEM,0.00031587690587015985,0.00018319116056243558,0.00027027099395771347,0.00018460642650909389,0.0009838826755357902,0.001340680908306091,2021-07-01
578,EFC,0.00030868608758323165,0.00013165054296601677,7.669658805396471e-05,0.00022020855578564575,0.0048062134636523545,0.0072013975546347765,2021-07-01
579,TRTX,2.1364289888256934e-05,4.670276590972908e-05,8.796532021738547e-05,0.00013044001079905545,-0.0019896871327613184,-0.00041538275961298254,2021-07-01
580,CIM,0.0006039100434482771,6.206265474592496e-05,0.00023344159569236802,0.00029154879527835856,0.0018470835089492987,0.0006282632492243456,2021-07-01
581,RC,2.1180172132631273e-05,3.367624118268034e-05,6.177184440615917e-05,0.00015819928403817694,-0.0007889026333568451,-0.0005309460065850361,2021-07-01
582,GMED,5.426867505734299e-05,0.0002934010332885866,0.0005099831524209248,0.0004256090666589459,0.004303990807083265,0.004336091174656053,2021-07-01
583,EVTC,4.6070612897605875e-05,0.00020651985985644227,0.0003469607093081791,0.00039879172981283556,0.0040020482532453945,0.004660465318076446,2021-07-01
584,TV,5.1392338155326095e-06,6.263442715794633e-05,0.00016078006755419343,0.00012094764914868928,-0.0022498588072691365,-0.0021202684901774206,2021-07-01
585,JHX,3.542545618338422e-05,0.00010728951662163753,0.00028583587192741614,0.00031394668247196843,-0.0028272299292825508,-0.003419646207127186,2021-07-01
586,CEE,0.00013651663105010333,0.00023506524031221345,0.0003893501321277133,0.0006878393591868629,0.0002873032019172602,8.754050895791108e-06,2021-07-01
587,HBM,-1.070565448913763e-06,1.5876340447379254e-05,3.827246400411206e-05,8.226301920745043e-05,-0.0037497529712813937,-0.0052545607013523895,2021-07-01
588,SCCO,1.3078305097884884e-05,4.0988440636729505e-05,9.880920757861856e-05,0.00021238098858854574,0.0033369882442080257,0.00528271919702807,2021-07-01
589,PKX,1.761867825238176e-05,8.310375576441757e-05,0.0001458902711790283,0.0002649496612486144,-0.0005365496267236944,-0.0001572887441446325,2021-07-01
590,ICL,6.784323619099003e-05,0.00027398810854920334,0.000722390574351199,0.0003946577324038385,0.0043187924429053705,0.005548510591895123,2021-07-01
591,BBU,1.1008771550735828e-05,0.00012181215130410944,0.00018831019236537674,0.00027906542586578784,-0.0006994305367830542,-0.0004487014842287124,2021-07-01
592,IBN,1.0360647139009754e-05,0.00011762627100990945,0.00022037645802800384,0.00026947578760377384,-0.0028509747608885783,-0.0033013985928514946,2021-07-01
593,DESP,1.4542855983925382e-06,2.9697732462018508e-05,9.598666897502987e-05,0.0001086996863632378,0.0005757951614195548,0.000710804050226139,2021-07-01
594,AZUL,8.647855630330321e-08,8.483334416946119e-06,4.236736481032155e-05,7.627351331326104e-05,-0.0026413383171998944,-0.002701810558048692,2021-07-01
595,BBD,3.408698651793388e-06,2.049067801662375e-05,0.00021355134985157268,0.00018423133236109265,0.0014737449043761923,0.0004459128780774008,2021-07-01
596,ERJ,4.81017741664337e-07,1.4430917348963115e-05,4.8923296378730544e-05,8.29587678934949e-05,-0.002097450607309069,-0.003403852327713113,2021-07-01
597,CIB,9.802617341638296e-06,0.00011590668602755562,0.00014038820850436386,0.00028201802254606667,-0.006313615824703918,-0.007688695244715618,2021-07-01
598,EURN,2.0106173087686514e-05,0.0002101944173123967,8.849041908764836e-05,0.00024177304252883834,0.001039237230801786,0.0023233377996458963,2021-07-01
599,INSW,2.2493153419483277e-07,0.00011058734523797195,8.069199655536476e-05,0.00012720147026376157,-6.707899946223631e-07,0.0009190306758318408,2021-07-01
600,FTAI,9.575360755733264e-06,0.00013347877131163053,0.00015499909195506426,0.00017258292572535464,-0.0026109370099097347,-0.005478671287684457,2021-07-01
601,USAC,8.983127829401575e-06,0.00012849442942101372,0.0001113083499924656,0.00016613836305935762,-0.0025058537422418536,-0.003729537241708784,2021-07-01
602,CODI,4.567205696893072e-05,0.0004614954194566082,0.000595377198946532,0.00042506135615549655,0.0030176887964968886,0.0030165309030271924,2021-07-01
603,BXC,-2.9901541858578945e-07,3.686416775673274e-05,0.0001361216083046982,6.850655684000466e-05,0.0014672946158552677,0.0007367699376328012,2021-07-01
604,FDX,-1.4611394814709607e-05,0.00018440429156036295,0.00037306238458202905,0.0003426878687370766,0.002152584632191364,0.002590160852698579,2021-07-01
605,WMS,-3.4762980578681725e-06,8.157578163008858e-05,0.00016456001166243462,0.00017499166480248484,0.0005008962909866807,0.0006696573028249257,2021-07-01
606,DECK,-5.469682178002854e-06,0.00010171961839236227,0.0002812449979865237,0.0002182030623533431,0.0025429518848426574,0.0025914094398112185,2021-07-01
607,LZB,-4.029627467948538e-06,5.727133150373184e-05,0.00010568368404696393,0.00022937617524129518,-0.0037078996684020184,-0.004821729684875472,2021-07-01
608,BC,-2.7474523687292593e-06,1.879182395871499e-05,0.0001468673859894794,0.00023053376790185283,-0.00039279524905525985,-0.0019712825684688076,2021-07-01
609,THO,-8.693703730306635e-07,1.4459917488166579e-05,7.930946305857253e-05,0.00017739093711289142,-0.00018178985214944057,0.0005248925539248637,2021-07-01
610,PII,-5.429571261744868e-06,3.7433508361730484e-05,0.00011536708963429747,0.00026254766614566496,-0.007473218860935618,-0.009057005964519301,2021-07-01
611,BZH,2.6274763548619223e-06,1.4682938154781995e-05,4.04712243362978e-05,0.00010302385065534555,-0.001996270203637738,-0.001840361413468536,2021-07-01
612,CCS,1.9001300989366634e-06,1.355745629659522e-05,3.667267486840076e-05,9.512682938815646e-05,-0.0034806179034643685,-0.004782855815005471,2021-07-01
613,BCC,-2.5975455070943755e-07,2.3308129268972935e-05,0.00011254884922846935,0.00016160444889069285,-0.001929176256079199,-0.000650830433139726,2021-07-01
614,LPX,-2.5887113315306523e-07,2.3286790982632217e-05,7.218535907412758e-05,0.000161456502139387,-0.0029218830468500556,-0.002669010037303248,2021-07-01
615,BBY,-9.834192153041763e-06,4.9299678000539145e-05,0.0003008818867488589,0.00031507377460500863,0.0009579548760087195,0.0011205586253736123,2021-07-01
616,WHR,-1.0132928291667595e-05,4.989969242315272e-05,0.00022507169496805972,0.0003189084610901463,-0.0012194388109571961,-0.0007089693580126732,2021-07-01
617,FND,-2.7148958350262384e-06,3.094393761005381e-05,0.00011404944452360487,0.00019937866888456663,0.0008146090992085496,0.0010109813638234284,2021-07-01
618,SITE,-2.372417425209315e-06,2.9355757781414562e-05,0.00024559877641444,0.00018914567319495114,0.00018945086912217218,0.000492626805393343,2021-07-01
619,DKS,1.4332039472248158e-06,4.0132178987315896e-05,0.00025331613662797837,0.00016073252495639573,-0.0016632141557156497,-0.0021149407827395638,2021-07-01
620,KMX,-4.5671736304744845e-06,7.597701159156374e-05,0.0006284609180490146,0.00025157124824783626,-0.0029317082472752123,-0.0041842988037810785,2021-07-01
621,UA,-3.0560803923232653e-06,6.198531813387276e-05,6.213626752739366e-05,0.0002052426586584658,-0.004192830320235015,-0.004219915718300269,2021-07-01
622,TLYS,-1.6494590610730232e-06,6.77605626802982e-05,9.140602905870644e-05,0.00015074603106046146,-0.001205195183558724,-0.002432876267724328,2021-07-01
623,BURL,-3.532429963666769e-06,4.3838644075584224e-05,0.00028300831255737295,0.0002469111276340647,-0.0023492231479609695,-0.004011974811887416,2021-07-01
624,BKE,-5.137182674989003e-07,1.4123643125959223e-05,4.6675157846217694e-05,0.00013471643118198533,0.000975284324042186,0.0005420331890070556,2021-07-01
625,ANF,-1.7289671436625401e-07,6.8264052599411545e-06,4.004380264173086e-05,0.00011557664573140561,0.0009899368248117496,0.0005853661316566642,2021-07-01
626,AEO,-5.674942750147583e-07,8.686441061276412e-06,8.398504570584565e-05,0.00014706857899241294,0.0009471889762046162,0.0003707690922957851,2021-07-01
627,SKX,-1.8623550916088106e-06,4.971134149935608e-05,7.566877697309176e-05,0.00017475121557588273,0.0011967300576817912,0.0008206861694062216,2021-07-01
628,EAT,-1.8290072948139336e-07,4.4328658114284924e-05,5.320849342371817e-05,9.958501931465661e-05,-0.0006199570874989667,-0.0014198444160784857,2021-07-01
629,CRI,-5.581144790908853e-06,0.00010755537865928544,0.00036449291901561454,0.000271400611526966,-0.000486288900765437,-0.001864367993368154,2021-07-01
630,HBI,-1.7860987243901452e-06,5.9816731518972666e-05,7.359840606813717e-05,0.00015093896480268665,0.004104613317366631,0.004422439167415573,2021-07-01
631,SBH,-4.1777447225837314e-07,3.523089245061511e-05,8.301585902065577e-05,9.174418593561354e-05,-0.0018311677630625126,-0.0013170860539133665,2021-07-01
632,M,-2.4708062108362083e-07,1.913400668161202e-05,7.041822073518636e-05,7.566724132621282e-05,-0.004105459084003111,-0.0053073038644960635,2021-07-01
633,SIG,-1.9692292378839326e-07,1.716029339692896e-05,6.381659598685594e-05,6.786200524022421e-05,-0.00019341402514569297,-0.00039194241099946303,2021-07-01
634,HOG,-1.3131806050188704e-06,7.943577392974952e-05,0.00019282550254153796,0.00013859150517746385,0.0026584241125895583,0.0041824274858662126,2021-07-01
635,KAR,7.696144646971558e-07,3.836321136010192e-05,0.00027466785233010876,0.00014003527835292415,-0.002190008386425712,-0.002537138457694548,2021-07-01
636,QUAD,1.7789460345096488e-07,1.5515834087723944e-05,6.857178664970331e-05,5.6636659662228004e-05,0.003122217744782211,0.0033674343564374927,2021-07-01
637,GHL,3.813827726173328e-07,3.1458831670665484e-05,0.00010754587114279896,8.692994975903378e-05,-0.0025536602086431467,-0.0031458196994159104,2021-07-01
638,SFE,1.573997095724427e-06,9.948946805261608e-05,0.00021468155903334803,0.00019976777419779303,0.0007993563417759363,0.0009634703186819278,2021-07-01
639,MOV,6.119389929373852e-07,4.286014926444076e-05,0.00013341549549621557,0.00011834103258473646,-0.0010267638765988063,2.2220673397203204e-05,2021-07-01
640,TWI,2.347227715396662e-07,2.4380573971292045e-05,9.390119501431091e-05,6.731713137464493e-05,0.0045586060335840355,0.0049788329691325085,2021-07-01
641,GIL,2.085248694275117e-06,0.00012024850902619628,0.0002557800377139592,0.00024004459319953829,-0.0032330814835639377,-0.003888788149505285,2021-07-01
642,CARS,-1.899998781747928e-06,2.0561704309655416e-05,6.334931130900896e-05,8.02667964044967e-05,-0.0013971694682969197,-0.0013880353572121144,2021-07-01
643,VLRS,1.8166839970412829e-06,5.979567558688495e-06,0.00017774653065942336,0.0001523429126134573,-0.0013835648881779866,-0.0003071960603130886,2021-07-01
644,LVS,5.811076235104621e-06,9.998554248105608e-06,0.00016880946192571796,0.00025473562446280847,0.0011677923376392063,0.0007291222288578691,2021-07-01
645,SEAS,1.9294782201580463e-06,5.294561713332504e-06,6.114510519276486e-05,0.0001251658225659815,0.0013350954913547805,-0.00025998304602872974,2021-07-01
646,MTN,1.6753878611816145e-05,1.4611681815986658e-05,0.00031382855914299215,0.0003454267364501506,-0.0019718222683576597,-0.0035746985802614325,2021-07-01
647,AEL,-9.084695887689818e-07,6.081849796872188e-06,0.00015197609601586828,0.00014357735522745285,-4.888908490931884e-05,-0.00024312885063392976,2021-07-01
648,RM,-8.435444334819516e-07,5.820794207353207e-06,5.303169841026311e-05,0.00013741448170010015,-0.0018110299487504183,-0.0023839856285080745,2021-07-01
649,FC,3.988505782738503e-06,9.666770933878956e-06,0.0001256011577110531,0.000237465739142871,-0.003001514779263714,-0.0035148356660583387,2021-07-01
650,MOD,1.0725977773274271e-06,5.113312138943319e-06,0.00031591828294371267,0.00012560931202857794,0.0018999919205541732,0.0017946170522603467,2021-07-01
651,MMI,2.4558840764859783e-05,1.6875526181370295e-05,0.0002784531036689379,0.00040206771037301555,0.0027816898059410075,0.00183007883867783,2021-07-01
