,Company,RCRP,"RCRP, no extended terms",HRP,IVP,LW,OAS,dateThru
0,LDOS,-4.2832975566423935e-05,0.00010117227677370859,0.00039150330453033673,0.0005160280931501085,-0.000927407010676731,0.000695418149642487,2021-06-01
1,LMT,-0.00011722052539109423,0.0001635423484051509,0.0007574116084655071,0.0008341459625897395,0.0008920917380618038,0.001254609569092598,2021-06-01
2,MO,-4.619969800433883e-05,0.0001099395346484788,0.0004097459931129052,0.0005978972016864377,-0.00169624903427329,-0.00265633304824289,2021-06-01
3,PM,-0.00011575832036532891,0.00015665859760932761,0.0007340134161749869,0.0008519750190886826,-0.0031544035093916093,-0.0031586573522636133,2021-06-01
4,ALSN,-6.064184207991215e-06,6.218145188824647e-05,0.00020621285542807183,0.0003340110440791121,0.0028884237412983194,0.004206244450628386,2021-06-01
5,MMM,-7.409884447608644e-05,6.164055484604163e-05,0.0007613403138075455,0.0007871077112104128,0.0006422542060425134,-0.0005957224104467503,2021-06-01
6,IBM,-3.0978203165620836e-05,4.345827131681013e-05,0.00039342112243409257,0.0005549323907737698,-2.9956138593091202e-05,-8.385382853180777e-06,2021-06-01
7,WU,-3.635395158390832e-05,6.531323110491846e-05,0.0006275413928732785,0.0005283776132432327,5.593287129007097e-05,-0.0006583422682845081,2021-06-01
8,T,-6.103012184357255e-05,9.371458496145839e-05,0.0007321447655016768,0.0006979653555750875,0.00023221012240526282,-0.0002704192013896419,2021-06-01
9,TAP,-1.1206441155683338e-05,4.026840549909683e-05,0.0002806264764498452,0.0002999101151029795,-0.0041420683665785735,-0.006020382242877408,2021-06-01
10,TDS,-1.0515011810953205e-05,5.569476555562536e-05,0.00020183350493104083,0.0002917745206939104,0.0012913550361374074,0.0014523319594683531,2021-06-01
11,AVA,2.7627636938254873e-05,0.0001442307839325349,0.0001836943267848588,0.0004997348770092491,0.001284527970093829,0.0014781782427023924,2021-06-01
12,NJR,4.270360557544748e-06,3.2774970009694877e-05,0.00022947928556024433,0.00031629118481211257,-0.00585046850770904,-0.008622743028791893,2021-06-01
13,SR,3.4519229236860335e-05,5.707409457449042e-05,0.0003084418021446947,0.0005507871705055514,0.0004921213616919505,0.002142493836817061,2021-06-01
14,NFG,5.2485554992367035e-05,0.00010592660532894367,0.00042773145185203326,0.0006183370763564624,-1.1819809531861362e-05,2.903933680560636e-05,2021-06-01
15,SJW,2.9025864642219897e-05,0.0002160347604280243,0.00031764602177679,0.0004475356753989544,-0.0008582317168587817,6.803050457118448e-06,2021-06-01
16,ENR,-1.3089999986018932e-05,0.000113607066887615,0.00031719648100890345,0.00034747745066428926,0.004766756568796935,0.007046472694734416,2021-06-01
17,CAH,-9.097949035635595e-06,5.251978509966179e-05,0.00014202393541466006,0.00043336056724552956,-0.0003562576559108291,-0.0008861163005108436,2021-06-01
18,MCK,-1.3513695809275436e-05,5.798029074167484e-05,0.00022199449251757527,0.00047841726003244325,0.0006855799340378014,0.0007765749385831659,2021-06-01
19,CI,-1.3304460176373649e-05,8.761898532540513e-05,0.000205243099388606,0.000413850064533597,-0.00013492495155073005,0.00023520011811338745,2021-06-01
20,AAP,-9.863258938301573e-06,4.802685680931243e-05,0.00024455117461609575,0.0004706907634936419,-0.0012610563827968114,-0.00024552134461764113,2021-06-01
21,AZO,-2.9388917300177007e-05,6.181492272162468e-05,0.00031475955256445867,0.0006058217235965427,0.0013220870385361075,0.0022937201569456947,2021-06-01
22,GWW,-3.315629825975224e-05,0.00010353622514669346,0.0004924396683690219,0.0005806146778734415,0.0009628281585102175,0.0018276228269678706,2021-06-01
23,BERY,-1.7704357501951425e-05,5.340046501539286e-05,0.0003849150853070483,0.0005047429927067492,0.0050199658092332,0.006947261414428568,2021-06-01
24,SEE,-7.890806986446068e-06,3.9547972008556833e-05,0.0006566605620637909,0.00037380876255155694,-0.0030743164060431775,-0.0050874007552979775,2021-06-01
25,ATR,-8.809617339965601e-05,0.00010020725750289994,0.0007604055592931958,0.0008880452257718514,0.004183852767701707,0.006529519462775245,2021-06-01
26,PPG,-2.2041672979471437e-05,5.47399013356097e-05,0.00019299016554300753,0.0004851096542473842,-1.8557412553473963e-05,-0.0010361317673617523,2021-06-01
27,EIX,-1.7277059121825834e-05,8.696492456052465e-05,0.0002897188839445657,0.0005767097799325434,-0.0005672666622778759,-0.0032394375557387983,2021-06-01
28,PNW,-1.8856494864609123e-05,3.1245758499884324e-05,0.00030733511904740805,0.0006042851438188667,0.00014662756985893584,0.0008636246580233729,2021-06-01
29,SO,-5.934583609816132e-05,4.2618417202593826e-05,0.0004148581212574919,0.0008242295148218989,0.0007853662313816005,0.001469650357781533,2021-06-01
30,POR,-1.5644725330323616e-05,5.0662088264351066e-05,0.00016117763777537408,0.0005754603366566537,-0.0006439139706762824,-0.0012358245522756338,2021-06-01
31,OGE,-2.3059462277897396e-05,9.423424521528798e-05,0.000324617079046833,0.0006076513808416888,0.001661465072300549,0.002898690009141876,2021-06-01
32,PPL,-2.713417569920946e-05,9.93590717967523e-05,0.00023550999428156638,0.000640697838015368,7.758767347708585e-05,0.00037504803948422487,2021-06-01
33,KO,-0.00022597766792435253,0.0003149149302811365,0.0007425084760372722,0.0010834608452871875,-0.001205046083119821,-0.002200371231830386,2021-06-01
34,POST,-6.342295687525808e-05,0.0001953424788348298,0.00047646857520717954,0.0006720733343761596,-0.0026097933813179017,-0.005153061591930646,2021-06-01
35,TSN,-2.17130012960486e-05,0.00031852375334025885,0.0013162710708808573,0.0005668484172921986,0.0018452653261105687,0.0007864875705174275,2021-06-01
36,CIA,-3.7040318319374346e-06,6.520461323978955e-05,0.0001489935963256828,0.00023925418212342487,0.0023855827433276024,0.004154776888432129,2021-06-01
37,HRTG,-4.175911495903696e-06,6.997517522132995e-05,0.000291751615466663,0.00025675872433986505,0.00023220103547860868,0.0006170508078565548,2021-06-01
38,BURL,-4.021961127980871e-06,9.501356029216529e-05,0.0002771064462767482,0.00024713692735347175,-0.002196042438797654,-0.003344314077161903,2021-06-01
39,AIV,-2.975625223604173e-06,5.3837629403119467e-05,0.00017533056138705944,0.0002293675502806464,-0.0037718658942982068,-0.0056779887217966365,2021-06-01
40,NXRT,-8.320786847865914e-06,9.052889731028476e-05,0.0002988863155267626,0.00038568547010476423,-0.0034692703186685594,-0.003622336660474102,2021-06-01
41,ALX,-1.2677085226765055e-05,0.00010930722230349,0.0002762745515984755,0.00046789154808058673,0.0037010138280661404,0.0034457386843719504,2021-06-01
42,DIS,-8.792626888743811e-06,9.017157027151854e-05,0.0004714256691397563,0.00038598104240593383,0.0005419253505712123,-0.00012190046420584456,2021-06-01
43,EHC,-2.2070019286011875e-05,0.00022723446717309832,0.0009414918258728157,0.0005709868607449291,0.0009336255497934791,0.000560389809095795,2021-06-01
44,UBP,-4.14904969721954e-06,8.264211204791474e-05,0.0001720705254972619,0.00020766022298731598,0.0012078264543325498,0.0011543666122227187,2021-06-01
45,HRB,-2.765933872216515e-06,0.00012756944156248605,0.0007782659158401814,0.0002881908389941307,-0.00014478737959190005,-0.0002158219091523343,2021-06-01
46,SBH,-4.007998118043929e-07,4.670473137212713e-05,9.525291985121561e-05,0.00010551018766148551,-0.000952569461676396,0.0004617248249001425,2021-06-01
47,TEF,-3.6780001162253846e-06,0.00020099297866353475,0.00026102630716789743,0.0003293334235201299,0.00017859084647691226,-2.6348679336289317e-06,2021-06-01
48,RNR,-5.497231513467523e-06,0.00013180294390411438,0.0006374616125710458,0.0005187700192962973,-0.0006519363847210495,-0.00039170710838916964,2021-06-01
49,UVE,-1.4767814652587876e-06,6.952744320867172e-05,0.0002161986827239181,0.00027365665732947953,-0.0016993446953711812,-0.002559100746953088,2021-06-01
50,SMP,-5.543297024219085e-06,5.483310644722844e-05,0.0003282101991286823,0.0003687564121301604,0.000998725102712436,0.0013361040823782287,2021-06-01
51,NPK,-2.496066596356237e-06,3.127764524176318e-05,0.0007948803299409211,0.00031175610197653475,0.005049175750669645,0.00479377519597551,2021-06-01
52,MMS,-2.189666683211554e-05,4.1852898731280035e-05,0.00048091439736339846,0.0006520553839930766,0.0011824562444797144,0.001994271552212452,2021-06-01
53,EIG,-7.915149098840956e-06,1.1638833269480064e-05,0.0002752160817679424,0.0004335484731265142,-0.0011068401703481813,-0.0009577199821092312,2021-06-01
54,PRA,-1.0159009440932832e-06,5.651518909366391e-06,0.00012860578663250014,0.00021052001839621495,-6.681646395883751e-05,-0.00017285330527513576,2021-06-01
55,MCY,-1.494675184440672e-05,2.371085351831484e-05,0.0003463154993915258,0.0005691885501890024,0.0011058762322826293,0.0016817842894725334,2021-06-01
56,ODC,-1.1273878387835987e-05,7.030269104084612e-05,0.0004116883349829645,0.00045498941521341025,-0.0023368511021450967,-0.002007945785814248,2021-06-01
57,TG,-4.866194565915471e-07,1.5708793639976104e-05,8.875192872272769e-05,0.00014528162500805015,-0.0018445440059309283,-0.0008463153691965121,2021-06-01
58,UVV,-1.0799161850011832e-05,3.263010874805207e-05,0.0002579814693379251,0.0004822033456508569,-0.0009187136129556706,-0.0018936954319869084,2021-06-01
59,VGR,-1.6071484736254676e-06,1.7649835668063756e-05,0.00013954383585962842,0.00026082689074201257,-0.0009131666025146907,-0.001963720299554177,2021-06-01
60,TGNA,-4.2060203506809005e-06,7.413728192864286e-05,0.00020306702139914973,0.0002938012493063065,0.0009627789391038866,0.0007606212460589673,2021-06-01
61,MYE,-2.4680481671597075e-06,2.3896226349107622e-05,0.00026695981315542656,0.0002224371908857793,-0.0020364073868191883,-0.001736970298784618,2021-06-01
62,AIZ,-1.6567146302018835e-05,3.912120726435121e-05,0.0004372787134333519,0.0005526721946557651,0.002514480536140825,0.002744893725981039,2021-06-01
63,HIG,-1.2438792112309795e-06,1.61753231831727e-05,0.00026365494257592946,0.0002285116433780533,-0.0034981227649807786,-0.005454578137971335,2021-06-01
64,HSBC,-7.536382961584925e-06,4.063789970622713e-05,0.00023867402835347056,0.0003952246954634189,0.00616755978950094,0.00748746767457747,2021-06-01
65,MUFG,-1.629766870209226e-05,5.68320711142335e-05,0.0004612552907524932,0.0005527214290367575,0.0027857072208485553,0.0020784376085906187,2021-06-01
66,IT,-2.2311531476676698e-05,0.00019801486678487997,0.00022512627648112768,0.0002952103330462291,0.0009532510035713709,0.0005783045139617436,2021-06-01
67,CNI,-5.8528397734502965e-05,0.0002532981924962408,0.0005217037154070186,0.000596542795791122,0.005038992243036557,0.006498215695926049,2021-06-01
68,CP,-4.556202735484158e-05,0.00022809460650269738,0.0004697933392419498,0.0005371858082643617,-0.00013857201370128555,-0.0009014059166387192,2021-06-01
69,MSI,-5.6537557498176764e-05,0.00015721673140879774,0.0008483328788143529,0.0005856790719603233,0.0005495890882998057,0.00020644410860813593,2021-06-01
70,JNPR,-3.8501586768406585e-05,9.179836298121186e-05,0.00044099960946066935,0.0005137435319336555,0.00028695898410733477,0.0002234565110009202,2021-06-01
71,VMW,-2.870290475751367e-05,7.937626234173547e-05,0.000461268210402565,0.00044422405849962415,-0.0035172595386095333,-0.0046341437287036906,2021-06-01
72,PKX,-1.0450901636739921e-05,0.00010889047643106196,0.0002910534037519725,0.0002711896765476522,-0.0002663835363280762,0.00019241231518446714,2021-06-01
73,APD,-4.7401093345223155e-05,0.00011004282665015836,0.00023655188045272548,0.0005481801988577719,-0.0008171896125101723,-0.00157013003467027,2021-06-01
74,BR,-9.555880405040945e-05,0.0001535827158788343,0.0003301467378848236,0.0007650748921529535,0.00030839553597898195,-0.00044173441477822836,2021-06-01
75,WNS,-2.662606808158446e-05,0.00012134076777501774,0.000274392843070949,0.0004003808083535319,-0.001727004356686894,-0.0025559725795706372,2021-06-01
76,IFF,-2.0537053221573924e-05,0.00011262911984290373,0.0006240816521012779,0.0003716355094312573,0.000518738007912904,-0.0015209413609402283,2021-06-01
77,CLPR,-3.9438981455247445e-06,0.00013365020348854773,0.00016098350876877308,0.00019428005599213388,-0.00027704181534641886,3.7614739139812394e-05,2021-06-01
78,PLNT,-3.258643192477259e-06,0.00012016560022582946,0.00015254792973156642,0.0001746782191933062,0.0012355975473153857,0.0015863318510021102,2021-06-01
79,BSX,-4.774943180120757e-05,0.0002425110175285177,0.0003888186249321547,0.0005326092783089005,-0.0018524772763336124,-0.003005460211064202,2021-06-01
80,COO,-8.027421161791958e-05,0.0003045540312875071,0.000503571909335831,0.0006688698289389302,-0.0008761931934786427,-0.0006420046949389247,2021-06-01
81,FC,-9.848216207983342e-06,0.00017267131907302974,0.0002070421630052276,0.00024409553882844562,-0.00260424785854239,-0.00276675090191105,2021-06-01
82,JEQ,-0.00029966108175480253,0.00025200179351515806,0.0009613873144366671,0.0010004935498005459,0.001922019178490628,0.0023378013892944964,2021-06-01
83,JOF,-0.00039209460664847544,0.0002824784430860463,0.0007844105562243587,0.0011214914637037705,0.003943736644335551,0.005234781286146242,2021-06-01
84,MFG,-7.276856969541475e-05,0.00010025714096545486,0.00054941518493505,0.0006583632800317181,0.005709294673593215,0.006628713977954723,2021-06-01
85,IX,-2.4073497682761e-05,6.986466736267705e-05,0.0006842748749740791,0.00045878359506646755,0.0010313305863657316,-0.00023714740139292112,2021-06-01
86,HMC,-6.559612945556488e-05,0.00014766226203098684,0.0006384581011731157,0.0005895639572307989,0.0015457087389337443,0.001425503388016118,2021-06-01
87,KB,-2.2611461012628615e-06,0.00020886794238835903,0.00034998597019468753,0.00032610023050682273,0.0011415440914143008,0.0014557728555386871,2021-06-01
88,BBD,-7.736132933043737e-07,7.467050033407916e-05,7.32302636174527e-05,0.00018370080850312515,4.787354692155088e-05,-0.0018538580446352628,2021-06-01
89,IBN,-1.3827677210523128e-06,0.00010405553520530994,0.0001002105266223723,0.0002559924717380905,-0.0027139778350141466,-0.0028732629332907647,2021-06-01
90,CIB,-9.40548780310672e-07,9.495092027790738e-05,8.885476442395583e-05,0.0002840433985021663,-0.006244338346270549,-0.007183802227133666,2021-06-01
91,AVAL,-2.348652399250625e-06,0.00012037157927150331,0.00011264333497984575,0.00036008868960173753,-0.002999585765599513,-0.002251387211340235,2021-06-01
92,CCEP,-2.118591021497699e-05,9.9077042981064e-05,0.00033909986651122653,0.00037841970572843826,-0.00033483973079140273,-0.0003373601208325435,2021-06-01
93,DEO,-0.00010387104827289429,0.0001843338381487693,0.0004924398956192977,0.0007040536807440129,-0.0021162517342250883,-0.004060265614417282,2021-06-01
94,RELX,-0.00012100926964146875,0.00013258577666665078,0.0007248158160973397,0.0007705951123596371,0.0006343257590756017,0.0010244227653617316,2021-06-01
95,SNN,-3.0319635131355636e-05,8.042300539161059e-05,0.00038155583770658645,0.0004674224976021582,-0.0012689418825302125,-0.0018408592946241517,2021-06-01
96,JHX,-1.789772981857499e-05,8.786931208103556e-05,0.00014899623890960123,0.0003209184143045346,-0.0022243768563967917,-0.0016030385755591303,2021-06-01
97,TV,9.453818835449379e-06,3.456308723132422e-05,0.00015167013946626025,0.00011840413041760118,-0.0021593326583324362,-0.0018221231165533767,2021-06-01
98,AMX,-6.753602443250177e-05,0.00010630635063594421,0.00030234254119699167,0.0005701713435828523,0.002778635668366808,0.0028419058335683554,2021-06-01
99,MXE,-0.00014111667543842947,0.0001447642447990743,0.0002765931914893045,0.0007764392575426877,6.298260896547378e-05,-0.0002463545618605422,2021-06-01
100,KOF,-4.6293502817911126e-05,8.624930783538423e-05,0.0002014049289630272,0.000565374341528351,0.0018477773951205544,0.0025295664794828766,2021-06-01
101,FMX,-2.4657859608787314e-05,6.889003782300273e-05,0.00024260205252976512,0.00045158228801535344,0.005808404384259338,0.007508269778256941,2021-06-01
102,PAC,-2.8899982798374328e-06,3.270764577113411e-05,7.956557310461726e-05,0.00023041730285558673,-0.002442604481061297,-0.0030465322056962697,2021-06-01
103,ASR,-4.862284694549496e-06,3.7055415197851865e-05,0.0001875897647250344,0.00026104626685232964,-0.00035263291282393864,-0.0005655151044856257,2021-06-01
104,BH,2.185915769231651e-05,0.0001308569220070588,0.00014167202783127585,0.00011975286898489427,0.0005176029359783839,0.00010299767403522343,2021-06-01
105,DLB,1.7051566214288275e-08,0.0006172276855277118,0.0004027697279422792,0.0005419764980375369,-0.00014253067626482008,0.0007597808300068939,2021-06-01
106,SCI,1.528088581405502e-08,0.0005802675145583306,0.00046794896098998365,0.0005095224385412793,-0.0009590489784064483,-0.002585050666029846,2021-06-01
107,A,2.5846117331650234e-08,0.00017945865681960412,0.0007639663702856773,0.0007219000926773082,-0.0017517745909287775,-0.0032055722075895673,2021-06-01
108,HASI,-2.1387004216926446e-10,4.140046098752599e-05,0.00010753715294991488,0.000166539732066653,-0.004876794398457469,-0.006681254823614316,2021-06-01
109,FN,4.863644037470521e-09,4.807314224249367e-05,0.0002760172458612523,0.0003426362732793462,0.0015298043651791433,0.002620392905309329,2021-06-01
110,MXL,-3.1468191627736383e-10,1.4714877760577181e-05,5.6150589208894893e-05,0.00010487874606184183,-0.002660090388317925,-0.001430512073104632,2021-06-01
111,CIEN,3.43993576329144e-09,6.541215287445369e-05,0.0001622919913811201,0.00030406450469770864,-0.00029375612455362685,0.00010644064276875057,2021-06-01
112,GDOT,2.510009352695203e-10,0.00010708725789982036,0.00022834706292294648,0.0001958699700466399,-0.0025802518684688966,-0.003913188385990086,2021-06-01
113,EVTC,9.136776314316097e-09,0.0002202728373692288,0.00033035007750709724,0.00038354945309735993,0.003966675987511157,0.004568089451073215,2021-06-01
114,NKE,1.5764669481017576e-08,0.00030663376072333985,0.0003896170880023389,0.0005339251658591168,0.002698619842788637,0.0026261233792888167,2021-06-01
115,WMS,-4.773171152031219e-09,0.00010725302258703475,0.00014299401282677214,0.0001804136460346552,0.001135687539601826,0.0020302037278694817,2021-06-01
116,BXC,-9.0517008158028e-10,4.053144633659473e-05,9.904380025564216e-05,6.817920685367222e-05,0.0013668397704121869,0.0005975327368649345,2021-06-01
117,DECK,-1.3478415037167826e-10,5.1308374791425635e-05,0.00015557693956278138,0.00023306537217106796,0.003902742050873002,0.0046460383775845755,2021-06-01
118,LAD,-6.356291616558906e-11,3.784452572904597e-05,0.0002238280344005166,0.0001719066041271619,0.0012570530463663554,0.001182747753823649,2021-06-01
119,RH,-6.292056154855372e-11,5.425883928492963e-05,7.895178464361966e-05,0.000156049628876548,-0.00036766732022094434,0.0005125234448605095,2021-06-01
120,LCII,-1.2367636993644962e-10,4.5027158849705526e-05,0.0001441199207467199,0.0002159019393265829,0.003219701579370912,0.003026075566172002,2021-06-01
121,PII,-1.5594206643985722e-10,3.113646938217319e-05,9.587395874987954e-05,0.0002641992602867661,-0.007355369977143704,-0.008776441070864525,2021-06-01
122,BC,-7.972688392078872e-11,1.5538276416371525e-05,8.504856052879645e-05,0.00023436777904188203,-0.00018324837239139732,-0.0015674567366790982,2021-06-01
123,THO,-1.97202342757e-11,1.186126528880205e-05,0.00011441790527519029,0.0001789064840830178,0.0006938513141534077,0.001220694579524776,2021-06-01
124,GFF,-9.79017249430697e-11,6.205489666838375e-05,0.00013551669296855075,0.00018307932935836035,-3.755664687156509e-05,0.0007688075123640606,2021-06-01
125,DKS,-2.64609586155313e-11,8.999916386966459e-05,0.00020698964083182633,0.00015980662607718564,-0.001776307697345448,-0.002017518905248605,2021-06-01
126,SKY,-1.0396586217066455e-11,6.364595665694206e-05,0.00011712820253790505,0.00011301266766800477,-0.0008999627880871886,-0.00037577527329166926,2021-06-01
127,FDX,5.022931044943911e-09,0.00021672426141568845,0.0003895119180615497,0.0003679904146535165,0.002036268629307225,0.002755284559353069,2021-06-01
128,STC,4.059064778750668e-09,0.0001930949646647651,0.00026196496909072076,0.00032786867354090007,0.0009281196233948962,0.0031225381612952716,2021-06-01
129,FND,-1.9659723817320164e-09,4.2410957491750466e-05,0.00013647047498527504,0.00019111941935095626,0.0002685579237243943,-3.518738361605809e-05,2021-06-01
130,SITE,-1.7245596188642831e-09,4.046136107440375e-05,7.216959134425108e-05,0.000182333818711676,-0.0011155524199515658,-0.0016619507543455877,2021-06-01
131,BZH,-5.517468392209709e-12,4.133856421142573e-06,6.0665112170793923e-05,0.0001024098688705893,-0.002079381856171445,-0.0017237984990804412,2021-06-01
132,CCS,-5.746461773029198e-12,4.1756209696386514e-06,4.094439986743822e-05,0.00010344452065797296,-0.0037774646442172853,-0.005608113816248116,2021-06-01
133,BLD,-4.886611896713823e-11,1.1258441746959209e-05,5.176715370876262e-05,0.0001591254942772882,-0.0014920711343551283,-0.0007668252065944969,2021-06-01
134,NVR,2.2950018462290062e-09,4.120791550959333e-05,0.00018232510271905632,0.00033110810406304506,-0.0016124103365222436,-0.00311802041824665,2021-06-01
135,BCC,-6.53653680203031e-10,2.2992964415486845e-05,6.456526968170487e-05,0.00016685091696489566,-0.0017401940878135549,-0.000607447801324566,2021-06-01
136,MAS,1.043200548579835e-08,7.494467627202538e-05,0.000649857347316367,0.0005438440964664072,0.000700806953645706,0.0003683480713712081,2021-06-01
137,BBY,1.98358783498793e-09,4.5342545374492854e-05,0.0002951607758365569,0.00032155322455671017,0.00092445252756171,0.0010897595585404104,2021-06-01
138,WHR,1.8758048090235644e-09,4.433281853708427e-05,0.00019650483903919193,0.0003143926005156784,-0.0012405050038611421,-0.0007177160830734553,2021-06-01
139,LII,1.0187108458005432e-08,0.00012714476576571097,0.0003430293762379542,0.0005646633329614086,-0.00026912381684908747,0.00024989093837926064,2021-06-01
140,EFC,-2.687082946772524e-09,0.000231410442680108,0.00021981929433737463,0.00020234359529589579,0.004813139945042182,0.007141992170222234,2021-06-01
141,TWO,-1.0790590307489407e-09,0.0001629979987227938,0.00013979795578439135,0.00014252425562833525,-0.00021230258595730854,0.00013132611225413838,2021-06-01
142,RC,-1.275626372993115e-09,9.494507754250576e-05,5.1080819183893034e-05,0.000149492340831601,-0.0009181078276370156,-0.0008004168283336088,2021-06-01
143,RWT,-1.049622552361477e-09,9.011246635070323e-05,4.73659082234915e-05,0.00014188332751473756,-0.0004555620220729321,-0.0014778264197282964,2021-06-01
144,GPMT,4.1672950712196367e-10,6.323154538162321e-05,2.4767627331155368e-05,5.7504510866172116e-05,-0.0049429191541091235,-0.004801049223270314,2021-06-01
145,NL,-6.032972916730067e-11,4.1472717579968216e-05,5.377528868474505e-05,7.295877931207267e-05,-0.001537386398269139,-0.0016426553194524127,2021-06-01
146,UIS,-2.872229526162227e-10,0.00010091035564816763,0.00026199487240414365,0.00017752143572075677,0.0022696047688502614,0.0021511779697699356,2021-06-01
147,DFIN,-1.7756573302654583e-10,9.88174763380694e-05,0.00017296975902695194,0.00012777100158558363,-0.0007700040961575092,-0.0003119851741960634,2021-06-01
148,WLKP,3.624381367456255e-09,0.00019110114158348815,0.00042647817203394,0.00043246237992672045,0.006204879165921716,0.00807906280881482,2021-06-01
149,AEL,1.838773516505031e-10,2.2335878426428516e-05,8.67311928137232e-05,0.0001425474804926213,0.00040599005307484016,0.000768567355514762,2021-06-01
150,KAR,1.561611340871457e-10,2.0240677384603886e-05,0.00023026291186629865,0.00012917591641371651,-0.0018152189260744612,-0.0018752751879021804,2021-06-01
151,F,3.2803190673819237e-10,2.8585423759605366e-05,0.0001708779801414899,0.0001845630734532344,-0.0006089850001373848,-0.0005802773122006675,2021-06-01
152,REVG,9.416434067885689e-11,1.4549521443919845e-05,0.00015622879295662656,9.393963922123989e-05,0.0031759939759991793,0.004006542858326212,2021-06-01
153,CSV,1.9885581377678775e-09,5.144562274379501e-05,0.0003336951750783924,0.00034416388327352537,-0.00027515643523368707,-0.0007531918489970459,2021-06-01
154,KMX,1.043429280566194e-09,2.621944471382479e-05,0.00024426302963233553,0.0002630386067705206,-0.0018104797728989996,-0.002628268283168957,2021-06-01
155,UA,6.642726502328903e-10,2.0976041731670817e-05,0.00010812234657314265,0.00021043576066848428,-0.004405804321371946,-0.004584683154982238,2021-06-01
156,OPY,8.884797019512611e-10,3.916014471171703e-05,0.0002879079744299251,0.00025319617078718774,-0.0006813295574271219,-0.0009029115005890685,2021-06-01
157,SKX,4.4501513038693477e-10,2.689664055039286e-05,0.00016022536818016255,0.00017390452575016214,0.0006535803534619717,9.779380760547934e-05,2021-06-01
158,CRI,8.640982985603876e-10,1.7779218108362907e-05,0.00022336265759253515,0.00026020685313987984,-0.0007073116060731294,-0.001987198065370089,2021-06-01
159,SIG,7.965264506312378e-12,5.004522923711311e-06,7.763784339961764e-05,7.324344375036286e-05,-0.00032843805416550906,-0.0005952391649109719,2021-06-01
160,MOV,1.6506334324419666e-10,1.1304468410177006e-05,8.850913914510679e-05,0.00011578771129549563,-0.0009028799234768704,0.0001016567752818025,2021-06-01
161,BKE,3.255024747015408e-10,2.1566187341223673e-05,0.00010124377700584399,0.00014563394189603574,0.001424990487627508,0.0015117129506991072,2021-06-01
162,GIL,7.628572620487028e-10,5.352298180429284e-05,0.000351570632985261,0.0002400288832654057,-0.0032080132632881795,-0.0036380647025942344,2021-06-01
163,CODI,3.230407604519113e-09,0.00013482833478154106,0.0005376801376652125,0.00040861328966602467,0.0024882463987923255,0.001647958085024514,2021-06-01
164,FPH,8.679474119134217e-10,6.044616750258871e-05,0.00019517279340772604,0.00018318929319238177,0.0016152203455920516,0.0017774679045064834,2021-06-01
165,AVNS,1.315379246166579e-09,2.0844118933104917e-05,0.0001702494185141048,0.0002461742220156795,-0.0007230622864519086,-0.0026734503832863124,2021-06-01
166,BMI,1.8158008292030423e-09,1.2401410410667682e-05,0.00024824963333956214,0.0003315203957436593,-0.003952999078190088,-0.004923128258445232,2021-06-01
167,DAR,5.049823076587793e-10,6.5332294772027175e-06,0.0001549286328287704,0.00017464939470943414,-0.0022098391363535776,-0.0023384013788964324,2021-06-01
168,MC,1.6477792534406611e-09,1.1357060793381005e-05,0.0001774247742629148,0.00035086010706931276,0.0031375620464110937,0.004961621393670603,2021-06-01
169,PJT,1.5739525005213536e-09,1.1190277045855361e-05,0.00017481920850133091,0.00034570756235912043,-0.0015275673816398853,-0.0007161049185809163,2021-06-01
170,SEAS,3.1219527190513353e-10,7.2700611758188695e-06,8.985338527576307e-05,0.00012603370154655927,0.0014480767757667305,-0.00022857799534009414,2021-06-01
171,SEM,6.483568822983049e-10,1.0748160394025633e-05,0.00024263307792932298,0.00018632999179991015,0.0016605971912374742,0.0018251139122907782,2021-06-01
172,GHC,3.298301944558544e-09,3.301921247204311e-05,0.000427712971495358,0.0003952015863635631,0.0009038334258433281,0.0010093038519670156,2021-06-01
173,SFE,4.650182175943825e-10,1.8831344193395404e-05,0.00019914635290339464,0.00019386919461785994,0.0012974432214447162,0.0010765112934630623,2021-06-01
174,MCB,3.7975559724909386e-10,6.771278658498402e-06,0.00011176770655054366,0.00015423895796382712,0.0018310557283111783,0.0029029750203315697,2021-06-01
175,BSIG,5.674814170518665e-10,5.973612381647203e-06,0.00013775021456523105,0.00019778039244406202,0.0007441257646185508,0.00040978092368108696,2021-06-01
176,DY,1.1953117589860403e-10,2.8349765066290034e-06,0.00011114807737070133,9.386326568048402e-05,-0.00258874574349426,-0.0023876711807005657,2021-06-01
177,EVH,3.11001990566332e-10,8.913919005719451e-06,0.00014477996616819739,0.0001355406397196689,-0.0005141591570529637,0.00021561414657961556,2021-06-01
178,VLRS,3.3274759889704076e-10,1.0064161309185924e-05,0.00013881023098030827,0.00014695877904051508,-0.0006595286459336252,0.0008454851826746913,2021-06-01
179,GMED,3.787456271116393e-09,2.286176286173184e-05,0.0003240707783423657,0.00046859409231895957,0.005223183234112364,0.005630800231656482,2021-06-01
180,RM,3.5823128541724634e-10,7.758162693881675e-06,0.00013637501201062898,0.000159017886222922,-0.0016413960185630632,-0.001884733079244689,2021-06-01
181,BRT,-8.099878077370335e-11,1.710723934850996e-05,0.00021910526222861096,0.00014677463101899274,-0.0005118112081279762,3.96926597924507e-05,2021-06-01
182,MOD,6.528723650349645e-11,1.0063796829428232e-05,8.864855432554991e-05,0.00012363175059308673,0.0019766833116455084,0.0020067081959775205,2021-06-01
183,CTS,4.074712604220267e-10,8.306278969729617e-06,0.00016911572781636166,0.00023585351889641285,-0.0016676835294800114,-0.0034388785248483183,2021-06-01
184,ROG,2.556162288123745e-10,6.712358923072181e-06,0.00011578511854404634,0.00019059478713292523,-0.0040154171505088826,-0.004307175539406914,2021-06-01
185,KWR,8.115825226728782e-10,1.670047037097001e-05,0.0002646665540248038,0.0003086101724533589,0.0015664473628449788,0.0010070739991855434,2021-06-01
186,MLP,9.998888054103907e-10,2.7018623118692882e-05,0.0001787617391226837,0.00032762535506707194,-0.0018790263397842934,-0.0025864818507587077,2021-06-01
187,JOE,3.884147945910619e-10,1.5922694622113526e-05,0.0001403576675324601,0.00019307714002588582,0.0035848568383609635,0.0030307669024991495,2021-06-01
188,ORN,1.5495332084205306e-10,3.29647236717333e-05,0.0002262580049038254,0.00014204492307001989,-0.00015775910113635265,-0.00021183729360604221,2021-06-01
189,APO,4.544556798309454e-09,0.00010518219559772845,0.00014276677531248588,0.00030750096434617013,-0.0018980414082787284,-0.0022925494096619663,2021-06-01
190,CEE,1.779234747572352e-08,0.00023077627837178371,0.0003624540748071994,0.0006746762391131928,-0.00017300814420533468,-0.0007113779955310301,2021-06-01
191,EVRI,-3.084763634267297e-10,4.1482084165155294e-05,8.791124697537253e-05,8.854145045545677e-05,-0.0017824129492499483,-0.002997942784499866,2021-06-01
192,BWXT,1.0952645831537019e-08,0.00012703199282430516,0.0006026766466748157,0.0006082093498720256,0.004877558724347828,0.005968413889848801,2021-06-01
193,TX,1.0744478492046457e-09,4.281504090647205e-05,0.0001118493361502771,0.00020499173173237976,-0.00018758124353688253,-0.0004036230826043587,2021-06-01
194,CNNE,4.40963262639884e-09,0.0001023597753603982,0.000287627401777924,0.00035098779339282104,0.00278350157699343,0.0025605022583954098,2021-06-01
195,AGX,4.410102718503943e-09,0.00011718222997680312,0.0002270519479799266,0.0003646004221196438,-0.002252556208979358,-0.0035030941246656597,2021-06-01
196,CNDT,6.861221918872452e-11,2.2258908529729313e-05,7.746038246364958e-05,6.925629805362454e-05,-0.0019500917269921366,-0.0017011199327572814,2021-06-01
197,ELF,1.9993416499982976e-09,0.0001123323893043972,0.00027933431714241206,0.00025062388655356987,0.0029334745572409068,0.002621657628952549,2021-06-01
198,MTN,3.2259249171450725e-09,0.00014802415104867917,0.0002505721514062785,0.0003302554879259605,-0.0016209448014870857,-0.002840680169958151,2021-06-01
199,CLF,2.3088985953098925e-07,2.0076240726263405e-05,4.3632177117830254e-05,7.37374679634152e-05,-0.0013592557602032332,-0.0017112758660746833,2021-06-01
200,X,1.2771935631244327e-07,1.7505300981742648e-05,3.8044691899770825e-05,6.429473465331536e-05,-0.0026563614729795655,-0.004060566276132337,2021-06-01
201,SXC,3.845644893325084e-07,3.8739660848745175e-05,9.648197671966055e-05,8.074257169066439e-05,0.002108325638682016,0.0017027972518739117,2021-06-01
202,FLR,3.5450274066873854e-07,5.591778915807408e-05,0.00010809770670024378,7.014270512273647e-05,0.003370641578881601,0.002434946149542882,2021-06-01
203,MSB,4.816754970028918e-06,0.0002776118229743282,0.00022945325721134956,0.0002233729994522572,0.0038552604800215075,0.00514664133033991,2021-06-01
204,LPG,2.8098157106804366e-06,0.00021063136651718357,0.00013972019279696226,0.00016701607136281586,0.0024362362057671664,0.0028531269754901987,2021-06-01
205,TPC,8.114097428393046e-07,0.00010723913173849439,7.848871452893928e-05,8.503319698047734e-05,0.005469996084669178,0.005260365304516117,2021-06-01
206,BHP,2.8534832517016084e-05,0.0001469489208631401,0.00027226956224646695,0.0003599793883948633,0.0010660383040549792,0.0022205332995470332,2021-06-01
207,VALE,6.38357696683744e-06,9.721786871521465e-05,0.00017607347690166958,0.00023815369800332705,0.0026536131140115432,0.0032248204869766875,2021-06-01
208,HBM,-9.430359158581763e-07,3.351862486116547e-05,3.580905068731653e-05,8.323138900430193e-05,-0.0035953016089583394,-0.004814083462773928,2021-06-01
209,TECK,-4.911200028980194e-06,5.049746513680033e-05,5.942162177582822e-05,0.0001253922015578195,-0.0007297348620394112,-0.00010932608068873425,2021-06-01
210,ALB,3.538843409736076e-06,0.0001008184824970071,0.00014069556907450793,0.00015108446769249672,0.001456287072957062,0.002422014981134869,2021-06-01
211,SQM,4.892863834902731e-06,0.00011065036832755768,0.00015441629505395305,0.00016581832601223728,-0.0025631888633213004,-0.002898802896115514,2021-06-01
212,NVGS,2.2749685228561464e-06,0.00014464274042971068,9.158335265775718e-05,0.00011515610672221899,-0.003288230083669848,-0.0034095640883629276,2021-06-01
213,BBU,1.7128830049069384e-05,0.000273013912610898,0.0004742685923872774,0.00029933412305531583,-0.0002173490449522419,0.0005479409577805099,2021-06-01
214,DB,1.3427531196253688e-05,0.0002347082980055273,0.00014486651247673304,0.00025733561299280764,0.0023829891963400803,0.0020044205162522066,2021-06-01
215,DESP,-6.242054480557991e-08,5.186150450052932e-05,8.881643701815906e-05,0.00010227482542967282,0.0006668473993515486,0.0004238030213352372,2021-06-01
216,AZUL,-2.1580851390574206e-08,2.2793819169676793e-05,5.234067309166633e-05,7.354185735850612e-05,-0.0031761037958833232,-0.0037810246551167504,2021-06-01
217,ERJ,-4.038081294248441e-08,2.8453016760839807e-05,6.533569638615047e-05,9.180066247206853e-05,-0.0007640672784991113,-0.001008720539784437,2021-06-01
218,IGT,-3.759605106405506e-08,6.259178226727301e-05,9.435871917125668e-05,8.048731430854286e-05,-0.0016463483034054656,-0.0022252361787085846,2021-06-01
219,CPS,-9.23752606485127e-09,2.2945214658481845e-05,3.292153369408223e-05,4.4665774376082226e-05,-0.0006777205613107727,-0.0003835566716219276,2021-06-01
220,COTY,-3.08360849100469e-08,3.9240351071535426e-05,9.517086229608761e-05,7.638632688718652e-05,-0.002921763777407102,-0.003305863664908075,2021-06-01
221,FTAI,5.230659024768971e-06,0.0001851552480529268,0.00019127899132698618,0.00017224235405133905,-0.0030151647726423926,-0.005830272420633347,2021-06-01
222,PRO,3.7544542465812616e-06,0.00011349805402064023,0.00014137533916129617,0.00016279799796321592,0.0011656002688144591,0.0012231534887940784,2021-06-01
223,CNK,5.3474646357143416e-08,9.914231545469893e-06,5.1140989735300886e-05,6.261485947083979e-05,0.00037797447343614,0.0009242290306778554,2021-06-01
224,MCS,8.952934608752822e-07,1.539647377961203e-05,5.6643483297922895e-05,9.723880642039053e-05,-0.0013478766005178763,-0.0018106687705858647,2021-06-01
225,YELP,2.6149359699173194e-06,4.1899254465423735e-05,0.00014022387316049776,0.00015070536469575293,5.411315627817642e-05,-0.00021547360608465131,2021-06-01
226,CCL,-2.1547243966251274e-07,2.0720078022727993e-05,5.135870295040243e-05,7.751577018002595e-05,0.004213918204461548,0.005427769551944323,2021-06-01
227,FUN,5.3535328355206875e-06,5.271147967699701e-05,0.00010099151647616804,0.00019719862734152244,-0.0006297140787114388,0.000915655301728769,2021-06-01
228,USAC,3.6797689585722704e-06,9.648190687497717e-05,0.00013959860351031957,0.00015655057413283384,-0.0026969601883393424,-0.003930318472890613,2021-06-01
229,KNOP,2.5315505679384827e-05,0.00016823261645093255,0.00031793865558283734,0.0003979239118693843,0.000550793695437203,-0.0004939037532425814,2021-06-01
230,SFL,5.112653592909702e-06,7.916234332987501e-05,0.0001188624358421809,0.00018724424546864686,-0.001668914475687111,-0.002166205033527383,2021-06-01
231,MAC,2.2301954500560068e-08,9.543851227955809e-06,5.931553353408687e-05,7.150933333020156e-05,-0.0023047363060670037,-0.0026676731180939857,2021-06-01
232,SKT,5.685337767129231e-08,1.1892927380847987e-05,0.00012426658197063454,8.911028556876387e-05,0.0023032181952029555,0.003482616606759838,2021-06-01
233,M,3.8557811470876133e-08,1.710611348351999e-05,6.0787954142991185e-05,7.3284447028941e-05,-0.004305764177184597,-0.005124225807334452,2021-06-01
234,BKD,6.270340254259322e-08,2.914949648537043e-05,6.935099247493843e-05,7.519368992777254e-05,-0.0006968433686475058,-0.0006320789605521507,2021-06-01
235,CORR,4.672530710446338e-08,3.806836923530371e-05,6.852079156772387e-05,6.473484720796011e-05,3.0539282789890588e-06,9.972930694196596e-05,2021-06-01
236,CMRE,4.100773806353866e-06,0.00010469748729338455,0.0001307553881997307,0.00016764137150795786,-0.0009758977151197515,-0.0015817260351118155,2021-06-01
237,TWI,6.897213152242718e-07,4.321287488817878e-05,3.2106537149375456e-05,6.91923540892258e-05,0.004618422022094681,0.004953916805462251,2021-06-01
238,WMC,1.3122797881613893e-06,7.420415469358559e-05,4.1550175381868195e-05,0.0001244624533363552,0.005404033947172065,0.005821020796955528,2021-06-01
239,EEX,4.1915245363938377e-07,3.0002419031464765e-05,0.00012755103623068834,7.175074447774941e-05,0.001237658198111342,0.0013229718730894376,2021-06-01
240,TISI,2.7543521387522616e-07,2.363046442263476e-05,0.0001144212356906789,5.651222366106117e-05,0.0015184163772875988,0.0025446213454021717,2021-06-01
241,IPI,-1.1071066927811866e-06,2.8338378341778336e-05,4.2895790330136956e-05,4.615565612173132e-05,-0.003605009418752652,-0.0045924640834523345,2021-06-01
242,QUAD,-2.2455918210372233e-06,4.16303878479752e-05,5.0008483582784486e-05,6.780479258732578e-05,0.00355510344735118,0.0037720620136589334,2021-06-01
243,SSL,-1.0881310971174586e-07,5.355028767646762e-05,7.565379950404956e-05,7.460244856177289e-05,-0.0038723542060426545,-0.0032876957079311315,2021-06-01
244,CLB,-2.2465016118958563e-07,1.5349542917947868e-05,6.377546834776913e-05,9.488460235487536e-05,-0.0006649745868405094,-0.00013084096291758967,2021-06-01
245,NBR,1.4443739245022828e-09,6.201679891802895e-06,2.0045547546582644e-05,3.833625102789804e-05,-0.0016184917498367618,-0.002666510250252978,2021-06-01
246,TDW,-1.8813910357359008e-07,2.2787322017931902e-05,4.164531242902371e-05,8.9099389282621e-05,0.003901452518984106,0.004449486557989921,2021-06-01
247,FTI,-1.9522279321480884e-08,2.347584414435789e-05,7.807158043445934e-05,9.386263429746675e-05,-0.0013057128560891014,-0.0015891761529852988,2021-06-01
248,TS,-1.0917412051142865e-06,4.206073186943487e-05,0.00020234154754524022,0.0001681699311627694,0.0024773417781029147,0.0023515642281821654,2021-06-01
249,PDS,2.325688272970911e-08,6.06230802077291e-05,6.171578757020664e-05,8.425316339146366e-05,0.0027195470171225504,0.002884099366087363,2021-06-01
250,CPG,-4.423050900358761e-08,6.37867627523761e-06,3.173029702487322e-05,8.253205087583835e-05,0.00043800979888949937,0.0013521231403464521,2021-06-01
251,ERF,-6.856451096411581e-08,6.971053238691044e-06,3.436623676537987e-05,9.019666396730493e-05,0.000501909082654866,-0.0015969547187342785,2021-06-01
252,BTE,-2.6197188094275773e-08,9.657869822910018e-06,3.108918471247833e-05,6.964255136382526e-05,0.0007971285445568759,0.002512713345533962,2021-06-01
253,MTDR,1.576589008398604e-07,2.725552642846802e-06,2.2521461351008425e-05,5.8579419933024744e-05,0.0001624422109802077,9.250355516377082e-05,2021-06-01
254,SM,-1.5906000167767667e-08,1.384376199726867e-06,3.671790870456818e-05,2.975394915299875e-05,0.0032430716910952758,0.0036513889684449824,2021-06-01
255,APA,2.7798059403707844e-09,2.055592494696477e-06,3.0244272159923152e-05,7.937827093399968e-05,0.0021705715339121094,0.0018382030939689629,2021-06-01
256,EOG,-7.286264556712291e-07,3.439710402966623e-06,0.00011385690458369209,0.00013282703892217605,0.005320668898720404,0.006755942013240043,2021-06-01
257,MGY,-2.0416391131032113e-07,4.429103791551206e-06,4.3628144710624393e-05,9.773094203073593e-05,0.004308845393663569,0.004494060992737567,2021-06-01
258,KOS,9.752290653943597e-08,5.544690201631471e-06,3.5295133344833907e-05,3.876399317971094e-05,-0.0035912650315476917,-0.002737897072569751,2021-06-01
259,EC,-2.739648743080047e-06,0.00010166292062299842,0.00016414822948098264,0.00023220812376138948,-0.003216024918539199,-0.003581003031757196,2021-06-01
260,PARR,2.8585763615301655e-07,5.554443554640501e-05,8.086017960422937e-05,8.223280881602457e-05,0.0014804866644608928,0.0015987784143761616,2021-06-01
261,DK,2.988027240622984e-07,3.1192185154408206e-05,4.540879152019879e-05,8.007094406683801e-05,-0.0024751289929218047,-0.004136612230690458,2021-06-01
262,PBF,-2.6786943596047267e-08,1.61222453395522e-05,2.3470355598275883e-05,4.138611637577707e-05,0.0011700209047844933,0.0026589880111250325,2021-06-01
263,REX,-2.3516761931785777e-07,0.00010820500060068234,4.90829584884232e-05,8.283134179596342e-05,-6.0013622424143384e-05,0.0008815994529780806,2021-06-01
264,SOI,-5.355919672905302e-07,0.0001644427886421127,7.881960740773124e-05,0.0001258815836262776,0.002495685257917156,0.0036960970288120363,2021-06-01
265,TPL,-5.252497953979871e-07,0.00022377216569996903,9.262449543195285e-05,0.00011646523054154869,-9.445654114854548e-05,-0.0001339782804942388,2021-06-01
266,GEL,1.047451024513428e-07,8.253643482446854e-05,9.85108146814945e-05,0.00010099656367381697,0.00014874306157798927,0.0017826725365014616,2021-06-01
267,HEP,7.518390958495872e-06,0.00019031449298344738,0.0002457131980121338,0.0002328803012818611,0.0011665103914607153,0.0012205838051328138,2021-06-01
268,CEQP,5.10615224830213e-07,5.579190409600591e-05,7.310653113986935e-05,0.0001245648863183791,-0.003373885467457768,-0.0032321812194208094,2021-06-01
269,NS,1.3618548574349e-06,4.47436499973483e-05,9.976389987455696e-05,0.00016998589117539346,-0.0010840493008055815,-0.0009755509653461855,2021-06-01
270,WES,1.5250273755113787e-07,2.752254635039457e-05,9.83004020144275e-05,0.0001045610845128897,0.0019414600722866076,0.002100424565728081,2021-06-01
271,MPLX,1.3268628079956085e-05,0.0002205466248749825,0.00020361855114522947,0.0002880438118275536,0.002305584410890783,-4.098635438008644e-05,2021-06-01
272,ET,3.1208457678964577e-06,0.00016352134283119022,0.00015492674041213444,0.00019580097838663792,0.0033983379184744705,0.0029610889826473187,2021-06-01
273,ENLC,3.3909538222235556e-07,7.800764729982466e-05,7.39076032164046e-05,9.34066061254976e-05,-0.00032167325819140594,-0.0007345675020187187,2021-06-01
274,ENB,0.00012086013347647414,0.0019497441930365152,0.0005942808166357848,0.0006183817739864181,0.0012031506931245504,0.0027132562301550728,2021-06-01
275,DSL,-0.0003516476874498567,0.0005181527916159135,0.0005290263520884779,0.0009930553703446816,-0.0028025821435297103,-0.003322691876067025,2021-06-01
276,PPT,-0.003200104289557281,0.0010852493270998532,0.0014208628937737995,0.0020799128941841705,0.004947120371815557,0.005193403356071013,2021-06-01
277,MSD,-0.0057830048917805405,0.0007935798521794414,0.001868833683230818,0.0024331780896728445,0.004285006660075504,0.00433914382648608,2021-06-01
278,EMD,0.00018866085462218736,0.0003763786811442121,0.0005847938627569063,0.001154006566402825,-0.0020784395104621266,-0.004467762735902614,2021-06-01
279,EDF,0.0005544067330369966,0.0002392748463033177,0.0002821001341684572,0.00044037413853867077,-0.011235363133194771,-0.013255042891464532,2021-06-01
280,EVF,-0.002911052987399756,0.0012017271147812868,0.0016309618195666418,0.0027597620058874024,0.002759165923656335,0.0029075526940842123,2021-06-01
281,EFT,-0.0005586646897159252,0.00048315577512758156,0.0016592263494440982,0.0019664133587554027,0.001589918286796665,0.0015993492382739133,2021-06-01
282,EFR,-0.0011953976116607565,0.0005702502738370906,0.0011950851572998945,0.0023208824441994505,0.002755985871647425,0.0024094172583442835,2021-06-01
283,DSU,-0.00015206479216860853,9.340256268846617e-05,0.0006379970846609052,0.0017362905801350673,-0.00022980344830631145,-0.000493870933761861,2021-06-01
284,FRA,-0.00037448743774041543,0.00011381880017638559,0.0017891919580075284,0.0021158146511213154,0.0020136088266936086,0.001605671404420419,2021-06-01
285,JQC,6.403221508089259e-07,0.00013680585754215276,0.0007280488168741084,0.0014394309331442355,-0.001389343789656255,-0.0023536649446582953,2021-06-01
286,AFT,-0.0003971828310404055,0.00011812285589454657,0.0010493736546447353,0.0022230806695826676,0.0027876907817865853,0.0035285234029537624,2021-06-01
287,BGB,-0.00014218210973902833,9.691990242108817e-05,0.0008610119645449915,0.0018240395555836444,0.0019066001616433715,0.0024406061046814047,2021-06-01
288,ARDC,-0.0001709254849398773,0.00017550693538150792,0.0009325687380686202,0.0018437888473230957,-0.0006093037858186206,-0.0014497024006724349,2021-06-01
289,NSL,-7.099996194508467e-05,0.00031100194879792373,0.00116570181834028,0.0018197259478721737,0.0021045660061864866,0.0024214276440916414,2021-06-01
290,KIO,-0.00022857822163933618,0.0007519216038432603,0.0015429050570852018,0.0017250035657551273,-0.00025046964221129344,-0.00014281258236281357,2021-06-01
291,DHF,0.00043897006341066404,0.001128574674255296,0.0008438497722784009,0.001335885540611276,-0.0001584147888384464,-2.5171572857063116e-05,2021-06-01
292,JPI,-0.0002843609038603249,0.0004718711670891321,0.001042879875486403,0.0017646643977457987,-0.00060222497609867,-0.0013227586556074126,2021-06-01
293,PHT,0.0006359911435726812,0.00021284549209251618,0.0006630454859433543,0.0013601227557987654,-0.003489712435715667,-0.0059813501640773575,2021-06-01
294,BGH,-0.0005375250350148975,5.421008828110102e-05,0.0007175017711870367,0.0019526602808920593,-0.0006505080309929804,-0.001363672151750539,2021-06-01
295,IVH,-0.0009653098159134006,6.364383659981608e-05,0.000905482087383739,0.0022924661403912615,0.001205178448054611,0.0013940331032281856,2021-06-01
296,HYT,-8.145315944263265e-05,2.353643648672222e-05,0.0013350231283336352,0.0015960337363729038,-0.001001950418060066,-0.0009618199688281238,2021-06-01
297,BLW,-0.00022683290049763208,2.972783253752922e-05,0.0013475723309745444,0.002015879662407992,5.529214800027824e-05,-0.0007159671295396074,2021-06-01
298,AWF,-0.00034913280592775486,8.828587817796556e-06,0.0007280484788160846,0.0020387520854983337,0.0023618896261065206,0.003614877331819843,2021-06-01
299,GHY,-0.00043720662837160387,9.247348960908211e-06,0.0009040387727926093,0.002135454997839939,-0.0005784527303419848,-0.0014332746972992034,2021-06-01
300,VLT,-0.0005813372074436945,1.718733257476257e-05,0.0007904198381229196,0.00221341042565304,0.0017274106683038113,0.001722525106177631,2021-06-01
301,FSD,-0.0019286124105584303,3.7516690563664335e-05,0.001324562241178133,0.0026417660262395347,-0.0001041773445752942,-0.002050473542521589,2021-06-01
302,JGH,-0.00025619871052146156,0.00016409360969290532,0.0013250833234396983,0.0018460222669266875,-0.00024353260677478642,-0.0003563826644835501,2021-06-01
303,HIX,-0.00028386334319374944,0.00025950627539920144,0.0008178574304225878,0.0016311713461469506,-0.0007028877815016049,-0.0014447475504758126,2021-06-01
304,HIO,-0.0006231002296856409,0.00032236109244137645,0.0008003340085123983,0.002026256113822748,0.0008383917187997029,0.0003240355772077639,2021-06-01
305,HYB,-0.0010091917694781307,0.0006080346287627793,0.0009455327934405202,0.0022334691720543257,0.0012859909676768543,0.00016138642125124292,2021-06-01
306,SPE,5.373116307881121e-05,0.0005523105479718519,0.0005668202037053899,0.001253105241501087,-0.001006001951123454,-0.0024471207796682667,2021-06-01
307,ETV,2.3780785319848386e-05,9.317196033757748e-05,0.0005020737406928862,0.0012654123987623754,-8.208351695812383e-05,0.0011977357621971228,2021-06-01
308,ETB,6.009555035955472e-05,0.00011288177540535172,0.0012512162329005492,0.0015331007062071207,0.0002087785073904063,9.531327480611523e-05,2021-06-01
309,ETW,1.2103127426235307e-05,8.015034916100361e-05,0.0007423521059567824,0.001071769233054604,-0.002520259244275531,-0.0022736484921707257,2021-06-01
310,ETJ,3.344081523162097e-05,0.00010126012606647199,0.0005372417474440437,0.0013540488443196724,0.0011985363088236115,0.0012750836110652026,2021-06-01
311,FFA,2.0628433682868026e-05,8.38178086460715e-05,0.0004948588771814334,0.0011074690883446018,-0.002868963607968433,-0.004477774740752714,2021-06-01
312,IGA,0.00010244369561024621,0.0001217111080785067,0.0008926365853068045,0.0016081461933022357,0.0003256397824710203,0.0010536432372110266,2021-06-01
313,BGY,0.00015277403160676234,0.00012933266294390492,0.0012065775599612292,0.0017199907213320692,-0.0011929640385266414,-0.0010606009570013624,2021-06-01
314,BXMX,0.00010411073672752597,0.00011691894179783508,0.000729773595331705,0.0015549010625990345,-0.002143664128832305,-0.0019604483879894475,2021-06-01
315,AVK,-9.905516443779504e-07,0.00012049791127798262,0.0005092291873782909,0.0008018494457310711,-0.0027994475316557234,-0.0031647478400543376,2021-06-01
316,ACV,-1.0696196194408267e-07,8.337470446747549e-05,0.0005806258867326192,0.0005548142690291816,-0.004590738318176532,-0.003904607362345877,2021-06-01
317,EXD,-3.976880157842316e-06,0.0003195337251556744,0.0006073272744028831,0.0011987245701495875,0.0009162331417690205,0.001892164656248623,2021-06-01
318,GGT,3.745571978432091e-07,0.00023326202566637642,0.000234508894094584,0.0005184436307095455,-0.006297512804828896,-0.007832811323929637,2021-06-01
319,FOF,2.4877254766125215e-05,0.0004793024936587499,0.0007513638847595269,0.0010457716906023757,-0.003298797622766649,-0.0031673035293966873,2021-06-01
320,EOD,3.670143497357927e-05,0.0005476993128101198,0.0005608603956400688,0.0011950040817166989,-0.0012186079115943135,-0.0006579310994321541,2021-06-01
321,PHK,1.3344668202015578e-05,0.0001414483595088856,0.0006330185075254095,0.0009611381431554237,-0.0015234908636850286,-0.0012431410121104987,2021-06-01
322,PCN,3.0668302401403542e-06,3.723310052639044e-05,0.00040054910568505965,0.0007972598972978621,-0.0020235716104574425,-0.0018264727489572146,2021-06-01
323,PFL,2.1157278940643374e-05,5.292363688210345e-05,0.0018273308365791697,0.0011332360912395287,0.0001413282707746029,0.0005691097206417134,2021-06-01
324,PDI,1.89752247723902e-05,8.934893592514005e-05,0.0005439891446744759,0.0010827654423858108,0.0022956132606858476,0.003926244166134205,2021-06-01
325,ZTR,1.8167873488925796e-06,0.00020175029800434724,0.00041463236332703763,0.0007783220882950605,-0.0043854610732325374,-0.004948030266787845,2021-06-01
326,PGP,-2.1213377818631893e-07,0.0002811694058022857,0.00045132028065398595,0.0006311998512805797,-0.0033795967022497366,-0.0022862104657265124,2021-06-01
327,RA,-1.2372174551074261e-06,0.0002165308878543675,0.0003887798406203991,0.0007672010900488639,0.0004851978545206622,0.0024000166465824877,2021-06-01
328,RIV,-2.855409031612375e-06,0.0002964060385655082,0.0006916828323380213,0.001050210610310102,-0.0004701752205837925,-0.0009473536382589414,2021-06-01
329,PSF,-1.2925775113457497e-06,0.0003570136290170456,0.0004164252282497184,0.0007875631061098037,-0.0026393054774480015,-0.0029007180993993287,2021-06-01
330,JRS,-3.281516765484123e-06,8.206981815103886e-05,0.0005177822860893574,0.0006281786358093795,-0.006671110017180909,-0.006905772932732767,2021-06-01
331,AWP,-2.468212804518216e-05,6.209969932348867e-05,0.00033826414837462916,0.0008291203868224885,-0.002402343714964239,-0.002489280844056016,2021-06-01
332,JRI,-3.989963680616937e-05,7.006165141235372e-05,0.0003816338099362731,0.0009354239095077427,-0.00638519854579723,-0.008557006928976733,2021-06-01
333,RNP,-1.598169258753146e-05,0.0001040010113514507,0.0005007836247073024,0.0007927828213013697,-0.00395327933234581,-0.004837334624919649,2021-06-01
334,RFI,-5.107791967470171e-06,7.913873651264293e-05,0.0004907163248095395,0.0006032617374719753,-0.003656393219859454,-0.004301798638439665,2021-06-01
335,FT,0.0008509288337259578,0.0002936396680490012,0.000890949764968941,0.0021118796700274286,0.0031071456982353788,0.0036653380757909757,2021-06-01
336,HTD,-5.931427276060283e-05,0.00013760649921448453,0.00041752014960350894,0.000989676803837756,-0.00864362133922254,-0.010730374679701088,2021-06-01
337,DFP,4.11616045125222e-05,0.00014338697732716393,0.0008316436645161704,0.0010873063367385213,-0.0004305961729861206,-0.000502647257806163,2021-06-01
338,FFC,1.2381755080709927e-05,0.00011268564059567596,0.0008089796086149802,0.0008544974820102191,-0.0016034799776895058,-0.0022704303872989663,2021-06-01
339,BUI,-0.0002630065913999102,0.0005285281350730295,0.00044522609773840863,0.0007848488467400591,0.0007959481080158412,0.0014880873996421576,2021-06-01
340,BWG,-0.006362386847181822,0.0015000063956851586,0.0016629855207871453,0.002227465695073241,0.0015235506839173124,0.0007335939318782919,2021-06-01
341,STK,-7.503595735036339e-05,0.00012234563500044447,0.0005165415077919044,0.0005368209458688884,-0.0034480442413770285,-0.003388302818218785,2021-06-01
342,THQ,-0.0006024005405174167,0.0002455992945503759,0.0011364878988793187,0.0010776260681861316,-0.003674596358156821,-0.0047594990296061235,2021-06-01
343,IGD,-0.0022903342389644326,0.0006040585865656154,0.0008554756573887016,0.0016885124921895641,0.0007878256287945907,0.0017330338334287582,2021-06-01
344,ACP,-0.00016212502236882464,0.00023845482665135238,0.0006077783295062065,0.0006147978084439122,-0.0015243018878785392,-0.001374831343205345,2021-06-01
345,LGI,-0.000830792404992593,0.00047161527680884016,0.0013158118531867873,0.0012159453540216253,0.0005831489917250459,0.001324851735340295,2021-06-01
346,GAB,0.00014165214945014595,0.0004571512016486995,0.0003592287239149392,0.0007052092208303486,-0.001219348308406371,-0.0014947167999242248,2021-06-01
347,HTY,0.00040078836056818367,0.0007166447889444802,0.0012154121098113888,0.0011055084431606332,0.00014285971370930675,-0.00017177202253661596,2021-06-01
348,UTF,-6.767727421483108e-05,0.000439953951217365,0.0006567065651379569,0.0006642911361541433,-0.003402899019597064,-0.002573406143586531,2021-06-01
349,JHI,-0.003947103217973341,0.0012478088593603186,0.0009184690278966471,0.001884079828341258,0.0015478202403924127,0.0014626502849356712,2021-06-01
350,EVG,-0.020271420090887178,0.002527867839733678,0.0017414155515235962,0.0031372798698111317,0.00612331136845914,0.007428691131000233,2021-06-01
351,CEN,-0.0002995724543500404,4.295359559133617e-05,0.00017047831680685533,0.0001538120769023926,-0.006788083373981734,-0.008241020407479418,2021-06-01
352,NSS,0.0016166880897397916,0.00013338804922080247,0.0003141870723791052,0.00047764785699915815,-0.003983056019672497,-0.006509647289008789,2021-06-01
353,SRV,-1.908115260145015e-05,7.086590483842038e-05,0.00016343240339377962,0.00026099779556529193,-0.006035610020846937,-0.005703854467584107,2021-06-01
354,TPZ,0.0012567692888752445,0.00013602396888163438,0.0003724478341154794,0.000500973720763117,-0.0033671687397202575,-0.0028402429473724515,2021-06-01
355,EDI,0.0031718494868619293,0.00044560187862467926,0.0005693273788368702,0.0005530264603969615,-0.00572209276419363,-0.005703646112106714,2021-06-01
356,DRUA,-0.04404102785040885,0.0024372684998121793,0.0034101608474828406,0.004589274170091709,0.004884549951721845,0.0053216038049521425,2021-06-01
357,RZB,0.005055615243439504,0.0005941156034422791,0.0005915115867666354,0.0011186947162925278,0.0005915609442881949,0.000853621973205556,2021-06-01
358,CBH,-0.00043252658246399986,0.00057129916724235,0.0007528878944132845,0.0011021058022750068,0.0004932659139412137,0.00041712948809102395,2021-06-01
359,DPG,-7.000970110223005e-06,0.0002269327422581971,0.0002879634293298013,0.00043778094964882277,-0.011293134003496652,-0.01494396610042822,2021-06-01
360,MFD,0.0020607311841290728,0.000605969289600363,0.0004649774016089973,0.0007520548440488326,0.000987038450925721,0.0032809774478270073,2021-06-01
361,GNT,0.0024332774948559606,0.0005566195288821409,0.0006941497945126296,0.0006908079669583022,-0.002009730120842489,-0.002238287859157912,2021-06-01
362,ECC           ,0.0014552530305545442,0.0003340677390357308,0.0002565427922827278,0.0002709464658129708,-0.009252335294715777,-0.011547286132052338,2021-06-01
363,EARN,0.0015676885893464764,0.00034487529037102206,0.0005134658213178089,0.0002797119570478973,-0.0013181008222424037,-0.0006127145060524962,2021-06-01
364,FGB,0.00228648454372816,0.0005963390025427511,0.00020513064868634163,0.0003076685948921849,-0.0017162178947585246,-0.001961792802755067,2021-06-01
365,FAF,3.3669408891306666e-06,0.0002868792288631087,0.0004456456534863365,0.00042943944068556664,-0.0008472898343803703,-0.0001230347447134531,2021-06-01
366,FOR,2.120819976904615e-06,0.00015918633018124475,0.00016543002584716734,0.00036306806416205124,0.0007634075399098431,0.0007905660396355189,2021-06-01
367,TPX,4.007806284939253e-07,8.110532891281802e-05,0.00018587780295107565,0.00018498293621114386,-0.00042330149742116676,-0.0005744658156262622,2021-06-01
368,AB,1.9246963805006396e-06,0.0003456831177413245,0.00019389120289685783,0.00032995309050487667,-0.003370916241877439,-0.0028850350880983058,2021-06-01
369,PGZ,1.0289654961483526e-05,0.0010661512728776428,0.0005073490196624484,0.0006490908558353433,-0.000560120464325257,-0.000605012182175626,2021-06-01
370,SUN,4.638648655467732e-06,0.0004395725031723421,0.0003031423513551789,0.00047091490659994774,-0.0033395320756657485,-0.0032490491114635046,2021-06-01
371,GSBD,1.4780180943901426e-06,8.682461720831905e-05,0.0003656478111027821,0.000372778570381447,0.006201112589921637,0.008196685646056587,2021-06-01
372,SAR,4.805650573114288e-07,5.791155013894526e-05,0.0003025720520169934,0.0002486412904945238,-0.004142732553991698,-0.006797458114762265,2021-06-01
373,SCM,5.128644818951041e-07,9.239018540160843e-05,0.0002761598734182372,0.0002467267763142261,-0.0063386127334520825,-0.007023562785280236,2021-06-01
374,BBDC,1.306909991304302e-05,0.0004860128033197886,0.0007622820099093365,0.000805080566481572,0.0047358502988068905,0.00701250941188712,2021-06-01
375,PMT,-5.2389082507720495e-08,9.773064491972505e-05,0.00013369185941494025,0.00018616023628524608,-0.003338727496556701,-0.003428670762798554,2021-06-01
376,DX,3.147786848934297e-06,6.61174935493437e-05,0.00032135566505261216,0.0004639107137605122,0.002509908992342206,0.002036437256885967,2021-06-01
377,ORC,4.0069300403519884e-07,3.744093348117644e-05,0.0001886612601947403,0.0002627027922973169,0.003324861900027407,0.003287128392483066,2021-06-01
378,ABR,1.7818351139706525e-07,4.9636379521950566e-05,0.00012487389044868677,0.00021206245108240545,-0.000946539270121417,-0.002515364853638281,2021-06-01
379,CHMI,-1.3603874503700535e-07,4.275343196753611e-05,0.00012652787695763293,0.00018265630294834797,-0.0020633415493729905,-0.002075469623147828,2021-06-01
380,TSLX,8.784410816433217e-06,0.0003809298718604157,0.001238517586602585,0.0007402553353189526,0.002397313918604803,0.004151822829484675,2021-06-01
381,HTGC,1.8049877659172307e-06,0.0001477457169726817,0.00042701686267213523,0.0004726332417611496,-0.0009422312810963135,-0.0018653466642304768,2021-06-01
382,NMFC,1.960697380522546e-06,0.00015213325225308627,0.0002595241569452619,0.00048666880952858923,-0.0023500655174535515,-0.0034588280095937396,2021-06-01
383,GCV,-6.976511828670197e-06,0.0003602449245295171,0.000742785306058162,0.0007719470837497405,-0.00047750730651965163,-0.0008888435212883488,2021-06-01
384,KKR,-1.4164233362732353e-06,0.0001260437970307548,0.0001655276652741523,0.0004495595250185565,1.6199987478151835e-05,0.0006609043237361882,2021-06-01
385,BX,-1.882178836521253e-06,0.000138580661312533,0.00018199176682700627,0.0004942746707417777,0.002253194274891954,0.0024948133392489174,2021-06-01
386,EMF,-3.265721897038035e-05,0.00016758965508996063,0.00035976367651394835,0.0010412726477424068,-0.0008727518948439421,-0.001216285570334068,2021-06-01
387,IHD,-3.110634423482549e-05,0.00016518880490707673,0.0003546097862688144,0.0010263556194483724,-0.0020590837390634196,-0.005487651428109212,2021-06-01
388,KF,-2.3317921432659877e-06,0.00018424188411667267,0.0003955109136186871,0.0006720398017510386,0.001560511429828044,0.0031916701605862264,2021-06-01
389,RGT,-3.263107395423902e-05,0.00041655819787494525,0.0009882888799236892,0.0008989228363101882,0.0008701202613430658,0.0007070737040806467,2021-06-01
390,AES,5.6082801465940675e-05,0.00022809282973524676,0.00026789217145200634,0.00031103336383286824,-0.00014990985505258995,-0.0004019162354607868,2021-06-01
391,EEA,-5.154162702179229e-05,0.0005082940217441611,0.0010910236814540698,0.0010323347378310757,0.002525394894228583,0.0025447385404029524,2021-06-01
392,SWZ,-0.00014238355290663088,0.0008278912331636633,0.0007952629804791077,0.0016814301222901878,0.003359668160864072,0.005335609028199795,2021-06-01
393,IFN,-3.1165754783402694e-05,0.00027050854803619426,0.0005696118396344614,0.0010135606039761234,0.002483067420002815,0.0027694483812764317,2021-06-01
394,IIF,-1.136439857450138e-05,0.00021790435720417807,0.00030218989520611596,0.0008164594926861411,-0.002696398837089118,-0.0037606901405185574,2021-06-01
395,MXF,-1.5905090441410913e-05,0.00032768108768182276,0.0002397087181629863,0.0006941825987662005,0.0014838260556578422,0.0021712405470525756,2021-06-01
396,DNP,-0.00017999833754514744,0.0016742099608279206,0.001849674404060035,0.001625227699216801,0.002813934870879662,0.0026034965514932433,2021-06-01
397,IDE,-4.5136631941487735e-05,0.0008140494107142542,0.0006997907398035452,0.0007902328153451375,-0.003073389937606355,-0.0046166841585727,2021-06-01
398,GIB,-2.5804273326121856e-05,0.0005450341874367154,0.0010065064689910367,0.0007457575767716767,0.000459439289334234,-0.0010564575986521994,2021-06-01
399,TU,-6.602174483673908e-05,0.00035504295513561125,0.0008011630434140109,0.0012127833488826106,0.0007809923278157857,0.0008170448470739784,2021-06-01
400,BIP,-1.3185616743679088e-05,0.00012662159031384446,0.0004805730238566102,0.0006661043807573026,-0.002825041822050557,-0.0026100547603399352,2021-06-01
401,TRP,-9.706389945269286e-06,0.00011007493725316293,0.00042416324429946957,0.0005790592088930688,-0.004774990986859138,-0.008993358404032224,2021-06-01
402,MCN,-6.124972175261373e-05,0.000513048121081313,0.0006252480022817256,0.001102193191302237,-0.0019986217249461573,-0.003037532209612853,2021-06-01
403,QSR,-5.288590292675481e-06,0.00025265122159816,0.0003937700697071565,0.0005176794966338696,0.0010056071895180882,0.0009410727505114986,2021-06-01
404,VVV,-3.013185362051196e-06,0.00019148105329107418,0.00043823660915280507,0.00039234251334951134,0.0015754037994368552,0.002340298258366797,2021-06-01
405,FIS,-1.2757391179176777e-06,8.758358020801425e-05,0.00030138630677274295,0.0005630911831671586,-0.0004390465645200236,-0.0007767125723922508,2021-06-01
406,FI,-1.3839734844256745e-06,8.939663014078601e-05,0.0003331744762578003,0.0005747476195603827,-0.0016877035972359946,-0.0031479473752982026,2021-06-01
407,MA,-2.839758705244265e-07,0.00011917603977712898,0.0001432887548323698,0.00043826753568160405,0.00028604439266982146,0.00013935354149873574,2021-06-01
408,MDT,-3.5568308131721042e-06,0.00020515544064456331,0.0002917364398748069,0.0007164047672771302,0.00022562990069079636,-0.0008744871233317958,2021-06-01
409,TFX,-1.2412321582900809e-06,0.00014876028347993365,0.00039526577913758226,0.0005194723373247571,-0.0013632953520149144,-0.0022259353134357752,2021-06-01
410,STZ,-3.0845123540842865e-06,0.000298076496890073,0.0004202427365343514,0.0005269699852977237,-1.0581636729134564e-05,4.3736112701059716e-05,2021-06-01
411,YUM,-7.099245125189944e-06,0.00045496920723843133,0.001038226250442689,0.0008043408955445821,0.002352025178722618,0.001404585981623334,2021-06-01
412,BCE,-3.947970924977802e-05,0.0012066251094252842,0.0010602866965549358,0.001434177747690874,0.0015046809412221334,0.002693672628713337,2021-06-01
413,AQN,-1.2907289612039068e-06,0.0003750056325026506,0.0008770548104508144,0.0007413703701022609,0.0011822934252076044,0.0013890403435279442,2021-06-01
414,FTS,-3.723042494442281e-05,0.0007185441446139399,0.0011738494554656338,0.0014205315660785012,0.0025081514117181905,0.003169379180239172,2021-06-01
415,HD,-2.362386785555836e-06,0.0001350516788558505,0.00045688788589099804,0.0006710149050233318,0.0009321606468952802,0.002448266318750665,2021-06-01
416,RPM,-2.4818335692840248e-06,0.0001375501695948039,0.00069297831941732,0.0006834288530771725,-0.0004729392192466244,-0.0008493319796992936,2021-06-01
417,RSG,-8.25337242410045e-06,0.0003270713096763701,0.0006898065201214656,0.0009980252627676107,-0.0002828373255797452,-0.0012438936570556784,2021-06-01
418,AJG,-2.0597612381497105e-06,0.00013305259433266385,0.0006434288412615435,0.0007790289999763655,-0.0004373907534678293,-0.0014652777977207942,2021-06-01
419,BRO,-1.759463635180352e-06,0.00012854033592450825,0.0006219152731692742,0.00075260952147637,0.0005855624601513675,0.0009585465917984278,2021-06-01
420,MMC,-6.319564006655498e-06,0.0002918901911162146,0.0005023054330420437,0.0009597935531438054,0.0006457732382197154,0.0008852989212282508,2021-06-01
421,CCK,5.6909615123227575e-08,0.00025988839458033255,0.00034437635958379695,0.00043410533086433604,0.0009818997208285818,0.0032585241875206132,2021-06-01
422,ICE,-7.61433585240713e-06,0.00020211288561609818,0.0006397181166252558,0.0008973066728340897,0.0010111021630001078,0.0022998991216519474,2021-06-01
423,MCO,-1.8150167984975047e-06,0.0001335831276919101,0.00038636400237355056,0.0005930598214488707,-0.0018552589009356716,-0.0015285814158624322,2021-06-01
424,MCD,-1.1666450642309604e-05,0.00038142877514437805,0.0005312933854157491,0.0010151830591633303,0.003378705708089299,0.005692080064695492,2021-06-01
425,ACN,1.7125239550596225e-06,0.00023756969860043385,0.000475854531137281,0.0006994426888974231,0.0018493021610039245,0.0030555553854416193,2021-06-01
426,FICO,1.134444200611273e-07,6.291557571145272e-05,0.0002300444807248237,0.00029439511697268065,-0.0010977953516332782,0.0006390676340215648,2021-06-01
427,IQV,9.109807285313317e-07,0.00012205487562873152,0.0003500152860206134,0.0005711202509312098,-0.002190357286930621,-0.001812220329774727,2021-06-01
428,TRU,3.996648326725324e-07,0.00024177904025638063,0.00026393713220008823,0.00042750931756603344,-0.0016182087901364707,-0.0028053711958874127,2021-06-01
429,CNP,-5.7841162996368866e-08,0.00014382190076138167,0.00013349047905303208,0.0004241297200698156,-0.006149816074806046,-0.008217631535848325,2021-06-01
430,BKH,-2.7111842726907713e-07,9.905342616728523e-05,0.0001462618446761835,0.0005175340060527084,-0.0031115737562671573,-0.004834367628264906,2021-06-01
431,ETR,-7.747932660979894e-07,0.000123521167297751,0.00018902505216684997,0.0006453729771643685,-0.0007359750689798,-0.0010086498889811991,2021-06-01
432,DTE,-1.9025234783280807e-06,0.00023256319863675188,0.00019038603862661695,0.0006736633842208272,-0.00037733774853686546,-0.000388292946405037,2021-06-01
433,SRE,-1.6417949641859166e-06,0.0002231706359036389,0.00018934227516046552,0.0006464560460246483,0.0029386056254985826,0.003678923512518542,2021-06-01
434,EXC,-1.1557681411102066e-06,0.0002075830116767676,0.00030015185029830396,0.0006149399869461522,-0.0013386333037770464,-0.001479170990596113,2021-06-01
435,PEG,-2.0740646846047535e-06,0.00023814533652794965,0.00022204172512329176,0.0007054772399381963,0.002569883907972988,0.0038388809280609066,2021-06-01
436,PNM,-1.5555764005652094e-05,0.0017583056261199922,0.001289497136617896,0.0011330245257716906,-0.0004461289393648608,-0.0002769902623513604,2021-06-01
437,OFC,-4.3809602201471006e-07,0.00023960273319504239,0.0003168680819358221,0.00050166730117161,-0.00253747477942143,-0.0035898810094552596,2021-06-01
438,CPT,-9.834103760553796e-07,9.962364465255769e-05,0.0002475234327001756,0.0006297916189501396,0.0025758948781559716,0.00423095701206875,2021-06-01
439,IRT,-3.167949324088483e-07,7.091400035698131e-05,0.00022649246855193598,0.0004482976229871093,-0.004344235216511389,-0.005992213523844152,2021-06-01
440,EGP,-3.649067166757942e-07,4.4299019902295846e-05,0.0003421194371932813,0.0005196742522011688,-0.00040353530703245426,0.0003598233420071362,2021-06-01
441,LXP,-5.541594881010115e-07,4.8945932678330285e-05,0.00017308445406584997,0.0005741874429502177,-0.0018580557553932655,-0.002686923571545748,2021-06-01
442,ADC,-1.12977391126291e-06,5.8650908371923724e-05,0.00043479394670057275,0.0006601191969796347,0.0018232644253409233,0.002493686218007954,2021-06-01
443,WPC,-6.579386093435475e-07,4.9690761896708796e-05,0.0002726310654433231,0.0005592722559820391,-9.569667493654756e-05,0.0005937266342272563,2021-06-01
444,UMH,1.006058447599142e-07,0.00030354472285364195,0.00014979795807352044,0.00037240909444872584,-0.00040464816586148575,4.496193096179468e-05,2021-06-01
445,GMRE,-3.246398966190559e-08,0.00016012388486663648,0.00026306418929698003,0.00034488031558495904,0.001883305474770726,0.0018869629654915826,2021-06-01
446,VICI,-4.8017841499578516e-08,0.00018425785512241923,0.00015963345586277977,0.0003968608885336146,0.00118485654873165,0.0017241014319029258,2021-06-01
447,OHI,2.4755940782643188e-08,0.00013183534867415152,0.00014503326146529636,0.00028814950011384977,0.001067957658210823,0.0005592096113210917,2021-06-01
448,CHCT,-3.3534143831231915e-08,5.453511510600937e-05,0.00019257018049185796,0.00034289828974336234,-0.0014044253190343928,-0.0011433449805877771,2021-06-01
449,DOC,-2.5510115893587704e-07,9.089794911851794e-05,0.0002246273387285447,0.0005715354452508417,0.002493467829816453,0.0034930643785942538,2021-06-01
450,MPW,-1.98513461767988e-07,0.00013835863438262775,0.00014867756702896688,0.0005195964666973019,0.0017430763236785266,0.003111588400554532,2021-06-01
451,FIF,-2.8463357457350444e-05,0.0004650372367769226,0.0003470840519719222,0.0006374564698225688,-0.001138547519180286,-0.0009004802119236823,2021-06-01
452,FPL,-7.5799180481380785e-06,0.0003373019336122022,0.00025174784425326926,0.0004623614688470706,-0.002193016990175424,-0.0011105760110577503,2021-06-01
453,KMI,-1.3331959001882688e-05,6.477504553638586e-05,0.0002823963995311577,0.00040450581147901093,0.0005778909101990288,0.0006119966736243511,2021-06-01
454,WMB,-8.471867521189397e-06,5.884595127116103e-05,0.0005415221024075788,0.0003674799311074858,-0.00014215612829532857,0.0004371222809889121,2021-06-01
455,OKE,4.717236690543235e-06,5.3935923077083274e-05,0.00010689067709846736,0.00018871160955695,-0.0020259825236961866,-0.001988185818282994,2021-06-01
456,CEM,1.946888194181719e-06,4.547541046274954e-05,0.00010162885292803715,0.00016229894457427113,-0.0016348616809532905,0.0013037971319360213,2021-06-01
457,PAA,1.2947131357071223e-06,4.1652791311249586e-05,0.00010378093239794309,0.000148656251798446,-0.0011859253769200685,-0.0014232160787106688,2021-06-01
458,PBA,-3.35897618996219e-06,0.0001407428388225294,0.000322311432366499,0.0002818869379093776,-0.003588513403335368,-0.0036614786229089836,2021-06-01
459,EPD,-8.825147851835482e-06,0.0006623182832349901,0.000280077558193623,0.0004944667602658191,0.0005065364318081981,0.00010408093118202051,2021-06-01
460,MMP,-6.470159527196923e-06,0.0005998095113699211,0.00042064322690738546,0.00044779960537263383,0.002253251247734962,0.0018870084201547345,2021-06-01
461,MRC,1.4101281544232273e-07,9.583186622665537e-05,3.4749691184334596e-05,7.198099013434912e-05,-0.0009191166135374267,-0.0005320881780224511,2021-06-01
462,DNOW,1.9447426423222517e-06,0.00015622717443422883,5.664969576352261e-05,0.00011734496200951149,0.0003170585533157046,0.0006830716030064658,2021-06-01
463,AROC,1.640124705584533e-05,8.734977265211703e-05,0.00011723559338879581,0.00015955949088441751,-0.0008105877955480816,-0.002120195249688426,2021-06-01
464,PUMP,-1.5963014075107443e-06,3.360043724481713e-05,2.461301267391207e-05,6.137701905222881e-05,0.0003750368175423179,-0.0002060819696002957,2021-06-01
465,HP,1.8450161314989798e-06,2.978839993953087e-05,4.8023869675268274e-05,0.00010274619661809788,0.0007801653737448594,0.0013489300455178292,2021-06-01
466,NOV,2.0236654369441565e-06,3.0447969445126133e-05,4.580208620671099e-05,0.00010502118480956699,0.0012535789008327335,0.0008348652697412,2021-06-01
467,DRQ,6.883573109153805e-06,6.926343275369864e-05,0.00010296915106392292,0.00013551869162474201,-0.0017542888690914478,-0.00327237250537671,2021-06-01
468,OII,-5.210960258833544e-07,8.09003003904235e-06,2.208147723606155e-05,5.063138153163164e-05,0.0020689476311710215,0.0041030837650522225,2021-06-01
469,OIS,-1.642218692291655e-06,1.0269100874575951e-05,4.7790187422067485e-05,6.426907710580197e-05,6.406552896183094e-05,-0.00032651419335718397,2021-06-01
470,HLX,-1.7178449977818084e-06,1.7838896785534126e-05,2.5280436333966915e-05,6.304136121309375e-05,-0.0022183002534914204,-0.0021042367916790914,2021-06-01
471,WTTR,-7.158907810430437e-07,2.6387742610534287e-05,3.877639274761817e-05,5.1817759661629224e-05,0.0004548313901837255,0.0015446173688397134,2021-06-01
472,ASIX,-5.462187212317179e-07,0.0002301199494465132,0.0001441481394181605,0.00013823923300993287,0.0033512215576428023,0.004328117651305629,2021-06-01
473,THR,-4.976301266986834e-07,0.0002198628927280931,0.0001426546254525592,0.00013207754360793102,0.0010039353244564431,-0.0004240888229539408,2021-06-01
474,CF,-1.1743241585099734e-06,0.0001387915230972533,0.00015268559472010897,0.0002617104025854523,-0.001589632204040564,-0.0022437567952349816,2021-06-01
475,MOS,-2.927865141715386e-08,8.385469621695701e-05,9.224917974989454e-05,0.00015811950049891,0.002525570161721444,0.0032413538411722193,2021-06-01
476,NTR,-7.781859119192056e-06,0.00038498938450971733,0.0003064329990514584,0.0004170601427902929,0.0003266374869179563,0.0008613029833145637,2021-06-01
477,AA,1.6596388166298712e-07,8.5262335558022e-05,0.00012321593046130783,8.892287436746119e-05,0.0013979078065633735,0.000998964770238748,2021-06-01
478,FCX,4.6685401330892575e-07,0.00012007456585326418,5.38781851112112e-05,0.00012522968628781198,-0.0009380128430239569,-0.0001855146965212549,2021-06-01
479,BCX,-4.9089256671949615e-05,0.0016810124056768098,0.0010511911549227293,0.0006875799118817514,0.001671241771332094,0.0014980005244316348,2021-06-01
480,E,-4.042821235290817e-06,0.00030194723557225945,0.0004471487201725853,0.0004013590940241541,-0.00010252615826218935,0.0003312422200147774,2021-06-01
481,EQNR,-1.0124621464415934e-06,0.00023409458059268652,0.00023133637055099956,0.0003111669116777199,-0.001942991196083381,-0.0020652427036544707,2021-06-01
482,BGR,-6.500326542766554e-06,9.424014454403645e-05,0.00016512141562181377,0.00039566047203272355,-0.0010180714072339512,-0.00157173039716503,2021-06-01
483,CNQ,1.1654102644279004e-06,4.310693411050869e-05,7.67179339131093e-05,0.00018098136394599436,-0.0022337467106201023,-0.001975944455235604,2021-06-01
484,MPC,4.540469058342151e-07,8.076972322022841e-05,8.25701422328896e-05,0.00019478701002881925,-0.0025920412817494356,-0.002250669416441323,2021-06-01
485,NDP,-1.0273881390440177e-06,0.00020079848955292825,0.0001131161827186755,0.00027104662396740264,-0.003810984048035114,-0.0036545478530854306,2021-06-01
486,ARI,-9.61831565355517e-10,1.3165683775991715e-05,5.613714829251135e-05,0.00016429011593659896,-0.003129784324468858,-0.0036938674920890683,2021-06-01
487,CIM,-4.454954491115041e-08,2.4270429156770094e-05,0.00019685473460879713,0.0003028624785343834,0.0018999163015671389,0.0012216350336326863,2021-06-01
488,NLY,1.1791755942044224e-06,4.286082376770236e-05,0.00023515770937232935,0.0005476437335142754,0.004775863528942869,0.0056082456977942655,2021-06-01
489,ARR,2.927529498477832e-07,3.089955068492672e-05,0.00016953168233731038,0.0003948114808226886,-0.0010194438803203024,-0.001185932111883596,2021-06-01
490,AJX,1.7659470455914308e-07,3.0993501578576964e-05,8.346658093607281e-05,0.00021171851934996002,-0.0016381345447672778,-0.0018728568325381185,2021-06-01
491,ACRE,-7.186295744602949e-08,9.291736135007375e-06,5.8246324970792454e-05,0.0001802904535361343,-0.00031322840770674513,-0.00019756700394993391,2021-06-01
492,TRTX,-1.6026707947641874e-08,6.398045519576764e-06,4.894146487900352e-05,0.00012414327222696266,-0.001852268184006005,7.517789339614443e-05,2021-06-01
493,KREF,8.48445059690822e-07,3.871344068673877e-05,0.00022500925462857932,0.00043935884616967544,3.4409136529979856e-05,-0.0005143995272645363,2021-06-01
494,MAIN,4.287255134734671e-07,0.00011238040318125577,0.0002283723815269597,0.00042825190670160197,-0.0020784205176416705,-0.0031128222100143986,2021-06-01
495,SAFE,1.3462273006553123e-07,7.522463870406541e-05,0.00015595538249076063,0.00028666114414980484,0.0016212738836929024,0.0023977307281912922,2021-06-01
496,BYD,1.3994854533898487e-09,2.4143485993753784e-05,5.641112510537533e-05,0.0001429707151059795,0.0002498181125618021,0.0018522318529855728,2021-06-01
497,ESNT,3.4235491507411476e-09,3.4457372849479114e-05,0.00014331427198259692,0.0002040465589036276,-0.00012027105592832758,0.0016267995711340855,2021-06-01
498,NSP,6.442652146484735e-09,6.622438270226182e-05,0.00011071269277664632,0.0002481072078260518,-0.0021692192452063682,-0.0029227420829725155,2021-06-01
499,OMF,3.3873432729683284e-09,2.8843682832559438e-05,7.38524626438858e-05,0.00017146776652508656,-0.0029301865380603367,-0.0033012158029162566,2021-06-01
500,TDG,1.6766865738918354e-08,4.873085780263351e-05,0.00018677631824493717,0.0002896915555747605,0.0066285401801180225,0.009605547871260414,2021-06-01
501,FNF,5.361886772825739e-08,0.0001162555892244475,0.0004187283529577739,0.00042824071474967045,-0.003106154529200582,-0.0035966380933713953,2021-06-01
502,UGI,7.787708707574348e-07,0.0002158081644367499,0.00021518869715923692,0.00047114471659408225,-0.0015841041131411516,-0.0012478487644565516,2021-06-01
503,OLP,1.9267770226538797e-08,4.581478880736506e-05,0.00010568150047374022,0.0002764691870042108,-0.001063722660290146,-0.00043765094953944776,2021-06-01
504,LTC,5.592813551606814e-07,2.6484335154044836e-05,0.00022819127763128188,0.00048681768435648864,-0.002162340370233835,-0.0028367908981920876,2021-06-01
505,GTY,3.5545617118890774e-07,1.4041061655922304e-05,0.0001404134646975505,0.000453767753308446,-0.002517120647226705,-0.0028441849601092925,2021-06-01
506,GNL,1.5870003244166722e-07,1.1662226015350755e-05,0.00011662462576044756,0.0003768904536737052,-0.002242890606742302,-0.0018308980852031421,2021-06-01
507,FCPT,2.587092669124988e-08,2.927219947971852e-05,8.593042571423219e-05,0.0003003085567993657,0.0015440316453553507,0.0016696028796888236,2021-06-01
508,HHC,1.8832518697645556e-07,8.48962422548014e-05,0.0001791346199388474,0.00030613948006056625,-0.002100651861861892,-0.002168260417873724,2021-06-01
509,MKL,-5.14032454296863e-05,0.0003696013785130163,0.000155119340977996,0.0005014268760412339,-0.003800859793470479,-0.005816190611139702,2021-06-01
510,DEX,0.0007321492463776817,7.494231028097466e-05,0.000756768862460791,0.0017828562902786147,-0.0005218074058170356,-0.0004602291858785543,2021-06-01
511,MGU,-6.064822344525341e-05,3.353575365842244e-05,0.0005677591127974316,0.0007978060608885585,-0.0019451616732772412,-0.0005036297304279847,2021-06-01
512,DDF,4.4197438385245965e-06,2.6809497434989582e-05,0.0005195416250887526,0.0006497749615705559,-0.008339047767270569,-0.00950038409922017,2021-06-01
513,JCE,0.00011981430309355559,4.674555626128442e-05,0.0005062492395551526,0.0011329601420886218,-0.005562510327312556,-0.007364471534028756,2021-06-01
514,FDEU,0.00011853549275422409,8.723154883076212e-05,0.0007902842737542601,0.0011572407578566563,-0.001456404306801177,-0.0002131525295351587,2021-06-01
515,HEQ,0.00018180243980167796,9.915687224009566e-05,0.0005583671674899069,0.0013154457935906558,-0.0015411258433936093,-0.0019972625154901984,2021-06-01
516,ADX,0.0002274141834835686,5.9523313778173846e-05,0.0010851146547355731,0.001289912350686378,0.0009287267190715232,0.0009184474900548583,2021-06-01
517,GRX,0.00046292276221445263,6.935458608580082e-05,0.001074648026974378,0.001502962981903404,-0.0024801142978043106,-0.004196717474413099,2021-06-01
518,USA,-9.401644207620826e-05,4.602406779674867e-05,0.0004461772805304351,0.0005614603355155753,-0.004792287800038612,-0.0062098933898964755,2021-06-01
519,SOR,0.00038467667465402256,0.0001905170047091287,0.0010942828419515484,0.0014003879781966033,0.007398575551746379,0.01025038986281497,2021-06-01
520,G,-0.00016979276385149742,0.0001357587060790932,0.0003416255989343541,0.0004901763617146924,-0.0011722413454589107,-5.383050668691597e-05,2021-06-01
521,SYK,-0.00024455174069153173,0.0001590440789411602,0.00023384839364418343,0.0005742515542408221,-0.00022938755979470585,0.0001862033511655367,2021-06-01
522,CLS,-3.5920175368701706e-05,0.00018607544496716263,0.00010810019140112376,0.00023026674360918418,-0.0011042746404445886,-0.00018419773955200843,2021-06-01
523,TDY,-0.00010825034600894336,0.00032794385120639777,0.0003988796928553878,0.0004058276615556575,-0.001929402938198962,-0.0023699416696441582,2021-06-01
524,LYV,-1.0483536624939818e-06,4.9514407363550214e-05,0.00010083544451699216,0.00019467971651228704,0.005804949514452704,0.008631291890965372,2021-06-01
525,LVS,-2.3368973053378733e-06,3.953961943108263e-05,0.0001765655547509595,0.00026345044919853463,0.00256627474599968,0.003160236298447867,2021-06-01
526,MGM,-3.351130813526937e-08,2.1444127541081822e-05,6.587364479407684e-05,0.0001428811180951214,-0.0006458052521894159,-0.0003306695452698675,2021-06-01
527,WD,-8.5671732692989e-07,6.996686817005409e-05,9.716558933981852e-05,0.0001639745522534268,0.00037274965827751574,0.00018202226343909777,2021-06-01
528,BBVA,-2.3979002285759497e-06,0.00015908563750221093,0.00013711424158733976,0.00023409432350079406,0.0008054394584036161,-0.0001396728978319306,2021-06-01
529,OUT,-1.672425169899448e-07,9.207317940308928e-06,6.817627388810022e-05,0.00015232636924222828,-0.004796759704526369,-0.005585448744055857,2021-06-01
530,CPA,-8.656420083233933e-08,2.7995479115091188e-06,6.037544476881296e-05,0.00013821959597498206,-0.0022171065998802097,-0.001136204093104594,2021-06-01
531,VVI,-2.006093534885297e-08,1.828413445040544e-06,4.5211549039388055e-05,9.027263531006942e-05,-0.0007092869828506138,-0.001821622944735383,2021-06-01
532,EPR,-2.4033257399918467e-08,1.9758611705666684e-06,6.346093672665643e-05,9.93305084181929e-05,-0.006109765333068816,-0.007017554460185429,2021-06-01
533,RHP,-3.6186878321855856e-08,2.2360773243891244e-06,7.939045687788528e-05,0.00011241209696441568,-0.0007451052516493635,-0.002817939984080252,2021-06-01
534,AER,-5.6461150125155735e-08,7.2034666816981376e-06,4.650299009034047e-05,0.0001146283698346029,0.0010791014124531743,0.002219304787202148,2021-06-01
535,SIX,-7.675525143990587e-08,8.044318811544184e-06,5.732572572833855e-05,0.00012800880361395155,-0.001009610393823025,-0.002106058523827258,2021-06-01
536,EAT,7.90370715161103e-08,4.020064884575394e-06,7.253604153345666e-05,0.00010862941643982732,-0.0004601544226141816,-0.0010473656025295364,2021-06-01
537,DRI,-1.0473420095794543e-06,8.430556084216027e-06,9.241859628246708e-05,0.00022780885731608078,0.002642379958234794,0.0029012298050799467,2021-06-01
538,DIN,-5.555299405026472e-09,6.605723450760581e-06,7.153943766590369e-05,0.00010527941983053461,0.001396105666760978,0.002520799030851453,2021-06-01
539,PFGC,-7.33047206684226e-08,1.3446042811509659e-05,5.317423187643739e-05,0.0001258766389765243,-4.3554931182524253e-05,-0.001285859082167323,2021-06-01
540,BCO,-1.2482404505136797e-06,5.269105460559061e-05,0.00012765297001481862,0.0002238118531166861,0.0026077909438377263,0.0038915505764695046,2021-06-01
541,SRG,3.298268849129877e-09,1.365753923327701e-05,3.734417123469232e-05,5.801210827329407e-05,0.004129010058998404,0.005488417589383784,2021-06-01
542,ENVA,-2.893148793078517e-07,5.1206965774005856e-05,7.149909971125347e-05,0.00013847617099908605,0.0016360055623369555,0.0016310719898356102,2021-06-01
543,TGI,1.8258401265403456e-07,5.054661051573518e-06,2.636823524473101e-05,5.888047999749368e-05,-0.003566685149400081,-0.004802033471302828,2021-06-01
544,BA,-5.763212170034444e-07,8.623483084111983e-06,0.00013090206280388456,0.00017266238103868782,0.00032444493616880915,0.0022733740953576583,2021-06-01
545,HXL,-4.863696292866468e-07,8.222568372261103e-06,0.00011521792211044698,0.00016463512707802898,-0.0004468954829567487,-0.0014234036856185805,2021-06-01
546,BCS,-7.780914313140371e-07,2.7902602664547087e-05,9.726254871311037e-05,0.0002005923868353921,0.0005177988627084579,-7.465233830637612e-05,2021-06-01
547,CAE,-9.777106498075995e-07,4.791884815405902e-05,0.00012329489246540423,0.0002107098800129631,-0.0015176306370306006,-0.0014297519253641047,2021-06-01
548,AVB,2.8489942162069578e-05,3.03317291660106e-05,0.0001612758389235693,0.000535013742631934,-0.0013389618555560583,-0.0018217230937031198,2021-06-01
549,NNN,3.853162714054537e-06,1.9275461263106162e-05,0.00010984197811997906,0.00033999501363369416,0.0018168445996201577,0.003845590430123088,2021-06-01
550,DEI,3.1112750993327994e-06,1.9427968306454413e-05,0.00010088242939617723,0.00036100631843441624,0.0014869940371483041,0.0016801678191959938,2021-06-01
551,CUZ,2.4872583814327394e-06,1.061262107544287e-05,8.901951004704736e-05,0.0003536766901295209,-0.002515799620877792,-0.003563470722780593,2021-06-01
552,JBGS,5.148918976794844e-06,1.2259030455414143e-05,0.00010282972293413946,0.00040854500361843326,0.0018749154476816652,0.0032384135327192492,2021-06-01
553,CIO,-2.022570121676629e-06,2.5655575952215083e-05,8.009471747738033e-05,0.0002537274327524448,-0.0033814229924402405,-0.003911018732912195,2021-06-01
554,AHH,-1.4555165850783855e-06,1.4190621898680094e-05,6.718096308211464e-05,0.00024040610735006403,-0.0015277663348255827,-0.0014725845106881472,2021-06-01
555,UHT,-9.237488157492088e-07,1.247987460249212e-05,6.965810650976706e-05,0.00021142400205033423,-0.003641140698982981,-0.005075783558040722,2021-06-01
556,CBRE,5.520281968883174e-06,3.635623827387199e-05,0.0001782260419709026,0.0003059573067413474,0.0018862993751869992,0.001623036391255425,2021-06-01
557,LW,6.98317451667407e-06,4.025537984570056e-05,0.0002293841673739235,0.00033877068102207544,0.0015409562447874176,0.002153052424461105,2021-06-01
558,HCA,1.0522670671334819e-05,4.5089246333519536e-05,0.0001971987689559817,0.0003881267731246879,0.0015595176547571294,0.0012021936533860458,2021-06-01
559,TJX,1.0541567589749082e-05,4.51215545820816e-05,0.00035713862897214683,0.0003884048814826532,0.0014910017487702648,0.0019824298161287097,2021-06-01
560,ITGR,3.928420944126076e-06,5.4821641017042915e-05,0.00020849036730547524,0.0002816710769364591,-0.0020761366264213255,-0.0020438133508261427,2021-06-01
561,FLT,8.200075630972572e-06,2.754598951781799e-05,0.00015674387943719902,0.0003851195467848089,0.0034969328248310822,0.0033797482595156005,2021-06-01
562,GPN,1.2030057699426449e-05,3.0942757186255146e-05,0.00014143894237158262,0.0004326096405480274,-0.0008871780321750459,-0.002236931125964789,2021-06-01
563,PUK,5.039198510303726e-06,3.604694595303126e-05,0.00015612734986892543,0.00029763675483913,-0.002605799796073113,-0.002862779966020393,2021-06-01
564,AWI,-1.2747164184473866e-05,9.075911226556737e-05,0.00010409707012299106,0.0002901183736694521,0.0009829627955787966,3.3285471915835207e-06,2021-06-01
565,CB,1.5273705330857513e-05,5.150104548629676e-05,0.0002352301606629063,0.00045580844205896326,0.0012578852750620522,0.002543325209039236,2021-06-01
566,RE,1.7163680324015674e-05,5.3219905917149625e-05,0.00014571315593348775,0.0004710211642028721,-0.0029745785430682287,-0.003976296566706066,2021-06-01
567,AFG,2.430187618937931e-06,5.204683906025276e-05,0.0001062619831267259,0.0002680793260395209,-0.0021313311266144943,-0.0019264566055434483,2021-06-01
568,BUD,4.441144687053704e-06,8.053401300726582e-05,0.0003262034628912069,0.00038478094589196923,-0.00036753768880575015,0.0004615660834755351,2021-06-01
569,USPH,5.60447131655942e-07,3.5169846998660406e-05,0.0001397793114649165,0.00016803691371743094,0.002578881799338314,0.005039843539789272,2021-06-01
570,AGO,-6.026880185106544e-06,3.9275356463907605e-05,7.269557237687835e-05,0.00020260244794624487,0.0008173370871524698,0.0008967433330706781,2021-06-01
571,RGA,-9.193111007648794e-06,4.613829574518033e-05,0.00014255047782169887,0.0002380050113773383,-0.0028032626125130125,-0.00432816213114746,2021-06-01
572,AKR,-2.1091007957993357e-07,1.7133422487972477e-05,4.83505850073759e-05,0.00015811864209949465,0.0032477938506641404,0.0038288669039338538,2021-06-01
573,ESRT,-2.3228864979775526e-07,1.7580685923465367e-05,7.91076276936092e-05,0.00016224628718211222,-0.0020839696608266245,-0.004470920117740244,2021-06-01
574,OMC,7.980103155320123e-06,7.605514415084935e-05,0.0002280146078665148,0.00040503687072654686,0.0028223998279278857,0.0029942898692148436,2021-06-01
575,RHI,1.134717947400102e-07,0.00011456398400464306,0.00014904867941668368,0.00036621244843455596,0.003278288120489826,0.003737670578114483,2021-06-01
576,HPQ,-1.5358636141285687e-06,6.426648778264193e-05,0.00021786374923131308,0.0003005941126032411,0.0037803183597771633,0.00532390093917495,2021-06-01
577,LZB,-1.4444540426065046e-06,6.27234212073402e-05,0.00015261561870247853,0.0002933767160425436,-0.002545589167313371,-0.003475128093578514,2021-06-01
578,SPB           ,-2.4902629659015534e-06,7.48309368958684e-05,0.00027116898758843867,0.00036181902218849414,-0.0011734241883744315,-0.002268551251849152,2021-06-01
579,OC,-1.3021860703006432e-06,3.571399339674028e-05,0.00013621380570502108,0.00029894744014098565,0.0015767881024341625,0.001377160342870863,2021-06-01
580,JELD,-1.4770327964373025e-08,8.697944335265402e-06,8.186074478610636e-05,0.00012746018293744268,-0.0006636565967417565,-0.0016480703801823992,2021-06-01
581,DOOR,-1.8182534480886822e-07,1.3374555941957491e-05,7.584162971667093e-05,0.00019599152183088172,0.0011846553795820554,0.0019232120725482722,2021-06-01
582,LPX,-4.131802189246874e-07,4.054012686198335e-05,0.00013209501821322863,0.0001746221891093528,-0.002625585498984361,-0.002020257492970364,2021-06-01
583,SSD,-3.6018890462346367e-06,8.21410320564479e-05,0.00017235457205435535,0.0003538135655625999,0.00367432876075362,0.005688747297875036,2021-06-01
584,RYN,-6.434608343153977e-06,0.00016184322013880945,0.00026042297114576543,0.000443173093385353,-0.0023361195501833006,-0.002614332357714525,2021-06-01
585,KMPR,7.780449097309361e-07,3.881789639430652e-05,0.00040782025104697876,0.00048353954970898564,-0.0021940377091175744,-0.002956708146543515,2021-06-01
586,RLI,5.990240800464134e-07,3.4914745136859765e-05,0.00014329342293952705,0.00043491950130912743,0.002307406488428262,0.0023077554998206604,2021-06-01
587,SXT,9.634733251372114e-07,4.091897784743555e-05,0.0003785522445481181,0.0005224004816414976,-0.0009063644926439531,-0.002118181414032896,2021-06-01
588,GLT,1.230553094665868e-07,1.293881353238361e-05,8.721002531055042e-05,0.0002608516229591104,0.0026252599613798486,0.0030244602565793243,2021-06-01
589,SCL,6.965699191140806e-07,2.3740419515610083e-05,0.00038168211864417206,0.0004786162923576962,0.002290949789112634,0.0037414992355555552,2021-06-01
590,KAI,3.0423979912018115e-07,2.981586835737217e-05,0.00029911752615005007,0.0003446760377488871,0.0025072234096487145,0.0020938712231615753,2021-06-01
591,LNN,4.7036093783647833e-07,3.567590961099905e-05,0.00016407180105215737,0.0004124190186386494,0.0005647991208342602,-0.0003285982623670771,2021-06-01
592,MSM,7.97407319642615e-07,6.652821368655306e-05,0.000532242166702963,0.00048590280658138753,0.00281329909168733,0.0026564815403249628,2021-06-01
593,MSA,3.560741666132427e-06,7.30077128425512e-05,0.00037061054976858927,0.0004956101105923067,0.0001275571759060484,0.00029752996824119083,2021-06-01
594,SNA,3.0001141785108497e-06,6.752004190469905e-05,0.0003477658046534838,0.00045835726298881416,0.001688329579175983,0.0022528877020046812,2021-06-01
595,AVY,2.796077959197505e-06,6.56839386632036e-05,0.0002471171828649104,0.0004750393714808871,-0.00023942360072469446,0.00013584134761467016,2021-06-01
596,CMI,4.143421923249703e-06,4.680892064554896e-05,0.00022660860590810288,0.000538809114766671,0.0030686348154797555,0.0030601575706341623,2021-06-01
597,GPK,4.2884501302412424e-06,4.7471177711757914e-05,0.00022981468604105004,0.0005464322374251495,0.00018142797143897943,-0.0001695258326049708,2021-06-01
598,ALLE,1.0376255078168962e-05,7.066996942872909e-05,0.0002800801844457516,0.0004987221593299295,0.002094458869793193,0.0025619035620958377,2021-06-01
599,ALL,2.5592843039975247e-05,0.00010282234648143023,0.0005600998090217609,0.0007256233882526992,-0.00034569110938085417,-0.000123363373075649,2021-06-01
600,PNR,2.29955419346877e-06,4.114511666190781e-05,0.0002080984812630253,0.0005155408342587931,-0.0017318287617793416,-0.0033804249421534433,2021-06-01
601,AOS,1.7135249731145835e-06,3.666000834461699e-05,0.0003589728279366144,0.000459343242145077,0.0024230117641916393,0.0015887862206443628,2021-06-01
602,ECL,8.777762892586393e-06,2.402886256633038e-05,0.0002487589839633681,0.0005244320796085843,0.0003795114065931762,0.0020779906569563696,2021-06-01
603,LIN,1.8183327667024537e-05,3.160721997881962e-05,0.0004559338565898703,0.0006898304095078016,0.0022945371093107355,0.0038605583987286526,2021-06-01
604,GGG,1.3394377265499539e-05,1.0462722112770944e-05,0.0002806236377145752,0.000710125377340746,-0.0013797991842966657,-0.00192692062320505,2021-06-01
605,TTC,1.3895147183626357e-05,1.0566578042690182e-05,0.0004275471752732111,0.000717174282073956,0.002582367722029144,0.0025999891908336063,2021-06-01
606,IEX,1.6835764635718983e-05,1.861272786869757e-05,0.0003658012911072703,0.0007298544265236149,0.0011038496736909937,0.0013533212395697605,2021-06-01
607,FTV,5.475413787449019e-06,2.312557987364338e-05,0.00032087518232935515,0.0005202875858127303,0.001977794179564394,0.0032995362856949764,2021-06-01
608,AGCO,-1.6219420440850195e-08,2.1107878886074357e-05,0.00017788262320180692,0.00024655648297620204,0.0012990231517989114,0.0016231778891362292,2021-06-01
609,ASH,-6.180068131755947e-08,3.4039070551567224e-05,0.0003369436950921707,0.000397602883940655,0.0025347465472348543,0.004697509726418498,2021-06-01
610,TRTN,-1.6626174225057788e-08,3.3357115783381776e-05,0.0001926090200735907,0.0002437308142966928,-0.0033052922640994962,-0.0039080206683679425,2021-06-01
611,MT,-2.7759479215565247e-09,1.3485445014420066e-05,7.619173294464617e-05,0.00016078068637165644,0.004449969301371967,0.007636706769404501,2021-06-01
612,CSTM,-1.133783786977081e-09,9.695346450389218e-06,5.939198586561161e-05,0.00011559310465748223,-0.0016046911738815401,-0.0007489301101455182,2021-06-01
613,APTV,-7.370324933916433e-09,1.822542003726972e-05,9.022250610926443e-05,0.00022866369342925931,-0.0034970152866961486,-0.004335889338743525,2021-06-01
614,MGA,-1.2554145927311242e-08,2.1367050091543164e-05,0.00011680633487116628,0.0002680798896063296,-0.001511149576690039,-0.0014765064878884445,2021-06-01
615,BDC,7.274217556083058e-08,2.7054890240076564e-05,8.438977147722799e-05,0.00017359602674781312,-0.001790692497276638,-0.0019244144518299714,2021-06-01
616,FMC,1.149599927059702e-06,7.3636677071113e-05,0.00037338285234698077,0.00047248517547195324,0.0001441192516829238,2.1838276275514114e-05,2021-06-01
617,TNET,3.2075910030296684e-07,4.1447552597541244e-05,0.00012284331463529224,0.0002752919383484509,-0.0007768022269382972,-0.0007805179569461818,2021-06-01
618,KN,1.057191345738824e-06,4.622696908826536e-05,0.00022253305222944456,0.000479924587175939,0.00039183880205564205,5.35691647463628e-05,2021-06-01
619,SNX,3.542245193753615e-07,2.970380395933632e-05,0.0001429918138322015,0.00030838244717104477,-0.002435458148722697,-0.004807191354421697,2021-06-01
620,MMI,7.465669435065389e-07,5.8871216844109366e-05,0.0002058080861462881,0.00039234670243016353,0.0018336084998329288,0.0007204631241120686,2021-06-01
621,XPO,3.144207072722408e-07,3.928552664841379e-05,0.00012070810371445472,0.0002618180438592334,-0.00449264562633182,-0.005263643259268604,2021-06-01
622,APAM,-1.0268975211516419e-07,1.1579436348387338e-05,0.00010584218468566255,0.00022313580856718633,-0.001024865241949799,-0.001097611915561355,2021-06-01
623,BLK,1.7506029812670728e-06,2.878409403084237e-05,0.00026964007910996313,0.000554669666312422,-0.0010821185157306418,-0.0019346312511789646,2021-06-01
624,AMG,2.7616296618531706e-07,2.0548103086353185e-05,0.0001475140993568651,0.00024427129921540864,4.636196038780438e-05,0.0013823938300257263,2021-06-01
625,JHG,1.5813093752198367e-07,2.189419729432963e-05,0.0001932657421742152,0.0002623047522934731,-0.000308201799194898,-0.000656420318897919,2021-06-01
626,LAZ,2.707583139948296e-07,2.7435149494663462e-05,0.00017592568554801837,0.00032868846460043033,-0.00346129870022562,-0.004150983349451179,2021-06-01
627,BEN,2.1203899250921295e-07,5.1646201726374916e-05,0.00021762921890209429,0.0002440980450103048,-0.0008449504096550429,-0.0013414111045297922,2021-06-01
628,MTRN,2.614449539723615e-07,5.725770579985269e-05,0.000103445616459309,0.0002706199794046356,0.0009271318602114789,0.001058502567005691,2021-06-01
629,NNI,1.2429559232627787e-06,7.578565735277344e-05,0.00032558825791853,0.0005094224941715461,-0.002037076413078417,-0.00296695034187278,2021-06-01
630,TRN,2.653768023999772e-07,3.7715273140917755e-05,0.00017241232924437792,0.0002535177391465132,0.002144885959772943,0.00313235437289773,2021-06-01
631,OI,-4.596227306282785e-08,2.778125127399551e-05,9.845946287998644e-05,0.00012596680894028125,0.00047598894111976534,0.0001651747334107376,2021-06-01
632,BG,5.251824441244535e-07,4.530877104990017e-05,0.0003029559992614005,0.0004005140401661046,0.001312221072903617,0.0018356022907039494,2021-06-01
633,AVD,2.5404603630596794e-07,2.207767842036019e-05,0.0001863617830238026,0.00031753878359868065,-0.004135791817135022,-0.0036557483921789186,2021-06-01
634,CC,-8.468677926083256e-09,2.024659106430268e-06,6.367021185452095e-05,0.00014594699622006558,-0.0006235033404189914,0.0003802832308734069,2021-06-01
635,TROX,-2.5814036761514906e-09,1.512391923617326e-06,8.48147143881506e-05,0.0001090203568879351,-0.0007394345164579165,-0.0013909075717407713,2021-06-01
636,KRO,2.1310207059889516e-07,6.969105936800857e-06,0.0002021494910586673,0.0002906934703572066,0.0012068282253039962,0.0022485578884498167,2021-06-01
637,OLN,9.089010131089819e-10,5.5464985728591325e-06,5.84179914321748e-05,0.00013390768031707197,0.0015557973803177554,0.0023948406719154647,2021-06-01
638,RMAX,-2.2875256989007955e-08,2.4948059006743067e-05,0.00013848687373936504,0.0002096987452931994,0.0011257744290996327,0.0010078336724195186,2021-06-01
639,SAH,-1.1345831376909022e-08,1.8081834814394372e-05,8.577445824586272e-05,0.0001519852936115208,-0.003212994025559193,-0.004292519233736381,2021-06-01
640,HTH,-2.2725104698981518e-08,4.408986414953481e-05,0.0002077543791864152,0.00024279310422564308,0.0019920614187369855,0.003486166057053339,2021-06-01
641,MLM,4.5567646696688457e-07,1.4657174971797632e-05,0.00014341173608424653,0.00034846870760845387,0.0022072933074204475,0.004071669175990295,2021-06-01
642,SUM,-6.885051626587394e-08,5.2431303854002115e-06,5.130091116010529e-05,0.00012465341191181435,0.0008068253755499418,0.0014578082487547547,2021-06-01
643,CX,5.7015232984351135e-08,1.0227240696441454e-05,0.0001356785684830509,0.0001472620557811716,-0.0016953381864346945,-0.002037589412866605,2021-06-01
644,GVA,3.747271851502991e-08,1.0271956257529494e-05,0.00016434085420939643,0.000155488469456701,0.0009070434440495686,0.00035544602642395085,2021-06-01
645,MTZ,1.0767520566509869e-07,1.4757864282389427e-05,8.169630207288049e-05,0.00022339247483033392,-0.0018472956817113006,-0.0010739936214267107,2021-06-01
646,DXC,-5.221058663713334e-07,6.483141664168719e-05,0.00014286951266711626,0.00015139677918865995,-0.0006481678369465032,-0.0013848154018341993,2021-06-01
647,GE,-1.3014179882556764e-06,0.00010044130349636019,0.0001829455516272433,0.00023455433545287846,0.001294961257558231,0.00014868206049829994,2021-06-01
648,ADNT,-3.0310205596624664e-08,1.4764590634108877e-05,4.434059360319432e-05,9.831627547560598e-05,-0.00023985071640177975,-0.00014935243205566696,2021-06-01
649,GM,-1.2402262355990558e-06,3.399778801147725e-05,0.00014256159886979775,0.00022638866017563592,-2.8479651942000374e-05,0.0007948187194988886,2021-06-01
650,AXL,1.431853213151035e-07,1.3296313031652446e-05,3.921425457115685e-05,8.64374460349272e-05,-0.0023337058001112647,-0.0031654774557937147,2021-06-01
651,BWA,-2.090801693548185e-06,4.190575885831545e-05,0.00012359088507885908,0.0002724233974670608,0.0016062086612103144,0.0026676431285099908,2021-06-01
