,Company,RCRP,"RCRP, no extended terms",HRP,IVP,LW,OAS,dateThru
0,GAB,-0.000439970015306106,0.0008786665622043916,0.0009008549068167964,0.0006238123751360655,-0.0006154604472897545,-0.0009645384722931886,2021-09-01
1,HTY,-0.0008603416939955575,0.0013013172097626122,0.0009522262276106636,0.0009238746691246234,0.0009720431908046693,0.0012284940613130908,2021-09-01
2,GCV,-0.0006174549718635299,0.0010395103199006097,0.00039174126256815047,0.0008298154260893317,2.839761333006569e-05,-0.00039426928501501933,2021-09-01
3,IFN,-0.0008140531498763366,0.00047284333033053373,0.0004786585378549858,0.0010947061024344335,0.0018760579324039429,0.001045503432304968,2021-09-01
4,IIF,-0.00039273754334419737,0.00039427940752342704,0.0005406887138584293,0.0009128183603190751,-0.0029922216637920168,-0.0043635589398752575,2021-09-01
5,EMF,-0.0002661461000543777,0.00021001828999813376,0.00029817919947830896,0.0007890135296784724,-8.398758626602869e-05,0.0003415764602042214,2021-09-01
6,IHD,-0.00023011436838841552,0.00020146326577476082,0.00028603297033576354,0.0007568733296081435,-0.0019963512273202975,-0.005991869046568649,2021-09-01
7,KF,-0.00017670731666114602,0.0002944570178516493,0.00041806338802470545,0.0006455454442643081,0.0006814203344662528,0.0016577578787673607,2021-09-01
8,BCE,-0.00301939432971348,0.001213591586190873,0.002403938636501184,0.0015394696930241783,0.0014220448221892478,0.003000784526093552,2021-09-01
9,ENB,4.73707053758165e-05,0.0004746244848198804,0.00027602807398999235,0.0006020724090884562,0.0016323979517464922,0.0045091408608081895,2021-09-01
10,BIP,-0.00036948100583174856,0.0009366683767874443,0.0008199750773803296,0.0007540199807454512,-0.0021416010208572386,-0.0008063253509261193,2021-09-01
11,FT,-0.0048511828213032284,0.0006203761688798901,0.0015671162478836168,0.001965228918629257,0.0031170696091220823,0.0032880380195028556,2021-09-01
12,PDT,-0.0001118997458806411,4.845712780221162e-05,0.00030941834229917506,0.0008152448560960726,-0.006797592054785746,-0.007908688156379266,2021-09-01
13,HTD,-0.0003628549285337371,6.074061751755177e-05,0.0005441380109034727,0.0010219028290203987,-0.0074374702638204376,-0.008866595292510491,2021-09-01
14,HPF,-0.0004748953435414839,0.00011153443622877707,0.00030602409882744634,0.0010499469507138186,-0.0026781103284538614,-0.0023062639437648504,2021-09-01
15,DFP,-0.0017690325276500556,0.0002699570629571615,0.00073063671300251,0.001442218255823953,-0.00016930510581688755,-0.0007586540216075759,2021-09-01
16,ZTR,-0.0003625671105443086,0.00018211096396249297,0.0004829178571356126,0.0009832963247654617,-0.003472255510090069,-0.0037123210933559907,2021-09-01
17,PDI,-0.0007447893097196226,8.000590742714438e-05,0.0007050592276477588,0.00126839727829893,0.0030116799261855425,0.005287925569023478,2021-09-01
18,PCN,-0.00019758697832964912,3.3390636568131944e-05,0.0009094868518139997,0.0008967967422852577,-0.001078116301407015,-0.0002990959735317069,2021-09-01
19,PFL,-0.0004160471347120409,4.155252500405655e-05,0.0009936504987434114,0.001116006548162954,0.0014879780580192823,0.0033015453131677564,2021-09-01
20,PHK,-0.00045172992719833173,0.00011566035125777169,0.0005216033708203943,0.0010620660841890147,-0.0007039537325993377,0.00045956889877540305,2021-09-01
21,PGP,-8.55041703691993e-05,0.00023512580683984627,0.00029194590269581236,0.0007542387352178446,-0.0024441390094020873,-8.609281825151131e-05,2021-09-01
22,RA,0.0007247338509415334,0.0003088524570299444,0.0004704621214707398,0.0009286544847581953,0.0007758676632478489,0.0026207729623710877,2021-09-01
23,JRS,0.00034455389094498635,0.00022200557432549672,0.00035505955256764487,0.000667524144768914,-0.006477912740814721,-0.007034018218081285,2021-09-01
24,EDF,8.820218913610201e-05,0.00013950338060622457,0.00023376053623148056,0.0005069069212473238,-0.011653652195251852,-0.01420933342090495,2021-09-01
25,EDI,0.00016616823544312616,0.00016382263068200867,0.00027451138337051493,0.000595274644878026,-0.006411116582254006,-0.007184660985523201,2021-09-01
26,EMD,0.0012843623093699871,0.0005596682553521105,0.0009378149182788266,0.0011698199296253597,-0.0018180976736072558,-0.004240241890043661,2021-09-01
27,PHT,0.003899768063464951,0.0005287546098631989,0.0007643544775274635,0.0011075179087768887,-0.0030031139016235353,-0.004845996389317103,2021-09-01
28,VLT,-0.008176173919106383,0.0005599376954068473,0.0007391116577868456,0.0019473860942243605,0.0005311643782451618,-0.00021975286770403837,2021-09-01
29,BGH,-0.004050097137058203,1.882349860959665e-05,0.0005465495905876355,0.0018727894874604075,-0.00019898640986311573,-0.00029963141191618813,2021-09-01
30,FSD,-0.018815542420122497,2.7953774502116586e-05,0.0008116516661637892,0.002781179849091002,0.0007346074654230026,-0.00015806949609571122,2021-09-01
31,GHY,-0.006168478803850532,3.4650921520744934e-05,0.0007471517143104317,0.0020306409370037253,-0.0007763295082187181,-0.0016151482446310748,2021-09-01
32,JRI,0.0035344240528069034,2.7940856113374667e-05,0.0003050266240485851,0.0009431705703982212,-0.005618704391416479,-0.007326352308178851,2021-09-01
33,NCV,0.002617308498133477,2.3587734808272527e-05,0.0002203531296461677,0.0008031995619716149,-0.006218174675146849,-0.006790387612628497,2021-09-01
34,DSL,0.008989352876670501,3.527198242057265e-05,0.0008455192184823285,0.0012010666162033756,-0.0028506182615755673,-0.0033790976009273744,2021-09-01
35,JQC,-0.0013522425639481137,4.373296506185005e-05,0.0006098212238258389,0.0015626601751232772,-0.0015862256638440656,-0.003489518392085493,2021-09-01
36,DSU,-0.002584270419966682,1.8059237902309246e-05,0.0007984933264288028,0.0019326074163105755,-0.00011830875139012512,-0.00027057091801635513,2021-09-01
37,JPC,-0.0011735712780787117,1.459751979189533e-05,0.00045531458948322727,0.0015621520222594738,-0.003247400979908091,-0.004367000931551596,2021-09-01
38,HYT,-0.0013870092120806794,2.5996235057512134e-05,0.000669196088883705,0.001619667042336884,-0.001642643405784293,-0.0029647520797407905,2021-09-01
39,AWF,-0.010809746461306016,6.999537136776869e-05,0.0015932629340028196,0.0023858200275617444,0.001966218589492753,0.0034032817415683048,2021-09-01
40,JGH,-0.007263039003673607,6.0758855239117776e-05,0.0009296778979109281,0.002070989707584617,-0.0013855001366274821,-0.0030883356855343977,2021-09-01
41,AFT,-0.00602453451398592,7.021117450979821e-05,0.0015193830130003,0.0022680184412767626,0.0026306110836488983,0.0038870549699043084,2021-09-01
42,AIF,-0.0031998654172832176,6.0489703302752255e-05,0.0007969693659448866,0.0019539875747108665,0.0033893359910474605,0.00577042339432359,2021-09-01
43,ARDC,-0.002585083664914707,9.678209331965262e-05,0.0006943467163112388,0.0017792558194351562,-0.0007255065869177751,-0.0011846746680638635,2021-09-01
44,KIO,-0.005548589367896741,0.0001859558384346522,0.000923013110624803,0.001971652963348575,-0.00019277434237347177,7.08224537917951e-06,2021-09-01
45,LGI,-0.0007042469174321764,0.0006268435796229719,0.0010055567978611783,0.001239404935827631,0.00040122554424901403,0.0007318652549052401,2021-09-01
46,MFD,-0.0003884008734895547,0.0004596659941167564,0.0009095849593644704,0.0009088587974101734,0.001596928307639876,0.004564094639490646,2021-09-01
47,BGY,-0.002092455907249903,9.345957040998525e-05,0.0004590213921100238,0.0016791518389297785,-0.0011051181444989633,-0.0008958298369123129,2021-09-01
48,RGT,-0.00043803063189034,5.150437537479405e-05,0.00025296082552685596,0.0009253591284887297,0.001006050553286659,0.0004014656095515703,2021-09-01
49,STK,1.3486556525924012e-05,3.0406813985175273e-05,0.00022420417380072558,0.0005939719656775572,-0.002251813547042035,-0.001308120505923199,2021-09-01
50,AVK,2.4478131578822428e-05,2.2470206178882154e-05,0.0002092282766424376,0.0007626488465180029,-0.004345405894346324,-0.00655099932777637,2021-09-01
51,ACV,9.438076762101258e-06,1.7784227909262695e-05,0.0002945641978172901,0.0006036046484504135,-0.004789639578606462,-0.005460806620929367,2021-09-01
52,BUI,-0.0004756272459778366,0.00013181780054784958,0.0010083434753073127,0.0009075943262038668,0.0003994045061971578,5.9810201499677565e-05,2021-09-01
53,FOF,-1.78912696873005e-06,2.9072143409093847e-05,0.00031752985380606056,0.000983209596310458,-0.002659378978888355,-0.002265823665059689,2021-09-01
54,EXD,-2.530860725205961e-06,3.337576737987809e-05,0.000558175178396123,0.0011287566351869654,0.0007427382023318049,0.0013047160626456578,2021-09-01
55,SPE,-0.002109789298016761,4.122402533654356e-05,0.0007192910026125253,0.0014792861736365927,6.62052249626482e-05,-0.0007963438270507685,2021-09-01
56,EOS,-0.0005145224573309449,6.320314769806309e-06,0.00037953989862138783,0.0012765420194567388,0.00045927393783252155,0.0027175416350457655,2021-09-01
57,SPXX,-0.0005646973445816888,6.4843456497296086e-06,0.00037334269614348555,0.0013096720641359804,-0.002292020704324698,-0.003577849263233026,2021-09-01
58,ETW,-1.6811081330144986e-05,5.380882122331559e-06,0.00036082259456006406,0.0011172626236075863,-0.0026365998124212972,-0.003185382563079904,2021-09-01
59,ETY,-2.779992830634509e-05,6.018880124924909e-06,0.0006494101516473798,0.0012497337140400572,-0.0024484368459343022,-0.002786894245055867,2021-09-01
60,ETV,-0.0013526421865610308,7.371173208591668e-06,0.00044862235379768177,0.0014954572171825852,0.0011373594494242373,0.0033188997552985686,2021-09-01
61,ETB,-0.0017938701603192398,7.946423101677471e-06,0.00048363305748827133,0.001612163415769259,0.0016414062636269592,0.0028864380078378413,2021-09-01
62,FFA,-0.00043819118127564455,5.574745260612482e-06,0.0003273975546000302,0.0011011667996761402,-0.0014240375131064787,-0.001585846402345714,2021-09-01
63,BXMX,-0.0017206559645056578,8.12640920954987e-06,0.00045758509020055627,0.0016051911977688447,-0.0015351925906767106,-0.0009379379074268641,2021-09-01
64,USA,0.0010259777751149156,4.0062877922595675e-05,0.0005626698283243416,0.0004792595074972982,-0.004348582458367076,-0.005310896149462843,2021-09-01
65,DEX,-0.0017520919214469705,8.281108587090575e-05,0.000551533625397562,0.0014248805008351174,-0.00011678180020067951,0.00014025198520467629,2021-09-01
66,IGA,-0.0017039298229874315,3.359727561800528e-05,0.00046224109358369234,0.001555897598479706,0.0009929738942516162,0.001509320426414419,2021-09-01
67,IGD,-0.0024278267511973145,3.779718946337871e-05,0.0008447496800196392,0.0017503965792939778,0.0009342705389501287,0.0008113082527270799,2021-09-01
68,HEQ,-0.0006976615834725565,4.051472562204927e-05,0.0003349364548941162,0.0011273918157575229,-0.0009341864685614693,-0.001223817032865787,2021-09-01
69,EOD,-0.000575205961196426,6.772485921940318e-05,0.0005819306365031642,0.0011653008810192961,-0.001445003612489207,-0.001954938757193856,2021-09-01
70,THQ,-0.0004819924532369149,0.0002606871220183886,0.0009998660711263486,0.0010158581424104954,-0.002837008715429851,-0.0035551094333267095,2021-09-01
71,GRX,-0.0021221805272525433,0.0004005590346095811,0.0011415573701167238,0.0015609177533346932,-0.0021272323069667126,-0.0035969030452655585,2021-09-01
72,MCN,0.001812594805453474,0.0007934045679672023,0.000720274677531022,0.0009938745616858676,-0.0014709941549367184,-0.001942139018822269,2021-09-01
73,AWP,0.0001851375827908473,6.114206529530545e-05,0.00022981157550895718,0.0007105986745680683,-0.001346325749385524,-0.0004412239171910723,2021-09-01
74,IGR,0.0007471500087923357,7.898367279735228e-05,0.000569880771140302,0.0009179554686489451,-0.002789732841022271,-0.0035443231360374364,2021-09-01
75,RNP,0.0004255098589434468,0.00012141028666582304,0.00028265199817616914,0.0007888257396349387,-0.003925535145053434,-0.004394301782925923,2021-09-01
76,RFI,0.0001271273610930777,0.00016717512473195552,0.0002199607441373521,0.0006138668674001512,-0.002940101551651543,-0.001730931653118455,2021-09-01
77,UTF,0.0003840128860501891,0.0002003937305095788,0.0005812442346585441,0.0006637176627289652,-0.0035053943548495796,-0.0028007296303024336,2021-09-01
78,DPG,0.00020603747671835772,0.000153364581595436,0.00035056485558379667,0.0005079539234240807,-0.011568360731260751,-0.01627711050550934,2021-09-01
79,CHMI,-3.002173391215855e-05,5.611523787050633e-05,9.936685380288882e-05,0.0002276484450427104,-0.0025663011598611343,-0.003438896647045249,2021-09-01
80,EARN,-5.733470404597702e-05,6.901431252701216e-05,7.491978891157403e-05,0.00027997744514103763,-0.0009815003584705433,0.00038793314588111174,2021-09-01
81,PMT,3.4450051551080886e-05,9.371181153677432e-05,4.9264886113271986e-05,0.00022760660438715815,-0.004278167576984289,-0.005044646949146292,2021-09-01
82,DX,-0.0004560424711947903,0.0001297931970621826,0.00013974237808712578,0.0005222213591784721,0.0038351280889789407,0.004699819882766189,2021-09-01
83,ORC,-2.7630378874822986e-05,6.92479970110303e-05,0.00011710873106499637,0.00027861847876481377,0.004383391008767485,0.005307033680924312,2021-09-01
84,ECC           ,-0.00022340936533145526,0.0002991740782302151,0.00027250351282701957,0.00031160485314880577,-0.009194952710071145,-0.011587641786827524,2021-09-01
85,GSBD,0.0002573335740838222,0.0001671678563517996,0.00041161681687977656,0.0004706794288513263,0.007144245795960469,0.009238505997372044,2021-09-01
86,SCM,6.796610322927633e-05,9.649251344665489e-05,0.00018075947222304477,0.00027168525163068235,-0.006429077200693337,-0.007076336304688935,2021-09-01
87,SAR,6.117873150031791e-05,0.00014524429277677306,0.0002550536044063963,0.0002656338143460438,-0.003160785658890885,-0.0055297926514733635,2021-09-01
88,SUN,0.0005167747185784863,0.00023637210580879783,0.0002792421732601601,0.00043868606224329475,-0.0026105849431955794,-0.0010853068104549099,2021-09-01
89,CEN,-0.00029333344693899716,3.849618878469009e-05,0.00011773320040566795,0.0001849574277347591,-0.007375649202340613,-0.008811797750604693,2021-09-01
90,NSS,0.001992352672286012,0.00014115689179630065,0.00021280304085408413,0.0006781974122087799,-0.003955357982707462,-0.008084700148165551,2021-09-01
91,TPZ,0.0011226839886081873,0.00018816072061440041,0.0007594510337617565,0.0005739027980439544,-0.0032357878952168654,-0.0026446353343623375,2021-09-01
92,HTGC,0.0006012424174861917,0.00011705495943616935,0.00015556361072731396,0.0005614222968619781,-0.0003121791793784158,-0.0015737057959689493,2021-09-01
93,NMFC,0.0003718532265211791,9.879233944397554e-05,0.00014715801270059035,0.00047383060393310254,-0.0016988555584439152,-0.002977772785335228,2021-09-01
94,TSLX,0.0012200017900638042,0.00023270725039134686,0.0002112229525527937,0.0006801117882466607,0.003087338452359079,0.0055124626599996635,2021-09-01
95,FGB,0.00017311823233613616,0.00021345641283152528,0.0002451020088885747,0.00036839342437285896,-0.0008168651338955014,-0.000526196453862899,2021-09-01
96,BBDC,0.0026683529847802657,0.0007612194709883313,0.0012571447698120253,0.0008272128575614873,0.0039941992728627146,0.005919650782305156,2021-09-01
97,PGZ,0.001773131648874787,0.0006194142438449243,0.0008180836375414604,0.0006488397134178362,-0.0013895339843804804,-0.001167451164495016,2021-09-01
98,GNT,0.001537636028423278,0.0003958317456419908,0.00033153521088604874,0.0006047401560506477,-0.001955758780349103,-0.0022447945615366623,2021-09-01
99,RIV,0.002712109917615508,0.0005351590825744167,0.0005932508427244706,0.0008176003836758525,-0.001622652485669519,-0.003104226670909044,2021-09-01
100,IRT,-3.2428061393820897e-05,0.0002937281706010534,0.00017792201767445346,0.0003492346733410296,-0.003724793919054462,-0.005164844045234906,2021-09-01
101,NXRT,-3.391804915187846e-05,0.0002987108310253592,0.0001809401993975923,0.0003551589188163305,-0.0030474790239623,-0.0027121561516290226,2021-09-01
102,SAFE,-1.12303439968838e-05,0.00028022006547125496,0.00020503287106333947,0.0002049668787820927,0.0013934076794738614,0.002818433494545433,2021-09-01
103,NHI,3.99818894874166e-06,1.9344965048544325e-05,0.00010236299334805772,0.0003180468959926491,-0.0026766319958524657,-0.0052880542429117675,2021-09-01
104,VTR,2.224987267900036e-06,1.7226103127374764e-05,5.504547528052099e-05,0.0002832110896019982,0.002172231114741097,0.004059326561712844,2021-09-01
105,LTC,4.974720528045037e-05,4.942944161885748e-05,8.934529126193885e-05,0.0004523166581118117,-0.0023971435193762256,-0.0031094354619382175,2021-09-01
106,OHI,6.491517732113752e-06,5.9909074140073026e-05,0.00011149062993335616,0.00030276189718632656,0.0005927376733017942,-0.00035927501167892274,2021-09-01
107,AVB,0.00020490798558651919,6.876675609660534e-05,0.00023711784321293777,0.0005936826270827155,-0.0011103320315937527,-0.00144260336641783,2021-09-01
108,NNN,3.193248550691706e-05,4.417516362682567e-05,7.533261715779678e-05,0.0003813765354430804,0.001594377829158924,0.0031314115577816,2021-09-01
109,FCPT,1.1988149098532148e-05,3.9045941863896096e-05,7.561234969378113e-05,0.00033716225828193675,0.001242293283494669,0.0009734960321898696,2021-09-01
110,WPC,0.00019406806056785302,6.693279234407169e-05,0.00015716290433360382,0.0005779656051967325,-0.0012710975260043398,-0.0015328694940023964,2021-09-01
111,AIV,9.455147989827307e-06,8.02173337009317e-05,9.270088920425105e-05,0.00019421534492704284,-0.0024272966702408435,-0.003049833408879122,2021-09-01
112,OFC,0.00010498348241916994,0.00019202436230764428,0.00015908333958101378,0.0004649129563320478,-0.002170140025056929,-0.00297488613564901,2021-09-01
113,VICI,3.5223725375151985e-05,0.00014214779510984924,8.934130186630335e-05,0.00039820539088859303,0.0011580757606783458,0.00231415599498761,2021-09-01
114,GMRE,2.597257210559534e-05,7.832237450184559e-05,0.00012131434193663394,0.000368559385111996,0.0022803605862787646,0.0031619274365365727,2021-09-01
115,MPW,5.720770035037959e-05,9.973218847115311e-05,0.0001052936352004906,0.00046930694188715834,0.0024331864041525187,0.004664348295529132,2021-09-01
116,UMH,-1.37839021853731e-05,0.00012101747012962479,7.838881094028406e-05,0.00032847961175723505,-0.0010382283427349168,-0.0016250661475916185,2021-09-01
117,EGP,0.00013141450632971825,6.267151233243918e-05,0.0006409380522755848,0.0005291165044166351,-0.0008120684858864591,-0.0007530824354109517,2021-09-01
118,LXP,0.00022992957787389977,7.16188450424576e-05,0.000251627064947918,0.0006046561113478551,-0.0019652431622712513,-0.0033547010963212386,2021-09-01
119,CHCT,2.595093294945858e-05,4.360295269143227e-05,7.901622464089634e-05,0.00035234044238448774,-0.001049724499986881,5.910742830259273e-05,2021-09-01
120,DOC,0.0002409678468608011,7.384718307201818e-05,0.00012661656032195555,0.0005967336509657016,0.0019445163053759087,0.0018061478716959185,2021-09-01
121,CPK,1.0195833717310884e-06,0.0003109816426515732,0.00041784573528536045,0.0004708902329406186,-0.0001399594174273192,-0.00030805563340613923,2021-09-01
122,SR,9.397624941844015e-07,0.00030393947823431595,0.00037679221889551926,0.00046022694614795143,-6.61372595408242e-05,0.0014569472798836363,2021-09-01
123,ALE,8.500575714236804e-07,0.00017447688934261267,0.0001968407062803254,0.00045096547724106736,-0.002165735366571276,-0.0029033443535284673,2021-09-01
124,BKH,1.3035842750582156e-06,0.00019618569432357856,0.00017918272575848988,0.0005070756109983841,-0.003262563258042113,-0.005104639959577729,2021-09-01
125,NJR,1.8135367178273115e-07,0.00022399646856536762,0.000146762323387432,0.0003362350321643629,-0.004997182743176325,-0.006916304962678895,2021-09-01
126,PPL,0.0004023063647498403,0.0004519794335486298,0.0003001223804700062,0.0006849495517233169,-0.00019551270874033864,-0.00043903959883061043,2021-09-01
127,CNP,6.998089309742833e-05,0.00017577403743266852,0.00016385353320655366,0.00046369498015642565,-0.006623382148037977,-0.010078345756978788,2021-09-01
128,OGE,0.0002323231665303903,0.00023263172704778866,0.0004383429326457378,0.0006136865582239346,0.0023311054138012116,0.004377434011872598,2021-09-01
129,EIX,8.152558401751321e-05,0.00033882942666009106,0.00028072463141941116,0.0005103936346164536,-0.0007179717867682025,-0.0030403409611239143,2021-09-01
130,EXC,0.0004369303359068482,0.00025828914972094125,0.00029959796943568426,0.0006837527229419547,-0.0011328686104441824,-0.0013237513435517456,2021-09-01
131,DTE,0.0005808781866220654,0.00016433066287409832,0.0004516223511746779,0.0007535929380753877,-7.225047217268361e-05,-0.0006048630595821231,2021-09-01
132,SRE,0.00032934180708855276,0.00014169241844483869,0.00046540929867807155,0.000649777735033305,0.002109560905914942,0.0025327142907983218,2021-09-01
133,AES,0.0002667541923881439,6.522011337936075e-05,0.00023622329157960714,0.00029530010738503687,-0.0011065536015604067,-0.0023488440347867907,2021-09-01
134,BSIG,0.00016845665575025503,3.6012069238056356e-05,0.00012869569475458962,0.00024076701327991349,0.0008347661991398687,0.00028310704631463794,2021-09-01
135,STC,0.00032611702749044347,5.043542897808581e-05,0.00012597092251270489,0.00033719771886122013,1.2581040021607416e-05,0.001612561588515099,2021-09-01
136,CNNE,0.00021895359538900237,6.523950801027576e-05,0.0004129119508916567,0.0002825327811342159,0.002828775540932668,0.0022175310460096085,2021-09-01
137,IIPR,0.00010743188880606695,4.487134487993434e-05,0.00012852259860014078,0.0001943243633928627,-0.0013422860195531643,-0.0019114901587932308,2021-09-01
138,VLRS,3.9852766015063674e-05,3.0180266432111673e-05,0.00011410619581491967,0.00012464706746892764,-0.0013032277755846416,0.0002355298039286149,2021-09-01
139,GHC,0.0005347997202696283,9.675487780755616e-05,0.0003913669372215509,0.0003996058752216412,-0.0008562429745339426,-0.002936517125697128,2021-09-01
140,EFC,0.00010680999509872433,8.01096406978827e-05,5.590982476537275e-05,0.00025830660274883476,0.0044463667349236,0.005726021679543135,2021-09-01
141,AJX,8.348046833422849e-05,7.149435301831466e-05,8.230991504787502e-05,0.00023052735329987396,-0.0012020358406291327,-0.0017472636417590925,2021-09-01
142,FUN,4.214031897620443e-05,5.0098184868426645e-05,5.05793937662829e-05,0.00016475712294057715,-0.0014450462071250603,-0.0002794169643134488,2021-09-01
143,PLNT,4.625723484164792e-05,5.215982318464581e-05,0.0002200612199468464,0.0001715372008698754,0.0010074279653492502,0.0012385383746058366,2021-09-01
144,AB,0.00027770904257789244,0.00016042002859493738,0.0003271144659296903,0.0003256133703254181,-0.002888908483049488,-0.002684941115371494,2021-09-01
145,FND,8.953838433966404e-05,6.38618265984953e-05,9.331313918436284e-05,0.0001856368902667073,0.0005057861482183194,0.0004886574716523811,2021-09-01
146,STM,0.00012662013903677336,7.764756402434094e-05,0.00019564729451934632,0.0002257099912423008,0.0001623719734573092,-0.0008075771348982813,2021-09-01
147,EVTC,0.0008631751440669727,0.00020301951623734104,0.0003017829772881465,0.0004009234001638009,0.004561084812683967,0.006532807184492109,2021-09-01
148,BX,0.0005421824516988258,5.729429747375092e-05,0.00025012411613696995,0.0004234526168906634,0.003012714487798291,0.0034941854695341983,2021-09-01
149,APO,0.00020913497527081838,2.621188351404125e-05,0.00018447683483397345,0.0003123137411643072,-0.0031074704220442903,-0.005015464897319998,2021-09-01
150,KKR,0.0005012338929837025,3.615953090643164e-05,0.00033518782949545656,0.0004308396369182907,-0.00034257070440727523,-0.0005033746658477882,2021-09-01
151,ARES,0.00046193109771626553,8.248216331360862e-05,0.0004129045215337644,0.0003772397024202317,-0.0003132507594684576,-0.00012087030056151731,2021-09-01
152,IBN,0.00036699436449300554,9.847693290475382e-05,0.00010006906384054625,0.0002827755719609956,-0.0031131959933044058,-0.0035572337469260483,2021-09-01
153,BTI,0.002675240589496572,0.0003947528772128425,0.0003692702939421147,0.0006860304643080009,-0.0007726165403022327,-0.0003919203298189667,2021-09-01
154,RELX,-0.0006057209589604423,0.00028337092215586823,0.0007830201296538953,0.0007607677235685576,0.0010928218269811417,0.002145238786071053,2021-09-01
155,CCEP,-9.464585079034902e-05,9.30344090257113e-05,0.00018874627277268874,0.00038320568287269433,-0.0009117549704484336,-0.0012992225486819875,2021-09-01
156,DEO,-0.000551140139762466,0.00018436624628830365,0.0010660031744685195,0.0007593985284311273,-0.0028302043528471792,-0.0052534984957541084,2021-09-01
157,DNP,-0.011935565569583443,0.0006775744445112542,0.0013146727666322794,0.0017965887074930856,0.004286709110568946,0.005748288695947218,2021-09-01
158,TU,-0.004575988456986119,0.00030216492015146056,0.002638449949717404,0.0012526167213007843,0.0014765092218389485,0.0027996332127534127,2021-09-01
159,AQN,-0.0005090541215721423,0.00010518585950220077,0.0004950122951480155,0.0006764675758906246,0.0007893299674613311,-0.0004393323561982322,2021-09-01
160,FTS,-0.006873913757053442,0.0002378658803349338,0.001224023876423998,0.0015297546287949043,0.0029255383628278286,0.004265505769253265,2021-09-01
161,JEQ,-0.0022064441350838054,0.0002262282369204396,0.0005970207344723389,0.000934578769943317,0.0016179334521933448,0.001438557113812398,2021-09-01
162,JOF,-0.0040097213223551555,0.0002870554885913174,0.0005185172705994861,0.001185864192220616,0.004108279681212831,0.006085635341632022,2021-09-01
163,HMC,-0.00042633519964127266,0.00019892282920537359,0.0002558356028033625,0.0005163561120620563,0.001307186605318115,0.0012065605585529309,2021-09-01
164,EEA,-0.002897922608393053,0.0003816481322265356,0.0004521732482187282,0.0009706397164540762,0.0043633201023258825,0.006966418134856871,2021-09-01
165,GF,-0.002448548053644058,0.0003487106307667161,0.000413149194998797,0.000886870284933085,0.001930346738506536,0.003318264594733319,2021-09-01
166,KOF,-0.00013858636225202718,0.00014187243268196022,0.0003509284052594228,0.0006118653773423414,0.0013788238699134834,0.0021286795509116237,2021-09-01
167,MXF,-0.00017313708156954945,0.00015463730035835836,0.00024239712754682924,0.0006669175141803211,0.0008646766126337502,0.0011160111743588087,2021-09-01
168,MXE,-0.0001996822631227506,0.00024305035526883448,0.00038474658987178623,0.0006504282550133383,0.0002944861699617734,-0.00016506186436532949,2021-09-01
169,ENR,-1.4236170389887736e-05,0.00026219912597569354,0.00035035854173461094,0.0003509440133605563,0.004670216731123522,0.007201406384518119,2021-09-01
170,CP,-1.8649902528200294e-05,0.00013810997971878234,0.0006871137034138517,0.00045082370002745613,0.0005707161573279697,0.0013988763918396027,2021-09-01
171,FAF,-1.4350017207974911e-05,5.883199850814632e-05,0.00016505045786556065,0.00044180543238979533,-0.0006756287760868296,0.0008134704473509021,2021-09-01
172,SPB           ,-6.614490617890789e-06,4.0801599504867005e-05,0.0002768107610024241,0.000306404146868255,-0.0008016364783768213,-0.0016855259889272658,2021-09-01
173,RYN,-1.2684465441192321e-05,7.93197124503263e-05,0.0002996408792783299,0.0003945944202373828,-0.003360146652258188,-0.004651206508248411,2021-09-01
174,AFG,-4.666622146512316e-06,5.138879599112858e-05,0.0001962777891106333,0.0002241278754543656,-0.002865667984439621,-0.0027487979729459663,2021-09-01
175,CCK,-1.620423003165884e-05,0.00010216859105392449,0.0005636097368622818,0.00044559964500890634,0.0011706722036829628,0.0042214707228175755,2021-09-01
176,MYE,-7.0999750240371956e-06,8.805876415232782e-05,0.00035289552067943266,0.00027397643257646564,-0.00016211003165613166,0.002308707748472039,2021-09-01
177,GWW,-3.537899104720656e-05,8.792006382846318e-05,0.00045321303874422034,0.0005624098618493551,0.0019384539943180748,0.0029289893668724832,2021-09-01
178,PPG,-1.6739916835759727e-05,4.500466101340824e-05,0.00044171018242397805,0.00047929072746224816,-0.00010541997727426367,-0.0015252075678023353,2021-09-01
179,RPM,-3.786159131270916e-05,5.84121225512601e-05,0.0007446976539629468,0.0006220775377436235,-0.00127381682711571,-0.0020938656821820455,2021-09-01
180,GGG,-4.887077612044147e-05,3.686238618477061e-05,0.0003423312904351059,0.0007111155273389618,-0.0020182216122138536,-0.00346342296975615,2021-09-01
181,TTC,-4.17283944181886e-05,3.50778331543836e-05,0.0006562174149752199,0.0006766895581977592,0.002245056477951119,0.001198913417882483,2021-09-01
182,IEX,-4.6744212639906786e-05,6.010158397142832e-05,0.000331177667518278,0.0006879464082316814,0.0010713525204776022,0.0010785184161746814,2021-09-01
183,FTV,-2.2653071694125136e-05,7.898568762720411e-05,0.00042250976184729754,0.000526271216086243,0.0008559280197877806,0.001457886318557572,2021-09-01
184,HD,-9.431464393226873e-05,0.00010665060170223698,0.0005064450541752208,0.0006360779511811935,0.0008203524001861071,0.0022498773048430683,2021-09-01
185,MAS,-6.0349577161575044e-05,8.978291900343064e-05,0.0003788667306772736,0.0005354769148908736,0.0011150185447986406,0.0016643505600526915,2021-09-01
186,BLD,1.3424066747020016e-05,2.4956372311015926e-05,7.087241542319767e-05,0.00016350380840284056,-0.0033435511488484893,-0.0038971851946131243,2021-09-01
187,CCS,3.958658702636115e-07,8.482052257060395e-06,0.0001068862174067209,9.773967514996804e-05,-0.0030273545613311707,-0.0032593981771886628,2021-09-01
188,KBH,1.0207296433040943e-05,1.3355359721662493e-05,0.00015518050822602018,0.00015389536413427517,0.0011527753970257475,0.002191650535591124,2021-09-01
189,DLB,-6.925063574897796e-05,0.00037060746682083905,0.0005623033228587974,0.0005115139365772885,0.0010248494102073078,0.0032356295988544533,2021-09-01
190,MCD,-0.0006258685418021805,0.00022335997082568627,0.0004824936941725567,0.0009936400249186534,0.0029075181404594683,0.004748215180066136,2021-09-01
191,YUM,-0.0001207362599020283,0.00013731517351060047,0.00029662300316461216,0.0006108608087850428,0.0017265505835879918,-0.00039634982666057105,2021-09-01
192,MMC,-0.00043257603485359565,0.00013403477637356737,0.0005408013808542168,0.0009487845230096691,-0.000153275753992341,-0.0006891189612507161,2021-09-01
193,AJG,-0.0001503672122756703,6.145278168115934e-05,0.00024794870472927234,0.0007672682637508809,-9.436479171063212e-05,-0.0003723016372955595,2021-09-01
194,BRO,-0.00020337857695532503,6.596231704863633e-05,0.00026614370620370623,0.0008235720351518109,0.0008043739326224239,0.0010959957558806302,2021-09-01
195,RNR,-0.0001362267378250951,0.0001226685234770397,0.0013461381281324606,0.0004938207558934508,-0.00029456246054756314,-0.00010650060063486459,2021-09-01
196,IQV,-0.00012530607954909333,5.227120638724918e-05,0.0004343613624190915,0.0005680861735818623,-0.002364264060006678,-0.0014305563869105005,2021-09-01
197,TRU,-9.499563009771089e-05,4.586617172720927e-05,0.00033561837675628344,0.0004984759257386279,-0.0027073690875592136,-0.004967682830766712,2021-09-01
198,GIB,-0.00024463172749264613,0.00010317916221775194,0.0009333645836232833,0.000735009604822245,-0.0007515115891184598,-0.0031636946616028835,2021-09-01
199,MSI,-0.00023744267173099066,9.309677009876975e-05,0.00066022895582324,0.0006695667051046375,0.0006052989860249099,-0.000956428959372837,2021-09-01
200,APD,-5.422428905710262e-05,2.761072895004058e-05,0.0010255951783954289,0.0005404513961319366,-0.0011533781631816117,-0.0021129462182958077,2021-09-01
201,LIN,-9.827116243239771e-05,3.4666540906011926e-05,0.0012734612101130889,0.0006785616006596415,0.0014071167034824057,0.002284603249678916,2021-09-01
202,ACN,-0.00024627112676242456,2.4214260533769376e-05,0.0003276900243253881,0.0008040692136869293,0.0023606566023040487,0.00454339233870862,2021-09-01
203,BR,-0.0002648075438123887,2.483317479005208e-05,0.00033606575099330615,0.0008246211483080516,7.828729852267331e-05,-0.0009296477490316035,2021-09-01
204,RSG,-0.0005270667840697853,4.9582984519086915e-05,0.0005743140945273891,0.0009966051571148101,-0.0006957218536690836,-0.0026035812573392916,2021-09-01
205,KO,-0.0013113865161984328,0.00028222560939566234,0.0005999466756239059,0.0011471087262586487,-0.0012132224739846839,-0.0020806851871730545,2021-09-01
206,LMT,-0.0006670073922851098,0.00020233098520465527,0.0004301090967937804,0.0008223762514598248,0.000884047530716013,0.0016323467044971536,2021-09-01
207,STZ,4.814507505870206e-06,0.0001715548533038909,0.0003097641128911519,0.0006197235075114749,-0.0008778524440470111,-0.0015877092942808463,2021-09-01
208,TNET,1.0841288677908473e-06,7.701574139357021e-05,0.00022667664247617042,0.0002782111054909896,-0.001392746928757074,-0.0011078631915902113,2021-09-01
209,ZBH,2.797876532666776e-07,5.8849411683464376e-05,0.00021190142932744929,0.00042393644571618415,0.0022470268191328523,0.0019212986127624895,2021-09-01
210,BSX,1.1301969378334993e-06,3.844834782730435e-05,0.00031159484640979896,0.0004758292671755037,-0.002069494817754079,-0.003161133486883057,2021-09-01
211,MDT,4.4798796788475304e-06,5.401970150865832e-05,0.00034127798278404796,0.0006685373087384095,0.00041224899672910186,0.0001341345106565814,2021-09-01
212,EHC,3.147782124727873e-06,8.829880848167335e-05,0.0003566177460277783,0.0005367663873501173,0.0006049923461196574,-0.0002600726528703217,2021-09-01
213,HCA,6.289993533905071e-07,4.270342920162833e-05,0.000183358067147297,0.00025959314530022245,0.00048151005489188985,-0.0015883869884857381,2021-09-01
214,WNS,1.7997206430435116e-06,0.00011228942752555758,0.00033718526350728494,0.0004469396815544746,-0.0009876352491515262,-0.0011016699879966652,2021-09-01
215,MA,8.001533643850868e-07,5.849937292736875e-05,0.000259426209049476,0.00040551850545082036,0.00023066458801607623,0.00020889733855201277,2021-09-01
216,FI,1.5890779349242992e-06,4.1626691667339035e-05,0.0003576804253981345,0.0005040459052685997,-0.0019845897757556604,-0.004683739187056942,2021-09-01
217,FIS,4.559639347143007e-07,1.7823913599302352e-05,0.00013807162459317248,0.0003792400567890743,-0.001054995878487035,-0.0023177043748702194,2021-09-01
218,GPN,1.0704657721027338e-07,1.3160930831863887e-05,0.00010195017446588974,0.0002800256031463538,-0.0016419767633372485,-0.0037380466466644573,2021-09-01
219,QSR,2.5878287230117718e-06,0.00013408266620329123,0.0002673173824800716,0.0004876029763596126,0.0015546569919123205,0.002415780613565987,2021-09-01
220,TDY,2.0498679474225144e-06,0.00011765682205629458,0.00033977120009990745,0.00042786900237112336,-0.0016310592302808226,-0.002551764776874335,2021-09-01
221,NVGS,1.8832764282765159e-06,0.00017411395118404707,0.00034206138736607975,0.0001232113832404631,-0.0038562702579981265,-0.004408297178338249,2021-09-01
222,TNP,1.6833658360514238e-06,6.436002810331959e-05,0.0001785749982690744,0.0001279550361813945,0.0019326936038111596,0.00202403038379802,2021-09-01
223,ASC,7.937829535946971e-08,2.4265860801244513e-05,6.544181665473746e-05,7.925000627855095e-05,0.0031714763284170448,0.005052988902128527,2021-09-01
224,EURN,6.296034853816434e-06,2.490245027950833e-05,0.0002336562914651049,0.00022989006344903813,0.0007644819696297438,0.0018927481474722357,2021-09-01
225,INSW,-2.630371674735816e-07,1.0391752945235567e-05,0.00012233480793007434,9.59327583074327e-05,-0.0005035073174075846,0.0004700182575458508,2021-09-01
226,NAT,3.36275327345478e-08,5.983407341649246e-06,8.188473345613506e-05,9.916237006000652e-05,0.002179879642173134,0.0029720550135766337,2021-09-01
227,TK,1.479353155118845e-08,4.792299757984266e-06,7.158866566323857e-05,7.942227144253373e-05,0.00012320565264118763,0.00048819578632806605,2021-09-01
228,STNG,1.7804646891867032e-08,8.136359954599203e-06,0.00013878496394092917,7.858819710731761e-05,-0.003246432849980202,-0.0054737389419717,2021-09-01
229,LPG,1.6011216618695174e-06,7.19322039011934e-05,0.00012086075784879552,0.00013408597335466988,0.0023423043070548667,0.0028605771811325105,2021-09-01
230,SFL,3.3227503535123812e-06,9.931759333836329e-05,0.00019668108011860967,0.00018513399356302472,6.754426757549399e-06,0.00033912039921810166,2021-09-01
231,DAC,3.6035830521969255e-08,5.1758865883507285e-05,8.527240439482727e-05,5.8835497269150954e-05,-0.0020424663012053755,-0.0016212775010170165,2021-09-01
232,GNK,7.189637778297856e-08,4.433154777354884e-05,0.00011976787296096554,8.016935551325273e-05,0.001864327827015996,0.002201520057891293,2021-09-01
233,NMM,2.52745620255823e-08,2.9783725479749205e-05,0.00012038293000222512,5.386101312528103e-05,-0.0013592673269022162,-0.0021717829098975485,2021-09-01
234,CCJ,1.5142953203352307e-06,0.00016549643104763972,0.00012222383736960142,0.00011711321265224332,-0.0006467445693560616,-0.0017044836265545055,2021-09-01
235,CEQP,6.794822743101847e-07,1.701760185494263e-05,5.139346091980703e-05,0.00011984446602145351,-0.004053696002763084,-0.0041501478028396965,2021-09-01
236,MPLX,-1.4570048694315601e-05,3.846785588514292e-05,0.0001955748115324914,0.00027090536532949826,0.001859050304335692,-5.0641617103440144e-05,2021-09-01
237,MMP,-4.2644515204323465e-05,8.996475987593669e-05,0.00019899531672239916,0.0003844784771969177,0.0027374905829874417,0.004375611056288715,2021-09-01
238,HEP,5.508640840048224e-07,4.319802705516873e-05,9.664334932697756e-05,0.00018672443348142186,-3.494300604800483e-05,-0.0009343292425224727,2021-09-01
239,GEL,1.3019164208957077e-08,1.1167093964794568e-05,4.396136700562491e-05,7.930922330108686e-05,0.0005781529900237144,0.003267017347429384,2021-09-01
240,NS,2.99433941457838e-07,2.202972793644174e-05,6.709382321167154e-05,0.00015645615750002246,-0.0013490441999609091,-0.0021008642985021675,2021-09-01
241,AM,8.234668956744107e-07,6.448467843214091e-05,0.00010640013949794233,0.0001453312195704857,0.0025699846270571996,0.002298421886317775,2021-09-01
242,ENLC,1.5682463072604563e-07,3.473965989834085e-05,6.916328155985714e-05,7.82939027260983e-05,-0.00018827982426370727,0.000576230444418109,2021-09-01
243,BSM,-1.7215766668490185e-05,0.0001417614973628534,0.00019640674537599025,0.00024395238702720474,6.324608436246558e-05,-0.0016024581941595823,2021-09-01
244,TPL,-4.7113394210832894e-06,6.979058909839022e-05,8.865380104930959e-05,0.00012010017613603747,0.0002126555752445041,0.00018889712328006676,2021-09-01
245,KRP,-1.0484973845246609e-05,0.0001433206593436549,0.0001401396519316076,0.00017573692601283319,0.0021871522465086845,0.004443502834484624,2021-09-01
246,REX,6.584554166314176e-07,6.269162781180157e-05,9.370788675634708e-05,8.433801708068484e-05,-0.0004629220067514014,0.000271999247420345,2021-09-01
247,TTI,6.02008985531166e-08,1.6385270890727628e-05,2.822110675413406e-05,3.428842676565964e-05,-0.0009333409245232416,-0.00027768650607774083,2021-09-01
248,SOI,8.774449025167042e-07,4.284173664529239e-06,6.618707725773243e-05,0.00010329356156203845,0.0024319993229404892,0.0026275568354451172,2021-09-01
249,NBR,9.022901503112862e-09,2.8693514576212093e-07,1.3246346547039395e-05,3.5132451670134374e-05,-0.002116032732529673,-0.0031100849967628055,2021-09-01
250,RES,7.122524204033533e-08,4.45858977924329e-07,3.517241719820299e-05,5.4591147947446225e-05,0.0012938140274621045,0.0005610104606542754,2021-09-01
251,RIG,6.43893482227141e-09,4.647292599937447e-07,1.402479837762176e-05,3.307834472648367e-05,0.0019890061669201424,0.0028627596667373635,2021-09-01
252,CLB,3.4008187758922676e-07,1.9458326056657883e-06,3.13071148628636e-05,7.917483893088376e-05,-0.0011584371277070008,-0.0012344385140189568,2021-09-01
253,PDS,2.6873474283786127e-07,4.7614640458577725e-06,3.412762467882371e-05,6.821520039118558e-05,0.00230599251350076,0.0026762825791715747,2021-09-01
254,ESTE,-5.7495991921260014e-08,4.906749215253124e-06,1.79630395274154e-05,4.236692734003194e-05,-0.004867484834564246,-0.006323278923768224,2021-09-01
255,SLCA,-1.1408217845243446e-07,6.040237013584135e-06,2.371747834480495e-05,3.2493137173772594e-05,-8.434658456307867e-05,-0.001239446490406851,2021-09-01
256,NR,9.599894215773659e-09,1.1884731431244077e-05,3.676398112304635e-05,4.040630897081535e-05,-0.0019282361580286826,-0.0029718025975793753,2021-09-01
257,EC,-1.3088841424652516e-05,8.425489802637926e-05,0.00011543200833339896,0.0001948067249858637,-0.004010906669469251,-0.004904351953442807,2021-09-01
258,GPRK,-3.855522107560182e-06,5.421168449504246e-05,0.0002349818393376424,0.00012534346322678685,-0.0008849346860949713,-0.0012255501950558414,2021-09-01
259,AR,1.6069708409476055e-07,2.7080196251689875e-05,2.9423767423759332e-05,5.881300588496046e-05,-0.00017769823855674226,-0.000736727104361316,2021-09-01
260,BTE,1.780714739063265e-06,3.9416658706587654e-06,2.0785426178534705e-05,5.678085700180405e-05,0.0010360024932524249,0.0024463549837201626,2021-09-01
261,KOS,2.3335444758624076e-07,1.309911932895567e-06,1.4212791211796746e-05,3.304495612213438e-05,-0.003948830974726227,-0.003368323059571693,2021-09-01
262,CPE,8.324929458740048e-09,6.595353273291049e-07,1.0952697001441836e-05,2.9049149264993668e-05,0.002184271303785109,0.0018442967002326126,2021-09-01
263,WTI,9.056465868562704e-07,1.0978667187236606e-06,3.405616883731075e-05,4.83553994210206e-05,-0.0018418778311572945,-0.0031698960737565024,2021-09-01
264,CIVI,6.228840355271342e-06,9.384797536363716e-06,5.399704792194124e-05,7.87684069745796e-05,-0.00042515263281954577,-0.0004383192230864895,2021-09-01
265,SBR,-6.67933899763707e-05,7.585875633050577e-05,0.0002734989176451352,0.00037469572939942256,-0.001425179054708251,-0.0027412828057294908,2021-09-01
266,DK,1.2673718208374902e-08,7.1305551044357135e-06,2.985147795070662e-05,6.940514107061582e-05,-0.003366475748227364,-0.005306174153846999,2021-09-01
267,PBF,-1.8035368191672416e-09,3.4925418073256805e-06,3.347686695039132e-05,3.399459835625871e-05,0.0007553422198686093,0.0020937168010667544,2021-09-01
268,CVI,3.2074894413745625e-09,8.772155463660335e-06,4.822211075714331e-05,4.8990428995866124e-05,0.0005450125346899503,0.0004731740112191329,2021-09-01
269,NGS,-2.7707681727427013e-06,0.00016343492055569011,8.40423911937476e-05,0.0001244072766745818,0.0016367850111573905,0.0022287903532407366,2021-09-01
270,TISI,-4.403509569071969e-07,5.311865456714256e-05,6.093214834368588e-05,4.043411978815299e-05,0.0015897903325964463,0.002566523272937158,2021-09-01
271,FET,-7.051045868049819e-07,8.873093150525376e-05,4.7121978478505426e-05,5.2033081554275555e-05,-0.0036452643115067085,-0.003987527948474297,2021-09-01
272,CPA,-2.150524117200602e-06,3.056585585863923e-05,6.166924965451572e-05,0.00012845404838537414,-0.002961744849237593,-0.001999786645143703,2021-09-01
273,ESRT,-4.666817457073125e-06,4.122062032669482e-05,6.253897599241218e-05,0.00017323105828963108,-0.002712129708217499,-0.006082076675848101,2021-09-01
274,CNK,8.002333909675063e-08,7.3819357545899105e-06,3.4371006940726694e-05,5.814255453046971e-05,0.001654667897673529,0.002277084734401943,2021-09-01
275,MCS,-1.0558588297878814e-06,1.3613818079349736e-05,0.0001301263868466274,0.00010722690990020132,-0.0030127125649654918,-0.005181206091507457,2021-09-01
276,IMAX,-1.168705461640269e-06,2.5568721433201837e-05,6.822353955144142e-05,0.00011540804944911726,0.001418628396044461,0.0018583678998411453,2021-09-01
277,IGT,-5.262924779039146e-07,1.9590222260873897e-05,9.29291249576548e-05,7.832350754579004e-05,8.267526729914842e-05,0.0003417144969090026,2021-09-01
278,LVS,-5.620145280628895e-06,4.54586493611181e-05,0.0001628642504485821,0.00018174785455946774,0.002555761996390303,0.0033890635550069873,2021-09-01
279,FTAI,-4.9622924139080915e-06,6.49308216717023e-05,0.0001215693491189677,0.00017077244828535336,-0.001424043237434289,-0.003658957600510977,2021-09-01
280,CRT,-7.885289865108317e-06,0.0001614155960382671,0.00014204333250679115,0.00016530817654480002,0.003922251680276209,0.004924643421306906,2021-09-01
281,KNOP,-3.736521638523576e-05,0.0003597178197462326,0.000383942039633038,0.0003685479424886286,0.0009827763731036746,-0.0004777796777638417,2021-09-01
282,BHR,-2.996886338428138e-07,1.4422848081123008e-05,3.0959962885675984e-05,5.531581711977648e-05,-0.005545923104949139,-0.004946484185810264,2021-09-01
283,FLR,-5.699253565230615e-07,1.9424129246540864e-05,5.270909748787103e-05,7.449718495744532e-05,0.0027352456312221473,0.0014680081467276188,2021-09-01
284,CORR,-4.558525248846771e-07,2.5222155667600135e-05,3.5514196699870414e-05,6.345281540097392e-05,-0.00012597278589503594,0.0006831808357148131,2021-09-01
285,MAC,-3.293934331755045e-07,1.6769890251852886e-05,2.4577903462994527e-05,7.453569250907275e-05,-0.0024575181994932853,-0.0030913999486463224,2021-09-01
286,SKT,-8.286316825901669e-07,2.0194061087921868e-05,2.9596358502699172e-05,8.975481086362334e-05,0.002970630342929018,0.00477213255726872,2021-09-01
287,ANF,-9.507254869335165e-07,3.397074714257939e-05,2.297793461023791e-05,8.458058605079899e-05,0.0011975500236186866,0.0008708923539911391,2021-09-01
288,AZUL,9.112754565122898e-08,1.7263122786319703e-05,4.1117161150811296e-05,7.471340193692922e-05,-0.002381547026015711,-0.0018459775350316188,2021-09-01
289,ERJ,7.124692997038881e-08,1.5824549286753526e-05,2.459681763158491e-05,6.848737195270896e-05,-0.0016327736761332645,-0.002521229527471821,2021-09-01
290,BBD,-3.730515919646507e-06,3.953069868438807e-05,6.251224828533405e-05,0.0001740590861811377,9.110626596476309e-05,-0.001972008012098702,2021-09-01
291,PBR,-8.01381632096314e-07,2.575325986925085e-05,6.724987920452969e-05,0.00011339513411629842,-0.0010186232163513984,-0.0009968029193596765,2021-09-01
292,YPF,-8.423884323694587e-07,5.4549518911607696e-05,0.00013819368819594012,8.55421096586123e-05,-0.004558069145391251,-0.005877563369992135,2021-09-01
293,EVRI,-1.1115706023722512e-06,8.224493105078278e-05,6.252684834730366e-05,8.403711312875575e-05,-0.0015252900859805696,-0.0029755333843173386,2021-09-01
294,BUD,-3.351544202972551e-05,0.00039174242835629693,0.0002793978796704762,0.00038521374404137574,0.0005944719141245927,0.001678182581588904,2021-09-01
295,TV,-3.235574016073304e-06,0.00013147138209571328,8.033977732553863e-05,0.00012928031192302152,-0.0015121043126960457,-0.0011798310192409167,2021-09-01
296,CLF,-3.6854100946078957e-07,5.765699282184253e-05,3.795164422683725e-05,6.202118779176674e-05,-0.0022474409814781564,-0.0033874602888049857,2021-09-01
297,CEIX,-2.4292908251495937e-07,4.6933522601409914e-05,6.166231347242053e-05,5.048603259600506e-05,0.0013901936747049606,0.002848821779094472,2021-09-01
298,HBM,-1.210934809059335e-08,6.256764616584273e-05,2.990962606360442e-05,7.058135368138672e-05,-0.003180925956983008,-0.0037538605498166674,2021-09-01
299,GGB,-1.503251932657127e-06,6.790102786865266e-05,0.00020915608236247985,0.00013259592814996463,-0.00020555969400216337,1.2478878283315107e-05,2021-09-01
300,VALE,-5.070060508897973e-06,9.11045117450161e-05,0.00021625009905060436,0.00017790728171077782,0.0012361009605629857,0.0018530179625660128,2021-09-01
301,CSV,-3.7898092319475836e-06,0.00017634765078672874,0.00037290316444595734,0.00033561144447201235,0.00016477843581412402,-0.00034297605804119256,2021-09-01
302,MOV,-5.566974238372027e-07,5.759980787502827e-05,9.283819264838196e-05,0.0001096195760817213,-0.0003225989736114918,0.0006517118581699855,2021-09-01
303,GIL,-1.2548425659076157e-06,4.364378431748321e-05,0.0001789332988100239,0.0002347901482608283,-0.0032039484558723276,-0.003998984173970708,2021-09-01
304,UA,-6.145307009280068e-07,3.0150924403272287e-05,0.00019446929666549904,0.00016220270816455075,-0.0036173674553115994,-0.0032367637816906854,2021-09-01
305,BDC,-4.684435896031101e-07,1.9114820117058917e-05,0.0001210837722083339,0.00016086168310306193,-0.0012122846885509447,-0.0015472900087018322,2021-09-01
306,KAR,-3.3313395682097495e-07,1.6508633686079086e-05,0.00010270714665900393,0.00013892919651933348,-0.0012520419874430125,-0.0012297672855362508,2021-09-01
307,UIS,-4.5964672278797345e-07,2.6642512464683414e-05,0.0001494355320276357,0.0001431194711622148,0.00250161719588805,0.002994495363658328,2021-09-01
308,WMS,-6.166005378332772e-07,5.0055664950264035e-05,0.0001183871969212537,0.00017524303614831072,0.0016274341453141954,0.0024005793796152957,2021-09-01
309,CPS,-1.1559564139663093e-08,5.490829628060412e-06,3.385652500124452e-05,4.4585357933451725e-05,-0.0018084036378072247,-0.0030422112529267563,2021-09-01
310,MOD,-1.8509550236863705e-07,1.2189794647332856e-05,6.29954328968477e-05,9.898073593636363e-05,0.0014380426111106845,0.0016937861420640633,2021-09-01
311,DXC,-2.5069518073515464e-07,2.2062869174668074e-05,0.000107220740955745,0.00011406194829543784,-0.00029191271209069096,0.00014959933197120293,2021-09-01
312,PKX,-1.7021015992174452e-06,0.00012239636664595224,0.00013382016066215336,0.00024327296382921753,-0.0013958146760674223,-0.0017806507910737986,2021-09-01
313,TX,-7.712330476876991e-07,2.3697781680440757e-05,8.663550948956314e-05,0.00017485750363263453,-0.0016948337208714261,-0.0031017313302194897,2021-09-01
314,X,-9.919518976717881e-09,8.628374653562137e-06,4.6426981162340765e-05,6.366570815251563e-05,-0.002893783896568184,-0.004250301727245818,2021-09-01
315,RYI,-4.659553744305677e-08,7.83175942522317e-06,7.701353581615024e-05,5.855390136104431e-05,0.000350974677273842,0.001609041340856433,2021-09-01
316,TMST,-2.7279516529566443e-08,6.156152048194833e-06,2.8164130820620877e-05,4.602627586244061e-05,0.0036062391630064562,0.00478217955678562,2021-09-01
317,DAR,-6.667087064162111e-07,5.0217960858520425e-05,0.00013571935535690297,0.00015468980843341443,-0.0008891579984643058,0.0002350016590105734,2021-09-01
318,REVG,-1.3913592421141855e-07,4.2549467516592194e-05,5.7507949358672543e-05,8.168137973577462e-05,0.002836215328636839,0.0030274141267239833,2021-09-01
319,TPC,-1.9283096019974284e-07,5.118475090640922e-05,6.917901056962033e-05,9.825836419309177e-05,0.004776430918565263,0.004448087416115443,2021-09-01
320,HBI,1.2400058386893931e-06,7.336953888742296e-05,9.256196620683611e-05,0.00015003651255298474,0.0037544482904546942,0.0043313983230002856,2021-09-01
321,SBH,4.940199469825702e-07,4.527992591233813e-05,6.88941414779289e-05,9.25948598773231e-05,-0.001547043270626896,-0.0013707488118406333,2021-09-01
322,AEO,6.209824265448442e-07,2.2831461594071223e-05,3.34844953052328e-05,0.0001232546912754268,0.0008026953740640501,0.0005742339824530983,2021-09-01
323,BKE,4.826895190227544e-07,2.1122605626440543e-05,5.483742597899297e-05,0.00011402950374826545,0.0006636838869483459,0.0013975608775285938,2021-09-01
324,SIG,1.3651736969809448e-07,2.1311917095975255e-05,2.3601105014520083e-05,6.808887798363019e-05,-0.00023036558809067718,-0.0008506722682533518,2021-09-01
325,HVT,9.714905537076207e-07,6.0660136703601996e-05,0.0001891429437958674,0.00012459208284264784,0.002086313215079133,0.0002017698770541473,2021-09-01
326,HZO,-2.4782032912376525e-10,4.111837755241448e-06,5.3547603359062345e-05,9.009108304557163e-05,-0.0011942246070466211,-0.0020739741060033273,2021-09-01
327,CWH,1.3459460809117401e-10,2.3289319993189977e-06,3.933630449608674e-05,8.547396500053643e-05,-0.00413773891744024,-0.005101997850002235,2021-09-01
328,THO,-4.826439331568082e-09,4.766923551557475e-06,0.00012667927351264213,0.00017495051677129172,-0.0007116062866965558,-0.00041963936817205434,2021-09-01
329,PII,-1.1222380714037842e-08,1.754110645342767e-05,7.00178305140148e-05,0.00022946162887883684,-0.006853746756951074,-0.008010233575234742,2021-09-01
330,BBY,-1.4664494846538958e-08,2.9826632885750045e-05,0.00021740918593159223,0.00023749295359153935,0.000867733151165095,0.001438568254248348,2021-09-01
331,DKS,-3.493865688255575e-09,2.5170755135382736e-05,7.713259097666865e-05,0.00012502656791511072,-0.001736992173386759,-0.0037792567287021355,2021-09-01
332,BZH,8.437854944943955e-07,1.2359385861143882e-05,4.3049858270880284e-05,9.931671915597691e-05,-0.0014711309030087064,-0.0007860793882548289,2021-09-01
333,HOV,-2.5229191710785e-08,5.1485758904171406e-06,3.890176420733435e-05,4.1372578824435834e-05,-0.0006383905165267699,-0.0012672417674861184,2021-09-01
334,TPX,-7.651342493576267e-07,1.2512305654811115e-05,9.308368594028557e-05,0.00014310733609030382,-0.000560587956691407,-0.00036755372570293916,2021-09-01
335,WHR,-4.460298876895659e-06,2.7253500149127393e-05,0.00030443549156475584,0.00031170720353835505,-0.0010415882570742956,-0.0009355905548626316,2021-09-01
336,HPQ,-4.4076238839480445e-06,3.852694563873176e-05,0.00015104917910833916,0.0002985841380636148,0.003490303399015763,0.005043716657931422,2021-09-01
337,LII,-9.780818656506742e-06,5.484792206743994e-05,0.00035115427564311945,0.0004079394712164622,-0.0032833002631586098,-0.0054719404276003065,2021-09-01
338,AOS,-1.2974847816355101e-05,6.226892800916839e-05,0.00024038017019608086,0.00046313429219875226,0.001177811882444076,5.4209234407693636e-05,2021-09-01
339,FDX,-1.0211978697537278e-05,7.602609716320776e-05,0.0004148197550267952,0.00036514761819277526,0.0030395826881469356,0.002760419980653756,2021-09-01
340,BMI,4.115501260107726e-07,9.300109366549759e-05,0.0005056601456234756,0.00031075792209023023,-0.0026718090267247438,-0.003145340797653361,2021-09-01
341,CRI,2.417139022021838e-06,5.106411456010415e-05,0.0007508600793916216,0.0002442576914499214,-0.000972349027927761,-0.0027334518527642572,2021-09-01
342,HOG,8.802761150914711e-07,2.967244266368275e-05,0.0001589600763767865,0.00014193377104738584,0.001687384473229586,0.0019541509917824365,2021-09-01
343,AAP,-1.078927747542013e-05,6.048277885869822e-05,0.00037709016597700233,0.0004289920431801278,-0.0010631771948517166,-0.0002312563541059075,2021-09-01
344,KMX,-4.0063749843074494e-06,3.614198307958562e-05,0.00018106573863250233,0.0002563477316760764,-0.0027294710662533477,-0.00447129632467026,2021-09-01
345,DECK,-3.66031300748837e-06,4.9160502779024154e-05,0.00016239736808112975,0.00024038923621075092,0.0023580388272857198,0.00131885706803037,2021-09-01
346,FMC,1.614923327480716e-05,0.00016405618764025274,0.0003665113048594532,0.0003467144134207377,0.0011649654284953072,0.0025502062882050186,2021-09-01
347,IFF,2.3931457639749503e-05,0.00020916927080906489,0.0004919674589677867,0.00044205587169462193,0.0009212380123793966,0.000370510085208857,2021-09-01
348,NMR,9.446236931532496e-06,0.0001076376882340603,0.000631940642689045,0.0003655626425240322,0.001103476382258982,-0.0004050409671560425,2021-09-01
349,MFG,3.7477084803758654e-05,0.00011243120889562082,0.0003266058411387481,0.000619350164634212,0.004571138876948085,0.0038235582547240152,2021-09-01
350,IX,1.3211037976592548e-05,7.797542995402559e-05,0.00016258760628988365,0.0004295435035683429,0.0017031029503916221,0.0005220887295973971,2021-09-01
351,KB,1.1556016505248525e-05,0.00013495627710440744,0.00015853307509095554,0.00028819880989161,0.0008352160870443231,0.0007921293870607565,2021-09-01
352,IBM,4.4206288754429496e-05,0.00026232155644498133,0.0005743108812837478,0.0005804171418076904,-0.0009979469918728898,-0.0023217218200065398,2021-09-01
353,JNPR,2.9835158614295138e-05,0.00021106434183398338,0.0004214342259929955,0.0004670045561066803,0.0017646640672851232,0.0031883901803902684,2021-09-01
354,HIG,6.782117239744921e-06,7.990889541151225e-05,0.00010651282228045483,0.00026338246336182265,-0.0031222115254359102,-0.005235670053962394,2021-09-01
355,HSBC,1.6284810276719346e-05,0.0001252401845800433,0.00013719298596452073,0.00041279594914571854,0.006506403585539755,0.007618545967338482,2021-09-01
356,TEF,1.1890171432371525e-05,0.00014781991010118304,0.0003132537093493298,0.00033288632070427977,-0.00025167821623406,-0.001291062201560513,2021-09-01
357,VPG,-1.5752691491885122e-05,0.00017803324627745204,0.000322929714359617,0.0002731488237383211,0.0013481214107369747,0.0035039931487379694,2021-09-01
358,T,0.00021571784059922267,0.00026250211344367537,0.0006212958323071128,0.0008235287585053783,-0.0006237352302727018,-0.0022376982132263513,2021-09-01
359,MCK,9.51991877441609e-05,0.00015931793503518163,0.00022272845606429527,0.0004998165520496492,-0.0005956079068757477,-0.0015116416345719497,2021-09-01
360,BERY,5.6452782999923214e-05,8.968388760256733e-05,0.00037239931267739253,0.0004832028722553263,0.005422368034314542,0.006968914537437453,2021-09-01
361,SEE,4.417427150638288e-05,8.138737789030637e-05,0.00024180234867365175,0.0004385025651006668,-0.0030247729237178568,-0.004389041759324241,2021-09-01
362,MMM,0.00018884715080362137,0.00023757006181325565,0.00044799034559199984,0.0007987234180647072,0.0007724412644122315,-0.000390661041825602,2021-09-01
363,HRB,2.2629564325036472e-05,9.669649534742848e-05,0.00037488213940909537,0.0003050360443552903,-2.85628960228868e-05,0.0001489160039372976,2021-09-01
364,SCI,5.0146596591941814e-05,0.00015635233266497343,0.00042456777098636865,0.0004932246707648054,-0.0009511247704376695,-0.002460048106005207,2021-09-01
365,GPK,1.2535030999758102e-05,0.00020606854905306412,0.00026392718283638206,0.0004722541588421761,-0.00017721842459785905,-0.0013059363994942378,2021-09-01
366,SNDR,2.7063238586918985e-05,4.087879954353164e-05,0.0003277154263211124,0.000385446289787033,1.4729434358601784e-05,-0.0008063452447763342,2021-09-01
367,CMP,9.023027886788478e-06,1.6643373843936686e-05,0.0001187705872353615,0.00021969979812549255,0.0038926668925748868,0.006044333290012622,2021-09-01
368,MMS,3.901526012347768e-05,3.658264605642352e-05,0.0006196915167217648,0.0004829068930889036,0.000976369570330214,0.0014318940101868212,2021-09-01
369,POST,3.831156015803468e-05,5.002226303920653e-05,0.00044024942021006085,0.000467841258736664,-0.0016722074502002584,-0.0026580676788671817,2021-09-01
370,BWXT,3.285433034479184e-05,3.286172808811509e-05,0.00023706992926994042,0.00045415225305131795,0.005523032831316231,0.007238266200528511,2021-09-01
371,WU,4.149931958219909e-05,3.711126923926177e-05,0.000287666387896192,0.000512881321804265,-0.0012246824088048979,-0.004356284624619938,2021-09-01
372,TAP,5.427836182267373e-06,4.821639851729393e-05,0.0003340916351127177,0.0003043678817767419,-0.0019852498950407743,-0.0020598143476151932,2021-09-01
373,MO,7.528178803108032e-05,7.322648642281596e-05,0.0005165060423472288,0.0006351709142356649,-0.001523243370706363,-0.002066041691687032,2021-09-01
374,TDS,8.698429022384845e-06,2.4654043772787866e-05,0.00042185403411359096,0.00021385064732381526,0.0012073856399775625,0.0008287993780609675,2021-09-01
375,CNDT,-2.5250491344018146e-05,1.2039479983659377e-05,8.367299396780264e-05,7.599968336510149e-05,-0.0021436231688768625,-0.0021383863762878814,2021-09-01
376,AMN,2.271362973114448e-05,0.00011688319869284928,0.0007240690091206605,0.00027525073036546705,0.005195466458622494,0.00562926475149415,2021-09-01
377,FDP,2.9210263323376e-06,2.8640124129386166e-05,0.0002722985212437189,0.0001964607212596177,0.0004649273303366406,-0.0014687218014401387,2021-09-01
378,SMP,1.023458574466906e-05,5.7070649786910165e-05,0.00034403181645967283,0.0003914836740664546,0.0010862725004038478,0.0015657341106616988,2021-09-01
379,EIG,1.0970816333394638e-05,2.1236529703147777e-05,0.0002733096879321971,0.0003879409927870603,-0.00035146651264068423,0.000164257712602097,2021-09-01
380,UVE,5.151817132706324e-06,1.5188069376926688e-05,0.00013242959633096406,0.0002774499786436545,-0.0019159978843442057,-0.0028913009979029645,2021-09-01
381,NEU,2.0703433692223876e-05,4.223219620771271e-05,0.0006437527867355073,0.0005009898655553413,0.0011028748213647642,-0.0020528305779845372,2021-09-01
382,TG,-1.5989825512088374e-06,1.359785036611719e-05,0.0001423050892812493,0.00016193304376169125,-0.003404437050006447,-0.002255592481379584,2021-09-01
383,NFG,2.6068865888711073e-05,2.1021437127369974e-05,0.0004220536073663522,0.0005770984322318625,0.00023479962611400377,0.0007639839580501499,2021-09-01
384,UVV,1.3428173594342915e-05,1.5619262144886233e-05,0.00038737923375801943,0.00042879331426376466,-0.00027573921972266736,-0.0007572347558326163,2021-09-01
385,VGR,1.4841698202229752e-06,1.3056939575679961e-05,0.00016625961973867377,0.0002328625989020415,-0.0013624838766037992,-0.0019295453783988166,2021-09-01
386,AGX,1.018958061453341e-05,3.438000317915076e-05,0.00020579047556824794,0.0003806676972043478,-0.002566100791166194,-0.0040524686881598425,2021-09-01
387,UNF,1.0950675301442002e-05,3.5851607145954924e-05,0.00036643805631526367,0.0003969618229006433,0.0025671405787578345,0.0032509890886511933,2021-09-01
388,MCY,1.581223178120221e-05,4.316407240239553e-05,0.00044269810479269947,0.0004999795951386871,-0.00019382803711001482,-0.0013207875992083107,2021-09-01
389,NPK,4.6011905509577096e-06,2.408501549446036e-05,0.00038151091075573455,0.0002789823949781204,0.004458621795728766,0.003774131513368237,2021-09-01
390,PRA,8.292956860115144e-07,1.8148805729669345e-05,0.00013591400210614374,0.00019291893130330768,0.0005771449891379173,0.0004380597983729255,2021-09-01
391,VRTV,8.506241994575691e-10,4.293378807795157e-06,6.651764171211343e-05,4.563793693190855e-05,0.0006984998844651116,0.0014692479762229947,2021-09-01
392,AVD,3.1293298535285986e-06,2.522794130322707e-05,0.0003593021949832044,0.00029130910029608,-0.003833922667542309,-0.003278098637952428,2021-09-01
393,KMPR,4.400931472472222e-06,2.9875403044222604e-05,0.00022318992992582522,0.0003449737208910502,-0.0011746546681356447,-0.0015338070367497906,2021-09-01
394,AC,5.605691560915412e-06,0.0001258435038318361,0.00018624407247998484,0.0002147400863842859,-0.0019658095865323854,-0.0033576697499875232,2021-09-01
395,CIEN,1.0738331062269658e-05,0.00019516675346860346,0.00035960921135209234,0.0003330336824949882,0.0003170551481151394,0.0010647128735733235,2021-09-01
396,ATGE,3.93991021160392e-06,0.0001141575611269695,0.00023473998031724218,0.00020278397990631375,-0.0010312738858381369,-0.0024994680306764253,2021-09-01
397,MXL,1.056864362119069e-06,3.919098090137142e-05,0.00011877487650651122,0.00010187780533892207,-0.002429074396303441,-0.0014398211448403667,2021-09-01
398,SKY,1.4683030030014035e-06,4.6700492896942835e-05,8.521715306743178e-05,0.00012139894473577634,-0.0005913704630906222,0.00036990008244119606,2021-09-01
399,CODI,1.1420269731292727e-05,0.00010168378072173572,0.00026704278022274345,0.0003476484202042197,0.0030099547715700054,0.002046111939253401,2021-09-01
400,BBU,5.1422150799582745e-06,4.839241013892954e-05,0.00028660247480877997,0.00022921626906609644,-0.001231315968902216,-0.0014004120090115053,2021-09-01
401,FC,3.4257492711384066e-06,3.778229961989741e-05,0.00023094709395147966,0.00017896024874039984,-0.002341214047955368,-0.002607673678125092,2021-09-01
402,JLL,1.6749976939262477e-06,3.14093898780461e-05,0.0005213352313672754,0.00022384718842684414,-0.000447036251104343,-0.0010390401449331074,2021-09-01
403,KAI,2.293337656515957e-06,3.63003989217387e-05,0.0003335606334633889,0.0002587042368207102,0.0025639449060721998,0.0018202057576863575,2021-09-01
404,RM,5.173231504940563e-07,2.8750014245590924e-05,9.858898865923614e-05,0.00013335867488906242,-0.0016327485998499937,-0.0017920828628960243,2021-09-01
405,BXC,-1.6278070903827722e-07,1.6261078255162806e-05,6.322430117288077e-05,5.104671844462963e-05,0.0016433945603894302,0.0009648187404320528,2021-09-01
406,MSB,4.3485726326265105e-06,3.134830741580099e-05,0.00015041921309599503,0.00019582256355167647,0.0031042604821312496,0.0042620059366133955,2021-09-01
407,PJT,1.1718031240783286e-05,5.6172070457657134e-05,0.00011225068348518572,0.0003508884448249168,-0.001731574365372744,-0.0013121068413496472,2021-09-01
408,TRC,1.6749578929248618e-05,6.576568907419631e-05,0.00034289006833455025,0.0004357260116571048,0.0031993729633876247,0.00339527773978074,2021-09-01
409,CLS,1.9924820259790772e-06,1.612095735298817e-05,0.00013306134414306956,0.0001599543458410657,-0.0022118696377272998,-0.002023131541285392,2021-09-01
410,ITGR,4.503756535810351e-06,2.38923843480855e-05,0.00018903959344555927,0.00023706350840714468,-0.003315967704700983,-0.005018707525128092,2021-09-01
411,FPI,1.2760450441803419e-06,4.384608734830328e-05,0.00021825318492969562,0.00019823807134790173,0.0016787711894876392,0.0021361193705231943,2021-09-01
412,GHL,9.447068071022143e-08,1.2387848935196871e-05,0.0001277798686450399,8.767026109423265e-05,-0.0010444983453361334,-0.000911606112877983,2021-09-01
413,UFI,1.3364434128763303e-07,1.5259863669567878e-05,0.00011999407746417642,0.00010799584650829053,-0.001871462132705009,-0.003793833505191566,2021-09-01
414,QUAD,3.692193962515771e-08,1.0369473141477456e-05,5.324467979519976e-05,5.260285471313289e-05,0.0029628090508687583,0.003018534517440697,2021-09-01
415,HRTG,7.665213679898323e-07,1.9851732355574537e-05,0.0002055483648564659,0.00020409830349584908,0.00011470426494163081,0.0003698401516882134,2021-09-01
416,WD,5.105734413609776e-07,1.56950813349534e-05,0.0002034533460328119,0.00016136322091778714,-0.0005473672594645348,-0.0013404334889211631,2021-09-01
417,BRT,4.865885132567525e-07,2.1411280969736716e-05,0.00012414573464180568,0.00015540184116123477,7.302202457562634e-05,0.0011660430239766443,2021-09-01
418,GNW,2.1097515973678093e-07,1.9105259426104226e-05,8.315721405407656e-05,9.588056732043386e-05,-0.002199750468300482,-0.0008290727029923076,2021-09-01
419,FPH,9.298567694094507e-06,9.77390077422807e-05,0.00013010278090552007,0.00017071641455839454,0.0009261746386382579,0.0005847433765886956,2021-09-01
420,WLKP,5.346992947465496e-05,0.0003031018445132764,0.0005300201898690028,0.0005294146250981272,0.006152888038628734,0.007816441705908493,2021-09-01
421,ALB,2.9880003490151732e-06,2.8899936706375614e-05,9.891765061497256e-05,0.0001392804901232681,0.0019038643462776555,0.0035914497513264447,2021-09-01
422,SQM,3.0522144584288074e-06,2.9068487632393998e-05,7.198955522581417e-05,0.00014009280524440788,-0.001664768372040465,-0.001533032266689483,2021-09-01
423,ICL,1.940566285289137e-05,0.00011629596137046521,0.0006797835962265259,0.00032463258975443316,0.003259205404452692,0.003122916693502303,2021-09-01
424,CLW,3.810449355447862e-06,3.6104903400748874e-05,0.0001159710995481243,0.00014668964324013767,0.0012448362815986019,0.002043929946169051,2021-09-01
425,IPI,4.607411771117782e-07,1.1356254200928777e-05,5.3596724020268896e-05,4.613902047565111e-05,-0.0031961067804598823,-0.004159860031725306,2021-09-01
426,RYAM,4.609440983808805e-07,7.67201092983655e-06,4.635705639425333e-05,4.614432849369211e-05,-0.0014330110011674848,-0.0018064393995608193,2021-09-01
427,TGH,1.0490291311856522e-06,1.2633974509756227e-05,9.576874798996345e-05,7.598871733770386e-05,0.0028973366085589046,0.0023487451450863203,2021-09-01
428,HCC,1.0734891160972333e-06,1.693766649912024e-05,7.005310730440093e-05,7.422071768233625e-05,0.0009034851011704492,0.0010693611383652065,2021-09-01
429,TBI,2.672982937906035e-06,3.166676666300537e-05,0.0002909171714915992,0.0001517387415101785,0.0025161741349242653,0.002060546387053576,2021-09-01
430,EVC,9.724475392270668e-07,1.3181448795097395e-05,8.772367187041648e-05,8.66662281386859e-05,0.0052550006588554955,0.005530492630997443,2021-09-01
431,DFIN,1.1767573231520303e-06,1.1573682597121876e-05,9.851883738068502e-05,0.00011243398767535583,-0.0006531043938856314,-0.0005607419016464497,2021-09-01
432,EVH,2.2385389199562008e-06,1.6062571957776652e-05,0.0001575919063822875,0.00015604186501401752,-0.00026800176238877827,0.0013987371983542724,2021-09-01
433,PRO,-1.4875668175108095e-06,2.2580761860125697e-05,9.500888853497536e-05,0.00015224020380073,0.0016033614241695723,0.0010428213535449882,2021-09-01
434,SMHI,-2.9227289581073386e-07,8.257761146223529e-06,3.7610204957059355e-05,5.5674084321255106e-05,-2.8195241015666795e-05,-2.960860030625716e-05,2021-09-01
435,ELF,9.339830619929601e-06,1.9468012302339032e-05,0.00021553551447605468,0.00023588730520066617,0.0018586253380471483,0.0007480104424343089,2021-09-01
436,MTN,1.9205704225718948e-05,2.8778802616808103e-05,0.0003448935927163791,0.00034870299498244696,-0.0010057587647012416,-0.0015634656610091103,2021-09-01
437,MCB,2.2479006315130372e-06,1.1965625333694504e-05,0.0001099406598492574,0.00014883641512464406,0.0017048305103961648,0.002932382905322632,2021-09-01
438,ALX,3.232445914425004e-05,1.5910774610305174e-05,0.00011573879190161391,0.00042562868884227033,0.004683736579894072,0.004243439086803865,2021-09-01
439,SEAS,-7.356787578908073e-07,2.3343259120936596e-06,7.88933275738191e-05,8.622833777228103e-05,0.0003658148381603639,-0.0016150518186954551,2021-09-01
440,DIS,3.04766445235042e-05,1.0996021226854641e-05,0.0009459964880439846,0.00040618519787152617,0.0004961520772203245,-0.00040960811369267013,2021-09-01
441,EAT,-3.43587948374154e-06,5.332763110789223e-06,8.247178777415322e-05,9.231737818740509e-05,0.00031955978553591834,0.0007008724388966813,2021-09-01
442,JHX,1.7204089521852394e-05,4.082646056924596e-05,0.0001857481260384669,0.0002989002020265272,-0.0022791920188462386,-0.002018903040047427,2021-09-01
443,ROG,8.130498218018626e-06,1.964649838273435e-05,0.00015658692654170844,0.00020808687012223946,-0.004859049209036188,-0.0064084673828514,2021-09-01
444,YELP,3.806283902934231e-06,1.3085598237952355e-05,0.000150720005541025,0.00013859676813480207,0.002137815139225534,0.002978212911625981,2021-09-01
445,COTY,3.8372927594789517e-07,1.0121394184819343e-05,5.782204681457117e-05,7.313800982911497e-05,-0.001373977162153201,-0.0009873931118679845,2021-09-01
446,CARS,3.5061773646751845e-07,7.39134983347981e-06,4.1012668559457734e-05,7.981129722264626e-05,-0.0014850524048331223,-0.0013967584107833267,2021-09-01
447,DESP,6.06822348424511e-07,9.704839492122851e-06,6.539790703878652e-05,0.00010479220259545412,0.00032893822812570867,0.0002758262060459462,2021-09-01
448,EEX,4.314919427544529e-07,1.485450526626501e-05,9.388005606763646e-05,6.694598981602194e-05,0.0016693882044274864,0.0021647510750081125,2021-09-01
449,LW,4.199502043606084e-06,5.1650367483101486e-05,0.00011882899202213335,0.00023277685210898469,0.002004835561371634,0.002267384961647433,2021-09-01
450,AVNS,1.7667382947660356e-06,4.7009385759474904e-05,0.0003344379338479809,0.0002171500936753037,-0.000698053173863424,-0.002508577338563863,2021-09-01
451,CCO,1.0544901320239818e-07,7.963974308030662e-06,6.111954591498123e-05,5.286412259163442e-05,-0.0006873904179888351,-0.0006921070657164678,2021-09-01
452,GCI,7.290417584447486e-08,6.48008494116119e-06,5.904799103482009e-05,4.301420264356162e-05,-0.0009172825840672318,-0.0012365947756165655,2021-09-01
453,JWN,-3.823856539256363e-06,6.2123376275320705e-06,2.4213613484232148e-05,6.327436749199378e-05,-0.0027512352381227827,-0.004267049628351223,2021-09-01
454,RGS,-3.4319640309927197e-06,5.820447186220875e-06,0.00012746209797163466,5.928285555448583e-05,0.002618303828560338,0.004534361555469744,2021-09-01
455,LXU,-4.855676923189899e-07,3.5318566941330768e-06,3.757847834064875e-05,2.5750150208519955e-05,-0.00030120766536860657,0.0006767895928844981,2021-09-01
456,BW,-2.947592856726463e-06,7.5237008418652175e-06,5.162804539758319e-05,5.435798009787272e-05,-0.001151137379751848,-0.0007390852810547735,2021-09-01
457,IDT,-2.4241110452027136e-06,6.644851774432711e-06,5.5573853337990606e-05,4.8008384184821134e-05,0.00016951621989156671,0.0007940987228063957,2021-09-01
458,FMX,4.585874408740448e-05,0.0003386039188031517,0.00015775505532697554,0.00043403818524095293,0.004791964385312013,0.005902384124104681,2021-09-01
459,PAC,6.338483916581702e-06,9.9931374025028e-05,7.577277594759916e-05,0.00021913660950844392,-0.002872055391809714,-0.004185133827166982,2021-09-01
460,ASR,1.108248496126437e-05,0.00011702242878757281,8.873203599846284e-05,0.00025661508741518443,-0.000502874479476459,-0.0008261291007111918,2021-09-01
461,CEE,0.00014696452235670403,0.0005997490233553414,0.0004832253252501919,0.000708803839159071,-0.0011395987358128815,-0.003228849162477542,2021-09-01
462,TM,0.0001189026697101116,0.000529136240143836,0.00031925108425712655,0.0006253512450155903,0.003907674283350342,0.0051030168994259896,2021-09-01
463,USAC,3.648879135960264e-07,0.0002386795157345374,0.00013538889765671715,0.00019018522095455847,-0.0021542386536407415,-0.0030548937304416043,2021-09-01
464,MITT,-1.74504534143564e-09,2.8091447079542633e-05,4.14723207170404e-05,5.8258102875963326e-05,-0.0008045527554527652,-0.0013320976047500822,2021-09-01
465,GPMT,3.4038203984424227e-09,2.2610014212463477e-05,2.4293450766780767e-05,7.49334287836247e-05,-0.004663582249688627,-0.005228408530241861,2021-09-01
466,RWT,1.949229056524265e-07,5.129645163151366e-05,4.4141158765781815e-05,0.0001700051565232463,0.00037341077601080126,1.72764601005844e-05,2021-09-01
467,TWO,1.6041486132540626e-07,7.973189986174526e-05,4.1520632323932705e-05,0.00015991246706115593,-0.00035485897168843495,0.00013588661766521134,2021-09-01
468,WMC,5.807257065654806e-08,4.968714934142854e-05,7.094083437309432e-05,9.965389820387509e-05,0.004759257748153623,0.004286730314452699,2021-09-01
469,BKD,1.1806353648107663e-06,4.776469143915709e-05,0.00010473802569991736,7.410614607728644e-05,-0.0002646866037657237,-0.00023862226897246606,2021-09-01
470,CATO,3.312823687327939e-06,5.39455854235411e-05,0.00014247342398424634,0.00011913250475147687,0.0003160930380576704,0.0011559520844154306,2021-09-01
471,CLPR,9.157573198357664e-06,9.390043957768348e-05,0.00021346002223295566,0.00020736811875012988,-0.0017425930406441959,-0.002100848887456586,2021-09-01
472,USPH,4.751537446948318e-06,0.0001110608721719992,0.0001222174258181416,0.00012483760751977912,0.0018521953286494675,0.005185462620869353,2021-09-01
473,BURL,9.865729412581541e-06,0.00017322248324521858,0.0006302430318292573,0.00019096947076254774,-0.001996958672596749,-0.002914158089077829,2021-09-01
474,UBP,9.479216328698007e-06,0.00016875987663519853,0.00016202364397485152,0.00018604966124030148,0.0016682380426354861,0.002388643748401186,2021-09-01
475,EVR,-1.7843384088949689e-06,0.0001372530209809363,7.660036836453064e-05,0.00025222039290035314,-0.0012968197193879143,-0.001121827020608546,2021-09-01
476,BMO,9.922888433233056e-07,0.00010653988032540157,0.00020754548153069765,0.0005859619463243778,0.003851526742125979,0.005663505654704957,2021-09-01
477,MFC,-2.3227512069559986e-07,4.637649996244033e-05,9.253308086326486e-05,0.0004501721140546339,-0.0030011044273322274,-0.004103798675365452,2021-09-01
478,SLF,3.0590035816609432e-06,8.133340132486157e-05,0.00019782762602840262,0.0007894953100669539,0.0011682248327794273,0.0034603236105017407,2021-09-01
479,BDJ,1.4794946802528434e-05,0.0003839978921946632,0.0004734690863723223,0.0011947239230728386,-0.0015498095334826678,-0.002311638916332314,2021-09-01
480,IVZ,-3.577845952563484e-08,8.873917689704107e-05,4.5631976326360874e-05,0.00018253048302548853,-0.0026493866870295137,-0.003724230532230751,2021-09-01
481,BTO,-3.9310426906195985e-08,5.7762038066381095e-05,0.00010188057143366462,0.00019979091178962583,-0.0046346287524152985,-0.0049383697044570775,2021-09-01
482,ALLY,-9.580911081604136e-09,1.0908351798864096e-05,5.626627992600846e-05,0.0002245488408687687,0.001710303767220709,0.0031261006302886734,2021-09-01
483,AXP,-3.390054668922014e-08,1.5037312606683363e-05,0.00013117253453114164,0.0003095436577287216,0.0029309527358514645,0.005126438169833565,2021-09-01
484,PRI,6.196149480305276e-08,9.798125549056032e-06,7.968471502088232e-05,0.0003827163029680058,-0.00044503281370904485,-0.0013776767625897147,2021-09-01
485,VOYA,9.284207377384718e-08,1.0752053077963062e-05,8.744267269461864e-05,0.00041997686013629766,0.00348385111012216,0.004522883461227517,2021-09-01
486,AFL,3.3447114306608627e-07,1.2856550749465566e-05,0.00010458422572120404,0.00047824331063119546,0.0004864887840001954,0.00136451964954781,2021-09-01
487,UNM,-7.399006173355866e-08,4.32002169147786e-06,6.04443950780321e-05,0.00016069795981763085,-0.002048745395631416,-0.0013526700943794294,2021-09-01
488,C,5.782922096549062e-09,1.4665085985645104e-05,6.315504899910965e-05,0.0003072484094976242,-0.0012035327786455987,-0.003281175351802998,2021-09-01
489,WFC,7.179354988703891e-10,1.0278317795067958e-05,7.682812629321572e-05,0.00021534117140103762,0.0024604983794970863,0.004347881172302339,2021-09-01
490,MS,2.575824533515672e-08,9.487894617587097e-06,0.00013526799956762627,0.00035803922464646814,0.0006604178721360699,0.0018283785927777916,2021-09-01
491,RJF,2.9395677385436943e-08,9.762674347172404e-06,8.410229678175899e-05,0.000368408429332503,0.0031400131429010028,0.004568099400627889,2021-09-01
492,BK,3.8815671126890465e-08,1.7907787992100942e-05,0.0001351781006443755,0.00037889002302920506,0.002245644027379574,0.0035462909037536784,2021-09-01
493,AGO,-5.72299969928952e-07,0.0001143811994574799,0.00011283716010210536,0.0002215907128596966,0.0013804661056072496,0.001836403135878685,2021-09-01
494,MDU,5.062820631959889e-07,0.00014267152293272667,0.00017410907599692258,0.0004776773248433861,0.0043890533356544525,0.006259670684480921,2021-09-01
495,GD,3.286018202118869e-06,0.0001270685993762412,0.00036364941224442134,0.0007381522574788911,0.0030196455365467992,0.006359639305089274,2021-09-01
496,CNA,4.012480166797016e-07,2.5883394992063955e-05,0.0001288875184611874,0.00048530466190533196,6.724093764569924e-05,0.0005099164617626085,2021-09-01
497,THG,6.133510112111717e-07,2.839325425104417e-05,0.0001413854744548265,0.000532363650862647,-3.3670047015839255e-05,-0.0012314844626247915,2021-09-01
498,ORI,2.3010723778950975e-07,4.299581433618793e-05,0.0001743108424605136,0.0004532023358174602,-0.0004706381833353154,-0.0002727582677978827,2021-09-01
499,BCS,-7.341610065379091e-08,3.5691903907419205e-05,5.4106060743999776e-05,0.00021196154178533641,0.0012051796466920886,0.0016782831677712722,2021-09-01
500,WPP,-4.0392576805327635e-07,5.541174605917147e-05,8.39997582080627e-05,0.00032907068107616643,0.0006786103432925007,0.0007420083476158819,2021-09-01
501,UBS,-1.7199189353747371e-06,0.0001349925291549963,0.00017482034708823192,0.0004750983245817666,0.00033950060464354515,0.00040979018441599836,2021-09-01
502,IPG,-1.1759875595448981e-07,0.0001236367991403021,8.308242045774443e-05,0.0002535791150923158,-0.0018702186392455338,-0.003037859689495555,2021-09-01
503,AROC,-2.189956574022183e-09,4.432751108704633e-05,6.13049469204411e-05,0.00013902113601156334,-0.0005732627532012695,-0.0012684219878579836,2021-09-01
504,KEX,-7.725716591754078e-09,3.835496517519685e-05,5.663616743476274e-05,0.0002042407286923823,0.001204092191734666,0.0015730523091652736,2021-09-01
505,NOV,8.535475940138794e-10,1.734745940560905e-05,5.4556146229397214e-05,9.237546517847748e-05,0.0011655849807301066,0.0013014576422991188,2021-09-01
506,BGR,-9.814141311412722e-08,0.00010145408289252228,0.00023285527020589492,0.0003213520510737212,-0.0011530841194499011,-0.0021744210161290995,2021-09-01
507,E,-1.8986628307982606e-07,0.00011788419215930612,0.00027194247490185797,0.0003733938138270219,5.809517760275545e-05,8.266506272106193e-06,2021-09-01
508,CF,-2.6522407542326167e-08,0.00020577174088835372,5.946497583140656e-05,0.0002095600852053593,-0.002298794454540176,-0.00294779534470867,2021-09-01
509,HII,-4.859210008216834e-07,0.0007851232013399978,0.0007177025770522592,0.00047133360193129755,-0.0012729654562359063,-0.003065857749466032,2021-09-01
510,ENVA,-5.3717351120863065e-09,4.670906345157185e-05,3.754429335528614e-05,0.00013120828102548276,0.0008619849378498773,0.00029937339203390666,2021-09-01
511,CUBI,-5.49121778177251e-10,2.479662659348092e-05,3.5563119771807426e-05,0.000112766894950643,-0.00558545915458084,-0.008656604041392799,2021-09-01
512,PLOW,-4.657256958885424e-08,5.4196846944483886e-05,0.0001101387048363592,0.0002464694188543955,0.0014312038513241113,-0.0004186119171505473,2021-09-01
513,AZZ,-6.481053662406048e-08,0.00016019842334870935,8.483174576566839e-05,0.0002689925019126239,0.00022802392785485824,-0.00035960280762978113,2021-09-01
514,ACCO,-1.57835706178482e-08,6.5869802112726e-05,4.620728530242839e-05,0.00018205615107517154,0.00031428519699477187,0.001470631048594782,2021-09-01
515,BY,-2.5082682869453454e-08,7.852034003057036e-05,7.119171738767977e-05,0.00021702070491445366,0.0029786813193919187,0.003162267249114641,2021-09-01
516,ALEX,-2.1026839730249006e-08,4.6390850531931656e-05,5.7432366059635405e-05,0.0002471419153919886,-0.003992624710973277,-0.007429300961657709,2021-09-01
517,AAT,-2.379568182283756e-08,2.7656322306774075e-05,8.204731121030345e-05,0.00026223353490648625,0.00036503098544094826,0.0002615443910111173,2021-09-01
518,UBA,-1.628676202204312e-08,2.5465318405506247e-05,4.421492048755194e-05,0.00024145873008427616,-0.0005664701241809189,-0.0013206628057648912,2021-09-01
519,KW,-2.320002063263689e-07,0.0001330349760319122,9.518515273983366e-05,0.0003988628178178661,0.0012220049512273994,0.000489983703785551,2021-09-01
520,ATI,-3.3172003262644727e-09,2.8237698524611987e-05,3.116832824756093e-05,0.00010604819368878268,-0.001329289630098823,-0.0007889139001592755,2021-09-01
521,GE,-4.179097540899599e-08,6.013782372847077e-05,7.011566480844912e-05,0.00022585082751060975,0.0008958887787142518,-0.00030329719329634037,2021-09-01
522,HNI,-4.052578646942942e-08,5.5836653683165355e-05,6.823820705499501e-05,0.00023847613173111565,-0.0005216957741603904,-0.0015293868006313774,2021-09-01
523,SCS,-1.536987430099264e-08,4.632777740857872e-05,9.502151755742279e-05,0.00019786409856844614,0.002261105512618261,0.002186800109163265,2021-09-01
524,NCR,-3.081018438683254e-09,3.734775602960961e-05,4.554361216830046e-05,0.00013900544553367952,-0.0001183271277635832,0.00046192314023677037,2021-09-01
525,XRX,-1.551849426242901e-08,6.16830369773779e-05,0.00011683771362988794,0.00022957947005204497,0.0008900085072452587,0.002253746150998047,2021-09-01
526,CIR,-8.992303406985791e-10,4.4895935054135747e-05,3.0310765013437302e-05,0.00010235668165603925,-0.0038192412947822742,-0.0044920336498562,2021-09-01
527,HEI,-1.7431184599317842e-07,4.825685470444512e-05,0.00012872270895420562,0.0003579386615097533,0.003988818058790029,0.005464547412501141,2021-09-01
528,TDG,-8.521051201148962e-08,4.0941589260169515e-05,0.00013125457981750293,0.00030367867424474493,0.006989139054559749,0.01098940070259428,2021-09-01
529,AIR,1.188974127863937e-08,1.1508966365554383e-05,3.665167345510873e-05,0.0001444071547598676,-0.0021229747858750774,-0.0026105734006533756,2021-09-01
530,TGI,-1.887341050845682e-09,4.2866399913879645e-06,1.4693929783069308e-05,5.378601908933298e-05,-0.0026694629048802584,-0.003485275662869665,2021-09-01
531,BA,1.2945754876016567e-08,1.3375259042455221e-05,4.734127643413766e-05,0.00017328916332061303,-0.000550068728891803,0.0012590327370865238,2021-09-01
532,HXL,8.22654920813566e-09,1.181626708170663e-05,4.4468521687722124e-05,0.00015309094423235722,0.001013700492252422,0.0006542018090303218,2021-09-01
533,DCO,-1.598422631889228e-08,7.361933781401451e-05,5.231899392219214e-05,0.00017662734853609457,-0.003994548100897705,-0.004727093176020843,2021-09-01
534,PVH,-3.1264589975663973e-10,3.971565727078373e-05,3.221419973254392e-05,0.00011897004946261081,-0.0011045799693953954,-0.0014488388432823101,2021-09-01
535,TPR,-1.8377552278588102e-09,5.3840978034265784e-05,4.5746397723255506e-05,0.00016128308732697304,8.268923116787467e-05,0.0006874609161567424,2021-09-01
536,BYD,-1.138548319227498e-09,5.019187209477682e-05,4.020671728634136e-05,0.00013459217590435367,-0.0007880213937588892,-0.0008740800070701761,2021-09-01
537,MGA,-5.10920757356033e-09,8.443323029790832e-05,9.302832164549243e-05,0.00022641220002653527,-0.002545713417641441,-0.0034673954708134788,2021-09-01
538,HHC,-5.338898657042089e-08,0.00015177036226774512,7.389768593072457e-05,0.00026053301519667966,-0.0010722377290816201,0.00032305264988180017,2021-09-01
539,SIX,3.0559676124503737e-09,1.118970026081083e-05,2.525634538130542e-05,0.00010256310521522667,-0.001989346812629318,-0.0032857955295834684,2021-09-01
540,AER,-1.5842319483564842e-09,7.874436041640997e-06,3.5625260850831914e-05,0.00012264641627796063,0.001651400862425243,0.0032835593472631867,2021-09-01
541,ALK,-8.429190990854534e-09,6.182246678669886e-06,4.143839819850528e-05,0.00016827655506839942,0.0010293952259454945,0.0002270255065871521,2021-09-01
542,APLE,-2.4436747047888597e-08,7.91530476335206e-06,8.953130701936967e-05,0.0002154492188881647,0.0022185435082843524,0.0033156278385077106,2021-09-01
543,SYY,-6.52153930238157e-08,5.363145111017423e-05,0.0001275602312224332,0.00028584016793255804,-0.0013894898062906367,-0.002077986721507277,2021-09-01
544,CHH,-2.857358593855288e-07,4.475057737680302e-05,0.0001928804810517513,0.0004068490660542773,0.00036966326075642985,-0.0006221637311634291,2021-09-01
545,HGV,8.996052649885678e-09,1.194109501777912e-05,5.146758514243887e-05,0.00019272211364861763,-0.0006247544981809483,0.0010063867133255678,2021-09-01
546,VAC,5.422500427626528e-09,1.0680831144586697e-05,4.6035693167800315e-05,0.0001723822103956068,-0.0005879983325610742,0.001422383529411457,2021-09-01
547,ARMK,-3.93161947630085e-08,4.2574174475460375e-05,7.017661063562506e-05,0.00022708110827157868,0.00247949324106993,0.0025956543205421317,2021-09-01
548,KBR,2.8926288793741975e-08,6.09479308273253e-05,0.00016150700573454364,0.00031942715771788633,-0.0025739543964680505,-0.0029733756530167543,2021-09-01
549,UNVR,1.3289664798466444e-08,4.609524408732241e-05,8.6802486940113e-05,0.00024158445747471114,0.00013449895956063208,-0.0009561894568158976,2021-09-01
550,ADM,5.49048473332047e-07,0.00011743183557688308,0.00023419240836349277,0.0006087785978380711,0.0003223732203116082,0.0009621212327477702,2021-09-01
551,BRC,1.719515898480471e-07,7.745071513549e-05,0.0002060296167283076,0.0004015123967884328,-0.0011057961448028768,-0.0017320918591331091,2021-09-01
552,BEN,2.6872210932301922e-08,7.584416184531353e-05,9.010706981580217e-05,0.0002260883320233589,-0.0009257505872994402,-0.0008185252476757285,2021-09-01
553,IP,1.847639474260478e-07,0.0001476982689250105,0.0001410779777153858,0.00044028247463659577,-0.002377259878107508,-0.004053645335416667,2021-09-01
554,ARW,1.1317946174133038e-07,0.00015597621794217773,0.00020206100737376177,0.00047320098600549287,0.0028637013160949082,0.005655218602831212,2021-09-01
555,CRH,6.941905079842808e-08,0.00012999817238077053,0.0001517182898790629,0.0003943887354179666,-0.0008821049708946382,-0.0016461192566340165,2021-09-01
556,CLH,3.274804596703177e-08,0.00011022955695477296,0.00019890127328301926,0.0003313497484627193,-0.0005914314852576389,-0.0012020586655946423,2021-09-01
557,IR,3.482859814477994e-08,0.00011293601041243826,0.00012584180321751463,0.00033948534019689826,0.0048555245163954186,0.0064643408277085266,2021-09-01
558,ACM,1.2449062130757341e-07,0.00012539762810722505,0.00010887451700860725,0.0003738374157893545,-0.002690664545592845,-0.002989963311741983,2021-09-01
559,MTZ,1.8028567759399507e-08,6.717308707784937e-05,0.00010316149430682794,0.0002002574822412421,-0.0015974669966660044,-0.00043430654755368504,2021-09-01
560,CSL,4.5714625680932554e-07,0.00011838340165919434,0.00012998327584452113,0.0005280395578963393,0.0022676394478406523,0.003604939617313735,2021-09-01
561,GPC,2.799374308273248e-07,6.321950672867065e-05,0.00016234151409056294,0.0004686470239639779,0.000163504797504111,0.0006032731778631849,2021-09-01
562,SWK,2.595877511235174e-07,6.162766534598478e-05,0.00010887856693105932,0.0004568466831321489,-0.002281500670247337,-0.001818720191874534,2021-09-01
563,MHK,-2.2536590791114774e-08,1.5663312914207928e-05,4.4034784526417224e-05,0.00019725475473365638,-0.001492734099435535,-0.00424488066775166,2021-09-01
564,OC,-6.691685040012307e-08,2.1852491836129143e-05,0.00011894511655124855,0.00027519771462554984,0.0016668752444220327,0.0011265952539139697,2021-09-01
565,R,-2.824841730659123e-08,2.759984720300175e-05,5.211052081209843e-05,0.00020844502693711527,-0.0025511403475196336,-0.00472233127140367,2021-09-01
566,ATKR,-6.660013765376209e-08,2.500175652259335e-05,7.651239759383279e-05,0.00011213678986790308,-0.002832498207254069,-0.0024325406432869215,2021-09-01
567,WWW,-2.2724090969958625e-07,3.876981183975415e-05,7.880496834814532e-05,0.0001738886721644507,0.004094145056037851,0.005510841029924875,2021-09-01
568,JBL,-3.2073285076791657e-08,2.159978906397759e-05,9.60066892855775e-05,0.00031993384099082147,-0.0015644502972601072,-0.001649706741613602,2021-09-01
569,VSH,-2.1080447024509263e-08,1.969898480674502e-05,6.799067969530934e-05,0.0002917793249820372,0.0007748842376938689,0.002062495110971809,2021-09-01
570,RMT,2.0627318949396315e-06,7.438610872543306e-05,0.0007920139389799366,0.0006198758097682422,-0.0016952485759930142,-0.003353107763036793,2021-09-01
571,BHE,6.603468694282564e-08,6.286246348727008e-05,8.942259663840621e-05,0.00030188799438581764,0.0015195649785859457,0.0033177475141208815,2021-09-01
572,NGVT,1.965210612532768e-08,2.732137289352e-05,4.655702282199413e-05,0.00020681780001603043,0.00296422448395094,0.004913201496018089,2021-09-01
573,OEC,7.480935766622227e-09,2.050784414397407e-05,3.561669123111586e-05,0.0001552406325062204,0.0004587067502239773,0.002257463984380445,2021-09-01
574,SXT,1.1584289688651112e-06,0.00010544444216274658,0.0001877127529329253,0.0004744310697747044,-0.001433884961775208,-0.002701191692190018,2021-09-01
575,CC,-1.516988787724179e-07,2.894785758287144e-05,5.449830159397286e-05,0.00013820633012560015,-0.001407653790782682,-0.0008471011367693204,2021-09-01
576,OLN,-8.00485258513618e-08,1.4765538312448484e-05,2.9649921380045584e-05,0.00012167294592274912,0.0013263553165007319,0.002256049421015986,2021-09-01
577,TSE,-1.1761733897890362e-07,1.6388106074324532e-05,6.180248313949009e-05,0.0001350434438598476,-0.0003598609441873749,0.0006058566465904048,2021-09-01
578,MT,-9.695272120906646e-08,2.982500941659536e-05,3.639343923177981e-05,0.00014107815165577327,0.0036030284512195516,0.007200799684049496,2021-09-01
579,CMC,-1.8616800270911733e-07,3.621869950085554e-05,5.6701597492434555e-05,0.00017132156136431714,-0.0026898292393924845,-0.0044055007917348146,2021-09-01
580,GVA,-6.15831769413993e-08,3.342019576076011e-05,7.866494621429289e-05,0.00015526290506623935,0.0017921674877020744,0.001826899260171112,2021-09-01
581,MTW,1.753480908128369e-09,1.1099756254894343e-05,4.3736413091153355e-05,8.390994213992459e-05,0.0005614337290575202,0.00010109113506102023,2021-09-01
582,WNC,-1.0483201699908324e-07,2.5025338010457184e-05,6.261281112115457e-05,0.0001891820519539423,0.0022290318298174455,0.0020966485855919105,2021-09-01
583,JBT,-1.0021723083513352e-08,3.779275401598639e-05,7.791454716511123e-05,0.00017457965229462612,-0.0011591324171891385,-0.0017089103409154815,2021-09-01
584,KFY,-2.1902197396360038e-08,4.89962745016953e-05,6.591611731640468e-05,0.0002263331368393997,-0.0025414821909901125,-0.00145897985714551,2021-09-01
585,APAM,-1.7528752473992848e-07,7.619039454569206e-05,7.344276146679644e-05,0.00021290184684081707,-0.000694288435276344,-0.0001686409585813144,2021-09-01
586,ALV,1.9006162096538555e-07,6.012113654854472e-05,8.456807100849141e-05,0.0002877373179261557,0.00018216584510663317,-0.0006441465853647842,2021-09-01
587,BWA,1.1258427933435044e-07,5.1884238318745584e-05,7.474340097813673e-05,0.0002483158575091624,-2.8403071323426266e-05,-0.0009368129493763616,2021-09-01
588,HPE,3.3814294361608567e-07,7.232148806215229e-05,0.00013081572194025855,0.00032439492051820787,0.003748941762405592,0.003321470823169326,2021-09-01
589,TRN,7.644398728143476e-08,4.346581349440475e-05,8.303685667962426e-05,0.00019496403477842176,0.0025255450715339135,0.004276716360071692,2021-09-01
590,JCI,8.723565002841406e-07,0.00026479764212604986,0.00025002769692551247,0.0006097731625630255,0.0015794515751817386,0.0036631693217543163,2021-09-01
591,HUBB,-5.5393984558312504e-08,0.00011711437971713862,0.00011775561865808357,0.0004783663468398829,-0.001190594542742948,-0.0022283001803299614,2021-09-01
592,DCI,2.455404545887951e-07,2.2700549885261538e-05,0.00012483487351810932,0.0005366602454655925,0.002234044830280013,0.004631057906057998,2021-09-01
593,DOV,3.522980357435482e-07,2.4709390751570135e-05,0.00013588189205868034,0.0005841509466980954,-0.0031740204781469973,-0.005036249301227522,2021-09-01
594,XYL,4.34234037635119e-07,4.430892549637141e-05,0.00030135927422000175,0.0005942524107866014,0.0015275758530288166,0.001889591834917756,2021-09-01
595,AME,1.0994376436597835e-06,5.3173431027798015e-05,0.00016707590688553163,0.0007010385610629954,-0.002927539127581602,-0.004233037421039752,2021-09-01
596,HON,4.881288020272017e-07,4.380247299054435e-05,0.0002403521125825474,0.0005774918421239138,0.0005383468578031946,0.00047508729824432557,2021-09-01
597,CMI,3.074374575702476e-07,0.0003883713578820792,0.00017412831490917416,0.0005053276465589526,0.0031914528416801522,0.003737868323410577,2021-09-01
598,CW,3.366724118799848e-10,3.01088585332254e-05,0.00010687369765247367,0.0003315830581970051,-0.00022598177329453747,-0.0014266201276795676,2021-09-01
599,TXT,1.1112243296963321e-10,2.3833801142429645e-05,4.873169406283899e-05,0.0002624770601165496,-0.0021677495594212433,-0.0034983726086259643,2021-09-01
600,FLS,5.4074930362825085e-11,3.702968118573221e-05,0.00010890104527891455,0.00023051988108101806,0.00044850096134641676,0.0014216802500761946,2021-09-01
601,WAB,4.1011600248878716e-10,9.207067160491501e-05,0.00014103977710543927,0.0003274456135494607,0.0015847486493998537,0.002822135450729975,2021-09-01
602,EMR,-4.922875182772561e-07,7.556412185222634e-05,0.00012040396040978387,0.0004923328418452621,0.0007515195945274535,0.0020440011289374876,2021-09-01
603,PH,-1.3429020834353444e-07,5.7324128460490965e-05,0.00012609396931845176,0.0003734914186715301,0.00045692717723095467,0.0027641840227801058,2021-09-01
604,CE,-8.738859307235661e-08,5.868455034993374e-05,0.00012643955101104213,0.00037874197939099613,-0.0016994717658121432,-0.003296793759053276,2021-09-01
605,TKR,-1.3502382373793807e-08,4.010182995720972e-05,0.00010180169948843569,0.0002588116695898294,0.0012421810383929964,0.0015849410759492745,2021-09-01
606,OSK,-2.325454560766266e-08,2.5208048448708038e-05,6.192240837840222e-05,0.0002792120881581831,-0.0005471667900343491,1.4497951102203102e-05,2021-09-01
607,URI,-2.2627486487789762e-09,1.7292649307038932e-05,4.247859545786615e-05,0.00019153869577130867,-0.0005511298347052081,-0.0017832617509844352,2021-09-01
608,CAT,-1.439125257112722e-07,6.316209413420568e-05,9.00476241916416e-05,0.000394451817167987,0.0022136233433909954,0.003097504063882866,2021-09-01
609,PWR,-7.854271874496307e-08,9.07360960645887e-05,0.00013568479499196328,0.0003167248456195677,0.0012530273149209776,0.002055977798958623,2021-09-01
610,HUN,4.7287896160635844e-11,8.120895658440446e-05,6.184020549941611e-05,0.00026570843734008393,-0.001182589163069539,-0.003633342242307608,2021-09-01
611,KOP,4.40600506870113e-12,4.5332221228247614e-05,5.974928040563067e-05,0.00014832297040035888,-0.00444219734106998,-0.00715881094881326,2021-09-01
612,PGTI,-2.3780790285826034e-10,1.0049366461713658e-05,3.8817752409884415e-05,0.00017493248141796383,-0.0013113630271804706,-0.002852308441952862,2021-09-01
613,NX,-8.814506300495807e-10,1.373390138778728e-05,9.124440255280918e-05,0.00023907033925654668,0.0017281905292476148,0.005403281337243367,2021-09-01
614,GMS,-3.7608539128564175e-11,1.4007355878842798e-05,3.126446680094125e-05,0.00014089354530236919,8.19939608855079e-05,0.0017355667073128476,2021-09-01
615,PAG,-5.39754895827217e-10,3.4237586997563205e-05,4.559831781690752e-05,0.0001987470327656993,-0.0034430205644878993,-0.0040463149474974465,2021-09-01
616,ESE,-6.183626597443043e-09,0.0001113873833823273,0.00012101665619222384,0.00037352998237028234,-0.0006129741716586935,-0.00028127572938579866,2021-09-01
617,EXP,-2.3704157064041473e-09,4.810921599553466e-05,7.41950083786842e-05,0.00028159694484410503,-0.0012055617999766448,-0.0009800264746712736,2021-09-01
618,ST,-4.409155792803813e-09,5.897572744779035e-05,8.043921675156417e-05,0.00034520173163490815,0.001907000402658254,0.002920222731309575,2021-09-01
619,HRI,-2.426143175634949e-11,1.084349849499117e-05,5.5718746870736925e-05,0.00010962875068642367,-0.0027758201079474457,-0.0018789500308389248,2021-09-01
620,WCC,-5.414146719002956e-11,1.3748741560282525e-05,4.815060170375207e-05,0.00013900102088458977,-0.0033632864314941512,-0.004878557779392694,2021-09-01
621,CNHI,-8.099626695617815e-10,4.14412185649454e-05,4.7975552946623473e-05,0.0002479111331686908,-0.0018622970240005326,-0.001788736604720922,2021-09-01
622,FIX,-2.8048003502655293e-09,0.00011598839318962581,7.806635747646169e-05,0.00026362295035187546,5.829526787086379e-05,0.0010326272690227448,2021-09-01
623,VMI,-6.939145006419922e-09,0.00015655759515406455,8.90310717277199e-05,0.0003558302171410753,-0.0013976633776617649,-0.0029387782871064367,2021-09-01
624,GATX,-4.670370005038762e-11,0.00012056268333122154,7.10196991647832e-05,0.00028911068280337084,0.0005462015226181653,0.000244475803535839,2021-09-01
625,SXI,-5.526134794746583e-09,3.7166101194188265e-05,8.231714177542201e-05,0.0002921153914303927,4.228994463649089e-05,-0.00045103310723768395,2021-09-01
626,KMT,1.5023056187620288e-09,1.349775875851972e-05,4.836713112424418e-05,0.00018357079071877754,-0.0012522290046824457,-0.001283322383754972,2021-09-01
627,AIT,-2.896702976678383e-09,6.1047734525799264e-06,5.6355145490341595e-05,0.0002606556907450665,0.0017237726965234465,0.004971036163199915,2021-09-01
628,LEG,-3.85490417995464e-09,6.6261432575869545e-06,5.926543261948423e-05,0.00028291663256597803,0.001242309750640621,0.0017153511559205525,2021-09-01
629,DAN,2.5107432986450634e-09,3.142518104045307e-06,2.9442166897112684e-05,0.0001307893807696192,0.001384493263517015,0.0005722401386838289,2021-09-01
630,CBT,-2.175962129983528e-09,3.5274331877513916e-06,6.200577117191069e-05,0.00025354213788297613,-0.0008279348886784308,-0.0010712401572698955,2021-09-01
631,FUL,-1.5915565065220933e-08,5.372547855248828e-06,0.00013318170630292767,0.00038616387514534814,0.0024126454960788093,0.002905455302746716,2021-09-01
632,ALG,-6.055125958444891e-09,1.4158604288442882e-05,0.00012425818913373436,0.00034681598209167116,-0.0007212642817328889,-0.002508257987940647,2021-09-01
633,MWA,-8.777696832168844e-09,1.5755773390925592e-05,7.572260881683609e-05,0.00038593874868358437,-0.0010669061837219845,-0.0013105061717447024,2021-09-01
634,ASGN,-6.477453847979787e-10,1.7669816101731976e-05,5.5380350391680584e-05,0.00025324356452985776,0.0006199822213345359,0.0007840414347415115,2021-09-01
635,TNC,-9.745284502879828e-09,1.8690181956493572e-05,0.0001240972674410806,0.00040407030786666995,-0.007668989465424857,-0.01050988454765012,2021-09-01
636,HI,-1.2745240370234314e-10,6.61224322823388e-06,5.857705278424585e-05,0.0002516876687842917,-0.001461669971471718,-0.0005096345627928931,2021-09-01
637,GRC,-2.90037577483626e-09,4.795039208368602e-06,0.00010023763800997091,0.0003263815077132698,-0.004688074879293286,-0.0066016853704897495,2021-09-01
638,SPXC,-1.5854628618769058e-09,1.6538242723227893e-06,5.503540971632788e-05,0.0002843925697397988,-0.0033809434736720182,-0.004573996369497607,2021-09-01
639,MTX,-9.61402651030908e-10,2.7796856272033627e-07,5.061357241529804e-05,0.0002849140012789674,-0.001485328051810802,-0.0014172276961174,2021-09-01
640,MLI,-7.98090581912409e-10,2.6708300244828093e-07,4.86314882266444e-05,0.00027375644985328694,-0.001901193689204861,-0.003041224963908335,2021-09-01
641,EME,-2.6245378846375416e-09,5.883155752983909e-07,6.628860489913797e-05,0.000337856046252142,0.003258772075464342,0.004947269927196081,2021-09-01
642,B,2.0813108538959476e-10,4.184298236465199e-07,4.3658071513471564e-05,0.00023514967992775977,-0.0029899604246693373,-0.002933042469408486,2021-09-01
643,KAMN,9.859289833889768e-11,3.5502558925702416e-07,7.289870464932995e-05,0.00019951769439474537,-0.004589557595078511,-0.007050095401541503,2021-09-01
644,ASB,2.6826192951823877e-10,1.2829709180831947e-06,4.925089092578259e-05,0.00022062041439424156,0.004103418655631178,0.004896389539534937,2021-09-01
645,NPO,-1.1749828391533249e-09,3.899082015543619e-06,5.4911851301184294e-05,0.00026213385056751107,0.001614468598537007,0.001885575639771126,2021-09-01
646,FSS,-4.100992166671456e-09,5.347869570323648e-06,7.773344361102515e-05,0.0003595353052880854,0.0025874941995233797,0.003181146010579223,2021-09-01
647,ENS,-9.381921807136154e-10,3.7789385102832136e-06,9.241646131126588e-05,0.0002530211570690566,-0.0008581810059338898,-0.0008212455484138285,2021-09-01
648,MEI,-1.4589692917383078e-09,4.286197161552294e-06,8.087140691290701e-05,0.0002869849727088545,-0.0011410014640265823,-0.0025021834919529517,2021-09-01
649,MLR,2.270675591581933e-07,6.969144121042141e-05,0.00019004551118865658,0.0004058949209890159,0.0012128378262553684,-0.0014291732897988004,2021-09-01
650,SRI,1.9894594095635684e-08,2.7001108619127186e-05,6.398865917263669e-05,0.00015725909321470034,0.003371241727345994,0.004214473057432251,2021-09-01
651,AEL,3.045188620962924e-08,4.1077321969289195e-05,0.00010737707372831647,0.0001623406871912991,0.001244072830116395,0.002669593426284453,2021-09-01
