,Company,RCRP,"RCRP, no extended terms",HRP,IVP,LW,OAS,dateThru
0,KOS,2.9547940036196126e-07,2.800455064707652e-05,6.043293069547308e-05,0.000135138366363791,-0.0030175343929309726,-0.002426311680768391,2020-05-01
1,EGY,-1.2637263754519898e-05,9.424618302467866e-05,0.000295861398718041,0.0004547930574028866,0.0009753824804223047,0.0028659478475417024,2020-05-01
2,MTW,-1.6711057211665042e-05,0.0001639761179506211,0.0003576363014120855,0.0005336003573888338,-0.00031086286806289307,-0.0011589032215231756,2020-05-01
3,SSL,2.8563845578328003e-06,3.8293812319157476e-05,0.0001848925389858501,0.00012079587996591547,-0.007048684629803252,-0.0057857009913711965,2020-05-01
4,FET,5.612313287216605e-06,1.578254258500199e-05,3.6698212677475206e-05,7.046627615657147e-05,-0.004919047147169502,-0.0031902248157759687,2020-05-01
5,PDS,1.332262078207154e-05,6.81202697399414e-06,9.36774729144883e-05,0.0002459426600255401,0.0002186766848713179,0.0018553225070149922,2020-05-01
6,RIG,7.189090494761158e-06,5.590149866792236e-06,0.00013768109013627216,0.0002018277868583033,-0.0014154980667936946,-0.0028142446505880206,2020-05-01
7,APA,1.272203071778508e-06,2.741609053513963e-06,8.271347606002654e-05,0.00016195950644973297,0.0006276328960692464,0.00039409331054079575,2020-05-01
8,GPRK,-8.386869980136414e-06,7.887234198903967e-06,0.00023795535554374544,0.00046593534423540895,0.0002667640094139939,-0.0009095602469863638,2020-05-01
9,SBR,-0.0001133339332990619,2.9539953876794493e-05,0.0006423118641668909,0.0010618551146338257,0.002469888627874504,-0.0010322743735449297,2020-05-01
10,ESTE,4.972875192030759e-06,1.8192628410677998e-05,0.00013466547138423903,0.00023623675668565892,-0.004702338783652214,-0.004902189928364217,2020-05-01
11,TDW,-6.356793764257723e-06,3.0781889869560596e-05,0.0002491614575511361,0.0004119079575362614,0.0021150201378044124,0.0029683943273533914,2020-05-01
12,CLB,-2.164362254358332e-06,8.222553020861544e-06,0.00012570386755386017,0.000314857121738659,0.00028110689741098514,-0.0018490348560914137,2020-05-01
13,SLCA,-6.191793275868272e-08,4.303122379372133e-06,6.578481455483148e-05,0.0001647747023851187,0.0012570416211946144,0.0023480670177195516,2020-05-01
14,MRC,-7.509915984058645e-07,9.84642212673382e-06,0.0002099511750809227,0.00022595298598890415,0.0041471920929850425,0.006434597200704755,2020-05-01
15,GHL,-1.6538180352234653e-06,6.724147782443983e-05,0.00017052343689746418,0.00038131956242837836,-0.0002810187271972025,-0.0008719774637334913,2020-05-01
16,VRTV,-4.90745606511336e-07,4.2882583130918925e-05,0.00010250523994019263,0.0002431827551139457,0.0006122234514822917,0.00044658525109414417,2020-05-01
17,SRT,-3.990620890757157e-07,4.2031757667785335e-05,0.00024260496982874988,0.00024110749584993127,0.0033427943536983255,0.005028907065806684,2020-05-01
18,CVI,-1.4488251504212547e-06,4.050383303305708e-05,0.00023541975846005553,0.00037033104579290804,0.0007360887076386571,0.00038376008319203266,2020-05-01
19,SXC,-9.049954705310151e-07,3.355516911330194e-05,0.00020956634652084788,0.00030679863951012064,-0.0004809314760339217,0.0017031980150938222,2020-05-01
20,DRQ,-1.4249820481389317e-05,0.00013177692505112243,0.0003609547589337512,0.0006338823380145587,0.002311992210914156,0.002228636412028253,2020-05-01
21,TMST,-5.7804890913689314e-06,8.694970502764984e-05,0.0002902223954549455,0.0004182513918216021,-0.001142793768984854,-0.0023119118100308755,2020-05-01
22,TISI,-7.660952673262605e-06,0.00014171550331257526,0.0002545484016072531,0.0004498729003475898,-0.00022608629384035598,0.0006075830512590921,2020-05-01
23,SUP,5.627798798273176e-07,0.00013438085193497878,0.00013358558046475225,0.00025779269134879957,0.00043285963626843335,0.001429438046850174,2020-05-01
24,BH,2.9831361505134544e-06,0.00016629595610857003,0.0004687141459897027,0.0004896748955136364,0.0028901659771280817,0.0020882979150777005,2020-05-01
25,CVEO,4.023998851180174e-07,7.924936581495511e-05,0.0002885754039509815,0.00023335759830277813,0.00044977219742909166,0.0002318121038703866,2020-05-01
26,DFIN,-4.796224905660949e-06,8.141848876227924e-05,0.000287128662548298,0.00037409740059636515,-0.003768909916007393,-0.002222247972090659,2020-05-01
27,PBI,-3.861794900352091e-06,7.444453691037425e-05,0.00048417469830668616,0.0003420538525111228,-0.0024588645308723967,-0.002138053971214825,2020-05-01
28,SJT,-2.5308515420463463e-05,0.0002479598847201814,0.00047234357844845224,0.0007186187793141503,0.0011301426360451042,-0.001286211346909846,2020-05-01
29,NOAH,-7.746815993484878e-05,0.000228534421592416,0.0008164915740136204,0.0009731062028269066,0.000651583989794122,0.0016616871600103464,2020-05-01
30,TGH,-2.4161969785864753e-05,0.00013291431024905863,0.00043881081917035685,0.0005659529923176835,0.001566456808393954,0.0019458038317090181,2020-05-01
31,MTN,-9.314904156625353e-05,0.00035484982230769347,0.0009424744290365315,0.0010102489594776447,-0.0002545096120124342,-0.004862842162070305,2020-05-01
32,BZH,-2.4138167295941573e-06,4.771476860553783e-05,0.0002617794396073018,0.0003457836178074554,-0.0008416572401551453,0.0021518941672034023,2020-05-01
33,MOV,-4.615830179612881e-06,6.150176798669714e-05,0.00034557010008294314,0.00044569646793858023,-0.0005163959501981746,0.000473381531860739,2020-05-01
34,MOD,-3.3530779535991586e-06,7.982781805434854e-05,0.00021504126035954657,0.00036224164228091564,0.0020662191587492913,0.00191386391365909,2020-05-01
35,KODK,-9.23659819687558e-06,0.00018380729173768248,0.0003234536303576679,0.0005327296309439179,-0.0011247216108148394,-0.0016078874408965718,2020-05-01
36,BWXT,-0.0006184811178754891,0.0009027612718964041,0.0009988819404842012,0.001845109335909691,0.006584507305529585,0.011943596033818392,2020-05-01
37,CCU,-0.0013714985090132348,0.0013113704722046752,0.001833129075161153,0.0026802455714768497,0.004919368402965511,0.0013328437896084541,2020-05-01
38,AMC,-3.6566853638954595e-07,5.683468346628436e-05,0.00011553070322766504,0.0001664960326281945,0.0002691387578789458,-0.0010866127305754055,2020-05-01
39,CALX,-3.606589709941917e-06,0.00018210163071537126,0.00031747930496220513,0.0005334629701460362,0.000419811144945874,0.0029966360361380197,2020-05-01
40,ATEN,-1.1803210434838395e-05,6.922323281229432e-05,0.0007359862454872429,0.0007024064072077835,0.0028318484960032416,0.003141378127694199,2020-05-01
41,MX,-8.806953539288007e-06,6.234215618133865e-05,0.0003005826164595162,0.0006325842952128551,0.003097956074440017,0.0024509584559482453,2020-05-01
42,NEWR,-2.3245420641070527e-05,4.952281569242098e-05,0.0005564367343987488,0.0007914573897772843,0.002850430642756965,0.00166429155136465,2020-05-01
43,PBH,-8.383929014117352e-05,8.469975620263824e-05,0.0008462008257891007,0.0013536437099066587,-6.604260882887336e-05,-0.00024995664524149843,2020-05-01
44,BB,-4.7251854389860505e-06,3.2521510373416465e-05,0.0003137995178425802,0.0005366318505618743,6.655839547342264e-05,-0.0019664696513649483,2020-05-01
45,HLF,-1.7711490392904978e-05,5.29692486927383e-05,0.0006288302675548521,0.0008740364645576633,0.0030228673824940606,0.005122151289298362,2020-05-01
46,ELF,-5.9067951973268075e-06,9.456497271684948e-05,0.00041627041288446495,0.0005432504288783109,0.00295445953636709,0.001722207135134289,2020-05-01
47,MED,-1.2209340785510023e-05,8.50614634288396e-05,0.00045476229784786664,0.0007489956159459714,0.004092749073618074,0.004678889979483108,2020-05-01
48,USNA,-9.095741002036798e-06,7.418749596132553e-05,0.0005744255002698781,0.0006532465701054811,0.0012157417211441513,0.0022101992490382184,2020-05-01
49,BNED,2.4031405019196544e-06,3.00671386588444e-05,0.00015503993981348668,0.00020238128850219694,-4.339748558119936e-05,-0.00043770075890660234,2020-05-01
50,CATO,-3.899552038685995e-05,0.00012297259510855326,0.0007790161185790133,0.0008277259945121927,0.0007450924309801157,-0.000937557181515802,2020-05-01
51,SB,-1.2797112452174876e-05,4.3868578453781905e-05,0.000350233081088415,0.000486803036940256,-0.003249463701209942,-0.0027106969958263357,2020-05-01
52,SGU,-0.00028753297122432526,0.0001034695904954869,0.0005455793229041277,0.0011481865303028832,0.006605320245952358,0.009162323565544424,2020-05-01
53,CIA,-1.2076687147126401e-05,5.9122340453024714e-05,0.0008606042028234732,0.0004211536032941199,0.0039832492090257935,0.004844154024250224,2020-05-01
54,ALX,-0.0013543367974026674,0.00028887377891400815,0.0008484616759311369,0.001932462422964921,0.005779567136440644,0.012060966366508868,2020-05-01
55,NL,0.00014768851197513512,5.520220098598289e-05,0.0003153099511159193,0.0003692830116717669,-0.0003412114631240137,-0.0005747032620624015,2020-05-01
56,BIG,1.99047993117567e-07,2.1923566536196486e-05,0.0002787124922456159,0.00023405701221626012,-0.0063565973488898956,-0.004091310951386985,2020-05-01
57,GHM,-2.9431565808591884e-05,7.756047336048275e-05,0.0004685235687272925,0.0008280392075286346,0.004984983201314249,0.009553618894980121,2020-05-01
58,LL,1.239757414320795e-07,2.0377663522189065e-05,0.00015739821009366805,0.00024573956067296327,-0.0003170799411981057,0.00048740199114145346,2020-05-01
59,RGS,8.17892645759055e-08,1.7546654611947098e-05,0.000135531339304183,0.00021159968565213116,0.0016847619112070754,0.0007208166472776486,2020-05-01
60,EVH,1.5884381557481522e-05,2.386589126758783e-05,0.00021047045781510715,0.0002474450889647029,-0.00456947980853095,-0.004011776630553457,2020-05-01
61,NSA,-0.00024086079066055905,0.00010110384269166972,0.0005431975779445373,0.0010482595880879552,-0.00259908094929915,-0.008250025981892548,2020-05-01
62,GNK,-2.550061176336607e-05,5.637783766528712e-05,0.00018354411161936818,0.00040079863490083986,0.0007102786429207832,0.002646070727740411,2020-05-01
63,DDS,9.840982171634012e-06,3.5614957320709265e-05,0.00016220835218816947,0.0002306228492324494,0.0005197977975705527,0.003191520209230008,2020-05-01
64,MUSA,-0.00024151972951522765,0.00016360129564226206,0.0008139337358771865,0.0010593918897440196,0.0015821513379654273,0.0015703670722985162,2020-05-01
65,CYD,-0.0003873004017751016,0.00017723914875970615,0.0014885698171332332,0.0012168505751399665,-0.001553080963207484,-0.004748682432348364,2020-05-01
66,EIG,-0.0003548163567778489,0.00016953839014791978,0.0005757182149259358,0.0011639803565040672,0.0014941244205145356,0.003855022266599321,2020-05-01
67,UFI,0.00026743917083427686,8.153694940784786e-05,0.00020630640997956518,0.0003750302155413395,-0.0013034619530147523,-0.0025432805436053987,2020-05-01
68,ASC,8.13442198983679e-06,0.00014238800784735533,0.00020373971814812648,0.00044489905008880746,0.0017279550248681496,0.0009827838989777482,2020-05-01
69,AGX,-6.110937112066026e-05,8.023545996482773e-05,0.0005461053312849637,0.0009167412009334151,-0.0038262488741411882,-0.008366011332416568,2020-05-01
70,TDS,-5.016732377885833e-05,7.492921000709364e-05,0.00044577742544443425,0.0008561139176743871,0.0022422516835655607,0.003907636118903226,2020-05-01
71,VIV,-0.000211494981435601,0.00018436115920567893,0.0010101979725041378,0.0012749145957074016,0.0007260778508011664,-0.004707563562584435,2020-05-01
72,GWRE,-0.00023885431057648813,0.00019201212198959549,0.0006089409704908929,0.0013278233763120361,-0.001363973714532266,-0.0032037149666711636,2020-05-01
73,KDP,-0.00029558802850845477,0.00027375890019650884,0.0005774000358336723,0.0012926865797728818,0.00202309958040354,0.00022099399835446437,2020-05-01
74,EGHT,-6.435965571239365e-06,5.166088049830607e-05,0.00021242299080497857,0.00038601047455422464,0.00039626144625780596,0.000588002053602438,2020-05-01
75,TPB,-1.9402583104228498e-05,7.905541236021231e-05,0.0004897725058313489,0.0005907026157296348,0.0009183358939751656,0.0003275941280270513,2020-05-01
76,CYH,1.6782699312261347e-05,6.837555202956618e-05,0.00010581708323169554,0.00020209533602702512,-0.001741860150578049,-0.0003911388767230874,2020-05-01
77,TWLO,-0.0001152325810007005,0.0003249284684607681,0.00048040016977170756,0.0010218958008452325,0.00046435309566963197,0.0013994710478772096,2020-05-01
78,UTI,-1.3293760174557246e-05,0.00012835221999915375,0.00019965792566206352,0.00040366606000278877,0.0022758344544395164,0.0017954408180597904,2020-05-01
79,GKOS,-8.364923296851044e-07,5.553238103575659e-05,0.00031170523391543944,0.0005068104073386264,0.002330864049653696,0.0035905876648771548,2020-05-01
80,MLP,-1.4691680355162044e-06,7.133771102437945e-05,0.00040042111444003317,0.0006510560813085146,0.00040069291825072575,0.0017485345812200863,2020-05-01
81,GNW,-6.989349861588885e-07,7.96741489520717e-05,0.0003860725351711029,0.0004703357030709287,-0.0036556659489178547,-0.005417593869854489,2020-05-01
82,SHOP,-1.974103217694333e-06,6.741531193074446e-05,0.000271313807624813,0.0005771322704879196,-0.0026013585797553126,-0.000655150061848591,2020-05-01
83,PEN,-1.5557762444772272e-05,8.168656399751242e-05,0.0010870066981934629,0.0011432071564222302,-0.0002551083082788658,-0.00342822024905246,2020-05-01
84,VEEV,-1.7450869639057446e-05,8.51818647932923e-05,0.0006158314844608267,0.0011921240490914533,0.00013700261358388317,0.0016434555621445495,2020-05-01
85,ASPN,-4.176645741586364e-06,0.00010324672246349755,0.0004782739835603561,0.0005814756132274841,-0.00014115967025718474,0.00018366491558127873,2020-05-01
86,SAM,-0.0001545742785342961,0.0001294754299658579,0.0006160097141871092,0.001011811233332485,0.001581912510244337,0.0031930429679781942,2020-05-01
87,NVO,-0.0018328282621306693,0.0003236645994764869,0.0016926189538425725,0.0025293407225504163,0.00076794704840752,0.004824316929850668,2020-05-01
88,BDX,-0.000671522060110411,0.0001369673392485321,0.000976237599406029,0.0018541014055507767,0.0009741864239932296,0.0003023290188231124,2020-05-01
89,KMB,-0.0009457142659166624,0.00015605347915082247,0.0015044866105396323,0.002112466932789086,0.0008335913369102062,0.005400352838550848,2020-05-01
90,TGT,-0.00034065912658874913,0.00017288659499294754,0.0014270359841429831,0.0014483902069470983,0.0017615984442970808,0.0008535131396403387,2020-05-01
91,BIO,-2.653689141212204e-05,0.00020035306517906965,0.0011486104661454686,0.0016262216582734702,0.00024461361964432627,-0.0027105235614932888,2020-05-01
92,EBS,-3.482207617910373e-07,7.827569356061692e-05,0.00040111654356001696,0.0006353465472109507,-0.0007789120671959755,-0.0032478506192764496,2020-05-01
93,BMA,0.00015913021935328557,0.0002898122794758401,0.00027430207505300296,0.0003806326459641207,-0.0025010644018724337,-0.000801769557531884,2020-05-01
94,CCJ,-9.215202680197632e-05,6.387838066012593e-05,0.0009118550936753838,0.0011386023969066795,0.0018773425638215697,0.002016130495647841,2020-05-01
95,SUZ,-1.596838238393314e-05,3.325050987542315e-05,0.00037245185192994254,0.000592674858869088,0.0053013718779118275,0.004522320066778468,2020-05-01
96,PHI,-0.00019751459033808154,0.00012953994777877288,0.0013678727290891038,0.0014872926680861433,0.004024392207512697,0.0026949260628572843,2020-05-01
97,XIN,-7.681679004275735e-05,0.0001286272172849448,0.0006779313191683775,0.0009156943258970947,-0.002031511630714672,-0.005265861777064145,2020-05-01
98,DQ,-3.832239237436628e-06,5.836835562679053e-05,0.0003691899052367319,0.0003957388191384041,-0.00030468428096533926,0.001268354095558626,2020-05-01
99,ICL,-0.00017153211501913537,0.00018481025622178615,0.0009617210496255284,0.0012530178686121238,0.003489211550994313,0.007487149783291404,2020-05-01
100,JKS,5.0467350239862945e-06,4.07083612315542e-05,0.0002947176312943211,0.00043091107812105815,-0.00371569153239659,-0.0045504616528011625,2020-05-01
101,TKC,-0.0005602032445976159,0.00013801661147512184,0.0011270912089836461,0.001460950159871846,0.002409833415469188,0.0019567368805065467,2020-05-01
102,RDY,-0.0012909822911431564,0.00031268095977296837,0.0018579533502166548,0.0022588612402099253,0.0018742687130799617,-0.0008421024204553533,2020-05-01
103,LPG,-1.7698998903926963e-05,2.9961157929787757e-05,0.0004814024572432935,0.0005699491790548399,0.003850173423124357,0.006637462289320299,2020-05-01
104,FN,-0.00019442460087472544,3.9183639151216146e-05,0.0006295851520603628,0.0011806209749620933,-0.0011393999371705685,-0.005492455821519993,2020-05-01
105,TEVA,-3.008809445921495e-05,2.0887640711842964e-05,0.0003356132492696182,0.0006293541711811257,-0.001085101344390222,-0.0004977639553089637,2020-05-01
106,FPI,-0.00010987000346704608,4.9687831307153514e-05,0.0008400696168237448,0.0009345829935198183,0.000786021271949284,0.0004853240131427527,2020-05-01
107,PKE,-0.00035627712851417923,7.680972122113594e-05,0.0008419387444912826,0.0014447211178632605,-0.0008379501159944616,-0.004166565163296806,2020-05-01
108,KEM,-0.0017492366745126575,0.00036570818221322787,0.0021945132725690025,0.002598801122785316,0.0037494510521728585,0.006320811573293787,2020-05-01
109,EDU,-0.0003199435794722756,0.0002245032641911513,0.0005928712122169065,0.0013591540365843783,0.00014535559743145555,-0.00036863955123387683,2020-05-01
110,YUMC,-0.0007601137566222598,0.00030957313276041697,0.000817524854931208,0.0018741712933453922,0.0022954891584136736,-0.0042849255132132846,2020-05-01
111,KEP,-0.00021113823166739348,0.00020681051603819146,0.0006408134152259897,0.001183694255635957,0.0016048849383572192,0.0017809711986496663,2020-05-01
112,UMC,-0.001873602312316071,0.0004621776990445154,0.0017129793214863507,0.0026453059444085953,0.004796071330160737,0.0017046896268137636,2020-05-01
113,FF,6.903922020408715e-06,0.0002980583241724327,0.00032031496161444924,0.0006894489386652697,0.0008144691325344939,-1.76724832236547e-05,2020-05-01
114,PBT,-4.098080948420676e-05,8.761025211638197e-05,0.0005180686106835168,0.0010127022370592634,0.0026594409712332578,0.002441625233652098,2020-05-01
115,TPL,-4.146168905008064e-07,2.378635344797947e-05,0.0003234373160157114,0.00046400248021860596,-0.0025002459345694586,-0.003794212945339063,2020-05-01
116,YPF,-1.8470437917410191e-07,1.8694997670970066e-05,0.00022835475187170528,0.0003646849571113233,-0.003644585919785828,-0.005540415616923293,2020-05-01
117,CNQ,1.2181518327313028e-06,8.389942976380066e-06,0.00020256873003766333,0.0003327241630344609,-0.0008422699225718056,0.002868808805431181,2020-05-01
118,DVN,5.327562697454162e-07,6.98500506710014e-06,0.00018087367029493069,0.0002770078379895154,-0.0017385079595183513,-0.00411231793866879,2020-05-01
119,TECK,2.0020315250533685e-06,1.6132524674270844e-05,0.00023647284957620897,0.0003621579232483868,-0.004153527922278941,-0.0034091861451585165,2020-05-01
120,USAC,2.4701324924010472e-06,3.2095301839539834e-06,8.639096316648914e-05,0.00018418998004028641,-0.0022903878484127655,-0.00013259552149245214,2020-05-01
121,WMB,-1.1291048317953184e-05,8.961495823176507e-06,0.00031277392043690543,0.000514286403989668,-0.0009502353332332553,0.002379747165465928,2020-05-01
122,CRT,-1.3072262001251598e-06,6.9328613682743936e-06,0.00016764763478617161,0.00040644782578507985,0.0016842575070797798,0.003362380345416909,2020-05-01
123,MOS,-1.4787977378255343e-06,7.164069781320518e-06,0.00016246446080040353,0.0004200027134128425,0.0006982273838206842,0.0010683393725143557,2020-05-01
124,BGR,-4.910298326874234e-05,1.4254502550571098e-05,0.0003020990179175278,0.0007577322544464321,-0.0005923653799811171,-0.0025082010597425757,2020-05-01
125,CEQP,1.0695207742318424e-05,2.8531525085535976e-06,7.113625696996514e-05,0.0001516661612648976,-0.004418444829710498,-0.005565766187064535,2020-05-01
126,FTI,3.603787745724497e-06,1.8941124487106967e-05,0.00016135577729756563,0.00036534865855030396,-0.0030377883243621904,-0.0021232401951822902,2020-05-01
127,TX,-4.436957864521708e-05,4.8102337689330344e-05,0.0006402133226656463,0.0009278289976866531,0.0038636983287065178,0.0065171180445956454,2020-05-01
128,MIXT,-7.302779533449961e-05,9.84197205576107e-05,0.0005142444815092358,0.0011643743696875387,0.0020096683791848355,-0.0001067923694021031,2020-05-01
129,FTK,1.6105718462091074e-07,3.489244255610877e-05,0.0001912857643510701,0.00023352070342959235,-0.002127504480690981,-0.00015127304900950823,2020-05-01
130,OI,4.160433093429119e-07,4.8702511851563855e-05,0.00016159689445709603,0.000325945792074511,-6.706574269031422e-05,0.001001267775475828,2020-05-01
131,BCH,-7.389230036445155e-05,0.00027051041703542915,0.0005768214366651306,0.0011133447464288615,0.004288454259988954,0.008361054203096668,2020-05-01
132,BUD,-0.00010823903221173746,0.00017032693636856374,0.0008317613480388941,0.0012366837165866881,0.0019052688500393467,0.003484471404977057,2020-05-01
133,ARCO,-6.988265280412311e-06,4.604602810029534e-05,0.00019955408092989054,0.0005519163530491268,-0.0005525912954006492,0.00016049640020294754,2020-05-01
134,SPH,-1.7710486683467227e-05,6.24988239445805e-05,0.0004890452319923144,0.0007491226584455621,0.002608346126983432,0.001755559089994429,2020-05-01
135,NGS,1.241691682319988e-06,0.00010858428211941145,0.00019544530573499164,0.0004738409800842597,0.0013059413567290735,0.001889834866988166,2020-05-01
136,AGRO,-0.00015287290971591715,0.00023601149672492988,0.0006139269085375143,0.0008121490481697303,-0.0013353112532426355,-0.0023393196908354126,2020-05-01
137,SMLP,1.74780124768312e-05,2.576388036584929e-05,0.00010017001578365253,8.86571680051258e-05,-0.0014636178057655731,-0.002329751599956947,2020-05-01
138,IPI,4.7969797006637406e-05,9.78589831721063e-06,0.00021821181263826262,0.0002932058083927831,-0.001451634910692249,-0.0015737698331120945,2020-05-01
139,DMO,-0.000241666121012317,2.8029921288218493e-05,0.0004619981229901647,0.000839834572575121,0.006129356787652661,0.013727785021682872,2020-05-01
140,REX,-6.52872425139249e-06,1.984969769549516e-05,0.000176491761199289,0.0003545676188193546,-0.003438323956716124,-0.00814425656432961,2020-05-01
141,HCI,-0.0005118276545076868,0.00013917263038004036,0.0006805574752451269,0.0014299925991591777,0.0002441505729297783,0.001324652984875615,2020-05-01
142,BRT,8.245896309800798e-05,4.9750612312897864e-05,0.00022478697793071632,0.0005248027534453486,-0.0004955032026944666,-0.0005195441529783432,2020-05-01
143,WHG,7.947856666849893e-06,2.97431020351329e-05,0.00035294391825215296,0.0003137501453423718,-0.002015800986647,-0.0003783226347992018,2020-05-01
144,CORR,5.407082716213847e-05,3.736934786147058e-05,0.00015800011151619297,0.00013677107359418502,-0.0016847746695049807,-0.0015379877548571822,2020-05-01
145,CBD,-0.0001141623383482448,0.00022240152702215636,0.00042161192295884825,0.0009163040832667659,0.000797006472732712,-0.0004336098349942173,2020-05-01
146,MC,-0.00013465009316844138,0.0002363678104840826,0.0004634695520908219,0.0009738457860400085,0.003895486674383574,0.004972443431873474,2020-05-01
147,NOA,1.2678125227486434e-06,0.00015508506113332487,0.0003389633015069745,0.0006625934994675954,0.0034455437210367205,0.0015173699951037442,2020-05-01
148,WTI,-5.175630256656256e-08,5.317157266700451e-05,9.987786872334325e-05,0.0002271729987928255,-0.001435496733186362,0.001679416659669789,2020-05-01
149,MG,1.1569071561545765e-07,0.00010215462278477366,0.00016461435528855915,0.0002817587255022579,-0.0019727955644512673,-0.005891700085961872,2020-05-01
150,LAC,5.389262861264619e-07,0.00017347522572056632,0.00019906400480485401,0.0004739558810102353,-0.0009003291303906489,-0.0012497527390396257,2020-05-01
151,IGT,4.340586886223379e-08,5.490665140897892e-05,0.00012048986465294453,0.00024848079588215324,-0.001537779329384484,-0.0012666178519081506,2020-05-01
152,NVGS,4.3217068623592185e-07,9.77968547035965e-05,0.00020955328185795293,0.00044258099279292505,0.001926885905669201,0.0024055601139277415,2020-05-01
153,HLX,-4.221657916633784e-06,2.879712436209019e-05,0.0001105117294415492,0.00013728862052550812,-0.000755713315298452,-0.0007204922762062653,2020-05-01
154,CNDT,-3.7313501605302448e-06,3.8465962871944664e-05,0.0002661334954673408,0.0002828924775031497,-0.0022088547358419235,-0.003061922991953759,2020-05-01
155,WNC,4.4698643587798816e-05,0.00012903067369348484,0.0006617960151441204,0.000948937820081795,0.0013895636336272437,0.006263455536395614,2020-05-01
156,NGVT,6.906476891697893e-06,6.58706138272879e-05,0.00039812902273716295,0.0005617727322024054,-0.0006211713771250735,0.0029251257109281525,2020-05-01
157,HZO,2.7101913554408595e-06,4.7155079274380326e-05,0.0004553369233542306,0.00040215865895294864,0.0012334273173754801,0.005679269385134501,2020-05-01
158,HBM,2.7471833063430195e-06,7.488719726708583e-05,0.0001655297105551496,0.00039411333996040523,-0.0022792591117836757,-0.004968770824986152,2020-05-01
159,CPS,9.831465319745465e-08,3.230290157279116e-05,0.0001470887354843682,0.00025239627436609804,-0.002013429086145701,0.0021983928085444666,2020-05-01
160,RYI,2.1894003998017108e-06,7.37491650930089e-05,0.0004087018159156396,0.000576233514662484,-0.0013537699055846055,-0.0015783389954872097,2020-05-01
161,ARGO,3.036027902233219e-05,0.00012800153779263083,0.0004934070187475496,0.0010311709639693745,0.004241044075720141,0.005247554315320564,2020-05-01
162,X,8.976878910977082e-06,8.429250588979375e-05,0.00047832127227704225,0.00067905422116559,0.0029495054809650064,0.003065100436238139,2020-05-01
163,TSQ,7.801666997738554e-06,0.00019938278660146965,0.00043152840377141645,0.0005834267329603263,-0.0025091479958297847,-0.004263945145266968,2020-05-01
164,PGZ,-9.964335083471166e-05,0.000224167813024111,0.0005094409545630034,0.0007204024649812408,-0.0019437928097253959,-0.010729457995869046,2020-05-01
165,BW,-2.34897179790766e-06,1.1404155038737985e-05,9.735732205962248e-05,0.00018976416494311234,-0.0011170798206880878,0.0004334116921129788,2020-05-01
166,AEB,4.574282042270924e-05,1.577510960338348e-05,0.00021307479819471562,0.0004453048633352378,-0.0006256151079927657,-0.004833276264362126,2020-05-01
167,GDOT,1.0797129254434621e-05,1.0790531127305976e-05,0.00015956613959920184,0.0003045985802804829,-0.0016923443426431703,-0.001212332703828056,2020-05-01
168,BSIG,3.996558505465588e-06,1.3056825075788966e-05,0.0001543329395473969,0.0003876474139256127,-5.498951927784573e-06,0.0009123179867258595,2020-05-01
169,CODI,-0.0002569275174907602,2.9736380588913186e-05,0.00034951467390224,0.0008828509969222702,0.0005867703374805182,-0.0031852623661969832,2020-05-01
170,GLP,-3.550095349033871e-05,1.4949085355984693e-05,0.0001885073205997526,0.0004838517507674347,0.002191128802658625,0.0012819045636671017,2020-05-01
171,UAN,3.3177031679503616e-05,5.208958352599039e-06,0.00010921687627628213,0.0002803327564759772,-0.0009977391854431264,-0.00014354435989683088,2020-05-01
172,WLKP,-0.0002079983632002137,1.4273373929945319e-05,0.000286820808110378,0.0007681563159354986,0.006598864850866093,0.008912253834140942,2020-05-01
173,HAE,-0.0004909472234026509,6.49272646465715e-05,0.0004655752030084307,0.0009711294731187531,0.004375525462639814,0.00839740923788297,2020-05-01
174,NVTA,8.53654367584436e-05,1.8569511103301186e-05,0.00014550012334601525,0.000277747717110611,-0.0004412907538786565,0.0014828722344989124,2020-05-01
175,FTAI,-1.9904347255288845e-06,3.1266574816861415e-05,0.00015127045268693563,0.0002906032714529735,-0.00011515360954667693,0.0013217713982624712,2020-05-01
176,AIN,0.00018096699322849748,2.1326269717515153e-05,0.0003306938532669404,0.0005656309026209782,-0.001366686873060318,-0.0053211904906090715,2020-05-01
177,BHE,0.00013982435664232037,2.0074204474692083e-05,0.00036427548903790176,0.0005324227137150339,0.00043958428156371204,0.004884857243400275,2020-05-01
178,RMAX,1.4259096348343485e-05,6.0009612642540115e-06,0.0001760910530421286,0.0002786195649168761,0.0016534343027546374,0.0031400266648458175,2020-05-01
179,INN,2.73427124481549e-05,6.982963095630438e-06,0.0001795349243033699,0.00032421308084830885,-0.002010652813547141,-0.00040127449108144306,2020-05-01
180,DNOW,0.0005994161997308827,2.0353716078965275e-05,0.00030616157588812066,0.0005370836114568031,0.0015672505634212056,0.004165346814264367,2020-05-01
181,ARMK,0.00020913643778502078,7.25410672342568e-06,0.00020117186458332232,0.00032872533857114045,0.0008852472018152405,0.0021450837031378295,2020-05-01
182,ACRE,-2.9459245444835084e-05,3.2381390719576062e-06,0.0001308836581455547,0.00014673872378141996,-0.0037742676993110695,-0.002040628111167267,2020-05-01
183,PRO,0.0006470114080641819,1.7727899601276455e-05,0.00020193927236795075,0.00046931376477828693,-0.0010734725979237101,-0.0037078565512352634,2020-05-01
184,DBL,-0.004623211883050807,7.635436440271119e-05,0.001036188584761379,0.0020196884769530703,0.006659004263850622,0.005564362457651589,2020-05-01
185,TSI,-0.0036229829810007982,7.202514074240673e-05,0.0014817904860700453,0.0019051739602090993,0.011105743216757,0.018273322021777883,2020-05-01
186,QUOT,-0.00116595376794951,6.381089706047517e-05,0.0004127849717164164,0.0009593263699947639,0.0024054416073508392,-0.0005201055546275215,2020-05-01
187,NSP,0.00010010387601002296,1.2893822588195822e-05,0.00013610181998876278,0.000343784214031663,-0.0028213512937943146,-0.0007381095888981307,2020-05-01
188,TNET,0.0007125952405628792,1.82017515883794e-05,0.00018772568634669828,0.0004853079698443541,-0.002622795241764866,-0.0019602531432324375,2020-05-01
189,WK,-0.0006447389130518788,0.00015695047102774585,0.0004485085310574257,0.0009355306095354405,0.003792218580046399,0.003383462040438768,2020-05-01
190,BLX,-1.712751309037448e-06,3.315064514381268e-05,0.00041129255893876843,0.0005298847676894948,-0.0004907698056682188,-0.0030962657177863737,2020-05-01
191,TSN,-0.0009311906678382584,6.390261686438425e-05,0.0004562382158547095,0.0010214287880383817,0.0030324336236422435,0.0029657254620066363,2020-05-01
192,PARR,8.004697511129401e-05,3.1537224764776954e-05,0.00026265128334984465,0.0002997044780736723,0.002871352435372267,0.005799663995467986,2020-05-01
193,EVRI,0.0006721002350799216,3.1037465638077346e-05,7.888526835102313e-05,0.00011669637702289494,5.5916630471711017e-05,-0.0010022449579930599,2020-05-01
194,IIPR,0.0015215170376827244,7.807712587862499e-05,0.0002744431930371152,0.0004768764622081089,-0.004377247477628891,-0.005141151074412474,2020-05-01
195,GDL,-0.007877886564075207,0.00027307950183756675,0.0006342642384614663,0.0016679044633417161,0.009170304102570683,0.011087819712955678,2020-05-01
196,OCN,4.9848698446600057e-05,5.2486403746060976e-05,0.000156933344581397,0.00014275598946185734,-0.0003633001697563485,-0.0012104128334699499,2020-05-01
197,DCO,-4.1593139783748405e-05,6.236987565359565e-05,0.0001458925135521613,0.00033052873855989414,-0.004715706707542971,-0.0038918404786656407,2020-05-01
198,CMG,-0.0007943762843573746,0.00010350088398142385,0.0010482278322373726,0.000867242092800756,0.00017187621211739424,-0.00634768550286458,2020-05-01
199,CPA,5.0041967140261015e-05,3.681884808058203e-05,0.0001361727685610412,0.00030850804008251704,-0.0039499431682637415,-0.0030882212917278714,2020-05-01
200,BDC,-0.0003643339867004817,0.00019756858405462762,0.00032051174419494514,0.0006483669536868178,-0.0027254076313887993,-0.002995851202074813,2020-05-01
201,ADNT,1.9872249792845627e-06,6.713893005988727e-06,9.654649452112679e-05,0.00018655534400663858,0.00011244717764188193,0.0002794194174366831,2020-05-01
202,EAT,9.353915085663794e-07,5.54443822257867e-06,7.200183909956868e-05,0.00015406033116912858,-0.0017539715760046429,0.0005471303548632961,2020-05-01
203,BKD,3.5046728138498667e-06,1.300313361237353e-05,0.00012167242828694555,0.00020825807240686814,-0.0010246540846883482,0.0010390204879029978,2020-05-01
204,DKS,-2.5448348334840265e-05,2.900241277387235e-05,0.00018104932320528637,0.00046955804740862284,-0.004450629905076222,-0.006512548473513429,2020-05-01
205,WWW,-3.4814757507662576e-05,3.118768443097199e-05,0.000251341183689055,0.0005049382725080159,0.0006478315571450346,0.0001943572991264792,2020-05-01
206,HOV,2.7978172136302115e-05,1.0328414419126994e-05,9.573651493577975e-05,0.00014779830646623738,-0.0006225206071043274,0.00109115623936531,2020-05-01
207,NVR,-0.00013786919599252125,4.170336777705187e-05,0.0003106422606268543,0.0005967699282062605,-0.00047647905473167923,0.0015954489834043046,2020-05-01
208,BKE,-9.668526100407167e-05,7.21401834504765e-05,0.0005342653295508093,0.0006450155090139662,0.0014377819456796942,0.0006653575022325552,2020-05-01
209,KN,-0.0005967401800730601,0.0004031029176197362,0.0006379963455683009,0.0012360188871677962,-0.0006619502415143969,-0.0011315943466786297,2020-05-01
210,FOR,-1.9197389750295388e-05,0.0001177654784858821,0.0002985887505861264,0.0006572817080002107,0.002653275306059652,0.0029915880446382236,2020-05-01
211,SFE,-1.7049671256021578e-05,0.00011317397906655042,0.00023694517456597405,0.0006316552797852383,0.0013684061471234753,0.0008090730263716151,2020-05-01
212,TLYS,-1.5956526907591905e-06,4.25709664028635e-05,0.00017689729683881598,0.00042157231306162046,-0.00045161324616152396,-0.0015416392286314341,2020-05-01
213,AEO,-1.5657247494009039e-06,2.5749228573291374e-05,0.000181016944783603,0.0004313900408851603,-0.001260221145831671,-0.0044341747335385874,2020-05-01
214,SKT,-5.03300244643818e-07,1.8712641971610575e-05,0.00022296775248024272,0.0003135024943456237,0.00020602770946103415,-0.0007963525443134583,2020-05-01
215,SBH,-2.9661637838397752e-06,8.30713048450158e-05,0.00019393351692911887,0.0004694950491705229,0.0014460294110277068,0.0026473550052525737,2020-05-01
216,AKR,-0.00025290941996839144,4.8006313460858284e-05,0.0005183934224505751,0.0006678173101869385,0.0006775968873178849,-0.0012715799488352126,2020-05-01
217,OLP,-2.5648023685767996e-05,3.241382751766702e-05,0.00023741692701718443,0.00045090975634613453,-0.005117233882413727,-0.004393415321044229,2020-05-01
218,HXL,-0.00010631374385930988,3.5621573216457214e-05,0.00017179989450497095,0.0004885641425546486,-0.0019594883307521385,-0.0036114766240516374,2020-05-01
219,RM,-2.3512161648381622e-05,2.540676270218925e-05,0.00017648190373727068,0.00034846392547732214,-0.0008844029129603243,-0.0024749670540698105,2020-05-01
220,SIG,8.868768971459232e-05,2.2473290962074028e-05,8.765795466245197e-05,0.00017739201680412248,0.0005346321517790666,0.00023658585031888061,2020-05-01
221,ACCO,-0.0002542232862096898,0.00020167873732198046,0.00026299439892711255,0.0006798715057199274,-0.0023713283497310694,-0.0030504903674609,2020-05-01
222,HT,5.335206254570394e-05,7.75024857982867e-06,0.00013526194203738884,0.0001740256396760844,-0.0064420750507507,-0.006076613162725225,2020-05-01
223,SPB           ,-8.890467157414096e-05,1.1806345675432055e-05,0.0001775293362579525,0.0004668432403456726,-0.0022875107054616205,0.0011007067450760366,2020-05-01
224,SCS,-0.00016097834328234625,1.355463817528436e-05,0.00020012648086534658,0.0005359737366178153,0.0015027987400153139,-0.00044278772947811625,2020-05-01
225,GIL,-0.0002538261168587223,5.271543531057269e-05,0.00026633803368907835,0.0007143994862348983,-0.0018812145469544513,-0.0038239314154299864,2020-05-01
226,LYV,-0.00011800000449367546,1.9637651825347883e-05,0.00024178165579477425,0.0004773984363409879,0.002446409574571218,0.0026359060500326832,2020-05-01
227,CCL,0.0005212533580536452,5.292835046699948e-06,0.0001630941749875102,0.00020575144004633485,-0.002270637287391,-0.0027221505793515017,2020-05-01
228,HLT,-0.002122463210136166,2.6024967475420303e-05,0.00044942419900738335,0.0010116836228564058,0.005055615351444417,0.010087254043335903,2020-05-01
229,CWH,2.8980371356842308e-05,9.960052140540527e-06,0.0001453733035225595,0.00024193866968567272,-0.0020159589090358843,0.0011000513518907608,2020-05-01
230,FUN,2.9930677746896053e-05,5.911111930616943e-06,0.00022786303322613934,0.00025594952247614996,-0.0028394488416818462,-0.0010322694436831759,2020-05-01
231,SEAS,3.2607744442405745e-05,6.02219157247472e-06,0.00021737221076011804,0.00026075924044867914,0.004167167185439085,0.006078747522961013,2020-05-01
232,ZBH,-0.0007276731182614139,7.4211036094381e-05,0.0004543096727849419,0.0009978384626338423,-0.0016203268312971965,-0.006534473441742269,2020-05-01
233,AER,2.0283451031249657e-06,1.2406132771464909e-05,0.00013336036381608594,0.0002929105594225942,-0.006319181274805154,-0.009762511008037208,2020-05-01
234,VVV,-3.193134613094637e-05,2.1921018334425418e-05,0.0005608575199404955,0.0005175583609920788,-0.0008802441750887212,-0.003873226631863152,2020-05-01
235,MD,0.0002903281486866483,2.962885343987753e-05,0.0002938427064297065,0.00039802700251539687,0.0028004310132045108,0.0014856231159941409,2020-05-01
236,THC,5.913636500871783e-05,2.049834685921462e-05,0.0001303821793732911,0.0002753699387473774,-0.0013957675973551,-0.0006159234471705903,2020-05-01
237,BOOT,8.226352599988618e-05,2.4609568362922235e-05,0.00015747602742097416,0.00031763387943141815,0.0005142237796095357,0.002571045702838103,2020-05-01
238,YELP,0.0001983941790409524,3.274955560091133e-05,0.00018350623472445526,0.00042269609290852166,0.002058148417884556,0.003423982294915925,2020-05-01
239,MIN,0.033104250635258944,0.00679099748830198,0.007253171016751158,0.010516056071456392,0.011173501602226561,0.010493128623599447,2020-05-01
240,BBN,0.00012381127123152035,0.0007522767842263579,0.001535593820925647,0.003442242439754367,0.007511009923460279,0.002822239538886735,2020-05-01
241,NNY,0.0028559191192825974,0.0012149780977259476,0.0024800883113077366,0.005559455321574645,0.010056949101451775,0.008345239220683554,2020-05-01
242,PAI,3.070209805570726e-05,0.0009654361313577797,0.0018106337494920661,0.0025337868602218474,0.004879992390599687,-0.0002461663251443675,2020-05-01
243,OOMA,-0.002203765696776753,0.0006214989269969651,0.0005085892898466146,0.000584572414428007,-0.0019330985604019868,-0.0028508655753763735,2020-05-01
244,BKT,0.10000818709460361,0.017805980991307747,0.014529093420887786,0.015178829919371336,0.014693190046373423,0.028675287826717254,2020-05-01
245,ECC           ,-0.006470368715287422,0.00025246816800182686,9.462188017424115e-05,0.00021521821145522566,-0.005834424201001168,-0.011930955338768715,2020-05-01
246,WTM,-6.643126274655891e-05,0.0010960304789177939,0.0009641809503378137,0.001442705305235588,0.0035310322753469483,2.5204298333101842e-05,2020-05-01
247,IGI,0.0005780610661685111,0.0015122806971023105,0.0031504858213192814,0.0033474776034221024,0.006116540180283777,0.001961436868307174,2020-05-01
248,PYN,-0.00037560442124283015,0.00027159460329852925,0.0012454845870468597,0.0018057737399643113,0.006099829640772443,-0.0011988153441204817,2020-05-01
249,EOT,0.0003998108660432949,0.00028133697185056284,0.002189915379096249,0.003382899016756937,0.006392591841500129,0.004311803597017335,2020-05-01
250,CMU,-0.0005015578784420219,0.00010922499651186315,0.0018212171433925049,0.002247927460966665,0.005412130880061126,0.0040258540812133006,2020-05-01
251,DTF,0.0031345648124856637,0.0002538278421105971,0.0025404695169439894,0.005223956006959902,0.01079263254911168,0.016837632315161763,2020-05-01
252,GBAB,2.229820887438954e-05,0.0006403947757111123,0.001583682750046755,0.0025057775006821254,0.009002086472943784,0.015791020540403065,2020-05-01
253,MCI,-0.009541637762376268,0.0003382804469816154,0.0004125882513606823,0.0007112964278155581,0.006837054084544816,0.008857506662710792,2020-05-01
254,EZT,0.014749057068218701,0.001592825678537003,0.0032686816339761856,0.005885776169714542,0.011865067488919103,0.020401993347890196,2020-05-01
255,MQT,-0.001435790520500542,0.00019974310969751363,0.0011769298839831117,0.002284782391357813,0.006096891016169131,8.040445707353928e-06,2020-05-01
256,NMT,-0.0055744633324512766,0.00025740247864520626,0.0020533933570788393,0.002944325096325179,0.008293740307865593,0.006681552002491177,2020-05-01
257,BBDC,-0.021709676406530817,9.663318168946275e-05,0.0007942044431991344,0.0008685968383261247,0.00254568811625559,0.0016904714676108646,2020-05-01
258,SOJA,0.12420853843044011,0.0011819038299101328,0.005472425430324148,0.010623658581009172,0.013073450671031423,0.02235123797181074,2020-05-01
259,MHLA,0.0008362568483591122,0.0003003787365077049,0.0007000459167406668,0.0012605429453972348,0.002068242341043819,0.001577007437476771,2020-05-01
260,BKN,0.0004538817100525312,9.903401436954042e-05,0.0010711358484506237,0.0022025718129910134,0.005439834582861593,-0.0029196291699214987,2020-05-01
261,MQY,0.006532336836735524,0.00014465971763113266,0.0012956326074675738,0.0032173129460413936,0.008058331621590446,0.009204540665185093,2020-05-01
262,MHF,0.020451655904257873,0.0003293740538834403,0.0023807202306486567,0.004104328686296649,0.009866083526707698,0.00800767693122831,2020-05-01
263,ACP,-0.007031151248812876,7.013426406968893e-05,0.0003684974308296024,0.0008603188143599598,-0.001628874355367562,-0.013982059613380596,2020-05-01
264,NEP,-0.0003594342623441758,4.6105513574446425e-05,0.0003148620961963699,0.0005655643685718469,-0.004462943335444531,-0.006522861322983294,2020-05-01
265,PCQ,0.0020420486462582694,0.0008632282862100921,0.0015160501717407188,0.0021960925848260957,0.004864925317307147,0.0016106491369908891,2020-05-01
266,COTY,8.265575475435863e-08,0.00025037926617314376,0.00016636063974450786,0.00029333234301465204,-0.002745871432642436,-0.00829727600411804,2020-05-01
267,PFSI,3.2772897976866047e-07,5.558592942291533e-05,0.0002651232093218412,0.0004148062164259078,-0.004066423089855573,-0.004917493379296682,2020-05-01
268,UBP,4.627322289870076e-07,6.117015459568125e-05,0.00029175778599888736,0.00045647811684447687,0.004008425900293369,0.005916771224814797,2020-05-01
269,CMRE,1.455762436686982e-06,0.00014511553439459238,0.00033014985011850734,0.0006296161944133279,1.0765576447993186e-05,-0.0033049889697231486,2020-05-01
270,ABEV,5.613311509332357e-06,0.000375247246267462,0.0005137109969137548,0.0009915329133800832,0.0007209157795241862,-0.0028249766526038168,2020-05-01
271,CCO,-6.710542785214624e-07,9.905044994570738e-05,8.457794454751235e-05,0.00016240280826805182,-0.002260612279994865,-0.00108931601818996,2020-05-01
272,BFAM,-9.480858294395505e-07,9.065853169102383e-05,0.000353453018764952,0.0006070224169712593,-0.0005143669769239249,-0.002382504861263188,2020-05-01
273,GCV,7.670240310725591e-06,0.00017706082551281364,0.0005771626514798743,0.001185546337988576,-0.0001618717538113726,-0.002311987070556154,2020-05-01
274,GSL,-4.838826782887832e-07,0.00010812912017927703,0.00020160873088173375,0.00041412328394866424,-0.0006376526028220522,2.3878791786736352e-05,2020-05-01
275,TLK,4.9221625533572015e-06,0.00033963392179153193,0.0007024696834326596,0.0012938464606339307,-0.00023362833338395151,-0.0035716725375820385,2020-05-01
276,WIT,4.302363700242796e-05,0.000605732109997381,0.0011202338334137185,0.002307556154810372,0.0032978925488370836,-0.0027451105540541474,2020-05-01
277,KT,6.289379538476593e-05,0.0006261767740361959,0.0012643005875902665,0.0019369341313809282,0.004173007355958413,0.009645061050744483,2020-05-01
278,W,-9.237818105435177e-06,5.734952403177021e-05,0.00015423432002860334,0.00017739758982048324,-0.0062508141400489615,-0.007137299872290637,2020-05-01
279,EVA,1.1609294663231037e-05,0.0005669439221712572,0.0009756831867473152,0.001269920153740462,0.0031979648332779984,-0.0020417413459835852,2020-05-01
280,NMFC,-7.12068724473299e-06,0.00010020575315279434,0.00024010588316316538,0.0004404029018016398,-0.003477698323157223,-0.012574629470350563,2020-05-01
281,HYI,3.812689041019527e-05,0.0005997301861893362,0.0014370307241244917,0.002635805889239564,0.007887282063369458,0.012570547023240525,2020-05-01
282,MMD,1.1856516272222184e-05,0.0005809677492731022,0.0011966137626899563,0.002971429499322826,0.008160428016572456,0.007820045265487468,2020-05-01
283,NMS,4.176586955805934e-05,0.0007619753548937676,0.0027861749147059267,0.003897214690697026,0.010850944075698426,0.015352489542998558,2020-05-01
284,ETX           ,2.302485842633195e-05,0.001004246933706037,0.003478421504692989,0.0029211067579265814,0.010187776519132928,0.014789729777925411,2020-05-01
285,VBF,9.883824072296777e-05,0.002265022754333062,0.003075301343570058,0.004765176305193577,0.009839649445158954,0.012713863568285837,2020-05-01
286,WIW,0.0003332879195494297,0.0009629820751161121,0.004044465277719743,0.006266894835806596,0.012102837517442776,0.017258206539263195,2020-05-01
287,WIA,0.00041473228086826697,0.0010113092066637013,0.0037187126257085686,0.006581398146876449,0.011073067054387365,0.009969759190714031,2020-05-01
288,SBI,0.0010301033971266507,0.0021413303058706507,0.0044355712907020685,0.007850098572056948,0.012197031524222395,0.015705141920687445,2020-05-01
289,SPLP,-0.00011614471998031508,0.0010758714509054126,0.0007208089781158505,0.0012661766740440469,0.006077222848718848,0.0006113444077545349,2020-05-01
290,LII,-0.00019159664136709644,0.0009040629184708881,0.0007343140463416114,0.001601205048661205,-0.0009841872391743592,-0.004852766358000231,2020-05-01
291,NLY,-1.1524130365806578e-06,0.0001620919409233384,0.00040513293100834875,0.0004918065587878261,0.001268774428421493,0.0016724205401146082,2020-05-01
292,ABR,2.4285672391305413e-08,8.742524881367768e-05,0.00017435291946500778,0.00026525878168464566,-0.0012891800139391665,0.0008097807055758329,2020-05-01
293,ATGE,1.209774188956267e-05,0.00010495878959043068,0.000445338966779515,0.0010261978996716646,0.00257657575609112,0.0030570301632156655,2020-05-01
294,PLOW,8.822751692972422e-06,9.475273357669737e-05,0.0004020347856072101,0.0009264117523076011,0.0031173458118637404,0.003613534108725761,2020-05-01
295,DB,1.8454835699492291e-06,4.339331098980797e-05,0.0002749828508824918,0.0007243582540316887,0.001611086474242817,-0.0006250566083877163,2020-05-01
296,NYT,3.6284121966666395e-05,8.567913019922192e-05,0.0006154741594776038,0.0014302293082138632,0.0051947437007344955,0.011898213131652,2020-05-01
297,MXL,-2.7354478625397e-06,1.2222851595746948e-05,0.00013665471273634368,0.0003673165077070219,-0.006397128278759085,-0.0050292731525532096,2020-05-01
298,VPG,1.602211854617128e-05,3.100090418859369e-05,0.0006153834668718982,0.0009316274335095814,-0.0017634086735065571,-0.0022374140048465,2020-05-01
299,AA,1.1029072427680178e-06,1.4960475348534148e-05,0.00016200495811483575,0.0004476230822997193,7.756548488217419e-05,0.0018116358404458562,2020-05-01
300,CSTM,-8.21265994040862e-08,6.946399380089178e-06,7.732340972208936e-05,0.0002078388974254777,-0.0049048616299868265,-0.005743241795916602,2020-05-01
301,TEX,2.2715308583212784e-06,5.764164800235875e-05,0.00028546170181141994,0.0006204039988964324,-0.0030869655242836795,-0.008508763603300613,2020-05-01
302,BWA,1.390832763084936e-05,3.5669041423285734e-05,0.0004908692709877636,0.0010322592074022653,0.0011856778728894426,0.002789225379119562,2020-05-01
303,SKY,-7.313162960975076e-07,1.6154589759275878e-05,0.00021238075299864233,0.00046751253623352206,-0.0026591575160855334,-0.002428858305915535,2020-05-01
304,KOP,-2.0581350821618708e-06,1.3669311436313869e-05,0.00018323577944731953,0.0002381535349053993,-0.002384325936716034,-0.004147177308550528,2020-05-01
305,VNCE,-6.104292782755428e-07,7.682211099860383e-06,9.342253799355209e-05,0.0001964601997364306,-0.000808643768632153,-0.00045101994517100937,2020-05-01
306,CLF,2.587986857418166e-07,9.667749122687077e-06,0.000164748000171552,0.0004298103395982956,0.0010087070511668847,0.001962006473861161,2020-05-01
307,DLX,3.161167785218389e-06,1.5183873204831413e-05,0.0004209708721946586,0.0006750470679127579,0.0013452519681158399,0.007471618036868614,2020-05-01
308,AXL,-7.060168220056469e-07,8.042140342960281e-06,9.021067291879487e-05,0.00020534155809846173,-0.0033768703735985316,-0.0036930938872573676,2020-05-01
309,ALK,6.645299644549866e-07,1.1083542291567041e-05,0.00036002137630909654,0.0004924856379789788,-0.0031313527924005215,0.00046629437757428474,2020-05-01
310,OXM,3.273612049376602e-06,1.5691321503655166e-05,0.00030973211740098814,0.0006972274998526934,0.0008764665389362778,0.005111460519266947,2020-05-01
311,LAD,1.317505613040023e-06,3.8912772429960546e-05,0.00019306418660883302,0.0006048167270843239,0.0008911242484100445,-1.6981318140131412e-05,2020-05-01
312,JWN,-1.0137892521710313e-06,9.01907225548728e-06,0.00014114436779306199,0.00035672625904521483,0.00025444649958163064,0.004612634809641118,2020-05-01
313,RL,8.700308075935346e-06,1.9710408387326624e-05,0.0003084589026415308,0.0007795946244899634,0.001787391052510135,0.006361555815088683,2020-05-01
314,HBI,7.767931158961855e-06,3.428958370778946e-05,0.0005849181586437192,0.0007951963991917739,0.003501105905414039,0.0029512536826887146,2020-05-01
315,LC,3.4489675168888474e-06,2.5188930169025212e-05,0.00025266206293540294,0.0005638120855125558,-0.0008671424845207159,-0.0004606364574170088,2020-05-01
316,CC,-9.04666680708502e-06,8.536052065787174e-06,0.000124568829092842,0.0002923103560134223,0.0002978770788607368,0.006278566568920428,2020-05-01
317,NYCB,5.847924288741879e-05,3.917389740150097e-05,0.0004855925371593875,0.001341479153080828,0.005199623808660589,0.011178668255761104,2020-05-01
318,RAMP,-6.715870072771144e-06,4.343014830750616e-05,0.00038565239513068316,0.0008986855370673305,0.0008421248051415399,0.005519217664792875,2020-05-01
319,QTWO,-2.2032658956572846e-06,3.224415746593758e-05,0.00023809474862851587,0.0006672175688737275,-0.0008503385714097556,0.0001099277997902348,2020-05-01
320,SHAK,-3.5091600205168894e-07,3.8648155408267554e-05,0.00030524213854475906,0.000468271974831561,-0.00089833986134654,1.9008058591970046e-05,2020-05-01
321,NC,1.931052003336653e-06,3.42311145084958e-05,0.0006969024806833847,0.0007335419516373222,-0.0014286499043394004,-0.003528407274984501,2020-05-01
322,UVE,2.5820733048049413e-06,3.775246787609123e-05,0.00026445796675284006,0.0008090013825895205,0.0008294212486064496,0.002116931942280916,2020-05-01
323,AAP,4.626989528643813e-06,4.3634963982960455e-05,0.0006484671941264162,0.0009505931316436336,-0.004249568587283046,-0.0073663709693036735,2020-05-01
324,AGM,2.4082825586576715e-06,3.582797803198827e-05,0.0005272851851909893,0.0007805169691714811,0.0037800070960419085,0.006696470773306472,2020-05-01
325,FL,-2.0062113489997894e-06,4.957327694042141e-05,0.00042391346977437683,0.0005952217726557604,0.002170870765737935,0.004529672506155942,2020-05-01
326,HVT,-7.521227726962104e-06,7.497698689801766e-05,0.0007747952882473625,0.0009002417795269197,0.0031724558319887754,0.002998610401028339,2020-05-01
327,UA,-3.110246975347181e-06,5.287799425431241e-05,0.0002814794687885581,0.0006306202840929031,-0.003304883271501847,-0.003945682196204578,2020-05-01
328,CIO,1.567395224202421e-05,5.057476945298888e-05,0.0003548351713300555,0.0009912208547680817,-0.0017613455207577669,0.0030810889262396445,2020-05-01
329,MLR,5.1869339819856656e-05,7.447036653091945e-05,0.0007212357940925345,0.0014595534723353622,0.0007700519697402941,0.00012947331108954433,2020-05-01
330,ATI,-0.00012134449353339389,3.7294186937024595e-05,0.00011465854677795611,0.0003056600607185315,-0.005154498636505384,-0.0051424252644552675,2020-05-01
331,FEO,0.0008613532453950491,0.00035997659200068466,0.0016942092548388361,0.002950338269982345,0.0027814928453504645,-0.0017696868992184926,2020-05-01
332,ASR,1.105183331886963e-05,6.911365920891073e-05,0.00040907452970298443,0.001131057356599783,-0.0006329716242627645,-0.0009589209603093578,2020-05-01
333,HHC,-1.059460195312245e-06,2.929752427157429e-05,0.00021630560345363078,0.0004794592087413667,-0.0032760014500502923,-0.002302595087216214,2020-05-01
334,BA,-1.2282711698300917e-06,3.402142086534114e-05,0.0001531123432044459,0.00033415452479433003,-0.004279099473207546,-0.003966739713125453,2020-05-01
335,HP,-5.630581720204e-07,2.9073096185218963e-05,0.00010767588044502872,0.000297510706184529,0.0007179992682064596,5.7116700063734494e-05,2020-05-01
336,WSR,-8.287447227309655e-06,5.04681891904271e-05,0.0002542083242466075,0.0005164508970851221,-0.0028504344017575038,-0.003496631163926655,2020-05-01
337,CX,-6.0059736060074996e-06,5.232462119915039e-05,0.00024401102052557338,0.0005221035893139021,-0.00015073083046164348,0.0038721747079095187,2020-05-01
338,CTS,-3.819482711088677e-05,8.817160333851254e-05,0.0005695313354128165,0.0008797906133594048,-0.0021358085105957006,-0.005347244217699412,2020-05-01
339,DGX,4.957598149197549e-05,0.0002153503377513397,0.0005772516687115417,0.0012545513080654707,0.0006669964549760242,0.0001707635353205793,2020-05-01
340,SCI,5.730220259477614e-05,0.00022666543139460146,0.0008256081282678161,0.0013204688528404796,0.0008940441146876445,0.00021156307177547365,2020-05-01
341,NBHC,2.427779751177708e-05,0.00018814757104105803,0.0007038237443133966,0.0010865651160377582,0.0030712419982244104,0.002770635534501645,2020-05-01
342,RHI,2.6972206018343405e-05,0.0001955796373439553,0.000769663533531957,0.001129485808237636,0.002377091952499184,0.005736567271611393,2020-05-01
343,TRN,-3.971056140918557e-05,9.721873765383805e-05,0.000435060076503184,0.0009708308647793522,0.002124001630755335,0.003465885220172816,2020-05-01
344,GBX,-5.841819129418999e-07,2.7729575563267787e-05,0.00027274076324017185,0.000493154986305755,0.00039580814182734115,0.001111830970335875,2020-05-01
345,WD,-3.2312336535457495e-07,2.444109155039458e-05,0.00033994633592798106,0.00043467113808979386,-0.002838105242507543,-0.00441529472089302,2020-05-01
346,XPO,-1.6503535421654147e-06,7.699678511515345e-05,0.0002534348871730375,0.00045833435268768447,-0.004746765637303192,-0.00726263147627901,2020-05-01
347,NVRO,-7.442466689283187e-06,0.0001621150424292286,0.00028090268839974533,0.0006397859859098569,-0.0017365823733862943,-0.0008482337652909507,2020-05-01
348,ASG,-0.00026832734005711686,0.000214847595133785,0.0009355899711273264,0.0013931967845447356,0.001508299575736658,0.00213480982132969,2020-05-01
349,SSD,-2.9944062521890927e-05,0.00011948821819361472,0.0004976046197098383,0.0007748311135373105,-5.684116711881933e-05,-0.0011571279666359202,2020-05-01
350,MTZ,-3.8234141279486156e-08,4.098236559422464e-05,0.00035528217451717047,0.0005833322827026622,-0.0036861616103211437,-0.004848357829684059,2020-05-01
351,VST,-3.2282817619801935e-07,6.379405112767437e-05,0.000521549665802127,0.0009080278536288501,-0.0014724511907637913,0.0002538975672024827,2020-05-01
352,AB,6.197770754531848e-10,1.7277441692730785e-05,0.00015846844038715205,0.00044393280616959757,-0.004903658576874573,-0.003431292562005435,2020-05-01
353,FC,1.3108982627754552e-09,2.0087254557348137e-05,0.0001924201030618118,0.0005161291493542385,-0.00242223194349595,-0.0020506807083253754,2020-05-01
354,MSB,7.360648784273823e-10,2.9324893237718023e-05,0.00016759488089416658,0.0004209582371483481,0.0020714312181029145,0.0014263266149980927,2020-05-01
355,AZZ,-1.0265417168362608e-07,3.069056796616907e-05,0.0002823785746584819,0.0007882835752971531,-0.0010221193134717366,0.0005468743634856611,2020-05-01
356,SNX,-7.840624943501505e-08,2.85828931423024e-05,0.00028140190328437153,0.000734148198996758,-0.003498359029971519,-0.006063311811391912,2020-05-01
357,MTRN,-4.002019532087161e-08,4.292478407765597e-05,0.0002587200453286234,0.0006356464430744955,0.0015379970531691051,0.005034812849157704,2020-05-01
358,DECK,-5.171773693126579e-08,1.3954975651364641e-05,0.00023907835954461423,0.0006798653413727185,-0.0008134715266128259,0.0010054743878415903,2020-05-01
359,HPQ,-1.0922874014747683e-07,1.6644781686992477e-05,0.00026967165293635844,0.0008109086297542135,-0.00033687088214779174,0.0019392729391615828,2020-05-01
360,LW,-1.8566763186692825e-07,3.1816570617998295e-05,0.0004923768218067141,0.0008837254724205439,0.00031823475971411755,0.001666049516150242,2020-05-01
361,CHCT,3.1640212052487965e-10,1.3261451662769314e-05,0.00015698948378006328,0.00036161627707745163,-0.004573127867549373,-0.003783336504614356,2020-05-01
362,PJT,-9.87830875949338e-09,2.1815268639393117e-05,0.00019851675474730256,0.0005948637019104785,-0.005030081837130004,-0.0067766438206726546,2020-05-01
363,EME,-3.883908678035116e-05,0.00012039064323717012,0.0005066270225202074,0.0008637098836774037,0.0015116120299696423,0.0025475821622277612,2020-05-01
364,JOE,-0.00018328847365289619,0.00017848369702658682,0.0007090749083088673,0.0012804826774905926,0.0065759134945849165,0.011535368543069302,2020-05-01
365,FDX,-6.496498194655751e-05,7.476887643933764e-05,0.0010414295140323566,0.0009539553296231562,0.0012174138787746356,0.0032971134670009487,2020-05-01
366,DXC,1.5210815878046023e-05,6.446501119719104e-06,0.00013532203841649446,0.0002465125893261949,-0.0019852418942748655,-0.0047942825474176385,2020-05-01
367,GDDY,-6.614035755932221e-05,2.0799453913359308e-05,0.00046459092308130884,0.0007953659117609016,8.613421294644239e-05,-0.0022171988583028985,2020-05-01
368,PSTG,-1.0606241399056741e-05,2.3762055494011662e-05,0.00019948443787768676,0.0005440383121783545,-0.0008340880067719703,-0.00258027170902416,2020-05-01
369,HEI,-2.7492352246531955e-05,0.00010097659381687839,0.00028669130549134435,0.0007277736518950771,0.0006913066084592192,0.0037622152529921283,2020-05-01
370,CLS,-3.085646767992435e-05,3.284465123113388e-05,0.00035433801043852477,0.0005133826859150017,0.00034604675386214434,0.0031740065117833874,2020-05-01
371,CIB,-2.3591762593843404e-05,1.7735279945847335e-05,0.0002797505166692633,0.00048716453001266006,-0.008335754615871776,-0.010405333797195495,2020-05-01
372,EC,-1.7838176545871825e-05,1.657900939549932e-05,0.0001646582673809762,0.0004554033172803139,-0.006489461015048628,-0.009829978556898579,2020-05-01
373,MMP,-0.00014493756109666648,2.950000535185637e-05,0.00033718764811166386,0.0008100917508669318,0.0006666579523729988,-0.0008333274769286317,2020-05-01
374,UMH,-4.125582593676256e-05,2.2464250296112325e-05,0.0002560052457110281,0.0006168847645021008,-0.0027014641237064676,-0.0006008704487120199,2020-05-01
375,BAK,2.618525063122511e-06,7.63154685605465e-06,0.0001850004581804459,0.00020717881728726128,-0.00668442956953321,-0.004222190237805976,2020-05-01
376,EBR,3.892267878389408e-05,1.2190557998330522e-05,0.000190459629900302,0.0003309454080285339,-0.0022227411347326563,-0.000956873268489185,2020-05-01
377,STN,0.00015671957690803834,0.00019928774256044562,0.001154142535316431,0.0017186456874603803,0.0027001470192720978,0.0017284576379075418,2020-05-01
378,ABBV,0.00020020687355150132,0.00013036481112467025,0.0007467286384055831,0.0019331150824967887,0.0003425207195434071,0.0022118970458565815,2020-05-01
379,BAP,4.673281064893485e-05,9.165403506727981e-05,0.0005302682450439485,0.0013590921969795187,-0.0018940136125802326,-0.00685879122943392,2020-05-01
380,BERY,-5.289438379176772e-05,0.00016773173845185211,0.0013106389285136666,0.0012516574047111997,0.004755821523632418,0.0032343725239055298,2020-05-01
381,DY,5.497776128846003e-06,3.576379034846404e-05,0.00019382599348194315,0.00026687860880332786,0.001418992054758268,0.0035042350851943746,2020-05-01
382,JMM,0.0006471039289918008,0.00035213744200587513,0.0012649069557446396,0.0030224603584703175,0.00945151456575187,0.01277709248295255,2020-05-01
383,PIM,0.0004443366713777998,0.0003143673531141362,0.001404987178980371,0.002698272746494433,0.006717672995958098,0.006220256056336787,2020-05-01
384,JOF,0.0007016429033159548,0.00038159133836175466,0.0014651619454586133,0.0026470404598167604,0.0031153442912365,0.0025495592683056905,2020-05-01
385,NOK,-1.8098475038369523e-05,0.00016172755216974758,0.00039963803214621767,0.0011218791702619906,-0.0012082258724743055,-0.0050450086143445025,2020-05-01
386,CHN,0.0011711802777140117,0.00017225116354573205,0.001212664990297716,0.0031413333194965963,0.003416289237302642,0.00303989908495237,2020-05-01
387,CAF,0.0013279733274614498,0.00017696344610290855,0.0015667215972495951,0.0032272709114584104,0.005409440146516012,0.0059611965342163025,2020-05-01
388,LPL,-0.00036647252040692096,9.314670671803814e-05,0.000610759232173336,0.0009517025039941835,0.0006622687314053447,0.002073432969147666,2020-05-01
389,BRFS,-0.0002435745095474172,8.079771532587225e-05,0.0003709624693494276,0.00052521478764433,-0.0005212934476313553,0.001882088104408871,2020-05-01
390,PANW,-4.3412204577304e-05,0.00018770158731071425,0.00048395617311375425,0.0013585802808111576,0.0013831124468275807,8.534400531021005e-05,2020-05-01
391,VMW,-3.246436756195423e-05,0.0001714220771245184,0.00043959620915791435,0.0012407495163668568,-0.00039261049959529525,-0.0019338940917523228,2020-05-01
392,AYI,-2.829403794772619e-06,8.12252715145455e-05,0.0002962720519631456,0.0007873794812686374,-0.0019481662401000974,-0.004119312433794708,2020-05-01
393,CXW,-3.706011836473127e-07,5.396308762250903e-05,0.00024247036222476003,0.0005231060130375356,-0.007615792325867136,-0.010722187115633811,2020-05-01
394,MANU,-1.881828841096555e-05,0.00023039575151196168,0.0004879581087959926,0.0012853764610910674,0.002905735898168303,2.9795172187288264e-05,2020-05-01
395,HUBS,-3.1772971093592083e-07,1.7786051942642748e-05,0.00019409558327754446,0.0006293304584355076,-0.001645600364264585,0.001568609216741495,2020-05-01
396,SQ,-9.354684489596412e-08,1.3710309804633113e-05,0.00018506243820838613,0.0004851169659499238,-0.005804682820019067,-0.007673038851013636,2020-05-01
397,ASX,-3.9384085363599e-06,2.7959679491024402e-05,0.00038425258388936423,0.0009953824465386597,-0.0010114270625836686,-0.00039052444389616115,2020-05-01
398,STM,-2.1407657030123448e-07,1.8515323575547932e-05,0.0002942170808403663,0.0006591573442392342,-0.0016074075854230023,-0.0005689324296194625,2020-05-01
399,AFL,-7.143895996836166e-07,5.8971372738810894e-05,0.00023423051718784297,0.0006543155589380489,-0.0009033594624937867,0.003482562241511389,2020-05-01
400,FCX,-4.368242400759381e-09,1.2004285816974826e-05,0.00015827101051590174,0.00043809399697653266,-0.004087766648483868,-0.003650620840379587,2020-05-01
401,SQM,-7.45373827905774e-07,1.9092240686161566e-05,0.00025172244917216643,0.0006967674846271147,0.0015472780414942137,0.0037823762326911477,2020-05-01
402,F,-1.5826593920815097e-06,4.051149152155538e-05,0.00030220819025834564,0.0008355807365092838,-0.0007331894456732319,-0.0029994737133639425,2020-05-01
403,SUM,7.820696724303713e-08,7.03653701613294e-06,9.534630823468211e-05,0.0002533945615904478,-0.005323856418004081,-0.0035354761038950797,2020-05-01
404,AEL,1.53909164734303e-07,4.921616457869924e-06,0.00011935171578808264,0.0003095430440067208,-0.005977053765760694,-0.008731665407347164,2020-05-01
405,EVR,-1.0299563923083726e-06,1.0049947324805126e-05,0.0004040470406932718,0.0006320873057982607,-0.001727501142775955,-0.00038983801864237165,2020-05-01
406,BHC,-6.449439792603254e-07,2.9177452338614206e-05,0.0001717394245963305,0.0005979631909364088,-0.0024288145261108255,8.220463040332586e-06,2020-05-01
407,PEG,1.0572722338216208e-05,0.00014436301204213744,0.00047550450735761823,0.0015079155032710074,0.0019152629867945498,0.003942811204458087,2020-05-01
408,COO,1.3087885573067094e-05,0.0001518703923320387,0.000926289947968336,0.001586332370361512,-0.0008133211513331847,-0.0049207525163498704,2020-05-01
409,RELX,3.281023802709372e-05,0.00031788564075933444,0.0005943788889732615,0.0018848888446512816,0.0010176242120931967,-0.004226731077997374,2020-05-01
410,GIB,0.00030471347830797224,7.861348500488075e-05,0.0007183465830790655,0.0020275156085774186,0.0036523442655122763,0.006275327484329448,2020-05-01
411,JHX,-6.207280918780605e-05,2.4544527879003354e-05,0.0005531306233506926,0.000633026425132447,-0.003148373958766822,-0.007287445431809979,2020-05-01
412,CABO,1.329193653222308e-05,7.004819925225747e-05,0.0007319154733590526,0.0010927509906062146,0.002480229155616967,0.006704909385844728,2020-05-01
413,EHC,-8.900680918705305e-06,0.00015058527492592386,0.0006968017298823512,0.0013148317729225216,-2.100108443515817e-05,0.003667713617800048,2020-05-01
414,BSX,-3.333661969478944e-05,2.5612012991245664e-05,0.00039979278794381636,0.0012861459964228223,-8.435340690357209e-05,0.0023610071810884663,2020-05-01
415,TRI,0.0004054066065227225,4.521529631476698e-05,0.0009052436294270921,0.0022705545383014734,0.003971720388339127,0.007095445479097502,2020-05-01
416,MCD,-2.5652861429252587e-05,2.317731435659221e-05,0.000604460956490689,0.0011827402893672082,0.001386350504724013,0.001296309676156369,2020-05-01
417,TFX,-1.9633877891970158e-05,2.1941311092266296e-05,0.0004557254814907196,0.0011196669394520204,-0.00195871691792002,-0.00411770251918754,2020-05-01
418,CI,-3.594571120581878e-05,5.444038046247216e-05,0.00026595029277952094,0.0008376510277178163,-0.0025614031493518003,-0.0011956539348056433,2020-05-01
419,BURL,-8.360765938213243e-07,4.800563683397482e-05,0.00020477639074844778,0.0006415078249989135,-0.004531258052087136,-0.004843889037769195,2020-05-01
420,MODN,-6.203546529882858e-06,6.71841891547517e-05,0.00029961013508047855,0.0008977942154592556,0.0007041945344670579,-0.0006996217447244134,2020-05-01
421,AIV,-1.5617710681620686e-06,5.036904610473322e-05,0.0003592878447604889,0.0006617556846305021,-0.003385660586532893,-0.008907599576420917,2020-05-01
422,JLL,-2.5344365573521774e-06,3.2889926049972914e-05,0.00030106065441849896,0.000778277260913295,-0.004004161153056874,-0.011322898396619888,2020-05-01
423,AXTA,-1.7720372810758672e-06,1.745865878630688e-05,0.000455191054777915,0.0007269762162749803,-0.0002638321775114439,-0.0007728798927257707,2020-05-01
424,VLO,-9.609367763817697e-08,1.1266127899511137e-05,0.0001797486277432066,0.0004691200585740479,-0.0001579830356046506,0.0028935081393137853,2020-05-01
425,HI,-2.904176199899662e-07,1.8344866302728916e-05,0.00040235757520170663,0.0006388526434300893,-0.003288147518059272,-0.002996096953508729,2020-05-01
426,SXI,-2.837046610069374e-07,1.8249708004090347e-05,0.0002276624102330428,0.0006355387936790819,-0.001974142626503779,-0.001602236071928875,2020-05-01
427,BG,-1.4647495889385836e-05,3.113598387946372e-05,0.0005884469584633374,0.001082364320814654,0.0007847973503432583,-0.0007041684257028729,2020-05-01
428,KAI,-2.5386426234329235e-06,2.259653462540888e-05,0.0002567793564992362,0.0007855118035543108,-0.001351660349635436,-0.002889628312489795,2020-05-01
429,CMC,7.123553615233952e-07,3.492597071519426e-05,0.0004243210433777377,0.0006842247613654543,-0.0016347237570918177,-0.0030638108058223127,2020-05-01
430,AAT,2.4172216954154976e-06,5.4782488905551086e-05,0.00020430489411279806,0.0007113498062239585,-0.0010638785361729809,0.0005841885347992767,2020-05-01
431,PAR,-6.654329068059965e-08,3.054822115283957e-05,0.0001412838884304277,0.0003966681987564298,-0.0033860668897165895,-0.004061672176956698,2020-05-01
432,ABG,2.1166219077317102e-07,3.6107940472105424e-05,0.00018980601925615756,0.0004818277259890312,-0.0030355381205470836,-0.0052641561962217896,2020-05-01
433,DHI,2.4718211237656253e-06,5.26158791069162e-05,0.0004995429718930683,0.0007021111990750155,-0.0020775759484337876,-0.004297509442507277,2020-05-01
434,AEG,-1.6727896455938717e-06,5.263834853982196e-05,0.000492533674220797,0.0007059787191558771,0.00089630661748546,0.004786669623836011,2020-05-01
435,HST,-4.323708100015619e-06,6.35180173488e-05,0.00030342512754073895,0.0008518954293807766,0.002215813663050216,0.004927534811506991,2020-05-01
436,ENR,1.9393030287913683e-06,9.609099626441527e-05,0.00033024507593404655,0.0007207314845091112,-0.0017889972912447187,-0.0023625848741435935,2020-05-01
437,SITE,3.3190616083202354e-06,3.9571098824722885e-05,0.0003139337471662095,0.0005297989828459692,-0.0015401239446765748,-0.00046326387052509694,2020-05-01
438,TREX,3.8056413419731557e-06,4.07503990253462e-05,0.00018143800028159297,0.0005455880831064333,-0.004801164376763193,-0.006059674321571811,2020-05-01
439,SKX,-2.24623034612167e-06,5.686002036540773e-05,0.00023438226160550104,0.0007609400251151743,-0.00028606204378262885,-0.0012425590036878205,2020-05-01
440,WPP,-2.3085997591411596e-06,5.7196995459963754e-05,0.00023577130410424088,0.0007654496583384265,-0.0009384392019415524,-0.004824840486900701,2020-05-01
441,ALG,-6.161171761538412e-06,0.00011829825564305214,0.0006081191241852831,0.0008872972569650582,-0.0009560883392381029,-0.009485813329490639,2020-05-01
442,CNHI,-5.1167937469318706e-05,8.495751119042938e-05,0.00028560073969615275,0.0008121907228446342,-0.0017590035083006827,-0.0013074848675324168,2020-05-01
443,SCHW,-7.233038416213428e-05,9.263043609680085e-05,0.000276901785697483,0.0008855436064062762,0.002739093002428271,0.005991698393269691,2020-05-01
444,AMX,1.3056221372291725e-05,4.440906919074273e-05,0.0003908909075154477,0.0012467198310591424,0.002083221481073137,0.0036298083449921143,2020-05-01
445,KOF,0.00040140106718621277,7.022126773546214e-05,0.0006180912046164181,0.001971359648901707,0.002806446250439085,0.004911626440560533,2020-05-01
446,FMX,0.00021611802435242042,0.00010517066625757164,0.0007158427183447777,0.0016778680987618996,0.004081860266574454,0.008676343973716989,2020-05-01
447,BBD,-0.00014717107917892324,5.7999255036881206e-05,0.000343232146034181,0.0005197785472117856,-0.00043992538877923507,0.0015400685918753076,2020-05-01
448,APO,3.997124104095741e-07,1.4991591943929018e-05,0.00016444810308222603,0.00047492034782500555,-0.003757935959741114,-0.006830854129539437,2020-05-01
449,FLT,-3.246447695203113e-06,2.8683605388919716e-05,0.00030155808146399614,0.000908671200438955,0.00034101357062457475,0.0015273997584190169,2020-05-01
450,LDOS,-7.048398803914478e-06,6.488654408737502e-05,0.00037181677074864803,0.0011710936539503127,-0.0026743429172904234,-0.0034093972343902973,2020-05-01
451,AQN,-2.8509204382859358e-06,5.489833552004283e-05,0.0005530995463075402,0.0009804659354549481,-0.001028560190244784,-0.007092263628225649,2020-05-01
452,PWR,-3.5456569481872962e-06,5.779238175547009e-05,0.0003629621097794751,0.0010321526345613739,-0.00034458365250343554,-0.003506939688844328,2020-05-01
453,KB,-3.217418020871068e-05,0.00011317662569419077,0.0006199314930470396,0.0011045770122212902,0.0023491582954337335,0.0037243603686933856,2020-05-01
454,PKX,-2.295245617104179e-05,0.00010529673696143913,0.00034968671083902614,0.0010276711679299295,-0.00101701876223437,-0.0019480282376282514,2020-05-01
455,GE,-1.2504423093753958e-05,8.025983385788935e-05,0.00023186728445568242,0.0006986751032703483,0.0017452093524808583,0.005229893231143159,2020-05-01
456,MFG,0.0005315931610997746,0.00016211038366085434,0.0013968875192900498,0.0024754272457551607,0.0071813453695095154,0.012589821519914817,2020-05-01
457,NMR,-5.9737675926638066e-05,8.574164110890657e-05,0.0004739354561427614,0.0013092757521367864,0.00046767741183494706,-0.0018978673533435954,2020-05-01
458,DNP,7.842352105993675e-06,0.00014306941274918057,0.0005559882340566218,0.0013285185835845046,0.0006172257228141514,-0.0043586213926836825,2020-05-01
459,KMPR,2.638558000270908e-06,0.00010573119264170469,0.0009238065479932945,0.0009818021307972582,-0.0020359104698200576,-0.002546173148886537,2020-05-01
460,EL,-6.012418541938731e-06,0.00013810659761357065,0.0005510861735095579,0.001323981959828714,0.0011872171024986293,0.004752678804076591,2020-05-01
461,HPE,-1.0214593216784863e-06,9.68795383062129e-05,0.0005104187662274926,0.0009287518714555384,0.0023635068176538192,0.0031840553916536864,2020-05-01
462,HRB,-1.4958506410374557e-06,6.272674230770463e-05,0.00030818675073923234,0.0007015084305940421,-0.00015628411165580585,-0.0007498060300303943,2020-05-01
463,CNS,-1.5403070378135983e-07,7.321903066224009e-06,0.00015337814667234703,0.0004973093036396983,-0.007167168934871919,-0.011502475894694676,2020-05-01
464,FIX,-5.114065819405735e-07,9.158113915823187e-06,0.00019001607172046734,0.0006220261608133831,-0.0010885676793665642,0.0024970307748536065,2020-05-01
465,BHLB,-5.470178072104499e-07,9.068002802108895e-06,0.0002596290038608851,0.0006085460002984846,-0.00047989127662846875,-0.0004623158714028538,2020-05-01
466,CMP,-3.4696845729486214e-06,1.26919950474851e-05,0.0002738089986240425,0.0008517490554986357,-0.00016899065848246378,-0.0015634112743714073,2020-05-01
467,SMP,2.9420620737988594e-05,3.525110929865051e-05,0.0004647141543038656,0.0012851025550544774,0.002996984827936963,0.005817888423284607,2020-05-01
468,AVD,-1.2869484164634388e-06,1.017151086269079e-05,0.00019559617361753618,0.0006402928754578546,-0.003702596507747178,-0.0038341790723227095,2020-05-01
469,FSS,2.4729980167315845e-05,1.9025786678685683e-05,0.00042752485546971875,0.00119766628820379,0.0002785678272814905,0.0006827653536578062,2020-05-01
470,GOLF,4.2835360923419073e-05,0.00012748409152999664,0.000499610794424276,0.001412214691585676,0.0017981048341896462,0.005782000397339482,2020-05-01
471,GATX,3.615498558803776e-06,4.729622538681276e-05,0.0003394508800369355,0.0009089075661302365,0.0015634464425193818,0.004124503378997954,2020-05-01
472,TRC,4.147249771311393e-05,7.439293903703693e-05,0.0006171155554441506,0.0014296342806308004,0.004983569847431265,0.00697434522091124,2020-05-01
473,ABM,-3.4279374443751364e-05,7.876654559101773e-05,0.00047559763683636676,0.0008330603562251714,-0.004406848889624939,-0.005128579659600846,2020-05-01
474,BMI,-2.7612579726426694e-05,7.418566324768061e-05,0.00026667411002355434,0.0007846114690976244,-0.004131401849406712,-0.006076703077101998,2020-05-01
475,PM,1.0686410262232641e-05,0.00012743564568258828,0.0004251150984788519,0.0013676086673287025,-0.0023001697408259873,-0.002808535766563929,2020-05-01
476,POST,0.0003262379047942439,0.00020647262986010068,0.000781335989676757,0.0022158145521242157,0.0016082986709759007,0.003763413360359498,2020-05-01
477,IFF,5.416477049037681e-05,0.00019780304319651527,0.0007722318676653494,0.0012026741469256703,0.0005600659537804674,0.0037674893008438778,2020-05-01
478,EFX,0.00011198784459964803,0.000136592170443401,0.0005383393325468629,0.0014111861174257816,-0.001535539069129455,-0.004495568624131375,2020-05-01
479,GPK,0.00018060481050291203,0.0001573259268338302,0.0005701996644138225,0.0016253945093510408,0.0010392476935699288,-0.0017520513876915721,2020-05-01
480,AMG,3.2692668126533445e-07,4.56718308787341e-06,0.00030642306277310334,0.0007120611618572692,-0.0028771838815260966,-0.0031482941219908443,2020-05-01
481,NTB,2.3696079593564045e-07,4.2535489012834175e-06,0.00040065810666409414,0.0006631630294626217,0.003044951616337205,0.005586519857624017,2020-05-01
482,ARES,-3.4926798242163404e-06,4.714818508982409e-06,0.0002563687868730219,0.0007270440580865672,-0.0008693318721964562,0.0005138825015752957,2020-05-01
483,BK,-6.330006304361214e-05,7.327318750985381e-06,0.00041430518725917503,0.0011299021477626271,0.0013649694496915626,-0.0016435496943502934,2020-05-01
484,APAM,-9.701421762367168e-06,1.621940150380602e-05,0.00033164330060244247,0.000768297974828324,-0.0010394304521449563,-9.390084073225335e-05,2020-05-01
485,GTN,-9.8374690924961e-06,4.388026807184238e-06,0.00012508397689912787,0.00034590239359125825,-0.0016239010880278904,-0.0030467023361449414,2020-05-01
486,ENV,8.342126212725005e-06,5.382748172758259e-06,0.00023778545692516593,0.0007604479348014178,0.0010188405453625247,0.0039044746587643168,2020-05-01
487,ESE,3.451423706789155e-05,6.947670982310656e-06,0.0005205913004517264,0.000981532458998645,-0.0005302119050197466,-0.003496732146630827,2020-05-01
488,A,0.00011553110918568899,3.483396522696387e-05,0.0005150268483646552,0.001602115466823505,-0.000548895056132439,0.002172207621439725,2020-05-01
489,BBY,-0.0003739912263548821,1.119652326133021e-05,0.0004787731630635309,0.0008453243738535728,-0.0013302016995947262,-0.0003353472288979764,2020-05-01
490,HMC,0.00044083071380017594,1.5067407884037909e-05,0.0006857913830614547,0.0020236886402329357,0.004834755596648043,0.009190712543360274,2020-05-01
491,HSBC,0.0011239154279530578,1.8285883467198438e-05,0.0008356916298993897,0.0024559589103839785,0.00931226022515744,0.02391507733864552,2020-05-01
492,TV,-0.00019778691393735175,1.3558418112809152e-05,0.00020394669611843776,0.0006018223943052027,-0.0035897242648315108,-0.00827042435527345,2020-05-01
493,MEI,-0.00010666500105891254,2.0893518901709458e-05,0.00035052892367035484,0.0009908154534639816,-3.32843457933703e-05,-0.00012777478164749864,2020-05-01
494,HY,-7.03178401772197e-06,7.218738994920144e-06,0.00037366011948218505,0.0006110500284445202,-0.003554948659452183,-0.005593919129844891,2020-05-01
495,THR,-1.4077730838848759e-05,8.33500443395775e-06,0.0002475081097283006,0.000705539388532973,-0.0027714466080849625,-0.007039907749300472,2020-05-01
496,ACN,2.3939766525737813e-05,1.5068229088982444e-05,0.0007700135081035893,0.0012904910836435309,-0.0005520852808767619,-0.00317861468817305,2020-05-01
497,ALLE,1.77309568421036e-05,1.4189046611163667e-05,0.0006633756203812648,0.0012151950988386318,0.0018418686107281547,-0.0009501564475392254,2020-05-01
498,INFY,2.7173122698876747e-05,2.6970223942772313e-05,0.0007082438706802534,0.0012844314552742236,0.003572701295526881,0.004115327899735688,2020-05-01
499,EPAM,-3.967980086469377e-05,1.56456477386658e-05,0.00022792083941350664,0.0007065826342623439,-0.005334853761029714,-0.0031134185743572997,2020-05-01
500,SAP,0.0002328744619873244,3.7384316111124784e-05,0.0005446028730334979,0.0016883358873416212,0.0016632180761601198,0.004157276131203569,2020-05-01
501,BCO,-0.00015835997615852072,1.5268021504485486e-05,0.00046868023822214814,0.0007099409418924782,-4.5752010544752515e-05,0.0007554092814260404,2020-05-01
502,TXT,-5.48979478435902e-05,1.208373479698469e-05,0.00023209324519080096,0.0005618762104068259,-0.0009947752716713632,-0.00556266315161494,2020-05-01
503,SXT,5.363237261267977e-06,5.088585072895966e-05,0.0007298736675232501,0.0013443601654097308,0.0024891921095078974,0.007452024865459042,2020-05-01
504,CAT,-1.0512574665431137e-05,2.7900789931733964e-05,0.00045102843085094175,0.0013025542724052696,0.001364757247816369,0.00020826069799378174,2020-05-01
505,FUL,-6.257021539747716e-07,1.834100557895618e-05,0.000334078996671917,0.0008562537202542042,0.0002475129635608637,0.003591780106625531,2020-05-01
506,LNN,1.7092576269994517e-05,8.753543290727795e-05,0.00037254124196109645,0.0009656827318539203,0.0011008387330209357,0.0034034578523623018,2020-05-01
507,LXFR,3.815965856147431e-06,6.120790305746882e-05,0.0002604941503747102,0.0006752398779839933,0.0006264518573886891,9.85754133854646e-05,2020-05-01
508,ORA,5.009278724092869e-05,0.00011396583505664579,0.00048409050698691264,0.0012578617387516036,0.0038754073771563534,0.008674615494864464,2020-05-01
509,PRA,9.962991812786388e-06,7.82662807538241e-05,0.0003324501901053666,0.0008638392369581065,0.003285968713090759,0.005368598114835841,2020-05-01
510,MMI,-2.0954363301031243e-05,6.619228769665324e-05,0.0002546522749646338,0.0006818523475987115,-0.0011512889301497865,-0.0032374821280069977,2020-05-01
511,RLI,-0.00010167846049387399,9.712560510973233e-05,0.0006145997143456622,0.001000499063569378,0.0027580733366267328,0.010376710406576768,2020-05-01
512,MPX,2.0739541554028217e-05,5.588387080101354e-05,0.00011997241265092386,0.0003362010374523564,-0.0014151500404994525,-0.0018265021085219068,2020-05-01
513,HRTG,0.00011761228762512829,0.00010756166523855833,0.0004078390740900747,0.001152208216096932,0.0003229704735263592,-0.001509556834690545,2020-05-01
514,TG,-1.189319206116247e-05,5.4912690515707986e-05,0.00020821117640797636,0.000588228650419831,-0.004723967205742366,-0.0047885301333071735,2020-05-01
515,NFG,0.0001924110395959912,0.00023358540799874305,0.0008395147327549781,0.001441787833473837,0.0007206216501066269,-0.0007706991224588718,2020-05-01
516,AMRC,-0.000239815175812111,0.00011121443949806657,0.0004144839289254282,0.0006241987875699478,-0.0016072254509768764,-0.0028312767958845356,2020-05-01
517,ORAN,0.0015625101518714909,0.00045015479538766396,0.0026130584841811693,0.002526525141590653,0.0040028240259828655,0.0022592938741915324,2020-05-01
518,CIEN,-1.5079936363488827e-05,0.0005790238750914735,0.00044746020916041246,0.001028108880821252,0.001074753848568471,0.0032423811601619877,2020-05-01
519,TYL,0.0005016097048263259,0.0006706590837552353,0.0011172371509525997,0.002020127337522821,0.002868406592263575,0.005386669451404397,2020-05-01
520,AZN,0.0005828951253195512,0.00043220060955450804,0.0014995043115214918,0.002217124624778538,0.00031294808949013954,-0.0024045923343919587,2020-05-01
521,CWEN,4.254425055421625e-05,0.00012856356549658483,0.0007163314834859009,0.0011062106282684512,0.00037832075894015635,-0.003878278755945325,2020-05-01
522,HSY,0.00010597750661822258,0.00016966445857444503,0.0010633346138297574,0.0014598586044928025,-0.001671387499743586,-0.005701402993608308,2020-05-01
523,IDT,-0.00026696513646966183,0.00027135016769935604,0.0002357956350687907,0.0004790435860861002,-0.0007460554414615657,0.00022985251246943322,2020-05-01
524,NXRT,-0.00028170243749504886,0.0002774316225431174,0.00029148220049912563,0.0004897798312916085,-0.005435434837860291,-0.010462486139783256,2020-05-01
525,NOW,-4.763460236819573e-05,0.0001363766581830088,0.0005714151081528745,0.0009337221448997339,-0.0002906103828611851,0.0006928662748539861,2020-05-01
526,FMS,0.00031844175223266384,0.00020881573936008544,0.0009991207499969138,0.0024164890224169667,0.000952543804990731,-0.0042299002981279425,2020-05-01
527,PHG,0.00014767185004761557,0.00016624858493279605,0.0015693077055912435,0.0019238869718996255,-0.000816424669802522,-0.0035781733735070825,2020-05-01
528,BR,2.8782925220561267e-05,0.00023328577312938022,0.001287053369649664,0.0016116618926179513,0.0028910462003770786,0.0026810472236344597,2020-05-01
529,KEYS,9.884078843471085e-06,0.0001643230157007785,0.0004940824072558977,0.0011352305754973309,-0.0001527335287223815,-0.0007927806735291225,2020-05-01
530,BKI,0.00012372435396527806,9.507721139855992e-05,0.0009281025047947308,0.001964044184462493,0.004100180037061674,0.0038024405895548054,2020-05-01
531,WST,6.449805862603367e-05,7.871432145594208e-05,0.0007683750693973758,0.0016260300761386846,0.004853259290329409,0.011687094683092026,2020-05-01
532,CHE,2.0474686470342084e-06,9.934052373464336e-05,0.0007866973661577342,0.0012065704683847849,0.0011304947542519093,0.00042360408509875986,2020-05-01
533,VMI,1.60098452108904e-05,0.00016401136854047693,0.00047492854144171156,0.0011551812812966385,0.00012003343051884649,0.001188408735042033,2020-05-01
534,ROL,0.00012188166998523376,0.00012388355314018107,0.0011864153988946338,0.0018510037756162535,0.0009322172281016864,-0.0015670838833107918,2020-05-01
535,BMY,0.0007685906658883112,0.0001141356645053453,0.0012529189878354664,0.0029606237728384424,0.003090903825687391,0.0031991315876806637,2020-05-01
536,ABC,-5.520483930888623e-06,2.7469495856296897e-05,0.0009238753732029043,0.0012507133870774565,-0.004659696568937156,-0.009029002185764877,2020-05-01
537,CVS,-1.5223693665329004e-05,3.457140240839126e-05,0.0011300074942193722,0.0015740702351588675,-4.249245282933629e-05,0.0014492714977663594,2020-05-01
538,MCY,-3.414861698938332e-05,4.949280425884297e-05,0.0009625762339143778,0.0012960858868695396,-0.0024664278770415633,-0.007183473616953136,2020-05-01
539,AJRD,-6.435468892980534e-06,2.0184675912578337e-05,0.0003820168684175073,0.0009291897559911681,-0.00015633905747721965,0.00029682447663409965,2020-05-01
540,ORCL,-2.4896428347734473e-05,2.6901778444867627e-05,0.0005740273340855645,0.0012384076443525112,0.0007819895638799512,-0.0007556991849044861,2020-05-01
541,CL,0.00016985799709505055,2.5723305249808697e-05,0.0010010055063744683,0.0020091737364493676,0.00010534261271771699,-0.0011263669788329162,2020-05-01
542,UL,0.00029600141674798963,2.8796959914402865e-05,0.001351502129347606,0.0022492481035279767,-0.0009111894511092315,-0.0024599052020387226,2020-05-01
543,AEE,-9.80545007232929e-05,2.440180808729509e-05,0.0005299598203621762,0.0010637117834662367,0.001602493401787263,0.0021235170204593617,2020-05-01
544,RMD,-6.129708735964673e-05,2.0957028494796064e-05,0.000498651510643736,0.0009083803089181277,-0.0013957958281955263,0.0012831358115739904,2020-05-01
545,ABT,3.416176012889516e-05,1.9952119218131042e-05,0.0006388260699188083,0.0015292648693757244,-0.001558062183808246,0.0003696886312053848,2020-05-01
546,PFE,0.000296819263658944,2.8942444734198763e-05,0.0009266779143234502,0.0022183440005529684,0.0016431411398983044,-0.0005998716503862001,2020-05-01
547,MKC,-4.029959891922837e-05,3.258203193542923e-05,0.0006387159976202665,0.001415766683525208,-0.001083048362626849,-0.004606323725625394,2020-05-01
548,NOC,-4.397920493746374e-05,3.329863536758677e-05,0.0006049617063136601,0.0014469048048848297,0.002045220410431768,0.0025041236221988823,2020-05-01
549,GSK,0.00022456662841323932,5.2307962416536215e-05,0.0009950280023078826,0.0023512322718981086,-0.0004352644509268487,-0.006816301209163927,2020-05-01
550,CCI,-1.829953939311669e-05,1.4840137589102262e-05,0.000428143567242539,0.0011749940004288134,-0.0007257225026027585,0.0010162643462388627,2020-05-01
551,MRK,0.00017710760232490588,2.7171833000931933e-05,0.0007839176314699718,0.00215137767861356,0.00029301391123197763,0.002299224438384616,2020-05-01
552,BAH,-3.6078622652088415e-06,7.295521338692913e-05,0.001072705119740073,0.0018105797060810065,0.0008683940594978151,0.0003787611619825658,2020-05-01
553,BTI,0.00020398847941467284,0.00022835535731512732,0.0011179956932466776,0.0018349272908447895,-0.0018405818878869935,-0.0037000026832043117,2020-05-01
554,GFF,-2.5575634013839938e-05,4.99531767801831e-05,0.00013642594472146924,0.00040139389947336363,-0.0034195213560628424,-0.0013033037050030035,2020-05-01
555,PGR,7.240082538747064e-05,0.00018744736147002571,0.0010893569871323595,0.0016972525059453,0.00015247897014840334,-0.0012370274177049296,2020-05-01
556,SNY,0.00020578760560229553,0.00025233400552610247,0.000955280328674792,0.0022847722147472157,0.0003310104773684592,6.171024450563383e-05,2020-05-01
557,MSA,4.364127753456182e-06,6.19560151507574e-05,0.00034367690343177937,0.0008008700748080809,-0.0021658055540787805,-0.006996120945362956,2020-05-01
558,UVV,-7.932299784611995e-05,0.00014236662503063304,0.0007498971743945153,0.0018402921711640017,0.0021776003233974993,-0.0020522751985728826,2020-05-01
559,ALB,5.4975371381280995e-06,5.568831569509139e-05,0.0005419409619600243,0.0007513182359868579,0.0027006306645635967,0.0050894366054838195,2020-05-01
560,CRI,8.416276027582981e-06,6.265116149885076e-05,0.0003760275758569501,0.0008452573857246925,0.0017645909026620334,-0.00146384151917609,2020-05-01
561,CBU,-1.0571927097549972e-05,4.6272916505968943e-05,0.000483634594701735,0.001156997049013812,0.0018175126653681738,-0.00032223549704195787,2020-05-01
562,MMS,-2.7479105203784986e-05,5.7199664619602455e-05,0.0006623109545376243,0.0014302068718949881,0.003006987282460279,0.004909358690312916,2020-05-01
563,GEF,1.316460125015128e-07,1.6121180260007642e-05,0.000294393681786273,0.0007224595668984385,-0.000286900048229178,0.0005707875209181974,2020-05-01
564,TSE,1.6816910275499202e-08,1.144573067099359e-05,0.00021818681392617246,0.0005129325204504773,-0.0013141099428303493,-0.0022537440787840654,2020-05-01
565,MATX,3.1160011058123437e-07,3.417677205140942e-05,0.0005674560477946208,0.0008601068365656337,0.004310456140786029,0.006772535571958993,2020-05-01
566,MTD,-2.0408777066795182e-05,8.09112434938936e-05,0.0006598808672452338,0.0013348807194777206,0.000693325488284892,0.0008177277316114282,2020-05-01
567,MMM,-4.896159035218975e-05,5.7592034392885946e-05,0.0005798741362423348,0.0016647705048036777,0.0010161113305430817,-0.005414977835856998,2020-05-01
568,AVY,3.5101257704850595e-06,3.1962295285523805e-05,0.00032181721945396315,0.0009239105202322639,-0.0016554470955701557,-0.007577612475194669,2020-05-01
569,ATR,-7.240128819158086e-05,0.00019904982507126505,0.0011184438538735452,0.0018326370113033788,0.003789000239362186,0.011484209866501727,2020-05-01
570,ANET,1.1163796009209547e-05,0.00018787662584839512,0.00044911760825840286,0.000969833105159247,0.00028389075755340057,0.001599171205073242,2020-05-01
571,KNX,-1.7884188989428887e-05,0.0001559249012566792,0.0010153089572391219,0.0013226278716422523,-0.0014586421452457362,-0.004449994670052063,2020-05-01
572,UPS,-3.9414209147292325e-05,0.0002033271162534532,0.0008909594387651447,0.0017247156089248564,0.0023920453993727,0.004485325114381196,2020-05-01
573,DVA,-1.5608973199105918e-05,0.00015511785934671903,0.0005450561938633653,0.001322983975497697,0.001127034794437801,0.00022647715387345916,2020-05-01
574,WU,-2.072566521140559e-05,0.00017082130506862255,0.0008761868955356687,0.0014569170192985346,0.003066962466001113,0.0026669388842499166,2020-05-01
575,AVNS,-6.254324498104411e-07,6.952756180114948e-05,0.0002150546079665621,0.000561263980440626,0.001632717882825854,0.004229992595680159,2020-05-01
576,ROG,-8.425309256397102e-07,7.597677700468164e-05,0.00046959012115211637,0.0006133255241231896,-0.003392329122125106,-0.0031433050925744107,2020-05-01
577,TAP,-1.4974470872135489e-05,0.00027555929895601585,0.0010879908599580766,0.0013082783417853064,-0.0022746083650882786,-0.004397715972168368,2020-05-01
578,MAN,-0.00014625682849519776,0.00048288483280700917,0.000547825681383042,0.0009370211498594553,-0.0008509209581851792,-0.005934701566738974,2020-05-01
579,GLOB,0.00013895418738764655,0.00019511704529082618,0.0002393893538679689,0.0005810561968431881,0.002343243154530701,0.004342044297838652,2020-05-01
580,AOS,-0.0014618638895120537,0.0006980195783787596,0.0008594560688616637,0.002078693847225439,0.004210318590401006,0.009067072957609971,2020-05-01
581,KAR,8.426302647115582e-05,0.00021439802770207385,0.0002830872160588681,0.000548437539172476,0.00015499973729285867,-0.0006874976000290311,2020-05-01
582,HDB,-0.0017181411100934704,0.00011862369495544022,0.0006317982710604167,0.0008203590376757944,-0.0007387922017304114,-0.002213486497236451,2020-05-01
583,WNS,-0.0021397422392472067,0.00012442405343423042,0.0005125857529233308,0.0008604722418853108,0.00036021391811172105,0.005325338336048157,2020-05-01
584,NUV,0.019473994838694796,0.00149714502710282,0.0046409153684120585,0.005811403491504522,0.0099582026282604,0.01171020899227477,2020-05-01
585,PSO,0.0002996038735396833,0.0006503925502890985,0.0008939151081834085,0.001203234406781109,0.004597243198829726,0.003993112129152046,2020-05-01
586,ALSN,-0.0010926495483839732,0.00026960578260074557,0.0015747764782224705,0.0012860829018263805,0.004954767595949429,0.00950338715433629,2020-05-01
587,HII,-0.0014644805387892118,0.0002942085148970849,0.0005969847885573757,0.0014034437130052355,0.0011545854916881842,0.0018407057713009246,2020-05-01
588,DDD,-3.603524340093073e-05,0.00011456073903219041,0.000241088482068663,0.0005419331803453052,-0.0034983272552838577,-0.002685409310941624,2020-05-01
589,PRLB,-0.00039589895631669814,0.0001958211963188296,0.0005122165703233129,0.0009263383301871549,0.0004748268337254664,-0.0015743178624101311,2020-05-01
590,R,0.00027056006367768003,0.00024035502036632965,0.00023939734866542596,0.0006744776377148418,0.0006001032318988046,-0.0013400184828040508,2020-05-01
591,CHT,0.0457882150916946,0.00778202228435592,0.011135946712296013,0.013355844895219567,0.009715077121954662,0.011189199321299323,2020-05-01
592,BABA,-0.003232573429867303,0.0010126541903112444,0.0018739313939143264,0.0026420779925639157,0.0002585901193181025,-0.004311748156628335,2020-05-01
593,TDC,-0.0005096703282491879,0.000488579389376991,0.0010628583507510786,0.0012747341240907815,-0.001244052448739528,-0.008874166143806017,2020-05-01
594,DAC,0.00016969939234162527,0.0001839913138020507,0.00022896103127551364,0.00030818786719315547,0.0002673703744524248,0.0004909485102184045,2020-05-01
595,KRO,-0.0001363622750527527,0.00010842972444840689,0.0003007920712344732,0.0008474510130566108,0.0037995863632517045,0.004780054576699173,2020-05-01
596,OLN,9.08458990070202e-06,5.17299385347935e-05,0.00017229528461788226,0.0004043041614250922,-0.0012159176020092694,-0.002430351199190354,2020-05-01
597,GMED,-0.00047243654062648657,0.00028865949383455043,0.0008358055321767466,0.00133479028641598,0.0018343054659899992,-0.0010395829705092904,2020-05-01
598,MSM,-0.001252132536518929,0.0006551956932170787,0.0013370854118939346,0.0018060259060062127,0.0015765117092243533,-0.000690507987001052,2020-05-01
599,PRGO,-0.0004103201560088297,0.0005590038605818881,0.0006281326448744785,0.0010935908403706613,-0.0010017655208887288,5.986316373441844e-05,2020-05-01
600,MO,-0.001696678600478311,0.0005728667005582115,0.0012558999042191976,0.001775973012506049,-0.0010884955729832998,-0.0017490718716420516,2020-05-01
601,RCS,-9.016824799011082e-05,0.000261364518167759,0.00033625924433213747,0.0008102693527836151,0.0001197596649860204,-0.004237624415252721,2020-05-01
602,CCEP,2.509853394313737e-05,0.0005131688389235267,0.00038413618429591163,0.0009944435145553682,-0.0023775558925762125,-0.010408167496491701,2020-05-01
603,JNPR,-9.79244577263284e-05,0.0005619240499762975,0.0007692280864187162,0.0018402211830067076,0.0005031309461137363,-0.006766796619460359,2020-05-01
604,AON,-3.1735122434483606e-05,0.00025520533758931473,0.0006256127662709648,0.0013596553406585304,0.0019267389880880616,0.0024320136453687105,2020-05-01
605,SKM,-0.0001973332117333319,0.00044375745862480743,0.0012235270091135425,0.002364202897461414,0.001672879984251758,-0.0033641167804447933,2020-05-01
606,IX,-0.002191322803768666,0.0009325125176248813,0.0016133288060458362,0.0018036855275288838,0.0023013148940954978,0.0020753209136766264,2020-05-01
607,LUV,-9.151066502050517e-05,0.0004620438513893539,0.0006295128330458176,0.000893695035812834,0.0018561561946775864,-0.001977099689516353,2020-05-01
608,TR,0.0017407930108149134,0.004815349374241696,0.004855495611098073,0.0036691109024523695,0.007711763161246822,0.00973322486986298,2020-05-01
609,DG,0.0003562341643948896,0.0008080630250403151,0.0015215079053347961,0.0023258973598723146,0.0017880288600728136,0.00177906261953938,2020-05-01
610,WMT,0.0003353864379306502,0.0007970624767638303,0.0011943202931519491,0.00229423380715358,0.004354691872265773,0.008517474446556964,2020-05-01
611,AWR,1.3973644190623963e-05,0.00029035480243212817,0.00041689401007213004,0.0007837049625285887,0.0003644896169030181,0.0007378461604375769,2020-05-01
612,DEA,0.00015871164410359562,0.0005196524660126252,0.001500029260441009,0.0014026088530066964,0.005448237050003049,0.007320417246850721,2020-05-01
613,FDP,-0.00010453006894811945,0.00035789378522652386,0.0005998821835314677,0.0005811376147537236,0.004671474571250862,0.0005600253645086611,2020-05-01
614,KR,0.000469958011797739,0.0018825374288406525,0.007393005383186737,0.002346758183834594,0.0035383417387575963,0.0001887973942719076,2020-05-01
615,CPB,0.00014586026453103606,0.0001213506274940097,0.0012200242650973801,0.0024143669584814715,0.002423569234405994,0.0021057767229743242,2020-05-01
616,GIS,0.00013272363401390738,0.00011862231426392676,0.0025037836363780517,0.0023600850033640565,-0.0011828690744265162,-0.00665670631900844,2020-05-01
617,FLO,2.5046294270881195e-05,8.527709917659469e-05,0.0008440999015851628,0.001680685280471245,0.0018546395420139575,0.0008749738073579197,2020-05-01
618,HRL,0.00012895788256998524,0.0001211678440761723,0.0020512490208347274,0.002388038687661535,0.0005874385053024041,-0.003331902294477933,2020-05-01
619,CHD,0.00011289531384217212,0.0003425996201047195,0.0010679349558787073,0.0021263627178197985,0.002008813522180394,0.0026735173608493554,2020-05-01
620,CLX,0.00037766657554991033,0.0007552127102299586,0.0013863994044075372,0.0026632088578308097,0.0031776731719846654,0.0070638665292892845,2020-05-01
621,NEU,0.00029304502436943374,0.0010983835096663175,0.0014561343874516474,0.0022259622283380986,0.005154933200257315,0.007579006985221402,2020-05-01
622,SJM,0.0003198619239273647,0.0009807014674346709,0.0019034291081717553,0.0021280147743107146,-0.00039937484321913707,-0.0036201974460243844,2020-05-01
623,K,0.0003576524870589873,0.0010202930303762066,0.0011187367975718989,0.0022139241296806294,0.0023725599981027482,0.005737723295522125,2020-05-01
624,HE,-6.478274919770511e-05,0.00043730949312779753,0.0005186545392174862,0.0009750011427422419,0.004970398615696451,0.009795404761181844,2020-05-01
625,SCL,-2.8950940805499622e-05,0.00034477987815304564,0.0005196329304511965,0.0007687022131383557,0.0014195100859055794,0.002462219831320662,2020-05-01
626,EPC,-1.8914408675068808e-05,0.0008556212788308568,0.00034415151613188105,0.0004729854072249307,-0.003350927454693763,-0.0026867719014739486,2020-05-01
627,WSO,0.0007587178441670097,0.0038960792842707335,0.001567097062480665,0.002153743358708239,0.001638312796132478,-0.003831564382796636,2020-05-01
628,CTRA,0.00017212945826732134,0.0023926362862962403,0.001079453592270627,0.0009506805992858982,0.0014717855946545502,0.005975487937149668,2020-05-01
629,VGR,7.423762904915955e-05,0.0018295215834383913,0.0006492734753479697,0.0011339212509619515,0.0027099351230512464,0.002793522150269732,2020-05-01
630,NPK,0.0001438507594393781,0.001526742347494382,0.001051390047056876,0.0013940199176778868,0.002997299518104772,0.00026658101760755187,2020-05-01
631,TARO,0.0005180643888486529,0.0028219205605168603,0.0011970798710987528,0.002576605983269697,0.0032204874213596383,0.002217340414157862,2020-05-01
632,TBI,0.00019238816116707273,0.0033887415433548475,0.0009092036212477458,0.0014070276353275314,0.004207191121612549,0.0045090068595385014,2020-05-01
633,THS,0.00011824976188221895,0.0006017926198097116,0.000853520498478368,0.0015455908343501624,0.0006045189149381481,0.00015552882963922832,2020-05-01
634,WMK,0.00028395534172844905,0.0008608946379930948,0.0009373759354827163,0.002211045496443717,0.0037384440186013996,0.002509191159044273,2020-05-01
635,NGVC,1.0319220632430066e-05,0.0005796891848937307,0.0004937571703204662,0.0009482713397289413,0.00263133788866075,0.005072792510852864,2020-05-01
636,HLI,0.000348978725546685,0.002157998562316592,0.0011855871965961266,0.002276945889316411,0.006176724918872481,0.009866213296808797,2020-05-01
637,CAG,0.00021091672679463756,0.002458717350061593,0.0023290345177307305,0.0016122346399941197,0.0013126241520252054,0.00153454251671988,2020-05-01
638,GNE,4.443595537854206e-05,0.0015477927476830325,0.0004373580339908135,0.0010316229324693355,-0.0012388814312881617,-0.003707740796575978,2020-05-01
639,ODC,5.995331483747703e-05,0.001783305559385207,0.0007935122838761603,0.0011885951225807023,-0.00034870687964925963,0.001410181668628761,2020-05-01
640,VSTO,6.669778252445457e-07,0.0016227243877137035,0.0008268784910088261,0.0003332229441925314,0.0029481731197858007,0.0023697931295287578,2020-05-01
641,OMI,-7.693209398691471e-05,0.0008960279693218669,0.00031301094784331763,0.00022113216771221445,-0.0004880134127240526,-0.0012361487861540052,2020-05-01
642,RGR,0.002824693088107162,0.010509095311958934,0.004548758961517503,0.0025935563471155116,0.007487518966937511,0.002441133921186009,2020-05-01
643,CGA,0.00038104363356452,0.0034513078697504976,0.0010753361876709772,0.0005580335896836974,0.0008939783456507493,-0.0012927565812969756,2020-05-01
644,BGS,0.00033972789807210785,0.001727981296119777,0.0014596177713825588,0.0006107164608476342,0.0017662217946668277,0.004118805933020322,2020-05-01
645,CCM,0.0001683342124166653,0.001147578331644555,0.001362354811857339,0.0004055859741197194,0.0009005029255359198,-0.0007642301081841695,2020-05-01
646,RAD,4.0883163894732246e-05,0.0008097285983361857,0.0003934352612491594,0.00020416879266243752,-0.0008314361008736492,-0.0008650618937393238,2020-05-01
647,TDOC,0.00042938209015770624,0.003188187369257268,0.001659309153912079,0.000600707531037088,0.0019805690772388565,-0.0007188706532289755,2020-05-01
648,AZRE,0.0017375561022171038,0.011688422675523006,0.005745718006633612,0.0018553870921409752,0.008326949402772028,0.006912909887194987,2020-05-01
649,RRC,7.007273981741949e-05,0.0009425391338211182,0.0009408437245302602,0.0002894346151513583,-0.0010455391471728098,-0.0023795309457713383,2020-05-01
650,CNX,4.830976736780226e-05,0.0005190331492344565,0.0003125741367279586,0.0002752857276622117,0.0008083616920740573,0.0014256007700486628,2020-05-01
651,EQT,7.396670992646793e-05,0.0005820657179372573,0.000690095362770372,0.00030871705390286125,-0.0009463912757645295,0.00019443699902622924,2020-05-01
652,SWN,0.00032489684350225267,0.002431561887537183,0.0016090053871790483,0.00043578097022384346,0.00524108947498792,0.0023056787886362577,2020-05-01
653,EXR,0.0009338610501966801,0.0011190053036971663,0.0008196476816198635,0.0015742532992713458,0.0014822156135422633,-0.0005151939755564216,2020-05-01
654,LSI,5.408249360764457e-05,0.0005782092861360732,0.00042352605417209576,0.0008134437552365534,0.0004498725305135032,0.0032769040594316664,2020-05-01
