,Company,RCRP,"RCRP, no extended terms",HRP,IVP,LW,OAS,dateThru
0,AGM,-1.7921903950155271e-07,0.00021525378599046701,5.9056277644538957e-05,0.0002885285570648581,0.0010552489300086918,0.0008410032474336044,2022-01-01
1,BY,-1.1430705312881052e-08,2.198694299038553e-05,7.970128459310315e-05,0.0002339761627157997,0.0017885845801396546,0.0009371545301628785,2022-01-01
2,BHLB,5.1794867047687024e-08,1.0747927549050796e-05,3.9140747174148346e-05,0.00020181321137392342,-0.0007590809396475952,-0.002116741060372628,2022-01-01
3,CBU,-5.322983057099278e-07,6.861316147084745e-06,0.00013119219114851845,0.00039978721753665056,0.002531112018526063,0.002720367578813645,2022-01-01
4,NBHC,-2.616240840421427e-07,5.911523103231766e-06,6.680367944448999e-05,0.00034444577719229574,0.004574032443709547,0.005817635848149339,2022-01-01
5,OFG,1.6208887995839338e-07,5.5160035915312135e-06,3.6796499379084876e-05,0.00018037019299141268,-0.002433954151874285,-0.0039159615386744565,2022-01-01
6,BANC,-8.976416297223463e-09,6.241884467189411e-06,3.7998100263018595e-05,0.00020982198155418728,0.0006028355567248387,0.0019830781776939243,2022-01-01
7,FBK,-2.5597851427794524e-08,7.814410252185605e-06,4.757100933536046e-05,0.0002626826966134528,0.0016419341069824533,0.0022320326814144497,2022-01-01
8,CADE,-1.5685040640131773e-08,1.2069572298127605e-05,4.753801590063446e-05,0.00022957195765787566,-0.0016137423950931963,-0.0020957304933413006,2022-01-01
9,AX,-1.4566194217603165e-08,2.1033363567813896e-05,4.185861903362186e-05,0.00022609453391912862,0.004296483581660595,0.006737898028889354,2022-01-01
10,HTH,1.3111631659333244e-08,4.434909340290138e-05,5.446127847714553e-05,0.0002669599411694393,0.0024771518814530004,0.0028995393395856426,2022-01-01
11,KFY,-6.227677979288065e-08,9.478424646756151e-05,3.664621358848033e-05,0.00021605540422411394,-0.0005257467328537295,0.0007767581525931342,2022-01-01
12,BCS,-4.9721073542615155e-08,5.9684052800536356e-05,4.970342095426774e-05,0.0002575496210590056,0.0023985360018353706,0.002661092673870682,2022-01-01
13,ING,-8.817301548941964e-08,6.715465267289745e-05,5.740644945532957e-05,0.00028978687834848975,-0.0010891344762534061,-0.0015989864104093451,2022-01-01
14,AEG,-5.5788323272707316e-08,0.00010404241442884208,4.9720741857784525e-05,0.00025098954401195416,0.0015712465947297866,0.002910289754872588,2022-01-01
15,E,-3.7510715106924644e-07,0.0002773029970572934,0.0001563700324211922,0.00037963887092268945,-0.0010309054518330113,-0.0021411960819968717,2022-01-01
16,ACCO,-5.7021249447088416e-08,1.0341567234905652e-05,3.061351344184731e-05,0.000177010373547279,0.0004335119927634132,0.0012295968612400347,2022-01-01
17,KAMN,-6.937056215828884e-08,1.1114696751305401e-05,4.6243892977761665e-05,0.00019024356551806986,-0.003131428266160361,-0.0035588830142582006,2022-01-01
18,AROC,-4.5872385624483626e-08,9.550208685534306e-06,4.6887609511231986e-05,0.00016401259464595978,0.0017941885267420408,0.0030988887321785176,2022-01-01
19,KEX,-9.10412528428437e-08,1.2151435093863696e-05,0.0001075534278057563,0.00020868532448252523,0.0016288369494620828,0.002089690400062602,2022-01-01
20,ENVA,-1.7722021941920825e-08,2.226987825839381e-05,3.168041749253026e-05,0.00013385761285920038,0.00046011295188056486,-0.00018175647479199444,2022-01-01
21,ARGO,-4.0570833516043433e-07,5.4006350687356213e-05,0.00011547430862279228,0.0003292258525123538,-0.00023705060532007265,-0.0008708492500363764,2022-01-01
22,HNI,-9.013072473882063e-08,1.3035938293985934e-05,4.1193965429457044e-05,0.00022675116640448294,-0.0001748405756142896,-0.0003715785433409548,2022-01-01
23,SCS,-8.757342612718839e-08,1.2935158845783585e-05,3.8912887352253514e-05,0.00022499817732812114,0.002045689168098942,0.001255028375952236,2022-01-01
24,AZZ,-3.4890267304905466e-07,3.2661707518080965e-05,0.00011664324657168863,0.0003283308977950625,3.551932041644803e-05,-0.0011701310300558532,2022-01-01
25,AXL,-8.318150231585408e-10,1.6226685674059882e-05,1.8516487097186943e-05,9.645581355377163e-05,-0.0029352445501262554,-0.0032908928058961286,2022-01-01
26,DLX,-4.78592579950454e-09,1.6210986276608715e-05,5.644636849025572e-05,0.0001591694116485833,0.0009729054306438164,0.0007324918378446049,2022-01-01
27,KOP,-3.697763680894909e-09,1.4824779753436301e-05,3.067722711168894e-05,0.00014555878531456742,-0.0031156261824317757,-0.004108933617036497,2022-01-01
28,CIR,2.510761368182282e-07,2.4724487565694167e-05,4.5953506662187484e-05,9.081612099490755e-05,-0.0018634404642827733,-0.0018925820886750739,2022-01-01
29,B,-3.2592182380263434e-08,4.45514968593565e-05,7.638065201164999e-05,0.0002483669046120125,-0.0024388900463288873,-0.0032325404166044245,2022-01-01
30,NGVT,-2.4396651116677155e-08,4.007420131104622e-05,5.427405439886803e-05,0.0002234067547908415,3.4079577886638014e-05,-0.0006821423918037698,2022-01-01
31,TPR,-1.1898563096210018e-08,4.624803375159705e-05,3.64511490952967e-05,0.0001579709078858406,1.0454409719648258e-05,-0.00013317484512206706,2022-01-01
32,DCO,-9.175238351782252e-09,1.4370073674690768e-05,4.747419573610048e-05,0.00016990653117221236,-0.0037302728500523546,-0.004573710693059064,2022-01-01
33,HI,-6.170991212109436e-08,7.800065332391291e-06,7.289639717391054e-05,0.00026206328268247773,-0.0015532592679816755,-0.001488375082082926,2022-01-01
34,NX,-3.161787164776832e-08,6.330748518273832e-06,3.518772095618066e-05,0.0002126978003179687,0.000320782655283651,0.0012599217067382417,2022-01-01
35,PLOW,-5.848858344657995e-08,1.2406652317619005e-05,0.00011525742457335983,0.0002484824754960748,-0.0001856673217624868,-0.001932867129398046,2022-01-01
36,ENS,-4.632407151948724e-08,8.596178277783665e-06,6.474239759865304e-05,0.00026219969280670313,-0.00204766511030239,-0.0020470609820264335,2022-01-01
37,RMT,-1.2147855928259453e-06,1.6697882327302867e-05,0.001174053919968187,0.0005093169866028077,-0.0009907780738393902,-0.0008077325667209321,2022-01-01
38,ESNT,-1.5377747476306116e-07,1.435816734339324e-05,8.81749526841911e-05,0.00026473468990366266,-0.002360994110162528,-0.002382848780769841,2022-01-01
39,NCR,1.1822253936054445e-07,1.1973036423674485e-05,3.3234567443214704e-05,0.00013459639583004643,0.00025954818762262015,0.0012879220878436008,2022-01-01
40,KBR,-1.8558633239324563e-07,4.6254367861375985e-05,8.747773895039544e-05,0.00029384378172211777,-0.0012410764304630023,-0.000961817343373592,2022-01-01
41,FOR,-1.2660152260562072e-07,2.5738087248278433e-05,8.704293551461026e-05,0.00026744100807166117,-0.0013454205150637895,-0.0023128290531233718,2022-01-01
42,JOE,-4.656081944013802e-08,1.8318235314276118e-05,8.244561262657916e-05,0.0001903423230827533,0.005553799228278613,0.006461841638966315,2022-01-01
43,TRGP,-2.2786589732925535e-08,9.01658517836855e-05,4.260042331153173e-05,0.0001735493906660349,0.000264407376602114,2.6976021231488082e-05,2022-01-01
44,ATI,-3.201121613695066e-09,2.2261317991381767e-05,3.406073366850085e-05,0.00011885067280394221,0.0008917346810850613,0.0020886460756936683,2022-01-01
45,CRS,-2.0740784918403437e-09,2.0303924428099772e-05,5.718760243550021e-05,0.00010840036873711939,0.001204284413215028,0.0023583251306261888,2022-01-01
46,IPG,-6.327686268092781e-08,9.504221773977802e-05,8.273307660189064e-05,0.0002843068503019762,0.00032316400599742583,0.0005547340088279519,2022-01-01
47,AIR,1.0112306751303593e-07,1.1010419122399909e-05,4.073202178114014e-05,0.0001637643344419072,-0.0025757495861042936,-0.002196948155359731,2022-01-01
48,TGI,-2.196651781460775e-08,3.7399039982285357e-06,2.8055529972539173e-05,5.5625756144061044e-05,-0.0009180836892997906,-0.0003238479439560881,2022-01-01
49,ALK,6.014646833307017e-08,1.831207708571852e-05,3.479718850828599e-05,0.00016183159043556782,0.0019618911873456437,0.003243178098355237,2022-01-01
50,BA,3.589261749360261e-08,1.860180163636643e-05,6.038463725199884e-05,0.00016432249981865855,-0.0017592205522223836,-0.0013898477756996532,2022-01-01
51,HXL,1.679657951445719e-08,1.5739747676273524e-05,2.9896520348941733e-05,0.00013904000995386374,0.002656500621521007,0.0032006967883200796,2022-01-01
52,CHH,-2.339537662335954e-06,4.400824351729751e-05,8.147877707536575e-05,0.00036774670005900085,0.0028950499507370965,0.0037862466378596436,2022-01-01
53,IHG,-9.559781663880593e-07,3.50436502191679e-05,6.488133894715403e-05,0.0002928357438545702,0.00038197627704724145,0.001453295580844949,2022-01-01
54,RHP,1.4487434102358343e-07,1.495183742574047e-05,2.747444356004755e-05,0.00012419864422187282,0.0019945375524285662,0.0025101035182216623,2022-01-01
55,HGV,2.0230085132113022e-07,9.680011892863336e-06,5.3968224233408014e-05,0.0001438491349771237,0.00031439309285665124,0.0011113918626044304,2022-01-01
56,VAC,4.5447804475863826e-07,1.1386795777900131e-05,3.8472798958189335e-05,0.00016921267669306404,-0.0002240167218572582,0.0017727712623753728,2022-01-01
57,PFGC,9.996381562661603e-08,9.055807172798028e-06,2.9910545172700962e-05,0.00012472705978807416,0.0021872433717739204,0.0031046620951901836,2022-01-01
58,SYY,-7.64034209129345e-07,2.1086025852559826e-05,4.896691950123398e-05,0.00029042115816082457,0.0002016442150569306,0.0006269306337441087,2022-01-01
59,DRI,-2.234669634381809e-07,2.6287231551653368e-05,3.7621178824309504e-05,0.00021382625392475126,0.0029171306024999067,0.003061939559307568,2022-01-01
60,ARMK,-2.729276819075689e-07,4.611211213884205e-05,5.192611614915545e-05,0.00021653205436754507,0.002592938627842667,0.003297103723701384,2022-01-01
61,AER,-2.383524885784991e-09,2.7835005126322266e-05,3.097918410466553e-05,0.00012455275345067473,-0.0006939909392615817,-0.0010663183472348929,2022-01-01
62,AXP,-6.558496707505497e-08,5.517047657358159e-05,0.00012663107474440374,0.00024687025331018717,0.0032263560908621608,0.005307577332854008,2022-01-01
63,AWI,-1.2209305997352987e-06,0.00012225434469545317,9.701169263836155e-05,0.00033238308661999856,0.001728231048255821,0.003090394946944024,2022-01-01
64,AIN,-3.4147083115013193e-07,5.18873041091567e-05,4.12772833183509e-05,0.00023460633451630268,0.0015790339401724454,0.0019193753568890345,2022-01-01
65,CW,-1.3712013820944213e-06,7.825252573208286e-05,5.965564173323837e-05,0.00035381561142635714,-0.00015209255169957398,-0.0003573242354926054,2022-01-01
66,HHC,1.365406588912521e-07,8.485773598813227e-05,7.283730574184732e-05,0.00023070980652329604,-0.0021229321518649855,-0.0014008850214467354,2022-01-01
67,VVI,1.3038969173976094e-06,4.165401304648222e-05,2.5748524715148923e-05,0.00011324824046939884,-0.0008116399647603053,-0.0016691376825169282,2022-01-01
68,APLE,3.4044890419686724e-07,9.768599434674406e-05,5.2054633951639705e-05,0.00023531377252935097,-0.000676930031492734,-0.001483659031019792,2022-01-01
69,JLL,2.4458606638216307e-07,8.654801488234954e-05,5.9838098865525784e-05,0.00020848372402907213,-0.0016985411705149364,-0.00346583342660042,2022-01-01
70,ALEX,3.9686060885903477e-07,9.499299065449712e-05,5.955413422374125e-05,0.00024227017687181935,0.0005710616978332304,-0.00043023139915372444,2022-01-01
71,KW,-2.1133387067733514e-06,3.2502935898722014e-05,0.00010861074372833752,0.0004697988944644689,0.0005231945152068466,-1.3001844261084708e-05,2022-01-01
72,WSR,-1.4625259038754338e-07,1.8119951757436162e-05,0.00011584200488642427,0.00026190659606622606,-0.0011259312593618399,-0.002636075514857905,2022-01-01
73,BFS,-5.281814310863427e-08,9.286876020896716e-06,5.3540102914777265e-05,0.0002599868328513255,-0.0009228906192735365,-0.0013262484609457893,2022-01-01
74,AKR,-6.125033175932504e-09,2.186580348262784e-06,4.8528210262963575e-05,0.00019562738224818252,0.003779475050016625,0.004787102810282239,2022-01-01
75,AAT,-7.036550143212401e-08,3.1611152098957226e-06,7.015670093859075e-05,0.0002828163593385109,-0.00011718071969232829,-0.000544727729031371,2022-01-01
76,UBA,-5.695244010632182e-08,5.278337727439863e-06,5.454239794315218e-05,0.0002648539043701197,0.0002574943525780555,0.00030235698076617454,2022-01-01
77,EPR,2.1402134947710413e-09,5.15232487695737e-06,3.1236938328934704e-05,0.00014021258853767497,-0.005455763059016198,-0.006031255659175727,2022-01-01
78,SPG,1.0346549170981831e-08,7.148704119214576e-06,6.361513824167444e-05,0.00019454097580836777,0.0020514369696565185,0.003334871117784822,2022-01-01
79,GNL,-8.8858486499584e-07,4.352779523546412e-05,8.249293985954239e-05,0.00035682558296509835,-0.001419037851393026,-0.001230689366787953,2022-01-01
80,CUZ,-2.3366274223238672e-06,3.2164134715938016e-05,0.00014061938465716536,0.00044540734582718724,-0.0020074153838078156,-0.0028062751123515838,2022-01-01
81,SLG,3.3205699112779897e-07,1.3339675524331521e-05,4.115401597170903e-05,0.00018472716651519961,-0.004488637130057523,-0.00588149507571356,2022-01-01
82,LADR,-2.1164825534724339e-10,8.47356080222925e-05,4.733419601874144e-05,0.00021501744831960433,-0.003774847626477745,-0.0038584349728889057,2022-01-01
83,ARI,-2.6542798024049138e-08,5.366112729373667e-05,5.350233085442541e-05,0.0002430364435664004,-0.003713272231363116,-0.0050703363981724325,2022-01-01
84,STWD,-1.4705329597902127e-07,7.250404123421496e-05,7.597774796556142e-05,0.0003283778260806681,0.001593010244411825,0.0019151678980716387,2022-01-01
85,NLY,-3.66192724216771e-06,0.00037761598322261767,0.00012353856352494735,0.0005339369225031356,0.005045300929225872,0.0063284623334328195,2022-01-01
86,CBRE,-7.122741020501433e-06,0.00015256577905851113,7.909456408917282e-05,0.0002755757549855435,0.003012014482728831,0.0025791479466318276,2022-01-01
87,CNS,-1.0365511460086556e-05,0.0001776608738452948,0.00011519763387860705,0.00032090439771904574,-0.004283701561648421,-0.005109004855797904,2022-01-01
88,AIZ,1.3655054542405796e-05,5.8248951095750736e-05,0.0001564344953749894,0.0006093413160060582,0.001755032370690403,0.0011469133634637446,2022-01-01
89,THG,5.373455134276612e-06,4.439693516571165e-05,0.00011923325687749383,0.0004644356059912621,0.0017379991073567063,0.003012776594530706,2022-01-01
90,CB,2.6395996785787497e-06,4.004947624619784e-05,9.530864199660792e-05,0.000431628485218856,0.0010249964675505103,0.002915961758357609,2022-01-01
91,WRB,3.067028473298533e-06,4.1633815302122655e-05,9.907900850412792e-05,0.00044870351168307417,0.0001240629799571882,0.0008410567571931042,2022-01-01
92,GD,3.430332129889696e-05,0.0002115262518714101,0.00021712099192112798,0.0007333997628554829,0.0018836166501680401,0.003157940288578594,2022-01-01
93,BDJ,9.829660577237808e-05,0.00018515899146307821,0.00018087518615160706,0.000962851213037415,-0.00013029803727712772,0.00030608010774281887,2022-01-01
94,PRI,-4.869775304264514e-06,5.884291719611851e-05,6.305316664387881e-05,0.00030599094191026963,-0.002354946709219366,-0.0037815108826710396,2022-01-01
95,AGO,-1.7140417439575974e-06,4.838615563138231e-05,7.230717388539333e-05,0.0002763226479054806,-8.242584998965574e-05,0.00042132652285311044,2022-01-01
96,ORI,-2.6666495794712154e-06,5.558614823414877e-05,0.00010021128479422522,0.0003174402154190678,-0.0010928762042260402,-0.0006396276108977884,2022-01-01
97,GS,-6.830447576440003e-06,5.2358204134074643e-05,0.00016348708408327152,0.00036167478295757815,2.2567651733387143e-05,0.00011407052371422936,2022-01-01
98,JEF,-3.342531237929577e-06,4.3278045645665614e-05,9.849721728972806e-05,0.0002989517693472147,0.001320843094106349,0.0019530886790353576,2022-01-01
99,AIG,-7.7350808370224e-07,4.212639707448066e-06,5.28485830037561e-05,0.00025970115238972577,4.6248241790288016e-05,0.0007375453318026712,2022-01-01
100,BAC,-5.051488456044919e-06,5.767985791444358e-06,0.0001275991329069464,0.0003555852531981889,0.0026065134000891055,0.003721524888855013,2022-01-01
101,AMP,-4.376332961712622e-06,9.829975965738688e-06,0.00014525420668215855,0.0003389618350176834,-0.002785940718270557,-0.002874370004928632,2022-01-01
102,STT,3.4417484433828573e-07,1.3398612576332282e-05,5.1812682666932225e-05,0.0002546106751064476,0.0007376407372904694,0.000696691749135163,2022-01-01
103,AFL,-3.4329402599724266e-05,1.4651089385751888e-05,0.00018829766179315104,0.00047206020715465904,-0.0018304151515442916,-0.0023171719882213292,2022-01-01
104,UNM,7.19062615359308e-06,5.739680315732137e-06,4.804087844789023e-05,0.00018493332526392075,-0.000941991992321537,0.0006067509348893709,2022-01-01
105,CNA,-2.1174321701994966e-05,2.5015534484213348e-05,0.00012213366469825777,0.000470153449916973,-0.0008392663426266227,-0.0018776842896448772,2022-01-01
106,ASB,1.1393488150438317e-05,1.2834003547873557e-05,4.442129828054437e-05,0.00023993655220099728,0.003712570060371411,0.00504884507151071,2022-01-01
107,WAL,2.545220670795173e-06,9.70695055472062e-06,3.757848698790099e-05,0.00018147511334225242,0.00045748081191664174,-6.687381344712516e-05,2022-01-01
108,GE,5.321912251525592e-08,3.747211146517106e-05,7.268585241510066e-05,0.0002471974082685871,-0.00043116871376264085,-0.0011700741028130514,2022-01-01
109,LYB,5.3906073354863474e-08,2.2601101668858864e-05,4.97903774089657e-05,0.00026339219141105605,-0.0014635758818940876,-0.00045726560266729556,2022-01-01
110,WLK,1.3833949213408618e-08,1.711715460098616e-05,6.211227062395e-05,0.00019948252643311182,0.0015340561332307034,0.002241092025434835,2022-01-01
111,ALLY,1.942526480750112e-06,3.150749386684882e-05,5.2951115382404635e-05,0.0002191566621973666,-0.00038641716354941827,-0.0011635309794700182,2022-01-01
112,EVR,3.479239842376572e-06,3.662379494840838e-05,5.637093173421751e-05,0.00025474411553687634,-0.001478716683093453,-0.002365050340489106,2022-01-01
113,APAM,-1.2002712440578195e-07,9.147009290278584e-05,4.5737259633257025e-05,0.00018929960373619922,-0.0017918012145563234,-0.0004279467692366977,2022-01-01
114,IVZ,-1.0610832417149495e-07,5.22362888107427e-05,6.250963659040957e-05,0.00018488593631776361,-0.0030928424617715626,-0.0032481783188063698,2022-01-01
115,JHG,-3.173397367737229e-07,6.988747240148551e-05,5.473712069784548e-05,0.00024736081115267114,-2.4776260569435154e-05,0.00062984690821552,2022-01-01
116,APA,-6.22990734610143e-06,2.4028104639228435e-05,2.4144114066481356e-05,7.233564041853682e-05,0.0007428097048843691,0.0007845622209243395,2022-01-01
117,BCX,2.656700961633272e-05,0.00010345244225010978,0.00022882135642234014,0.0005298873179795477,-0.00041825529618749925,-0.0008868397143693487,2022-01-01
118,CEM,-4.125356979425397e-07,2.3212553639245852e-05,5.085840919222855e-05,0.00020719150748828023,-0.004098054359464654,-0.0034086495755434247,2022-01-01
119,KMI,9.369689520170759e-06,4.136295110378844e-05,8.66436138837061e-05,0.0003691990259472539,0.0012999243426159584,0.0020029076794392106,2022-01-01
120,EVT,7.29782712156869e-05,0.000303807531164142,0.0002254659817802227,0.0010387829246905798,-0.0031180059603897426,-0.0044289589498269525,2022-01-01
121,HIE,-2.082412952436574e-06,0.00015605233559446192,0.00020262574498232987,0.0005335763104767434,-0.003326246833783095,-0.0028077133031779705,2022-01-01
122,CRH,-7.645800067672609e-07,0.00020874284353529336,0.0001427035690892064,0.0004095099672060347,-9.485555749171849e-05,-0.0005851721985668084,2022-01-01
123,UBS,-2.571019397969507e-06,0.0001484072399647538,0.00011493867629974592,0.0004934963962241258,0.0003851803921274274,0.0008812119521125687,2022-01-01
124,BNS,8.958466210879004e-06,3.724797753901995e-05,0.00015336884886047207,0.0007506294332019603,0.0032102322375668914,0.0035147742152623674,2022-01-01
125,TD,5.7778415287869985e-06,3.4020546443358955e-05,0.00021516605875793461,0.0006855895321362839,0.003593653171880396,0.0045784681803080676,2022-01-01
126,BMO,-6.140935834218076e-07,2.872140278254054e-05,0.00010781331128999346,0.0005735461448477217,0.003271685348907384,0.004105873306549113,2022-01-01
127,RY,3.160121578789375e-05,4.6369636575236184e-05,0.00019672328087724534,0.000925968919313493,0.004406046443494493,0.0060761365723697724,2022-01-01
128,MFC,-5.239035961995589e-07,4.1191847405504605e-05,8.471169388102518e-05,0.00041460238657291184,-0.0022946920450936854,-0.0032045903076287113,2022-01-01
129,SLF,3.1395982502774376e-05,8.777235348141464e-05,0.00016606659880881642,0.0008834424654538004,0.0005629366526338965,0.0012562014149816493,2022-01-01
130,AGCO,-9.581300773678041e-08,8.680194941232016e-05,5.594627606997426e-05,0.00021241305304638047,-0.000527548603680953,-0.0019779479902263726,2022-01-01
131,FLS,-1.1184526406515511e-07,9.18911364581869e-05,0.00012941252190728028,0.00022486680282107402,-0.0009980466699808456,-0.0018688054313833423,2022-01-01
132,CNHI,-1.1202710798405329e-07,9.042090722199624e-05,8.685705442970355e-05,0.00023010626395415405,-0.002176928710762657,-0.0031107738015436893,2022-01-01
133,APTV,-9.008541921788853e-08,3.1382081009186025e-05,7.760712884962545e-05,0.0002445352781055035,-0.005458587433350488,-0.007349494122086397,2022-01-01
134,MGA,-9.128440745120873e-08,3.150596293337293e-05,4.9186694091654154e-05,0.0002455005901501199,-0.0031091667331231915,-0.004809080580689369,2022-01-01
135,DAN,2.5164187526290438e-09,8.418570945309256e-06,2.0839753521850597e-05,0.00011861162823924598,0.0020695874326110285,0.0021431950948099746,2022-01-01
136,LEA,-5.4713392317829077e-08,1.552380611708709e-05,3.842840967935886e-05,0.00021871929713249288,0.0025068961049510307,0.0025102693407823037,2022-01-01
137,BWA,-1.0822004045610865e-07,3.232577433188546e-05,5.055792186780509e-05,0.00026336558655815556,-8.566032991827636e-05,-0.0012695756519232179,2022-01-01
138,GVA,-6.241393620761137e-09,4.521928616190464e-05,4.428960659413458e-05,0.000187134560791751,0.0020530652249459136,0.001857307341672412,2022-01-01
139,SUM,-4.237062849883e-09,3.8647662494184014e-05,3.725081144260783e-05,0.00015993868900499974,-0.0005037352353690474,-7.26554608767675e-05,2022-01-01
140,TRN,-9.553718966316584e-09,8.134398233757189e-05,5.538945592126795e-05,0.0002116714055297972,-0.0010729948576743544,-0.0016932606042797606,2022-01-01
141,R,-2.302079755831916e-07,3.369719853716806e-05,0.00014377340782875913,0.0002473143555889547,0.00046299208130441336,-0.00024288200276426973,2022-01-01
142,RS,-4.6744962167225614e-07,2.500669029964821e-05,5.714579659015584e-05,0.0003219135654495653,0.003530039634083906,0.006733628796245287,2022-01-01
143,WOR,1.8467053391794865e-09,1.5069425725636646e-05,3.443695774725567e-05,0.00019399018848509275,-0.00169393352433133,-0.0015852588257053049,2022-01-01
144,MTW,4.2174455433202044e-08,2.0381527827919017e-05,1.903328813202813e-05,9.031006260616553e-05,0.0029112973801239416,0.003206395708852995,2022-01-01
145,HUN,-1.8699296259669472e-07,3.14347311588753e-05,5.460289595432394e-05,0.0002725339327687535,0.0023713013534039065,0.003570250883246884,2022-01-01
146,OEC,-7.15324202805251e-08,8.7393972357956e-06,4.043703417339754e-05,0.00021391280000976776,0.0003121487740062838,0.0006880921937560295,2022-01-01
147,TSE,-8.152222924864279e-09,4.929898094674208e-06,5.079993612387346e-05,0.00012066831118228432,0.0005722048486500973,0.000962528931856826,2022-01-01
148,KRO,-1.511433480132816e-07,1.7860996490791594e-05,6.691613306466108e-05,0.000265019484927112,-0.0008647564938364107,-0.0025200071594239015,2022-01-01
149,CC,-1.4637504657525737e-08,1.601437173829759e-05,3.313877443497597e-05,0.00013124519498738252,-0.002810746386043658,-0.0031039366251841127,2022-01-01
150,UNVR,-1.4054868006070608e-07,3.0371359754054005e-05,9.088744224592686e-05,0.0002489073625923273,-0.003891744688864275,-0.005852103763059825,2022-01-01
151,SCL,2.8221811825212353e-06,0.00011205060162691934,0.0001983408650316726,0.0004294407594295585,0.001031249525845247,0.0012653487393758601,2022-01-01
152,CBZ,2.5897027052864982e-06,4.371705956345135e-05,0.00015436493629135083,0.00044297406436216453,0.0011210577359968264,0.0011961244961847712,2022-01-01
153,MAN,8.25962494760221e-07,2.8859328811116612e-05,9.575055003368372e-05,0.0002924243832014758,0.0013094477952194387,-0.0004944950854152276,2022-01-01
154,MSM,4.7801005495703415e-06,8.39450193981744e-05,0.00016153157663599028,0.0005304471310722237,0.0017128777726738618,0.0007410215274311677,2022-01-01
155,FNF,-1.1317670712679684e-06,7.639907460942745e-05,0.00013614883624482233,0.00044938651568003255,-0.00380232561394822,-0.004447421710253585,2022-01-01
156,SNX,-2.464955162310382e-07,4.31405034029822e-05,6.168244181841426e-05,0.0002537564834136941,-0.002211634400905318,-0.0034963550049382348,2022-01-01
157,VMI,-3.926175123819304e-07,7.909819433325573e-05,8.835167602027342e-05,0.0002969433313697954,-0.0012898947287277819,-0.0018572024073763816,2022-01-01
158,CE,3.231948565361997e-08,1.2330518641252358e-05,8.107254945497119e-05,0.0003337166419012337,-0.0023080674565518385,-0.0029802783833224123,2022-01-01
159,EMN,9.818756115250059e-09,9.875149579025562e-06,0.00010919448938039755,0.00026726383955655585,-0.0010645602130113392,-0.0012857181773165177,2022-01-01
160,AXTA,1.6578855202798977e-07,1.6129624368257648e-05,9.479780948711282e-05,0.0004103349971268606,0.0028468008545296155,0.0041067490878001645,2022-01-01
161,GPC,2.730319876527661e-07,1.8817309173766015e-05,0.00011059400078933552,0.00047870925754153873,-0.0014303552381112487,-0.0016626881224832927,2022-01-01
162,FUL,6.80366772168204e-08,2.35688913540701e-05,8.605817079508656e-05,0.0003557739439214557,0.0016813270887382449,0.002225177704980869,2022-01-01
163,EMR,8.731183429468471e-07,1.2400466969099212e-05,0.00010015640083932958,0.00040321373662310206,0.00010879615144141202,0.0003076266249562082,2022-01-01
164,HUBB,2.385663776557558e-06,1.6144330196714684e-05,0.00010794240512318792,0.0005249492394210518,-0.0005480650449740502,-0.0008903174513281654,2022-01-01
165,PH,2.772743531210297e-07,1.63388538227186e-05,0.0001230138246262017,0.0003093442883935808,-0.001063196308420259,-0.0011290832521147515,2022-01-01
166,DCI,1.974990623111099e-06,2.4054068832767465e-05,0.00010508982945904893,0.0004480301210493867,-0.0022752899399857388,-0.00326548511602062,2022-01-01
167,HON,5.6357344141197304e-06,3.3341192551385086e-05,0.000243366383940718,0.0006210117148404842,-0.0010359069104822086,-0.0019580768295941013,2022-01-01
168,CSL,2.114104315130836e-06,4.400009018992917e-05,0.00011612856520332674,0.00046751512945666636,0.0012075233618369676,0.001630725993600758,2022-01-01
169,APH,3.1891771544184925e-06,1.0277723811074731e-05,0.00022165022766921624,0.0005625750045924418,0.0007226533955740024,0.0011949842930947204,2022-01-01
170,ST,-2.672238281474075e-08,5.563434239527765e-06,7.726894004747772e-05,0.0003045274518351544,0.001598936075101112,0.0018161553090503555,2022-01-01
171,GLW,7.232405687994875e-07,1.2042972045276338e-05,0.00019151060872076058,0.00038609578727391,-0.0002776737704048477,0.0008170388140381945,2022-01-01
172,AVY,9.558098530819804e-07,2.2026200677087383e-05,9.470829909771272e-05,0.0004037704783379119,0.000629398964797339,0.0024294095598038443,2022-01-01
173,GATX,-4.0046271107676163e-07,0.00011055029910492803,0.00013076709921097372,0.00032120466214657196,0.0015231747641343365,0.0017574867056944624,2022-01-01
174,ALG,-1.77643203894787e-08,1.2317908130277289e-05,6.280183899380983e-05,0.00034899849274608097,-0.00022649900488588007,-0.0009118247056262905,2022-01-01
175,ACA,-6.438222199752963e-10,6.461486096844901e-06,3.747108517714542e-05,0.00018307076857926408,-0.0032071077336875303,-0.004248268016181351,2022-01-01
176,DOOR,-1.1248333139220781e-09,4.023320594916202e-06,3.885727347533054e-05,0.00020583563765267895,-0.0012362410854155378,-0.0016826811638894963,2022-01-01
177,PGTI,-1.0899335055089876e-09,3.990415564473251e-06,3.3773976379908554e-05,0.000204152195390642,-0.0026490555275712696,-0.003807787849340524,2022-01-01
178,GMS,-1.5238977333466445e-10,4.943170148841536e-06,2.4358053648739212e-05,0.00014539039023251212,-0.0021328605848662642,-0.0015706750889122236,2022-01-01
179,VSH,-1.0667052463690236e-08,3.0241065590567964e-05,6.846448974700513e-05,0.0002874978684087284,-0.0006433142321162507,-0.0006510057720990094,2022-01-01
180,TNC,-5.836510266542705e-07,6.697382102157194e-06,6.279558542487298e-05,0.00040941165773712143,-0.003959112748583932,-0.005351895180421138,2022-01-01
181,NPO,-4.580364179094725e-08,2.2335238661595927e-06,4.4715584705220664e-05,0.0002368684178691768,0.0012922775670293582,0.0011685703058787013,2022-01-01
182,FSS,-2.087643538824509e-07,3.1467501010947375e-06,5.2271432863406775e-05,0.00033371737332612113,0.0006642229494936396,0.0013249507628220116,2022-01-01
183,CBT,-7.54338225912069e-09,2.3484077431757298e-06,6.920488691747101e-05,0.00024472093440047494,0.0016547587828030339,0.0031039705496717428,2022-01-01
184,MTX,-1.844660862057997e-08,2.88499620553375e-06,4.843913062435825e-05,0.00030063730168309753,-0.0015041620093072389,-0.0015914610008478272,2022-01-01
185,MLI,-8.096387642193796e-09,3.930445579578379e-06,4.135970842491642e-05,0.00023330003508035827,-0.0012533006005645754,-0.000645994406448025,2022-01-01
186,FIX,-4.098532988149297e-08,2.2506985782580863e-06,7.058767574143386e-05,0.0002518073568833794,-0.0014483403174810636,-0.0010097956312782323,2022-01-01
187,AIT,-4.019560852917955e-08,1.2732104498910251e-06,3.921531298940656e-05,0.0002503629712846089,-0.0002376118903196463,-0.0004185546037811838,2022-01-01
188,EME,-7.145572691979414e-08,1.4586153251528885e-06,4.399259531906615e-05,0.0002868208211751635,0.002857298836551605,0.003820991308123789,2022-01-01
189,ITT,-2.618855472512889e-07,3.2851651001873903e-06,6.229227999372766e-05,0.0003588234446055909,0.0023330640009225742,0.0037242019443780626,2022-01-01
190,SPXC,-2.444948193914578e-08,2.1361060951607236e-06,4.136272038030288e-05,0.00023331702478662268,-0.0028553501827949575,-0.00306915470569656,2022-01-01
191,SXI,-2.0672654394672373e-07,1.017722635657188e-05,5.760380686649189e-05,0.0003504825221169244,-0.000681281290744478,-0.0011010881773249718,2022-01-01
192,ASGN,-1.5030694267305953e-07,1.1342049933297418e-05,4.6810309399765595e-05,0.00027597995342147413,0.0027475237898873777,0.0049071062082927126,2022-01-01
193,TXT,-1.7169134199994666e-07,6.753712345830747e-06,5.0638743247876966e-05,0.00028140648986101834,-0.0008280620195407132,-0.00026599978455074127,2022-01-01
194,WCC,-6.443918545386745e-09,3.9089951120551675e-06,4.9718692815989075e-05,0.0001628758432458844,-0.002718206797863096,-0.0034043946824468072,2022-01-01
195,ARW,-9.328777174101898e-07,1.7404034467826523e-05,8.726382570474661e-05,0.00042348293738996896,0.0017311840149504976,0.0027028779387010026,2022-01-01
196,JELD,-9.027301464479438e-10,3.0179358847066327e-05,4.526786325357108e-05,0.0001490065376682308,-0.0021142622529662426,-0.0026608616771546093,2022-01-01
197,OC,-1.2293759902608354e-08,5.25834005860924e-05,6.7434716490773e-05,0.00025962348967916853,0.0013578566505190015,0.0011865391083624474,2022-01-01
198,ACM,-3.5298709724322624e-07,6.012640669053273e-05,9.124801136204377e-05,0.0003065083877905204,-0.0006653514321393422,0.00015907998854936307,2022-01-01
199,EXP,-4.4115720035340466e-09,1.4333568928527947e-05,3.846522015755473e-05,0.00022157196358579218,-0.0004117713632558353,-0.00022006423824935887,2022-01-01
200,NVT,-7.914796151811705e-09,1.722703009105222e-05,4.4614677703813623e-05,0.00026629982407444806,0.0023311338235465846,0.0037174420636696837,2022-01-01
201,CAT,-7.0473100807092e-07,9.052163572076273e-06,8.977467157548901e-05,0.000365451689756151,0.0008742055215043088,-0.0005510801812059919,2022-01-01
202,CMI,-1.4839025366465828e-06,1.1049321175335797e-05,0.00020691230789347565,0.0004460804383430627,0.0008955411595718847,0.0010463682119315326,2022-01-01
203,OSK,3.671242541583706e-08,3.903505155740581e-06,4.7515233314802254e-05,0.0002901534394684031,0.0011524829215923745,0.0022537885983417083,2022-01-01
204,TKR,1.4100334534620074e-08,3.0743743521217926e-06,3.681994955623073e-05,0.00022852289337180125,0.0009603153593139206,0.0015862719265292583,2022-01-01
205,KMT,3.973700779747185e-09,2.728935129742132e-06,3.334321077670833e-05,0.0002036114865665184,-0.0015977667025693012,-0.0012590030674302516,2022-01-01
206,URI,4.100353671823106e-09,2.751326731289727e-06,3.7293685218422195e-05,0.00020528217020718888,-0.0003719219742098171,-0.0011155003310496148,2022-01-01
207,WAB,-6.306315822237551e-07,1.544472746528209e-05,5.9549926963385975e-05,0.0003623234249496613,0.0008090093405196195,0.0008865684925810018,2022-01-01
208,FLR,3.7094733730620834e-07,5.4047622655938703e-05,2.4835201211967378e-05,8.35287806603828e-05,0.0033719289392016025,0.004040748803568449,2022-01-01
209,EAF,4.847379211787067e-07,6.18346208762228e-05,2.761262335122219e-05,9.556332416816152e-05,-7.929086399161521e-05,-0.0004738296009937466,2022-01-01
210,DAR,-3.50076275832513e-07,0.00011802160614147902,8.079646802392934e-05,0.00016774248218126342,-0.0004282487083189077,-0.0003108303616646398,2022-01-01
211,ENB,-1.3165072895075769e-05,0.00046195686410863547,0.0001788172227557708,0.0006565729240573444,0.0006930394057274657,0.0015804342338515917,2022-01-01
212,ASIX,-8.117758453300104e-08,3.254528471393709e-05,5.2877312398316514e-05,0.00013439751987594857,0.003292492841485395,0.004052460982543445,2022-01-01
213,OLN,-4.6287978180521267e-08,2.6464668765016356e-05,4.345917338073431e-05,0.00010928728624191552,0.0015634274703038807,0.0027252735314659254,2022-01-01
214,SAN,-2.8937464054488486e-07,5.403655093168045e-05,4.5966735435475546e-05,0.00023818713210141255,-0.0017759790890960107,-0.0020174006746788626,2022-01-01
215,DB,-1.7206948050243432e-07,4.716656356811418e-05,7.116894859255316e-05,0.00020790498863578591,0.0015304839490131884,0.0007799713929018564,2022-01-01
216,TROX,-3.4045012811002206e-08,4.584446161078729e-05,4.741543568535065e-05,0.0001166076716878986,-0.0007637517969756911,-0.00030576309642938614,2022-01-01
217,OMF,-7.231761777486318e-07,0.00011480282657509711,0.0001232130411188664,0.00022102019840756506,0.002793663091874293,0.0037392958202829714,2022-01-01
218,GBX,-3.133584937466366e-07,3.5087743411929196e-05,6.1029867928652107e-05,0.00016859486770368613,-0.00011922436312495435,-0.0005610505247472905,2022-01-01
219,HPE,-8.781619305804485e-07,5.5872775428223615e-05,8.455796430817123e-05,0.00026846591617392374,0.0038923651899238805,0.004453786288771603,2022-01-01
220,BTO,-8.969410742656375e-07,5.2597689416793854e-05,0.00010004108202476315,0.0002526728725522945,-0.004672972711014115,-0.005513201133039026,2022-01-01
221,NYCB,-1.2547150332882142e-06,6.177155147121037e-05,0.00013993016848740493,0.00029674298482129094,0.001854027805545268,0.0007707124255130085,2022-01-01
222,MAC,-1.614739788286179e-08,3.269984360886755e-05,4.176631765044844e-05,8.753192204219167e-05,-0.0023146018445920832,-0.0032295736768865593,2022-01-01
223,SRG,-1.9223883346166695e-08,3.443932781552449e-05,3.14025779135231e-05,9.218822553379088e-05,0.003975278133148479,0.0058582163228786495,2022-01-01
224,CAE,-4.669318256712656e-07,6.799862313424999e-05,6.325911077068035e-05,0.0001597428160900464,-0.0026073626980296057,-0.004140165972610688,2022-01-01
225,THR,-7.173337380294008e-07,8.429946901280398e-05,6.614632214253814e-05,0.00019803687125273786,0.0021284699990731905,0.0021868311620702146,2022-01-01
226,PVH,-1.6715073335064228e-07,4.667067513342388e-05,2.6474015943318755e-05,0.00012329268085358363,-0.0014457221543866504,-9.58306580795294e-05,2022-01-01
227,CAL,-2.228376380515859e-08,9.539070564852818e-06,2.70381267751631e-05,7.295343531418976e-05,0.004656817761107465,0.005235457233375318,2022-01-01
228,KSS,-4.019159919723786e-08,1.1448040888638542e-05,2.1723251234208545e-05,8.755296491051563e-05,-0.003208354483504065,-0.005037949518379221,2022-01-01
229,GES,-3.580300995939487e-08,1.808675256264524e-05,1.896861590880358e-05,8.220562453648788e-05,-0.002544607596250267,-0.0019436660794291563,2022-01-01
230,ERJ,1.071427516418428e-06,2.061084653188391e-05,2.5289690606357574e-05,5.8425535326806874e-05,-0.00041736133347248556,-0.0008663098962259181,2022-01-01
231,ESRT,-6.347854417241263e-07,4.28660369884602e-05,8.269990075956813e-05,0.00018783477524684117,-0.001689222687607109,-0.00312564886522451,2022-01-01
232,HT,-2.491645288798456e-08,1.7513671725467306e-05,2.5163397556626968e-05,7.674319399261724e-05,-0.0034954851654567746,-0.004824476829410696,2022-01-01
233,SEAS,1.7859122819657614e-07,2.054055617790885e-05,4.044867179714804e-05,0.00010031074569037333,0.0034192297498384346,0.002064098186717829,2022-01-01
234,SIX,2.2622903579307952e-07,2.1925937687687233e-05,6.237564866997456e-05,0.00010707631966548233,-0.0012898478433724329,-0.0015994457335845745,2022-01-01
235,DIN,-9.529946009373746e-08,2.298981564598918e-05,2.9568515628245144e-05,0.0001051925908982639,-0.0010503131714857407,-0.0002859014494649624,2022-01-01
236,H,-4.606902781115413e-07,3.8610347360583e-05,7.118671359927703e-05,0.00017666616108991064,0.005710402861626383,0.006983000559422179,2022-01-01
237,BYD,-1.4497263257306244e-07,1.7545990600893545e-05,3.581442407271493e-05,0.00015123320608079844,0.002846683082900489,0.00464010443363661,2022-01-01
238,MGM,-7.698598354070757e-08,1.5266631505406317e-05,3.116185499772513e-05,0.00013158684973301797,-0.0009632628279508854,-0.0010165606227648043,2022-01-01
239,LVS,-5.704059095025126e-08,2.3242283075420274e-05,3.175643754790423e-05,0.00011297631525919159,-7.88242053474644e-05,-0.0016673924555600892,2022-01-01
240,CIM,-1.651395509436483e-06,6.949631227562635e-05,0.00012948067451963902,0.0003247493122214944,0.0019516501396826176,0.0017942232101727093,2022-01-01
241,KREF,-5.3247555405997615e-06,0.00010106863612383684,0.0002086795731083457,0.00047228362187344113,0.0006821227098968872,-0.0005013246010709616,2022-01-01
242,FEI           ,-8.861329514841227e-07,6.887111142748703e-05,0.00011063825873988673,0.0003586553736253191,-0.004858853857011881,-0.005432366972205577,2022-01-01
243,FPL,-4.892500081032893e-06,0.00010694461581467874,0.000171801584584562,0.0005569281567731682,-0.001788239623125407,-0.0016475286688355222,2022-01-01
244,CEN,-3.712622289873652e-08,4.386351612510665e-05,8.517618598160159e-05,0.00022719776168786805,-0.0056688399611805294,-0.006879549267850657,2022-01-01
245,SRV,-5.891762285077277e-08,5.076435666526126e-05,0.0001368895319190167,0.0002629417161856384,-0.005860172921277649,-0.005565308944888914,2022-01-01
246,MPLX,-9.654092412113227e-07,0.00011028592453363833,0.00010882521217345485,0.00034031225084704344,0.0010858247645166717,-0.0006295362122323915,2022-01-01
247,PBA,-1.927737294004071e-06,0.0002828840661174269,0.0001017096855911314,0.0003734529853689229,-0.0022555131845144916,-0.0012159159562489328,2022-01-01
248,TPL,7.637221335736104e-07,0.00014396817876453436,4.850737073292562e-05,0.00011424109237190854,0.0006237995269829555,-0.0002819282504235056,2022-01-01
249,MRC,2.17953843527223e-08,5.156774640776929e-05,3.950562278795193e-05,7.935620418954044e-05,-0.0007079556109551385,-0.0018722278340360919,2022-01-01
250,DNOW,2.291459803708433e-08,5.2464898366986146e-05,3.2103257910274084e-05,8.073680696984603e-05,0.003046759761458531,0.004277402851025343,2022-01-01
251,ENLC,8.356415038278693e-08,2.6744483101478194e-05,2.3827431285635505e-05,0.00010244783914648551,0.0010147015879019851,0.0012941194076858949,2022-01-01
252,PDS,3.6545652123490366e-08,1.9287725729673937e-05,2.299694954055395e-05,7.388386664859307e-05,0.0006792841824836224,0.00018681560296552257,2022-01-01
253,CPE,-1.3463984002310331e-08,8.423125250990585e-07,6.032389591668482e-06,3.114306317268303e-05,0.0029133834912745326,0.0030020283857272825,2022-01-01
254,MGY,6.577034610341756e-08,2.55782921365718e-06,3.055662235394693e-05,9.457135494511573e-05,0.0031864542933159458,0.003403065383144317,2022-01-01
255,WTI,8.195855692645338e-09,2.642299937194827e-06,1.1584956706842943e-05,5.8607544495972185e-05,9.404198581210566e-05,0.0006245286964056211,2022-01-01
256,TALO,5.317982987588307e-09,4.349552074395894e-06,1.719751615984369e-05,5.3779131843148196e-05,0.0007840245702666757,0.0006295116414149693,2022-01-01
257,BTE,-5.192212636025249e-09,3.032388069239446e-06,1.5383129660593658e-05,6.185178711569387e-05,0.0018102843829412797,0.0024018625667289236,2022-01-01
258,CPG,8.672743438443348e-09,9.594952578222957e-07,2.6450512492292696e-05,6.000633290955138e-05,-0.0001947946652555377,0.001932989865922464,2022-01-01
259,VET,7.427207600281048e-09,9.271774344952021e-07,1.1231691416161996e-05,5.7985193097063805e-05,-0.004782730192742039,-0.005465820480802212,2022-01-01
260,SU,-1.1960296987740475e-07,4.025840071841891e-06,3.520703447836498e-05,0.00014155884072855737,-0.0017507313170536931,-0.002252478467966907,2022-01-01
261,NDP,-5.948659389831069e-07,2.0720800708786592e-05,5.854636996136701e-05,0.00024947323632525857,-0.004236798206028891,-0.005178473917926438,2022-01-01
262,KOS,2.859305732559633e-09,5.666259836433181e-06,7.392211670552567e-06,3.739671932909777e-05,-0.0032278296382821647,-0.003524353074738164,2022-01-01
263,PARR,2.397461959690537e-08,1.0950701774143104e-05,1.9016519402844033e-05,7.227348066022838e-05,-0.001129193308145279,-0.0022316450766776273,2022-01-01
264,EQNR,-2.4548211739904776e-07,1.5395673996868263e-05,5.593959151721221e-05,0.0001956763768469635,0.00026565149350716525,0.001398218159470518,2022-01-01
265,FTI,1.4539962249877313e-08,3.987564361994145e-06,2.3436287998201226e-05,8.566804997926418e-05,-0.0032440906510373506,-0.002755638925726313,2022-01-01
266,TS,-2.108074348251074e-07,8.387572001596775e-06,6.056567091528403e-05,0.00018019695037050905,0.0032226034569316163,0.003249468060472943,2022-01-01
267,HLX,2.4394211854655404e-10,2.578205312203687e-06,1.1966287346321266e-05,6.0449397948433575e-05,-0.0022820195220494013,-0.0014516309247550685,2022-01-01
268,HP,5.595325970587402e-10,1.8864230222023997e-06,1.5154276708301094e-05,7.655397842693395e-05,-0.00013607126680193724,-0.00012994068886693322,2022-01-01
269,NBR,-2.8230782512015605e-11,1.0207403622948224e-06,8.46462225276681e-06,4.142323050287419e-05,-0.0014294448774512516,-0.0012410762171745928,2022-01-01
270,LBRT,5.2042111643115025e-11,7.723084816159134e-07,3.0474640825438758e-05,5.8355223553269584e-05,0.000590486363237998,-0.00040885208322325584,2022-01-01
271,PUMP,1.0314883707429592e-10,8.886055363456128e-07,2.2567167024662502e-05,6.714256797442475e-05,0.002704314498320086,0.0028679500304406545,2022-01-01
272,WHD,6.088006675309751e-09,2.552648276912348e-06,2.205095087342237e-05,0.0001079105001453269,0.002987787274065208,0.0035221102558963737,2022-01-01
273,NOV,6.336852775837424e-09,4.562088184030207e-06,4.958221852582099e-05,0.000108377886844147,-0.00045299324839665053,-0.00046317499891068627,2022-01-01
274,CLB,-6.288677088137462e-09,2.2363161142288955e-05,2.840992152659189e-05,9.143536042462128e-05,-0.0006415876661776612,4.821993935474616e-05,2022-01-01
275,FCX,-1.2973953310432198e-08,7.767837734113926e-05,2.2827264698304843e-05,0.00011200795945311295,0.0008357425915600365,0.0017755655603906549,2022-01-01
276,SXC,-9.710670736384407e-09,6.96186472773089e-05,2.9087066672990474e-05,0.0001003862707786967,0.001167016959316633,0.00023410319077966463,2022-01-01
277,MOS,1.349729536759199e-07,5.2537939366619445e-05,3.344127550691884e-05,0.00014388564602122852,0.00020754430053326352,0.0006391641926992826,2022-01-01
278,NTR,-9.070649924758775e-07,0.00010907063720256691,6.942528147047367e-05,0.0002987117364144196,-0.0016778176911911929,-0.002046380017427379,2022-01-01
279,CF,-4.4363586300350994e-08,0.00010334369363484167,6.577998628056447e-05,0.0001625838602287349,-0.001752323361933582,-0.0026259617900995123,2022-01-01
280,ALX,-1.2658491818894215e-06,7.814633841740306e-05,0.00014296324822424082,0.00048620389339135037,0.004656475117880367,0.004614684143297257,2022-01-01
281,AIV,-8.05642094142997e-08,3.4946584007958584e-05,5.3447388241025834e-05,0.00021742752826936615,-0.002655162080523591,-0.0034745761190112727,2022-01-01
282,VICI,-4.6200441393244235e-07,1.870899867953558e-05,0.00015791871081799106,0.0003990039583617799,-0.0009981394317799832,-0.0010124717245793438,2022-01-01
283,EPRT,-7.782158179734881e-08,4.610724194253878e-06,6.943930267074912e-05,0.0002991445768547451,0.004705981123116737,0.007288958211305392,2022-01-01
284,NNN,-3.9396144044990367e-07,6.52071780017379e-06,9.299916980108272e-05,0.0004230652897332653,0.0007273094271146234,0.0005290407558546709,2022-01-01
285,GTY,-1.1309560312257359e-06,1.4555172977732104e-05,0.00014835645081559448,0.0005414995322655867,-0.0001242418544684518,0.0009548987332348699,2022-01-01
286,UHT,-7.185688236821883e-08,1.503868939777839e-05,0.00011262973623445567,0.0003144147113439394,-0.002778803794050455,-0.003907678442427753,2022-01-01
287,VTR,-4.8216133252199487e-08,1.3193357781181135e-05,8.499343010839235e-05,0.0002758342611318364,0.0014489062979541763,0.0019840754802022496,2022-01-01
288,OUT,8.042583056055755e-08,7.919824741349187e-06,6.547801485259284e-05,0.00016309885087927682,-0.0019363673433411064,-0.0009566227984870962,2022-01-01
289,AHH,-2.2620587485370217e-07,8.670708663369397e-06,8.09493371746639e-05,0.0002954642550176332,-0.0023638930943917246,-0.00422770895185237,2022-01-01
290,JBGS,-5.694905899609016e-07,1.1706473101182243e-05,0.00018198151491414063,0.0003989113794512712,0.002037944266653727,0.0032629545645370055,2022-01-01
291,OLP,3.6915449233072474e-07,2.258705757420412e-05,0.00010337565426779728,0.00028310799406621893,-0.0012580851208987057,-0.0008434467076173156,2022-01-01
292,UGI,-1.5186408741544376e-06,0.00021307078680746054,0.00044591218367083394,0.0004732183587803469,-0.0009691779880117624,-0.0005638372605450875,2022-01-01
293,RC,2.589623947137062e-07,3.600916338128784e-05,6.157507038120807e-05,0.0002564332672930442,-0.0006981648397370265,-0.0009974912256132862,2022-01-01
294,RWT,1.1728663063995826e-07,2.8423706077827966e-05,4.860406457392219e-05,0.00020241469486353573,0.0014154718075547164,0.00127585969995768,2022-01-01
295,ARR,-9.102494559483805e-07,6.1021110114088485e-05,0.0001043450832286475,0.00045087293340205395,0.0005267765437337299,0.0012290886963058423,2022-01-01
296,DX,-3.0945413302405857e-06,8.022456269277781e-05,0.0001371826676949794,0.0005927634525914428,0.0036165807416702915,0.0037905804897423543,2022-01-01
297,ABR,-1.1716321698819435e-07,6.855671639846036e-05,7.889780174651179e-05,0.0002897200863056877,0.00038300142954377577,0.00043135887939593776,2022-01-01
298,ACRE,-9.385952885034627e-08,3.873822083189087e-05,0.00010551791878711482,0.00027483997730561933,0.000518417363721109,0.0014885654710397565,2022-01-01
299,EFC,-1.8905382997022162e-07,4.812466326314821e-05,8.762358081543362e-05,0.00034143492073326095,0.0033929685750419916,0.0036952015667278387,2022-01-01
300,SEM,-2.6363862374599162e-08,2.5208762020925228e-05,4.712518110615708e-05,0.0001694171481008767,-0.00035092743921124675,-0.0009415519461897862,2022-01-01
301,THC,-2.905252028763882e-09,1.301300768769547e-05,3.892529275749191e-05,0.00013993818025039652,-0.0005641985469824819,-0.0009457994425165044,2022-01-01
302,UHS,-1.5771955048595005e-07,2.9334230999379476e-05,0.000315281089782158,0.00031545196956883555,-0.0017140237926942348,-0.002238097161187805,2022-01-01
303,NSP,-6.461551519234976e-08,3.507881719035467e-05,6.41846237878972e-05,0.00023773995958478855,-0.0024472377335017664,-0.0033788090238506927,2022-01-01
304,TNET,-1.199582006528502e-07,4.314377211872126e-05,7.894128149201985e-05,0.0002923986457177467,0.0007823013111402096,0.0014615160772373994,2022-01-01
305,CWK,-2.4974367035420195e-08,1.8019182162176997e-05,6.253763107797539e-05,0.00018776171539364812,-0.0015124097434078344,-0.0021225526233030626,2022-01-01
306,MMI,-5.617489281631328e-08,2.408148734811634e-05,8.21892295469043e-05,0.0002509315535531764,0.0033592992460286996,0.0044731333691168575,2022-01-01
307,WD,-3.80527171840749e-08,3.0851574878664386e-05,0.00010920701493633331,0.00019777293284054483,0.0007050430502546493,0.00042279928380159867,2022-01-01
308,CCEP,-2.0548417895370052e-07,4.5076224591316465e-05,0.00032742395652874583,0.00028285888661844433,-0.0015332152832128992,-0.0018831872007945923,2022-01-01
309,ALE,-6.267305834294855e-07,4.614617953822822e-05,0.00025147140085104996,0.0004429926114902609,-0.002444947953008913,-0.00257383322623905,2022-01-01
310,MMS,-5.300461504055159e-07,4.2656361951633094e-05,0.0001246981101041631,0.0004094911727627121,0.0006357472966841691,0.0010142876171358877,2022-01-01
311,BV,3.67880044650804e-08,4.729112306526626e-05,0.00014475640048883804,0.00015548944374238954,-0.0014859239659501312,-0.0017352812924578637,2022-01-01
312,RBC,3.7555323197351287e-08,4.781536302395445e-05,4.666170325186737e-05,0.00015721310294691864,0.0002397972100099,0.0011525016921406334,2022-01-01
313,ITGR,-1.446751614355932e-07,4.745051771025508e-05,0.00022409924731594516,0.00025483503027248994,-0.0008851771375156487,-0.0002948476181675141,2022-01-01
314,TJX,-4.007452329924127e-07,4.1164150650195505e-05,0.0008996153021743761,0.0003486565524178763,0.0009475266604790469,0.0011561880525514294,2022-01-01
315,HEI,-2.6712367781517447e-07,2.3704343835381156e-05,9.199409544865644e-05,0.00032787888170428644,0.0013928357158678154,0.0003259743157934499,2022-01-01
316,FLT,-1.7016721276152856e-07,1.2839589973503882e-05,8.205153632416785e-05,0.00028397393149922576,0.0023381740918194116,0.0025670778195134836,2022-01-01
317,DIS,-3.054433417248894e-07,1.6145707955022475e-05,0.00014141196539390035,0.00035709552830641027,0.0006076102636854229,-0.0003156873082973712,2022-01-01
318,QSR,-8.855048018425566e-07,0.00012861602765179087,0.00039754509748272764,0.0004443222640422472,0.0009577193146613079,1.9076999108622754e-05,2022-01-01
319,MUFG,1.3353289583921978e-08,5.2421676386088996e-05,0.00022932955935495774,0.00045321505414571285,0.0022421655343739786,0.0016821520933984091,2022-01-01
320,WFC,1.8369929165094056e-09,2.5152898969635134e-05,9.388050603732843e-05,0.00021746104387210965,0.0025066948443665414,0.0032849518312398096,2022-01-01
321,RGA,9.185448156416384e-10,2.041932259734927e-05,5.576987228867643e-05,0.00018153351249285571,-0.0017457710086120387,-0.001925783318351353,2022-01-01
322,VOYA,8.620104156407104e-09,4.138719107993649e-05,0.00011303794971213873,0.000367943751960174,0.001156664642660613,0.0006948499488651746,2022-01-01
323,BBVA,1.1902359478062202e-10,3.584319575062622e-05,6.447448442176273e-05,0.0002017031581655244,-0.0004632841071544835,-0.001422515393379846,2022-01-01
324,MLR,3.7847016372976974e-07,3.752637750845355e-05,0.00017265677764672673,0.0003969785515821822,0.003455592781981831,0.004272719406489166,2022-01-01
325,ESE,-4.3221498322479265e-07,2.126702656489369e-05,0.0004201000907577114,0.00035989448462326733,-0.00106807919631031,-0.0020164713717393725,2022-01-01
326,AXS,-3.1412726794898555e-07,7.922298828967208e-06,0.0001111855309186582,0.0003755668269898409,0.0003372167777780245,0.0015858973989591103,2022-01-01
327,RE,-3.336878730837173e-07,8.076006039147068e-06,0.00010741851602929782,0.0003828535161767768,-0.0011842490545449836,-0.0009396246735957312,2022-01-01
328,RLI,-5.33729634144513e-07,1.4999307290211673e-05,0.0001006842424861514,0.0004227958932299248,0.0018174488131635328,0.0026170117673240093,2022-01-01
329,MDU,-6.415713908555614e-07,1.583261717827881e-05,0.00014482391895159717,0.0003906197190051161,0.0030264726635621146,0.0041064190832623545,2022-01-01
330,NFG,-1.1197944990466524e-06,2.010943229273572e-05,0.0002272175258907761,0.0004961365959329523,0.001348973653306299,0.0016933479425667748,2022-01-01
331,XRX,5.0053889972076914e-08,1.0877000057835167e-05,6.713868034447605e-05,0.0001718316673512231,0.00053059073665089,0.00036266712045834924,2022-01-01
332,EIG,-2.659936923678992e-07,1.3290228738423847e-05,0.00012463533268957646,0.00039375374536934,-0.0005540225399559226,0.00034917269957304264,2022-01-01
333,HMN,-3.159397036227493e-07,1.40364969347224e-05,0.000207709605283888,0.0004158636656066815,0.001530216179255615,0.003298724497456808,2022-01-01
334,AEL,-1.8631089353418527e-08,6.07173436858091e-06,7.350627194905896e-05,0.00016714189390301738,-0.0018434863757616213,-0.0025398632103861385,2022-01-01
335,NTB,-5.735506511896317e-08,9.554666411778478e-06,6.673698624466561e-05,0.00026301958266488707,0.0034632807894768433,0.005305129951460803,2022-01-01
336,BRC,-8.224007843664556e-07,2.557077737402591e-05,0.0001845011406707273,0.0004345238988552328,-0.0014120675225244724,-0.0028597017920436057,2022-01-01
337,EBF,-2.2351254530274455e-06,3.6940804853722544e-05,0.000220174759053058,0.0006277346330579164,0.0029628210920447464,0.003387494123804498,2022-01-01
338,NNI,-1.661380529648648e-06,5.3764355764044765e-05,0.0004445450761078229,0.0005687545000353858,0.0035903069259714485,0.004699530332983831,2022-01-01
339,AVD,-7.697541395621812e-08,2.7243862442383107e-05,8.166390071129543e-05,0.0002885293204212335,-0.004572343786381125,-0.005107112543407546,2022-01-01
340,TG,-2.8721594949609312e-08,1.7600281040236413e-05,9.589279893403318e-05,0.00018639784055956811,-0.00300315895158692,-0.0034738416816318127,2022-01-01
341,LXFR,-3.2324872797669024e-08,2.7513806467437802e-05,5.3940850988697744e-05,0.0001905801332431246,5.250146146118665e-05,0.00016944708238398563,2022-01-01
342,OMC,-3.9889561998604947e-07,3.6664486934779126e-05,0.00012424368500599917,0.00040096232405291806,0.000236525249735664,0.00012082948642586824,2022-01-01
343,OI,-5.748752284013835e-09,1.1609137016072465e-05,3.638398343853286e-05,0.00012695736248794222,0.0023183039649732774,0.002582252712512952,2022-01-01
344,GEF,-6.560356229711955e-08,1.2110821726702454e-05,0.00022938210578631342,0.0002500987398407492,0.0004195135489635037,-0.0003719636076161528,2022-01-01
345,IP,-3.124182739649289e-07,2.0597994420196042e-05,0.00035097628464670776,0.00042536605393005616,-0.000813558031381913,-0.0016866988849138372,2022-01-01
346,GPK,-1.8085455998107986e-07,1.7288841199142164e-05,0.00010216866201543667,0.0003838651758753477,-0.0008913814289372574,-0.0020548589711403913,2022-01-01
347,SON,-5.160903389027515e-07,2.2603200015272513e-05,0.00013357394380730824,0.0005018602027323128,-8.829279514097253e-05,0.0017201985795604288,2022-01-01
348,AFG,-1.1024206297654716e-07,2.9172421913620287e-05,7.209075086745238e-05,0.00027754921037386555,-0.001976699073354521,-0.002272294874865138,2022-01-01
349,HIG,-1.9933161528784727e-07,3.656942653337191e-05,0.00015094747895581405,0.0003479250193287387,-0.0023874915717415055,-0.0034447252193126354,2022-01-01
350,ADM,-1.4188324610565947e-06,5.565404900669995e-05,0.0001772193383627677,0.0005430379567633304,-0.0009236644472948114,-0.0016042821635989133,2022-01-01
351,INGR,-1.175271033174399e-06,5.2114303766226775e-05,0.00016594771804608787,0.0005084993013167539,0.003508342744897795,0.00409791918523974,2022-01-01
352,BWXT,-6.206045607730949e-07,4.094240498887644e-05,0.00014868524115192085,0.00037791118244526564,0.0033250655700084496,0.003831788690308863,2022-01-01
353,HII,-8.766401022118038e-07,4.758802194249826e-05,0.00013060072489744437,0.00043925230204251074,0.0015596575534605275,0.0015942206282297158,2022-01-01
354,DXC,6.224232421275547e-09,2.464464490080983e-05,6.184516066337425e-05,0.00016000034805491094,-0.00017056576688427745,-0.0008410456162177521,2022-01-01
355,GFF,6.616089762327449e-09,2.5451660411725985e-05,7.013393826594603e-05,0.00016523973223561193,0.0019661402374332635,0.003873943980374311,2022-01-01
356,TRTN,-8.478817010982259e-08,1.4778931112586913e-05,0.00010613991085492644,0.00025458019024726474,-0.00172861050946319,-0.003022480713101565,2022-01-01
357,WPP,-1.516475533226933e-07,1.9084426095214422e-05,0.00011664691473074289,0.0003287461582347896,-7.306579273417242e-05,-0.001048611555735842,2022-01-01
358,BG,-2.2181755595007901e-07,3.314662357238692e-05,0.00014235311957677829,0.00036828344262796196,-0.0002860579990964349,-0.0008269722665501675,2022-01-01
359,DE,-1.216098255128241e-07,2.7482038901243086e-05,7.601376162170577e-05,0.0002833149636395256,0.002027141748169683,0.0023554209868848056,2022-01-01
360,GTES,-8.363055247687686e-08,2.2390875434074093e-05,6.770738875604368e-05,0.0002308296732370503,0.0008451137859953607,0.000604826146544506,2022-01-01
361,MTZ,-4.931847149707006e-08,1.6973635988347393e-05,7.86983778236769e-05,0.0001891575496159211,-0.0020623584859511845,-0.00341930376295477,2022-01-01
362,MWA,-1.0346678471611465e-07,2.3195536595736246e-05,0.00014265999012574323,0.00025849563802876656,-0.0024280207169514513,-0.003573628220789806,2022-01-01
363,FAF,-4.501737829175315e-07,4.353118845080433e-05,0.00015959230282190418,0.000511463384950183,-0.0009071145482569334,-0.0007448423084170111,2022-01-01
364,STC,-1.4223930575186194e-07,3.0059739750641322e-05,0.00014394903831468778,0.0003531825523431237,-0.00017448071178177983,0.0005982523655913007,2022-01-01
365,LAZ,-5.183349046442668e-08,1.4181413167038506e-05,0.00010378065974949794,0.0002777406439648922,-0.0025663936002030168,-0.003271934419737664,2022-01-01
366,MC,-4.7258002729366227e-08,1.364366521576734e-05,0.00010780162911448706,0.00026720893880140424,0.0014739952334208964,0.001625700411774765,2022-01-01
367,OPY,-2.94776214311982e-08,1.72309103111706e-05,6.9450699562647e-05,0.00021338854201670085,-0.000840406396428005,-0.0007143730607803207,2022-01-01
368,CUBI,-2.835864342812705e-09,4.692835227429135e-06,2.7707183369637834e-05,8.943734778606762e-05,-0.002887363003908979,-0.0044795892351855455,2022-01-01
369,MCB,-1.0692282378763765e-08,7.875849515256133e-06,4.455052882175881e-05,0.00015010011178095042,-0.001018940574464221,-0.0007831173873713714,2022-01-01
370,LEG,-2.910307341180721e-08,1.8623895239638932e-05,6.57504212777256e-05,0.00022695437700375083,-0.00017283455303166389,-0.0005334469109226422,2022-01-01
371,HBI,-3.6362792525598756e-10,1.534221804485842e-05,5.8702583739142894e-05,0.000179607690025255,0.0012745175481188563,0.0005057579936615683,2022-01-01
372,OXM,-2.446708841294849e-10,2.794971766556551e-06,5.204202845485882e-05,0.00015507741826712796,0.002221493909337658,0.0034626260693757047,2022-01-01
373,RL,-2.943388997883964e-10,2.95566812421152e-06,3.977122448562393e-05,0.0001639935642433594,0.0012195624447504888,0.002072992025768293,2022-01-01
374,SKX,-5.549510341061895e-10,5.810539788020976e-06,7.912494889578555e-05,0.00019000776409350587,0.0018903842150690081,0.0012360900777312392,2022-01-01
375,VFC,-2.0906862236806308e-09,1.4196623079910672e-05,9.290442051100962e-05,0.0002781485072428102,8.063155655886273e-06,3.025015634079943e-05,2022-01-01
376,JBT,-6.835058117280205e-10,9.74731173989997e-06,5.677381416435076e-05,0.0001854603363276818,-0.0009739690000916992,-0.0012024626912884476,2022-01-01
377,WWW,-3.6812571558801844e-10,4.8751144459676935e-06,4.740942404185319e-05,0.000156111799989387,0.0031298188694796002,0.0025907725935823,2022-01-01
378,GCO,-3.57544588143241e-11,1.523798987627146e-06,2.0100693230307018e-05,8.288365191753029e-05,-0.003740342447763909,-0.004226806336152635,2022-01-01
379,BOOT,-6.356440247500005e-11,1.0771333081484903e-06,2.9911940077565023e-05,9.849532874647485e-05,0.00047073448401332784,-7.808972742077335e-05,2022-01-01
380,BKE,-5.6751181609686254e-11,1.0389254620627697e-06,1.9892269811307586e-05,9.50015231678724e-05,0.00045026919579390555,0.0003832275876844911,2022-01-01
381,MHK,-2.5420022272194455e-09,6.991415895054146e-06,5.5527319226697734e-05,0.00019166672846935572,0.00039736713718942305,0.0003361680585055699,2022-01-01
382,WY,-8.655903877621097e-09,1.1498047230898008e-05,0.00010710896358484373,0.0003152141325323472,-0.004691545629560212,-0.005861902159118995,2022-01-01
383,CCS,-1.6337343352054557e-10,6.695212118071978e-06,2.8338530643096313e-05,0.00011814436677785249,-0.0007788021472660638,0.0006950856880504689,2022-01-01
384,LZB,-2.917519682331026e-09,1.1290911800982775e-05,5.5174709365296325e-05,0.00020564461545061395,-0.0027427675510171678,-0.004215151483419416,2022-01-01
385,BC,-4.008178863028714e-09,8.40904722463329e-06,7.568764019139867e-05,0.00024379821031746382,-4.770668570088477e-05,-0.00025218188738496106,2022-01-01
386,LCII,-4.060704128187823e-09,8.453852919889728e-06,7.189237608480273e-05,0.0002450972336222147,0.001149482393169907,0.0007680373490805898,2022-01-01
387,ALV,-5.723243070598124e-09,2.3697553019854377e-05,0.00015797870706483016,0.00027350834683078224,-0.000841208838754244,-0.0015700990515168903,2022-01-01
388,CLS,-1.297785749676088e-09,1.7901653113280668e-05,6.076851592982634e-05,0.00013377812925772248,-0.0026633063356829444,-0.0027974706199218927,2022-01-01
389,HRI,-1.115914105922822e-09,6.122249839124566e-06,3.4920845708555836e-05,0.00010661667122743756,-0.00076324273111496,-0.00026762959979805174,2022-01-01
390,KWR,-9.644458938785171e-09,1.657779307183641e-05,0.0001616424331595376,0.000288696012096953,0.001140018880352068,0.001674360671383905,2022-01-01
391,MYE,-9.470392847835035e-09,1.4496232584070384e-05,0.0003261171016947523,0.00027982989617912515,0.0019005007158745715,0.003721179315006309,2022-01-01
392,GLT,-9.405966403736574e-09,9.983062085683524e-06,8.919774732916434e-05,0.00028719288000057607,0.002501248100394545,0.004381519210309062,2022-01-01
393,TPC,-8.587108675783112e-10,4.033878731206108e-06,9.784328780684284e-05,0.00011604668391770613,0.005397479822391381,0.0050840500698087895,2022-01-01
394,BDC,-3.6316750854286433e-09,5.704965046000061e-06,0.00011050423811681576,0.00020583881587996655,-0.002110967368467544,-0.002699147216261984,2022-01-01
395,BHE,-6.037175327276527e-09,7.220551759520377e-06,0.00017037751434754585,0.0002605221613446617,0.0006660233257498272,0.0008280223973925997,2022-01-01
396,VPG,-1.08169823228026e-08,1.3614807647876033e-05,0.00013808710141191577,0.00032134017997536137,0.0018759671860856017,0.003030805498645107,2022-01-01
397,LNN,-6.975735427127349e-09,1.2297517704936286e-05,7.583519037279376e-05,0.00025487636543751365,0.0004299242498800377,0.00025920453384337355,2022-01-01
398,TWI,1.3245627426271076e-10,2.7760171899528707e-06,2.6135316978823787e-05,5.753528384701875e-05,0.004902688550102721,0.004740958048563196,2022-01-01
399,ADNT,-1.780984286798101e-10,3.9990558055228184e-06,2.43277894058277e-05,9.236611235925697e-05,-5.834781979187813e-05,0.00033595191876532204,2022-01-01
400,GM,-6.720155992081917e-10,7.1407915205871565e-06,0.0002182987894025663,0.0001649307196497985,-0.0008890752025178996,-0.0008580595805941812,2022-01-01
401,MOD,-1.679259541611213e-10,1.9927538254801625e-06,4.8324745433436535e-05,0.00013023057972146254,0.0014203524235313304,0.0007208908553777596,2022-01-01
402,SSD,-6.226660014710346e-09,3.0121306696771606e-06,0.00018320191918596386,0.0003097661908112714,0.002121891909728665,0.0027578764484096994,2022-01-01
403,WNC,-1.7589709710587196e-09,1.8518595964493999e-06,5.9983751803066204e-05,0.00019044442489970465,0.00012758982740728757,-0.00026052917049507987,2022-01-01
404,REZI,-1.380528575387562e-10,2.728324813979098e-06,3.545289733765868e-05,0.0001136198836534457,-0.00015278393662839713,0.0007531252013544659,2022-01-01
405,ATKR,-3.352924745979246e-10,1.5642747275843012e-06,3.873032382754416e-05,0.0001077459450115423,-0.0037130171584335574,-0.003908046512973057,2022-01-01
406,CMC,-1.1916005584843397e-09,2.610102313539028e-06,6.598880693762701e-05,0.0001797816811778158,-0.0025966780877277793,-0.00404188429202077,2022-01-01
407,BCC,-5.384973218733402e-10,1.1629780491341813e-06,3.3035170518024456e-05,0.00013598526450729053,-0.0051529319199358735,-0.006705372983619551,2022-01-01
408,LPX,-7.477636453739072e-10,1.2771945688644448e-06,3.6279567270029876e-05,0.0001493404294290921,-0.00016934730853957933,0.0015084026596708625,2022-01-01
409,MEI,-3.918874244784887e-09,3.961737728037918e-06,0.00011642097128057507,0.00027053652334939603,2.016832438167958e-05,0.0005645139080605363,2022-01-01
410,GAM,-0.00010807800924605129,9.18681722472438e-05,0.00041102694579637735,0.0009741749396304902,0.0009554822038503812,0.0013420450840877743,2022-01-01
411,NFJ,0.00014399847591958418,7.760457586221188e-06,0.00026688863308277437,0.0012257788866074776,-0.001087382375825713,-0.001258661814068014,2022-01-01
412,ETG,6.34534286752469e-05,6.60662204216045e-06,0.0003455328219616617,0.0010435283900596833,-0.0018923698040533541,-0.0015841172799353669,2022-01-01
413,AGD,0.00032865082292628825,1.597684073079314e-05,0.00030641982279527776,0.001407339626577369,-0.0015735502059496618,-0.0025466657211873213,2022-01-01
414,EXG,0.00017901660430955232,2.3967862928196787e-05,0.00028447423790158195,0.0011732671705646498,-0.0021391075845439717,-0.002563911238328428,2022-01-01
415,BOE,0.0009259427802727815,3.280474879559017e-05,0.000303413911284747,0.0016151604802666266,-0.0001485914597017993,-0.0004883081384627212,2022-01-01
416,BGY,0.000816019662442926,3.188897952664755e-05,0.0003868645294772857,0.0015700720590305648,0.00039058257523658953,-0.00014578046358902598,2022-01-01
417,DIAX,0.00028850572004542676,2.8668176007752583e-05,0.00048330752335788,0.0014113340477397433,-0.00021338247441103918,9.284058147601915e-05,2022-01-01
418,SPXX,0.00015383887360965714,2.4999766140592102e-05,0.00023236250711013227,0.0012307382628810228,-0.0020178938595385235,-0.0027769697443962424,2022-01-01
419,BLK,-0.0010412684854477657,7.694788355972608e-05,0.00014877612371515966,0.0004790193107388983,-0.0008880053960466811,-0.0007704575683883973,2022-01-01
420,FDEU,0.00022622434923454343,9.915485535306045e-05,0.00027487880971859273,0.0010211293374136226,-0.0010648390057448915,-0.0010134609050940191,2022-01-01
421,GGZ,7.557769009778604e-05,6.996971344004492e-05,0.00017754816620936355,0.0007205711396547242,-0.00199873543290492,-0.0021177374265736537,2022-01-01
422,DEX,0.0025084159004331876,0.00017842766841129557,0.00048503597304707974,0.0018018284577351886,0.00014195493375422633,-0.00014015070112800872,2022-01-01
423,SCD,1.0345835967073303e-06,8.062796630743674e-05,0.00017672303843824005,0.000814210965572739,-0.0027384107912159093,-0.002321988738211346,2022-01-01
424,AWP,-0.00023806691841558232,0.00031355969491133885,0.00014338954194766725,0.000646120743989975,0.0008555150818531487,0.0024534132364287878,2022-01-01
425,FIF,-6.188870465315375e-05,0.00038002256567671975,0.0003621440784039471,0.0006889370702629009,-0.0028008008468759574,-0.0038304944644142586,2022-01-01
426,PUK,-5.2341211671281085e-06,0.0001327242762018461,5.111870968117626e-05,0.00024061380101583112,-0.0029383885489242373,-0.002848505886770176,2022-01-01
427,GIL,1.0233060499696434e-05,0.0001468699575234198,0.00017885059662934577,0.0002601386051019689,-0.0042681905914246565,-0.00602954194382908,2022-01-01
428,JBL,8.434129500375387e-06,9.189677264466942e-05,8.41083074147232e-05,0.00024310560662821305,-0.0008581638242425851,-0.0012237838637265313,2022-01-01
429,AB,1.2138612966352914e-05,7.012634736639952e-05,0.00010177702619102463,0.0002719019564360556,-0.005662456378569978,-0.00774935600094899,2022-01-01
430,GAB,0.00012115629913670907,0.00017899521977459714,0.0002597825475763508,0.0006940208962421182,-0.0011154769959038845,-0.0016226321605485642,2022-01-01
431,MAIN,0.0001234940261671504,0.0005590386376356199,0.0002911399051566109,0.0006509845261855415,-8.15468543071911e-06,-0.00032785939103282673,2022-01-01
432,LIN,0.00016542496152370284,0.00023781771926267763,0.00033657689100520625,0.0007770556284185838,0.0009453784675432228,0.001309046334128404,2022-01-01
433,ALLE,-1.4742557276082192e-05,4.548246905961884e-05,9.934277668142913e-05,0.0004300384860970715,0.0010458345086527493,0.001163234137379165,2022-01-01
434,SWK,-6.752958541691123e-06,3.46908087762794e-05,7.934063812975453e-05,0.0003280029249968606,-0.0037949258451458814,-0.0038259655622233974,2022-01-01
435,DOV,1.665725861754379e-05,6.566567924909742e-06,0.00010978444883788322,0.0005339075301493907,-0.002996779393825983,-0.0045082200107692035,2022-01-01
436,JCI,1.1274216133089254e-05,5.997519388706258e-06,9.987190344151137e-05,0.0004876399361834445,0.0015082987021251596,0.0026682158739804256,2022-01-01
437,IR,-7.333355077941691e-08,7.29604421443844e-06,0.0001100525861536963,0.00033610313062849986,0.0041868133436701194,0.0038946141319819725,2022-01-01
438,PNR,-3.79332749564408e-06,8.025259614240828e-06,0.00013288182764661948,0.0003673416184159112,-0.002770816101937064,-0.003854448931519698,2022-01-01
439,XYL,-1.0767239832262826e-05,1.0483112804074544e-05,0.00019629324755505772,0.0004798453643358665,-0.0009216506072195435,-0.0017640321985509368,2022-01-01
440,AME,3.84654826966233e-05,4.223812883636837e-06,0.000147861606098616,0.0006400684917680276,-0.002146242286455816,-0.0034234668757295887,2022-01-01
441,IEX,1.1629757921407845e-05,3.329505360080955e-06,0.00017214409510061708,0.000504546847332315,-0.0006497057839034423,-0.0011214787893680533,2022-01-01
442,ITW,8.712770944940078e-05,8.64567213617599e-06,0.00016257929957436357,0.0007364606678613544,0.0009688768989908797,0.0009997533348146649,2022-01-01
443,GGG,1.3038192728043932e-05,1.107578733908628e-05,0.00011555074373272458,0.0005234281247616923,0.0007049057858940028,0.0012521747623661845,2022-01-01
444,FTV,4.8771166488966816e-05,5.747360170514344e-05,0.00011966441318335917,0.0005842799105389671,-0.0013993453553778354,-0.001603291704565424,2022-01-01
445,ECL,3.3715661382959275e-05,0.0001102683810345204,0.0002720879490286755,0.0005532418054158059,-7.573392347997946e-05,0.0005165136534050677,2022-01-01
446,G,2.5651411398277107e-05,9.853142000540334e-05,0.00032972700236185055,0.0004943547749822052,-0.002114641027609338,-0.0026342941179506156,2022-01-01
447,SEE,1.3564147959737994e-05,0.0001299489269088494,0.0001500116035554627,0.00041103907841672107,-9.290889732990634e-05,-0.0007869106022861703,2022-01-01
448,SXT,1.9131582572878115e-05,8.448321595588181e-05,0.00015752050150233691,0.00045529530020482344,-0.0012432407345856586,-0.0023450971781242896,2022-01-01
449,MLM,8.834137247368082e-06,4.0379235062988525e-05,0.00013437793421751046,0.00033609515582880755,0.0034199966143612166,0.00448748903309858,2022-01-01
450,RHI,1.2062149218334497e-05,4.64922220614792e-05,0.00018447885462264033,0.0003869763900729002,0.004276713119464338,0.00542932786075171,2022-01-01
451,MSA,2.060424950790862e-05,8.663030826418691e-05,0.00026632410498345554,0.0004668663682094759,0.0013362621447236282,0.0010986678642009515,2022-01-01
452,CLH,1.1804229004093145e-06,2.2221355900136188e-05,8.430805779475422e-05,0.00024008808791875285,-0.0012671249148331115,-0.0011746340391644793,2022-01-01
453,XPO,4.902051194682691e-07,1.5908633504010207e-05,7.252768424185925e-05,0.00017188300374391697,-5.5170514772041876e-05,-0.0002662008835803847,2022-01-01
454,PWR,1.1387050746320426e-06,3.366565322413752e-05,6.618431845254184e-05,0.0002274381165488427,0.0023633493019371643,0.0034040767529677357,2022-01-01
455,BMI,6.083374012919351e-06,2.8879500130266163e-05,0.00015027540440924007,0.00031116002907973536,-0.0034380703930554503,-0.005072652353352805,2022-01-01
456,WTS,1.0410969702187904e-05,3.47105134567817e-05,0.00013065271295386457,0.00037398584905787963,-0.00027402025765278375,0.0004092306295452765,2022-01-01
457,MKL,2.6155733334359488e-05,7.75690196910976e-05,0.00019466924749508117,0.0005063678473698979,-0.0034548164930578774,-0.004781785670342251,2022-01-01
458,TDY,1.7511114858652593e-05,0.0001846802865129041,0.000308161573737493,0.00046804258257623265,-9.086576255631541e-06,0.0003283204821133335,2022-01-01
459,NSC,5.0872341697466e-06,0.0001850632269873938,0.00018588458266010046,0.000509332783181906,-0.00011003795896730828,-0.0005286624168420389,2022-01-01
460,SNA,2.5966170400090724e-06,0.00013117815591111125,0.00011540329279254163,0.0003610297752315078,0.0011610911233066463,0.0019252870582088034,2022-01-01
461,AMG,5.9241098962270985e-08,3.4027539035976876e-05,6.625910383364046e-05,0.0001753259717649855,-0.0005266324421496137,0.00047981061917718115,2022-01-01
462,BEN,7.093673631101226e-08,3.545088478308147e-05,4.4871092465773405e-05,0.00018265972211363186,-0.0021376686722940504,-0.0031675827502970805,2022-01-01
463,WHR,1.301180300860148e-06,4.281745548951237e-05,9.353934235749718e-05,0.0003237262313865042,-0.002370617864952047,-0.002831012635114882,2022-01-01
464,KBH,1.8096276236472007e-07,1.4178890447860212e-05,5.6055849169650366e-05,0.00018502356271732449,-0.0010662728773601395,-0.0008737584124383617,2022-01-01
465,BLD,1.7166883478924704e-07,1.3975534262557247e-05,4.3743902093338476e-05,0.0001823699216553726,-0.002438214002956589,-0.002938448305402511,2022-01-01
466,TTC,3.6784589396445093e-06,0.0001023176130132257,0.0004156392457864613,0.00047178642693887854,0.002490457664906311,0.0032739039490283094,2022-01-01
467,DPG,-0.00032133942916126454,0.0001386001360967291,0.0001857407450904286,0.0006409822417420495,-0.006590457352036742,-0.0073011938286080364,2022-01-01
468,MGU,-0.0006972404905423361,0.0001909731211043682,0.0004100484676617703,0.0008831909024427185,-0.0016560324695570007,0.0003420619707092879,2022-01-01
469,BUI,-0.0010275154283269055,0.00020935743039026915,0.00026283711024669765,0.0009653606400436603,-0.0013868781487430518,-0.001769223745261114,2022-01-01
470,UTF,-0.0009912352311173824,0.00020610778405991782,0.0002587573522500452,0.0009503763108247948,-0.002650439023450729,-0.0018626873455444676,2022-01-01
471,BCE,-0.004004007244266594,0.0005769267284552412,0.0009357743191885854,0.0015135066007337088,0.0007192584507186234,0.0009492804457193735,2022-01-01
472,BIP,-0.0010303244886117127,0.00031005982006846497,0.0010680420518764553,0.0008134093311163606,-0.0018532083931518959,-0.0010309746707387994,2022-01-01
473,PDT,-0.003667179814056908,0.00027997822118756675,0.0004785900037169187,0.0012015137593220726,-0.005432605085040847,-0.006514914551094193,2022-01-01
474,HTD,-0.0036445846843091274,0.00027937774436810034,0.0004684528674213818,0.0011989368404543032,-0.004650244330750719,-0.005831403452014516,2022-01-01
475,JRO,-0.03601353868109695,0.0008270136097205073,0.0015223508236570944,0.003205678893275135,0.0006932980511798341,0.0004009859464178183,2022-01-01
476,RNP,9.166495425520056e-06,8.466400932281453e-05,0.00020741742615838776,0.0009346337249257348,-0.0015981400371386499,-0.0014700159785405536,2022-01-01
477,RFI,3.194436199673111e-06,6.372577221584391e-05,0.00017057043132552582,0.0007034896685882947,-0.0036212823241316533,-0.003013346199280895,2022-01-01
478,JRS,2.9501329631351748e-06,0.00010054630801188817,0.00016048582683760525,0.0006498821663008562,-0.0038095016623139245,-0.003199566936036137,2022-01-01
479,DDF,-0.0003684524843495852,0.0002788693235198934,0.0006035296680002257,0.0006745440207929545,-0.009113429570543612,-0.011914771931161854,2022-01-01
480,PGZ,-0.000520509317797319,0.0003365814408854833,0.00023591790603637392,0.0008141411740577626,-0.0032218752737671816,-0.005256516666552931,2022-01-01
481,RZB,-0.020841891975565952,0.0016463930095040808,0.0010620675895515476,0.0023728727505300516,0.000504131685278526,0.00013316122230974382,2022-01-01
482,EHI,-0.015880804630539116,0.0014084429272606498,0.0011577784991852035,0.002029925918951912,0.005102050707436579,0.0063831955930357355,2022-01-01
483,FGB,0.0019108773197765764,0.0001435608282734291,0.0001253707737021491,0.0005076848941110071,-0.003100190708500749,-0.002723924939316602,2022-01-01
484,HTGC,0.006455917373246816,0.00024346092360428274,0.0003786401202767244,0.0008609690728782524,0.0010960786351379872,0.0012269252897133252,2022-01-01
485,PGP,0.000545028036026908,8.482079145652338e-05,0.0003860309020208605,0.0008247085323688391,-0.00482797744105517,-0.005395832849448283,2022-01-01
486,PHK,0.0012598895159124804,0.0001225171965664834,0.0005487629551484828,0.00119122889135124,-0.0022387697078160014,-0.002787140311400845,2022-01-01
487,HPF,0.002224344236027874,0.00022925138868072178,0.0005065498346900689,0.0014465070793308727,-0.0020764946248930066,-0.0015757992352459344,2022-01-01
488,NCV,0.0022706266616068106,4.01087570475534e-05,0.00031970629825018085,0.0008825310676330545,-0.005116318122761613,-0.00557323379715448,2022-01-01
489,HYT,-0.0018300819015043483,4.257684114565905e-05,0.0005134954143518715,0.001551696388842802,-0.0020116899611333553,-0.0031251846406519395,2022-01-01
490,JGH,-0.010463607834775582,6.966860578858878e-05,0.0008402340012576531,0.0025390451970833394,-8.453581289549513e-05,-0.00036179657782441094,2022-01-01
491,JPC,-0.004260424240145633,5.007852958800503e-05,0.0010253782431406025,0.0017773920144406122,-0.002444865815890084,-0.00295547491256022,2022-01-01
492,JRI,-0.000934184785354267,3.0189001977546116e-05,0.0004967684031433099,0.0010714709772883307,-0.004439403273644094,-0.0057689910242160435,2022-01-01
493,VLT,-0.009323064224896913,0.00014222289863362507,0.0008098497355000644,0.002265279747349966,0.000274145220658444,-0.000803568782804132,2022-01-01
494,BGH,-0.0036398272868797235,4.156893089191951e-05,0.0010370828057415294,0.001767823300402513,-0.00021800693933774054,7.624515704162459e-05,2022-01-01
495,GHY,-0.004245816022982179,4.409274094136858e-05,0.0008777254261225561,0.0018751546682167696,-0.0005678117674187186,-0.0011867240303249558,2022-01-01
496,IVH,-0.01391817369282083,0.00010402994830817426,0.0012409913217661737,0.0027366772042472605,0.0019236037747247918,0.0026582687949928034,2022-01-01
497,FSD,-0.013220898864631174,0.00017240316239784648,0.0018126371319626673,0.0026336612008846295,0.0012195315309350744,0.0015080038706587844,2022-01-01
498,HIO,-0.004769269174366696,0.00011530535711001783,0.0009341185966360782,0.0017614250287011778,0.0015420292104301808,0.0017853752593210977,2022-01-01
499,DSL,-0.0036681787813087393,0.00025383710415731887,0.000656801776865275,0.0013635937689728671,-0.0013928166860229124,-0.0017601818776539914,2022-01-01
500,RA,-0.001926618880135301,0.0001303364319988036,0.0007029614366683639,0.001078135887960791,0.0014323869940552074,0.002366448761677248,2022-01-01
501,SPE,-0.0013778664875344789,0.00011183136851934135,0.0004946772117107363,0.0009250630077212585,0.0005788316923201004,0.001365666962421019,2022-01-01
502,ACP,-0.0017632139658177598,0.00025903892321567097,0.00047527162671401194,0.0008851184106179894,-0.0014846901808140153,-0.001196098381466383,2022-01-01
503,APO,-2.4708486293903507e-06,8.351883455934883e-05,0.00010681368503346807,0.00024398292490539593,-0.0007302995673055912,0.0001441289490191049,2022-01-01
504,KKR,-2.3641129659131717e-06,3.0160257559080386e-05,0.00020126658692875665,0.00025716601527017664,0.0013723370264092896,0.0011622791399170838,2022-01-01
505,BX,-8.19158547184456e-07,2.3343515166754064e-05,0.00012938668309071423,0.0001990420262848749,0.002252907361270017,0.00305238681708397,2022-01-01
506,ARES,-4.950005665536333e-06,6.287501062006296e-05,0.00013508354604416622,0.00030855670469679623,-0.0012745441567664987,-0.0010383433177456982,2022-01-01
507,IIPR,-3.7552966398787955e-05,8.412349472780791e-05,7.588627487637726e-05,0.00019493251311286782,-0.003090212851585301,-0.004135437435740971,2022-01-01
508,GGT,6.930438352244638e-05,0.0001244453030528108,0.000622971137393017,0.00039574806449896186,-0.007312182198327527,-0.009737860149846308,2022-01-01
509,GRX,0.0009517987161266864,0.00041949129150696085,0.0009055435992759649,0.001334022760325463,-0.0017885953395622015,-0.002071324589735903,2022-01-01
510,LGI,0.000261460578791589,0.00012858197187084656,0.0005821721396313841,0.0010810414248015139,0.0016968104770376995,0.0031421477595506126,2022-01-01
511,IGA,0.00022219500466957604,8.163790522001116e-05,0.0006876209634890498,0.001180395293118328,0.0001633927937743943,-0.0003295233695497678,2022-01-01
512,IGD,0.00034070679953622865,9.187450524741161e-05,0.0005603741758612675,0.0013284053928056554,0.0011159193844202542,0.0010523132991731195,2022-01-01
513,JCE,1.0443286079770011e-05,0.00012804465628121078,0.00032193950480660134,0.0006779217112325969,-0.0026408552905450296,-0.0031050954960891142,2022-01-01
514,FOF,0.00022319107639049712,0.00019493727671880773,0.0004719000111855648,0.0009993920793184357,-0.001503994931346476,-0.0010496520749558504,2022-01-01
515,EOD,0.00024661103976161044,0.00020432288621138493,0.0004859525207349931,0.0010475096274053922,-0.00011933934780997767,-0.0009731510989973054,2022-01-01
516,FFA,0.0001014258263578414,0.000148586311942903,0.0003797483847426707,0.0008291925113551024,0.00046822205968946113,0.0011940263835567852,2022-01-01
517,BXMX,0.0004232887360616296,0.00023942966456776327,0.0006577526419967064,0.001336147874321986,-9.433833176189987e-05,0.0002631301432931819,2022-01-01
518,ETY,0.000527411026674626,3.0743049355989395e-05,0.0005801949170985129,0.001584827986097801,-0.0008552173687596818,-0.0011597177752368482,2022-01-01
519,EOI,0.00022108349851582406,1.489702565998617e-05,0.0002576060632404594,0.0013413765593677952,-0.0005676190066867166,-0.0003859748688775065,2022-01-01
520,EOS,0.00012924635522299462,1.3041783553291314e-05,0.00022171163573143617,0.0011743245363215451,0.0014440771185507265,0.0028979768702096743,2022-01-01
521,ETV,0.0006740397776871235,3.198631616553105e-05,0.0003043933677781077,0.001585002011320849,-0.00036742532055304635,-0.00015260572448275799,2022-01-01
522,ETB,0.0008001465279555953,3.3612194550403974e-05,0.000989501001697033,0.001665568354029727,0.0009208284914895097,0.000744552122004901,2022-01-01
523,EXD,0.00045281108163175155,8.25895029384005e-05,0.0004256811550247589,0.0013278167882272763,0.0010970216433350635,0.001860461629135779,2022-01-01
524,ETO,-0.00021365088509642369,8.53718530153474e-05,0.00034028906735764634,0.0008066785581186684,-0.003073780023727731,-0.0029856116375382587,2022-01-01
525,NIE,-0.000236708607797568,8.432495322486936e-05,0.0003802964046550152,0.0008349101409228591,-0.0007937682923361721,-0.0005612316302718839,2022-01-01
526,BST,-3.541089327471118e-05,2.9906409164986467e-05,0.00010140085915744809,0.000520188433881043,-0.0029996465962108254,-0.005072582985897006,2022-01-01
527,STK,-2.208414289692281e-05,2.6714133840825025e-05,9.057711034991592e-05,0.0004646623861956925,-0.0024639253346067573,-0.003251917284778091,2022-01-01
528,EMF,9.819932871129935e-05,0.00013448730761318075,0.00032132311144943045,0.0005431993761756858,0.0012027929486595876,0.0013915924065702162,2022-01-01
529,TY,0.00014466755383833125,0.00015171286011590027,0.0005054751782194359,0.0006127740411743451,0.0006403862112497931,0.0010492542964129967,2022-01-01
530,SWZ,0.0015585187162434275,0.0003886660047360716,0.0015123746727712735,0.0013755439457026502,0.002359511810932049,0.002989240153786684,2022-01-01
531,IAE,0.00115597238822465,0.0003326999728415609,0.0006965196614532229,0.0011774722455811738,0.0010858077719420542,0.0012465892554320845,2022-01-01
532,DSU,0.0029935764823037243,0.000837802220727206,0.0010005582079367133,0.0018120020163236573,0.0005927887996051667,0.0015615914053666827,2022-01-01
533,IDE,0.00024098397524637534,0.00024122628090288725,0.0005321436479727358,0.0005217251716125639,-4.519393404977025e-05,0.00011638409159106919,2022-01-01
534,IIF,0.0005006495131135174,0.0005696371263674556,0.0006899281063851334,0.0008710302552593808,0.0007803512885009008,0.0012276561945548602,2022-01-01
535,AES,2.2373549421936817e-05,0.0001599583569411753,0.000603697007701877,0.00034486507034155417,-0.0001760216881283428,-0.0005129170232706441,2022-01-01
536,ORC,4.064484379733744e-05,8.436189654654986e-05,0.00014640210464528515,0.00035404214968004765,0.0030220919735059475,0.0034088848091607146,2022-01-01
537,ETW,0.0005961140116063938,0.00017304176133957816,0.0003418453810034548,0.0010663099141608378,-0.001573555392507655,-0.002821536586461667,2022-01-01
538,HEQ,0.00044666298169308887,0.00014853773829194878,0.0015484773952388474,0.0009153123601008244,-0.0007172729671053786,-0.0005540744695965898,2022-01-01
539,USA,9.010954713601748e-05,0.00014169195091143447,0.0005099661415723611,0.0004358443747810704,-0.0016498511185659454,-0.0007551990786651112,2022-01-01
540,HDB,2.0222643367987704e-05,0.0001994081408728774,0.0002980586824097502,0.00036366298219028885,-0.001905772443466257,-0.003026971003742374,2022-01-01
541,AQN,0.0002749007730014507,0.00031335903082654393,0.0006849608429061094,0.0007925871748578134,2.5096576578163784e-07,-0.0006634491418795255,2022-01-01
542,STZ,0.00024582689218131346,0.0002926160763312237,0.0008121719484815249,0.0007401214786936246,-0.003972386636664458,-0.006003386387026322,2022-01-01
543,DLB,0.00013519491731571982,0.00022014818980610237,0.0006652682192713747,0.0005523420947361026,-0.0002859152943160142,-0.0010686670684389853,2022-01-01
544,ENV,5.160759048092551e-05,0.00012401269519683587,0.0005492051777570596,0.000311142380499335,2.492450454915443e-05,-0.0008540800694194848,2022-01-01
545,GMED,3.508983198131025e-06,4.315654343244929e-05,0.00013482610050579807,0.00029255670644734834,0.002651182241060541,0.002911554718941836,2022-01-01
546,BSX,7.167412764154354e-06,1.9663917184802145e-05,0.00018240095988466995,0.0003867651808186844,-0.0011467532608058714,-0.001102439411619553,2022-01-01
547,ZBH,3.3492526136102853e-06,1.5905229789792464e-05,0.0001441720906481765,0.00031283640069264794,0.0025803408321949826,0.002907403239319717,2022-01-01
548,MDT,1.2396882630907035e-05,3.778391079537735e-05,0.0002738167592286562,0.00043486868093022116,0.0010514568614972731,0.0011951898267397187,2022-01-01
549,TFX,2.0681240465842354e-06,6.288954252820274e-05,0.0003262128881234514,0.00025845339503149494,-0.0009493763947050877,-0.0017773787137547116,2022-01-01
550,SNN,1.2927133527220646e-05,0.0001520412741467527,0.00018030235116125743,0.0003823152657365953,-0.002524681248513588,-0.0036628461051515563,2022-01-01
551,FI,6.51289080852139e-06,0.00011184844905581673,0.00019516030182863904,0.00029681837876480946,-0.0015297311470174318,-0.0029494230976122105,2022-01-01
552,MA,3.2608324063961626e-06,9.049457051264912e-05,0.0001512116458489329,0.00024015041722373663,0.0017109590802435403,0.0021329946427463982,2022-01-01
553,KEYS,-2.822222247204093e-06,2.0718317680453928e-05,0.0003179563057434405,0.00040766281949800975,-0.002747470264528638,-0.003246254981747065,2022-01-01
554,MSI,-5.1872063183833395e-06,2.7042214293520316e-05,0.00030348285229842974,0.0005320946176419636,-0.0010041762893090635,-0.0023029729109541636,2022-01-01
555,GIB,-6.961359390930744e-06,4.490357462240271e-05,0.00044508756018907746,0.0005694485584762361,0.0002132486305652594,-0.0004905835626094712,2022-01-01
556,RELX,-1.76264101448616e-05,6.936040580659717e-05,0.0006209905131856982,0.0008413657563215954,0.0005926194981760285,0.00014257018494697967,2022-01-01
557,WNS,-5.208258802785032e-06,3.737459212137787e-05,0.000595290388990125,0.000453366753001657,-0.00040871631586262023,-0.0002651171991699037,2022-01-01
558,EFX,9.865955192458123e-07,1.1226832388432137e-05,0.00015791819038377006,0.00028918595897714494,0.001250040460237064,0.0014306471862841994,2022-01-01
559,TRU,4.0102995220741545e-06,1.5924404704034335e-05,0.00038020068313501435,0.0004101882068018872,-0.0006671371407093233,-0.0007479953023757617,2022-01-01
560,EL,-1.0266218734355516e-06,1.5229533150931685e-05,0.00016381961726249312,0.0003473610957761066,0.0004815022119465228,0.0011601838212046598,2022-01-01
561,MMC,-1.4653407458841773e-05,2.1543986751045514e-05,0.0005659326527097372,0.0008899301992131817,0.00022010215430019725,0.0007122207931346502,2022-01-01
562,AJG,-3.125871041308265e-06,9.398858294135341e-06,0.0004724717029840045,0.0006896471249653648,-0.0015217308593907463,-0.0016293398890218356,2022-01-01
563,BRO,-1.6563066903767281e-06,8.189879307282572e-06,0.0002834092760615835,0.0006009375331900743,0.000777849869372426,0.0018383177769661205,2022-01-01
564,BR,-3.6117103906922193e-06,1.3632069952604558e-05,0.0002520920218244024,0.0005355678693526883,0.00035666068767146943,0.0004881745258098976,2022-01-01
565,ACN,-2.2284077935891325e-06,7.153775744747726e-06,0.00034446230160693617,0.0004531760202820856,0.0001779176430910154,0.000605903258799026,2022-01-01
566,ROP,-5.408621729041452e-06,9.907358641922677e-06,0.0003427239385194807,0.0006276094640162883,-0.0023806434513403076,-0.0029648865693641386,2022-01-01
567,IT,6.000336603950377e-07,1.0433754120090872e-05,0.00015877597412109794,0.0002444785586453393,-0.0008959828454667016,-0.002100769847312956,2022-01-01
568,ICE,-1.1789133137943097e-05,3.154535333135053e-05,0.00035583571873208344,0.0007880839349693924,-0.0002517994475737985,0.00018837929614598072,2022-01-01
569,MCO,-2.4999522115189574e-06,2.0192143616331144e-05,0.00031558828125130805,0.0005044516011431238,-0.0023616790137288455,-0.0031692595946244168,2022-01-01
570,RBA,2.771354930501784e-07,0.00010446026805105673,0.00043510801409892615,0.00029521607680557834,-0.0011477425485866288,-0.0021597440421762546,2022-01-01
571,MAS,-2.5111052524211558e-06,7.081796418816599e-05,0.0006343693310491129,0.0004561398869960018,0.0011274722611317597,0.0006486905773001318,2022-01-01
572,PPG,-2.62707353805142e-06,7.221319163145563e-05,0.00013740214731303757,0.00046512657413974487,-0.0009152057883563013,-0.002540545810920911,2022-01-01
573,GWW,-1.88916370744705e-06,2.5429813135760825e-05,0.000182746752363486,0.0004587908977012964,0.0008986994876890379,0.0010691760804078328,2022-01-01
574,WSO,-2.0124541962248462e-06,2.6088872152341454e-05,0.0001689642476238434,0.00047068128306279757,0.0003160858948462334,-0.00010122067014952437,2022-01-01
575,LII,-1.0805471840095672e-06,3.348905931210594e-05,0.0001639490576012934,0.0003787634892723064,-0.0028010529983024104,-0.00389366337996246,2022-01-01
576,ROK,-1.92768557109963e-06,4.121086009144036e-05,0.0002167602159222856,0.00046483534447827206,0.0012500396537038908,-3.072810128958897e-05,2022-01-01
577,AOS,-6.565584019091471e-07,2.8247905614324636e-05,0.00016231995469283858,0.00031862050216592276,0.0024270813775662866,0.0028695335183761728,2022-01-01
578,YUM,-9.172126033567862e-06,0.0001748556205187879,0.0004096245344163817,0.0007183621342048394,0.0016483041649996038,0.0009177506690722338,2022-01-01
579,ASH,0.00011024660407004708,8.754033144996111e-05,0.00018815049559819713,0.0004433529370501737,0.0013516334159422265,0.0019884814485751482,2022-01-01
580,IFF,9.67845929951019e-05,8.189339006233987e-05,0.00034934352783929815,0.00041475368447614023,0.001358882171025921,0.00027284157644295767,2022-01-01
581,BERY,6.288782552478656e-05,6.669453087135284e-05,0.000248685075979245,0.0003170128668305853,0.005172685423648928,0.005781882790300645,2022-01-01
582,CCK,9.082558124609551e-05,8.31433878829465e-05,0.00031001821982563075,0.00039519767822673906,-0.00035327540609436615,-0.000797397461355872,2022-01-01
583,THQ,0.000412649663943444,0.00023930915747219432,0.000887912712581086,0.0008148157088223861,-0.001236493368067349,-0.0011595715955937953,2022-01-01
584,IFN,0.0006609847641293966,0.00023650542319259338,0.000705679233508722,0.0008909159624107629,0.002191792647331223,0.001650179433082354,2022-01-01
585,DEO,0.00046682947073148205,6.977123133395097e-05,0.0009103080242822475,0.0008737218352317069,-0.0008533720338053659,-0.001599752241596167,2022-01-01
586,JHX,4.735677882033397e-05,2.461516539708603e-05,0.00027578182973823386,0.0003082474979169347,-0.0037780187441892065,-0.0044912794251941585,2022-01-01
587,RYN,0.00010403837979989074,4.5310816808875526e-05,0.0001363969090888929,0.0004014064924126726,-0.003476478107450663,-0.004142062567277798,2022-01-01
588,CNI,2.7457560548132395e-05,2.7112756400985413e-05,0.0005117735644573799,0.0003830283909376852,0.0012032670442142697,0.0005204747087618477,2022-01-01
589,CP,2.6993056163768945e-05,2.6902107467893516e-05,0.0004347394503360532,0.0003800525031046063,0.0003876645665525458,0.00018169742067870048,2022-01-01
590,APD,0.00037203781285592924,5.125780871599764e-05,0.0005988430627918624,0.0006693402387159299,0.001061694487567925,0.002149565122208008,2022-01-01
591,TU,0.0012777538247393447,9.84127891577499e-05,0.0007945573361944206,0.0012851044833485073,0.0016032565771442423,0.002570661041687703,2022-01-01
592,MOH,3.699286203894847e-05,3.1616535064288825e-05,9.425469819847933e-05,0.0002754876497586878,0.0014552389699620828,0.0029697876919329187,2022-01-01
593,AAP,7.016921475035819e-05,2.9851210257780942e-05,0.0004780372401417065,0.00038704527464504415,-0.00026208443712236683,-0.0009308816669627755,2022-01-01
594,HCA,5.009228041372094e-05,2.5150228605336035e-05,0.00016037478244507888,0.00032609321544678797,-0.00015099206587328208,-0.0011821264692945088,2022-01-01
595,JNPR,6.746767912765302e-05,4.37275993713894e-05,0.0009481513585516468,0.0003775425886591474,0.0004684955439743462,0.00017706862505859912,2022-01-01
596,MCD,0.0007228191382307714,0.00011099755844063383,0.00041240987275379206,0.0009583491010471713,0.0028645040813965335,0.0032222115378713074,2022-01-01
597,HTY,0.0008757389279276353,0.0007715228601571649,0.0011603827488969745,0.0007981709530990911,0.0003557225796814548,0.00033095112583426397,2022-01-01
598,SPB           ,0.0001114303316797111,0.0002004816989562299,0.00017469653985602236,0.0002074062571551311,-0.0020856451769219247,-0.0021991574181686956,2022-01-01
599,CNNE,1.3379278157678973e-05,9.827340011595668e-05,0.0001505556924853864,0.00021976915842378465,0.0021606653864363963,0.0020503283874214635,2022-01-01
600,IBN,1.5773752069421343e-05,0.00010961027900706413,0.00020090221618744968,0.0002451218614961443,-0.002697010547128494,-0.0033380170637504216,2022-01-01
601,EVTC,2.283574879629585e-05,0.00017878352523015276,0.00026477714388984037,0.0002992548369938511,0.002655444264629603,0.003358816245226954,2022-01-01
602,MCN,0.00037442639228477066,0.0002219285410344774,0.0006405905822715129,0.0005609774256564433,-0.0006544229648513942,-0.000728993597493871,2022-01-01
603,SOR,0.0009698933555098877,0.0003772581508200616,0.0008838948054497733,0.0009536101362558425,0.00453348305189067,0.005677963844518094,2022-01-01
604,NMFC,0.000517366673575097,0.00020776890011250674,0.0002615621234609826,0.0007662903304125637,0.0005522453580511302,0.000553179891175342,2022-01-01
605,TSLX,0.0006943294899185738,0.00023677176403988088,0.0002980740878174676,0.0008732582845663549,0.0025676402722935874,0.0031195938829576787,2022-01-01
606,ADX,0.00027833698719573885,0.0001822386158499236,0.0009433702685577084,0.00043271814181134035,-0.00040679900109851625,-0.0008815986785809288,2022-01-01
607,CALX,2.830293427691677e-06,1.4916470836201513e-05,7.57426185379156e-05,6.837131935360904e-05,0.002938814681982037,0.0034861036637659788,2022-01-01
608,KN,0.00018364268061428095,9.698243267861895e-05,0.0009303410222590217,0.0006157399772136948,0.0024167849849709906,0.002792308120689979,2022-01-01
609,MXL,-1.9158946964364798e-05,1.3344847607798124e-05,6.0713375476098055e-05,8.472623273098595e-05,-0.00332689005379265,-0.003209975372573206,2022-01-01
610,LPL,1.2635214766275754e-05,4.687737477385349e-05,0.00015468408262366484,0.0001665137970500604,0.0011383651214087525,0.0016565455469551042,2022-01-01
611,RACE,8.578635626745123e-05,0.00017317387648022934,0.0006490380989448108,0.0004188818583344732,-0.000496304255977035,-0.0008714258071015975,2022-01-01
612,DECK,2.1818912286594344e-06,4.6711612713835095e-06,9.629852573763994e-05,0.00016506892409095424,0.0024561318346189493,0.00349780801592046,2022-01-01
613,YETI,1.4991812538990315e-06,4.026911605455915e-06,8.301696909007442e-05,0.0001423025084135253,-0.00043960095310148685,-0.00023428697793615125,2022-01-01
614,GOLF,7.90220321563276e-06,1.203545673916444e-05,8.285948036962118e-05,0.00026571161953151476,0.00238155320637962,0.002895053460245799,2022-01-01
615,FND,3.074191735084492e-06,5.340571900631499e-06,0.00011609754867366294,0.0001828906996170757,-0.0021401826198905213,-0.0026118612587538283,2022-01-01
616,SITE,5.798241257012306e-06,6.983959356563004e-06,0.00021096532805645567,0.0002391693692332827,0.0011288937799917922,0.0023399214878483078,2022-01-01
617,SKY,1.0127868386170362e-06,5.870586079214257e-06,5.1321330375558825e-05,0.00012840408256600892,0.00047083045419986564,0.0010159991902242956,2022-01-01
618,WMS,2.6293824392773073e-06,1.273353145384913e-05,0.0001779165009896697,0.00017973327920282873,0.0009812716395391952,0.0021967612714260676,2022-01-01
619,ALB,2.3979263771613697e-06,1.4542044075037882e-05,0.00011175688677929425,0.00014383673827488157,-0.0005852282583101072,0.0003424550161759943,2022-01-01
620,HASI,4.233506865527478e-06,1.9751798451587766e-05,0.0001424381586647219,0.00019536691332245465,-0.002690155250032159,-0.003740380209410249,2022-01-01
621,BSIG,7.3794214480178545e-06,3.4757883099647986e-05,0.0001474535592734258,0.00020947152166134406,0.0011052578857677624,0.0011179684508410815,2022-01-01
622,KAI,1.2298267530994857e-05,4.627097385025804e-05,0.00011557298656427588,0.00027885620287571456,0.0013710820067661673,0.0013192524068925686,2022-01-01
623,KMX,4.456262534189513e-06,5.173140066336524e-05,0.0003112625097350787,0.0001890897938762258,-0.00016964695260983378,-6.759569367403377e-05,2022-01-01
624,UA,2.909308319282567e-06,4.0827821824566204e-05,0.00019626172085118656,0.00014923478417799103,-0.0013718190804011437,-0.0017016620119294722,2022-01-01
625,ASG,4.931548071786531e-05,0.0001777263295431761,0.0006700413448592082,0.0003873432967574112,0.0014752593827418664,0.0030145841086830784,2022-01-01
626,NVR,4.0365398899358536e-05,0.00011717033808495769,0.0004005611642209597,0.0003673023582804347,0.0007430759765975234,0.00011586902106720954,2022-01-01
627,TPX,1.2840089952408367e-05,6.440905944409011e-05,8.21004641973399e-05,0.00020190775084463265,-0.00044795682186984486,-0.00033782051275123786,2022-01-01
628,RMAX,1.4650453381831991e-05,4.880209846709759e-05,0.00026412562885390925,0.0002452878241281683,0.0003310604245641386,-0.00018957739773537655,2022-01-01
629,SAFE,9.199507906203851e-06,3.911171352310956e-05,0.0001864452554671161,0.00019658226611865527,-0.0002639180996305102,-4.394295016658563e-05,2022-01-01
630,FC,1.3256694460765117e-05,6.301262564701358e-05,0.00010535177594986652,0.00020867651441584245,-0.0014530767809812007,-0.0018208484325647164,2022-01-01
631,CDAY,1.277420942376724e-05,6.421879824474473e-05,9.774608424699013e-05,0.00021961881829171543,-0.000525581511367313,-0.000353318299178393,2022-01-01
632,PAGS,6.129744773536484e-07,1.1772983451091029e-05,3.696349216740833e-05,6.018469874735535e-05,-0.004437568725826451,-0.004829552938042472,2022-01-01
633,PAR,8.438870688776532e-07,1.3822385511000748e-05,3.567392097953683e-05,7.066145224830805e-05,-0.0008185251451426552,-0.000806956259741225,2022-01-01
634,KO,-0.0011766805463921594,0.0012913563274686032,0.000575104158962924,0.0008775095405348897,-0.001377743104716999,-0.0021445567639818658,2022-01-01
635,DTE,-0.0003688585763503225,0.00021158700718495023,0.00040039056611298974,0.0007709735960285992,-1.1334948338239758e-05,0.0005911094409597023,2022-01-01
636,SRE,-0.00014057224033866398,0.0001628476370491689,0.00038743087070240316,0.000593378724010271,-0.0007636229995624808,-0.0017148299187695697,2022-01-01
637,EXC,-0.0003530206779994951,0.0003424902918982014,0.0005983023617637574,0.000730000891137525,-0.0023623625195516047,-0.002571104356706326,2022-01-01
638,OGE,-0.00024339976844813555,0.00019355581898946645,0.00036073661636924965,0.0006946177804371768,0.0016707864384922198,0.0020030479743470414,2022-01-01
639,PPL,-0.0006058710889764252,0.00024238746251898475,0.0004720388874293015,0.0008698609119568721,0.00018772645728672258,0.0004142461258288103,2022-01-01
640,CNP,-9.599933013842646e-05,0.0002469083138897411,0.00031994179147137175,0.0005099618240910858,-0.0037826609504930707,-0.005238508478985738,2022-01-01
641,CPK,6.007321138626437e-05,0.00023179033885436083,0.00019970258206788096,0.00047526204531905407,-0.000569906198531371,-0.00045959650003191696,2022-01-01
642,OGS,2.988445009874006e-05,0.0001165365277791716,0.0002615135468201013,0.0004255746233148484,-0.0027973398005543483,-0.003290692303162202,2022-01-01
643,SR,3.71760489614576e-05,0.00012222059797025494,0.0001555659268576945,0.0004463320293965646,-0.00034554362609853843,0.0006312825669781828,2022-01-01
644,NJR,2.0893452424070302e-05,0.00018336692080865891,0.00021262267102307127,0.00037455659760823125,-0.0034907519098445715,-0.00335953917269992,2022-01-01
645,BKH,5.931190808789428e-05,0.0001380163269448191,0.000270995061277621,0.0004993826089679219,-0.002125800908123069,-0.0026288841330966107,2022-01-01
646,NWE,4.850198937006469e-05,0.0001318301921560802,0.00020043260973577124,0.0004769994011358311,-0.002361407962580165,-0.003015859656620519,2022-01-01
647,UTL,4.7916907288884206e-05,0.0005513403218397736,0.00027613570120566964,0.0003643970750243065,0.0025786034318624313,0.003370266085748734,2022-01-01
648,RSG,-0.0005309541727295545,0.0008421380994485445,0.00032620079218573684,0.0006930114725081038,-0.0005329534775959624,-0.0012917148226318036,2022-01-01
649,ATR,-0.00015312113838742604,0.00022625661236196673,0.00018957183148910552,0.000478799891483533,0.0016202037806770367,0.0030823863030120364,2022-01-01
650,RPM,-0.00021414109804447932,0.0002595918604196661,0.00016228044911370838,0.0005493433022859045,-0.0026053522442049636,-0.004325636775908724,2022-01-01
