,Company,RCRP,"RCRP, no extended terms",HRP,IVP,LW,OAS,dateThru
0,HPF,0.00014757181116041958,0.0003431389866175593,0.0006302976785602138,0.0015719382040153141,-0.0013129734584813699,-0.001781389421261642,2019-10-01
1,HPS,0.00014904236398581293,0.0003440931717724145,0.0012010948699824238,0.001576309377671233,-0.0030819438080028475,-0.006363918500256741,2019-10-01
2,HPI,3.033680284256803e-05,0.00041804304698502584,0.0004464590388620127,0.0011134516968526486,-0.0020045424671294157,-0.003129407734548355,2019-10-01
3,ZTR,6.846578895580508e-05,0.0003494943192368955,0.0004041213662107917,0.0007158778772393146,0.0011531887608009482,0.004796498673654285,2019-10-01
4,EOD,0.000116380852030226,0.0005022487109813769,0.0010071602614567907,0.0010287684842734727,-0.0016046512918597993,-0.004693457632340888,2019-10-01
5,ACP,7.358137288168161e-05,0.00037235314887950396,0.0005637326631893249,0.0008057123947502453,0.000187849427444437,-0.0007672465561411819,2019-10-01
6,GOF,0.00011999274074111904,0.0005064542746872906,0.000798950998874925,0.0010958856873313173,-0.0008128494678991399,-0.0020768743531059904,2019-10-01
7,PTY,1.9332580082529504e-05,0.0001717207737663911,0.0005484845939394516,0.0008164220961070557,0.0004715157347905273,0.001389646589104523,2019-10-01
8,PCN,1.1181204712841194e-06,0.00011383479176277625,0.00031959412600064685,0.0005412113937205279,-0.002579431319971832,-0.0017794581937253477,2019-10-01
9,PFL,0.00018389261998594318,0.0005333554856322287,0.000948752477633068,0.0014306956237449128,0.0012387782084760323,0.0018432750787685393,2019-10-01
10,JQC,-0.00023598125263939605,0.00036314768868072705,0.0010292045580861417,0.0020374041169930043,0.003365958046139653,0.004792803051569031,2019-10-01
11,FRA,-0.002142559701307949,0.00015219545298923435,0.0018546967068815768,0.004458895939978418,0.004311205123515035,0.004481182487013966,2019-10-01
12,BGT,-0.0018379052438381967,0.00014621104527027927,0.0012494910062353724,0.0042835697343846695,0.004140516155523623,0.003167506559761393,2019-10-01
13,EFT,-0.0009135240338861883,0.00012130194627404906,0.0009028459318995131,0.0035062576122784927,0.005349610837253075,0.006805898482847217,2019-10-01
14,EFR,-0.0009197776996539733,0.00012153825794295176,0.0009227350907001369,0.0035130882494892805,0.003961207930687434,0.0034070778037264614,2019-10-01
15,JSD,-5.465351315380646e-05,0.00012828480383340402,0.0007072370750199879,0.002049001079766373,0.002621547087003281,0.003180376513308638,2019-10-01
16,JFR,-0.00011343188734987712,6.0910588080916224e-05,0.000727523953191217,0.0028253839429998786,0.0015836928536266549,-0.0006352583629767724,2019-10-01
17,JRO,-6.810055560104983e-05,5.360090472328885e-05,0.0010132874160939417,0.0024863187223584703,0.0018959092767992375,0.0009349666467481987,2019-10-01
18,NSL,-0.00013080103477384108,0.0001031558761655401,0.0008297821222044047,0.0027430838440865063,0.003851055136902572,0.00320989023955357,2019-10-01
19,EVF,-0.0009323291034225732,0.00033029856001585094,0.0008008047368298053,0.00304886823904954,0.0044975205207416795,0.006205297686528428,2019-10-01
20,PHD,-0.0008946195295455274,0.0003248052924855023,0.0012096981727400269,0.002998161845109832,0.003394864602018638,0.0015749547105594298,2019-10-01
21,FCT,-0.0015664234794960795,0.0006163392761854108,0.0012321255043027226,0.0035697032549553698,0.0062618108708580224,0.007714356705113514,2019-10-01
22,ARDC,-0.0007675886113890837,0.0005759313795298343,0.0011744762049283445,0.0029128929165078907,0.0035147974960299273,0.005019152790991734,2019-10-01
23,AFT,-0.000675410204100384,0.00036568432921268713,0.0012526415292502342,0.002960579202713228,0.0066705328626692215,0.010481649229660626,2019-10-01
24,AIF,-0.00033050715419260255,0.0002776157228284289,0.0006798911442709139,0.002247576036746206,0.0033733687852099408,0.004215147416317582,2019-10-01
25,BGB,-0.00031195394820985375,0.000631638966932414,0.0008389441079359631,0.0020629163158193725,0.0026050930321923774,0.002686757944213556,2019-10-01
26,BGH,-0.00023413523357461693,0.00016881058144896225,0.0005897537924071572,0.0014626857804167115,0.0005109813364897825,5.949416859804343e-05,2019-10-01
27,KIO,-0.0003737520141735129,0.00020309643280868795,0.0007156572687480363,0.001759760921221874,0.00034200021404831143,0.0002794960679225458,2019-10-01
28,BIT,-0.0006299414347556018,0.0003800267684033853,0.0011213992669362074,0.0020597897595813833,0.0022535925997639594,0.0031974983781945117,2019-10-01
29,JPC,-0.00021955256709383768,0.00019397748343506218,0.0013550810541293735,0.0017999339172258386,-0.0024302152132599925,-0.003904998819437329,2019-10-01
30,JPS,-7.243096260313634e-05,0.0001335956848012392,0.0008884351372338979,0.0012396459630803639,-0.0021703632082750606,-0.0035290240494628873,2019-10-01
31,LDP,-0.0001588956265286695,0.000264299392257753,0.0008170367913592222,0.0015007357911343208,0.0009876777730922256,-0.0003415278014531319,2019-10-01
32,EMD,-0.000338644531032074,0.00029924740283949927,0.0012323521287058966,0.001647412387091733,0.001444180919499013,-0.00035593228390997544,2019-10-01
33,EHI,-0.0007410523433174547,0.00041803849168041066,0.0012277845203903389,0.0023013793367651254,0.0006249166925995357,-0.0008513983436264998,2019-10-01
34,VLT,-0.00250633118655224,0.000706125259018541,0.0018954032639790423,0.003529019784338121,0.0022968934878373004,0.001601477598683363,2019-10-01
35,PHT,-0.0007785359442357546,0.0003726300621629922,0.0010002251400298698,0.0018623025374281555,0.00038081971736580187,-0.0008675525151991599,2019-10-01
36,HYB,-0.0007982215928970025,0.0006740775677334598,0.0015974475596312212,0.0023854506760378094,0.0013043132196190583,0.001805034903643406,2019-10-01
37,DPZ,-1.3888701757942281e-06,2.113393981846119e-05,0.00018809833472502763,0.00022339058253612986,-0.0011527824957153368,-0.001955788863447469,2019-10-01
38,MED,-4.806925873868063e-07,9.721522991720273e-06,5.9149203027749715e-05,0.00010275872378332998,0.0019535380455235943,0.0021780735537822674,2019-10-01
39,TGT,-1.049860450461535e-06,1.1951483665327032e-05,0.0003889035694003257,0.00012279600971347137,-0.00035515948239010184,-0.0014163686244378932,2019-10-01
40,FTAI,-6.658228503376264e-06,3.403369118592822e-05,0.0002727131325493686,0.0004421520845424579,0.0003152351571950926,-0.0009246734354266545,2019-10-01
41,SBR,-3.7296158955767854e-06,2.2342763368205362e-05,0.0009647348448990797,0.0002902682328437962,-0.0008838030193179968,-0.0012823595213965551,2019-10-01
42,NSP,-5.34637160935581e-07,8.561985136707509e-06,6.8323729331299e-05,8.948173731119159e-05,0.001774444186963379,0.001774963785968048,2019-10-01
43,CALX,-6.667092785197277e-07,7.599529812378656e-06,8.605057383903454e-05,9.533037568166271e-05,-0.0011319453032681325,0.0010156616802041102,2019-10-01
44,ENB,-6.67367680675135e-06,3.638458791880708e-05,0.0008016609672741503,0.0004564172417183667,-0.00441522900431996,-0.008573307251109994,2019-10-01
45,CTRA,-4.4471596623408725e-07,1.825813955950632e-05,0.00013912901637111054,0.0001891405467183929,0.0004824222116520148,5.8269691945660526e-05,2019-10-01
46,DHX,-9.33778360207234e-08,5.872313952897249e-06,6.708404818481235e-05,6.0832740813109685e-05,0.0003565495096210025,0.0003592337055936594,2019-10-01
47,ABBV,-8.163286559267128e-07,2.0045702645189626e-05,0.0001920993562022876,0.00021022271180700373,0.0016645941878199433,0.002411548920172216,2019-10-01
48,CCO,-1.491765160298513e-07,6.109188435832503e-06,8.502843325806927e-05,6.406810390499774e-05,0.00189308871177897,0.003043620287139684,2019-10-01
49,DSX,-8.121360643588714e-07,1.3319999196048718e-05,0.00047059556133415275,0.00014041615442269553,-0.0016118779945613,-0.0020179341011896516,2019-10-01
50,KNOP,-1.6056162019292815e-05,7.292210409923659e-05,0.0005869609698034465,0.0007687268804838771,0.0008550448561754845,0.0005144564855215518,2019-10-01
51,ROL,-2.8302287791332102e-06,2.8631128698454404e-05,0.0008004614070168585,0.0002934220602456541,0.0005042854840009188,0.0004641949333915798,2019-10-01
52,LPG,-1.928365747529824e-07,6.638880749161555e-06,8.007591640116606e-05,8.90152986624481e-05,0.0018688848144010081,0.0023336280030973712,2019-10-01
53,NVGS,-7.576589267535414e-07,1.5904817438086017e-05,0.0001813095167044501,0.00021325463250740606,-0.0008491547124570614,-0.0021862847722834353,2019-10-01
54,SUN,-1.0589269595320667e-05,3.036375831784183e-05,0.0006189690866385107,0.0005061094957916446,-0.0005555963941008753,-0.002692569917141855,2019-10-01
55,DDF,-1.82676280102413e-06,8.974710499286305e-06,0.0007019379146927748,0.00019963074916430067,-0.002098774872985889,-0.003286608233574629,2019-10-01
56,IRL,-1.2468423026141287e-05,2.659789766114745e-05,0.00044210210057805136,0.0005916356005814907,0.002070989555296917,0.002462913039546052,2019-10-01
57,BURL,6.159313608184246e-07,6.567965549224297e-06,5.101094059252169e-05,0.00010947622813021618,-0.0016677332389116346,-0.003175040961455384,2019-10-01
58,AZO,-6.852343260895841e-06,2.1496068942627915e-05,0.00028700395272371993,0.0003612828092698926,-0.0005527206853155421,-0.0005594898222661986,2019-10-01
59,BB,-5.5482702841518087e-08,4.03101688275631e-06,6.208339244608441e-05,6.774899668881162e-05,-0.001040174535017746,-0.0009555680612749256,2019-10-01
60,TARO,-5.034082638806168e-06,2.1809152637333966e-05,0.00018892983820843154,0.00028095196412961446,0.0008870977227081819,0.0006813211789523384,2019-10-01
61,BUD,-4.017623479225177e-06,2.2154831256313083e-05,0.0002406035464248008,0.00031605489878298133,-0.0010149045916975571,-0.0003084248762168531,2019-10-01
62,NOK,-2.2120251523067533e-06,1.5516344622445956e-05,0.00014698558816736513,0.0002213520235109712,0.0028962869371080813,0.004030313014911637,2019-10-01
63,KT,-2.122289303897603e-05,6.542330905240205e-05,0.0006807650610919321,0.0007449909259222299,0.0014193422288896846,0.0006282775122884934,2019-10-01
64,NL,3.117854399167028e-07,2.890422582863633e-06,3.7549005054489395e-05,3.291393583576371e-05,0.000977027534704487,0.000866565363669326,2019-10-01
65,CIEN,2.4277047772690138e-06,1.0300443660289789e-05,7.250668193678098e-05,0.00010556263541261204,-0.00034273804458288994,0.00016938716712723613,2019-10-01
66,SAR,-1.589624264131665e-05,6.154789725999075e-05,0.00039027549206650927,0.0006307648925761436,0.0027001530395915976,0.003077521261598668,2019-10-01
67,TKC,2.2351447461121284e-06,1.1303420640823e-05,0.00030139320782637694,0.00011584150269397449,0.0016092674398847854,0.0013318488756159518,2019-10-01
68,GNW,-1.2486129110209598e-06,1.6369546959836125e-05,0.0004327950699377743,9.673679441279216e-05,-0.0026359100114322037,-0.0037935755541711334,2019-10-01
69,POST,-9.433764888017742e-06,5.0837622702035675e-05,0.0002769100216986104,0.0003766842048857001,-0.0009798736629795916,-0.0022555850315308977,2019-10-01
70,TRP,-2.3378988541067413e-05,9.805411704444994e-05,0.0012761058681660929,0.0007265374569369665,-0.00011510182897218919,-2.377543031626469e-05,2019-10-01
71,TSLX,-4.570743029041155e-05,9.423070430021014e-05,0.0034532809009109842,0.0011676785281785854,0.002698213964868123,0.00360165747506802,2019-10-01
72,ACRE,-2.0414561204013506e-05,3.228444501489999e-05,0.0002817018492393367,0.0008354012736281293,9.856190748200845e-05,0.001246237180751736,2019-10-01
73,EARN,-8.510131881415481e-06,2.140814115294682e-05,0.000253449485145832,0.0005539630115037907,-0.00024039758912360558,5.066473213085118e-05,2019-10-01
74,FGB,-1.378446740447914e-05,3.4784683981615735e-05,0.0003524114530853116,0.0005969547656442606,0.0031022345724058503,0.0066616454859964895,2019-10-01
75,SCM,-8.545067864876616e-06,5.965728516388312e-05,0.001942339581094223,0.0005225019339641458,0.0008391705141294628,-0.0015810104162827547,2019-10-01
76,EFC,-3.727400196540305e-05,0.00010840862390387123,0.0011441672205584692,0.0009494853058190602,0.0023381859983271944,0.0013709843159340255,2019-10-01
77,SMG,-4.154903064704913e-06,2.6530089049541838e-05,0.0005905256374920158,0.00023926112283761253,-0.002163088879478616,-0.004684350954521111,2019-10-01
78,WF,-2.724121505356667e-06,1.9930847750869667e-05,0.00015945936477684692,0.00017974598589072334,-0.0013786236169662438,-0.003358317527359244,2019-10-01
79,MFG,-1.990722073400002e-05,6.947637267046537e-05,0.0004277542861093441,0.0006935216045783172,0.0029649819841594395,0.003048782028727111,2019-10-01
80,NMR,-3.175097688899095e-07,2.16314122793091e-05,0.0001881720830121757,0.00021592738907652995,-0.0009213000931567023,-0.0011808181161405175,2019-10-01
81,GKOS,3.111090562136468e-07,1.3625571944350292e-05,0.00023575097574783367,7.477960543645008e-05,9.38584369805572e-05,0.00024575617090816823,2019-10-01
82,PEN,5.294396996319138e-07,1.8922194729906363e-05,9.341942714964234e-05,0.0001038484301189856,-1.814599296455338e-05,0.0006183852898405467,2019-10-01
83,HUM,7.749287512624079e-07,2.169312180391909e-05,8.255011966417345e-05,0.0002077256058447835,0.00431812361897561,0.003549680421398806,2019-10-01
84,CI,7.66277239534162e-08,6.121097629432944e-06,6.641875199187201e-05,0.00016713331916530025,0.0016245919956370516,0.0016814203802913174,2019-10-01
85,UNH,2.711614496737382e-06,1.1204061222740458e-05,0.00016213556934702698,0.00030592093994444584,0.0018904050543125837,0.0035219564846518353,2019-10-01
86,CNC,9.520104479357214e-08,1.0250554286039364e-05,0.00011370421486749204,0.00016565710372782891,-0.0033740752838475763,-0.007020954938522869,2019-10-01
87,DVA,1.2170452127806455e-06,2.9560267936343605e-05,8.976460226986007e-05,0.00016883376981077837,-0.0002425674202494734,-0.00016509871027383302,2019-10-01
88,SFE,-5.118166683146512e-07,5.467115122037875e-05,0.0006521240480161491,0.0003095096079307222,0.001979758390122657,0.002530581581757822,2019-10-01
89,ATHM,-5.36687084329205e-08,1.0856167669963308e-05,6.0581466583541465e-05,8.107211505984076e-05,0.0012498463823936016,0.001287644217248093,2019-10-01
90,EVRI,-6.417695886075569e-08,1.2259649563999882e-05,8.425274098400566e-05,9.15530922386062e-05,-0.0009470955173682156,0.0008743764271504362,2019-10-01
91,ATEN,-2.2965602879290717e-07,2.5357654905469293e-05,0.0006602874083888612,0.00018916936872639858,0.000243508636142079,-0.00011069022607101286,2019-10-01
92,PANW,-2.3658996038208634e-07,2.58775193776095e-05,0.0006744191101958892,0.00019304758358438363,0.001634046664315334,0.00013422126968589258,2019-10-01
93,MIXT,-2.6920029814336215e-07,4.8303891722532784e-05,0.0008398935390607675,0.00021222260512172213,0.0007046553130760181,0.0007471215376483471,2019-10-01
94,ACB,-2.3577990259427843e-08,6.365009350525491e-06,0.00011652798462542045,4.7071092727182687e-05,0.0008499047001172712,-0.00017117830707046987,2019-10-01
95,CGC,-2.6237544202748255e-08,6.58399336245046e-06,0.00011461137246642366,4.869054309456348e-05,0.002229254538672966,0.0020298336027511805,2019-10-01
96,PKE,-3.169657704030455e-07,4.0685059434907185e-05,0.0002800995105433146,0.00018280178331228278,0.0002813885390937079,-0.0006471739512420897,2019-10-01
97,MANU,-6.892325449581971e-07,5.960093577926193e-05,0.00021963916774227058,0.0003197731404523876,0.002543933104771103,0.0009323352735484935,2019-10-01
98,SUP,1.640506304351352e-08,5.00042052331517e-06,6.160449811130142e-05,2.682844075209024e-05,-0.001669432863949634,-0.0017625330687655021,2019-10-01
99,USAC,-4.5690767497888523e-07,5.367603359379202e-05,0.0007140981646087502,0.00023176766789506694,-0.000325660774427119,-0.0008868017150002819,2019-10-01
100,BRT,-2.797887732983029e-07,2.6984454251634898e-05,0.0004223084118170651,0.0001894741601686406,0.004441961454005689,0.005206533756772437,2019-10-01
101,UAN,-1.5479572472037943e-07,1.7982847653924155e-05,0.0002881557227567539,0.00012626844052113643,-0.001754701520815409,-0.0012488902787192808,2019-10-01
102,UGI,-1.066817418724353e-06,8.66905103258179e-05,0.0003303546264190827,0.00046680076913523707,-0.0011479375089860874,-0.0017109898073647634,2019-10-01
103,LEE,-6.445949624387408e-08,1.5031838967781454e-05,6.271347398652557e-05,8.24249147468543e-05,5.063293655976213e-05,-0.000968022906685378,2019-10-01
104,NUS,-6.136946892088898e-08,1.0779847274501005e-05,7.100989526490259e-05,9.42324772800151e-05,-0.0023483038599649117,-0.0026911891810067795,2019-10-01
105,TISI,-1.3816657231828383e-07,1.9033306476280788e-05,0.00016062048742604323,0.00016638042955694073,-0.0001603122623269348,-0.0005578013326896469,2019-10-01
106,MX,-5.091814467424221e-08,1.1270065673341318e-05,5.796718826787152e-05,7.692437414618196e-05,-0.000102531688511393,-0.0010338151663163255,2019-10-01
107,ENZ,-3.06087157197824e-08,1.0090110857092864e-05,3.180934785166643e-05,5.526174187137829e-05,-0.000842351863009015,0.0007893581431931115,2019-10-01
108,STC,-4.3671661417294375e-07,4.5607142092416737e-05,0.0011342516216664533,0.00033712918599728607,0.0013776178108031837,0.002098612141336494,2019-10-01
109,DCO,-4.2833114298634125e-08,9.058630813992574e-06,5.540254977892528e-05,9.870205161233686e-05,0.0006280978434068776,0.0008005392484450411,2019-10-01
110,MG,-9.249288536059306e-08,1.3392057676346375e-05,8.816421340446156e-05,0.00014591869291376278,0.00044626909747306917,3.8651767275651265e-05,2019-10-01
111,ICL,-2.954008405513907e-07,3.5155498248530485e-05,0.0004554882427768123,0.00026438679768954194,0.0004322298909861514,0.00036313470545563893,2019-10-01
112,YELP,-9.376847726198658e-08,1.6371205084379183e-05,0.00010624089047110038,0.00012311958874764882,0.001223419686588647,0.001447738120240282,2019-10-01
113,SXI,-4.582713029419443e-08,1.3322780079505752e-05,0.0001869890788247686,7.728772023965536e-05,0.002258132113918163,0.0018471703485053786,2019-10-01
114,MDC,-2.114712745499258e-07,2.558112027779396e-05,0.00012235093963953954,0.00021740074166517095,-0.00038615308600216744,-0.0004714300903719923,2019-10-01
115,BLD,-1.6147770524323605e-07,2.2111996136037974e-05,0.0001336733049898702,0.00018791844561416544,0.0017045439843533818,0.0014481755324773095,2019-10-01
116,ORC,-4.1066814424747905e-07,5.1237855196498176e-05,0.0007305726275252044,0.00029878648341001053,0.0015007743547358788,0.0012209439353468399,2019-10-01
117,RYAM,9.778201495196259e-08,4.269162639648285e-06,2.4818854054092627e-05,1.9629880982538414e-05,-0.0012517121505288224,-0.0013722800558519889,2019-10-01
118,WMS,-2.3690890531487832e-07,4.150133124574091e-05,0.00017424753561388198,0.00023391710617444962,3.064950736926392e-05,-0.00112834398059707,2019-10-01
119,CIR,-2.461045823268117e-08,9.468250937773642e-06,4.31800689961337e-05,5.336662206769143e-05,-0.0020405197887009333,-0.002540966452107881,2019-10-01
120,VLRS,-2.0839990807658242e-07,3.764239648053529e-05,8.699662210000768e-05,0.0001056013620069012,0.0018411226270395522,0.004009593746843448,2019-10-01
121,INFY,-1.6100659029748862e-06,0.000136450517043006,0.0004723770108082499,0.0003827960436508959,0.003456339648462488,0.004009626277735295,2019-10-01
122,TV,-3.612582278253155e-07,5.598686986580396e-05,0.00011721602150629059,0.00012429239738802108,-0.00043632976665168165,-0.0001810958646178439,2019-10-01
123,IFN,-4.547891104143913e-06,0.0001325817288765917,0.00037474301655116905,0.000640761285694186,0.001729340484585903,0.002959781080709511,2019-10-01
124,TLK,-1.7560536641532226e-06,6.804477167791512e-05,0.0003588643660995143,0.0003288571943852983,8.78424923390976e-05,-0.00032408895070666773,2019-10-01
125,DQ,-2.902162354975742e-09,4.764575724987131e-06,3.433418930995558e-05,4.0419713683343773e-05,-0.0001888160732110065,-0.0004269080172132374,2019-10-01
126,JKS,-3.3860798067905497e-09,5.073000294367114e-06,4.0611975377840413e-05,4.3036196977306136e-05,-0.0008703447587769574,-0.00046183649152532183,2019-10-01
127,NOAH,-1.584935707073872e-08,9.999468627961994e-06,7.292406638151166e-05,7.072219019177238e-05,3.103631192852357e-05,-0.0005248032915672637,2019-10-01
128,TAL,-3.774348600304833e-08,1.7571255828249354e-05,0.00010374987061879963,0.00012427437325207268,0.0005602828570716365,-6.285336367179747e-05,2019-10-01
129,BHP,-1.1643897873718442e-06,3.495300364997076e-05,0.000216973402227994,0.00033352409423203084,-0.00014147211368655194,-0.00259124036493488,2019-10-01
130,YRD,-3.6319185967087426e-09,5.659235927695413e-06,5.2096160374344613e-05,5.4000839405158186e-05,0.0003130136516636861,0.0005590465955199626,2019-10-01
131,AVAL,-9.024355096299988e-07,1.944581908574618e-05,0.0001417628110010528,0.0003048464387266772,-0.0026509707417854966,-0.0036590864910515998,2019-10-01
132,LPL,-6.448199319572993e-08,6.972560565923271e-06,6.424044390633348e-05,0.00010930679998384918,0.0008647075286020641,0.002362114187352187,2019-10-01
133,KF,-1.6241685466751578e-06,2.8493740752529906e-05,0.00010614656683446531,0.000454348307182189,0.0013165512380206577,0.001204243829074331,2019-10-01
134,IAE,-2.8425399648139987e-06,3.790965902350238e-05,0.0004683886585267483,0.000604490282717723,0.002379874472856338,0.0033279064941043393,2019-10-01
135,FMS,-6.480410478480459e-07,3.6297862895797264e-05,0.00021889059168044337,0.00027182675987612336,-0.005074177805928694,-0.009018743508814386,2019-10-01
136,ASX,-2.109380123623749e-07,3.1168582969117137e-05,0.00017717246730024577,0.00017504466063064818,0.0007951108509082257,0.0011977339817922465,2019-10-01
137,UMC,-2.225055262943165e-07,3.2231285068037525e-05,0.0001537598673662955,0.00018101286035411042,0.00428034194340638,0.0041563953112627,2019-10-01
138,ERJ,-7.653088325295351e-09,3.541726641348381e-05,8.613431591126107e-05,0.00021146469211210354,0.004228984043730708,0.006552787127402608,2019-10-01
139,SID,-2.729260140558849e-10,7.690938461471314e-06,5.454849958651296e-05,7.496461202200208e-05,-0.0034063249911007124,-0.004048617064714475,2019-10-01
140,VALE,-2.7930260830407516e-09,1.434830015270496e-05,7.353018042929498e-05,0.00013985481219375015,-0.000842155384219613,-0.0008858151646798651,2019-10-01
141,BBD,-3.2897585021700195e-08,9.599710193154306e-06,0.00011500279248943647,0.0001594127350294718,-0.0025951797728294185,-0.002574494750520023,2019-10-01
142,VIV,-1.4515502418844094e-07,1.5131608849718842e-05,9.427430395540204e-05,0.0002512754139025983,-0.001759453012083065,-0.0029876316969959893,2019-10-01
143,UGP,-4.05093990349479e-09,8.835899760933866e-06,4.8937700577398586e-05,8.918501919807032e-05,0.000738127529657939,4.947375095719221e-05,2019-10-01
144,SBS,-6.574902114986538e-09,5.593302134340185e-06,6.10938863089818e-05,0.0001018567269065858,-0.0016775382160980675,-0.001631729016427411,2019-10-01
145,EBR,-1.0470576037601556e-09,2.175818918049386e-06,2.1741816939100078e-05,6.479594315198547e-05,0.00024266054231085452,0.0008147438823183225,2019-10-01
146,CIG,-1.033901436481575e-08,4.019615530863348e-06,4.0165909172231437e-05,0.0001197042535433768,-0.0004020508595807091,1.695918654893443e-05,2019-10-01
147,CBD,-1.8526856981411576e-08,1.2714465899331885e-05,8.891443516344949e-05,0.00013476481196314798,-0.0016455075832211518,9.350010667019576e-05,2019-10-01
148,AGRO,1.4469714394870687e-07,2.254197243533509e-05,8.133375374199303e-05,0.000124268222469523,6.753923741261473e-05,0.000636190256500301,2019-10-01
149,ARCO,1.62363551813946e-07,2.4070820991105948e-05,0.00012158826222291369,0.00013269637989876966,-0.0002384781879917764,0.0006810431639056884,2019-10-01
150,AMX,-2.3961478088396696e-07,1.7531468062255376e-05,0.0001544453432722594,0.00023011113751946624,0.0008399836829342336,0.0012792195904879524,2019-10-01
151,KOF,-1.265458974256271e-06,3.497117728432446e-05,0.000164230478049966,0.0004590178846811055,0.001256345492593515,0.0019269956138144159,2019-10-01
152,ASR,-3.381554955159234e-07,3.052307929361933e-05,0.00010211625826208496,0.0002648543687784454,-0.00043620047698540883,-0.00019281015563898384,2019-10-01
153,MXE,-9.953871382120318e-07,6.384751111342834e-05,0.00019826331122633546,0.000352616722384949,0.0018085954199154788,0.0027418785892586637,2019-10-01
154,BRFS,1.4867139765084474e-07,2.314481509293102e-05,0.00010432777737120569,0.0001152246288246751,0.00032289744625904436,-9.961430850738062e-06,2019-10-01
155,CPA,1.5373950353649102e-07,2.3701190942024652e-05,0.0003951635263012752,0.00011799450192331168,0.0027265075655243543,0.0035463991086219318,2019-10-01
156,BCH,-1.7192784493101655e-06,6.110488312914465e-05,0.000315362009566006,0.0005397585263794858,0.00528888179588959,0.009581297517035582,2019-10-01
157,BAP,-1.2273154429399825e-06,5.1760421116653876e-05,0.000236030960075414,0.0004572159735198203,-0.0007790348785810974,0.00032592544997818624,2019-10-01
158,CCU,-9.119466897721931e-07,6.77048952194639e-05,0.00023231257537544874,0.0003976150885030127,0.0024951922140694213,0.004095198454701668,2019-10-01
159,SPG,3.666742400222124e-07,0.00010515770359696247,0.00013088819084979776,0.0004520062752384572,0.0004905004101573721,-0.0010170018775520625,2019-10-01
160,SKT,1.7974305246302187e-08,5.12653787420744e-05,4.883757485826169e-05,0.0002203573499731995,0.001078968513562171,0.002309346920694135,2019-10-01
161,SEE,1.4538150940106503e-07,8.789040702092842e-05,0.0006945094979378144,0.000233207582131702,0.0011409635313256168,0.001801491356402512,2019-10-01
162,HCA,7.851821516585616e-08,5.1978436537291656e-05,8.437314934137073e-05,0.0002254892634551386,0.0020512511389604478,0.00103469493844122,2019-10-01
163,SSD,1.072905580709601e-07,1.899885475867978e-05,0.00010019872445818385,0.00028909867282628086,0.0014759385969380407,0.0006477251007383621,2019-10-01
164,TBI,2.165981147568305e-08,1.195257399024736e-05,4.696883005307472e-05,0.0001818779774533397,-0.00045410377288050214,0.00024178484057500664,2019-10-01
165,BERY,3.6808137832814316e-08,1.2071078443122183e-05,0.0005589687223526087,0.0001746537146879141,0.0018615037547846246,0.004023629399545197,2019-10-01
166,GVA,5.238595127251131e-09,6.2385292732094605e-06,2.235809104468357e-05,9.026387467278403e-05,0.0019361437376253284,0.0034119726452977455,2019-10-01
167,UAA,-1.9231354671041634e-09,1.1700556206098607e-05,2.661199779568083e-05,0.00010743770695901713,-0.0028112173784098173,-0.0029863111101397755,2019-10-01
168,TNP,3.408582330321001e-08,4.6407543869446486e-05,0.0002708973438280315,0.00012738756106933145,0.001490666700463858,0.0016803779379982466,2019-10-01
169,KMX,7.98142983636653e-08,8.930453447885647e-05,0.0007817957777167941,0.00025373960213286235,-0.000600135752638116,-0.001201424874065407,2019-10-01
170,AN,4.952662057374193e-08,2.4023406851061945e-05,6.051501633337217e-05,0.000223016984506791,0.0024561331521396022,0.0034744127534625676,2019-10-01
171,SAH,1.0614744736557472e-09,9.068825972159011e-06,2.2844393188364652e-05,8.418881775872541e-05,-0.0004657938493899072,-0.0007165714783586853,2019-10-01
172,LAD,3.065284955582121e-08,3.0058121503973338e-05,7.571647622839243e-05,0.00018258155617801217,0.0020667655236227002,0.0011995757259234793,2019-10-01
173,LL,7.687911852467574e-11,1.148110480723093e-05,0.0001700474194531037,4.305401970043902e-05,0.00022997857674468889,0.00013288170706767107,2019-10-01
174,ACCO,2.6616161848725895e-08,2.6378253837500868e-05,6.410842641322022e-05,0.0001100333527942139,-0.0014923374043135354,-0.0033518697329037272,2019-10-01
175,QUAD,-3.6163679820494567e-09,9.92294353878197e-06,2.411623982305316e-05,4.139222989838764e-05,-0.0011195370856575822,-0.0009000105719091194,2019-10-01
176,RGS,2.5968836379811367e-08,4.9093793743748536e-05,9.759799491090001e-05,0.000123728128754717,0.0005002786886641506,-0.0002991056931435311,2019-10-01
177,AHT,2.322314218561483e-09,1.5735650427978663e-05,0.00020161308586185109,6.566190733144792e-05,-0.0029144324298234388,-0.0021330806119355533,2019-10-01
178,TLYS,1.733882869342733e-09,1.3220423898577178e-05,3.341594810698065e-05,5.516634046263214e-05,0.0019217624469652938,0.002782556659372796,2019-10-01
179,MOD,2.250573259026335e-09,3.7839389063993246e-06,2.8604282345360097e-05,6.890154304865769e-05,-0.00021309667509309476,-0.0011308218279844184,2019-10-01
180,PGTI,8.772188077527334e-09,5.818161560145439e-06,4.3981771406474686e-05,0.00010594259556422681,0.0012825537549395966,0.0011782451775942829,2019-10-01
181,RGR,2.201368825364218e-08,1.294920268701367e-05,9.788811578860763e-05,0.00014360617929136892,-0.0010326804440372937,-0.0017043695988509077,2019-10-01
182,GHL,1.6110535943307017e-10,8.161258756471337e-06,3.223441725720081e-05,5.5238538873771996e-05,0.0014103089403861091,0.002155089992480853,2019-10-01
183,HBM,8.939180708261731e-10,1.1815515059906324e-05,3.060858015089425e-05,5.236715898911115e-05,-0.0028119002931101447,-0.0011069610622479243,2019-10-01
184,GFF,5.298795636936703e-09,8.348053298312489e-06,6.898006758744665e-05,8.503688354232907e-05,0.00039178416122540645,-0.001290596751776632,2019-10-01
185,MTZ,1.8685590228946525e-08,1.3267863802935324e-05,8.222712595252991e-05,0.00013515220240553153,0.0007037177489149567,0.0008778529016953041,2019-10-01
186,CLW,2.2184320066293244e-09,8.949724649992408e-06,3.4835408497272203e-05,5.725704413918956e-05,0.002365213538453523,0.0031527433142652895,2019-10-01
187,MCS,7.285591806559476e-08,6.212231140719028e-05,9.588912970931225e-05,0.000260750680165416,0.00045385478825473,-0.00028294703052801135,2019-10-01
188,PBF,2.2309859837230827e-09,2.7269547170435906e-05,8.84669223218222e-05,8.12077665098948e-05,0.0012268274241299204,0.003180880626164109,2019-10-01
189,LZB,5.932357932431355e-08,3.0199228275288602e-05,6.741178125178697e-05,0.00016410171852245634,0.0002745695404101662,0.0014968634502350651,2019-10-01
190,MPX,2.6723048022836616e-08,1.7715805384389963e-05,7.918741359417555e-05,9.626716557411752e-05,0.0004589839878979891,0.0009843006551013553,2019-10-01
191,MUSA,1.726156994795946e-07,7.636013675484992e-05,0.0010508595009816727,0.0003161813133731816,0.0006814448951022915,0.0008372021968202847,2019-10-01
192,HOV,-1.8146713309417865e-09,3.3552330084969013e-06,3.7788706095838616e-05,1.4469274083469823e-05,0.0005655178525347986,0.002186874187539695,2019-10-01
193,LYG,1.4967774852323852e-07,5.0594557547980404e-05,0.00015963222109402183,0.00028617172817346667,0.0014846039159397697,-0.0004141965753360622,2019-10-01
194,MHK,4.252643175508755e-08,2.253067995267729e-05,0.00016031509012837326,0.0001274374939017193,0.0008247812034475069,-0.0005856811754655694,2019-10-01
195,VSTO,8.804354038991111e-09,1.2707778490860005e-05,5.079011224638674e-05,4.912796540387068e-05,0.00013329778972387779,0.0007737334593819864,2019-10-01
196,BIG,4.173413807339051e-09,6.993103603616818e-06,0.00010230156209393845,9.147829995042655e-05,0.0008560704370165084,0.0033341612898689283,2019-10-01
197,DECK,8.725065631406008e-09,1.1160522355410852e-05,9.449601307587015e-05,0.00014599320552089124,0.0026693122300541013,0.003419512554209771,2019-10-01
198,MOV,2.1039105160036103e-09,5.23623962607513e-06,5.0565548343618146e-05,7.269790886993012e-05,-0.0024371049532353794,-0.0031608473444835966,2019-10-01
199,TPR,2.0828468579208027e-09,5.206410921505517e-06,4.168748955870848e-05,7.228377876868128e-05,-0.001804202455299963,-0.0010060828786330933,2019-10-01
200,BLX,3.8138394299143304e-08,1.8274653220387644e-05,0.00020759458935061824,0.00022572652020793593,-0.000524051594617047,-0.0006533327904591363,2019-10-01
201,TCS,3.921513074605792e-09,4.676885981130944e-06,3.3710707332750735e-05,5.776838472383188e-05,-0.0020666423043001,-0.003034233199627038,2019-10-01
202,HVT,2.0166492644251895e-08,1.1949213800113237e-05,5.60403099137732e-05,0.0001596825614163042,0.0022166994240192025,0.001400360754693885,2019-10-01
203,HZO,7.085992445378815e-09,6.4404794839851135e-06,3.0205038784426455e-05,8.606693946192131e-05,-0.0028138262606919743,-0.0024227461181915966,2019-10-01
204,ANF,2.170755800563413e-10,2.0082801247117734e-06,3.043661678033214e-05,4.37586156085823e-05,0.00038437601973320603,0.0004371229571746081,2019-10-01
205,BBY,4.683709642794431e-09,6.151127241946659e-06,8.734126159874075e-05,0.00013402752396329825,-0.00025977997676085207,0.00012468869203784613,2019-10-01
206,BBW,5.756634572611323e-10,3.2342584365004365e-06,0.00013241001999032292,4.8839909051843395e-05,0.00013000629699535366,0.00011399629383016229,2019-10-01
207,WSM,5.1394932656988456e-09,8.7193254915159e-06,0.0001208471682877252,0.00013765660282147885,-0.0015971773953484844,-0.004203683129064059,2019-10-01
208,CAL,6.740811324908536e-10,2.316361798797771e-06,0.0001426635979622273,5.505569792755638e-05,0.0001708548772018707,0.0003292923905140065,2019-10-01
209,GCO,1.6953957048983496e-09,3.5712667506316544e-06,6.789579995234613e-05,8.488250131890038e-05,-0.0009740764500015145,-0.0007190833301558519,2019-10-01
210,DKS,1.2644429115829482e-08,7.073093139335593e-06,3.727273333092475e-05,0.00014433166303537713,-0.0018139687564431742,-0.002020871665461845,2019-10-01
211,FL,3.53698363798438e-09,3.847498270195779e-06,4.356969803193063e-05,7.851102946387285e-05,-0.0009634435539106239,-0.001328100145075649,2019-10-01
212,JWN,2.571433831676915e-09,2.329957778651322e-06,2.3300017610267025e-05,7.162757032352647e-05,5.187626804165983e-05,0.00023323066139776684,2019-10-01
213,SBH,3.434829357824256e-09,2.678385633362907e-06,7.940219312768859e-05,8.233894067311095e-05,0.004240716621915483,0.006153623430741614,2019-10-01
214,MAC,2.8979601143499406e-08,1.0493898999539096e-05,4.7161343750213364e-05,0.00021279411928485826,0.001882257218247122,0.0027787119100533015,2019-10-01
215,CHS,-5.017451244678183e-11,6.422823393779763e-07,2.5990579329560385e-05,3.419248648245281e-05,0.002650613879415182,0.0029356574043022583,2019-10-01
216,EXPR,-2.5916237059379272e-11,5.247776575729604e-07,1.855478510406504e-05,2.7937017512009113e-05,-0.0010176494206822696,-0.0008002894632087486,2019-10-01
217,GME,-6.747742651815347e-11,1.102837437097163e-06,3.093521487117861e-05,3.485993948248386e-05,0.0009438858484844686,0.0014986007368553993,2019-10-01
218,AEO,-3.087027785976062e-10,2.262328448673708e-06,5.341039427169974e-05,7.45242695505999e-05,8.199506489949121e-05,0.00038501621848031735,2019-10-01
219,SIG,-1.9439235472254492e-11,9.198095541910581e-07,9.85634773427187e-06,3.0299815746001854e-05,0.001067144342945636,-7.119881613386568e-05,2019-10-01
220,ARL,-3.427786167562186e-08,1.7678949779620246e-05,0.00013032750839899265,3.95604052659529e-05,0.0007070742286502274,-0.0008900063213674911,2019-10-01
221,IDT,-5.204396192860307e-08,2.3919930680865737e-05,4.0725510688794354e-05,5.352592566100243e-05,0.001596916086903703,0.0014384569130476829,2019-10-01
222,AMRC,-5.857116868010741e-07,4.275861002884402e-05,0.00020023714668422615,0.00016062650148994585,0.0014788647546940777,0.001242668958692141,2019-10-01
223,SRT,-3.6960180305770714e-07,3.155049069791225e-05,9.749396045545381e-05,0.00011852220962463619,0.0033827937617480278,0.003221996734701991,2019-10-01
224,BA,-9.937502210263775e-07,6.046609605479865e-05,5.742831117150431e-05,0.0002226857209175788,-0.0012513967989863223,-9.857652145052206e-05,2019-10-01
225,GMED,-1.0617690567271326e-06,6.330409975176303e-05,0.0005897771792846517,0.00023313757642769018,0.0018049196719522524,0.0018351795817554539,2019-10-01
226,BXC,3.041025421595202e-08,2.201582353540437e-05,5.644874441970776e-05,6.203209702065356e-05,-0.00010552684380810545,0.00016147640231992273,2019-10-01
227,DIN,4.278246300862204e-08,2.5412205762598386e-05,0.00013294882538445913,0.0001450814650403531,0.002073892440317445,0.0006577870206684907,2019-10-01
228,KR,7.943354063229762e-08,4.052639234880716e-05,0.0007784318030783043,0.00023137024899344707,0.001535359615401287,0.0016503252281840912,2019-10-01
229,EXP,5.444492955024816e-08,3.064298821994459e-05,0.00031852186665626476,0.00017462194648546034,-0.0004767847446521736,-0.0009798468237807861,2019-10-01
230,PBT,5.223950060222805e-08,2.9686886620380392e-05,0.0005920115185161439,0.0001691735117193922,-0.0010216499551430936,-0.002412928071398303,2019-10-01
231,RAD,7.350563725841129e-09,1.7586845353150864e-06,2.20064797977732e-05,2.527697254734576e-05,-0.00213468401636055,-0.002887378128087505,2019-10-01
232,BHR,1.7313554184916337e-07,6.9844091646855506e-06,8.700165603721074e-05,0.000137362344814469,-0.0015870219291240224,-0.002172465360841881,2019-10-01
233,EVH,7.02540468087867e-09,1.8433364444277534e-06,3.156226431581016e-05,3.625288987489639e-05,-0.001643364072161179,-0.0021603687097736155,2019-10-01
234,PLOW,4.1147279338967834e-07,2.0451910857236107e-05,8.167555423981826e-05,0.00022642237770992147,0.0021553213633489416,0.002396282921598952,2019-10-01
235,CXW,1.0948602422721107e-06,8.111616649143334e-06,0.00013633066700849365,0.0001905278436465533,0.001190347272028579,0.0005641376781079501,2019-10-01
236,GEO,1.0623985391467134e-06,8.05759468623763e-06,0.0001487217495886213,0.00018925896118487226,0.0002956143171124306,0.00023194565305991965,2019-10-01
237,CNK,3.0004540059083906e-06,8.646404518247568e-06,0.00016983946711232207,0.00029412878739208003,0.002410990730943544,0.0012833452077270575,2019-10-01
238,HTGC,9.39817569305046e-06,1.1900958671389312e-05,0.00024540281778826406,0.0005808041857317311,0.0005768219597020062,-0.0013364539350643105,2019-10-01
239,NMFC,3.9341018660034796e-05,2.456713533477061e-05,0.0007733330700221023,0.0011989534144148876,0.0011633475744917835,-0.0012769840898695813,2019-10-01
240,FIX,5.335239415274264e-07,3.317386293196378e-06,8.483646538524981e-05,0.000115331911797761,-0.001538390267157577,-0.003130621721039518,2019-10-01
241,NFG,8.723774690351075e-06,1.2541880615903131e-05,0.0014723322422226447,0.0004360297358007324,0.0013168885756282061,0.002372384237394384,2019-10-01
242,TAP,2.077008845842237e-06,1.020651512435311e-05,7.653296349394375e-05,0.0002642971801906588,-0.0031564432941418186,-0.0031450097394842493,2019-10-01
243,TREX,-2.90304118328209e-06,3.777928866775114e-06,0.00013213871931029475,9.782927221330486e-05,-0.0006203567265744851,-0.000581801968082516,2019-10-01
244,TUP,-1.344007791970526e-06,6.3511440900746775e-06,0.0001807535047199137,6.280718111475984e-05,0.0012565019140573206,0.0005717908615898199,2019-10-01
245,RYN,7.278351386912618e-06,4.419933173923089e-05,0.0003999845238672196,0.0004509167549412697,-3.2927579751753615e-05,-0.0004844854891129055,2019-10-01
246,STN,1.3891429441580366e-05,6.660413422523699e-05,0.001791117445629914,0.0006794881028452226,0.003296893720532954,0.004558910478937611,2019-10-01
247,BZH,2.5439940746962145e-07,6.348555293880244e-06,5.326557742226471e-05,9.842225731260035e-05,-0.004235085522709498,-0.0033968383093224124,2019-10-01
248,TOL,1.8378852684510882e-06,1.4990033386553391e-05,0.00012576920999388152,0.0002323919151366626,-0.00135784195178084,-0.0004986423949901592,2019-10-01
249,RMAX,1.1140164483962249e-06,1.532622200135591e-05,9.822619345584477e-05,0.00016219719783193003,-0.0002637649246040255,0.0007038797869850681,2019-10-01
250,ARR,4.544566017822012e-06,4.9372864623476407e-05,0.00017031515599704141,0.0006189929802830767,-0.002694817216005077,-0.00447907019452896,2019-10-01
251,DX,3.0199999759841154e-06,4.30893990812939e-05,0.00014863990133681267,0.0005402164885376051,-0.0005835174165884244,0.0012389917586517274,2019-10-01
252,WMC,3.7728840105411928e-06,4.6025449011437075e-05,0.00024102975939491417,0.000581104419940527,0.0009421516425468845,0.0005538399968910323,2019-10-01
253,MITT,6.117816288603291e-06,2.031045694847191e-05,0.0002359639913474358,0.0007158525583083905,0.0002365015650720722,0.0007856680432182235,2019-10-01
254,CHMI,7.598983411078635e-07,1.1410969365524964e-05,0.0001762715636489467,0.0004021855162497611,0.001965882788668914,0.004316886897019058,2019-10-01
255,NLY,4.575744948223274e-06,2.96475865563113e-05,0.00018366193173042117,0.0006372121536994925,0.000936189538369902,-0.00046983643632754214,2019-10-01
256,BG,3.1897463775583033e-06,4.8736013514569715e-05,0.0002421447784093524,0.00028757757577185995,-0.0013730426571028308,-0.005823536634725636,2019-10-01
257,THS,2.0089821686113645e-06,3.570539601995617e-05,0.0001548817098627801,0.00021068754887642913,0.00046210646851170935,0.0004480272083553076,2019-10-01
258,BH,-4.901892673366128e-07,1.4285623913404954e-05,9.792127653342948e-05,8.214435750524456e-05,0.0019543792071901817,0.002469373420187524,2019-10-01
259,SAVE,-5.196571298045783e-07,1.4892810818784237e-05,4.658600583597734e-05,8.563576806808158e-05,0.0022985135778452485,0.003646370031301272,2019-10-01
260,EBF,2.6074191297713942e-06,6.39201877852748e-05,0.0004376358764805954,0.000285614989140495,0.0003518704333280511,0.0008957766966322429,2019-10-01
261,VPG,2.5717916401415305e-08,1.2092724897672327e-05,0.0001508840155504502,0.00016602754043561565,0.001044342356939222,0.0006267222999815473,2019-10-01
262,NYT,2.3471796440546535e-08,8.221114164352005e-06,0.00017795294290643898,0.00016559026283989145,0.0019415525986806635,0.0028760649421911465,2019-10-01
263,TGH,3.8680892478744575e-09,3.6751223300550945e-06,5.1371583868932186e-05,7.40245738517299e-05,0.0008695995564534549,0.0013018875252090744,2019-10-01
264,KAR,6.122187845507078e-08,1.82463906472553e-05,0.0001832911679240521,0.0002331065218522832,0.0018749231170905223,0.00042165808660865286,2019-10-01
265,MBI,5.1658672983224226e-08,1.6499099961776957e-05,0.00016573904177288274,0.00021078403286084994,0.0013914881367957995,0.0014855216246001,2019-10-01
266,VIPS,-3.795102055194396e-09,3.8019846473527436e-06,3.355735761082453e-05,5.673166625135684e-05,-0.0025430138518020185,-0.0024098431967172844,2019-10-01
267,MYE,-1.9751000076727807e-08,8.380746041167948e-06,0.00017935930717488777,0.00016148241588999276,-0.000464588067040966,0.0007572675373422861,2019-10-01
268,VHI,-9.99124404230818e-10,1.8368650028056603e-06,2.4573613080039223e-05,3.5393197319161205e-05,-0.0003311357840572803,0.00026548666280360134,2019-10-01
269,GHM,4.799062933613054e-08,7.07555646072734e-06,0.00013549430460362444,0.0001701540470174872,0.002909738012887893,0.005815370826499473,2019-10-01
270,GPK,1.0860775193150973e-07,1.1561708418186954e-05,0.00017996354340489898,0.00027803770469643496,-0.00025067196057989823,-0.0022834552119004306,2019-10-01
271,BMI,9.579040672793128e-08,7.605013008789754e-06,0.0001628855768804541,0.0002685897533035124,-0.0011988303629309788,-0.002126932932073049,2019-10-01
272,SPR,6.78131407369421e-08,6.233422958091616e-06,5.6774033554855985e-05,0.0002201486746459506,-0.0008068865592414833,-0.0010059781516009757,2019-10-01
273,LNN,2.4433695652644687e-08,5.588959447107518e-06,0.00015480322354163268,0.0001389659174191902,0.0026675642584614474,0.004182120862337269,2019-10-01
274,CX,2.744657625809193e-08,5.642487924904981e-06,0.0001353620730467263,0.00012153795520820557,-0.003845404484813393,-0.005230964447172141,2019-10-01
275,TX,2.789052847124571e-08,5.697148503696078e-06,9.639078149469069e-05,0.00012271533211448917,0.0022461855860871987,0.0027736834713983824,2019-10-01
276,TEF,4.187106589797166e-07,3.295169231992098e-05,0.0002911372310506642,0.0005072827708148467,-0.0012853309594910826,-0.0018546523399013012,2019-10-01
277,NAT,3.1575586921859064e-09,3.2334573745968328e-06,2.1428339027609394e-05,6.038423342077608e-05,0.0008252772152874142,0.0003204692801928381,2019-10-01
278,DHT,3.302980535239145e-08,3.345006007944475e-06,4.677101122022741e-05,0.00014968516051408405,-0.0004519743330028777,-0.001966483094069765,2019-10-01
279,STNG,2.86385984557422e-09,1.4733239806957458e-06,1.7940070174910402e-05,6.59295487110984e-05,-0.0009232552498961943,-0.001089684788845377,2019-10-01
280,FRO,1.697213207205346e-09,2.0201322495862242e-06,1.836799459120502e-05,5.8784622076276394e-05,0.00024206744437074249,-0.0002120473469538118,2019-10-01
281,CVEO,-1.0639042405765279e-08,4.091492180827664e-06,0.00011831025949376144,4.900318776204271e-05,-0.0022526764371641446,-0.0020109586232049605,2019-10-01
282,LOW,4.3296750810305433e-08,1.151072785234466e-05,0.00010570907032943768,0.00021020829313867789,0.0016240661278550754,0.0011216522288100418,2019-10-01
283,SFL,1.460908494324043e-07,1.951301960103638e-05,0.0001791983259273645,0.00035634571479160746,0.0020733727067740017,0.0017850757760284536,2019-10-01
284,SUM,9.855267198432106e-09,8.056472798146566e-06,8.355754170481269e-05,9.649116551592758e-05,8.51110916364366e-06,-0.0006429369641986292,2019-10-01
285,AMC,9.196335156563036e-09,1.8430815807755214e-05,5.9908702215175374e-05,9.198861771171453e-05,-0.0004918678773161199,-0.0014497678930324527,2019-10-01
286,W,5.721849513065427e-09,1.3541448849623242e-05,4.6076526049878724e-05,6.758567686225738e-05,-0.0026674242237525424,-0.0017614914836389457,2019-10-01
287,ASC,4.3182872185833916e-09,5.084007696000758e-06,4.889881411598073e-05,7.496763143825317e-05,0.0013843370642401141,0.0011751302527343193,2019-10-01
288,LXFR,9.650216380398518e-09,8.09592916435495e-06,0.00010482439291974164,0.00011938074645736655,0.00030611526455210286,-0.00012930146640315957,2019-10-01
289,RRTS,-9.139942306549292e-11,2.1793306183670896e-06,1.3890998464572558e-05,2.2932629300511295e-05,-0.0005050267286899028,0.0006752382278479145,2019-10-01
290,GNK,2.425319103506133e-09,1.8011019010612992e-06,3.812112800068828e-05,7.001258837382806e-05,0.0016061289761290318,0.0016403882196197235,2019-10-01
291,SB,1.0677564754385316e-09,1.2924982685103674e-06,2.7356304440919428e-05,5.0242104121804485e-05,-0.0028881055897406927,-0.0018809943306674092,2019-10-01
292,NMM,2.6679438641596163e-09,2.781474279994341e-06,5.887114826529612e-05,6.85626157547162e-05,0.00014049784759850593,0.0011423696077128393,2019-10-01
293,TRC,9.559768627224615e-08,2.00608475898934e-05,0.00018469632284438483,0.0003168356290389602,0.00010649852692349654,0.0010397357868608692,2019-10-01
294,CCJ,4.522346995534216e-08,1.6864092441382514e-05,9.32043352666008e-05,0.0001931705335125138,0.0011329141946206575,0.00018649376173389236,2019-10-01
295,LAC,5.402875082532382e-09,9.456793121353678e-06,4.512094044312632e-05,6.735388997768792e-05,0.0015340524783135157,0.00206526461132329,2019-10-01
296,UFI,1.0707281631692666e-08,1.4967278966329425e-05,0.00024478152674382544,0.0001066010906474404,0.0020641897182704936,0.003254956615962642,2019-10-01
297,PRGO,1.0364318097695236e-08,3.4633617172473168e-06,6.898171462440423e-05,0.00012689202250173472,0.0002463067791882883,0.0016203419640770603,2019-10-01
298,TEVA,1.5428217179334667e-09,1.5376783729506187e-06,4.526135439999572e-05,5.6338071108541766e-05,0.0006280115622328315,0.0010883456773074771,2019-10-01
299,LC,-1.9695414592017488e-10,2.871335119576309e-06,6.13264962220179e-05,7.106955674701322e-05,-0.0007358053769125979,-0.001011936240151986,2019-10-01
300,CAH,2.4486519594403248e-08,5.907293397020116e-06,0.0001635398626738395,0.00021817194993334213,-0.001637190189498704,-0.002851056800883155,2019-10-01
301,CVS,3.762795801420077e-08,7.329540419694237e-06,0.0002946060988583725,0.0002706992895065263,0.0005835547447477558,0.0017498338482020309,2019-10-01
302,PBH,2.7862978022178885e-08,1.0071394402427949e-05,0.0001480118595911448,0.00019430329390543135,0.00024257888977577226,0.00014488590624317244,2019-10-01
303,AXTA,3.174190375292948e-08,8.099976673997184e-06,0.00017298631913220225,0.00022022929241154117,0.0015930733175940233,0.002017295822518406,2019-10-01
304,AIR,1.103336772559446e-08,2.517685768760504e-06,0.00012965042141755223,0.00014570199656778091,0.00013463843324757526,-0.0003381115434524099,2019-10-01
305,CCL,1.9939044481073016e-08,3.375204082351662e-06,4.681164049531576e-05,0.0001953277806644115,0.001938156906484366,0.003126614741392661,2019-10-01
306,ENVA,6.3653046354014316e-09,2.680749163596169e-06,4.8292019125406274e-05,0.0001038470523076137,0.0017273751947626936,0.0013642510406817036,2019-10-01
307,DRI,1.0558486109596489e-07,1.961651244496242e-05,0.0002579861481257204,0.00034671482239201953,0.0023100999320691297,0.003433127736522986,2019-10-01
308,NPK,4.613024227747072e-08,1.1480152307632532e-05,0.00020977254849728223,0.00020290757490872496,0.002548882387853463,0.0036632970069882167,2019-10-01
309,BKD,1.682494495452605e-08,6.167927015731383e-06,8.290034597550966e-05,0.00011720404098433055,0.00023565253269283064,0.002150385337725106,2019-10-01
310,SEM,5.686570976081108e-08,6.193609007983187e-06,0.00013182927136881257,0.00021947979012485242,0.001046725889871521,0.002885678922672366,2019-10-01
311,THC,-1.0285944196716985e-08,9.894714124259465e-07,3.751915682820749e-05,5.005279735002679e-05,-0.0005353111289454753,0.00048094852927359173,2019-10-01
312,UHS,1.0125420031122149e-07,5.650704077253713e-06,0.00012864379406460499,0.00028584306985717775,0.0036809570190353127,0.004350771779400381,2019-10-01
313,CYH,-7.736199289748155e-09,1.156051602877845e-06,2.868932712367142e-05,2.800767210381977e-05,-0.0005932791053266728,-0.00039081451587126315,2019-10-01
314,MLP,9.61333649384309e-09,5.356454595956238e-06,6.788487791676725e-05,0.00013794100890305284,-0.0007590104197630094,-0.001222689344632367,2019-10-01
315,TDS,9.039508459569973e-09,5.177172404476128e-06,6.561275006367847e-05,0.00013332408068531229,0.0004688851842847076,-0.000827422053687589,2019-10-01
316,VMW,9.472659258814484e-09,7.0929584623348855e-06,7.609760723389061e-05,0.0001262555043255218,-0.0013327791251110828,-0.0018886761657078623,2019-10-01
317,AAP,3.158843793773844e-08,1.4432419410864168e-05,0.0001314904562733048,0.0002417096296306837,-0.001436568005618963,0.0001683602441749388,2019-10-01
318,SCS,1.52891065519142e-08,8.910535291560556e-06,0.00012369073969318998,0.0001492308478447465,-0.0014161330383831517,-0.0037236117921710834,2019-10-01
319,NX,1.4729764906317664e-08,2.7143120593501564e-06,4.697637172559943e-05,0.0001856610476099892,-0.0005964218040565639,0.0004773357730189461,2019-10-01
320,WHG,1.5238734688632138e-08,2.7685967054427673e-06,0.00012796624847776064,0.0001893741594564968,0.0013032086549525446,0.003984224297610686,2019-10-01
321,CULP,1.2498129843144366e-08,3.4247125597334864e-06,0.00012288726779291677,0.000165311525838107,0.00036675104045326835,0.0005860034964165773,2019-10-01
322,IPI,8.137354681084299e-10,1.8165651519978675e-06,6.202832763885058e-05,8.725397373435397e-05,-0.0007240473271807987,-0.0010289103663458606,2019-10-01
323,EPC,1.2019492657116302e-09,1.5919535811364236e-06,0.00010924213561295887,0.00011563844383028832,0.0005149620296826418,0.0008086922667749563,2019-10-01
324,GTN,7.71345232194167e-10,6.313494309129252e-07,6.534794303429999e-05,0.00010445471038992988,0.0009011868864067392,0.0013033669897823741,2019-10-01
325,TPC,3.783376040907828e-10,4.636315244324313e-07,5.881634787903357e-05,7.670632812989815e-05,0.00026229590847520496,-0.0014716860642109066,2019-10-01
326,DXC,2.1776331659471195e-10,5.098549039579436e-07,6.090807897429386e-05,5.4354296958667686e-05,-9.923576588070522e-05,-0.00023599976004645262,2019-10-01
327,LXU,-1.0379891014465761e-09,7.452956836044628e-07,2.550632698690406e-05,3.2440094755502226e-05,-0.0012246278515341735,-0.0013035897342224033,2019-10-01
328,BCC,8.353416885434025e-09,2.3029090449851525e-06,6.078878786485065e-05,0.00015177721296894922,-0.0011814429568956213,6.224546017339928e-05,2019-10-01
329,LPX,1.9457124279552176e-08,3.4113029409786546e-06,9.00465310488324e-05,0.0002248278342134255,-0.0003238385717840689,0.0017634941949303915,2019-10-01
330,EAT,1.3315191088773991e-08,3.4715967225980846e-06,0.00013714360745805833,0.00016504329316907886,-0.000961859783923881,-0.0010133271765678656,2019-10-01
331,BOOT,1.4740978788700965e-09,6.822075909622775e-07,4.122823349608905e-05,7.139924854158012e-05,-0.0014717419932096993,-0.00033349259967470677,2019-10-01
332,AGM,1.0069314310024241e-08,1.6589152805269816e-06,0.00013018029500857345,0.0001736206192849597,0.001216125554119993,0.002543018890214086,2019-10-01
333,ALG,1.2225631293610354e-08,1.7418061254129962e-06,0.0003973351378654789,0.00018757013165382325,0.0002377192795432391,0.0007063585783842254,2019-10-01
334,CF,1.0923697086074463e-08,1.6430732182649507e-06,0.00011858561924443561,0.00017693786660312339,0.0016376978188862598,0.0008906038764697713,2019-10-01
335,RH,-1.8007248273173036e-08,2.380516160156865e-06,3.281926420969269e-05,7.989252853796012e-05,0.0009869052112209248,0.0008311749802926752,2019-10-01
336,IMAX,1.9150869416263018e-08,4.711602998952109e-06,7.925627092415796e-05,0.00022642003686768115,-0.0001349258075441837,-0.0021876445871449276,2019-10-01
337,TGNA,6.078630660267609e-09,2.5686352877164595e-06,6.64352599740951e-05,0.000123437924772893,0.00013130049201058163,0.00038023687943705643,2019-10-01
338,SSTK,1.1912659137060649e-08,3.6393245766334996e-06,0.0001491987690349147,0.0001714545899428216,0.0004357119025412987,0.0011317413446216883,2019-10-01
339,TNC,8.847354098841274e-09,2.1312246510894448e-06,6.526805334477128e-05,0.0001503943287763104,-0.002219375266286175,-0.0016388161570943043,2019-10-01
340,UIS,1.2349824532101922e-09,9.594797214434128e-07,3.7429535530703716e-05,6.770769501338093e-05,0.0015721473854257205,0.0009830472155266832,2019-10-01
341,AGX,8.140515761744097e-08,2.748711483103231e-05,0.00013343490338435063,0.000210673360069459,-0.0032391122844623774,-0.0037328358892601585,2019-10-01
342,NNI,1.8449006948446398e-07,3.4215580948804535e-05,0.0004316147562085821,0.00036003313814473984,-0.000818993481896166,-0.0036208236833924195,2019-10-01
343,INGR,1.6836934210816107e-07,2.6209277803477402e-05,0.0007456226254478076,0.00035198632260574,-0.00038741492395754615,-0.0005311583029990809,2019-10-01
344,ODC,2.8547409449755373e-08,8.41628245085132e-06,0.00010285581730225844,0.00011302929947552134,-3.2103296112916895e-05,-0.0010681188160310904,2019-10-01
345,OOMA,5.557130106758787e-09,7.653908401005655e-06,5.137615437059012e-05,7.66913059650242e-05,-0.0006708386156015838,-0.0005801142271794516,2019-10-01
346,PSTG,5.364741154086192e-09,7.4693809263955945e-06,8.046307129850842e-05,7.484236131180445e-05,0.0007033651309971397,0.0009539572487983613,2019-10-01
347,COTY,1.0505087619624013e-08,8.782800179914377e-06,6.215990676417195e-05,8.304935751984318e-05,-0.00234082118092739,-0.004172339071153457,2019-10-01
348,GE,1.3127861408399022e-08,6.367302119310766e-06,6.091577899286339e-05,0.00010562455880297043,0.0021852924276043553,0.002324439939049502,2019-10-01
349,HLF,3.609961877906471e-08,1.2142821221374169e-05,0.0005797042397145139,0.00020143227227135664,0.0030674277580315487,0.003007168577548442,2019-10-01
350,DDD,5.715159223292179e-09,5.531188914077202e-06,4.316374624958898e-05,6.891818252099092e-05,-0.0022797222230584733,-0.0035143037681373414,2019-10-01
351,SPB           ,6.415770894840909e-09,6.466415575598663e-06,0.00010004143440567112,0.00012125056740921315,-0.0030623517413132795,-0.003533013875597311,2019-10-01
352,VGR,4.7539359000274824e-09,5.331058151506531e-06,0.000525378611864473,9.996168947150207e-05,-4.5146492337893616e-05,-0.0003549065972572492,2019-10-01
353,ENR,9.270545140052178e-09,3.6338684329381177e-06,0.00014659178281727024,0.00010802906489709686,-0.0013266833809941463,-0.0019055927104061415,2019-10-01
354,IFF,2.571945321364951e-08,5.552332425224083e-06,0.0007760571700066552,0.00016506191431091974,-0.0019538355413648537,-0.0023663386203483694,2019-10-01
355,CLS,2.83663207221098e-08,8.178323426480325e-06,7.546103318727819e-05,0.0001562770012510155,0.00295902902237208,0.002304501730288297,2019-10-01
356,BHC,2.429009892499199e-08,7.33152751726395e-06,8.685945781045254e-05,0.00013276269497756175,-0.0009349715848121714,-0.00047166373145853045,2019-10-01
357,IPG,1.047553690424468e-07,1.2944642451634506e-05,0.00019112750848442013,0.00033432395864414755,-0.0027119484783285543,-0.0035084279355403385,2019-10-01
358,WPP,7.48562088434609e-08,1.0687542663376648e-05,0.00031696557938909687,0.00027602937545386804,-0.0013826938756704046,-0.0022139472743146135,2019-10-01
359,OXY,-4.560015870845207e-06,0.00024503422301889137,0.0001650293695993026,0.00018287675015948897,0.00244663856315092,0.00453538288925852,2019-10-01
360,SSL,-1.6417090233966567e-06,0.00014468519422389622,4.387934096149592e-05,0.00010798311268471526,-0.001586279392185269,-0.0012420060223827254,2019-10-01
361,ESTE,5.341470497860977e-07,2.7782762863833707e-05,1.0905945426386963e-05,3.7287445413525586e-05,-0.00022568936050049396,0.000803700060696452,2019-10-01
362,AR,1.4417479433562905e-07,4.5999864791838195e-06,6.982756718324366e-06,3.2576284254834895e-05,0.0017135581506479698,0.00017686310302614114,2019-10-01
363,RRC,1.5015030959641277e-07,4.641676682012834e-06,6.769545674320292e-06,3.28715268396002e-05,0.0006845287163122084,-0.000853357979993836,2019-10-01
364,CNX,6.04448650745628e-07,1.1350296466147528e-05,9.691558694143686e-06,4.521351432226361e-05,-0.0017097264836234485,-0.001253183560759945,2019-10-01
365,NBR,2.5474009309851375e-08,2.899856662127232e-06,3.88819112543981e-06,1.8880259486575224e-05,-0.0010960563972662264,-0.0013266653903697705,2019-10-01
366,SLCA,2.606836690977673e-07,4.85107849917138e-06,1.0945703045547625e-05,3.158418898778075e-05,0.0009999625889570117,0.0013141619179577251,2019-10-01
367,PDS,5.81591064947525e-07,1.1141246320492949e-05,7.3656967180934114e-06,4.282730263777319e-05,0.0010502612208032726,0.0022421113583690915,2019-10-01
368,CIVI,-2.2570331456623278e-07,2.0750958196372866e-05,2.05909961629605e-05,7.040064986744251e-05,-0.0004427746877571235,-0.00023176472879627824,2019-10-01
369,PHX,-1.3671976354858763e-06,4.080099320801305e-05,5.525505410427333e-05,0.00013842331568010712,0.0012786405513838582,1.1006573929511507e-05,2019-10-01
370,BP,-0.00011362137533134782,0.00010630531699830291,0.00013669128495790453,0.0005707839853921445,0.0017981350608060706,0.005206082895841008,2019-10-01
371,ERF,1.226568543325969e-05,7.65267615374585e-06,1.9814582358261783e-05,7.40536360117345e-05,-0.003339626262465915,-0.005742622901980258,2019-10-01
372,BTE,2.474912657364036e-07,2.464894990922494e-06,6.927387021817776e-06,4.242986432053633e-05,-0.0010927977640321157,0.000948472757320928,2019-10-01
373,CPG,4.834684945656883e-07,2.8439073426064038e-06,7.99257042956251e-06,4.895405407992933e-05,-0.0015861876465816916,-0.0011445520258161425,2019-10-01
374,CNQ,8.435604617612143e-06,1.1761114255159651e-05,2.5279452388506067e-05,0.0001322956855794876,0.0008273237368522337,2.883554328991874e-05,2019-10-01
375,SU,-4.471574980720348e-05,2.973889817924833e-05,9.289489757787988e-05,0.0003345199985006716,-0.0011452130693799694,-0.0019652675130330303,2019-10-01
376,HES,1.958653308132414e-07,9.415929918089684e-06,1.8794131489933088e-05,0.00010927709732553495,-0.0035272124971502433,-0.004334976257806098,2019-10-01
377,VET,1.7082857672992214e-07,5.383914960307313e-06,2.0218827007042734e-05,0.00010901562254305821,0.0017896729769739006,0.0010873458950961,2019-10-01
378,APA,5.570087882226946e-08,2.131163877426237e-06,2.3863771125385763e-05,7.337997855226662e-05,0.004315243948945779,0.008963720935900674,2019-10-01
379,WTI,-1.062138841018426e-08,8.274087136030037e-07,1.0937396161280132e-05,2.8489237407435522e-05,1.8236412823674743e-05,0.001431197269241923,2019-10-01
380,CPE,-1.192431988914993e-06,5.177387989251029e-06,5.809637158888007e-06,3.142518838514692e-05,0.0010198991450985414,0.0008545666185508107,2019-10-01
381,HP,1.0226116259288158e-05,1.4949844444159367e-05,1.7339071297071513e-05,9.074106073597787e-05,0.0008951376782654136,0.0008124349855200046,2019-10-01
382,RES,7.51219980813052e-07,1.2244202516030873e-05,2.571305233700809e-05,4.599283578444732e-05,0.0021552506665998817,0.0010463947434323883,2019-10-01
383,KOS,5.8614359721525286e-06,3.347962281757637e-05,1.7920687314183474e-05,7.483170071381038e-05,-0.0002605451651121596,-0.0012352115950818243,2019-10-01
384,EURN,2.572252819087787e-06,9.17610744991204e-05,4.417324034893856e-05,0.00016233614322118707,0.00038104708724323605,0.0019371076176450857,2019-10-01
385,MVO,1.5216667845817985e-06,6.605334864546315e-05,0.0002666760447853285,0.00011685614978333426,-0.0010762959525039257,-0.0020571975891603483,2019-10-01
386,EPD,-4.382494256136273e-05,0.0001268400492888106,0.00015986880865805964,0.0006315293030650125,0.0023020468082514123,0.0036554823692708602,2019-10-01
387,MMP,-0.00010174411236621927,0.00017665387726265066,0.0008343553915390882,0.0008795494847009306,0.003893505768434341,0.0077057184819153,2019-10-01
388,TPZ,-7.310783119544613e-05,0.00022058651407087568,0.000323391039463694,0.0006918440736846317,0.0009237007418356568,0.0020184891522794304,2019-10-01
389,GLOP,5.556159516487297e-06,8.341029546085087e-05,0.0001670450924487391,0.00026471337904594277,-0.00011941966591668866,0.00027659041628624057,2019-10-01
390,MPLX,9.813408815289046e-06,0.00010768224943663261,8.388314219502378e-05,0.00034174356959349274,0.002957210426939715,0.004800584151754381,2019-10-01
391,WES,-2.455885794168126e-06,7.962468010524439e-05,0.0001162502313907077,0.0001560591237243191,-0.00026403520456969536,-0.0011869698093667702,2019-10-01
392,ENLC,2.2034599983458575e-07,2.3260691091774032e-05,2.9547696107668422e-05,0.00011749991930913505,0.0024127170225859912,0.0028075490404243907,2019-10-01
393,PAA,-2.0171498787113297e-05,7.238591013997993e-05,7.871073418481385e-05,0.000365652876219735,0.002260074831442053,0.006527725712796068,2019-10-01
394,NGL,-4.0550936739006515e-07,2.7150952812270397e-05,0.00012455352166073066,0.00014523570845915236,-0.001681916348371408,-0.001145644635266422,2019-10-01
395,GEL,-4.25313329793578e-06,1.6287081034433888e-05,4.5859257739222925e-05,0.0002437798757612503,0.0006794041556755337,-0.0013403161054949663,2019-10-01
396,NS,-5.1344136810191865e-06,1.730263116678011e-05,4.871872501687104e-05,0.000258980308826529,-0.0022612147658530707,-0.0030124289535383756,2019-10-01
397,CEQP,-5.039184070437188e-06,2.7527264640308036e-05,7.750805201538446e-05,0.0002455503276727403,0.0026523840706934652,0.00236548573381535,2019-10-01
398,PBR,1.5844769755021676e-06,7.651730112432438e-05,8.072823339522185e-05,0.00014617549886126189,-0.001665019254153701,-0.004014167853881272,2019-10-01
399,GPRK,1.1870379474793316e-06,4.7385778350950174e-05,7.839007175838098e-05,0.00013312003253350654,0.00042001464255450144,-8.3118197188894e-05,2019-10-01
400,TPL,7.417936638910734e-07,3.7064611129186796e-05,6.131581303982484e-05,0.00010412495924022697,-0.0010320316384863565,-0.0008686400876143105,2019-10-01
401,CRK,1.383279199249899e-07,1.1919189029020366e-05,2.8360446804794788e-05,3.1971738601935997e-05,0.0008062730999616975,0.0012015429323277065,2019-10-01
402,ICD,6.634788684465682e-08,7.855377608357214e-06,6.75083201589107e-05,2.107107110243892e-05,-9.180141173841669e-05,-0.0007487627873365321,2019-10-01
403,EQT,3.2755544558578386e-06,1.5096924818149105e-05,2.1417468951742668e-05,6.238736478357442e-05,-0.0017540120246244497,-0.0028921934838896067,2019-10-01
404,SMLP,4.2860390462449955e-06,1.7266715747736887e-05,4.3006942582136124e-05,7.135392849498332e-05,0.001178927587461248,0.00031372763498887694,2019-10-01
405,NR,7.3435056057769935e-06,3.189508725842629e-05,3.854107700186619e-05,8.796971428755171e-05,-0.0005016360642245836,-0.0025007668227761035,2019-10-01
406,BSM,-2.0018008458540618e-05,0.00019760586583145894,0.0002749069401106884,0.0003270704159225906,0.0045783220768572394,0.004870269755037099,2019-10-01
407,BPT,1.104048112307759e-06,2.109458296173539e-05,1.8791541257617238e-05,3.491502640358359e-05,-0.0009025040756324332,-0.0001063764298427038,2019-10-01
408,TWI,8.640116288455653e-06,2.5029739856749562e-05,0.00011883514560099263,4.356094240918376e-05,0.0024979029444384434,0.002247310089470042,2019-10-01
409,EGY,1.02691978270474e-05,2.803306120777686e-05,4.329502196633243e-05,4.878782487608614e-05,0.001787538348437383,0.002350581862333086,2019-10-01
410,FLR,3.535572813157413e-06,2.7340918300972264e-05,4.1992645960593094e-05,4.986592662910187e-05,0.0022098092746986138,0.0032826579824832996,2019-10-01
411,NGS,1.2815440808120268e-05,5.504731220123745e-05,5.4579126468841266e-05,0.00010039842850701025,-8.221292687696628e-05,-0.0013883965505236972,2019-10-01
412,RC,-6.0558691282103986e-05,0.0003077311080534564,0.00033189466262862905,0.0005496680627398077,0.003557805720868906,0.005539827178442533,2019-10-01
413,CVI,-6.171626790293763e-06,5.967064617807333e-05,0.00012534602640819784,0.00014484205184921365,0.0011982437080569324,0.0022273237196907564,2019-10-01
414,PARR,-1.9877033983767782e-05,0.00012040841021757373,0.00025283308238755245,0.0002922743813393428,0.0003992843997446513,0.0003457903797062356,2019-10-01
415,AWP,-3.210651913852842e-05,0.00011177080237984813,0.0004762150986862233,0.0007820185874411675,-0.0026459439891948723,-0.00340795238339359,2019-10-01
416,EL,-1.9404199588764337e-06,2.9989818410715385e-05,0.000136133704265599,0.00020982756616045537,-0.0015591467707691611,-0.0036545161175412064,2019-10-01
417,EXD,-8.206212298638402e-05,0.0002743126535508187,0.0008399766649448385,0.001422848402850881,0.0019265667695031632,-1.941735005337407e-05,2019-10-01
418,PFE,-5.032002069927367e-06,5.371331058165633e-05,0.00027189620784029515,0.0004427189430588355,0.0027927062825210706,0.004220241872239884,2019-10-01
419,WAT,-2.119798858054383e-06,3.26790779521958e-05,0.00018167262503493984,0.00026934937903593437,0.00023549631741318197,0.00010225218521758974,2019-10-01
420,T,-6.8404724382018625e-06,6.042293856599864e-05,0.0005848528604562391,0.0004883595464268219,-0.002115625815050079,-0.0028356102628017393,2019-10-01
421,WU,-6.250089422507144e-06,5.710934949776513e-05,0.0008722960155987522,0.00046157794836469105,0.0002683176495437753,0.0019521949553429052,2019-10-01
422,MFD,-1.522123450719757e-05,0.00011125008246477814,0.0006507852913466282,0.0006055362920409805,-0.00046687577727892005,-0.0007186654533078054,2019-10-01
423,PBA,-2.3517650393042586e-05,0.00014426222048015118,0.0006576452868991859,0.0007852219803864518,-0.000305977579336758,-0.0002874675734024312,2019-10-01
424,JEQ,-1.62237643358084e-05,5.448512897980963e-05,0.00048245311839246205,0.0007889704848093777,0.0022269926533219197,0.0022254211811892754,2019-10-01
425,GF,-4.751668298454074e-06,3.4478349223745615e-05,0.00024751784934648653,0.0004992628339480652,-0.0011490035464864921,-0.003683857106829332,2019-10-01
426,EEA,-1.82423448714262e-05,8.457892873785563e-05,0.0004729388573050417,0.0007708514108470369,0.002208555204916944,0.004331616195983764,2019-10-01
427,FDEU,-2.348235621222757e-05,4.279991210415606e-05,0.0005970999921744265,0.0008867270655468825,-0.0001221051635494192,0.0021971275365679816,2019-10-01
428,MXF,-8.639277518838203e-06,2.5206634154691015e-05,0.00030574040504811114,0.0005222301550972711,-0.0008487053557587228,-0.002662060829721647,2019-10-01
429,FEO,-2.2513447624803962e-05,4.175580405112159e-05,0.0005716977133001477,0.0008644260418315518,0.0010100498146260156,0.0008835821567376891,2019-10-01
430,IHG,-1.0451206579200432e-05,2.7533261417638014e-05,0.00045656733081555275,0.0005699918544694608,-0.001272892629808864,-0.0010592599518757378,2019-10-01
431,SPE,-9.454979835824015e-05,0.0001706653118491915,0.0009255017869039257,0.0015747655612919664,0.0013639281140637705,-0.0004551707516460999,2019-10-01
432,JOF,-1.9318474538634184e-05,0.00012019575939725344,0.00035199576767279704,0.0006818515992137354,-0.0004381514914646772,-0.0008970242688343753,2019-10-01
433,CIB,-3.30076217618106e-06,3.2328092880820086e-05,0.00013688429268230988,0.00025264394622366766,-0.004252602671243442,-0.006702470377044488,2019-10-01
434,IX,-7.957880943547662e-06,5.4744871163790265e-05,0.00030688302185260077,0.00042783099941326913,0.0010169275794627958,0.0028161341464000987,2019-10-01
435,ANET,3.7860459615349708e-06,2.2584674149512225e-05,7.815482404541717e-05,0.00012336227612358275,-0.00028210760078413997,9.000298797364686e-06,2019-10-01
436,SAP,1.8112234743460685e-05,5.4693592102481506e-05,0.00023489339293720544,0.0002987479901844256,-0.0024263353873104636,-0.003515341700915933,2019-10-01
437,CIM,-2.1196398833170417e-05,9.15420967399319e-05,0.0005395639291281517,0.0008935999672281777,-0.0018447603119667757,-0.0044680359893206865,2019-10-01
438,ARI,-2.846887030078459e-05,5.932527393285667e-05,0.0002942459518278573,0.0010208816542166944,0.002791741940176089,0.0050051639344629965,2019-10-01
439,STWD,-3.052918734982883e-05,6.031614213893016e-05,0.0003499965537020884,0.0010379327204194716,0.00212140931735251,0.003774662425465358,2019-10-01
440,MFA,-2.3255764467066866e-05,5.549368611414255e-05,0.0002338870308073232,0.000926536707066025,0.0009261106769579273,0.0008897192749329615,2019-10-01
441,TWO,-7.902020552199098e-06,4.1632844964482366e-05,0.0003857287858232571,0.000695112575507057,0.00016056545160708408,-0.00022407115739741585,2019-10-01
442,ABR,-1.8857009485587214e-06,6.674108351367696e-05,0.0002473523248200753,0.0004318934895262791,0.0005753415419846522,0.0014602512672917034,2019-10-01
443,LADR,-3.6060766157824467e-06,8.998992586133044e-05,0.0002460521170186437,0.0005823409069242411,0.001013611826887635,0.0006107983602880817,2019-10-01
444,GSBD,-1.7873828216075897e-05,0.00010204233486453311,0.0003040701355735878,0.000677684406563456,0.003369983543776513,0.0033346930361981926,2019-10-01
445,MAIN,-2.1397339072585295e-05,0.00011029959278661165,0.0002414588716311075,0.000732522576840468,0.0018849420022920605,0.0018831194415791035,2019-10-01
446,DFP,-8.462004509477375e-05,8.942673186553006e-05,0.0011552134160708082,0.0015230105550471712,0.0021139238872622764,0.003498133473428987,2019-10-01
447,JPI,-0.00010101865771636258,9.805005418102696e-05,0.0004870916499099426,0.0016698728034163066,0.0004366029986253014,-0.0005105702277186994,2019-10-01
448,GCV,-1.1144909337083379e-05,6.256076526005758e-05,0.00026372175790310043,0.0007202473792945653,0.0005558788328001057,0.0010090451528388157,2019-10-01
449,UTF,-2.0928232695716584e-05,3.2472949154417724e-05,0.0008925508961644163,0.0010190393595267957,-0.0026568443871033097,-0.0041685623084687816,2019-10-01
450,MGU,-1.917703027961204e-05,3.121590776640405e-05,0.0005507882232119949,0.0009795919214499905,-0.004015341136918645,-0.00438973277215853,2019-10-01
451,FIF,-1.876417498959432e-05,4.642094394398368e-05,0.0002366475449234117,0.0009410570398410648,-0.0006110583427104235,-0.0008121973571705546,2019-10-01
452,FOF,-2.300882418251082e-05,4.6208360004824287e-05,0.0004819783482702117,0.0008640397027705379,-0.0013258277840033912,-0.00032825975238912487,2019-10-01
453,PDT,-4.723846130353855e-05,4.6046622387699835e-05,0.0007541416986787353,0.001429191745676402,-0.0038525978782380237,-0.006670080946228631,2019-10-01
454,HTD,-2.354062180377359e-05,3.663176173401446e-05,0.0005999471315634174,0.0011369739795252193,-0.004151269366078868,-0.005744900441810687,2019-10-01
455,GHY,-0.00031327929576399405,2.1577385010151304e-05,0.0007407051765949159,0.0028790041819172006,0.0032640396959054507,0.0043577535007068135,2019-10-01
456,ISD,-0.000376707328343941,2.267027018295913e-05,0.0007801282696186968,0.0030248244924594085,0.0032208324543003017,0.004227145941920178,2019-10-01
457,FSD,-0.0004714670040827856,3.905747297095501e-05,0.0012345569796120457,0.00301003522401611,0.003125986988877759,0.004675267953053232,2019-10-01
458,HYT,-0.00037948876769774986,3.583150564919117e-05,0.0007998771182181837,0.002677951498040532,0.002879805032276522,0.004447687501472039,2019-10-01
459,DSU,-0.0009431769356842025,4.983816096583861e-05,0.0011125517571307767,0.0037247716890474987,0.004411922236402816,0.006660998090764382,2019-10-01
460,AWF,-0.00018106281636443792,6.057619274271019e-05,0.0007206150774897936,0.0028009171357260684,0.002121009149480218,0.0018115149795754916,2019-10-01
461,JGH,-0.00026804106412060445,8.49664647679228e-05,0.0006779536140447141,0.0026286583583442495,-0.0011458874220086454,-0.004764243008538638,2019-10-01
462,HIX,-7.559201588898917e-05,5.099577259034286e-05,0.00047690470237629943,0.0015776867288285156,-0.00025162792088833296,-0.0019601759536789685,2019-10-01
463,DSL,-1.6052781036227553e-05,6.249082060322744e-05,0.0005782671144692778,0.001083913313996902,-0.0005062323822778691,-0.001279919402788658,2019-10-01
464,IVH,-7.332230984917407e-05,0.0001229457829677379,0.0010295605409490944,0.0021325143400600854,-1.3960000581724837e-05,-0.0023916469243127495,2019-10-01
465,EDD,3.819482808643393e-05,0.00010376887519161464,0.0007462399973580658,0.0010896900769888633,-0.0012298090169188592,-0.003482694329462657,2019-10-01
466,EDF,2.584607636025649e-06,2.2795401826459847e-05,0.00040062485741102535,0.0004240821072454986,-0.005419714124937994,-0.00559443296622167,2019-10-01
467,EDI,2.619619312234002e-06,2.2865561735354672e-05,0.00039323352566578054,0.0004253873512694812,-0.006841482000841444,-0.00971913740779092,2019-10-01
468,SPXX,6.713199528414685e-05,4.886146421062428e-05,0.00033138556080219875,0.0008155100685215815,-0.0003861105538608484,-0.0006114946690684034,2019-10-01
469,TWN,2.960921302483282e-05,3.188235551604768e-05,0.00011799074359683256,0.0005321244942526309,-0.00018276622081800183,0.00039170792022986104,2019-10-01
470,BME,4.6895763171480897e-05,5.57387890862136e-05,0.00020870328417544698,0.0006381290403202852,-0.0016091869138290115,-0.0008227815019064508,2019-10-01
471,ACV,5.138450114625442e-05,3.558774758515335e-05,0.0003871315744147972,0.000665253926371296,-0.0020063120460670283,0.000994859326164714,2019-10-01
472,PDI,0.00017607471753128303,6.459833223424398e-05,0.0008007813039046178,0.001207558698482971,0.0013375777256203795,0.0022032142575765905,2019-10-01
473,NCV,3.0856708159992503e-05,1.8295646275331364e-05,0.00018004902087346653,0.000550516056105786,-0.00697478853421939,-0.010881295100241101,2019-10-01
474,PGP,7.790432993703566e-06,1.140408731577953e-05,0.0001670675117400962,0.00034314902453235456,-0.001711981760642816,-0.002338235615225486,2019-10-01
475,VGI,0.00012962326792106567,5.6399163341143826e-05,0.0004570981590840845,0.00105327135248236,0.0011455834597933223,0.0012925464596373728,2019-10-01
476,BWXT,-8.217439748382969e-07,3.207337498068469e-05,6.825579707201969e-05,0.00018921989583510157,0.0028152581951344903,0.0031621232508923388,2019-10-01
477,CP,-2.8826028782453746e-06,5.5200591064662776e-05,0.0002803696736220489,0.00042467926360883004,0.0007935420915764661,0.0020326455005514193,2019-10-01
478,ELP,-5.38834204883634e-07,1.95594286827993e-05,5.645687434862879e-05,0.00015047816716111425,0.00029432124354658405,0.0025952508369149665,2019-10-01
479,CBZ,-3.8250285438178185e-06,4.301429124881099e-05,0.00036095855305951445,0.00047187915783304175,0.002216307539236398,0.0018923667954366475,2019-10-01
480,WWE,-4.726657543309575e-07,1.1596318570433182e-05,9.521650565052482e-05,0.00012721495303333482,0.0015948971319414236,0.001969911080171412,2019-10-01
481,DLB,-1.1900104815940111e-06,9.22702215627263e-06,9.700357163810235e-05,0.00024216766140114344,0.001351263961998298,0.0014806704633024321,2019-10-01
482,GIL,-3.185116814097721e-06,1.717583150681006e-05,0.00029760644759700184,0.0004507880091949974,-0.0014424382906419791,-0.004529007474529952,2019-10-01
483,GWRE,-2.5459580859684584e-07,3.304640070688477e-06,0.0003563683355652939,0.00014087159182733168,0.0010930043415742366,0.001065047625580226,2019-10-01
484,RAMP,-1.7813322258947504e-07,2.707730959565337e-06,6.769515175651397e-05,0.00011542629828205432,0.00015804977216059494,0.0009228047822559252,2019-10-01
485,BOX,-1.6115187459876932e-07,2.5184127096325377e-06,7.701444312874713e-05,0.00010297160336237365,-0.0007866575913607009,-0.0004760847689386587,2019-10-01
486,ENV,-6.341418291669434e-07,5.465017009704935e-06,0.00012824183557274207,0.00022345089100748373,-0.0009116785521714677,-0.0011917257261144219,2019-10-01
487,EDU,-4.0317881520180807e-07,7.207598937912646e-06,9.521149314098133e-05,0.0001228774893649172,-0.001680470480359976,-0.001812688054340892,2019-10-01
488,UNF,-1.9324881325559664e-06,1.932308837485975e-05,0.0002992407951284756,0.00032942629115914894,0.004086022719068072,0.008199093395602278,2019-10-01
489,CHGG,-2.625882813606338e-07,4.878383733317829e-06,4.3874302690310805e-05,0.00011361754787068234,-0.0002508982654898086,-0.00048572437380375665,2019-10-01
490,PLNT,-5.843594709716513e-07,7.122402165044766e-06,0.00011167381794838962,0.00016588073287766172,-0.001206357677387904,-0.0016035564509256704,2019-10-01
491,DIS,-2.7562560897797426e-06,2.3072639032625625e-05,0.00021582508548580385,0.0003563838000438279,0.0007006990044601072,-0.00017882319547747537,2019-10-01
492,NOMD,-2.708966226585095e-06,2.8644596428700304e-05,0.0006717060116227275,0.0003158650039424014,-0.0015824427929990552,-0.0022285217473266166,2019-10-01
493,AFL,-1.3344256667449982e-05,4.7534588621391364e-05,0.0004802819805217622,0.0005845910053993766,0.0024537025704772612,0.006668722190824103,2019-10-01
494,WMT,-1.4464294109297859e-05,4.969860848454418e-05,0.00040586151891180137,0.0006112046058152938,0.0003938171062886743,0.0013909322162203837,2019-10-01
495,DG,-3.7459448625187e-06,3.153218809019659e-05,0.00012483731372436158,0.00026791739336120277,0.0008152414201640529,0.0014717834270287272,2019-10-01
496,LII,-2.8340167053755666e-06,4.038878473930988e-05,0.0003114699141473838,0.00035631192636813097,-0.0006005557055274399,-0.0014284762037969044,2019-10-01
497,VMC,-2.6466714069775042e-06,3.871492139118665e-05,0.0001753537897488515,0.0003415450182302312,0.0020500002911402024,0.0032507185190785467,2019-10-01
498,FMX,-2.9054882429959937e-06,5.184481976722949e-05,0.00015589334053475165,0.0004357159052192612,0.0018258154701913025,0.0038737692234837645,2019-10-01
499,IT,-6.792097387162002e-07,2.0916208343867428e-05,0.0006138436864930411,0.0001757846722820206,0.000723403866204879,0.0013836179370013185,2019-10-01
500,LIN,-9.859057158500267e-06,3.833677678135574e-05,0.0003013685001310119,0.0004468115014888315,0.0003584574018914351,-0.0005715937774563194,2019-10-01
501,TM,-3.299244688701104e-05,7.724594222118588e-05,0.0005147755967804129,0.000900294138565997,0.0021158360973431377,-0.000837700646758148,2019-10-01
502,JNJ,-2.2093701495805502e-05,7.518640997486419e-05,0.0005539070114030129,0.0006366404581903656,0.0005806298768291817,0.0005574982528910345,2019-10-01
503,LH,-2.471383115628124e-06,1.5229350132291471e-05,0.00028140220177016003,0.00041846487588955263,0.0011669123630445018,0.0020085129732598426,2019-10-01
504,DGX,-2.707369749615268e-06,1.565522208651304e-05,0.000306842880528879,0.0004301667839105846,0.0008792130328899456,0.002388681596881321,2019-10-01
505,ESNT,-1.2056317994173323e-06,1.4579037108311306e-05,0.00016223169328249534,0.00023600619746067303,0.0007551965980247123,0.0008339274176692189,2019-10-01
506,GHC,-6.0767836236974355e-06,4.571869811487873e-05,0.00037171584742797144,0.0005194885377865148,0.002176812562351758,0.0015719715502542073,2019-10-01
507,GEN           ,4.9228013717973876e-08,1.2987663812223566e-05,0.000403447895642661,0.00010280623905499293,0.0022514091507331037,0.002315776275211155,2019-10-01
508,ARMK,-1.9200596673906617e-06,3.982819379180373e-05,0.00018656186149178296,0.0002504330199986161,0.002274241443332086,0.001623734559740369,2019-10-01
509,BMY,-4.398322151737041e-06,2.034588118825249e-05,0.00017763786260094824,0.00031067192673324244,0.0022849348139118717,0.002956597512286717,2019-10-01
510,SCI,-8.541565561185932e-06,2.2075309880168798e-05,0.0003234855090243114,0.0004905500435290276,0.0013356307262294678,0.0011743490732408744,2019-10-01
511,SON,-1.049058233598989e-05,2.468358541735436e-05,0.0005184005692243499,0.0005485102572359932,0.0006863183070965665,-0.0006099567514573297,2019-10-01
512,FAF,-9.202887936245353e-06,2.0461753348363143e-05,0.000258389386632702,0.00046716576852860324,-0.0021988284026272873,-0.0034546657641480374,2019-10-01
513,THG,-2.724902149681818e-05,3.628980926861756e-05,0.0008050252756748147,0.0008285388034983004,0.0012809143039399175,0.0005244323145974981,2019-10-01
514,ARGO,-1.0570708076164522e-05,3.0131503711762608e-05,0.00046775271589676173,0.0004788516227636758,0.0009857184017449021,-0.00114020996807828,2019-10-01
515,EIG,-3.630502453939366e-06,1.8177220604866398e-05,0.00024343648804252385,0.00042638232835666456,0.0018036900147696804,0.0032225803985915734,2019-10-01
516,PRA,-2.3946126370878063e-06,1.4573184300254695e-05,0.000254496789678635,0.0003418425945631008,-2.3265980233283423e-05,-0.004467231192753578,2019-10-01
517,MCY,-2.8020867439723164e-06,2.172365648643097e-05,0.00019878981313270407,0.00034818306844084334,9.596581052478808e-05,0.0016277123000660336,2019-10-01
518,WTM,-4.394948363202934e-05,8.741881562740991e-05,0.001048445022773664,0.0009757461985518716,0.004996168840699222,0.008471912135031888,2019-10-01
519,NRG,-4.274395952531097e-06,2.0298071111210956e-05,0.00023270449746799787,0.00033531867155194164,-0.003398902929949692,-0.0033172897889731244,2019-10-01
520,ORA,-4.213029154135025e-06,2.0137541611431916e-05,0.00022001284207392985,0.00033266676742194404,0.00029746305453482477,0.002421158473548492,2019-10-01
521,ABC,-1.6562898177316187e-06,1.3413813959458886e-05,0.00013429278429037214,0.00022052944932662714,-0.0014544592575744981,-0.0022177673315470466,2019-10-01
522,MOH,-2.01295567063466e-07,3.535331836321026e-06,8.204843976547078e-05,0.00012666633163372569,0.0014572162867823436,0.002274701644075077,2019-10-01
523,EHC,-1.7834988052011637e-06,4.959131925751557e-06,0.00010148298517634194,0.0002712157097284231,0.0020331749247814307,0.0029646400761325917,2019-10-01
524,USPH,-1.8798567242638177e-06,5.084234928329286e-06,0.0001478361292485873,0.0002780576127350938,-0.00047946832614765027,-4.751426671792878e-05,2019-10-01
525,AMN,-1.172172171437363e-06,8.343217067231886e-06,0.00010810430478805251,0.00020397356771244645,4.090030603778164e-05,-0.0011474951148483746,2019-10-01
526,NVTA,1.580619227796557e-08,2.127790390625369e-06,1.4160503240775491e-05,4.640990323546861e-05,-0.0026506426759424625,-0.001889455200282847,2019-10-01
527,MMI,3.832725676086786e-07,9.027689758279534e-06,0.00013420529404554614,0.00019690577134265813,-0.0006258852512116773,-0.001986261580392023,2019-10-01
528,CLH,5.412328539771581e-07,1.4457978476094878e-05,0.0003405338182657754,0.00023741240660743305,-0.0008888471671822894,-0.0020797381545344874,2019-10-01
529,CODI,5.519432437162917e-07,2.7926636019929272e-05,0.0003207705904472303,0.0003179634860761542,-0.0022598910089897,-0.0041912988656672,2019-10-01
530,STZ,2.343107518116618e-06,2.513678264029521e-05,0.00020865231330088936,0.00028619913373537293,0.00027415974177110575,0.0009392636657503478,2019-10-01
531,JOE,-2.6776032176555435e-06,1.5515277979426722e-05,0.00017213320555171333,0.0002426233044966511,0.00493537835191211,0.007408310628417132,2019-10-01
532,AES,-5.589561428690464e-06,2.4302668147580864e-05,0.0002634807011887205,0.00038003789953813274,-0.003653159018495577,-0.0044831678770666395,2019-10-01
533,PMT,-2.7221973163288495e-05,4.72169615997627e-05,0.0006936917903676634,0.0007871492155630083,-0.0015116979903598646,-0.004157690027665478,2019-10-01
534,RWT,-4.122854971750407e-05,5.884533468988351e-05,0.0007013815771916703,0.000981004653228624,-0.0009177336880929957,-0.0004884885545753186,2019-10-01
535,ATGE,3.8669011165887095e-06,1.0929193198550997e-05,0.00010008249860102319,0.0001716856129656838,-0.0005582024630391818,-0.0025451898234107955,2019-10-01
536,FOR,2.1554390600992976e-06,7.653476748218182e-06,0.00013238719505340822,0.00012022770784312393,0.0010749998122711484,0.0016018627896672898,2019-10-01
537,AJX,-1.9738671180956753e-05,3.924021157254834e-05,0.0004711698772848804,0.0006246209013037669,0.0035207796077766735,0.0024646881944808655,2019-10-01
538,HASI,-8.151843738417145e-06,2.354067179922875e-05,0.0004078107241711529,0.0003747175422167461,-0.003798355583201521,-0.00712458201767876,2019-10-01
539,IBP,-3.6463601041454586e-07,5.958055588993708e-05,9.89015018111965e-05,0.0001282661069362206,-0.002630953718234737,-0.0013891429743117139,2019-10-01
540,KBH,6.231826797318855e-07,1.4345182699735761e-05,9.974862605905824e-05,0.00017278931690100198,0.0012563593754313686,0.002234585361666586,2019-10-01
541,LEN,7.780489215523206e-06,2.321450643329152e-05,8.117314818110866e-05,0.0002796213051281839,0.0021750373782284636,0.002911820921750769,2019-10-01
542,CCS,8.005962008281933e-07,1.3226521538025625e-05,5.62801204638303e-05,0.0001564424524469263,-0.0006318108856936281,0.0013858245731664589,2019-10-01
543,TPH,2.512332076447801e-06,1.8239153858966603e-05,6.262616101273288e-05,0.00021573154756148306,-0.0027360732130996416,-0.004688392465354655,2019-10-01
544,MHO,2.615488762365224e-06,3.0435191333097433e-05,9.795834320815703e-05,0.00019878285590701114,0.0018716852777248146,0.005248298235103113,2019-10-01
545,TMHC,4.865564895125785e-06,3.702539219764871e-05,8.699673622256919e-05,0.00024182575760980888,-0.0020240271685926037,-0.00121058676551516,2019-10-01
546,SKY,6.012109536618334e-07,5.6006487676375064e-05,6.483044141833971e-05,7.488643492993778e-05,-0.0017434137543701127,-0.001956432050170959,2019-10-01
547,CNS,5.352662009869777e-07,6.520618520182604e-05,0.00026560732321876865,0.0003808339145037613,-0.003485351011391462,-0.00821347027085834,2019-10-01
548,LMT,1.0797582789209303e-06,9.61340977132569e-05,0.0005446370231760914,0.0005614670546376548,0.00165878069205161,-0.0003737330204338533,2019-10-01
549,ALL,5.140103374963555e-06,5.272074607924616e-05,0.00019026494240659703,0.0005546700114686103,0.0010290423407876023,0.0034481521132752975,2019-10-01
550,PGR,1.0598108158881043e-06,3.130135790355335e-05,0.0002664587183483821,0.00032931864282136254,-0.0005457841094749389,-0.00031972673053689784,2019-10-01
551,WCN,7.760554649683663e-06,6.239649264926572e-05,0.0002145769065229609,0.000655931806661249,0.0027719996812010325,0.0028772322505114184,2019-10-01
552,AJG,3.6401361340866185e-06,1.766569973262237e-05,9.462350906973535e-05,0.0005870149393247338,-0.00042114629961251363,-0.0010183779046596924,2019-10-01
553,BRO,2.996719110432785e-06,1.6903437651776372e-05,9.045831743720493e-05,0.0005616856721057819,0.0005281790708398829,0.0004038196041121004,2019-10-01
554,AON,1.1062979488236655e-06,2.532987106250951e-05,7.65424999047529e-05,0.00047484595930846757,-0.00015574722812681035,-0.0007641296172835179,2019-10-01
555,ORI,1.6649309021542593e-06,4.204570712043957e-05,0.00021101445271892692,0.00044077372411543503,0.000969407460790922,0.0011072128159688725,2019-10-01
556,RLI,1.994852384081573e-06,4.587540978066456e-05,0.0004339870175482982,0.00048092127827516884,0.0003024694987053959,-0.002057277777181769,2019-10-01
557,AIZ,1.1188358962765458e-06,3.919939502847177e-05,0.0003168059790639452,0.0004249152718324119,0.0007101871195555278,0.0020784242898493586,2019-10-01
558,HIG,5.644784165561048e-06,1.3263543804112465e-05,0.00024586893602832326,0.000745110248908935,0.0014213474174371655,0.001243100081398286,2019-10-01
559,CB,3.531776136326438e-06,6.945806033630367e-06,0.00013254611029579776,0.0007021993974602818,0.0007088667652512729,0.0002909807998580597,2019-10-01
560,TRV,3.307134309789674e-06,6.85496187855017e-06,0.00023386146833871102,0.0006930153357903707,0.0005690480651208595,0.0010755513267185768,2019-10-01
561,WRB,7.090165906577419e-06,2.418063357132093e-05,0.00014306202694775843,0.000757910352087846,0.0009555000663443317,0.0010670884278154362,2019-10-01
562,MKL,8.042706988877638e-06,3.720584042773672e-05,0.00041062862808504774,0.0006507158640817239,0.0007659222280504771,0.000888025462777435,2019-10-01
563,CABO,3.4454381239601106e-06,9.069226439486594e-05,0.0003411004808734585,0.0005003308377224074,0.0006233587704445507,-0.00055192740585608,2019-10-01
564,MMS,8.849774410066923e-07,3.3195179447902945e-05,0.0002776109268170875,0.00026792284155373054,-0.0012633675789733587,-0.0033500232693758135,2019-10-01
565,SAIC,6.717632442672321e-07,2.864688149355618e-05,0.0002275838024891677,0.00023121290558022315,-0.0007640666269755704,-0.0008233618922221367,2019-10-01
566,JRI,0.0002267802914034279,0.00023787431635895212,0.0007130115805624886,0.0015719222456713326,-0.0026309152228707437,-0.0037511948378959946,2019-10-01
567,OUT,-1.6066812278614503e-05,3.85799910625599e-05,0.00035177732658727144,0.0002549444896670821,-0.003277515992641063,-0.005284049547546554,2019-10-01
568,TDG,1.494008418307997e-06,4.1450682342493364e-05,7.699173653837484e-05,0.0001992838508528704,-0.001545819781582882,-0.0012416044219251405,2019-10-01
569,MSI,6.886237197138921e-06,6.41932722746432e-05,0.00022595411460942967,0.0003435905337170163,0.0017091454415411596,0.002539883118409801,2019-10-01
570,APD,6.4052227601086155e-06,1.302277977562078e-05,0.000201366808128572,0.0004679169695996113,0.0009077702681250912,0.00023454241990100892,2019-10-01
571,ECL,8.327873005349104e-06,1.4057476570401604e-05,0.00018097519021030255,0.0005050943001703565,0.0010696214274002363,0.0016861047587375692,2019-10-01
572,SHW,2.430673765283058e-06,1.625224366645218e-05,8.210314957598934e-05,0.0003420511886453246,0.0017058768653908317,0.003030945088113254,2019-10-01
573,ATR,2.8137410716824657e-05,5.585811041950419e-05,0.00042894699818471336,0.0007118928112198444,0.0020420212190551024,0.0033759378822919525,2019-10-01
574,CCK,1.8837132713704368e-06,3.7309051360169784e-05,0.00020384061276341035,0.00030278565608863695,-0.002868290803881856,-0.006991937141773998,2019-10-01
575,EFX,5.152628596644441e-07,3.670343896380753e-05,8.508982758969553e-05,0.0004037523207571677,-0.0007877921040619903,-0.0009533038441525683,2019-10-01
576,TRU,1.974565430189541e-07,2.5621184757938428e-05,5.93977636767625e-05,0.0002818431487241949,0.0009700653091258713,0.002336244581304774,2019-10-01
577,G,7.893723411129216e-07,1.0749427949921356e-05,7.954955185948323e-05,0.0003701021226005632,0.002326289005293354,0.005059931526706908,2019-10-01
578,QTWO,-3.5386720385867766e-08,4.084958602471515e-06,9.820355963490258e-05,0.00014064486562014662,0.00021571685751831346,-0.0006285568882711312,2019-10-01
579,MSCI,-1.0638730517407734e-06,3.7548224698515672e-06,5.1074313155600924e-05,0.00021600765000054524,-0.0021448377691601892,-0.0010236881465802725,2019-10-01
580,PAYC,-1.6819791929349936e-07,2.0722478307160405e-06,2.6311043460930502e-05,0.00011921239625195776,-0.0016960431349539366,-0.0010885729457235094,2019-10-01
581,BR,6.207322578819564e-07,4.254488359374529e-06,9.74248556705413e-05,0.0004120371440125402,0.00026314130612634773,0.001113861580463052,2019-10-01
582,EPAM,3.04414630156373e-09,1.8236737929089782e-06,3.7142485130458535e-05,0.00017661849740051988,-0.0023174332586341703,-0.001347790785276705,2019-10-01
583,ACN,1.263040473970836e-06,5.0121821887283105e-06,0.00010843261035383648,0.0005044797652909793,-0.00028792617188349353,-0.0007292289847640373,2019-10-01
584,GIB,6.5824202653562925e-06,8.029057052820066e-06,0.00029741357447715753,0.0008081304040829843,0.002005601639808727,0.0031946587814313397,2019-10-01
585,FIS,3.0068495039726727e-07,6.41475271914728e-06,9.468171880975545e-05,0.0003855181230742462,-0.00010449545831746512,-0.0026130701570492103,2019-10-01
586,FI,1.1324629700293498e-07,5.157000676758929e-06,0.00019521898519015516,0.0003099288949459306,-0.0007269286984934779,-0.003219519223993998,2019-10-01
587,GPN,1.631639809798015e-07,9.118981661134049e-06,0.00011602772276792734,0.00031139086930277173,-0.001658905960841658,-0.001955025807258255,2019-10-01
588,TYL,3.3376257673631364e-07,1.70144377132375e-05,8.31965323468762e-05,0.00033875357777460237,0.0015256025381627774,0.0022762594555145598,2019-10-01
589,CACI,1.942741186618693e-08,2.450356525733155e-05,5.836236218319774e-05,0.0002775224295664693,0.0024931091908699694,0.003907541007146118,2019-10-01
590,LDOS,4.200614429741664e-08,3.1771651646564364e-05,0.00012982618254038145,0.0003598393076148736,0.0008562667007890247,0.00012013446709698702,2019-10-01
591,BKI,2.3773396427738096e-06,0.0001286271091229197,0.00045801966553872704,0.0005434563543885861,0.0037327660680508156,0.006434571501081627,2019-10-01
592,FLT,5.489271691282855e-07,6.426132084328837e-05,0.00018959313656212521,0.00027150748696618183,0.000675533787489029,0.0013947530439509285,2019-10-01
593,PRO,-7.840903139500888e-08,3.277656630687718e-05,9.748339496508623e-05,0.00013750895454122522,-0.002484852570419045,-0.0020690990150196245,2019-10-01
594,EGHT,-9.556929468216358e-08,1.4100050499793678e-05,8.615427076773092e-05,0.00015261736109279083,-0.001891774717052365,-0.004516124431137009,2019-10-01
595,CRM,-2.2410122987010328e-07,4.421789274610815e-06,5.557771999451085e-05,0.0002274930078200262,0.0010696874303389654,0.0010457277867140487,2019-10-01
596,NOW,-6.182377853655696e-08,3.0994573960118756e-06,3.8957255670132614e-05,0.00015946144011822624,-0.00028772672683436464,0.0016750436532769132,2019-10-01
597,VEEV,-2.342087463284377e-08,3.892368737644533e-06,2.7238036458560877e-05,0.00011847838947680519,0.0017753042071855989,0.0034603464039670816,2019-10-01
598,HUBS,-7.757343073462658e-09,3.2713228565267146e-06,2.2517863966712332e-05,0.00010202592405479824,0.0019397088456114835,0.004157391169559282,2019-10-01
599,RNG,-1.4247935343735354e-08,3.987457526575954e-06,3.160397365323557e-05,0.00012436071174280614,0.0026096770544194515,0.003903806015807735,2019-10-01
600,LYV,-7.633872468276933e-07,4.777669020145954e-05,0.0001149560403083168,0.0003170688402680133,0.0021644912740978544,0.0032560393672940173,2019-10-01
601,GDDY,-3.47497899259961e-07,3.713977333571811e-05,9.3725250113813e-05,0.00023398339103406816,0.002542188400647899,0.004248144326463047,2019-10-01
602,SQ,-6.4804752856919584e-09,1.458719187614664e-05,6.163874601577167e-05,9.190041603088873e-05,-0.0031832392139582847,-0.004576870495579226,2019-10-01
603,GLOB,-1.0410535220883195e-07,3.02306129855975e-05,5.0822659445822454e-05,0.00012307784084371359,0.0029549275819046343,0.004166035472246664,2019-10-01
604,QGEN,4.529811009669105e-06,7.010831200553666e-05,0.00041275094645973234,0.0005125700083800196,0.0014279611153880625,0.003616485886935861,2019-10-01
605,THW,1.1548442620897708e-05,0.00011176538399438735,0.00013875565098350363,0.0008171296979176318,-0.0008124128097931251,-0.0002502275074099589,2019-10-01
606,BIO,3.9008324262924994e-07,4.334177605172369e-05,0.00014912731598997373,0.00021478699543769407,0.0006614625099389692,0.0010560310808633631,2019-10-01
607,CTLT,1.2453666293638223e-07,4.014784865163827e-05,8.493181374818338e-05,0.00019895898531896268,0.0001679060885537523,0.0004123518522922244,2019-10-01
608,MDT,5.797716176338546e-06,9.963327620857114e-05,0.0003800095267744389,0.0006925665062199592,0.0017293897102415177,0.00240563155623912,2019-10-01
609,ZBH,1.074081494515695e-06,4.676269287351359e-05,0.00018238006134982013,0.0003250548015408952,-0.0014788940401440824,-0.0016045490415631334,2019-10-01
610,COO,7.105511034794528e-07,4.6448459760670114e-05,0.00023038608188137745,0.0003479194682619657,-0.0011187211445034782,-0.002711855991143569,2019-10-01
611,ZTS,4.920983436126301e-07,1.0023410098812977e-05,0.00013387969877564786,0.0003667045684250982,-0.0013162671461828162,0.0004991566082248645,2019-10-01
612,BAX,8.822482746375163e-07,4.528302716165951e-06,8.849817189909156e-05,0.00048751549265071276,0.00019716404619200573,0.0005656124341732994,2019-10-01
613,BSX,2.2916452692819045e-08,8.701710452112423e-07,5.444968157087618e-05,0.0002907313901533951,-0.0012828744661292422,-0.00023065770285489093,2019-10-01
614,ABT,3.590967380874099e-07,7.257282779372028e-07,0.00013160093080177648,0.0004274299849230016,-4.067721092462992e-05,-0.0014070996705008625,2019-10-01
615,DHR,3.763533482351837e-07,7.338517259784364e-07,7.845942801606382e-05,0.00043221442750205697,0.0013501273799930383,0.0029353934489823566,2019-10-01
616,SYK,4.784890452378335e-07,2.287084219612548e-06,0.00014510997268821676,0.0004413155069418419,-0.002319370702384458,-0.00454721762440381,2019-10-01
617,IQV,3.893783557943467e-07,5.7662301038303705e-06,7.321204970554068e-05,0.00034850261967238344,0.001114950213385974,0.0003779398281120578,2019-10-01
618,HAE,1.564760003812769e-08,5.024572164039922e-06,6.732737378857565e-05,0.00017426881013016805,0.0018121369195394684,0.0040278031688100535,2019-10-01
619,STE,1.818258178197764e-07,1.0439708270963352e-05,0.000130619834478216,0.0003620836718213373,0.0009478328339573904,0.0015451309551375166,2019-10-01
620,EW,5.655628016453643e-08,1.2003289162697745e-05,9.758739617685701e-05,0.0002286056127428737,-0.001655108405547855,-0.002322786683777445,2019-10-01
621,RMD,9.48932498777963e-08,1.5511004916272682e-05,0.00010656798259670607,0.00029541092737828367,-0.00019265115092724307,-0.0012977509408553976,2019-10-01
622,FDS,5.364821903644053e-07,6.696448722718674e-05,0.00019641729605750596,0.00025179010532240954,-0.0005638448173160897,-0.0010992246418298822,2019-10-01
623,PHG,9.550729319861928e-07,9.15677245725794e-05,0.00021283162704778376,0.00034429961265951086,-0.0018062077180432848,-0.0035309888736812472,2019-10-01
624,CHE,1.8200037605415904e-06,8.528957604625946e-05,0.00014301103354869699,0.00046870708729387694,0.00023108845119027645,-0.001408659529833001,2019-10-01
625,WST,7.471962789354878e-07,5.4622532944061806e-05,0.0002587866884151619,0.00030017699118282666,0.0011347181535725091,0.0025631847552393446,2019-10-01
626,FC,3.7933754690059285e-07,5.830060173057361e-05,0.0001047702139154715,0.0002171413814645185,-0.0016157513579084584,-0.003288273230041117,2019-10-01
627,ALEX,-2.3478079308513394e-07,0.00011950215666719732,9.334855030047592e-05,0.00030464565851787953,0.00020369999994609313,-0.000543979816497378,2019-10-01
628,WSR,-4.2266706785056514e-07,0.00015615921460424484,9.935621850829009e-05,0.00039809513144798027,-0.0016916226633675133,0.0003497702650509049,2019-10-01
629,GNL,-8.29140808764774e-07,0.00019459764920611857,0.00015494464788830725,0.0004855309815169764,-0.0017682218147312757,-8.354068055502873e-05,2019-10-01
630,OLP,-7.880505893905908e-07,0.00018973485491060766,0.00018271495521956702,0.00047339806368962013,-0.0009972934330492154,-0.00025521918081499324,2019-10-01
631,IGR,-1.4157093207159678e-05,0.0006330173223171729,0.000661617021483149,0.0014586165814638166,-0.0020519088670858977,-0.001944950655507255,2019-10-01
632,JRS,-3.827478137076845e-06,0.0004181073592566088,0.0004349681236527865,0.0009634149106873405,-0.0031400394706481392,-0.004565639824034201,2019-10-01
633,UMH,1.0260190287339432e-07,0.00021747888902872724,9.727329023048057e-05,0.0003048133428592924,-0.0011400220823420382,-0.002784254854619187,2019-10-01
634,GTY,-1.972109004095333e-07,5.375710213842757e-05,0.00013257648036579356,0.0006144256785638809,6.523945865359356e-05,-0.001881177410727222,2019-10-01
635,UHT,-9.318676335753595e-09,2.6044459718682626e-05,7.098794346694101e-05,0.0002976794544146778,-0.0029695877824364365,-0.003464598626700964,2019-10-01
636,AHH,-2.5185056249836215e-07,9.367579511670337e-05,0.0001427589011555209,0.0006616161062014921,0.000660112243139104,0.00422381434497191,2019-10-01
637,ARE,-1.2251093806877907e-07,8.817680166909705e-05,0.00018368215279730685,0.0006289027979462931,-0.0006217848795280803,-0.0025364158746998553,2019-10-01
638,STAG,-8.362386800931381e-08,7.909697591092259e-05,0.00010356505518020053,0.000564142818948529,-0.0004809985138303973,0.0014965302683269553,2019-10-01
639,AAT,-1.7135034805179204e-07,8.629398710218991e-05,0.0001896975556269126,0.0006228189060902053,0.000918314973310301,0.002082149108582189,2019-10-01
640,EGP,-2.710140719778179e-07,5.702581345455191e-05,0.00013644695527648186,0.0007329462461186994,0.0002909658229021796,0.0024203297607299145,2019-10-01
641,REXR,-1.1015657521890087e-07,4.73695482058282e-05,0.00011334219073716462,0.0006088353753247371,0.0013496237637653419,0.002148422110252965,2019-10-01
642,CUZ,-1.9328425825348443e-08,5.825995338605166e-05,0.00011360860466077132,0.00046745607423526517,0.0001195846322430472,0.0031549612975916618,2019-10-01
643,ESRT,-1.820911750496654e-08,5.702607062899368e-05,9.398853177848741e-05,0.0004575558605179815,0.0018187478615594524,0.0022141631951067687,2019-10-01
644,PDM,-6.138534647348317e-08,2.6899277985597175e-05,0.0001156809518712459,0.0006301409116592664,-0.0004985966920682884,0.0008726826119248355,2019-10-01
645,BDN,-2.898913750975555e-08,1.3341541223649007e-05,9.287591572253294e-05,0.0005534836139361582,0.0002892818013638112,0.0004272465335696366,2019-10-01
646,HIW,-2.3056483123401318e-08,1.2662537589361322e-05,0.00017415286410698056,0.0005253146506146518,0.00042340813953178837,0.0018380102606417397,2019-10-01
647,BXP,-1.0894195074195809e-07,2.811833067686195e-05,0.00010890926883212816,0.0006682369612409892,0.0005067122591655701,0.0005200603556882404,2019-10-01
648,DEI,-1.3524414756060163e-07,1.6591199658764295e-05,0.0001154428607594669,0.0007083252628367257,0.00043217529432298984,-0.001161638954681616,2019-10-01
649,HPP,-5.5001970297510955e-08,1.3967561620856514e-05,0.00020878216201266242,0.000596314730686462,0.00045511249930876906,0.0002818003589823447,2019-10-01
650,PGRE,-4.430636477526426e-08,1.3989009072074117e-05,0.00016563461091036617,0.0005912264363778524,9.975459604139476e-05,-0.0017854454484618073,2019-10-01
651,SLG,-3.616652009403172e-08,1.3407140543374663e-05,9.508267601348226e-05,0.0005666345546447742,-0.0007913758505832727,-0.0012485520996358536,2019-10-01
